{"linear_1.weight": [[-0.007486820220947266], [0.5186010599136353], [-1.0710804462432861], [-0.7359390258789062], [-0.3851543664932251], [0.11921175569295883], [0.0339055098593235], [1.1133983135223389], [-0.01181465107947588], [0.2646125555038452], [-0.021538428962230682], [-0.1965653896331787], [-1.1107221841812134], [-0.7400408387184143], [-0.3167872130870819], [-0.0066336398012936115], [0.39533519744873047], [0.4288012981414795], [-0.010134587995707989], [-0.4817720055580139], [0.39042648673057556], [0.6175845265388489], [0.015293939970433712], [0.9541550874710083], [0.01720103621482849], [0.10581409931182861], [1.0235724449157715], [-1.1355085372924805], [-0.10809099674224854], [-0.5125662088394165], [-0.38979995250701904], [0.7875321507453918]], "linear_1.bias": [-0.6481796503067017, -0.5821845531463623, -0.5453333258628845, -0.9365609884262085, -0.5837404727935791, 0.005664874333888292, -0.06074003502726555, 0.6339773535728455, -0.019774029031395912, -0.5126835107803345, -0.0730661004781723, -0.9336947202682495, -0.6531615257263184, -0.5904588103294373, 0.4948757588863373, -0.04257183149456978, -0.4434950351715088, -0.26441851258277893, 0.13690783083438873, 0.6965635418891907, 0.22884970903396606, 0.190021812915802, -0.10210320353507996, -0.450668603181839, -0.026968851685523987, -0.7753055095672607, -0.7470414042472839, -0.36099931597709656, -0.007091987878084183, 0.23848150670528412, -0.5923525094985962, 0.34599924087524414], "lstm.weight_ih_l0": [[0.38476428389549255, 0.4302610158920288, 0.558819055557251, 0.22559703886508942, -0.02812887355685234, -0.2318601757287979, 0.5400874614715576, -0.2203504592180252, -0.5108473300933838, -0.18520912528038025, 0.21825359761714935, -0.2725068926811218, 0.646004855632782, 0.45440077781677246, -0.1409347653388977, 0.07644026726484299, 0.1292901188135147, 0.11240340769290924, -0.11212480068206787, -0.502217173576355, 0.18683424592018127, 0.16681577265262604, -0.045927178114652634, -0.052460528910160065, -0.11900284141302109, 0.08906746655702591, 0.37566283345222473, 0.0389331690967083, 0.0590268075466156, -0.1913226991891861, -0.06689272820949554, 0.25964683294296265], [0.07896555215120316, 0.7397966980934143, 0.27845343947410583, -0.13400083780288696, 0.10050555318593979, -0.2140284925699234, 0.01837829500436783, 0.30977705121040344, 0.35335102677345276, 0.22966383397579193, -0.04018304869532585, -0.030906952917575836, 0.5047172904014587, 0.7625563740730286, 0.2194635272026062, 0.039350301027297974, 0.2854308485984802, 0.9732717275619507, -0.19788089394569397, 0.04078473150730133, -0.261104017496109, -0.3225858509540558, -0.11111049354076385, 1.0656954050064087, 0.10521537810564041, 0.5570672750473022, 0.6476012468338013, 0.5459630489349365, -0.6425982117652893, -0.20553655922412872, 0.08580487221479416, 0.18225614726543427], [0.20960508286952972, 0.22470685839653015, 0.5337777137756348, -0.020888552069664, 0.06712480634450912, -0.4065345823764801, -0.0950511023402214, -0.4429337978363037, -0.3908158242702484, 0.10277889668941498, -0.3526838421821594, -0.1580391824245453, -0.011368902400135994, 0.7030325531959534, -0.13043993711471558, -0.05270319804549217, -0.4805026054382324, 0.11148053407669067, -0.285387247800827, -0.5731828212738037, -0.3018324077129364, 0.10553153604269028, -0.2874877452850342, -0.3795034885406494, 0.518918514251709, 0.08020764589309692, 0.2194601148366928, 0.4305836856365204, -0.586219072341919, -0.34945401549339294, -0.17077766358852386, 0.0543181374669075], [0.07925881445407867, 0.5920155644416809, 0.7001965045928955, 0.2604801654815674, 0.1600034087896347, 0.08781887590885162, 0.41082605719566345, 0.09836013615131378, -0.391222208738327, 0.06394393742084503, -0.41794443130493164, 0.12681834399700165, 0.10606101900339127, 0.6242215037345886, -0.04259256273508072, -0.013265084475278854, 0.0023303597699850798, 0.7650174498558044, -0.05783085897564888, -0.32190391421318054, -0.03532504290342331, 0.2387557476758957, 0.21548080444335938, 0.7777732610702515, 0.030870407819747925, 0.053161121904850006, 1.4240223169326782, -0.0009256225894205272, -0.14898724853992462, 0.25074613094329834, 0.23699532449245453, 0.09863732010126114], [0.12083785235881805, 0.4815564453601837, 0.6860054135322571, -0.04069359600543976, -0.005657310597598553, -0.04522300511598587, -0.17413455247879028, 0.08825992792844772, -0.24265210330486298, -0.27923741936683655, -0.1403055489063263, -0.2885860800743103, 0.3334377110004425, 0.21389073133468628, 0.10409478843212128, -0.4914337396621704, -0.09886334091424942, -0.07580769062042236, -0.49644067883491516, -0.27396515011787415, -0.2803899347782135, -0.18418274819850922, 0.05046769231557846, 0.5381194949150085, 0.1959439069032669, -0.2114366590976715, 0.6744118332862854, 0.10566876828670502, 0.24392087757587433, -0.2170698642730713, -0.14294910430908203, 0.09922295808792114], [0.2451396882534027, 0.17166253924369812, 0.46613675355911255, 0.35645791888237, -0.2893359959125519, -0.05178462713956833, -0.17189493775367737, -0.031181298196315765, -0.12527336180210114, -0.42096829414367676, -0.4850086271762848, -0.07085137069225311, 0.6210064888000488, 0.4685079753398895, -0.439369797706604, -0.12369126081466675, 0.23571816086769104, -0.15024293959140778, -0.3972727060317993, -0.7716556787490845, -0.5098116397857666, 0.07308176904916763, 0.08888326585292816, 0.0317310094833374, 0.027902530506253242, 0.10839804261922836, 0.3350960314273834, 0.1119927242398262, -0.3228760361671448, -0.476668119430542, 0.16095882654190063, 0.23244701325893402], [0.06818726658821106, 0.45689287781715393, 0.31161096692085266, -0.07546599209308624, -0.04060041531920433, -0.05544545501470566, -0.123782217502594, -0.1912342607975006, 0.21113982796669006, -0.23559246957302094, 0.11828583478927612, 0.054886799305677414, 0.05759857967495918, 0.27665096521377563, -0.35188794136047363, -0.025751210749149323, -0.021203041076660156, -0.04523077234625816, -0.01529868133366108, -0.12652967870235443, -0.14554890990257263, 0.619046151638031, 0.1553802192211151, 0.08790993690490723, 0.2999875545501709, 0.0027398953679949045, 0.7939838171005249, 0.5404689311981201, -0.2471279799938202, -0.18882814049720764, 0.3252266049385071, 0.09175317734479904], [0.26339104771614075, 0.4770177900791168, 0.3781704604625702, -0.3627651035785675, -0.04406362399458885, 0.05056273564696312, -0.10125376284122467, 0.25247523188591003, 0.09308994561433792, -0.22640299797058105, -0.5945534706115723, 0.28699246048927307, 0.416081964969635, -0.10740625113248825, -0.5910623073577881, -0.2357734739780426, -0.16773460805416107, -0.025651725009083748, -0.31301021575927734, -0.4997120201587677, 0.04753858968615532, 0.5208709239959717, 0.02900056540966034, 0.19861680269241333, -0.017326047644019127, -0.07463707029819489, 0.3494938611984253, 0.3317219614982605, -0.008651267737150192, -0.2233126312494278, -0.0038621125277131796, -0.012717182748019695], [-0.040109582245349884, 0.21464087069034576, 0.2127821147441864, 0.02473328448832035, 0.012628492899239063, 0.18327602744102478, -0.30452945828437805, 0.07021064311265945, 0.267150342464447, -0.09791132807731628, -0.042034681886434555, -0.06904859095811844, 0.5874377489089966, 0.5480092167854309, 0.07827042788267136, -0.3869604766368866, 0.04071648791432381, 0.4323432743549347, -0.22772005200386047, -0.2006043642759323, -0.1055675745010376, 0.08419700711965561, 0.0010201855329796672, 1.1871882677078247, 0.20412418246269226, 0.06796327978372574, 1.091498851776123, 0.45387229323387146, 0.05290955305099487, -0.39436617493629456, 0.7299207448959351, 0.6197257041931152], [-0.29470378160476685, 0.3581579327583313, 0.6285613179206848, -0.5997375249862671, -0.1575639396905899, -0.6707320809364319, -0.025695547461509705, -0.2136899083852768, -0.1236174926161766, -0.48632529377937317, -0.001417610445059836, 0.38737767934799194, 0.5276138186454773, 1.0097007751464844, -0.5223029851913452, 0.29833659529685974, 0.0861850157380104, 0.20534974336624146, 0.1911425143480301, 0.2161608338356018, -0.07317301630973816, 0.21077236533164978, -0.35339784622192383, 0.9093064665794373, -0.16743715107440948, 0.00038197022513486445, 0.8731616735458374, -0.029764538630843163, 0.20823249220848083, -0.3624282777309418, 0.33390194177627563, 0.033391255885362625], [-0.22929884493350983, 0.2908419370651245, 0.5797654986381531, 0.5606169700622559, 0.16529053449630737, -0.1756610870361328, 0.25443747639656067, -0.14619112014770508, -0.4684039056301117, 0.17957070469856262, 0.3261314630508423, 0.29422083497047424, 0.5751264095306396, 1.0438871383666992, -0.3175704777240753, -0.17699795961380005, -0.28085848689079285, 0.7181194424629211, -0.3394986391067505, -0.34738224744796753, 0.1447235643863678, -0.18355382978916168, 0.04887938126921654, 0.35215380787849426, 0.10708581656217575, 0.29789841175079346, 0.8068996071815491, -0.02751133032143116, -0.2134324014186859, -0.22572582960128784, 0.04640331119298935, 0.4266158640384674], [0.07733675837516785, 0.833854079246521, 0.6363899111747742, 0.11180838197469711, 0.3351840078830719, -0.08416255563497543, 0.3025161325931549, 0.4693259298801422, 0.18793398141860962, -0.19970889389514923, 0.1087532490491867, 0.05850180611014366, 0.5027247667312622, 0.5256903767585754, -0.17586147785186768, -0.16871987283229828, -0.004105365369468927, 0.507473349571228, -0.16534525156021118, 0.22404398024082184, -0.4060899615287781, 0.12696407735347748, -0.08774805814027786, 0.5582553744316101, -0.22442303597927094, 0.17489370703697205, 1.157515525817871, 0.17146587371826172, 0.08011141419410706, -0.35972970724105835, 0.7564505338668823, -0.11735032498836517], [-0.11812929064035416, 0.022113673388957977, 0.4924848675727844, 0.21514537930488586, -0.3887970447540283, -0.6997875571250916, -0.6460566520690918, -0.29987114667892456, 0.05267662927508354, -0.3150641620159149, -0.45097851753234863, 0.17384743690490723, 0.384000688791275, 0.33079713582992554, -0.10602865368127823, -0.2838599383831024, 0.31557607650756836, -0.022508589550852776, -0.35570231080055237, -0.23083508014678955, -0.4583350718021393, -0.3440457582473755, -0.15422892570495605, -0.09078569710254669, -0.19295522570610046, 0.03909367695450783, 0.13449501991271973, 0.1421125829219818, 0.1990763545036316, -0.5195735096931458, 0.33234673738479614, 0.03930346667766571], [-0.17763999104499817, 0.4714813530445099, 0.26491743326187134, 0.12327311187982559, 0.12303289771080017, 0.0155101977288723, -0.2000305950641632, 0.20108258724212646, 0.07536463439464569, 0.38131576776504517, -0.6047184467315674, 0.2364935427904129, 0.0988585576415062, 0.4337252378463745, -0.6171532869338989, 0.2402416169643402, 0.23007208108901978, 0.5619356632232666, 0.2072097808122635, -0.16009292006492615, -0.3141288757324219, -0.22971674799919128, -0.2378319501876831, 0.38744792342185974, -0.14416179060935974, 0.5088669061660767, 0.859782338142395, 0.18262070417404175, -0.13730329275131226, -0.06695544719696045, -0.16397301852703094, 0.26250016689300537], [0.04831754416227341, 0.44553342461586, 0.28379932045936584, 0.0842272937297821, -0.0909641832113266, 0.4294351637363434, 0.08634534478187561, 0.003263921942561865, 0.16391940414905548, -0.12876670062541962, 0.31218963861465454, -0.7081202864646912, 0.43352746963500977, 0.4444912075996399, -0.6292761564254761, -0.00044883525697514415, 0.07593110203742981, 0.2521979808807373, -0.02868827059864998, -0.3476576507091522, 0.20483817160129547, 0.36303550004959106, 0.06611679494380951, 0.1796964555978775, 0.2705441415309906, -0.2916964292526245, 0.2753627896308899, 0.27592042088508606, 0.012953698635101318, -0.12306611239910126, -0.06694334745407104, 0.11909811198711395], [0.09177885204553604, 0.3682127892971039, -0.12224908918142319, -0.19152803719043732, -0.39412131905555725, -0.2670762240886688, -0.30336636304855347, 0.1403966248035431, -0.018747955560684204, -0.05309687554836273, 0.02670947089791298, 0.2460727095603943, 0.36767610907554626, 0.8087635636329651, -0.28211483359336853, -0.20783990621566772, 0.28319594264030457, -0.19624829292297363, 0.04286067560315132, -0.7005953788757324, -0.7078615427017212, 0.031310468912124634, 0.11282951384782791, 0.7153065800666809, -0.22910544276237488, -0.25576621294021606, 0.5656390190124512, 0.12087129056453705, -0.7238762974739075, -0.3022497892379761, -0.03605863079428673, 0.5106601119041443], [-0.011434937827289104, 0.40363308787345886, 0.5325220823287964, -0.07503249496221542, 0.38237106800079346, 0.0008598305867053568, -0.21325525641441345, -0.16021206974983215, -0.309007465839386, 0.3852253258228302, -0.11705484986305237, -0.1913132518529892, 0.4059145152568817, 0.354139119386673, -0.6889669895172119, -0.585620641708374, -0.07997514307498932, -0.40692588686943054, -0.598666250705719, -0.6129365563392639, 0.03017084300518036, -0.09064742922782898, -0.2575758695602417, 0.050616469234228134, -0.513725996017456, -0.31487372517585754, 0.29154953360557556, 0.12589682638645172, 0.09058374166488647, -0.06821707636117935, 0.20080313086509705, -0.34525832533836365], [-0.11821376532316208, 0.1973578780889511, 0.1898222267627716, 0.20289427042007446, -0.5418668985366821, -0.1621612012386322, 0.13989268243312836, 0.07497385889291763, -0.31727489829063416, 0.1551128476858139, -0.04243725910782814, 0.13372287154197693, 0.5427167415618896, 0.2011447697877884, -0.32096514105796814, -0.017164364457130432, -0.11168677359819412, 0.6656205654144287, -0.3775689899921417, -0.00038570602191612124, 0.04298430681228638, 0.3590942323207855, 0.25115105509757996, 0.31068384647369385, 0.1333947628736496, 0.08173365145921707, 0.4843801259994507, 0.17672976851463318, -0.27433618903160095, 0.21742920577526093, 0.08391964435577393, 0.5192938446998596], [-0.10984856635332108, 0.19388264417648315, 0.5649613738059998, 0.16010765731334686, 0.5078794956207275, 0.3729591965675354, 0.3060615062713623, 0.3279460668563843, 0.38603344559669495, -0.10631632804870605, -0.15274357795715332, 0.1398264467716217, 0.11998368054628372, 0.4323876202106476, -0.16383226215839386, -0.05960683897137642, -0.362541139125824, -0.13225166499614716, -0.40045690536499023, -0.3415626287460327, 0.12366556376218796, 0.11066519469022751, -0.17939259111881256, 0.5260654091835022, -0.014206238090991974, 0.06276454776525497, 0.860260009765625, 0.14929139614105225, 0.02532087080180645, -0.6281924843788147, 0.46335718035697937, 0.010858152993023396], [0.22924719750881195, -0.1944543570280075, 0.6139186024665833, 0.028212379664182663, 0.28989532589912415, -0.20931702852249146, -0.09059987962245941, -0.25624096393585205, -0.02794780395925045, -0.2985997200012207, -0.09066660702228546, 0.0713917687535286, -0.15292973816394806, 0.6970034241676331, -0.7069376707077026, 0.3898126482963562, 0.0675523430109024, 0.1530902236700058, -0.537328839302063, -0.9463063478469849, 0.0018565269419923425, -0.0835980549454689, 0.4864038825035095, 0.40910574793815613, 0.04837750643491745, -0.2043263018131256, 0.23832857608795166, 0.30208852887153625, -0.09120889008045197, -0.14359982311725616, 0.03514735773205757, -0.5313752889633179], [0.292193204164505, 0.15616607666015625, 0.28883135318756104, 0.09531216323375702, -0.23056329786777496, -0.2537664473056793, 0.14073659479618073, 0.1617511510848999, 0.31643739342689514, -0.1366577297449112, 0.05306044593453407, -0.030186673626303673, -0.1413472592830658, -0.011962532997131348, -0.5552761554718018, 0.1417926847934723, -0.24314194917678833, -0.10559415072202682, -0.14729106426239014, -0.3680266737937927, 0.09712358564138412, -0.2581576704978943, 0.2587309181690216, 0.44012612104415894, 0.3636802136898041, -0.14930084347724915, 0.8142850995063782, -0.29821541905403137, -0.2640032172203064, -0.26041170954704285, 0.3632056415081024, -0.12221401184797287], [0.2263394445180893, 0.24064555764198303, -0.061403702944517136, -0.23079587519168854, -0.3343258500099182, -0.1325380504131317, 0.2032082974910736, -0.06008042395114899, -0.22253075242042542, 0.3229900896549225, -0.560625433921814, -0.08716660737991333, -0.03615562617778778, 0.5082949995994568, -0.3868957459926605, -0.46744564175605774, 0.02840258553624153, 0.2237965613603592, -0.3850913345813751, -0.11954636871814728, 0.35181647539138794, 0.3937057852745056, 0.4629374146461487, 0.3885304927825928, -0.024323513731360435, -0.1424640417098999, 0.6939180493354797, -0.027291785925626755, -0.5425252318382263, -0.5353637933731079, 0.3376205265522003, 0.329387903213501], [0.1344752311706543, 0.21121729910373688, 0.7902910113334656, -0.1672143042087555, 0.1345200091600418, 0.2925482392311096, -0.36608344316482544, 0.11403720825910568, 0.10736017674207687, 0.530705451965332, -0.28090623021125793, -0.08664680272340775, 0.43153703212738037, 0.279598206281662, 0.36188241839408875, -0.3909960389137268, -0.23636069893836975, 0.20907904207706451, -0.12151803821325302, -0.25281935930252075, 0.19738076627254486, 0.4688794016838074, 0.3467259407043457, 0.46891313791275024, 0.1767619103193283, 0.1642954796552658, 0.4162396788597107, 0.008314939215779305, -0.1411813646554947, -0.5714068412780762, -0.6452953219413757, 0.18118569254875183], [0.05751268193125725, 0.30778059363365173, 0.4936220943927765, -0.16651290655136108, 0.24022269248962402, -0.10129404067993164, 0.26378288865089417, 0.3044278621673584, -0.17447498440742493, -0.11016786843538284, -0.2008095681667328, -0.09421701729297638, 0.8489702343940735, 0.5806013941764832, -0.6545802354812622, -0.6286692023277283, -0.11068994551897049, 0.4698166251182556, -0.05692078545689583, -0.24146954715251923, -0.524637758731842, 0.05202986299991608, -0.3897601068019867, 0.7009421586990356, 0.06402886658906937, -0.19645361602306366, 1.0789629220962524, -0.13420502841472626, -0.051742881536483765, -0.001077092718333006, -0.19459275901317596, 0.18994849920272827], [-0.4132906198501587, 0.5308024883270264, 0.39867347478866577, 0.3154977858066559, -0.3766331672668457, 0.6456827521324158, -0.17769715189933777, 0.0684923306107521, -0.3508926033973694, -0.06385041773319244, -0.22202511131763458, -0.0035924825351685286, 0.22431454062461853, 0.5490847229957581, -0.5149876475334167, 0.26099151372909546, -0.2187708169221878, -0.05369577184319496, 0.3487772047519684, 0.025989798828959465, 0.30663442611694336, -0.32921522855758667, -0.18121151626110077, 0.33452853560447693, -0.18666569888591766, 0.20579823851585388, 0.7446069121360779, 0.13576796650886536, -0.11449453979730606, -0.14760424196720123, 0.2569763958454132, -0.14507827162742615], [-0.03453419357538223, 0.10206472128629684, -0.3007849156856537, -0.23589976131916046, 0.05461626127362251, 0.2157604694366455, -0.41822245717048645, -0.222728431224823, -0.11645868420600891, 0.0858253762125969, -0.032377470284700394, 0.0453840047121048, 0.1089177057147026, 0.3890841007232666, -0.371815025806427, -0.2672538161277771, 0.13131366670131683, -0.2616172432899475, -0.24517185986042023, -0.2788877487182617, -0.5059724450111389, 0.35665953159332275, -0.015638500452041626, 0.4164198935031891, 0.05529991537332535, -0.17905347049236298, 0.06787426024675369, 0.21862079203128815, 0.03150855377316475, -0.4501897096633911, -0.10968071222305298, -0.18748776614665985], [-0.08626538515090942, -0.11193303763866425, 0.3777618110179901, 0.5962604880332947, -0.17660002410411835, -0.036031220108270645, -0.09838195890188217, 0.29881972074508667, -0.06574241816997528, 0.13326561450958252, -0.26934391260147095, 0.10959029197692871, 0.7977627515792847, 0.20541636645793915, -0.6065436601638794, -0.0711403414607048, 0.22015301883220673, -0.1016899049282074, -0.12522028386592865, 0.1957882195711136, -0.43172135949134827, -0.16006016731262207, -0.14421764016151428, 0.25312718749046326, 0.5415456891059875, -0.40169385075569153, 0.6765188574790955, 0.05065278708934784, -0.5338536500930786, -0.41700464487075806, -0.16507165133953094, -0.17579588294029236], [0.2381725162267685, 0.24438144266605377, 0.3662150204181671, -0.1334073543548584, -0.28646743297576904, -0.038922376930713654, -0.6008673906326294, -0.2569793164730072, 0.03664163872599602, 0.05704689398407936, -0.16141527891159058, -0.6333046555519104, -0.18683934211730957, 0.1831875592470169, -0.2797069549560547, -0.16665178537368774, 0.01231951080262661, 0.13468106091022491, -0.02843257039785385, -0.6389520168304443, -0.21779897809028625, 0.18100646138191223, 0.07431601732969284, 0.5920916795730591, 0.19549977779388428, 0.06390784680843353, 0.7473775148391724, 0.4034111201763153, -0.17612721025943756, -0.032880306243896484, 0.16914266347885132, 0.12941564619541168], [0.11849838495254517, 0.2301134467124939, 0.12802478671073914, 0.11902931332588196, 0.010635966435074806, -0.05594806373119354, 0.13581755757331848, -0.37854015827178955, 0.11640731990337372, -0.1264198273420334, -0.11961475759744644, 0.0836719498038292, 0.6782073378562927, 1.04620361328125, -0.14073877036571503, -0.181131049990654, 0.06431799381971359, 0.5214086174964905, 0.10091119259595871, -0.22894394397735596, 0.12543204426765442, 0.44579455256462097, 0.2113579660654068, 0.7512669563293457, -0.038230445235967636, 0.6487694978713989, 0.5148894190788269, 0.3520459234714508, 0.0056399134919047356, -0.7696409821510315, 0.19558311998844147, 0.5080233216285706], [-0.12298255413770676, 0.3433535695075989, 0.34766897559165955, -0.22086527943611145, -0.1742112934589386, -0.2592969536781311, 0.055594734847545624, 0.19191913306713104, -0.07374173402786255, 0.34076645970344543, -0.2913389205932617, -0.5336467623710632, 0.5141345262527466, 0.4268198311328888, -0.5997331142425537, 0.00622851587831974, -0.3511626124382019, -0.15319931507110596, 0.08164612948894501, -0.7074310779571533, -0.34314653277397156, -0.2405213862657547, 0.0015845794696360826, 0.057008665055036545, 0.18260903656482697, -0.45491111278533936, 0.599406898021698, 0.24123671650886536, -0.3260163366794586, -0.3987590968608856, 0.20290453732013702, 0.17778226733207703], [0.44061043858528137, 0.17962083220481873, -0.005293244495987892, 0.2020624727010727, -0.43074238300323486, -0.31858500838279724, 0.23737028241157532, 0.15318843722343445, 0.14699651300907135, -0.3310765326023102, -0.697637677192688, 0.08650464564561844, 0.5246701240539551, 0.07186684012413025, -0.3803885579109192, -0.15105514228343964, 0.24998576939105988, 0.26760730147361755, -0.278217613697052, -0.3228219747543335, 0.19862255454063416, 0.6834930181503296, 0.4349369406700134, 0.33250775933265686, 0.10486959666013718, 0.2293344885110855, 1.015634536743164, 0.3647293150424957, 0.0009691015584394336, 0.12919893860816956, 0.3508237898349762, -0.01909690722823143], [-0.26631686091423035, 0.20979191362857819, 0.42008844017982483, -0.33605465292930603, 0.16338151693344116, 0.1629592776298523, 0.014668787829577923, 0.03821585699915886, 0.20175589621067047, -0.6751224994659424, -0.11314906179904938, 0.3035309612751007, 0.5272159576416016, -0.18529079854488373, -0.23797348141670227, 0.07056160271167755, 0.08456917852163315, 0.09062414616346359, 0.4026975631713867, -0.7003538012504578, -0.13141943514347076, -0.08772578835487366, 0.20255440473556519, 0.79770427942276, 0.020874731242656708, 0.31556347012519836, 1.1603760719299316, 0.07803741842508316, -0.5809188485145569, -0.7012149691581726, -0.20233933627605438, -0.030892163515090942], [-0.2930586040019989, -0.7290082573890686, -0.4583251178264618, -0.3171883225440979, 0.1384037733078003, -0.35553619265556335, -0.7826390862464905, -0.22403264045715332, -0.021054405719041824, -0.13995155692100525, -0.8298385739326477, -0.015127274207770824, 0.17007721960544586, -0.10876423865556717, -1.3361215591430664, 0.033269282430410385, -0.1245671957731247, -1.0021344423294067, -1.677942156791687, -1.093856930732727, -0.7588561773300171, -0.5134385228157043, -0.6563615798950195, -0.7362294793128967, -0.18652977049350739, -0.1626386046409607, -0.530040442943573, -0.7768856883049011, -1.4490550756454468, -1.3972026109695435, -0.07358997315168381, -0.24487489461898804], [0.04928978905081749, 0.7296775579452515, 0.6125737428665161, 0.09167834371328354, 0.24233128130435944, 0.41047805547714233, 0.11749813705682755, 0.2652612626552582, 0.19531024992465973, 0.060066964477300644, -0.20929831266403198, 0.149494007229805, 0.5918474197387695, 0.13687869906425476, -0.27015480399131775, 0.33373114466667175, 0.028390344232320786, 0.9697467684745789, -0.056126102805137634, -0.209797203540802, 0.1107562780380249, 0.4644710421562195, 0.07029460370540619, 1.619951844215393, 0.04707147926092148, -0.2073443979024887, 0.25434356927871704, 0.8105251789093018, -0.12713177502155304, -0.09016548097133636, -0.262728750705719, 0.31624552607536316], [-0.07106441259384155, 0.00809669028967619, -0.2623116374015808, -0.2350447177886963, -0.23091697692871094, -0.6935374736785889, -1.0503984689712524, -0.4705561697483063, 0.36102354526519775, -0.4816536009311676, -0.64034503698349, 0.1180104911327362, -0.5811968445777893, 0.14914429187774658, -0.6920105218887329, -0.10925287753343582, 0.06147998571395874, -0.3553047478199005, -0.9469643235206604, -0.8738389611244202, -0.9497143030166626, -0.32125431299209595, -0.6117640733718872, -0.7603505849838257, -0.05070028081536293, -0.041096169501543045, -0.6389154195785522, -0.4178164005279541, -0.6353477239608765, -0.9851241707801819, -0.012384423054754734, -0.5376638174057007], [0.0016108605777844787, -0.3598562479019165, 0.3799872398376465, -0.24281960725784302, -0.06458912789821625, -0.5648865103721619, -0.24947144091129303, -0.36512845754623413, -0.04973937198519707, -0.2063075304031372, -0.5259662866592407, 0.026280028745532036, -0.023046500980854034, 0.39211365580558777, -0.13558714091777802, -0.41549554467201233, -0.11258047074079514, -0.3801676630973816, -0.5302411913871765, -0.7462757229804993, -0.9070703387260437, -0.7876112461090088, 0.17659825086593628, 0.11533736437559128, 0.03972883149981499, -0.29269886016845703, 0.26949942111968994, -0.32760313153266907, -0.5112175941467285, -0.4169532060623169, -0.08903621882200241, -0.7212856411933899], [-0.2559668719768524, -0.26991796493530273, -0.4109845757484436, -0.19535358250141144, -0.07588262110948563, -0.9261089563369751, -0.6227856874465942, -0.6758919358253479, -0.18610413372516632, 0.031876929104328156, -0.3220386505126953, -0.26936012506484985, -0.6571484804153442, -0.34099525213241577, -1.004525899887085, 0.03427805006504059, 0.08306735754013062, -0.9640380144119263, -0.9290727376937866, -1.30754554271698, -0.6737508773803711, -0.44580644369125366, -0.41273391246795654, -0.746784508228302, -0.5913654565811157, 0.29028722643852234, -0.2818310558795929, -0.859948992729187, -0.567872941493988, -0.9180399775505066, 0.06342515349388123, -1.1968467235565186], [-0.3741135597229004, -0.12512607872486115, 0.009525356814265251, -0.09421847015619278, 0.44131985306739807, -0.531416118144989, -0.6362307667732239, -0.44069498777389526, -0.17655345797538757, -0.18676720559597015, -0.40552130341529846, -0.03844032064080238, -0.0033007697202265263, 0.2510116994380951, -0.5618254542350769, -0.494640588760376, 0.25279903411865234, -0.5203660130500793, -0.9987320303916931, -0.7645176649093628, -0.9735786318778992, -0.748403012752533, -0.01971139945089817, -0.8157423138618469, -0.14921465516090393, -0.31708618998527527, 0.1763123720884323, -0.6954237222671509, -0.27278071641921997, -0.7424832582473755, 0.2375476062297821, -0.21106135845184326], [-0.12397902458906174, -0.16491320729255676, 0.16487029194831848, -0.5713914036750793, 0.12822997570037842, -0.9852214455604553, -0.4130045771598816, -0.40229901671409607, 0.06883437931537628, -0.10958876460790634, -0.36209893226623535, 0.30935177206993103, -0.168861985206604, 0.5574837923049927, -1.0258890390396118, -0.32736149430274963, 0.25535696744918823, -0.42299020290374756, -0.4762992858886719, -0.8794393539428711, -0.3667668402194977, -0.3008475601673126, -0.4554138779640198, -0.1646299958229065, -0.22407376766204834, -0.1684608906507492, -0.7903497219085693, -0.3756498098373413, -0.6499969959259033, -0.6052984595298767, 0.28021174669265747, -0.4157808721065521], [0.07476761192083359, -0.6367867588996887, -0.17399922013282776, -0.38676294684410095, 0.31419244408607483, -0.6949297785758972, -0.6404404640197754, -0.7768985629081726, -0.4390699863433838, -0.03574998304247856, -0.3738323748111725, 0.06991074979305267, -0.2588553726673126, -1.3428434133529663, -0.8966197967529297, -0.5534175038337708, 0.7462651133537292, -0.7341784834861755, -0.6784424781799316, -1.2315093278884888, -0.9774242043495178, -1.058505892753601, 0.021999042481184006, -0.34840843081474304, -0.024943986907601357, -0.10341977328062057, -0.642382800579071, -0.5419650077819824, -0.3487771451473236, -1.172244906425476, 0.10568933188915253, -0.8628526926040649], [-0.29318511486053467, 0.7110589146614075, -0.6560478210449219, -0.14209139347076416, 0.03297322615981102, -0.5114505887031555, -0.062379807233810425, 0.3819732069969177, 0.11467340588569641, -0.5403541326522827, -0.37832537293434143, -0.41476893424987793, 0.23280069231987, 0.2889306843280792, -1.025752305984497, 0.1588422805070877, 0.11309503763914108, 0.09115657955408096, -0.7708560824394226, -0.9391939640045166, -0.543545126914978, 0.15758880972862244, 0.028902674093842506, 0.19994108378887177, -0.21483178436756134, -0.2512350380420685, 0.4734047055244446, -0.16845180094242096, -0.7199196815490723, -0.7546778917312622, -0.45548442006111145, -0.4081234037876129], [0.11727443337440491, 0.40136098861694336, 0.6407001614570618, -0.026468174532055855, 0.38050955533981323, -0.576869547367096, -0.1364055871963501, 0.11986253410577774, 0.3112753629684448, -0.07948274165391922, -0.6793005466461182, 0.10324864089488983, 0.15846864879131317, 1.1170235872268677, -0.22090233862400055, -0.4099654257297516, -0.3572643995285034, -0.3156621754169464, -0.024599328637123108, -0.3508165776729584, -0.5869733095169067, -0.03945435956120491, -0.22675368189811707, -0.47950029373168945, -0.16543860733509064, -0.4252699315547943, 0.43961143493652344, 0.37515655159950256, 0.20923876762390137, -0.09484478831291199, -0.09623609483242035, -0.6202922463417053], [0.1275051236152649, -0.5740084052085876, 0.22752362489700317, -0.4572865664958954, 0.19319835305213928, -1.184268832206726, -1.0693027973175049, -0.6590656638145447, 0.06978718191385269, -0.1272551417350769, -0.6144801378250122, 0.33021309971809387, 0.18752922117710114, -0.48322468996047974, -0.2592022716999054, -0.36614713072776794, 0.3097441494464874, -0.35115179419517517, -0.6194649934768677, -0.9772115349769592, -1.0231525897979736, -0.4806325137615204, -0.8494895100593567, -0.5357903838157654, -0.27206841111183167, 0.4003443717956543, -0.2606205344200134, 0.08366122841835022, -0.6025403738021851, -0.5828683972358704, -0.4509026110172272, -0.38546222448349], [0.3690779209136963, 0.4522280991077423, 0.6081530451774597, -0.040112778544425964, 0.028822006657719612, 0.5098020434379578, -0.2577974498271942, -0.02345237508416176, 0.25032615661621094, 0.17626601457595825, -0.2664869427680969, -0.11570890992879868, 0.36188045144081116, 0.246350958943367, 0.5130137205123901, 0.39302924275398254, -0.3116128742694855, 0.6309066414833069, 0.30751529335975647, 0.7014901041984558, 0.19265343248844147, 0.5546547174453735, 0.00975563284009695, 0.5923386216163635, 0.06547246128320694, 0.02834520861506462, 0.6063225865364075, 0.4006975591182709, 0.2759259045124054, 0.1092785969376564, 0.20616330206394196, 0.0865507647395134], [-0.07754845172166824, -0.6768510341644287, 0.0016494501614943147, 0.21758952736854553, 0.3634662330150604, -0.4681815505027771, -0.3383464515209198, -0.872873067855835, 0.17089736461639404, -0.21045754849910736, -0.1951175183057785, -0.18379025161266327, 0.6595184206962585, 0.10937502235174179, -0.06545311957597733, -0.20789378881454468, 0.21138378977775574, -0.7701254487037659, -0.4799712896347046, -0.15728075802326202, -0.6274740099906921, -0.7782614827156067, -0.5582952499389648, -0.948050856590271, 0.38814130425453186, 0.18082089722156525, -0.05504464730620384, 0.07709243148565292, -0.5366659760475159, -0.3560989201068878, -0.027691904455423355, -0.8244034647941589], [0.3151818513870239, -0.3501880168914795, 0.08259366452693939, -0.27806875109672546, -0.0705437883734703, -0.4520680010318756, -0.3955240249633789, -0.1964317113161087, 0.11163195967674255, -0.6146030426025391, 0.06409871578216553, -0.11711452901363373, -0.20017127692699432, 0.2449304461479187, -0.3396088480949402, -0.14338147640228271, 0.0744323581457138, -0.45114290714263916, -0.15856774151325226, -0.0630214661359787, -0.5588587522506714, -0.46582651138305664, -0.16536718606948853, -0.14884619414806366, -0.3206310570240021, 0.5434777140617371, -0.43382105231285095, 0.22376912832260132, -0.41659796237945557, -0.38560593128204346, -0.1694580465555191, -0.5840160846710205], [-0.007751799654215574, -0.16059155762195587, -0.1556430160999298, 0.5807027220726013, -0.33926934003829956, 0.009585489518940449, -0.2633410394191742, 0.3155527710914612, -0.21025978028774261, 0.5685787200927734, -0.21108104288578033, 0.42628714442253113, 0.41272830963134766, 0.1281084567308426, -0.582640528678894, 0.10578283667564392, -0.048549968749284744, 0.12038573622703552, -0.4321630597114563, -0.5276157855987549, -0.031115731224417686, 0.5200598239898682, -0.11544421315193176, 0.03980393335223198, 0.24411585927009583, 0.3201407194137573, 0.056047458201646805, 0.7111996412277222, -0.20408843457698822, -0.6247003078460693, -0.012943430803716183, -0.0624590627849102], [0.09448825567960739, -0.20500031113624573, -0.37470030784606934, 0.12161938846111298, 0.020542774349451065, -0.5273073315620422, -0.7741101980209351, -0.15454870462417603, -0.3165636956691742, 0.3569572865962982, -0.264958918094635, 0.3270321190357208, -0.08664074540138245, -0.25058218836784363, -0.24733136594295502, -0.6933934092521667, -0.5146386027336121, -0.7783223986625671, -0.4511112868785858, -0.8473780751228333, -0.32991984486579895, 0.05937997251749039, -0.32796257734298706, -0.45376721024513245, -0.014891956001520157, -0.3487096428871155, -0.046007223427295685, -0.20215891301631927, -0.21899743378162384, -0.6053404211997986, 0.03304334729909897, -0.13249902427196503], [0.06436336040496826, -0.3969228267669678, -0.5786304473876953, 0.034263622015714645, -0.22727800905704498, -0.8180197477340698, -1.3959060907363892, -0.4205377995967865, -0.15434345602989197, -0.39866021275520325, -0.6807108521461487, -0.4295283257961273, 0.06564352661371231, -0.16360415518283844, -0.6791130900382996, -0.1761620193719864, 0.42543211579322815, -0.7694686651229858, -0.7248693108558655, -1.1896939277648926, -1.2070000171661377, -1.7285354137420654, -0.9596707224845886, -0.48257872462272644, -0.5439272522926331, -0.01302256342023611, -0.1543300449848175, -0.36632782220840454, -0.6707392334938049, -0.6997827887535095, 0.07239383459091187, -0.43771588802337646], [0.0783417597413063, -0.23101447522640228, -0.6771094799041748, -0.15928956866264343, -0.16475810110569, -0.2132735699415207, -0.7474475502967834, -0.7336187958717346, -0.47067928314208984, 0.37276309728622437, -0.891243040561676, 0.14746446907520294, 0.0101961400359869, 0.01969166286289692, -1.1501420736312866, -0.4909135699272156, 0.05820319429039955, -0.2696092426776886, -1.0028530359268188, -1.0853784084320068, -0.5640738010406494, -0.612190306186676, -0.8622337579727173, -0.46128129959106445, -0.1853613257408142, -0.23955422639846802, 0.036072105169296265, -0.15591847896575928, -0.6068854928016663, -1.0683618783950806, -0.14907115697860718, -0.4720686078071594], [0.15718036890029907, -0.1328418105840683, 0.10735166072845459, 0.2679116725921631, 0.008798916824162006, -0.6552961468696594, -0.28913867473602295, -0.4548434615135193, 0.26627907156944275, 0.35718077421188354, -0.4895961284637451, 0.14259590208530426, 0.07406938076019287, -0.07972072064876556, -0.38244104385375977, -0.06482531875371933, 0.047741975635290146, -0.6180239319801331, -0.954002857208252, -0.5133448243141174, -0.39758118987083435, -0.6861720085144043, -0.40873250365257263, -0.19149230420589447, -0.5863917469978333, 0.01034090481698513, 0.011405255645513535, 0.29706859588623047, -0.22086165845394135, -0.44670769572257996, -0.12429482489824295, -0.5980926752090454], [-0.24231573939323425, -0.8991873264312744, -0.13376203179359436, 0.16034984588623047, -0.19412542879581451, -1.1510190963745117, -0.6602950096130371, -0.6056320667266846, 0.44453418254852295, 0.13981635868549347, -0.4852752387523651, 0.45853862166404724, 0.00850583240389824, 0.03723349794745445, -0.730691134929657, -0.6207597851753235, -0.00021884737361688167, -0.6443895697593689, -0.34828299283981323, -0.578152596950531, -1.0144431591033936, -0.9147263765335083, -0.49425286054611206, -0.9409294128417969, -0.6915082931518555, 0.2710328996181488, -0.3701772689819336, -0.29635387659072876, -0.49013960361480713, -0.290629506111145, 0.4027537405490875, -1.192060947418213], [0.25007468461990356, 0.020243940874934196, -0.4997437298297882, 0.26917508244514465, -0.04561647027730942, -1.4536830186843872, -0.6076117753982544, -0.670013427734375, 0.31573358178138733, 0.2641632854938507, -0.3799939453601837, -0.09056135267019272, -0.15514546632766724, -0.5317021012306213, -1.2915507555007935, -0.4862836003303528, 0.13543912768363953, -0.26836344599723816, -0.6324076652526855, -0.7886163592338562, -0.9302513003349304, -0.7168256640434265, -0.5781857967376709, 0.07143376767635345, 0.09957613795995712, -0.0569726824760437, 0.06162017956376076, -0.731376588344574, -1.1057546138763428, -0.3809393644332886, -0.1306566447019577, -0.28584668040275574], [-0.10381890088319778, -0.1318472921848297, 0.07931803166866302, 0.0009422628791071475, -0.13945229351520538, -0.052644841372966766, -0.432837575674057, -0.4050142467021942, 0.1982048898935318, -0.16341005265712738, -0.5659780502319336, -0.010357690043747425, 0.2967583239078522, -0.12815004587173462, -1.0630751848220825, -0.32401782274246216, -0.2915298342704773, -0.25235438346862793, -0.5841017961502075, -1.2395280599594116, -0.4574507772922516, -0.6239451766014099, -0.46600109338760376, -0.5026989579200745, -0.5604715347290039, 0.13556179404258728, -0.23720869421958923, -0.28372445702552795, -0.30562710762023926, -1.1283775568008423, 0.40774479508399963, -0.43639054894447327], [-0.15170666575431824, -0.05541272461414337, 0.020228568464517593, -0.4622519910335541, 0.45816701650619507, -0.8024543523788452, -0.9929660558700562, -0.8916769623756409, 0.28264012932777405, 0.01993144117295742, -1.095882773399353, 0.03221339359879494, -0.43795841932296753, -0.22849470376968384, -1.4114243984222412, -0.2836916446685791, -0.560573160648346, -1.0465381145477295, -1.5598750114440918, -1.3903844356536865, -1.2176743745803833, -0.5844668745994568, -0.9786901473999023, -0.7734371423721313, 0.05363338813185692, 0.07147148996591568, -0.1561473160982132, -0.6357555985450745, -0.821938693523407, -0.9348998069763184, 0.18742647767066956, -0.21863606572151184], [0.4405754804611206, -0.41259297728538513, -0.36741241812705994, -0.185280442237854, -0.09277068078517914, -0.8399692177772522, -0.46941009163856506, -0.6345376968383789, 0.04652124643325806, -0.015957439318299294, -0.4624670743942261, -0.4986181855201721, -0.26070040464401245, 0.5172184705734253, -0.9362252950668335, -0.44501009583473206, -0.09531445801258087, -0.16614937782287598, -1.0613995790481567, -0.7630271911621094, -0.8698917627334595, -0.6512762308120728, -0.32990941405296326, -0.4423477351665497, -0.5601162910461426, 0.007756803184747696, 0.07894258201122284, -0.3683971166610718, -0.40175724029541016, -0.7027093172073364, -0.40145209431648254, -0.14266693592071533], [-0.2414175122976303, 0.3711291253566742, 0.09685991704463959, -0.07947581261396408, -0.07687195390462875, -0.15959611535072327, -0.349616140127182, -0.24221542477607727, -0.4446640610694885, 0.007434157654643059, -0.6085203886032104, -0.8155596852302551, 0.2036067098379135, 0.33059483766555786, -0.374237984418869, -0.48785045742988586, 0.02429519221186638, 0.0022809586953371763, -0.5233333706855774, -1.017574429512024, 0.09497376531362534, -0.12517616152763367, -0.12376252561807632, 0.05723142251372337, -0.1364954262971878, -0.14514996111392975, 0.12391708791255951, -0.6775092482566833, -0.1676933318376541, -0.5517855882644653, -0.03972882032394409, 0.039994366466999054], [-0.23481053113937378, 0.09823883324861526, -0.39369136095046997, -0.11005757749080658, 0.0919073298573494, -0.6645931005477905, -0.9087589383125305, -0.28036069869995117, -0.06424792110919952, -0.4319266676902771, -0.29837676882743835, 0.1347631812095642, -0.18874359130859375, -0.16932442784309387, -0.8872735500335693, -0.38019707798957825, -0.3765547573566437, -0.8442162871360779, -1.0992151498794556, -0.3283180594444275, -0.7946510910987854, -0.4120089113712311, -0.6437214016914368, -0.4791068732738495, -0.03501857444643974, -0.1900857388973236, 0.39474499225616455, -1.1466155052185059, -0.8376866579055786, -1.0934722423553467, -0.45263227820396423, -0.8364798426628113], [0.19937199354171753, -0.7208537459373474, 0.11941176652908325, -0.1008727103471756, 0.07213196903467178, -1.0926867723464966, -1.3349757194519043, -0.7424336671829224, 0.26735150814056396, -0.1366155594587326, -0.32359376549720764, -0.3724646270275116, -0.23197460174560547, -0.9039925336837769, -0.8915985226631165, -0.2792922854423523, 0.06773645430803299, -1.1479047536849976, -0.9203737378120422, -0.845195472240448, -0.6647756695747375, -0.8217580318450928, -0.7157911062240601, -0.5656182169914246, -0.14913251996040344, -0.08454851806163788, -0.020809736102819443, -0.01766953058540821, -0.47177624702453613, -0.561241626739502, -0.09585930407047272, -0.6068408489227295], [-0.31785449385643005, 0.41478562355041504, 0.5071348547935486, 0.0983998030424118, 0.001794555690139532, -0.2267690896987915, 0.043175581842660904, 0.05678979679942131, -0.18943071365356445, 0.04009818285703659, 0.00022573744354303926, -0.3820692002773285, 0.496764600276947, 0.14230410754680634, -0.49166473746299744, -0.0931442379951477, 0.07707205414772034, 0.017703823745250702, 0.015825839713215828, 0.11580958217382431, 0.2393268495798111, -0.019287999719381332, -0.2926803529262543, 0.4431082010269165, -0.07838347554206848, -0.11682677268981934, 0.2832689583301544, -0.305195689201355, -0.21057528257369995, -0.4221634864807129, 0.1008521020412445, 0.03196180239319801], [0.39351823925971985, 0.07912390679121017, 0.4175451993942261, 0.0033958491403609514, 0.05521257594227791, -0.16800762712955475, -0.1528954803943634, -0.2641608715057373, -0.2521330714225769, 0.4103052616119385, -0.29510757327079773, -0.3069663643836975, 0.30795788764953613, 0.6723501086235046, -0.3136860132217407, -0.4951794147491455, 0.1513786017894745, 0.10651174932718277, 0.003374779364094138, -0.2358304262161255, -0.06406931579113007, -0.2553907632827759, -0.3752301335334778, -0.05274243280291557, 0.20294567942619324, 0.07182334363460541, -0.1990264505147934, -0.07089203596115112, -0.26825663447380066, -0.6951680183410645, 0.18096548318862915, -0.1160799115896225], [-0.023834319785237312, -0.7181106209754944, -0.0651857852935791, 0.03812283277511597, -0.03079647570848465, -0.8920620679855347, -1.160394549369812, -0.6360077261924744, -0.11199487000703812, 0.021984584629535675, -0.46974197030067444, -0.23403823375701904, -0.24540936946868896, -0.18144342303276062, -0.7485923767089844, -0.24108090996742249, 0.41306638717651367, -0.49777162075042725, -0.6797555088996887, -0.6836730241775513, -0.7935741543769836, -0.9147427082061768, -0.40937697887420654, -0.7328594326972961, 0.006237908266484737, 0.5953163504600525, -0.24472512304782867, 0.28256648778915405, -0.5328037738800049, -0.47615954279899597, -0.16386686265468597, -1.0531883239746094], [0.15231776237487793, -1.046976089477539, -0.04368670657277107, 0.2634875774383545, 0.039417535066604614, -1.5100888013839722, -0.7931855320930481, -1.263584017753601, -0.0025101923383772373, 0.027306819334626198, -0.8545815348625183, 0.2706179618835449, -0.08826296031475067, -0.3100637197494507, -0.6645500659942627, -0.15479066967964172, -0.0005341873038560152, -0.6600496768951416, -0.8387877345085144, -0.6568779945373535, -0.39580148458480835, -0.892943799495697, -0.47869405150413513, -0.790524959564209, 0.35512956976890564, 0.11577919125556946, -0.19817085564136505, 0.17952609062194824, -0.45449209213256836, -0.6458433866500854, 0.2722472846508026, -1.0057392120361328], [0.14568309485912323, -0.3613242506980896, 0.26122501492500305, 0.26203760504722595, 0.2704809308052063, -0.9147984385490417, -0.7883008718490601, -0.5507462620735168, -0.16747067868709564, 0.1887938380241394, -0.4242759048938751, -0.2852388322353363, -0.26671189069747925, 0.34876811504364014, -0.5888408422470093, -0.29725342988967896, -0.18203037977218628, -0.4925904870033264, -0.938180148601532, -0.2852880656719208, -1.0619239807128906, -0.4077501595020294, -0.36934328079223633, -0.12611624598503113, -0.5870275497436523, -0.07764767110347748, -0.057136666029691696, -0.23096750676631927, -0.9187753796577454, -0.3340570032596588, 0.2790483832359314, -0.8232009410858154], [0.19700150191783905, 0.45471954345703125, -0.4144599437713623, 0.06974253803491592, 0.5203158855438232, 0.07191357761621475, 0.29188796877861023, 0.5057056546211243, -0.6252925395965576, 0.009170923382043839, 0.16195422410964966, -0.09141837060451508, -0.3597496747970581, -0.2142793983221054, -0.2565176784992218, 0.192991703748703, 0.12573876976966858, 0.6582618951797485, 0.4766958951950073, -0.1175696849822998, -0.21775367856025696, -0.13907478749752045, 0.4591316878795624, 0.2610616385936737, 0.03870098292827606, 0.20101338624954224, 0.3244585394859314, -0.5043337941169739, -0.23543232679367065, -0.1321360468864441, 0.08423732966184616, 0.031238343566656113], [-0.16750310361385345, 0.4910891354084015, -0.5084543824195862, -0.07780525833368301, -0.04980805888772011, -0.027729731053113937, 0.2620212137699127, 0.2836032211780548, -0.05468905717134476, -0.02783876843750477, -0.11261177808046341, 0.2736125588417053, -0.6043620705604553, -0.2972497045993805, 0.17598436772823334, 0.07156360149383545, -0.40069806575775146, 1.3397268056869507, -0.43837809562683105, -0.06353180855512619, 0.0446392223238945, 0.27754998207092285, -0.46011805534362793, 0.49880802631378174, 0.1635989248752594, 0.2901574969291687, 0.4886808693408966, -0.4297654330730438, -0.3036869168281555, -0.15525977313518524, -0.035171058028936386, 0.45697784423828125], [-0.25933948159217834, -0.8073254823684692, 0.4297078251838684, -0.05508379638195038, -0.07516353577375412, -0.45748472213745117, 0.08889783918857574, -0.1731153279542923, 0.08876757323741913, 0.05261226370930672, -0.24825921654701233, 0.2859777808189392, 0.3362036645412445, 0.8631665110588074, 0.27762147784233093, -0.7157203555107117, -0.5006166696548462, -0.19047120213508606, 0.7484603524208069, -0.3133254647254944, -0.2918880879878998, -0.11658865213394165, -0.4932750463485718, -0.6791631579399109, 0.04763452708721161, -0.2902740240097046, -0.15861326456069946, 0.5098026990890503, 0.7119744420051575, 0.1554233431816101, 0.1878076195716858, -0.7486917972564697], [-0.3783789575099945, 0.09158092737197876, 0.5358618497848511, -0.26318058371543884, 0.40210244059562683, -0.3629515469074249, -0.14130380749702454, -0.4437771737575531, -0.22749052941799164, -0.34829264879226685, 0.022472666576504707, -0.14299531280994415, 0.4222351610660553, 0.4159751534461975, 0.31923091411590576, -0.14680659770965576, 0.07017406821250916, -0.3845613896846771, -0.22816438972949982, 0.27815109491348267, -0.3897973299026489, -0.5611155033111572, 0.3261968195438385, -0.04472052678465843, -0.07647909969091415, -0.38484594225883484, -0.5629225969314575, 0.601856529712677, 0.1378706693649292, -0.13905572891235352, 0.32273563742637634, -0.502791166305542], [-0.31260913610458374, -0.15719091892242432, 0.7754644155502319, -0.560026228427887, -0.4287618398666382, -0.684779703617096, -0.18610234558582306, -0.40279337763786316, 0.17153072357177734, -0.36639416217803955, -0.04217730090022087, 0.16797734797000885, 0.40645739436149597, 0.1125355139374733, 0.05811992660164833, -0.11886776238679886, -0.03634144365787506, -0.49364805221557617, 0.1388985961675644, 0.2448483258485794, -0.30860212445259094, -0.15764856338500977, 0.20474469661712646, -0.22050568461418152, -0.37811461091041565, -0.24593481421470642, -0.5533599853515625, 0.33319714665412903, 0.40026289224624634, -0.06818974763154984, -0.6243481040000916, -0.18875227868556976], [-0.019694365561008453, 0.3367769718170166, -0.7536588311195374, -0.17012690007686615, -0.07239219546318054, -0.00037760246777907014, -0.38267242908477783, 0.2980183959007263, 0.5329914093017578, 0.010067963972687721, 0.11311528086662292, 0.001988152740523219, -0.588857114315033, -0.10003241896629333, -0.23556232452392578, -0.00644286023452878, -0.41746386885643005, 0.38099363446235657, 0.022476138547062874, -0.05566897243261337, 0.3894122540950775, -0.029217779636383057, -0.04737059399485588, 0.5770171284675598, -0.27779051661491394, -0.17376834154129028, 0.2919197678565979, -0.2827024757862091, -0.211001455783844, -0.07661470770835876, -0.1556721031665802, 0.3973410427570343], [-0.2533077001571655, -0.44049668312072754, 0.03939858078956604, -0.3696926534175873, -0.20169970393180847, -0.38668200373649597, -0.39240580797195435, -0.29807743430137634, 0.14204367995262146, 0.08864467591047287, 0.018648730590939522, 0.13732178509235382, 0.5419806838035583, -0.05882398784160614, 0.40236762166023254, -0.26817092299461365, 0.01272002886980772, -0.36068418622016907, -0.4320000410079956, -0.15529417991638184, -0.4378065764904022, -0.3662640154361725, 0.0013884101063013077, -0.2306540459394455, 0.25949859619140625, -0.036120831966400146, -0.39686110615730286, 0.734958291053772, 0.18905991315841675, 0.5550085306167603, -0.06122695282101631, -0.6944943070411682], [-0.2980763018131256, 0.234606072306633, -0.39801666140556335, -0.16108548641204834, -0.19762037694454193, 0.11873926967382431, -0.1229415312409401, 0.30907613039016724, 0.09223616868257523, -0.2520075738430023, 0.08797997236251831, -0.1866157501935959, -0.6027833223342896, 0.38559797406196594, -0.16084520518779755, 0.10082460194826126, -0.02047974057495594, 0.2779267430305481, -0.5439131259918213, -0.002761887852102518, 0.29497629404067993, 0.23639558255672455, 0.05366680026054382, 0.34970587491989136, -0.008181529119610786, -0.34602072834968567, 0.45623281598091125, -0.4172340929508209, -0.4760536551475525, -0.23949511349201202, 0.5036301612854004, 0.49429577589035034], [0.36321941018104553, -0.4517836570739746, 0.9242278933525085, 0.321418434381485, 0.004274066537618637, -0.13896191120147705, 0.09773693978786469, -0.28573307394981384, -0.1119500920176506, -0.100799061357975, -0.31520527601242065, -0.11499752104282379, 0.6311436295509338, 0.6941149234771729, 0.05261848121881485, -0.05424988269805908, 0.17709943652153015, -0.5818536877632141, 0.6324448585510254, 0.09165263921022415, 0.04785097390413284, -0.17488892376422882, -0.2228207141160965, -0.7140203714370728, -0.20131216943264008, 0.1600486785173416, 0.387046217918396, 0.4228422939777374, -0.24188268184661865, -0.3069807291030884, -0.07309675216674805, -0.6186549067497253], [0.25979939103126526, 0.8902421593666077, -0.32595163583755493, -0.1163865178823471, 0.33337345719337463, 0.06768921762704849, 0.2407362163066864, 0.36680158972740173, 0.1925802379846573, -0.18233507871627808, 0.10090954601764679, -0.16670265793800354, -0.49603071808815, -0.391327440738678, -0.4070892930030823, 0.24882134795188904, -0.04648282378911972, 0.4163637161254883, -0.320661336183548, -0.08182583004236221, 0.49842458963394165, 0.18203718960285187, 0.21142663061618805, 0.5470890998840332, -0.13793998956680298, 0.11678217351436615, 0.96368008852005, -0.6229631304740906, -0.17161893844604492, 0.32575589418411255, -0.6170807480812073, -0.054571691900491714], [-0.2397567331790924, 0.21101970970630646, -1.122024655342102, 0.31835633516311646, 0.013791253790259361, 0.36973878741264343, -0.03915327414870262, 0.5154305100440979, -0.08381114155054092, -0.07155796885490417, -0.09504031389951706, 0.27348703145980835, -0.42260846495628357, -0.6210392117500305, -0.29500338435173035, 0.030043944716453552, 0.277479350566864, 0.053155798465013504, 0.033924926072359085, -0.3208713233470917, 0.5146660208702087, 0.07092586159706116, -0.474097341299057, 0.3722548484802246, -0.2560434639453888, 0.4389304518699646, -0.27162832021713257, -0.4904690980911255, -0.4120450019836426, 0.25884273648262024, -0.1536235511302948, 0.30554109811782837], [0.09081274271011353, -0.051067840307950974, 0.27321088314056396, -0.18538548052310944, 0.19908484816551208, 0.09691890329122543, -0.06632634252309799, -0.9654682278633118, -0.18751190602779388, -0.15546664595603943, 0.08332327753305435, 0.4581983685493469, 0.6338602304458618, 0.13372287154197693, 0.08183681219816208, -0.005364450626075268, -0.012762892991304398, 0.11314069479703903, -0.12690503895282745, 0.17543357610702515, -0.06600027531385422, -0.2637926936149597, 0.08239156007766724, -0.6308261156082153, -0.11102815717458725, 0.05898245796561241, -0.0775727704167366, 0.47940462827682495, -0.04095270112156868, 0.5241070985794067, -0.1886843591928482, -0.3884113132953644], [0.2056424915790558, -0.5622270107269287, 0.5804073214530945, 0.10330650210380554, -0.2159239649772644, 0.3721318542957306, -0.027586854994297028, -0.32745349407196045, 0.024888470768928528, 0.2445758730173111, 0.1868439018726349, 0.19283542037010193, 0.6061079502105713, -0.2707754671573639, 0.14264212548732758, -0.1714954823255539, -0.05852722376585007, -0.14017321169376373, 0.43773677945137024, 0.1989750862121582, -0.5260018110275269, -0.32143235206604004, -0.2272622287273407, -0.2404731959104538, 0.11702605336904526, -0.4075389802455902, -0.38862743973731995, 0.40866410732269287, 0.041186556220054626, -0.11466990411281586, 0.05585648864507675, -0.4629857838153839], [0.054603543132543564, 0.6849937438964844, -0.5059471726417542, -0.050987474620342255, -0.9497635364532471, 0.5346903800964355, 0.1273736208677292, 0.7439116835594177, 0.3216811418533325, -0.23359160125255585, -0.0947147086262703, -0.4084114134311676, -0.6410691738128662, -0.07222434133291245, -0.1206282377243042, -0.1954195648431778, -0.06027970090508461, 0.35178813338279724, 0.36215612292289734, -0.39558541774749756, 0.3079146444797516, 0.3930423855781555, 0.08654085546731949, -0.19241182506084442, 0.1608860343694687, 0.2759227752685547, 0.14133557677268982, -0.26114293932914734, 0.18979281187057495, -0.4741249680519104, -0.059200678020715714, 0.2597467601299286], [0.13235051929950714, -0.06228143349289894, -0.6140873432159424, -0.04481208324432373, 0.026404086500406265, -0.06313618272542953, -0.09812963008880615, 0.687465250492096, -0.16019104421138763, -0.1700611710548401, -0.06809387356042862, -0.37377849221229553, -0.3196676969528198, 0.16264663636684418, -0.1516609489917755, 0.1470392644405365, 0.021018564701080322, 0.2717147469520569, -0.3198073208332062, 0.13121028244495392, 0.5443541407585144, 0.4332233965396881, 0.08818157017230988, 0.5135868191719055, -0.09971784800291061, 0.22598731517791748, 0.0496368482708931, -0.5157500505447388, 0.2061554491519928, -0.367268830537796, 0.331188827753067, 0.5075229406356812], [-0.22652018070220947, -0.17907583713531494, -0.6431632041931152, 0.4308241903781891, 0.20832128822803497, 0.5120053887367249, -0.05715212970972061, 0.7230328321456909, 0.2591911852359772, -0.3277631998062134, 0.03965006023645401, 0.13714680075645447, -0.4743941128253937, 0.13450288772583008, -0.21552060544490814, 0.41031506657600403, 0.06290634721517563, 0.14527811110019684, -0.34898844361305237, -0.33795031905174255, 0.18774725496768951, 0.21934479475021362, 0.36676454544067383, 0.26546511054039, 0.2950144410133362, -0.4034382998943329, 0.24738240242004395, -0.06665411591529846, 0.14652328193187714, -0.2837393283843994, -0.3225947618484497, 0.3525405526161194], [-0.434707373380661, 0.4074895679950714, -0.6202216744422913, -0.009595882147550583, 0.19878806173801422, -0.06627632677555084, 0.19258059561252594, 0.8184325695037842, -0.009892766363918781, -0.27258235216140747, -0.10114549845457077, -0.4401366114616394, -0.40304362773895264, -0.540472149848938, -0.02103065326809883, 0.24539169669151306, 0.02045377343893051, 0.2551840543746948, -0.2038516253232956, -0.32985764741897583, 0.2056949883699417, 0.11683949083089828, -0.26920998096466064, 0.12052657455205917, -0.06750982254743576, 0.13612161576747894, 0.22857698798179626, -0.52029949426651, 0.13966087996959686, -0.25573214888572693, 0.11678999662399292, 0.290566086769104], [-0.1796083301305771, -0.15018297731876373, 0.5169356465339661, 0.3452807366847992, 0.23317252099514008, -0.26418396830558777, 0.06461136788129807, -0.420723557472229, 0.2705131769180298, 0.003118682187050581, 0.2770160734653473, 0.16618436574935913, 0.5907127261161804, -0.0928359180688858, 0.5001322031021118, -0.033747319132089615, 0.041685670614242554, -0.5258720517158508, -0.19459857046604156, -0.0580923967063427, -0.5057088732719421, -0.6572698950767517, -0.2439463585615158, -0.2125876396894455, 0.024945469573140144, -0.1056794598698616, -0.08412957936525345, 0.6277318000793457, -0.11418582499027252, 0.024364043027162552, -0.4923909306526184, -0.41631725430488586], [-0.2099330574274063, -0.3709215521812439, 0.7135130763053894, -0.07263895869255066, 0.35540369153022766, 0.02270214445888996, 0.30238789319992065, -0.366099089384079, -0.05094374343752861, 0.14612731337547302, -0.09160177409648895, 0.11919818818569183, 0.5933614373207092, 0.4291643798351288, 0.29266074299812317, 0.5021452307701111, -0.256689190864563, -0.188784658908844, -0.014286236837506294, 0.0624004490673542, -0.6829628944396973, -0.09791021794080734, -0.2134576290845871, -0.614966869354248, 0.03293644264340401, 0.1272924840450287, -0.1401519626379013, 0.38184982538223267, -0.002432128181681037, 0.10390686988830566, -0.28128114342689514, -0.1274230182170868], [-0.11759687960147858, -0.6897575855255127, 0.3567139506340027, -0.40369224548339844, 0.16009850800037384, 0.05649247393012047, -0.11549640446901321, -0.350029319524765, 0.28535598516464233, 0.022772956639528275, -0.21950258314609528, 0.049650877714157104, 0.5943682789802551, 0.7659032344818115, 0.26775848865509033, 0.2243061512708664, -0.05690660700201988, -0.4604462683200836, 0.1647230088710785, 0.003970985766500235, 0.17008547484874725, -0.3458470404148102, 0.03546840697526932, -0.6028503775596619, -0.0037893520202487707, -0.004404377657920122, -0.22064119577407837, 0.7682760953903198, 0.19055508077144623, -0.2564360201358795, 0.003565950086340308, -0.5898284912109375], [0.11625886708498001, 0.7599383592605591, -0.7825343012809753, -0.2547760009765625, -0.2487482726573944, 0.11102133989334106, 0.11934299021959305, 0.5449811816215515, -0.4507509768009186, 0.0442274771630764, -0.5356172323226929, -0.10846357047557831, -0.27627724409103394, -0.49143877625465393, -0.49091264605522156, -0.646541953086853, 0.031055381521582603, 0.26558685302734375, -0.40131673216819763, 0.36103346943855286, 0.45146429538726807, 0.1098429411649704, 0.21212103962898254, 0.20221811532974243, 0.1204337552189827, -0.12953150272369385, 0.07273181527853012, -0.5251237750053406, -0.3092820346355438, 0.23462873697280884, 0.09868014603853226, 0.3138442933559418], [0.17304208874702454, -0.9093598127365112, 0.6310162544250488, 0.17452338337898254, 0.37447673082351685, 0.04436975345015526, -0.12532156705856323, -0.38005220890045166, 0.5712142586708069, 0.2324981987476349, 0.21303939819335938, -0.3059735894203186, 0.5438364744186401, 0.08312638103961945, 0.25668469071388245, -0.09636306762695312, -0.008541707880795002, -0.2565348148345947, 0.32018786668777466, 0.07465319335460663, -0.6871322393417358, -0.48712432384490967, -0.2675112187862396, -0.6357511281967163, 0.10313782095909119, 0.09416752308607101, -0.17890581488609314, 0.5602040886878967, 0.27509191632270813, -0.385977566242218, 0.017687464132905006, -0.21832890808582306], [0.10487274080514908, -0.4743335247039795, 0.5538363456726074, -0.05312876030802727, 0.31225740909576416, -0.10396439582109451, 0.18275155127048492, -0.4654655456542969, 0.10356361418962479, -0.12029560655355453, -0.33153510093688965, -0.3872002363204956, 0.7932572364807129, 0.31352895498275757, 0.10687730461359024, 0.22235766053199768, -0.22299052774906158, -0.6310420036315918, 0.3391108214855194, -0.21006250381469727, -0.10158167034387589, -0.18428067862987518, -0.1228964552283287, -0.5352602005004883, -0.4556789994239807, 0.17190638184547424, 0.03503148630261421, 0.458933025598526, -0.38530921936035156, 0.3299882709980011, -0.33447301387786865, -0.23278121650218964], [-0.18550007045269012, -0.7242332100868225, 0.5081135630607605, 0.4506077468395233, -0.03840211406350136, 0.09992577135562897, 0.30539748072624207, -0.5042921900749207, 0.09397029876708984, 0.011191483587026596, -0.017729999497532845, 0.13091754913330078, 0.687412679195404, 0.0755511224269867, 0.2551203966140747, -0.06123144179582596, 0.37243303656578064, -0.32028520107269287, -0.20452694594860077, -0.238616943359375, -0.43605244159698486, 0.16945938766002655, -0.34808266162872314, -0.37972790002822876, -0.09467634558677673, 0.39270326495170593, -0.24145916104316711, 0.7285517454147339, 0.17822574079036713, 0.14471694827079773, -0.005523176398128271, -0.3555704355239868], [0.11462219059467316, -0.010885179974138737, -0.5174019932746887, 0.17108619213104248, -0.46570536494255066, 0.31162890791893005, -0.3837633728981018, 0.6048212647438049, -0.16216234862804413, 0.08103187382221222, 0.02204420603811741, -0.03705416992306709, -0.2102789729833603, -0.400363028049469, -0.33545929193496704, -0.04641585797071457, -0.09223245084285736, 0.16104024648666382, -0.41312888264656067, 0.03636942058801651, 0.36312955617904663, 0.17451252043247223, 0.6039174199104309, 0.498779296875, -0.27316567301750183, 0.18152549862861633, 0.5132500529289246, -0.5406368970870972, -0.1087983250617981, -0.07858646661043167, 0.48449718952178955, 0.762463390827179], [-0.4173501133918762, 0.11819445341825485, -0.7690343856811523, -0.06668920814990997, 0.24979209899902344, 0.013413320295512676, -0.009125440381467342, 0.4807451367378235, 0.16564099490642548, -0.20078997313976288, 0.009217620827257633, 0.38427016139030457, -0.06685095280408859, -0.1725063920021057, 0.30489370226860046, 0.11235172301530838, 0.35578814148902893, 0.16100865602493286, -0.24425269663333893, -0.19249749183654785, 0.32211291790008545, 0.0024913297966122627, 0.29408779740333557, 0.4582626521587372, -0.125917449593544, -0.294503390789032, 0.13959991931915283, -0.7109329104423523, 0.013748960569500923, -0.07740648090839386, 0.1281406581401825, 0.5286709070205688], [-0.1060103178024292, -0.03311491757631302, 0.6351863145828247, -0.28249505162239075, -0.07967118173837662, 0.05454090237617493, 0.17571872472763062, -0.5383843183517456, -0.30179089307785034, 0.11616072058677673, 0.6855101585388184, 0.2740202844142914, 0.7707512974739075, 0.26694127917289734, 0.339298814535141, 0.2066379189491272, -0.006292931269854307, -0.9328526258468628, 0.4536903202533722, -0.21098636090755463, -0.07117967307567596, 0.011170769110321999, -0.37974071502685547, -0.6678287982940674, 0.5120561718940735, -0.3048636019229889, 0.18968822062015533, 0.039990779012441635, 0.28886422514915466, -0.025039637461304665, 0.53773432970047, -0.2716384530067444], [-0.06011394411325455, -0.2777121961116791, 0.7574595808982849, -0.27047044038772583, -0.49196821451187134, -0.5440660119056702, -0.5122637152671814, -0.6536329984664917, -0.14951781928539276, -0.05862532556056976, 0.13676075637340546, -0.34498000144958496, 0.07529543340206146, 0.01730968803167343, -0.1195644810795784, 0.5226173400878906, 0.6435997486114502, -0.25308260321617126, 0.24477426707744598, -0.08417465537786484, -0.3792954385280609, -0.1383042186498642, 0.319609671831131, -0.519778847694397, 0.2490534782409668, -0.2366413176059723, -0.6078624129295349, 0.5193348526954651, 0.6849758625030518, 0.015096348710358143, 0.07225294411182404, -0.38869979977607727], [0.14934764802455902, -0.2949533462524414, 0.35456791520118713, 0.2935115694999695, 0.3564733564853668, 0.1501729041337967, -0.3236299455165863, -0.44344428181648254, 0.46703511476516724, -0.38487115502357483, -0.08446849882602692, -0.17176519334316254, 0.2903064787387848, -0.23825347423553467, -0.13924165070056915, 0.1575382500886917, 0.5323278903961182, -0.3543251156806946, 0.0937117263674736, 0.15782350301742554, -0.5601022839546204, -0.33758026361465454, -0.008566335774958134, -0.6321792602539062, -0.38356849551200867, 0.09692501276731491, 0.16844730079174042, 0.6642807126045227, 0.4977697432041168, 0.5730099081993103, -0.1217801496386528, -0.5643024444580078], [0.0608050711452961, 0.4925491213798523, -0.6097147464752197, 0.3307208716869354, 0.15766541659832, 0.18629351258277893, -0.12387526780366898, 0.49785423278808594, 0.05591939017176628, 0.03675541654229164, -0.46502089500427246, -0.04527989774942398, -0.6889661550521851, 0.2548791468143463, -0.2056165635585785, 0.1415174901485443, 0.18887141346931458, -0.15277883410453796, 0.245096817612648, 0.05985284969210625, -0.020838869735598564, 0.3868529200553894, -0.05532838776707649, -0.09976988285779953, -0.05551254004240036, -0.08810938894748688, 0.03040623478591442, -0.9943494200706482, -0.13649669289588928, 0.005156304221600294, 0.37139707803726196, 0.45885953307151794], [0.14680054783821106, -0.11976701766252518, 0.4745117127895355, 0.07538273185491562, -0.27015796303749084, 0.3324391841888428, 0.23564983904361725, -0.2990122139453888, -0.1572333574295044, 0.19418001174926758, -0.10946391522884369, -0.0033506741747260094, 0.5472155809402466, 0.026514148339629173, 0.28668081760406494, -0.06879385560750961, 0.16195601224899292, -0.3130473792552948, 0.25889793038368225, 0.06297645717859268, -0.39000025391578674, -0.24539396166801453, -0.04609353467822075, 0.11337388306856155, -0.1260697990655899, -0.3648702800273895, -0.3114188015460968, 0.536203920841217, 0.14231199026107788, 0.16243401169776917, -0.38473182916641235, -0.5947729349136353], [-0.22004680335521698, -0.2681889533996582, 0.8294546604156494, 0.2987389862537384, -0.4749313294887543, -0.3606003224849701, 0.2694475054740906, -0.47325658798217773, 0.31381675601005554, -0.3297237753868103, -0.34248360991477966, -0.7251017093658447, 0.3568224608898163, 0.4482429325580597, -0.2394927442073822, -0.13917911052703857, -0.17335380613803864, -0.16053803265094757, 0.03670508787035942, 0.40384042263031006, -0.41480252146720886, -0.43568435311317444, -0.14491961896419525, -0.5816684365272522, -0.10179296135902405, -0.2795485258102417, -0.4623749554157257, 0.7679755091667175, 0.3744126558303833, 0.1462123990058899, -0.24211198091506958, -0.5805672407150269], [-0.517676055431366, 0.26453161239624023, 0.5935850143432617, -0.08102244883775711, -0.24011941254138947, -0.09680182486772537, -0.31925567984580994, 0.19485031068325043, -0.16705051064491272, 0.022729650139808655, -0.15951745212078094, -0.13229809701442719, 0.22288669645786285, 1.0859185457229614, -0.60714191198349, -0.766324520111084, -0.29664161801338196, 0.18303216993808746, -0.5207724571228027, -0.4121498763561249, -0.35578814148902893, -0.06277268379926682, 0.0446583554148674, 0.30392006039619446, -0.4795520305633545, -0.16809365153312683, 0.4030706584453583, 0.4631088078022003, -0.21158383786678314, -0.4303293228149414, -0.053660351783037186, -0.33005648851394653], [0.016968153417110443, 0.4245142936706543, 0.64138263463974, -0.19583764672279358, -0.40520215034484863, -0.1076466292142868, -0.06208113208413124, -0.30342480540275574, -0.16399164497852325, -0.17175284028053284, -0.7608016133308411, -0.10982639342546463, 0.36981457471847534, 0.18329045176506042, -0.9162952899932861, -0.19621920585632324, 0.06967444717884064, 0.04031755030155182, -0.8643080592155457, -0.8883475065231323, -0.14866235852241516, -0.0018938948633149266, 0.09598107635974884, 0.4271685481071472, 0.08137771487236023, 0.06956733018159866, 0.8608284592628479, 0.1139538437128067, -0.2128976285457611, -0.6830253601074219, 0.5729039311408997, -0.009609811939299107], [0.04868335276842117, 0.39724108576774597, 0.37675145268440247, -0.4239782392978668, 0.13826802372932434, -0.02416604943573475, 0.032383136451244354, 0.08273666352033615, -0.05934416130185127, -0.47606179118156433, 0.20105406641960144, -0.45216381549835205, 0.2558160126209259, 0.8251553773880005, -0.03724510222673416, -0.06108388304710388, 0.029096657410264015, 0.47433701157569885, -0.22957396507263184, -0.5777353048324585, 0.2868421673774719, 0.2924000918865204, 0.11006014794111252, 0.09603662043809891, -0.024393338710069656, 0.6911393404006958, 0.015574933961033821, 0.25737619400024414, -0.14808720350265503, -0.35796305537223816, -0.4938969910144806, 0.07326903194189072], [0.27629396319389343, 0.41376227140426636, 0.5148435831069946, -0.3031177818775177, -0.3744123876094818, -0.12746970355510712, -0.2990814447402954, -0.4463138282299042, 0.35038620233535767, 0.060505207628011703, -0.3691226541996002, -0.2372441440820694, 0.503156840801239, 0.5480165481567383, -0.6204856038093567, -0.2671058475971222, 0.28657597303390503, 0.09928400814533234, -0.5186173319816589, -0.8715385794639587, -0.465481162071228, 0.3039664328098297, -0.11253548413515091, 0.3112523555755615, 0.5127879977226257, 0.22715908288955688, 1.1452125310897827, 0.25726965069770813, -0.22487059235572815, -0.5729506611824036, -0.37640824913978577, -0.10288194566965103], [-0.18941278755664825, -0.06580206006765366, 0.20412538945674896, 0.12838122248649597, -0.09545610100030899, -0.08144398778676987, 0.08395399153232574, -0.6280266046524048, -0.4036884605884552, 0.3861646056175232, -0.00010784724145196378, 0.21935635805130005, 0.33187273144721985, 0.3504098653793335, -0.5211871266365051, -0.07968517392873764, 0.3035752773284912, -0.17164823412895203, -0.01232108287513256, -0.27745571732521057, -0.11803432554006577, 0.2812565565109253, -0.19955356419086456, 0.1707882434129715, -0.13997940719127655, -0.03476543724536896, 0.5769399404525757, -0.23544667661190033, 0.16293807327747345, -0.5202714800834656, 0.4664779603481293, 0.07372862845659256], [0.1314588338136673, -0.3390182852745056, 0.4083256721496582, 0.06002866104245186, 0.06591728329658508, 0.22304697334766388, -0.2717817723751068, 0.3816879391670227, 0.3569546639919281, -0.5577043890953064, -0.20058543980121613, -0.3893682062625885, 0.1799168735742569, 0.058433059602975845, -0.18979085981845856, 0.13604144752025604, 0.2191588133573532, -0.0662582740187645, -0.2086685448884964, -0.7038453817367554, 0.2069082260131836, -0.32207342982292175, -0.03439249098300934, 0.471027135848999, -0.2612805664539337, -0.04946134611964226, 0.46450695395469666, 0.2931540906429291, 0.21182958781719208, -0.3683570921421051, 0.09441377967596054, 0.05086082965135574], [-0.008930779062211514, 0.35236650705337524, 0.20220212638378143, 0.5946087837219238, 0.23733487725257874, -0.11678823828697205, -0.37715578079223633, 0.2248389720916748, 0.3367290198802948, 0.10919222235679626, -0.19835399091243744, -0.04952984303236008, 0.31634095311164856, 0.2834520637989044, -0.057797759771347046, -0.6098534464836121, -0.30403971672058105, -0.16982564330101013, 0.08355477452278137, -0.5448175072669983, -0.036140285432338715, -0.03570788353681564, 0.1073298305273056, 0.16439959406852722, -0.0011352058500051498, -0.19771555066108704, 0.004139214288443327, 0.0013511846773326397, -0.43739259243011475, -0.26298028230667114, 0.171418696641922, -0.25098249316215515], [-0.6953768134117126, 0.065432608127594, 0.2985430359840393, 0.1051521822810173, 0.07219251990318298, 0.3369941711425781, -0.10844404250383377, -0.05749952048063278, 0.2505972385406494, -0.4424775540828705, 0.13412652909755707, -0.2335200160741806, 0.30657634139060974, 0.0653071403503418, 0.07668764889240265, 0.188017800450325, -0.31616824865341187, -0.1236627846956253, -0.20972859859466553, -0.4206565022468567, -0.07838103175163269, -0.04169589653611183, -0.045672204345464706, 0.13665448129177094, 0.023748695850372314, -0.14903491735458374, 0.09878601878881454, -0.04029223322868347, -0.4124418795108795, -0.06793846189975739, 0.2032092809677124, 0.15589533746242523], [-0.06944932788610458, 0.16290797293186188, 0.4752160608768463, -0.04687904566526413, 0.05434105172753334, -0.17044597864151, -0.26167625188827515, -0.38838818669319153, 0.03817271068692207, 0.08881742507219315, -0.5619434118270874, 0.15953108668327332, 0.08591841906309128, 0.17124003171920776, -0.028073333203792572, -0.11041691154241562, -0.05502062290906906, 0.21299441158771515, -0.9222899079322815, -1.0026719570159912, -0.21692028641700745, 0.6073452234268188, -0.5349760055541992, 0.5155205130577087, -0.38340264558792114, -0.10396572202444077, 0.49075546860694885, -0.02307555265724659, -0.28724372386932373, -0.18080925941467285, 0.3350992202758789, -0.42449668049812317], [-0.1436682939529419, 0.30026715993881226, 0.32846730947494507, 0.2233005315065384, -0.09798456728458405, -0.4998394548892975, 0.10220316052436829, -0.43851837515830994, -0.1977337896823883, 0.028742028400301933, 0.24536460638046265, -0.2853752076625824, 0.12445521354675293, 0.7793718576431274, -0.6484301686286926, 0.17175893485546112, 0.07904975861310959, -0.08678293973207474, -0.05754217132925987, -0.24435392022132874, 0.05148705467581749, -0.024075988680124283, -0.37002888321876526, 0.0868121013045311, -0.1915825754404068, -0.2112535685300827, -0.06388838589191437, 0.1077939048409462, 0.1562085747718811, -0.525418758392334, -0.12882481515407562, -0.05804948881268501], [-0.05395538732409477, -0.09334421157836914, 0.7525280117988586, 0.21676954627037048, -0.23650819063186646, -0.4477306604385376, -0.009117514826357365, 0.14299972355365753, 0.2129320353269577, 0.34592530131340027, 0.16926802694797516, -0.4038577973842621, 0.5527549982070923, 0.3704180121421814, -0.833200216293335, -0.022355254739522934, 0.05339895188808441, 0.022226374596357346, -0.5450948476791382, -0.6263228058815002, -0.5703387260437012, -0.4630955159664154, 0.08269547671079636, -0.03616565838456154, 0.11981851607561111, -0.09016206115484238, 0.532295823097229, 0.1323411464691162, -0.3156294524669647, -0.26276206970214844, 0.07320722937583923, 0.03448273986577988], [-0.3137374818325043, 0.4369794428348541, 1.1708974838256836, 0.11477980017662048, -0.23564617335796356, 0.30011600255966187, 0.37921828031539917, 0.526942789554596, 0.32035160064697266, 0.08010097593069077, -0.22664372622966766, -0.2883892357349396, 0.5277363657951355, 0.5383051037788391, 0.057560600340366364, 0.14503614604473114, -0.23468758165836334, 0.545713484287262, 0.4601075053215027, 0.06245163083076477, -0.08207732439041138, 0.6114768385887146, 0.5027689337730408, 0.6988872289657593, 0.03199456259608269, -0.042569492012262344, 0.6071765422821045, 0.33193260431289673, -0.20358043909072876, 0.488411545753479, -0.19561134278774261, -0.06544853001832962], [-0.14562921226024628, 0.24027496576309204, 0.43028727173805237, -0.0185185968875885, -0.0443766824901104, -0.07026621699333191, -0.09399790316820145, -0.1068926751613617, -0.01492618303745985, 0.03358341380953789, 0.17403872311115265, -0.2439979761838913, 0.28509455919265747, 0.32272329926490784, 0.14463171362876892, 0.09770354628562927, 0.010939883068203926, 0.1469004899263382, -0.014664475806057453, -0.20162223279476166, 0.2463020384311676, -0.05960119888186455, -0.007361935917288065, 0.07229150086641312, -0.5077037811279297, 0.004635545425117016, 0.833372950553894, 0.4511018693447113, -0.029468150809407234, -0.6661307215690613, -0.04819345474243164, -0.0007563050021417439], [-0.13431793451309204, 0.4668262302875519, 0.5398132801055908, 0.11070096492767334, -0.3268801271915436, -0.03972863033413887, 0.3134000897407532, -0.210420623421669, -0.17693163454532623, 0.12342829257249832, -0.014395439997315407, 0.30432775616645813, 0.28776609897613525, 0.2989521324634552, -0.31364771723747253, 0.17745402455329895, 0.25517913699150085, 0.12011940777301788, -0.009751666337251663, -0.46893277764320374, -0.2906486988067627, 0.01306228805333376, -0.6995870471000671, 0.14141759276390076, 0.08352597057819366, -0.06067310646176338, 0.4642125070095062, -0.20130309462547302, -0.07980848103761673, -0.09103235602378845, -0.2813108563423157, -0.08102790266275406], [-0.19124338030815125, -0.2914358973503113, 0.22668151557445526, -0.03140877187252045, 0.2793704867362976, -0.17094486951828003, -0.42080122232437134, 0.31372860074043274, -0.04686722159385681, 0.48235997557640076, -0.16770236194133759, 0.0479680672287941, 0.24447713792324066, -0.09149027615785599, -0.6299196481704712, 0.33993712067604065, -0.47283807396888733, 0.16786544024944305, 0.13668233156204224, -0.02822975441813469, -0.09820357710123062, 0.24280861020088196, 0.2014467716217041, 0.2997935116291046, -0.5423789620399475, 0.09935542196035385, -0.0023582703433930874, 0.1434345692396164, 0.49485674500465393, -0.3845894932746887, -0.2199491262435913, -0.07183987647294998], [-0.029782583937048912, 0.1344752460718155, 0.3081601858139038, -0.3377639353275299, 0.16323597729206085, 0.015668246895074844, 0.2714032828807831, 0.15053771436214447, -0.004543697461485863, -0.10397034138441086, 0.028284281492233276, -0.09981811046600342, 0.4688507318496704, 0.5257840752601624, -0.47706735134124756, 0.3759167194366455, 0.4005853533744812, 0.1988932192325592, -0.4132283329963684, -0.07814981043338776, 0.25831228494644165, -0.009041125886142254, 0.050471916794776917, 0.4673610329627991, 0.43282973766326904, 0.41362830996513367, 0.6655711531639099, -0.1589275747537613, 0.4273904263973236, 0.019612494856119156, 0.1633571833372116, -0.17507411539554596], [-0.09328331798315048, 0.6049075126647949, 0.737808883190155, -0.10350507497787476, 0.046878382563591, -0.07465837895870209, -0.0024840428959578276, 0.4963504374027252, 0.13141456246376038, -0.19430036842823029, -0.3854902386665344, -0.5766698718070984, 0.6252899765968323, 0.4474920630455017, 0.050383441150188446, 0.11582331359386444, -0.01625242456793785, 0.2870073914527893, -0.2462790459394455, 0.02723405696451664, -0.2218404859304428, -0.1448233425617218, 0.0551920011639595, 0.42930319905281067, 0.14621739089488983, 0.3482634425163269, 0.44874945282936096, 0.18238210678100586, -0.41038233041763306, -0.5747694969177246, 0.5467091202735901, -0.04649113118648529], [0.03560568019747734, 0.6601356863975525, 0.8300036787986755, 0.0058140563778579235, 0.6169735193252563, -0.14512933790683746, -0.39174652099609375, -0.12060931324958801, 0.1662011742591858, -0.214715376496315, -0.5539637207984924, -0.14209938049316406, -0.012422150932252407, 1.009964108467102, -0.5973318815231323, -0.1443759948015213, -0.18626248836517334, -0.0795011892914772, -0.2950221002101898, -0.4478932023048401, -0.2927885949611664, -0.023731986060738564, -0.11035925149917603, 0.19172877073287964, -0.22384965419769287, -0.3600805103778839, 0.22651290893554688, 0.3644333779811859, -0.05920899659395218, -0.596546471118927, -0.21520450711250305, -0.07199960201978683], [0.14712783694267273, -0.12168976664543152, 0.360320121049881, 0.2895260453224182, 0.04065859317779541, -0.09760521352291107, -0.14440831542015076, -0.2604033648967743, -0.37934017181396484, -0.010094383731484413, -0.5762504935264587, 0.5543133020401001, 0.17466813325881958, 0.8082437515258789, -0.2583458423614502, 0.36482247710227966, 0.4887283146381378, -0.12118572741746902, -0.2400243729352951, -0.8339166641235352, 0.016413647681474686, 0.013404853641986847, -0.320209801197052, 0.301777720451355, -0.12134351581335068, -0.02645108662545681, 0.1175253614783287, -0.13260236382484436, 0.35777202248573303, -0.17981530725955963, 0.14424125850200653, 0.022750310599803925], [-0.08644204586744308, 0.49254485964775085, 0.6981114149093628, -0.121979258954525, 0.21247528493404388, 0.382803350687027, 0.2368260622024536, 0.2709164619445801, -0.27972152829170227, 0.16646668314933777, -0.38709551095962524, -0.2465224266052246, 0.6574738025665283, 0.7497779726982117, -0.7786523103713989, -0.13050583004951477, -0.2795542776584625, 0.28490743041038513, 0.18645769357681274, 0.13466133177280426, -0.3016918897628784, -0.24177108705043793, -0.007370998617261648, 0.44621971249580383, 0.20350505411624908, 0.0005277806194499135, 0.5498180389404297, 0.24525289237499237, -0.2949443757534027, -0.3734636902809143, 0.21812757849693298, 0.3621785044670105], [-0.1506035476922989, 0.06264258176088333, 0.6976520419120789, 0.03883151337504387, 0.1300826519727707, -0.16288919746875763, -0.20733396708965302, -0.027238259091973305, 0.38835299015045166, -0.08284402638673782, -0.18989618122577667, 0.360904335975647, 0.522551953792572, 0.6453602313995361, -0.4103437662124634, -0.19124361872673035, 0.014669300988316536, 0.24208751320838928, -0.5541731119155884, -0.37451809644699097, -0.028596626594662666, 0.13057515025138855, -0.13657133281230927, 0.2456739842891693, -0.25513163208961487, -0.18477755784988403, 0.75163733959198, 0.05311189591884613, -0.4369554817676544, -0.44405612349510193, 0.018296118825674057, 0.5246104001998901], [-0.14832803606987, 0.35080069303512573, 0.2828511893749237, -0.2169220745563507, 0.25561609864234924, -0.11987253278493881, -0.15030157566070557, 0.1405089944601059, -0.20224405825138092, -0.17912165820598602, 0.019320834428071976, 0.05004136264324188, 0.44910237193107605, -0.056193288415670395, -0.9627014994621277, -0.23127566277980804, 0.15733440220355988, -0.11213208734989166, -0.3970286548137665, -0.11680278182029724, -0.2338443547487259, 0.14789779484272003, -0.19976159930229187, 0.6278951168060303, -0.7197540402412415, 0.4054461419582367, 1.2588657140731812, 0.032684389501810074, -0.4320951998233795, -0.4734204411506653, -0.04688207805156708, 0.03052423894405365], [-0.02930065616965294, 0.05514034628868103, 0.482272207736969, 0.1696789711713791, 0.06444358825683594, -0.14380519092082977, -0.027605485171079636, -0.34077709913253784, 0.0042291684076189995, -0.17161910235881805, -0.24682310223579407, 0.08041848987340927, 0.13498273491859436, 0.8573625087738037, -0.6538752913475037, -0.11297956109046936, 0.04852830991148949, -0.23640677332878113, -0.5206236243247986, -0.7347400188446045, -0.14500363171100616, -0.12423147261142731, -0.11916858702898026, 0.3970789313316345, -0.3824100196361542, 0.13085608184337616, 0.7089647650718689, 0.38109397888183594, -0.3725268840789795, 0.11899635195732117, 0.16563881933689117, 0.12383785843849182], [0.19896653294563293, 0.0641363263130188, 0.3742581605911255, -0.2860453724861145, -0.21738801896572113, -0.34095266461372375, -0.43997564911842346, 0.030081719160079956, -0.06942170858383179, -0.01795653998851776, 0.24542337656021118, 0.317334920167923, 0.5233126878738403, 1.0222249031066895, -0.43190839886665344, 0.292133629322052, -0.02728363126516342, 0.12939751148223877, -0.038008227944374084, -0.5128694772720337, -0.07171337306499481, -0.2813764810562134, -0.03579908609390259, -0.31571874022483826, -0.44863027334213257, -0.10589247941970825, 1.0198484659194946, -0.11973500996828079, -0.07132110744714737, -0.2648695409297943, -0.0389372743666172, -0.14412333071231842], [0.07727129757404327, 0.2499150186777115, 0.30429020524024963, -0.22464442253112793, 0.03958321735262871, -0.41023993492126465, 0.27831611037254333, 0.0641898661851883, 0.06251585483551025, -0.23418442904949188, -0.1705627292394638, 0.1584434062242508, 0.2666453421115875, 0.6480085253715515, -0.722240149974823, 0.0552501380443573, -0.20072002708911896, 0.4753611981868744, -0.39917460083961487, -0.5281065106391907, 0.12221619486808777, -0.04251689836382866, 0.14857415854930878, 0.17963862419128418, -0.18058912456035614, 0.06386619806289673, 0.3573587238788605, -0.5592643618583679, -0.5816881656646729, -0.1427634358406067, 0.41343405842781067, 0.15274997055530548], [-0.4190673232078552, 0.3484595715999603, 0.49565252661705017, -0.33684059977531433, 0.030648713931441307, 0.2605835199356079, -0.017681460827589035, 0.46992745995521545, 0.20414666831493378, 0.26284921169281006, -0.5341023802757263, 0.004799162968993187, 0.3547782897949219, 0.3435787558555603, -0.2875700294971466, -0.1171056404709816, -0.36712589859962463, -0.09544705599546432, -0.15232305228710175, -0.3519044518470764, -0.19277797639369965, -0.004248190205544233, -0.498693585395813, 0.09196781367063522, 0.027406226843595505, -0.12464205175638199, 0.2978205382823944, 0.23964478075504303, -0.07256098836660385, -0.13159891963005066, -0.3639873266220093, 0.002697979100048542], [-0.7620234489440918, -0.18553940951824188, 0.49925923347473145, 0.06365220248699188, -0.43509507179260254, -0.07541319727897644, -0.40977203845977783, -0.2081432193517685, -0.03829647973179817, 0.014456362463533878, -0.3278653621673584, -0.4214037358760834, 0.4694971442222595, 0.051403436809778214, -0.42753106355667114, 0.3373600244522095, -0.14509819447994232, 0.3157839775085449, -0.6267983913421631, -0.3580266833305359, -0.07412821054458618, 0.0034621763043105602, -0.2523760497570038, 0.003144324291497469, 0.49180424213409424, 0.3049481213092804, 0.44477126002311707, -0.06123729795217514, 0.0752314031124115, -0.5373409986495972, 0.3069242238998413, 0.22818121314048767], [0.37813395261764526, 0.48361992835998535, 0.09391997754573822, 0.36717554926872253, 0.08610770106315613, -0.22596794366836548, -0.28983429074287415, 0.37264421582221985, 0.4335147440433502, -0.03202134370803833, -0.5936576724052429, 0.3045431673526764, 0.0932249054312706, 0.29636937379837036, -0.07473233342170715, 0.3140711188316345, -0.6371582746505737, 0.03836887702345848, -0.23346009850502014, 0.038076646625995636, 0.1898653358221054, 0.04699969291687012, 0.4424510896205902, 0.5293092131614685, -0.35295772552490234, 0.0901067927479744, 0.8756384253501892, 0.24476847052574158, -0.3105400502681732, -0.33131176233291626, -0.13339900970458984, 0.2468303143978119], [0.33079493045806885, 0.06332124024629593, 0.16709300875663757, 0.2752479910850525, 0.057896316051483154, -0.561977744102478, -0.2327689528465271, -0.021280111744999886, -0.05041242763400078, -0.18400391936302185, -0.09767607599496841, -0.06177715212106705, 0.6884680986404419, 0.4291941821575165, -0.5141751170158386, -0.10809855908155441, -0.5019345283508301, -0.3068377375602722, -0.2495107501745224, -0.23427607119083405, -0.5021913647651672, 0.2747064232826233, -0.32373037934303284, 0.1487470418214798, -0.15682698786258698, -0.3877774477005005, 0.6507022976875305, -0.10138604789972305, -0.0665222629904747, -0.5307316780090332, 0.07145276665687561, 0.02962331660091877], [-0.16227231919765472, 0.4702228307723999, 0.1600029468536377, -0.5042364597320557, 0.47034013271331787, -0.06604461371898651, -0.5444098711013794, 0.10914339125156403, -0.34329190850257874, 0.4145950376987457, -0.33462193608283997, 0.25866270065307617, 0.3291075527667999, 0.1258872002363205, -0.4537788927555084, 0.04015135020017624, -0.1544291079044342, 0.12543299794197083, -0.2503076493740082, -0.05266387760639191, -0.11541035771369934, -0.09959404170513153, 0.10814495384693146, 0.3036974370479584, -0.2045954167842865, -0.2825521230697632, 0.3999052941799164, 0.4019205570220947, -0.014747390523552895, -0.5968185067176819, -0.08680213242769241, 0.05948077142238617], [0.1566402167081833, 0.44081637263298035, 0.9233982563018799, -0.1003132313489914, 0.5295431017875671, -0.17068585753440857, -0.23610042035579681, -0.23714564740657806, 0.15365570783615112, -0.070872962474823, -0.09438593685626984, 0.09178933501243591, 0.1515028178691864, 0.4162774384021759, -0.19545093178749084, 0.09993144124746323, 0.41767749190330505, -0.10050469636917114, -0.39035627245903015, -1.0551393032073975, -0.1671428233385086, -0.2877873182296753, -0.4606715738773346, 0.37489187717437744, -0.2559630572795868, -0.11891138553619385, 0.6526902318000793, 0.22914090752601624, -0.3503122925758362, -0.29841506481170654, 0.16569657623767853, 0.13219206035137177], [-0.23945435881614685, 0.6152477860450745, 0.026701848953962326, 0.5029695630073547, -0.19199274480342865, -0.3527717888355255, -0.35354912281036377, -0.0046404944732785225, 0.29154789447784424, -0.43069493770599365, -0.5917170643806458, -0.4326570928096771, 0.06944609433412552, 0.318697988986969, -0.29542937874794006, 0.03751698136329651, 0.2511351704597473, -0.00417966116219759, -0.34301692247390747, -0.5077696442604065, 0.2159738391637802, 0.1945841759443283, 0.20413851737976074, 0.7755532264709473, 0.286831259727478, -0.12845014035701752, 1.095737338066101, 0.3826160728931427, 0.14135880768299103, -0.46263226866722107, -0.04023411497473717, -0.0299652349203825]], "lstm.weight_hh_l0": [[-0.18157368898391724, 0.17106205224990845, -0.15270093083381653, -0.1762215793132782, -0.18921664357185364, -0.049635693430900574, -0.2962537705898285, 0.0709325447678566, -0.33458712697029114, -0.1319529116153717, 0.20815277099609375, -0.3014814257621765, -0.23627974092960358, 0.19319845736026764, 0.1977776736021042, 0.3551468551158905, 0.29081296920776367, -0.30476057529449463, -0.3143145442008972, -0.041058845818042755, 0.37718695402145386, -0.2850736081600189, -0.08935505896806717, -0.21139732003211975, 0.3701613247394562, 0.2727281153202057, -0.28032177686691284, -0.1586291342973709, -0.18557803332805634, 0.12262555956840515, -0.037638355046510696, -0.24337652325630188], [-0.06817919760942459, 0.2839142382144928, 0.35608145594596863, -0.014235226437449455, -0.012811753898859024, -0.027220919728279114, -0.12887395918369293, -0.06701313704252243, -0.29456865787506104, -0.0533008873462677, -0.04838890582323074, -0.11396528780460358, 0.14146800339221954, -0.012047911994159222, -0.01593470759689808, 0.13079378008842468, -0.055068548768758774, -0.05856004357337952, -0.08976780623197556, 0.0907086730003357, 0.040686264634132385, -0.24704375863075256, -0.1801195740699768, -0.13139356672763824, -0.08236626535654068, 0.17354221642017365, 0.17543822526931763, 0.033931195735931396, -0.023288406431674957, -0.01166739221662283, 0.11042818427085876, 0.012389314360916615], [0.049652792513370514, -0.0024754544720053673, 0.42668700218200684, -0.16511927545070648, 0.1278751939535141, 0.02320493571460247, 0.07190339267253876, 0.11021286994218826, 0.09475556015968323, 0.23611541092395782, -0.09834284335374832, 0.07218801230192184, 0.0623210109770298, 0.1502583622932434, -0.1583537757396698, -0.10011154413223267, 0.2094525843858719, -0.04842769354581833, -0.3474186956882477, 0.16203616559505463, 0.03061763010919094, -0.05473260581493378, 0.1848313957452774, -0.009373736567795277, -0.052089814096689224, -0.11886166036128998, 0.06465235352516174, 0.04591531679034233, -0.005740890745073557, -0.19765052199363708, -0.18927285075187683, 0.044682811945676804], [0.2010849267244339, 0.14196066558361053, -0.17521700263023376, -0.0654643326997757, 0.03407330438494682, 0.16858218610286713, -0.5015433430671692, 0.4298841655254364, -0.21770866215229034, 0.010631333105266094, 0.23848856985569, -0.23376764357089996, -0.06114932894706726, 0.18104861676692963, 0.4222794771194458, 0.21412748098373413, 0.15841719508171082, -0.19407238066196442, -0.26347535848617554, 0.13549402356147766, 0.3400926887989044, -0.5232006311416626, -0.16201569139957428, 0.13330261409282684, 0.2880946397781372, 0.12203607708215714, -0.22826363146305084, -0.30712002515792847, -0.1827581375837326, -0.007695034611970186, -0.09883617609739304, -0.4225656986236572], [0.3493073880672455, 0.2797534167766571, 0.16758963465690613, -0.3619348108768463, 0.3908478319644928, 0.4133652150630951, -0.01808174140751362, 0.17709003388881683, -0.180153027176857, 0.0931842178106308, 0.12474110722541809, -0.2065964639186859, -0.3888157308101654, 0.158221036195755, 0.15188191831111908, 0.30918896198272705, 0.19900919497013092, -0.048445925116539, -0.27230286598205566, -0.19071827828884125, 0.01416323333978653, -0.20788176357746124, 0.18719373643398285, -0.2227911353111267, -0.1371375173330307, 0.16391350328922272, -0.3593316376209259, -0.17549054324626923, -0.1982063502073288, 0.34283584356307983, -0.5012345314025879, -0.4408316910266876], [0.02164759486913681, 0.09545545279979706, -0.02751823700964451, 0.26977530121803284, 0.2641700804233551, -0.38876885175704956, 0.08712188154459, -0.10082027316093445, 0.0725080668926239, -0.3278418779373169, -0.15110532939434052, -0.07663996517658234, 0.08923061192035675, 0.030636433511972427, -0.1397830992937088, -0.04988506808876991, -0.16767892241477966, 0.3169804513454437, 0.08432375639677048, 0.14241507649421692, -0.10774590075016022, -0.10831829160451889, 0.1357400268316269, 0.09415729343891144, -0.05153319612145424, -0.26981040835380554, 0.019722450524568558, -0.2651725709438324, 0.0849304124712944, -0.10587317496538162, 0.35810983180999756, -0.04590761661529541], [-0.22259244322776794, -0.10565342754125595, 0.019726507365703583, 0.2264401912689209, -0.1499449610710144, 0.17270492017269135, 0.4574688971042633, 0.0013679057592526078, -0.0856388583779335, -0.14100584387779236, -0.14004048705101013, -0.32038190960884094, 0.03835676237940788, 0.03184504434466362, 0.13652917742729187, 0.06558661162853241, -0.060609664767980576, 0.096311055123806, -0.013814421370625496, 0.3677707314491272, -0.25914689898490906, 0.03249409422278404, 0.06275949627161026, 0.13984645903110504, -0.04130357876420021, 0.06392627954483032, 0.19444787502288818, -0.1392451375722885, 0.06300351768732071, 0.03051702119410038, 0.10761769115924835, -0.07933814078569412], [0.06455514580011368, -0.03828155994415283, 0.2147998809814453, -0.06773397326469421, 0.34227943420410156, 0.06336481124162674, -0.029718006029725075, -0.3198922872543335, 0.14008916914463043, 0.08176392316818237, 0.027698323130607605, -0.09843079000711441, -0.0874142199754715, 0.14817188680171967, -0.07135704904794693, 0.20587652921676636, -0.061986293643713, 0.0491730272769928, -0.05777965858578682, 0.17597559094429016, 0.04123248532414436, 0.050561629235744476, -0.14247512817382812, 0.1238798126578331, -0.08054536581039429, -0.24507394433021545, -0.047845106571912766, 0.07074154168367386, -0.03056921809911728, -0.24380233883857727, -0.08139621466398239, -0.12645697593688965], [0.12131296843290329, 0.0875348299741745, -0.0488894097507, -0.2647060751914978, 0.03342321887612343, 0.1555439978837967, -0.18202725052833557, -0.0004961154772900045, 0.04763610288500786, 0.3184801936149597, 0.24045316874980927, 0.07597263902425766, 0.028799284249544144, 0.2058504819869995, 0.2265748530626297, 0.3346301317214966, -0.03860844671726227, -0.13233737647533417, -0.17596277594566345, -0.3910728096961975, 0.20104436576366425, -0.17673362791538239, -0.25252076983451843, -0.41490447521209717, 0.22964170575141907, 0.1176794245839119, -0.18009725213050842, -0.24609440565109253, -0.18870899081230164, 0.2065204679965973, -0.09294410794973373, -0.1504077911376953], [0.4547702372074127, 0.3358575105667114, -0.30895736813545227, -0.5585268139839172, -0.278638631105423, 0.43625614047050476, -0.5043889284133911, 0.1793471872806549, -0.3450501263141632, 0.03028215654194355, 0.524495542049408, -0.1121569350361824, -0.4272173047065735, 0.4054895043373108, 0.09410671144723892, 0.038094907999038696, 0.5050614476203918, -0.21949557960033417, -0.43794551491737366, -0.2605080008506775, 0.4495377242565155, -0.6503896713256836, -0.4396333694458008, -0.26322677731513977, 0.3429672122001648, 0.47893208265304565, -0.34246185421943665, -0.3786570727825165, -0.3113901615142822, 0.37028253078460693, -0.21426524221897125, -0.7114768624305725], [0.06558861583471298, 0.18679967522621155, -0.09734640270471573, -0.07348976284265518, -0.1582329422235489, 0.2106291949748993, -0.006340515799820423, 0.26461872458457947, -0.11177424341440201, 0.09671688079833984, -0.17147770524024963, -0.02861599437892437, -0.2666156589984894, 0.35642093420028687, 0.1890791803598404, 0.0758725181221962, 0.21013109385967255, -0.2882010042667389, -0.060405950993299484, -0.22509559988975525, 0.4236551821231842, -0.2063286453485489, -0.12487956136465073, -0.3126404285430908, 0.1911150962114334, 0.35191968083381653, -0.19476155936717987, -0.2264004349708557, -0.20574389398097992, 0.526825487613678, -0.2481686919927597, -0.26153087615966797], [-0.07203550636768341, 0.1991042047739029, -0.11452249437570572, -0.17120547592639923, -0.12596149742603302, 0.007711874786764383, -0.0660749226808548, 0.13156750798225403, -0.19706909358501434, -0.09679315239191055, -0.09999221563339233, -0.0499652735888958, 0.09333349764347076, 0.08757058531045914, 0.13312387466430664, -0.03629748523235321, 0.09369953721761703, -0.3438487946987152, -0.060392554849386215, -0.03964030742645264, 0.19658294320106506, -0.10893648862838745, 0.00994063913822174, -0.07098855823278427, 0.08123999089002609, 0.09125104546546936, -0.07334242761135101, -0.14214718341827393, 0.12453871220350266, 0.13005638122558594, 0.05218978971242905, -0.047838229686021805], [0.2640779912471771, 0.1761222928762436, -0.008226566947996616, -0.35689496994018555, -0.011799606494605541, 0.26651448011398315, 0.037154365330934525, -0.04355180263519287, -0.11778566986322403, 0.05358551815152168, 0.0756482258439064, -0.1076752170920372, 0.32359519600868225, 0.3306293785572052, 0.06513326615095139, 0.1903255134820938, 0.19439290463924408, -0.40144625306129456, -0.15044908225536346, -0.21264207363128662, 0.29848796129226685, -0.45649516582489014, -0.383205384016037, -0.19668282568454742, 0.16041557490825653, 0.11480019986629486, -0.28707054257392883, -0.4467543065547943, -0.058644454926252365, 0.42464783787727356, -0.44029828906059265, -0.5083760023117065], [0.15883341431617737, 0.1158064529299736, 0.18182769417762756, -0.14539949595928192, -0.0812290832400322, 0.09103935211896896, -0.27972057461738586, 0.025389445945620537, 0.011928151361644268, -0.037465810775756836, 0.07926040142774582, -0.06790833175182343, -0.02545265667140484, 0.006627490743994713, 0.05430363863706589, 0.027176659554243088, -0.05347483605146408, 0.10012292861938477, -0.1594150960445404, -0.026334315538406372, 0.2849140763282776, -0.3022468686103821, 0.11412691324949265, -0.0020122036803513765, 0.059647079557180405, 0.2576300799846649, -0.12794229388237, -0.15552547574043274, -0.09480083733797073, 0.1810922771692276, -0.016358528286218643, -0.08493747562170029], [-0.17236930131912231, 0.1258961260318756, -0.07501363009214401, 0.03033352456986904, -0.1785840541124344, 0.09927846491336823, -0.0023816959001123905, 0.21959075331687927, -0.14588995277881622, -0.16567616164684296, -0.009324034675955772, -0.17008867859840393, -0.2195611596107483, 0.1271565556526184, -0.03162272274494171, 0.1333424299955368, -0.00038117560325190425, -0.10763201117515564, -0.07792272418737411, 0.16939380764961243, -0.021345358341932297, -0.0007111138547770679, -0.10955505073070526, -0.1270352303981781, 0.11747311800718307, 0.24189452826976776, 0.08038334548473358, -0.2560393512248993, -0.2219924032688141, 0.14899836480617523, 0.009537138044834137, 0.24715764820575714], [-0.28979313373565674, -0.05270201712846756, 0.23302847146987915, 0.154695525765419, 0.18650034070014954, -0.390801340341568, 0.3508858382701874, -0.13661228120326996, 0.25706979632377625, 0.03477616608142853, -0.27314499020576477, -0.08602271229028702, 0.18235963582992554, -0.17149437963962555, -0.098958820104599, -0.2277144491672516, -0.12616512179374695, 0.24195849895477295, 0.0436350479722023, 0.20223955810070038, -0.24570146203041077, 0.16385281085968018, 0.44800981879234314, 0.29367807507514954, -0.03262029588222504, -0.18761931359767914, 0.2502681314945221, 0.09208045899868011, 0.25789421796798706, -0.2454805225133896, 0.18762239813804626, 0.006340197753161192], [0.0095067722722888, -0.11486512422561646, 0.2882545590400696, -0.11349544674158096, 0.3525724709033966, -0.05378350988030434, -0.11402047425508499, -0.03423784673213959, 0.30662646889686584, -0.20347662270069122, 0.11856096982955933, -0.07154423743486404, -0.01959424838423729, -0.015246609225869179, 0.03409261628985405, 0.06183209270238876, -0.42554813623428345, -0.23325373232364655, -0.016107942909002304, 0.1857633739709854, 0.20631848275661469, -0.20032286643981934, 0.014126868918538094, 0.11433175206184387, 0.04153286665678024, -0.0029396223835647106, -0.028618667274713516, -0.25492623448371887, 0.16330768167972565, 0.1306856870651245, 0.044748879969120026, -0.1750732660293579], [0.34203317761421204, 0.32537925243377686, 