{"linear_1.weight": [[0.6959763765335083], [0.7448439002037048], [-0.23427248001098633], [0.6757793426513672], [-0.11721562594175339], [0.0662679597735405], [-0.16787520051002502], [0.7175584435462952], [0.8762270212173462], [-0.7474266886711121], [0.8204784989356995], [0.0010914710583165288], [0.18648530542850494], [0.13543057441711426], [0.06873961538076401], [-0.15036645531654358], [0.7905380725860596], [0.14780890941619873], [-0.46683990955352783], [0.2548983097076416], [-0.46073663234710693], [-0.00941096805036068], [-0.19265559315681458], [0.3376692831516266], [-0.4753255248069763], [-0.5580777525901794], [-0.6064052581787109], [-0.601272463798523], [0.1958986520767212], [-1.1081510782241821], [0.14751295745372772], [-0.9341276288032532]], "linear_1.bias": [0.6999486088752747, -0.25469863414764404, -0.32470452785491943, 0.6779436469078064, 0.15464432537555695, 0.09490259736776352, -0.1932271420955658, -0.48161816596984863, 0.17786714434623718, -0.4018877446651459, 0.46344026923179626, -0.06535789370536804, -0.14552335441112518, -0.437172532081604, -0.10252898931503296, 0.10010509192943573, 0.4793831706047058, -0.6095050573348999, -0.9899084568023682, -0.3863605260848999, -0.7670228481292725, -0.030890271067619324, 0.2565874755382538, 0.10183366388082504, 0.2838180661201477, -0.1045309528708458, 0.6609094738960266, -0.7105135917663574, -0.24607804417610168, -0.6647109985351562, -0.191791370511055, -0.34117457270622253], "lstm.weight_ih_l0": [[-0.1771492213010788, 0.17231601476669312, -0.2396354079246521, 0.2511235773563385, -0.28995949029922485, -0.44312670826911926, -0.3434303104877472, 0.7646069526672363, -0.12323755025863647, 0.36771345138549805, 0.10193614661693573, 0.06475452333688736, 0.11483344435691833, -0.2286173403263092, -0.6107631325721741, -0.5895018577575684, 0.08070451021194458, 0.025041794404387474, -0.1456422656774521, -0.04655490443110466, -0.12264718860387802, -0.06340524554252625, -0.37172189354896545, 0.27312275767326355, -0.3028484582901001, -0.307015597820282, -0.5351575613021851, -0.12421517074108124, 0.07990448921918869, 0.5622938871383667, 0.3727959990501404, 0.3787657618522644], [0.14634601771831512, 0.23266524076461792, -0.19155508279800415, -0.4253863990306854, 0.12014561891555786, 0.31341806054115295, 0.02358052507042885, 0.9448719620704651, 0.526290237903595, 0.1442689448595047, -0.34093254804611206, -0.21614746749401093, 0.2637748122215271, -0.17186829447746277, 0.5661466717720032, -0.2953856587409973, 0.3041231334209442, -0.14541538059711456, -0.2095337212085724, 0.23281654715538025, 0.5780244469642639, 0.0036015736404806376, -0.12911753356456757, 0.8416208624839783, 0.04363173618912697, 0.009325303137302399, -0.4267699122428894, -0.19050362706184387, 0.2472982108592987, -0.0369705967605114, 0.48813965916633606, -0.20934940874576569], [-0.47318434715270996, 0.21309764683246613, 0.27430596947669983, 0.18171918392181396, -0.27622777223587036, -0.06323479861021042, -0.27917546033859253, 0.6716413497924805, 0.228876993060112, 0.2971307635307312, 0.685772180557251, 0.2736546993255615, -0.024855319410562515, 0.3426893949508667, 0.03726024180650711, -0.22685109078884125, 0.07730969041585922, 0.4325111210346222, 0.07957752794027328, -0.3040158450603485, 0.037192706018686295, 0.6148685216903687, -0.011120458133518696, 0.1393287479877472, 0.38476717472076416, 0.04797893017530441, -0.5635966062545776, -0.3681429326534271, 0.13969099521636963, 0.6048280000686646, 0.30058127641677856, 0.07335136830806732], [0.2026473730802536, 0.34599554538726807, -0.019047759473323822, -0.1003744825720787, -0.09277104586362839, -0.3915444612503052, -0.33337315917015076, 0.8396779298782349, 0.11943554133176804, -0.1649516224861145, 0.23795175552368164, 0.6389596462249756, 0.05065023526549339, 0.2929641604423523, -0.04778272658586502, -0.29152461886405945, 0.3047525882720947, 0.007591139990836382, 0.3300224542617798, -0.3305259346961975, 0.1668674200773239, 0.047001954168081284, -0.5626288056373596, -0.21060897409915924, -0.3433806896209717, -0.0671633705496788, -0.7889515161514282, 0.15021435916423798, -0.05151590332388878, 0.32817623019218445, -0.0658704861998558, 0.32579001784324646], [-0.3589734435081482, 0.23459425568580627, 0.4214678406715393, -0.3916122615337372, -0.1981571614742279, -0.32750439643859863, 0.10682138800621033, 0.25508055090904236, 0.05238863825798035, 0.15964464843273163, 0.1323496550321579, -0.15277546644210815, 0.14598114788532257, -0.4067537188529968, -0.21522922813892365, -0.3771570026874542, -0.25230830907821655, -0.061159636825323105, -0.03779669851064682, 0.3142131567001343, 0.2506770193576813, -0.2413315325975418, -0.470833957195282, 0.11768308281898499, -0.9373691082000732, -0.16828323900699615, -0.23273956775665283, -0.1653710901737213, 0.3959057331085205, 0.6835290193557739, 0.016305476427078247, 0.437555730342865], [0.44948989152908325, 0.6744393706321716, 0.3644362688064575, -0.1690952032804489, -0.10660579800605774, -0.027493895962834358, -0.125282421708107, 0.6902523040771484, 0.20310981571674347, 0.5766411423683167, -0.15251611173152924, 0.17957842350006104, 0.22954726219177246, -0.6439707279205322, 0.1966698169708252, -0.012300212867558002, 0.15360519289970398, -0.44537514448165894, -0.3730004131793976, 0.28353768587112427, -0.2619079649448395, 0.14182448387145996, -0.13954469561576843, 0.31955862045288086, -0.3030094504356384, 0.36316248774528503, -0.1863528937101364, -0.01606767438352108, 0.5602169036865234, 0.712024450302124, 0.1044413298368454, 0.20338784158229828], [-0.2430737316608429, 0.5668238401412964, 0.23033683001995087, -0.08656618744134903, -0.04348362237215042, -0.12343944609165192, 0.22252535820007324, 0.4255872964859009, 0.5670198798179626, 0.4495062828063965, 0.39606666564941406, -0.02533082291483879, 0.0772051140666008, 0.16854225099086761, 0.230599507689476, -0.14261502027511597, 0.12849777936935425, 0.035539209842681885, 0.5119598507881165, -0.27579542994499207, -0.4619351029396057, 0.0359371043741703, -0.1440287083387375, 0.16703729331493378, -0.018465526401996613, -0.02090020664036274, -0.07652916759252548, -0.39078083634376526, 0.4652830958366394, 0.5650039315223694, 0.06042078882455826, 0.8129560947418213], [0.22752374410629272, 0.6126858592033386, -0.30954399704933167, -0.30348387360572815, -0.40805909037590027, -0.0875946581363678, 0.2984243333339691, 0.811587393283844, 0.7140557169914246, -0.018998414278030396, 0.0346950963139534, -0.3129194378852844, 0.40890029072761536, -0.4022441804409027, 0.03509960696101189, -0.3928384780883789, -0.2352653592824936, 0.42725086212158203, 0.0036865409929305315, -0.007004543673247099, 0.1932460367679596, -0.01624978333711624, -0.2652495205402374, 0.26389700174331665, 0.04468041658401489, 0.12291857600212097, 0.045078519731760025, 0.06483222544193268, 0.397101491689682, 0.5486760139465332, 0.03600965812802315, -0.22183817625045776], [0.40462538599967957, 0.5889850854873657, -0.03752311319112778, -0.24946382641792297, -0.49605974555015564, -0.33828866481781006, -0.09758400917053223, 0.8407354950904846, 0.33843421936035156, 0.2058011293411255, 0.04940926656126976, -0.27011534571647644, 0.40842461585998535, 0.4242264926433563, -0.3629283010959625, -0.15130715072155, 0.14546014368534088, -0.38885992765426636, -0.12653827667236328, 0.21621929109096527, 0.17406509816646576, 0.31052646040916443, -0.6335570812225342, -0.2645682096481323, -0.2200697362422943, 0.15458817780017853, -0.6788172125816345, 0.14617733657360077, -0.0854794904589653, 0.29914385080337524, -0.3693135678768158, 0.18245594203472137], [-0.2732779085636139, 0.24819345772266388, 0.07690652459859848, 0.21611176431179047, -0.09100214391946793, -0.4248475432395935, -0.15768378973007202, 0.5195650458335876, 0.6871179342269897, 0.3651120662689209, 0.2708911597728729, 0.208556666970253, 0.3390513062477112, 0.028063874691724777, 0.07653564214706421, -0.18875432014465332, 0.10312358289957047, -0.08647090196609497, -0.048846285790205, -1.147621750831604, -0.5130724310874939, -0.04838810861110687, -0.08052075654268265, -0.09114189445972443, -0.07929255813360214, 0.10273593664169312, -0.00304229068569839, 0.17674903571605682, -0.09593081474304199, 0.3921262323856354, 0.3377656042575836, 0.463916540145874], [0.06010666862130165, 0.4798353612422943, 0.4284399151802063, -0.5585552453994751, 0.17962566018104553, 0.05619795247912407, -0.46988484263420105, 0.10931168496608734, 0.2555830180644989, 0.20064577460289001, -0.1650591939687729, -0.3223572373390198, 0.15539512038230896, -0.2010340392589569, -0.36972957849502563, 0.19137613475322723, -0.2296585589647293, 0.39125752449035645, -0.2416190207004547, 0.04166434332728386, 0.3885730803012848, -0.04256909713149071, -0.1054619550704956, -0.014071105048060417, -0.48849305510520935, -0.07182107865810394, -0.5728100538253784, -0.11062406003475189, -0.182082399725914, 1.0725677013397217, -0.09923916310071945, 0.5850183963775635], [0.10643747448921204, 0.4038330316543579, 0.09887226670980453, 0.15112952888011932, -0.6022114157676697, 0.1234234943985939, -0.01950141042470932, 0.3007621765136719, 0.24837635457515717, 0.43334248661994934, 0.11689441651105881, -0.2934160530567169, 0.054143719375133514, 0.13666924834251404, 0.22933560609817505, -0.2871721088886261, -0.1171172633767128, 0.49755701422691345, -0.3115277588367462, -0.1430370807647705, 0.09282969683408737, -0.24499350786209106, -0.1351066529750824, 0.05569465830922127, -0.21266497671604156, 0.3637489080429077, -0.9148458242416382, -0.31709015369415283, -0.07228713482618332, 0.15627698600292206, -0.06500234454870224, 0.6691713929176331], [0.15352797508239746, 0.3045973479747772, -0.006972296629101038, -0.2663424015045166, -0.3138582706451416, 0.18560336530208588, -0.24887973070144653, 0.648307204246521, 0.11140215396881104, 0.5573350787162781, 0.6606161594390869, 0.050584882497787476, 0.05071258544921875, 0.300366073846817, -0.3557877540588379, -0.14886604249477386, 0.18843160569667816, 0.16834208369255066, 0.06066867709159851, 0.22415903210639954, -0.3602084219455719, 0.0036295424215495586, -0.08355874568223953, 0.17258864641189575, 0.018866386264562607, 0.20142781734466553, -0.1824280470609665, 0.2625299394130707, 0.02235432341694832, 0.5331325531005859, -0.04794852063059807, 0.6187316179275513], [0.3563215136528015, -0.24117332696914673, -0.21306146681308746, -0.22651073336601257, -0.45951154828071594, 0.1516847312450409, 0.016321882605552673, 0.6312533617019653, 0.4091780483722687, 0.5669164061546326, 0.02987482398748398, 0.07687287777662277, 0.21749797463417053, -0.044379014521837234, -0.20122358202934265, -0.15755786001682281, -0.043093811720609665, -0.042847879230976105, 0.07252728193998337, 0.018998688086867332, 0.11311542242765427, -0.398592084646225, -0.14215169847011566, 0.3565499186515808, -0.43869954347610474, 0.4494399130344391, -0.04970695823431015, -0.09953241795301437, 0.28770333528518677, 0.8143290281295776, 0.11861129850149155, 0.48997122049331665], [0.25737807154655457, 0.541320264339447, 0.06394079327583313, -0.8780727386474609, -0.24689394235610962, 0.056290749460458755, 0.3149084746837616, 0.6722126007080078, 0.4455592632293701, 0.5731009244918823, 0.7406792044639587, -0.31980350613594055, 0.0808931514620781, -0.1706254929304123, -0.2516316771507263, 0.032962702214717865, -0.4289003908634186, 0.11307138204574585, 0.01940532587468624, 0.1759289652109146, -0.3962465822696686, -0.20014210045337677, -0.30728667974472046, -0.1073538064956665, -0.09647471457719803, -0.08553005754947662, -0.16625496745109558, 0.10448725521564484, 0.3652363419532776, 0.8725048303604126, 0.21921154856681824, 0.4975176453590393], [-1.1457371711730957, -0.21931812167167664, -0.024163898080587387, -0.5092512965202332, 0.12994961440563202, 0.3971727788448334, -0.21666555106639862, 0.14348606765270233, -4.005808353424072, -0.10171259939670563, -1.3090378046035767, -0.27937981486320496, -3.186764717102051, -0.20964978635311127, -0.5234277844429016, -0.19374394416809082, -1.3161503076553345, 0.30198198556900024, 0.2164488434791565, -0.028780654072761536, -0.051713310182094574, -0.12747181951999664, 0.08565449714660645, -1.7620271444320679, 0.046163372695446014, -0.3997005820274353, -0.16683241724967957, -0.5735041499137878, -0.5944871306419373, 0.1560361385345459, -1.8214688301086426, 0.16530689597129822], [-0.6276338696479797, -0.049477677792310715, 0.22917865216732025, -0.34425607323646545, -0.5768675804138184, -0.4208502471446991, 0.23276999592781067, 0.2502034902572632, 0.08829085528850555, 0.5654547214508057, 0.004361708182841539, -0.24218326807022095, 0.14688606560230255, 0.20073926448822021, -0.4484662711620331, 0.04972229525446892, 0.10367009043693542, -0.05446513742208481, 0.06373598426580429, 0.44721558690071106, 0.2094632387161255, -0.4035314619541168, -0.7511464953422546, 0.2725892961025238, -0.3359810709953308, 0.024982688948512077, -0.6237684488296509, 0.20494863390922546, -0.029550062492489815, 0.16058337688446045, -0.2906395494937897, 0.23842911422252655], [0.3736611008644104, 0.6815727949142456, -0.11648089438676834, -0.2699427306652069, 0.3786250948905945, -0.008530372753739357, -0.20221169292926788, 0.7315598130226135, 0.40572866797447205, 0.45119547843933105, 0.16454553604125977, 0.41747045516967773, -0.13829970359802246, -0.2642534077167511, 0.13771601021289825, -0.17525988817214966, 0.39395081996917725, -0.029263807460665703, 0.06079193204641342, -0.4758239686489105, -0.37801748514175415, 0.06530545651912689, -0.5616382360458374, -0.00871423538774252, 0.02308806963264942, -0.17027971148490906, -0.538406252861023, 0.3662252426147461, 0.3481464087963104, 0.5203492641448975, -0.44234222173690796, 0.23479759693145752], [-0.1691092699766159, 0.8118601441383362, 0.15605349838733673, -0.1027323380112648, 0.07795453071594238, -0.6298415660858154, -0.08957315981388092, 0.37614110112190247, 0.27456963062286377, 0.476778119802475, 0.5178804397583008, 0.1155569776892662, 0.3252457082271576, -0.2746187448501587, -0.06306913495063782, 0.10782117396593094, -0.23073293268680573, -0.1726822704076767, 0.09905418008565903, -0.6336913704872131, -0.3486466705799103, -0.4742344319820404, -0.15368901193141937, 0.32205435633659363, 0.13436254858970642, -0.07273885607719421, -0.6905166506767273, -0.36422672867774963, 0.8551437854766846, 0.31895336508750916, 0.41615185141563416, 0.46437522768974304], [-0.24510033428668976, 0.6159079670906067, 0.10528300702571869, -0.3864288032054901, -0.06349247694015503, -0.3703267276287079, 0.3765638470649719, 0.38318943977355957, 0.27307653427124023, 0.42796429991722107, 0.48139485716819763, -0.16217520833015442, -0.07637594640254974, -0.04615585133433342, 0.016206808388233185, -0.4037915766239166, 0.17074479162693024, 0.15967048704624176, -0.23129937052726746, 0.11983557045459747, 0.01983552798628807, 0.07778063416481018, -0.10482160747051239, 0.03032216802239418, -0.18556521832942963, 0.11251434683799744, 0.0674511268734932, -0.25773710012435913, -0.2056833952665329, 0.5637784600257874, -0.1289120614528656, 0.23636864125728607], [-0.13461335003376007, -0.24326451122760773, -0.23342163860797882, -0.44998466968536377, -0.5597208738327026, -0.34059885144233704, 0.03224289417266846, 0.39001142978668213, 0.19952823221683502, 0.1870669424533844, 0.40697404742240906, -0.18221543729305267, -0.03894462436437607, -0.20254667103290558, -0.0176444873213768, -0.6398523449897766, -0.11514260619878769, -0.30646389722824097, -0.21241530776023865, 0.4166947603225708, 0.12244472652673721, -0.02706383913755417, -0.10055332630872726, -0.3630436062812805, 0.10174556821584702, 0.10687606036663055, -0.28269273042678833, -0.4064294099807739, -0.058892130851745605, 0.9612116813659668, 0.08913762122392654, 0.6374704837799072], [0.004454867914319038, 0.2178526520729065, -0.3245195150375366, -0.24689523875713348, -0.08446671068668365, -0.06218809261918068, -0.12289842963218689, 0.47347521781921387, 0.29523760080337524, 0.26644426584243774, -0.0241797287017107, 0.17075854539871216, -0.09395241737365723, -0.2180822193622589, -0.05771632120013237, -0.42036113142967224, 0.3469941020011902, 0.13020949065685272, 0.2939133644104004, -0.0428168959915638, -0.18785738945007324, -0.2930985391139984, -0.06160980835556984, 0.10417304188013077, 0.07218941301107407, 0.4236021339893341, -0.5034691691398621, 0.024153081700205803, -0.08175913989543915, 0.5970852971076965, 0.16583925485610962, 0.6275591850280762], [0.13025729358196259, 0.09817472845315933, 0.07071402668952942, 0.02369997836649418, -0.3563004434108734, -0.1837596595287323, -0.3096848428249359, 0.9806579947471619, 0.4631962776184082, -0.12859009206295013, 0.3097555637359619, -0.061473995447158813, 0.3454316556453705, 0.41746312379837036, 0.1891547292470932, -0.26020562648773193, 0.2397606372833252, 3.677962740766816e-05, 0.06797826290130615, -0.2641274631023407, -0.21324856579303741, 0.1299852579832077, -0.26261278986930847, 0.17160019278526306, -0.011240677908062935, 0.36000967025756836, 0.021788962185382843, -0.2920025587081909, 0.39892393350601196, 0.39437249302864075, 0.3890874683856964, 0.2026437669992447], [-0.19732816517353058, 0.6335593461990356, 0.11406347900629044, -0.734833836555481, -0.21428151428699493, -0.15708419680595398, 0.08870795369148254, 0.8184627294540405, 0.8294569253921509, 0.18224331736564636, 0.021125204861164093, -0.26037633419036865, 0.378152072429657, -0.4618234932422638, -0.5575240850448608, -0.3421061038970947, 0.009235833771526814, -0.26743587851524353, -0.10781750828027725, -0.4149417579174042, 0.020494582131505013, 0.26036912202835083, -0.2237713783979416, 0.018793489784002304, 0.07515428960323334, 0.1667456477880478, -0.01066478993743658, 0.04372607544064522, 0.6219297051429749, 0.11630751937627792, -0.16837579011917114, 0.208574578166008], [-0.18266017735004425, 0.26542606949806213, -0.08983509987592697, 0.09110823273658752, 0.00518315564841032, -0.14569485187530518, 0.2542665898799896, 0.6578706502914429, 0.25885358452796936, 0.1964499056339264, -0.010938952676951885, -0.04482225328683853, 0.7851462960243225, 0.18470418453216553, 0.12175687402486801, 0.22501197457313538, 0.1252613365650177, -0.27350589632987976, -0.134521484375, -0.21829067170619965, 0.5274247527122498, 0.6055400371551514, 0.18663010001182556, -0.1774752140045166, -0.059609461575746536, 0.06085824966430664, -0.23533795773983002, 0.04680308327078819, 0.6413654088973999, 0.15338517725467682, 0.3601863384246826, 0.5905541181564331], [-0.18201468884944916, 0.6013400554656982, -0.7327833771705627, -0.23408782482147217, -0.04628385975956917, 0.15369276702404022, -0.12925679981708527, 0.9418858289718628, 0.4035332202911377, 0.3003826141357422, -0.1863534301519394, -0.1810808777809143, 0.5882487297058105, 0.26604244112968445, 0.6536862850189209, -0.38963937759399414, 0.1270231157541275, 0.2580523192882538, -0.47028279304504395, 0.28491607308387756, -0.07684893906116486, 0.6001047492027283, 0.04889066517353058, 0.07250486314296722, -0.5431003570556641, 0.28188657760620117, -0.3151603043079376, -0.06500405073165894, 0.1018408015370369, 0.5595000982284546, 0.13344359397888184, -0.04715892672538757], [-0.27451953291893005, 0.8417778611183167, -0.003944950643926859, 0.3914174735546112, -0.01628384180366993, 0.0631067082285881, 0.07228411734104156, -0.4061247408390045, 0.37496447563171387, 0.24935388565063477, -0.29109105467796326, -0.039244718849658966, -0.14168012142181396, -0.17621278762817383, -0.2045438438653946, -0.2099965661764145, 0.1399962455034256, 0.2571658492088318, -0.19012655317783356, 0.3229956328868866, -0.4550362527370453, 0.0647323951125145, -0.369547963142395, -0.033680178225040436, -0.22876501083374023, -0.05988326668739319, 0.14357227087020874, 0.16639958322048187, -0.14037080109119415, 0.548863410949707, 0.21568647027015686, 0.1267402470111847], [-0.1398128718137741, 0.3755633234977722, 0.04055286571383476, -0.016401108354330063, 0.07994777709245682, 0.2050812989473343, -0.2678249776363373, 0.21149885654449463, 0.29855936765670776, 0.12830841541290283, 0.2919723093509674, 0.13781246542930603, 0.18450504541397095, -0.0408049076795578, -0.10821032524108887, 0.20933139324188232, 0.16875195503234863, 0.33289510011672974, 0.020033828914165497, 0.45573869347572327, -0.006314091384410858, -0.24137532711029053, 0.27607613801956177, 0.1128515973687172, -0.1614435315132141, 0.03199346363544464, -0.2641337513923645, -0.13545115292072296, 0.36575546860694885, 0.7189921140670776, 0.11192748695611954, 0.14116808772087097], [-0.3107925057411194, -0.3527776896953583, -0.03150616213679314, -0.4138208329677582, -0.031991250813007355, -0.8482924103736877, 0.13257046043872833, 0.19747322797775269, 0.10637353360652924, 0.8486371636390686, -0.2804715931415558, -0.16637219488620758, 0.15938614308834076, 0.05457443371415138, -0.28952914476394653, 0.0800672248005867, 0.3210245668888092, -0.08234719932079315, 0.3260982632637024, 0.4514332711696625, 0.34215861558914185, 0.19951583445072174, -0.5218766331672668, 0.09138985723257065, -0.6512103080749512, 0.04858570918440819, -0.5187920331954956, -0.061925821006298065, 0.25961247086524963, 0.2607685327529907, -0.20545610785484314, 0.3588193655014038], [-0.3967185616493225, 0.898543119430542, 0.6170981526374817, -0.03280358389019966, -0.4644047021865845, -0.2987373471260071, -0.13478322327136993, 0.6866805553436279, 0.39007294178009033, 0.40135952830314636, 0.3948199450969696, 0.22339186072349548, 0.07780682295560837, -0.15060701966285706, -0.05200084671378136, -0.37207186222076416, 0.14924807846546173, -0.2030704915523529, -0.334981769323349, -0.1837216317653656, -0.5503631830215454, -0.0709327906370163, -0.1492767482995987, 0.28928908705711365, 0.12542331218719482, 0.07820385694503784, -0.14473310112953186, -0.07085917890071869, 0.440731018781662, 0.8281470537185669, 0.2732771337032318, 0.41254502534866333], [-0.05581489950418472, 0.38002899289131165, -0.11113600432872772, -0.27691569924354553, 0.13045471906661987, -0.47929200530052185, 0.2949662208557129, 0.6659440398216248, 0.38411301374435425, 0.35078704357147217, -0.4729708433151245, -0.3034299314022064, 0.4010867774486542, -0.21784727275371552, 0.3840533494949341, -0.33543339371681213, 0.36593106389045715, 0.11149396747350693, 0.025414982810616493, 0.2692527174949646, 0.32146814465522766, 0.3776903450489044, -0.31778812408447266, -0.02473444491624832, 0.1265804022550583, 0.3781648278236389, -0.10719355195760727, 0.18724238872528076, 0.26109808683395386, 0.5990636944770813, 0.35619843006134033, 0.24215808510780334], [-0.022891990840435028, 0.5787966847419739, 0.32741355895996094, 0.13384178280830383, 0.1291344314813614, 0.5890983939170837, -0.028131429105997086, 0.472504585981369, 0.4208790361881256, 0.6297367811203003, 0.6279289722442627, -0.24362026154994965, 0.5028531551361084, 0.026900405064225197, 0.408858060836792, -0.22768011689186096, -0.23782363533973694, 0.0900401845574379, 0.14777199923992157, 0.33616384863853455, -0.4582447111606598, 0.041087452322244644, -0.03400096297264099, -0.10685501247644424, 0.06470947712659836, 0.28088486194610596, -0.27206048369407654, 0.5154590606689453, 0.21796216070652008, 1.195900559425354, 0.31293919682502747, 0.34358149766921997], [-0.9271321892738342, -0.13341058790683746, -0.4434954524040222, -0.9875829219818115, -0.133664071559906, -0.6662389039993286, -0.2553200125694275, -0.2466508001089096, -0.6710376143455505, -0.257193386554718, -1.1400047540664673, -0.14256663620471954, -0.5301408171653748, -0.20235784351825714, -0.39734983444213867, -0.3295286297798157, -0.7445876002311707, -0.17161931097507477, 0.13532596826553345, -0.11579181253910065, -0.09205357730388641, -0.3908306062221527, -0.37601110339164734, -0.7085005640983582, -0.6606118679046631, -0.41090327501296997, -0.9465352892875671, 0.1731671690940857, 0.2123168259859085, 0.28385066986083984, -0.3275070786476135, 0.12265860289335251], [-1.2170462608337402, -0.6784796118736267, -0.03170081973075867, -1.6283292770385742, -0.979361891746521, -0.7226378917694092, -0.2531451880931854, -0.043883778154850006, -0.8005698323249817, -0.7948423027992249, -0.7995972037315369, -0.8637405633926392, -0.6160028576850891, 0.41509196162223816, -0.8723723888397217, -0.5080763697624207, -0.37619075179100037, -0.12826620042324066, -0.044133834540843964, -0.20680567622184753, 0.36275893449783325, -0.3954019546508789, -0.8324947953224182, -0.597114086151123, -0.49074411392211914, -0.47450900077819824, -0.3336026966571808, 0.32283997535705566, -0.3875855803489685, -0.016543947160243988, -0.6866912841796875, -0.35062772035598755], [-1.3143316507339478, -0.2318626195192337, 0.03566094487905502, -1.4423245191574097, 0.16424813866615295, -0.42934009432792664, -0.24551613628864288, -0.16187040507793427, -0.670082688331604, 0.44586414098739624, -0.6615381836891174, -0.08122594654560089, -0.8054214119911194, -0.07357151061296463, -0.9048280715942383, -0.037435825914144516, -0.8609867095947266, -0.0207213144749403, -0.1163814589381218, 0.4940650761127472, 0.21245861053466797, -0.34338295459747314, -0.1782989501953125, -0.7234089374542236, 0.189570814371109, -0.49829813838005066, -0.20817936956882477, -0.10414250940084457, 0.1829269826412201, 0.4765717685222626, -0.6880046725273132, 0.5601789355278015], [-0.35169777274131775, -0.627805769443512, -0.7255876064300537, -0.17550575733184814, -0.8555349707603455, -0.8961005210876465, -0.506712794303894, -0.5326676368713379, -0.547091543674469, -0.2157844603061676, -0.7445304989814758, -0.30720406770706177, -0.5851274728775024, 0.2848125398159027, -0.590242862701416, -0.7744348645210266, -0.3309476673603058, -0.15415751934051514, 0.26823219656944275, 0.2142745405435562, -0.18145252764225006, -0.40249598026275635, -1.4621456861495972, -0.4859253168106079, -1.1375545263290405, -0.312606543302536, -0.9200044274330139, 0.31256237626075745, -0.13645227253437042, -0.3519347310066223, -0.07263176143169403, -0.49186593294143677], [-1.0972120761871338, -0.22848331928253174, -0.25979140400886536, -1.7861652374267578, -0.5014793276786804, -0.3885174095630646, -0.08095231652259827, 0.008836762048304081, -1.2081254720687866, -0.2835075855255127, -1.6694753170013428, 0.0535915233194828, -1.419362187385559, 0.158344104886055, -0.475448340177536, -0.3616497218608856, -0.9364255666732788, 0.001794532872736454, -0.27356788516044617, 0.41793546080589294, 0.060795821249485016, -0.4316667914390564, -0.2059163749217987, -1.2709592580795288, -0.3224904239177704, -0.1960204541683197, -0.2504810690879822, 0.06430566310882568, -0.31097903847694397, 0.7578822374343872, -0.3499569296836853, -0.21980497241020203], [-0.852414071559906, -0.5574008822441101, 0.1741224080324173, -0.988706648349762, -1.074137806892395, -0.6921682357788086, -0.4928334951400757, -0.457999050617218, -0.0991387590765953, -0.3838525712490082, -0.6588072776794434, -0.3962400257587433, -0.2844461500644684, 0.23835666477680206, -0.37238621711730957, 0.1585904210805893, -0.5634572505950928, -0.04781368002295494, 0.2031196504831314, 0.24063463509082794, 0.38205382227897644, -0.7543048858642578, -0.9119550585746765, -0.9074461460113525, -0.7024970054626465, -0.33678537607192993, -1.3345921039581299, 0.10906334966421127, -0.17439761757850647, -0.31221267580986023, -0.311948299407959, -0.34608837962150574], [-0.804550290107727, 0.028359094634652138, 0.2603016793727875, -0.6339130997657776, -0.19618991017341614, -0.1993030458688736, -0.6371435523033142, -0.007280261255800724, -0.43541765213012695, 0.6538264155387878, -0.00016903509094845504, -0.02233411744236946, -0.5046100616455078, -0.09467943757772446, 0.09523672610521317, -0.5100061297416687, -0.05939129739999771, 0.0009191775461658835, -0.8677726984024048, 0.13107869029045105, 0.22167851030826569, -0.14610879123210907, -0.19076046347618103, -0.22812411189079285, -0.21179208159446716, -0.1760219782590866, -0.785975456237793, -0.3230304718017578, 0.8062117099761963, 0.5358226299285889, -0.44756579399108887, 0.43462517857551575], [-0.9158067107200623, -0.18557320535182953, -0.09689448773860931, -0.6997271776199341, -0.5467631220817566, -0.7862703800201416, -0.24020276963710785, -0.003836918156594038, -0.7353350520133972, -0.5498334765434265, -0.53677898645401, -0.18176384270191193, -0.35918307304382324, -0.029033105820417404, -0.4838036000728607, -0.8445948362350464, -0.6013833284378052, -0.06633467227220535, 0.14454385638237, 0.38317006826400757, -0.10335028171539307, -0.40636974573135376, -0.7717345356941223, -0.9794954657554626, -0.4956304728984833, -0.18496264517307281, -1.024951696395874, 0.3993348777294159, 0.027628658339381218, 0.21052679419517517, -0.19211263954639435, -0.2320885807275772], [0.25097283720970154, 0.7802547812461853, -0.08570417761802673, 0.14410120248794556, -0.30634140968322754, 0.13354316353797913, -0.5788242220878601, 0.5802890658378601, -0.02925010956823826, -0.4189370572566986, 0.12502573430538177, -0.19443315267562866, 0.1499684900045395, -0.16035474836826324, -0.26616838574409485, -0.48554545640945435, 0.3768148720264435, 0.20931172370910645, 0.486275315284729, -0.41853395104408264, 0.22429729998111725, 0.13736145198345184, -0.10756024718284607, -0.21229146420955658, 0.23180769383907318, 0.09251844882965088, -0.5435088872909546, -0.34982872009277344, 0.09015263617038727, 0.48367416858673096, 0.18071027100086212, 0.47505491971969604], [-1.4741259813308716, -0.6330393552780151, 0.03645232319831848, -1.2003884315490723, -0.5827013850212097, -0.5932326316833496, 0.020136570557951927, -0.7133625745773315, -0.07124276459217072, -0.30051878094673157, -0.5065616369247437, -0.4292229115962982, -0.6451590657234192, 0.6268057823181152, -1.0027048587799072, -0.5736068487167358, -0.5093782544136047, -0.17422349750995636, 0.09481062740087509, 0.07122793048620224, -0.12359386682510376, -0.3016890585422516, -0.5673841238021851, -0.6808987855911255, -0.5926662683486938, -0.39109402894973755, -1.0147461891174316, 0.12954361736774445, -0.08219441026449203, 0.06157707795500755, -0.697786808013916, -0.9283243417739868], [-1.0568227767944336, -0.3929188549518585, 0.4807802736759186, -1.6526107788085938, -0.44915035367012024, -0.6291131973266602, 0.40269121527671814, -0.08216827362775803, -0.6216958165168762, 0.3358265459537506, -0.933175802230835, -0.07560931146144867, -0.522667646408081, 0.0012136375298723578, -0.4082738757133484, -0.2792123556137085, -1.194618582725525, -0.015190263278782368, 0.057218536734580994, -0.05799388885498047, -0.37236398458480835, 0.21880629658699036, -0.396153062582016, -0.6796771883964539, -0.7107704281806946, -0.2915433645248413, -0.35341694951057434, -0.21527375280857086, 0.04868180677294731, 0.642234742641449, -0.5085172653198242, 0.15464012324810028], [-1.0368974208831787, -0.592593252658844, -0.19325485825538635, -0.8101752996444702, -0.678943395614624, -0.4270043969154358, 0.02767031267285347, -0.41343578696250916, -0.5273053050041199, -0.06405062973499298, -0.5148409008979797, -0.08560089021921158, -0.4962802827358246, -0.46093854308128357, -0.1998249739408493, -0.9567269086837769, -0.49304595589637756, 0.1906721591949463, -0.32503989338874817, 0.37869730591773987, -0.019952157512307167, -0.5889384150505066, -1.0289369821548462, -0.8907577395439148, -0.3872637152671814, -0.24608221650123596, -1.1011431217193604, 0.01311651710420847, -0.16862860321998596, 0.2517227530479431, -0.22755517065525055, 0.01942301169037819], [-1.8118540048599243, -0.48499882221221924, -0.17678630352020264, -1.4863420724868774, -0.7772699594497681, -0.63446044921875, -0.272985577583313, -0.8195955753326416, -0.8275483250617981, -0.38550907373428345, -0.8681154251098633, -0.22319412231445312, -1.0678536891937256, 0.3343980312347412, -0.9979115724563599, -0.14441287517547607, -1.2157326936721802, -0.180247500538826, 0.08453589677810669, 0.05107710510492325, 0.03438771888613701, -0.9279438257217407, -0.2552773356437683, -1.2476900815963745, -0.6554062962532043, -0.6269113421440125, -0.9361345767974854, -0.07915021479129791, -0.10274200886487961, 0.31479328870773315, -0.9512923359870911, -0.39722657203674316], [-1.0633304119110107, -0.31459248065948486, -0.0671776682138443, -1.193852186203003, -0.7457017302513123, -1.4009857177734375, 0.25722572207450867, -1.0136502981185913, -0.43251368403434753, -0.3079700767993927, -0.8249496817588806, -0.44970977306365967, -0.3986903429031372, -0.6159943342208862, -0.42833805084228516, -1.0538039207458496, -0.9583510160446167, 0.018481390550732613, -0.08923820406198502, 0.047989655286073685, -0.16280831396579742, -0.4272952675819397, -0.599716305732727, -0.575904130935669, -0.8885741829872131, -0.2752876281738281, -0.9001076817512512, 0.48521140217781067, -0.05762676149606705, 0.29604190587997437, -0.9568440914154053, -0.15090413391590118], [-1.9162628650665283, -0.11276035010814667, -0.0987805724143982, -1.724672794342041, -0.601606547832489, -0.36891719698905945, 0.23367632925510406, -0.18795828521251678, -0.6356439590454102, -0.204329252243042, -0.7300392389297485, 0.10024828463792801, -1.2029341459274292, -0.15883247554302216, -0.7712664604187012, -0.26867300271987915, -1.019871473312378, 0.030501142144203186, -0.030458632856607437, 0.23402346670627594, -0.07122122496366501, -0.10194116085767746, -0.2925260365009308, -1.1260015964508057, -0.42525964975357056, -0.2961404025554657, -0.08784256130456924, -0.041879069060087204, -0.36871612071990967, 0.47149887681007385, -0.735453188419342, 0.014827228151261806], [-0.9114056825637817, -0.302765429019928, 0.03621640056371689, -0.5466760396957397, -0.24895091354846954, -0.3047913610935211, 0.12952329218387604, 0.11438105255365372, -2.31449818611145, 0.026803579181432724, -0.07896678894758224, 0.40992236137390137, -1.8267532587051392, -0.23745769262313843, -0.09719765931367874, -0.40535789728164673, -0.24732869863510132, -0.3088439404964447, 0.2293435037136078, 0.14382211863994598, 0.1737484633922577, -0.15366230905056, -0.48391056060791016, -0.2958989143371582, -0.045261822640895844, -0.2176719605922699, 0.09469129145145416, 0.06921499967575073, 0.130380779504776, 0.11670845001935959, -1.4296467304229736, 0.006318432278931141], [-1.3555998802185059, -0.6049973368644714, 0.04051712900400162, -1.6050810813903809, 0.36739662289619446, 0.09113749861717224, -0.06367561221122742, -1.23944890499115, -0.6705704927444458, 0.22805745899677277, -0.9171245098114014, -0.15543684363365173, -0.7339149713516235, -0.010072636418044567, -0.8866994976997375, -0.0064911493100225925, -0.631575882434845, -0.2113921344280243, 0.22432327270507812, 0.06824979186058044, 0.06553861498832703, 0.07361700385808945, -0.12959840893745422, -0.7141985297203064, -0.23041124641895294, -0.29989269375801086, -0.43034037947654724, -0.07410391420125961, -0.3288143277168274, 0.37657004594802856, -0.3633193373680115, 0.5554068088531494], [-1.348334789276123, -0.5732331871986389, 0.0689217671751976, -1.1233227252960205, -0.8379161357879639, -1.1041102409362793, -0.43530982732772827, -1.1971540451049805, -0.8310046792030334, -0.6364746689796448, -0.4897182881832123, -0.7794029116630554, -0.4073176085948944, 0.15609723329544067, -0.2653345763683319, -0.806671142578125, -1.0317082405090332, 0.3086211383342743, 0.18884223699569702, 0.11903805285692215, 0.22857309877872467, -0.8688055276870728, -1.198106050491333, -0.908136785030365, -1.3468068838119507, -0.7287404537200928, -1.8223493099212646, -0.3257315754890442, -0.2937126159667969, -0.41452276706695557, -0.5033237934112549, -0.3984644412994385], [0.0887724757194519, 0.6747815012931824, -0.257016658782959, 0.18251730501651764, 0.1666514277458191, 0.00022139595239423215, 0.22868315875530243, 0.4735194742679596, 0.4658912122249603, 0.282961905002594, 0.08399636298418045, -0.04623795300722122, 0.3209999203681946, -0.31411582231521606, -0.015593420714139938, -0.03823680430650711, 0.5334554314613342, 0.03736817091703415, 0.10644332319498062, -0.12290338426828384, 0.17522208392620087, -0.041187893599271774, -0.1380118876695633, -0.23232018947601318, 0.15782293677330017, 0.542452335357666, 0.34379684925079346, 0.3998706638813019, 0.1870615929365158, 1.036328673362732, 0.034587789326906204, 0.5245702862739563], [-1.0313255786895752, -0.3300626277923584, -0.01866910420358181, -0.8436315655708313, -0.7255879044532776, -0.4795440137386322, 0.07047709077596664, 0.020385438576340675, -0.7813273072242737, 0.03985791653394699, -0.41891515254974365, -0.3489900529384613, -0.46571460366249084, 0.036058854311704636, -0.39225420355796814, -0.5149924159049988, -0.9025164842605591, -0.3489275872707367, -0.07121055573225021, 0.26082760095596313, 0.4914666712284088, -0.21978510916233063, -0.34424468874931335, -0.4265577793121338, -0.5439398884773254, -0.564059853553772, -0.3739859461784363, -0.14873817563056946, -0.7716144919395447, 0.15289685130119324, -0.22829441726207733, -0.21535059809684753], [-1.2122840881347656, -0.3049757182598114, 0.3091773986816406, -0.9323176145553589, -0.7743344306945801, -0.5972648859024048, -0.16063253581523895, -0.8658215999603271, -0.2947404384613037, 0.4035438001155853, -0.2758001983165741, -0.5653495192527771, -0.6454406380653381, 0.019269084557890892, -0.2773447632789612, -0.12741295993328094, -0.3397670388221741, -0.22455015778541565, 0.3714028596878052, -0.014372437261044979, 0.16432872414588928, -0.18725605309009552, -0.7037383317947388, -0.23207736015319824, -0.40585458278656006, -0.4125173091888428, -0.7773475646972656, -0.0599827840924263, 0.048607029020786285, -0.049913614988327026, 0.017094461247324944, 0.40567633509635925], [-0.7230452299118042, -0.24087893962860107, -0.6094287633895874, -0.5043212175369263, -0.6035905480384827, -0.878837525844574, 0.0746297612786293, -0.702117383480072, -0.3679106831550598, 0.11099476367235184, -0.3779972791671753, -0.4044962227344513, -0.19196540117263794, 0.36515453457832336, -0.7737717628479004, -0.9472303986549377, -0.7514620423316956, -0.2759399712085724, 0.1414879858493805, -0.28175610303878784, 0.142718106508255, -0.5243051052093506, -1.317732572555542, -0.015679774805903435, -0.46348220109939575, -0.733666181564331, -0.7175421714782715, 0.43218064308166504, 0.7361810803413391, 0.11867864429950714, 0.002565133385360241, -0.21014072000980377], [-0.9691983461380005, 0.2147098034620285, -0.16001379489898682, -0.5536713004112244, -0.4625047445297241, -0.7697556614875793, -0.24206775426864624, 0.030329380184412003, -0.6089721918106079, -0.20733828842639923, -0.5344624519348145, -0.324989378452301, -0.38623324036598206, 0.20346558094024658, -0.05645742639899254, -0.629135012626648, -0.540199339389801, -0.22405287623405457, 0.07798361778259277, 0.33176034688949585, -0.09201920032501221, -0.5777400135993958, -0.7537091970443726, -0.6124061942100525, -0.5370332598686218, -0.40278926491737366, -0.8220734596252441, -0.057280685752630234, 0.07965449243783951, 0.020994171500205994, -0.12327296286821365, 0.06447836756706238], [-0.005686808843165636, 0.911318302154541, 0.1831061691045761, 0.40577465295791626, -0.4297681450843811, -0.25533807277679443, -0.19585058093070984, 1.194969654083252, 0.46108606457710266, -0.3235926032066345, 0.23906391859054565, -0.11614210158586502, 0.23497141897678375, -0.09768077731132507, 0.2723482847213745, -0.7758570909500122, 0.15778768062591553, 0.01664237305521965, -0.23332469165325165, -0.21845446527004242, 0.43630096316337585, -0.35669952630996704, -0.0777878388762474, 0.4625501036643982, -0.46111759543418884, -0.2226008176803589, -0.678987979888916, 0.053198013454675674, 0.5321322083473206, -0.09015881270170212, -0.10725485533475876, -0.5234675407409668], [0.33227628469467163, 0.3735775947570801, 0.09513811022043228, 0.18360836803913116, -0.14268049597740173, 0.486561119556427, 0.140956312417984, 0.7505311369895935, 0.673713743686676, 0.4387068748474121, 0.40780574083328247, -0.17449137568473816, 0.12348269671201706, 0.335369735956192, 0.2518751621246338, 0.12824182212352753, 0.06638605147600174, -0.3496552109718323, -0.034900788217782974, 0.001448645256459713, 0.2858385145664215, 0.1815994381904602, 0.28041142225265503, 0.5114155411720276, 0.13213486969470978, -0.012912089005112648, -0.10874544084072113, 0.09653725475072861, 0.2580684721469879, 0.2874577045440674, 0.0715116336941719, 0.2015557438135147], [-0.6804800033569336, 0.18904459476470947, 0.3524611294269562, -0.7073469161987305, -0.4901054799556732, -0.6647540330886841, -0.07687061280012131, -0.5022339224815369, 0.0898919627070427, 0.4492509365081787, -0.4221774637699127, -0.32243025302886963, -0.8032636642456055, 0.10084076225757599, -0.24528859555721283, -0.3451470732688904, -0.4530336856842041, 0.1302386075258255, 0.31120607256889343, 0.016650229692459106, 0.21406112611293793, 0.1416708528995514, -0.29632455110549927, -0.24534554779529572, -0.03834209591150284, -0.4180264174938202, -0.07014389336109161, 0.14573292434215546, 0.12414613366127014, 0.5167809128761292, -0.5753152370452881, -0.4343436062335968], [-1.532827615737915, -0.5210046768188477, 0.4410913288593292, -1.7440524101257324, -0.4159582555294037, -1.0996354818344116, -0.60694420337677, -0.6342080235481262, -0.7339659929275513, 0.05916133522987366, -0.8688414096832275, -0.22990593314170837, -0.2457086145877838, 0.17719754576683044, -0.35144320130348206, -1.1982066631317139, -0.5656772255897522, -0.22133055329322815, 0.4121413230895996, 0.4660702347755432, -0.15684160590171814, -0.708965003490448, -1.0216556787490845, -0.8846078515052795, -0.5023391842842102, -0.17423175275325775, -1.3064075708389282, 0.04480918496847153, -0.15244033932685852, -0.15754851698875427, 0.03522508591413498, -0.0980260893702507], [-0.6212916970252991, 0.02933243289589882, -0.0018092470709234476, -0.6302744746208191, -0.2797563672065735, -0.36487138271331787, 0.215762197971344, 0.10213938355445862, 0.014787205494940281, 0.3113842010498047, -0.24989555776119232, 0.25143662095069885, -0.017459029331803322, -0.25497719645500183, 0.024606117978692055, -0.07731395959854126, -0.15089727938175201, 0.08178986608982086, 0.12138780206441879, 0.014569186605513096, -0.28555142879486084, -0.4111844599246979, 0.06949542462825775, -0.3012629747390747, -0.15453270077705383, 0.33231642842292786, -0.10976426303386688, 0.004637150093913078, -0.1645120531320572, 0.28674551844596863, -0.09206831455230713, 0.38968849182128906], [-1.3092522621154785, -0.769999623298645, 0.4316278100013733, -1.235256314277649, -0.18095019459724426, 0.06360497325658798, -0.04313055798411369, -0.39174047112464905, -0.7554511427879333, 0.8424807786941528, -0.7548673748970032, -0.334923654794693, -0.7138310670852661, 0.26863330602645874, -0.27363935112953186, -0.4493177533149719, -0.5454559922218323, -0.13354472815990448, 0.03134596347808838, -0.16915765404701233, -0.28172892332077026, -0.3164830207824707, -0.1369779109954834, -0.9592925310134888, 0.3870029151439667, -0.25723540782928467, -0.14366652071475983, 0.06499407440423965, -0.9432708024978638, -0.04557785391807556, -0.897251307964325, 0.13942082226276398], [-1.3141196966171265, -0.20556612312793732, 0.1856914758682251, -1.1635348796844482, -1.0803347826004028, -0.8341059684753418, -0.5891594886779785, -0.2590346932411194, -0.21723626554012299, -0.2514076828956604, -0.6022821664810181, -0.7370826005935669, -0.29916831851005554, -0.09580599516630173, -0.2808857858181, -0.8258554935455322, -0.8414684534072876, -0.2542875409126282, -0.3466133177280426, -0.3890790343284607, 0.658124566078186, -0.22698238492012024, -0.9524490237236023, -0.7091257572174072, -0.24498367309570312, -0.30221810936927795, -0.23444479703903198, -0.13230761885643005, -0.19368980824947357, -0.494780570268631, -0.5279022455215454, -0.4661351144313812], [-1.6339982748031616, 0.030578218400478363, 0.11163666844367981, -1.7638100385665894, -0.6075358986854553, -0.5754522681236267, -0.07014878839254379, -1.0429973602294922, -0.6261361241340637, 0.07216106355190277, -1.4725797176361084, -0.1354418247938156, -0.5035572648048401, 0.5360584855079651, -0.3997936546802521, -0.1455058753490448, -1.048363208770752, -0.3374919295310974, -0.14084529876708984, -0.37090396881103516, -0.4333917200565338, -0.21477000415325165, -0.22090937197208405, -1.1103047132492065, -0.2593481242656708, 0.049176234751939774, -0.703296959400177, -0.08425400406122208, -1.0934906005859375, 0.42057380080223083, -0.45689916610717773, -0.08313864469528198], [-0.57086181640625, -0.07203974574804306, 0.18964627385139465, -0.5993977785110474, -0.9975570440292358, -0.7549787759780884, 0.25249871611595154, -0.03958217054605484, -0.29386210441589355, -0.28731250762939453, -0.5673995614051819, -0.2996995449066162, -0.5454946160316467, 0.5941036343574524, 0.052283693104982376, -0.6013375520706177, -0.446635365486145, 0.01787140965461731, 0.07070524245500565, 0.05487551540136337, -0.27012866735458374, -0.17073798179626465, -1.2132521867752075, -0.9556586146354675, -0.3343575894832611, 0.22779254615306854, -1.4204431772232056, 0.043196287006139755, 0.47790151834487915, -0.4171050786972046, -0.7397140264511108, 0.20638927817344666], [0.46534010767936707, 0.16336174309253693, -0.07515157759189606, 0.5962298512458801, -0.21081078052520752, 0.3540084660053253, -0.005996914114803076, 0.02990606240928173, -0.10457700490951538, -0.46538007259368896, 0.5288828015327454, 0.16192930936813354, 0.27074605226516724, 0.232275128364563, -0.22764654457569122, -0.15332476794719696, 0.26444804668426514, -0.1520698517560959, 0.42020463943481445, -0.1541045904159546, 0.08544909954071045, -0.1502692550420761, -0.38465896248817444, 0.11866863071918488, -0.43079397082328796, -0.2193939983844757, 0.10259322077035904, -0.13221628963947296, 0.6449205875396729, -0.11750324815511703, 0.20799943804740906, -0.7551835775375366], [-0.41272270679473877, -0.4197681248188019, 0.19257616996765137, -0.3094017207622528, 0.022236309945583344, 0.17140203714370728, 0.024808166548609734, -0.18662527203559875, -0.15935195982456207, 0.5623771548271179, -0.6641225218772888, 0.037242621183395386, 0.0979992225766182, 0.35441234707832336, -0.34825435280799866, 0.28724032640457153, -0.3468576669692993, 0.22684341669082642, -0.005632682237774134, 0.4223748743534088, -0.35727477073669434, 0.4793012738227844, 0.2694838047027588, -0.08848369121551514, -0.143701434135437, 0.5395792126655579, 0.09208329021930695, -0.18862652778625488, -0.097027987241745, 0.6996098160743713, -0.3250350058078766, 0.4780435860157013], [0.46976661682128906, 0.2456897646188736, 0.38623833656311035, 0.06498198956251144, -0.03605777397751808, -0.16876338422298431, -0.6272888779640198, -0.0034193324390798807, -0.0634775161743164, -0.27193596959114075, 0.3319433927536011, 0.6068399548530579, 0.4119814932346344, 0.15009969472885132, 0.048097606748342514, -0.3883620798587799, 0.48450973629951477, 0.05592842027544975, -0.15573342144489288, 0.04845002293586731, -0.07617053389549255, -0.18277059495449066, -0.1763075441122055, 0.09727408736944199, -0.4402633607387543, -0.2775474190711975, 0.1849924921989441, -0.0012490653898566961, 0.06813784688711166, -0.1328393965959549, 0.6416873335838318, -0.5973590016365051], [-0.6670930981636047, -0.667153000831604, 0.26131391525268555, -0.46069812774658203, 0.27254602313041687, -0.0914822593331337, -0.15041452646255493, -0.19601674377918243, 0.08105237782001495, 0.5063632726669312, -0.5887847542762756, -0.18509691953659058, 0.1894504874944687, -0.10214230418205261, -0.15548254549503326, 0.11839831620454788, -0.5286084413528442, 0.17776775360107422, 0.1461820900440216, 0.19310389459133148, 0.1815226972103119, 0.15094386041164398, 0.17301145195960999, -0.036341384053230286, 0.3445291817188263, 0.44572004675865173, 0.24974893033504486, -0.09403131157159805, -0.17370904982089996, 0.41469869017601013, -0.2081386297941208, 0.5897884368896484], [0.39155182242393494, 0.6607007384300232, 0.35090363025665283, 0.20295210182666779, 0.13648761808872223, -0.027412034571170807, -0.3593536615371704, -0.2594062387943268, -0.1351429969072342, -0.10333117097616196, 0.2213752567768097, 0.44646066427230835, -0.0359630212187767, 0.15724340081214905, 0.41128024458885193, 0.06527937948703766, 0.4983310401439667, -0.07810384035110474, 0.23674830794334412, -0.11829470843076706, -0.1878991276025772, 0.02617846056818962, 0.18207891285419464, 0.3246440589427948, -0.05554075539112091, -0.8130645155906677, -0.5465032458305359, -0.05402868986129761, -0.20699608325958252, -0.38786932826042175, -0.025869274511933327, -0.36578720808029175], [0.18614034354686737, 0.33128365874290466, -0.1920652538537979, 0.3434900939464569, 0.5161257982254028, 0.33621662855148315, 0.04182460531592369, -0.15609918534755707, 0.2980427145957947, -0.34120094776153564, 0.315729558467865, -0.5245509147644043, 0.0647907629609108, -0.3396226465702057, 0.2564849257469177, 0.0338248610496521, 0.3407025933265686, -0.1347343623638153, 0.23624514043331146, -0.2567838728427887, 0.20884834229946136, 0.16507785022258759, 0.04930032044649124, 0.30310285091400146, -0.21980640292167664, -0.8875253200531006, -0.2589193880558014, -0.015555202960968018, 0.06067794933915138, -0.5638489723205566, 0.5688602924346924, -0.6495019197463989], [0.5145731568336487, 0.25895798206329346, -0.321958065032959, 0.4329600930213928, -0.2084428369998932, -0.5176101922988892, -0.10100408643484116, 0.28243115544319153, 0.3693124055862427, -0.2712714970111847, 0.6347996592521667, 0.19590777158737183, 0.013944657519459724, -0.12863358855247498, 0.09297318756580353, -0.2566768527030945, 0.025180689990520477, 0.1603061705827713, -0.6429792046546936, -0.06190277636051178, 0.023725179955363274, 0.32267382740974426, 0.0061569735407829285, 0.407312273979187, -0.13133838772773743, -0.0124575300142169, -0.40335050225257874, 0.22174598276615143, 0.659896969795227, -0.5372602939605713, 0.04416033998131752, -0.2118859440088272], [-0.43200090527534485, -0.8607293367385864, 0.1552399843931198, 0.07488088309764862, 0.6103960275650024, 0.35710379481315613, -0.09419188648462296, 0.20665882527828217, -0.10120188444852829, 0.3078245222568512, -0.38520827889442444, -0.07311765849590302, -0.3619310259819031, 0.08114293217658997, -0.03467406705021858, -0.21829988062381744, -0.9222427010536194, -0.017855262383818626, 0.21839721500873566, 0.04576383903622627, 0.17842701077461243, 0.2982572019100189, 0.03399128094315529, 0.04745516926050186, 0.27697309851646423, 0.6081634759902954, -0.2907988727092743, 0.1925363391637802, -0.2128424048423767, 0.4431558847427368, -0.36300182342529297, 0.7890759706497192], [-0.3809080719947815, -0.37764275074005127, 0.20690235495567322, -0.33201611042022705, 0.10309197753667831, -0.07177035510540009, -0.1150752529501915, -0.6692706346511841, -0.21256549656391144, 0.38355588912963867, -0.3592582643032074, -0.14988620579242706, -0.33364278078079224, -0.13212384283542633, -0.13474011421203613, 0.28398948907852173, -0.3649105131626129, -0.4761413335800171, -0.14128477871418, 0.4464103877544403, 0.4445916712284088, 0.06515096127986908, -0.08470460027456284, 0.1315622180700302, 0.2006998211145401, -0.19548872113227844, 0.3499906361103058, -0.35586118698120117, -0.16641844809055328, 0.5095797777175903, -0.019673777744174004, 0.5161928534507751], [-0.4677543342113495, -0.47299131751060486, -0.07996618747711182, -0.12694573402404785, 0.034292347729206085, -0.12174956500530243, -0.009266034699976444, 0.07546272873878479, 0.1026679053902626, 0.3995947241783142, -0.20190440118312836, 0.08151879906654358, -0.46607348322868347, 0.4968661665916443, -0.19627532362937927, 0.3143365681171417, -0.4171617925167084, -0.11194953322410583, -0.1846979856491089, -0.0802658423781395, 0.027802638709545135, -0.01286929938942194, -0.4137406051158905, 0.09058663249015808, -0.0742766261100769, -0.13481198251247406, 0.27178433537483215, 0.33191508054733276, -0.28235331177711487, 0.5323241353034973, 0.04218346253037453, 0.7011176347732544], [0.05740520730614662, -0.1044994443655014, -0.14781099557876587, -0.43828630447387695, 0.34690889716148376, 0.054548297077417374, -0.31680744886398315, -0.6317657232284546, -0.36019566655158997, 0.6011387705802917, -0.9829628467559814, 0.036414824426174164, -0.8600670099258423, -0.11260247230529785, 0.15731890499591827, -0.3832267224788666, -0.42833155393600464, 0.15110521018505096, 0.17272953689098358, 0.2412087321281433, 0.018163610249757767, 0.2644943594932556, 0.12891709804534912, -0.35148003697395325, 0.1516619473695755, 0.541154682636261, 0.1458929479122162, 0.28611311316490173, -0.282070517539978, 0.6265096664428711, -0.808547854423523, 0.5326676964759827], [0.059569377452135086, -0.7179977297782898, 0.171127587556839, -0.497947096824646, 0.30071142315864563, 0.1603941023349762, 0.4006299674510956, 0.47215649485588074, -0.39720848202705383, 0.2682968080043793, -0.7597141265869141, -0.11663100868463516, -0.06519903242588043, -0.1757938265800476, -0.14928875863552094, 0.000397282448830083, -0.671005368232727, -0.12764596939086914, 0.06535278260707855, 0.18203169107437134, 0.2697005867958069, -0.16854818165302277, -0.03146727755665779, -0.30747321248054504, -0.34370875358581543, 1.0571144819259644, 0.4685482978820801, 0.41476550698280334, 0.01915493607521057, 0.7498990893363953, 0.39975324273109436, 0.7007343769073486], [-0.2762396037578583, -0.3377630114555359, -0.03519130498170853, 0.03799194470047951, -0.13046753406524658, -0.0032367059029638767, 0.391027569770813, 0.14006882905960083, 0.27955612540245056, 0.48230937123298645, -0.3712240755558014, -0.020129239186644554, -0.4278593063354492, -0.30120813846588135, -0.149337500333786, -0.19873826205730438, -0.07047096639871597, -0.36207759380340576, 0.13651122152805328, 0.3978004455566406, -0.16998980939388275, 0.11155754327774048, 0.325719952583313, 0.13602587580680847, -0.09753076732158661, 0.7047214508056641, 0.10050361603498459, 0.22963638603687286, -0.20645207166671753, 0.5710510015487671, -0.16800814867019653, 0.5407811403274536], [0.1018817350268364, 0.4249545931816101, -0.2017969787120819, 0.048040229827165604, 0.03185843676328659, 0.11849350482225418, -0.352333664894104, 0.018205692991614342, 0.42143410444259644, -0.6846497058868408, 0.47500136494636536, 0.4941456913948059, 0.030805716291069984, 0.310730516910553, 0.3245191276073456, -0.03215194493532181, 0.11119065433740616, 0.27290838956832886, 0.14898528158664703, -0.4012426435947418, 0.10396236181259155, -0.31682950258255005, -0.23611915111541748, 0.2587435841560364, 0.012209069915115833, -0.8314017057418823, -0.14273518323898315, -0.0906299576163292, -0.03829403966665268, -0.02735411562025547, 0.13998904824256897, -0.7382965087890625], [-0.16378237307071686, -0.04161839559674263, 0.42730769515037537, -0.5861502289772034, -0.04961550608277321, 0.11956510692834854, -0.12188220769166946, -0.15113304555416107, -0.12333416193723679, 0.3328389823436737, -0.4799250364303589, 0.17739427089691162, -0.22203786671161652, -0.30865275859832764, -0.07432541251182556, 0.16650895774364471, -0.8325872421264648, 0.1124444454908371, -0.08262178301811218, 0.020367441698908806, -0.32021647691726685, 0.5356323719024658, 0.012903353199362755, -0.8726342916488647, 0.3660595715045929, 0.37589266896247864, 0.19237226247787476, 0.11454696208238602, -0.20444482564926147, 0.6119540333747864, -0.4256913363933563, 0.17814402282238007], [-0.07899272441864014, -0.24027657508850098, -0.5350321531295776, -0.3497430086135864, 0.12293422967195511, 0.26195386052131653, -0.005664822179824114, -0.185527503490448, -1.4739594459533691, 0.47878649830818176, -1.3164093494415283, 0.09947018325328827, -0.875633716583252, 0.18230587244033813, 0.02548147924244404, -0.12257104367017746, -1.126035213470459, 0.2817690074443817, 0.16389480233192444, -0.0570758618414402, -0.17239154875278473, 0.08688795566558838, 0.061053045094013214, -0.9808351397514343, 0.6545705199241638, 1.101004958152771, 0.5953119397163391, -0.47265151143074036, 0.2600172162055969, 0.3871118128299713, -0.4830707311630249, 0.4313039183616638], [-0.13838928937911987, -0.09327855706214905, 0.27975866198539734, -0.252063512802124, 0.05340563505887985, 0.17957256734371185, -0.05677025020122528, 0.8728101253509521, 0.2801397144794464, 0.7562339305877686, -0.9633667469024658, 0.21724443137645721, -0.48689597845077515, 0.35250166058540344, -0.5040010809898376, -0.3653240203857422, -0.17906393110752106, 0.09320786595344543, 0.3800230324268341, 0.1946832686662674, -0.13360947370529175, 0.06560499966144562, 0.2191779762506485, -0.4075239598751068, -0.07581824064254761, 0.6678333282470703, 0.16321446001529694, 0.21830596029758453, -0.31444934010505676, 0.366420716047287, -0.06359889358282089, 0.5167362093925476], [-0.42485058307647705, -0.33928513526916504, 0.2097899317741394, 0.2038671374320984, 0.030426129698753357, -0.0718531385064125, 0.15892989933490753, -0.2519412636756897, -0.16826041042804718, 0.5312064290046692, -0.3202894330024719, -0.0031706623267382383, -0.46378862857818604, 0.04776914045214653, -0.2825402319431305, -0.09435311704874039, -0.5771776437759399, -0.22713488340377808, 0.20995019376277924, -0.06333961337804794, -0.05918954312801361, 0.12081905454397202, 0.04238145798444748, -0.8336827158927917, -0.08624176681041718, 1.1306366920471191, -0.021001361310482025, -0.19649510085582733, -0.3373952805995941, 0.29696640372276306, -0.19736510515213013, 0.8371977806091309], [0.17182976007461548, 0.5245106816291809, 0.3767276108264923, 0.38397884368896484, 0.05833081156015396, 0.06052021309733391, 0.45194095373153687, 0.18192324042320251, 0.5979998111724854, -0.02260289341211319, 0.6583189368247986, -0.37696218490600586, 0.27051857113838196, 0.239782452583313, 0.12728625535964966, -0.013996180146932602, 0.6851123571395874, -0.12722501158714294, 0.059464436024427414, 0.08630993217229843, -0.13008858263492584, -0.3825201392173767, 0.33037468791007996, 0.4848831295967102, -0.068098284304142, -0.9758450388908386, -0.39700934290885925, -0.24899442493915558, 0.4828856885433197, -0.5519770383834839, 0.285125732421875, -0.831463634967804], [-0.2326543778181076, -0.33649760484695435, -0.12522859871387482, -0.11901213228702545, -0.10730038583278656, 0.37236320972442627, -0.10337968915700912, 0.13910478353500366, 0.08474621176719666, 0.6933135390281677, -0.744235634803772, 0.08484779298305511, -0.8202815651893616, 0.3190936744213104, -0.12714627385139465, 0.2597214877605438, -0.7163639068603516, 0.5952782034873962, -0.07171361893415451, 0.21834366023540497, 0.21616001427173615, 0.08759750425815582, 0.018153751268982887, -0.0035839779302477837, 0.4883333742618561, 0.14976471662521362, 0.024299873039126396, -0.0938892811536789, 0.007549621630460024, 0.43072113394737244, -0.2347932606935501, 0.5567747354507446], [0.47442427277565, 0.18248504400253296, -0.00023659091675654054, 0.3094898462295532, -0.1315215677022934, -0.06171860918402672, -0.30887219309806824, -0.14400091767311096, -0.052682843059301376, -0.51735520362854, 0.3554550111293793, 0.1521475464105606, 0.592258632183075, 0.31193792819976807, 0.3484939932823181, 0.25016167759895325, 0.33995145559310913, -0.07140663266181946, -0.07661916315555573, 0.03550736606121063, -0.41636592149734497, -0.07974652200937271, -0.13432705402374268, 0.08050300180912018, -0.3564535081386566, -0.5213362574577332, -0.39747339487075806, 0.30202317237854004, -0.16655179858207703, -0.4412018954753876, 0.598657488822937, -0.3857041299343109], [0.31152892112731934, 0.18739952147006989, -0.31287166476249695, -0.06355597823858261, 0.6462447643280029, 0.3768141269683838, -0.09152326732873917, 0.039760444313287735, 0.026778042316436768, -0.17538639903068542, 0.9548192024230957, 0.0028974665328860283, -0.017380788922309875, 0.08122751861810684, -0.007922050543129444, 0.5858370661735535, 0.31970536708831787, -0.36068642139434814, -0.02046450972557068, 0.15624761581420898, -0.4469098448753357, -0.036782149225473404, 0.09941478818655014, -0.005568359978497028, -0.4135608971118927, -0.19653986394405365, -0.17284762859344482, 0.2774164080619812, 0.39841434359550476, -1.0226483345031738, 0.2523288130760193, -0.5627834796905518], [0.18703369796276093, 1.0263227224349976, -0.1377272605895996, 0.2578775882720947, -0.07817470282316208, -0.17273041605949402, 0.20136022567749023, 0.3407132923603058, 0.3769843876361847, -0.343268483877182, 0.2076326608657837, -0.28414207696914673, 0.4686151146888733, -0.27742230892181396, 0.1316910684108734, -0.45085397362709045, 0.6518663167953491, -0.06507014483213425, 0.024952741339802742, 0.3352595865726471, -0.07686657458543777, 0.27471205592155457, 0.037625011056661606, 0.3773106336593628, -0.07573911547660828, -0.6065572500228882, 0.10574990510940552, 0.21217451989650726, 0.49797582626342773, -0.6083908081054688, 0.07422947883605957, -1.0922096967697144], [-0.8166788220405579, -0.4689677059650421, -0.016296692192554474, -0.1376965343952179, 0.04759668931365013, -0.07202829420566559, -0.03662816435098648, -0.8003489375114441, 0.09029343724250793, 0.11165265738964081, -0.8256452679634094, 0.0045757596381008625, -0.29007652401924133, 0.0019405042985454202, -0.26738354563713074, -0.11168064177036285, -0.5369269847869873, -0.03378372639417648, 0.3941860795021057, -0.30527636408805847, -0.1575467586517334, 0.3083288073539734, 0.4258451759815216, -0.08286850154399872, 0.12156786024570465, 0.5640231966972351, 0.10193130373954773, -0.12699782848358154, -0.09066271781921387, 0.37606051564216614, -0.0744016095995903, 0.5699329972267151], [0.23552073538303375, -0.09608325362205505, 0.04865207150578499, 0.5956906080245972, -0.08061659336090088, 0.07131633907556534, 0.0260336771607399, 0.7073297500610352, 0.19834773242473602, -0.10659206658601761, 0.34651848673820496, -0.164793461561203, -0.1483709067106247, -0.12173226475715637, -0.02316899783909321, 0.004488622769713402, 0.5250596404075623, 0.12216442823410034, 0.28781867027282715, -0.13136301934719086, 0.1376994103193283, 0.03208743780851364, -0.17749369144439697, 0.25050321221351624, -0.231557235121727, -0.420703262090683, -0.32216307520866394, -0.3924545347690582, 0.055680252611637115, -0.47035151720046997, 0.1416010707616806, -0.09142649173736572], [0.6043825745582581, 0.4873431622982025, -0.13466094434261322, 0.638706624507904, -0.14243358373641968, -0.20718368887901306, -0.013465792872011662, 0.612665057182312, -0.03946629539132118, -0.4424477517604828, 0.47555050253868103, 0.3565216660499573, 0.5775380730628967, 0.42402756214141846, 0.3463548421859741, 0.10757146030664444, 0.18809907138347626, -0.2326272875070572, -0.07606920599937439, 0.162995845079422, -0.2461877465248108, -0.08647125959396362, -0.08057001978158951, 0.5876325368881226, -0.011778144165873528, -0.7870015501976013, -0.35957616567611694, 0.3562595844268799, -0.15075503289699554, -0.17969250679016113, -0.48330017924308777, 0.0034361951984465122], [0.007781847380101681, -0.7094128727912903, 0.02336539886891842, -0.2325463742017746, -0.03579118847846985, 0.3448379635810852, -0.025202706456184387, -0.6521039605140686, -0.20344407856464386, 0.3496943414211273, -0.5061197280883789, -0.3822686970233917, -0.8774068355560303, -0.1481071412563324, -0.013560771942138672, -0.1020815446972847, -0.4446088671684265, 0.004833186510950327, 0.0538150854408741, 0.32405737042427063, -0.29660242795944214, 0.492892861366272, 0.018503686413168907, 0.15006393194198608, -0.09468802809715271, 0.3030887842178345, 0.013067327439785004, 0.5853044986724854, -0.034296032041311264, 0.8756226897239685, -0.7502309083938599, 0.12786738574504852], [-0.3709440231323242, -0.4939444065093994, 0.17379775643348694, -0.36011654138565063, -0.07440881431102753, -0.3255595564842224, -0.23593081533908844, -0.11574739962816238, -0.5272136926651001, 0.35383346676826477, -0.1950150728225708, -0.13624612987041473, -0.3222860097885132, -0.46077051758766174, 0.3396790623664856, 0.5745303630828857, -0.502360463142395, -0.291059285402298, -0.046394020318984985, 0.16321884095668793, -0.25050464272499084, 0.16161784529685974, 0.3535125255584717, 0.020201489329338074, 0.3910199701786041, 0.28344377875328064, 0.2767336368560791, -0.16877825558185577, 0.2388029545545578, 0.362621933221817, 0.022003723308444023, 0.04097664728760719], [0.4567702114582062, 0.6093132495880127, -0.16758424043655396, 0.23835237324237823, -0.31433340907096863, -0.09115158021450043, -0.3924694359302521, -0.0780646800994873, -0.32690703868865967, -0.6766517162322998, 0.6827203631401062, 0.12662847340106964, 0.433500200510025, 0.11878127604722977, -0.3096091151237488, -0.17889972031116486, 0.4877355098724365, -0.21026389300823212, -0.6389046311378479, 0.023401694372296333, 0.393102765083313, -0.35538747906684875, 0.1395154595375061, -0.05167386308312416, -0.0713643953204155, -0.23155951499938965, -0.05699493736028671, -0.5374305844306946, 0.23049315810203552, -0.2728695273399353, -0.21762079000473022, -0.8127319812774658], [-0.25348734855651855, -0.3756968379020691, 0.03958294540643692, -0.3553703725337982, -0.1121191456913948, 0.05821151286363602, -0.047305624932050705, 0.08250535279512405, 0.2602088451385498, 0.32719486951828003, -0.2700371742248535, 0.06746038049459457, 0.1138065755367279, -0.2431398630142212, -0.015124301426112652, -0.025729220360517502, -0.7856960296630859, 0.1415877640247345, 0.021619196981191635, 0.20637758076190948, 0.0905834287405014, -0.25575971603393555, -0.0008766514947637916, -0.009026871994137764, 0.38720160722732544, 0.764535665512085, 0.2590370178222656, -0.427299827337265, -0.20765651762485504, 0.30105262994766235, -0.1093457043170929, 0.294813334941864], [-0.3276941776275635, -0.36727315187454224, -0.15236446261405945, -0.25227925181388855, -0.16502103209495544, 0.1646830141544342, 0.41200825572013855, -0.0652199387550354, -0.41431447863578796, 0.7526184320449829, -0.887387752532959, -0.6017483472824097, -0.1745896190404892, 0.2116624265909195, -0.1527603268623352, 0.07034450024366379, -0.3035348951816559, 0.5123935341835022, 0.1810707300901413, -0.2060116082429886, 0.10298164933919907, 0.24996733665466309, 0.04866167902946472, -0.24541012942790985, -0.1964023858308792, 0.828814685344696, 0.4970928132534027, 0.22835390269756317, 0.22212572395801544, 0.8368996381759644, -0.19892922043800354, 0.3485080599784851], [-0.4739043116569519, -0.4000704288482666, 0.2685573399066925, 0.10322456061840057, 0.3965085446834564, -0.1499389261007309, 0.3045923113822937, 0.22805537283420563, -0.35304155945777893, 0.34683728218078613, -0.05784177780151367, 0.14300356805324554, -0.31873342394828796, -0.03816359117627144, -0.3318348824977875, 0.18680977821350098, -0.1844056397676468, -0.0649566501379013, 0.37770572304725647, -0.29201486706733704, 0.21977262198925018, 0.1687784045934677, -0.15585891902446747, 0.0516512356698513, 0.4206000566482544, 0.5234507918357849, -0.3474721908569336, 0.14583955705165863, 0.04801313951611519, 1.0263553857803345, 0.02936764992773533, 0.2897937595844269], [-0.0728369727730751, 0.43576064705848694, 0.2737274169921875, -0.2604241371154785, 0.008457846939563751, 0.10039926320314407, -0.04538648948073387, 0.43279775977134705, 0.48107922077178955, 0.19665277004241943, 0.2114301174879074, 0.05438525602221489, 0.18983936309814453, 0.3620590567588806, 0.16537347435951233, -0.33439576625823975, -0.0015094008995220065, -0.1413886547088623, 0.14848436415195465, -0.14526383578777313, 0.03391485661268234, -0.13096584379673004, -0.08703596144914627, 0.11582186818122864, -0.05321412533521652, -0.1682736575603485, -0.32697704434394836, 0.4673612713813782, 0.10422662645578384, 0.4807826280593872, -0.07865362614393234, 0.1653197854757309], [-0.5060297250747681, 0.32189735770225525, -0.20125533640384674, -0.22714881598949432, -0.633031964302063, -0.35156577825546265, -0.0036724053788930178, 0.2631160318851471, 0.4866901636123657, 0.040978945791721344, -0.022579560056328773, -0.35708847641944885, -0.0811874270439148, -0.2921425700187683, 0.11141635477542877, -0.7344216108322144, 0.12166234105825424, 0.15025627613067627, 0.19264061748981476, -0.3362385928630829, -0.037380509078502655, -0.2528475522994995, -0.6452411413192749, -0.3608766198158264, -0.07638445496559143, 0.432957261800766, -0.37418827414512634, -0.1120268777012825, 0.18182718753814697, 0.3430044949054718, -0.5209471583366394, -0.2657044231891632], [-0.4199598729610443, 0.17616619169712067, -0.05208050459623337, -0.439848393201828, -0.2534275949001312, -0.18495450913906097, 0.13348084688186646, 0.5099632143974304, 0.09760168194770813, -0.1548326164484024, 0.13067886233329773, 0.348568320274353, 0.055509861558675766, -0.17043215036392212, 0.06074707582592964, -0.3954267203807831, -0.2583000659942627, 0.062178052961826324, -0.27785488963127136, 0.3397323787212372, 0.4870363473892212, 0.10161827504634857, -0.4016132056713104, 0.06398147344589233, -0.4664826989173889, -0.12277484685182571, -0.38131949305534363, -0.1211385428905487, 0.9132794737815857, 0.4002678394317627, 0.008852493949234486, -0.06412552297115326], [-0.4961687922477722, 0.4858860373497009, 0.19415251910686493, -0.05950944498181343, -0.9012991189956665, -0.2708103656768799, 0.22321131825447083, 1.3285956382751465, 0.6254469752311707, 0.42202135920524597, 0.20760823786258698, 0.3272660970687866, 0.18952901661396027, 0.016136791557073593, 0.09121007472276688, -0.3185986280441284, 0.17992401123046875, 0.6222968697547913, -0.17634403705596924, -0.1476038545370102, -0.211410790681839, -0.19381842017173767, -0.1657520979642868, -0.2590196430683136, 0.11008740961551666, -0.2768446207046509, -0.5734566450119019, 0.48022741079330444, 0.5060331225395203, 0.5245060920715332, -0.09679719060659409, 0.6897924542427063], [-0.09655141830444336, 0.7777463793754578, -0.02473575249314308, -0.016530439257621765, -0.18572115898132324, 0.4873383641242981, 0.03546895831823349, 0.3770322799682617, 0.4760030508041382, -0.1459452360868454, 0.1392592042684555, 0.07286391407251358, 0.5245199799537659, 0.3524007499217987, -0.13841769099235535, 0.08626458793878555, -0.23406516015529633, 0.12406285107135773, 0.012875735759735107, 0.007539780810475349, -0.25538119673728943, 0.1402464509010315, 0.39461442828178406, 0.18986177444458008, -0.008978093974292278, 0.6989638805389404, 0.29559794068336487, 0.035830650478601456, 0.43236157298088074, 0.16077648103237152, 0.16060176491737366, 0.04890298470854759], [-0.26156532764434814, 0.42962542176246643, -0.196645587682724, 0.041967909783124924, -0.726580023765564, -0.2843688726425171, 0.29707518219947815, 0.024574950337409973, -0.06096561625599861, 0.18202759325504303, -0.06454108655452728, 0.016440140083432198, 0.002992873312905431, -0.27344486117362976, 0.07660287618637085, -0.426545113325119, -0.10156182199716568, 0.09533458203077316, 0.004349697846919298, -0.04731645807623863, 0.22093944251537323, -0.1469002664089203, -0.4913159906864166, 0.13714751601219177, -0.762474000453949, 0.2463158667087555, -0.17108634114265442, -0.15710380673408508, 0.41258135437965393, 0.32798200845718384, -0.33645257353782654, 0.28495267033576965], [-0.051831793040037155, 0.5065595507621765, 0.4957515597343445, -0.3295900523662567, -0.2837379276752472, -0.5182138085365295, 0.2092539221048355, 0.5972097516059875, 0.4359051585197449, 0.6269914507865906, 0.00828254222869873, 0.15252839028835297, 0.2766387462615967, 0.006791095249354839, 0.5736083388328552, -0.47035476565361023, 0.16001363098621368, -0.1780264675617218, 0.15163074433803558, 0.019577044993638992, -0.5203485488891602, -0.29953837394714355, -0.6825191974639893, 0.025655990466475487, -0.3820034861564636, 0.40357375144958496, 0.014970079064369202, -0.3712173402309418, 0.03967446833848953, 0.602790355682373, -0.10259867459535599, -0.0714031234383583], [-0.23528578877449036, 0.4683085083961487, -0.4028327465057373, 0.17552028596401215, -0.5765768885612488, -0.11380065977573395, 0.4618053436279297, 0.3059113323688507, 0.011691330932080746, 0.5978162288665771, -0.48064130544662476, 0.15380297601222992, 0.025823203846812248, 0.19002050161361694, 0.09585835039615631, -0.3989517390727997, 0.08858524262905121, 0.13457712531089783, -0.11027123034000397, 0.17817457020282745, -0.007861082442104816, -0.47146686911582947, -0.3878397047519684, 0.07996571809053421, -0.6453388929367065, 0.07419031858444214, -0.6640673875808716, 0.4404847025871277, 0.48988598585128784, 0.29049238562583923, -0.04388187453150749, 0.4386925995349884], [0.14708654582500458, -0.004740126896649599, 0.10105633735656738, -0.035837769508361816, 0.24473300576210022, 0.08771925419569016, 0.22489912807941437, 0.9105101227760315, 0.4932752847671509, 0.29765355587005615, 0.032502856105566025, 0.33571404218673706, 0.29020199179649353, 0.19562822580337524, 0.19551369547843933, -0.5124250650405884, 0.10267090797424316, 0.2636226713657379, 0.41938185691833496, -0.18028904497623444, -0.38352128863334656, 0.5261889100074768, 0.1176832839846611, 0.09577322751283646, 0.14665645360946655, -0.20749665796756744, -0.08314979821443558, 0.16376477479934692, 0.13022233545780182, 0.785337507724762, 0.32703524827957153, -0.19396579265594482], [-0.2103108912706375, 0.13053958117961884, 0.1932452917098999, -0.22055959701538086, -0.8453325033187866, 0.1800716370344162, -0.28169652819633484, -0.04000014066696167, 0.17011724412441254, 0.5135534405708313, -0.5502070784568787, -0.16917680203914642, -0.6640415191650391, -0.15228070318698883, 0.1105985939502716, -0.2098565250635147, -0.0029920078814029694, -0.08486709743738174, 0.16300976276397705, 0.11072245985269547, 0.5186157822608948, -0.2346634715795517, -0.7722119688987732, -0.10434280335903168, -0.1438324898481369, -0.024412788450717926, -0.5310016870498657, -0.11899509280920029, 0.1998482197523117, 0.30640533566474915, 0.16233226656913757, 0.6166965365409851], [-0.5933588743209839, 0.6307270526885986, 0.21520991623401642, -0.01782440021634102, 0.2423015981912613, -0.40225812792778015, 0.04872245341539383, 0.2982478439807892, -0.1062491312623024, 0.5319059491157532, -0.07010709494352341, -0.24197398126125336, -0.10540026426315308, -0.43424755334854126, -0.1321086883544922, -0.13355408608913422, -0.5823030471801758, -0.2583913505077362, 0.3273845314979553, 0.3815317451953888, 0.32183218002319336, -0.371004581451416, -0.20763497054576874, -0.26117751002311707, -0.11454145610332489, -0.1430589258670807, -0.48232755064964294, 0.11893808096647263, -0.12784448266029358, 0.6002210378646851, 0.23436619341373444, -0.10452467948198318], [-0.41328784823417664, 0.5730798840522766, 0.041063904762268066, -0.044717151671648026, -0.32380834221839905, -0.38012999296188354, 0.18236470222473145, 0.505893886089325, 0.24065539240837097, 0.333420991897583, 0.0775342732667923, 0.5305901765823364, -0.02520136907696724, -0.17115186154842377, -0.30007195472717285, 0.014237250201404095, 0.17003019154071808, 0.10450571775436401, -0.07442124933004379, 0.21099752187728882, -0.35650011897087097, -0.323518842458725, -0.7247070074081421, 0.09492729604244232, -0.562732458114624, 0.2819562554359436, -0.2516748309135437, -0.32053127884864807, 0.7521499991416931, 0.9096851944923401, 0.1581002026796341, -0.20801658928394318], [-0.4141697883605957, -0.38298118114471436, 0.06049295887351036, 0.12036596983671188, -0.4707905948162079, -0.6647096872329712, -0.47615453600883484, 0.5586297512054443, -0.07108895480632782, 0.13339872658252716, 0.16906864941120148, -0.3021395802497864, -0.12651272118091583, -0.09367401897907257, 0.059284310787916183, -0.42197051644325256, 0.269823282957077, 0.07126053422689438, 0.1680322140455246, -0.5300116539001465, -0.28821343183517456, 0.028335515409708023, -0.6516285538673401, -0.392408162355423, -0.2233339101076126, 0.10594623535871506, -0.5046380162239075, 0.3100425601005554, 0.017437035217881203, 0.5372786521911621, 0.09629315882921219, 0.17623859643936157], [0.4643561840057373, 0.29344862699508667, -0.04117443412542343, -0.27871355414390564, -0.63719642162323, -0.20649223029613495, 0.2795763611793518, 0.26263704895973206, -0.49161165952682495, 0.5154463052749634, -0.1767529994249344, 0.25312870740890503, -0.2745779752731323, 0.2953454554080963, 0.14316165447235107, -0.6314992308616638, -0.06857606023550034, -0.3988581597805023, 0.11180335283279419, -0.20447617769241333, -0.4555998146533966, -0.43024492263793945, -0.8935455679893494, -0.1532072275876999, 0.08878499269485474, -0.04885486513376236, -0.3394438326358795, 0.26806142926216125, -0.016995318233966827, 0.20954185724258423, 0.09151138365268707, 0.034396637231111526], [-0.3853994309902191, -0.15058226883411407, -0.1453610360622406, -0.3091571033000946, -0.06463861465454102, -0.003298922209069133, 0.031015804037451744, 0.7394235134124756, 0.15639440715312958, 0.21610529720783234, -0.07986338436603546, 0.032187461853027344, -0.20353002846240997, 0.5495822429656982, -0.4685884714126587, -0.5606116056442261, -0.06502147018909454, -0.24762561917304993, -0.3359171450138092, -0.5715861916542053, 0.3873417377471924, -0.13204270601272583, -0.6898558139801025, -0.620364248752594, -0.34012746810913086, -0.4857773780822754, -0.6023393869400024, -0.12624119222164154, 0.23704561591148376, 0.7106109261512756, -0.2456379383802414, 0.254102498292923], [-0.5725736021995544, -0.6703245043754578, -0.11201257258653641, -0.13008159399032593, -0.03147280216217041, -0.4576345682144165, 0.018480053171515465, 0.10540536791086197, -4.1337690353393555, 0.380899041891098, -1.3566163778305054, -0.3416367471218109, -2.7479052543640137, 0.18724751472473145, -0.24767626821994781, -0.32390689849853516, -1.4157741069793701, 0.49394381046295166, -0.301053524017334, 0.011710976250469685, 0.054160021245479584, -0.3679838180541992, -0.0813659057021141, -1.701623797416687, 0.09015968441963196, 0.21860341727733612, -0.12626177072525024, -0.35938987135887146, 0.04271917790174484, 0.2077757567167282, -1.4447059631347656, 0.28239360451698303], [0.006479442119598389, 0.37945401668548584, 0.33005744218826294, 0.16415798664093018, 0.21590226888656616, 0.21205979585647583, 0.020911825820803642, 0.5714915990829468, 0.6211619973182678, 0.5755895972251892, -0.2838073670864105, -0.14115193486213684, 0.6630074977874756, 0.0036438507959246635, -0.23650634288787842, 0.07553524523973465, 0.33582690358161926, 0.0865965187549591, -0.34433701634407043, -0.21965815126895905, -0.08110368996858597, 0.08503913879394531, -0.02124692313373089, -0.12278366833925247, -0.017022863030433655, 0.5276298522949219, -0.2871972620487213, -0.24146969616413116, 0.566737949848175, 0.4330294132232666, 0.311563104391098, 0.2433537244796753], [-0.40472570061683655, 0.5312885046005249, -0.05935462936758995, 0.1836787760257721, -0.37555819749832153, -0.475842148065567, 0.1638856828212738, 0.3781846761703491, 0.520085871219635, 0.3048833906650543, 0.5743563771247864, -0.1403585970401764, -0.09997011721134186, -0.10640112310647964, -0.1358790248632431, -0.48589614033699036, -0.7462834715843201, -0.12214828282594681, -0.04600474610924721, -0.16520516574382782, -0.052822504192590714, -0.3724011778831482, -0.560990035533905, 0.32133686542510986, 0.10601884871721268, -0.19875389337539673, -0.8854193091392517, -0.1233225166797638, -0.011732703074812889, 0.680518388748169, -0.38527604937553406, 0.16561704874038696], [-0.3286638557910919, 0.3003822863101959, 0.42527031898498535, -0.44465479254722595, -0.6077474355697632, -0.6389153599739075, 0.05810943618416786, 0.23633846640586853, 0.37006476521492004, -0.40741536021232605, -0.21133674681186676, 0.22137907147407532, -0.20358434319496155, 0.2160205990076065, 0.05697023123502731, -0.6163535714149475, 0.2534962296485901, 0.08820535242557526, 0.3372398018836975, 0.5824296474456787, -0.1415669471025467, -0.3429083228111267, -0.37484443187713623, -0.23564749956130981, -0.40539777278900146, -0.2908182740211487, -0.4370232820510864, 0.19838903844356537, 0.2393839806318283, 0.28395023941993713, -0.0031260342802852392, 0.20322032272815704], [0.1475847065448761, -0.05203506350517273, 0.25029873847961426, -0.36510005593299866, -0.08015545457601547, -0.17503367364406586, 0.19986283779144287, 0.07943350821733475, 0.3994501233100891, 0.20413769781589508, -0.09936344623565674, -0.3280330300331116, 0.07612143456935883, 0.3033803701400757, -0.31504154205322266, -0.07080309092998505, -0.36640459299087524, -0.10689597576856613, -0.10868250578641891, -0.14215421676635742, -0.04169275611639023, -0.03919830173254013, -0.31232476234436035, 0.19986885786056519, -0.33081260323524475, 0.17847637832164764, -0.7017318606376648, -0.04314761981368065, -0.005199960432946682, 0.2950521409511566, 0.021338453516364098, 0.16406774520874023], [-0.14360646903514862, 0.37337782979011536, -0.42710328102111816, -0.5162129402160645, -0.4851318299770355, -0.28956925868988037, 0.08133914321660995, -0.12624405324459076, -0.2865912616252899, 0.3625319302082062, -0.2930762469768524, 0.16862206161022186, 0.030169637873768806, 0.2690671682357788, -0.07418400794267654, -0.6088460087776184, 0.09999436885118484, -0.005916613154113293, -0.17059198021888733, 0.21738038957118988, 0.08354398608207703, -0.213768869638443, -0.43368467688560486, -0.20033027231693268, -0.3455904424190521, 0.3445228040218353, -0.35129058361053467, 0.11908699572086334, 0.19069039821624756, 0.18971990048885345, -0.30961525440216064, -0.21844251453876495], [-0.2629977762699127, 0.0224818903952837, 0.1893020123243332, 0.16684457659721375, -0.4143234193325043, -0.41153666377067566, 0.0499429889023304, 0.10156521946191788, -0.3560946583747864, 0.058327946811914444, 0.05480995401740074, -0.2621949315071106, 0.36739787459373474, -0.3696598708629608, 0.11207395792007446, -0.2523573040962219, -0.16406071186065674, 0.1338508129119873, -0.40822866559028625, -0.05395062640309334, -0.20347987115383148, 0.16820251941680908, -0.5721572041511536, 0.28193366527557373, -0.021503260359168053, -0.17940092086791992, -0.05948462337255478, -0.10719666630029678, 0.8377110362052917, 0.3895685076713562, 0.13006092607975006, 0.28772589564323425], [-0.11995978653430939, 0.27838844060897827, -0.28682833909988403, 0.20326808094978333, -0.5881423950195312, -0.25801578164100647, -0.004341282416135073, 0.6832110285758972, 0.22741279006004333, 0.5112749338150024, 0.34972646832466125, -0.25877323746681213, 0.14676932990550995, 0.10152620077133179, -0.15543606877326965, -0.28788551688194275, -0.23903340101242065, 0.20885352790355682, -0.22968405485153198, 0.11539480835199356, -0.11112784594297409, -0.3528313636779785, -0.5266751050949097, -0.3341234028339386, -0.36037155985832214, -0.08227574825286865, -0.846865713596344, 0.11524201184511185, 0.19200564920902252, 0.5993252992630005, -0.17400003969669342, -0.0802111104130745], [-0.5940595865249634, 0.14746521413326263, 0.08460000902414322, -0.10971067100763321, -0.16852915287017822, -0.2772460877895355, -0.23986168205738068, 1.0935367345809937, 0.7672595977783203, 0.05820582062005997, -0.19171708822250366, -0.22488728165626526, -0.17346976697444916, -0.1475818157196045, -0.14008139073848724, -0.6702062487602234, -0.501718282699585, -0.14027002453804016, 0.31242209672927856, 0.38244709372520447, -0.04736935719847679, -0.25849926471710205, -0.23917751014232635, -0.15091004967689514, 0.3022160232067108, -0.06852834671735764, -0.7250687479972839, 0.29324182868003845, 0.06502806395292282, 0.8353933095932007, -0.3893568515777588, 0.35886645317077637], [-0.10646533966064453, 0.5996102094650269, 0.14271564781665802, 0.1993430256843567, 0.5783782005310059, 0.6107883453369141, -0.21039672195911407, 0.2894309461116791, 0.3692210614681244, 0.6115612983703613, 0.0845315009355545, -0.05253563076257706, -0.09534920752048492, 0.607062816619873, -0.12693697214126587, -0.1600193977355957, 0.45587077736854553, -0.11590544879436493, -0.2540126144886017, 0.21523801982402802, 0.6220257878303528, 0.14582602679729462, 0.29846668243408203, 0.36825838685035706, -0.10295205563306808, 0.30188748240470886, 0.24702587723731995, -0.10110387206077576, 0.5172746777534485, 0.4561389088630676, 0.07686682790517807, 0.027903344482183456], [-0.26889699697494507, 0.3527704179286957, 0.031767331063747406, -0.3834112882614136, -0.2222657948732376, -0.6161653995513916, 0.36095181107521057, -0.010469634085893631, 0.24367539584636688, 0.2620287537574768, -0.12113941460847855, -0.0816563293337822, 0.3640161156654358, -0.1322680115699768, -0.028951464220881462, -0.26870036125183105, 0.14342345297336578, -0.43852001428604126, 0.012853777036070824, -0.09430313855409622, -0.029224179685115814, -0.20139338076114655, -0.23441466689109802, -0.1286843866109848, -0.2760656774044037, -0.027259577065706253, 0.05626283958554268, 0.1264350712299347, 0.1919798105955124, 0.45741263031959534, 0.2916419208049774, 0.1563812792301178], [-0.3399982154369354, 0.4472455084323883, -0.11306102573871613, -0.5643770098686218, -0.8601964712142944, -0.33557552099227905, 0.05005490407347679, -0.1240360215306282, 0.3526954650878906, 0.5908433198928833, -0.12623287737369537, -0.09498869627714157, 0.07831092923879623, 0.15148693323135376, -0.021456100046634674, -0.10046272724866867, -0.3279264271259308, 0.16333165764808655, -0.1035674661397934, -0.037520118057727814, -0.13527147471904755, 0.06815788894891739, -0.3876740038394928, -0.2662934958934784, -0.6893121004104614, -0.3690134286880493, -0.7658985257148743, -0.4220166802406311, -0.0813179537653923, 0.489675372838974, 0.04464792087674141, 0.33910536766052246], [-0.032862186431884766, 0.27039670944213867, -0.31739649176597595, -0.6787230968475342, -0.03633778169751167, 0.24984779953956604, -0.014323207549750805, 0.44057440757751465, 0.5559932589530945, 0.6505420804023743, 0.07049492746591568, -0.18598151206970215, 0.1383177489042282, -0.21615199744701385, 0.035656556487083435, -0.5879923701286316, -0.10296470671892166, -0.013241753913462162, 0.13650193810462952, -0.025126367807388306, 0.048567745834589005, -0.12224087119102478, -0.7957771420478821, 0.023859862238168716, -0.42436179518699646, 0.2573777437210083, -0.33193889260292053, -0.11094650626182556, 0.004704639315605164, 0.27001872658729553, 0.5394855737686157, 0.35541483759880066], [0.01767973229289055, 0.2793892025947571, 0.18660005927085876, -0.13641059398651123, 0.21156470477581024, -0.6109017729759216, 0.20261870324611664, 0.4987468123435974, 0.29111483693122864, 0.12406253814697266, -0.0758301168680191, 0.13193318247795105, 0.605258047580719, 0.36539027094841003, -0.13348977267742157, -0.3980102241039276, 0.09312979876995087, 0.30276554822921753, 0.04390130192041397, 0.45882225036621094, 0.19296227395534515, -0.17452502250671387, -0.05831615999341011, -0.03732011094689369, 0.07934819161891937, 0.04524793475866318, -0.298829048871994, 0.466738760471344, -0.2653634250164032, 0.6510100364685059, -0.29453274607658386, -0.12650077044963837], [0.020691493526101112, 0.05851028859615326, -0.41318267583847046, -0.37337565422058105, -0.6246274709701538, -0.28256773948669434, 0.2309459149837494, 0.2648261487483978, -0.33545592427253723, 0.40541011095046997, 0.05955241248011589, 0.049672435969114304, 0.305244505405426, -0.2874724864959717, 0.0013037731405347586, -0.8542794585227966, -0.17803610861301422, -0.27035805583000183, -0.517811119556427, 0.23555628955364227, 0.5786176323890686, -0.05778094008564949, -0.4227590560913086, -0.25698426365852356, -0.5171207189559937, -0.4225461781024933, -0.03703887760639191, 0.2630980908870697, 0.18343940377235413, 0.9161656498908997, -0.22690975666046143, 0.39532947540283203], [-0.11465641856193542, 0.45348024368286133, -0.060908835381269455, -0.09057339280843735, -0.6083420515060425, -0.49230095744132996, 0.30628135800361633, -0.12121879309415817, 0.03992988541722298, -0.1552559733390808, 0.033261489123106, -0.4518006443977356, -0.5862969160079956, -0.03233284875750542, -0.11865700781345367, -0.916774332523346, -0.1430167406797409, 0.03728284314274788, 0.3625327944755554, 0.06128246709704399, -0.02034085802733898, -0.389132022857666, -0.7065232992172241, 0.0047388095408678055, 0.24397440254688263, -0.09206321835517883, -0.5366359949111938, -0.035724740475416183, -0.14597420394420624, 0.6216837167739868, -0.27740660309791565, -0.23892831802368164], [-0.1259295642375946, 0.26388928294181824, 0.0850738137960434, -0.8241502046585083, -0.30632397532463074, -0.07301773875951767, 0.051854927092790604, -0.056822869926691055, 0.21789173781871796, -0.19590876996517181, -0.2804274559020996, -0.01558865699917078, 0.2688300907611847, -0.20731204748153687, -0.3557683229446411, -0.0037760520353913307, 0.04659539461135864, -0.03955667093396187, 0.14076083898544312, -0.25959405303001404, 0.3352411687374115, -0.4400893449783325, -0.7974141240119934, 0.22370050847530365, -0.601813793182373, -0.21163083612918854, -0.44372856616973877, 0.8035184741020203, 0.018608950078487396, 0.3150627315044403, -0.3401659429073334, 0.5954077839851379]], "lstm.weight_hh_l0": [[-0.9850570559501648, -0.16112729907035828, -0.024915924295783043, -0.04113416001200676, -0.05476013943552971, -0.04397256672382355, -0.11654975265264511, 0.053604524582624435, -0.006297513376921415, 0.04407845810055733, 0.2465585172176361, -0.010010497644543648, -0.004280275199562311, -0.12921714782714844, -0.017744263634085655, -0.31011831760406494, -0.005651635117828846, 0.07188306748867035, -0.2080933004617691, 0.2909473180770874, -0.038243964314460754, -0.25129732489585876, 0.03184954822063446, 0.4039580523967743, 0.1281539648771286, -0.228312686085701, 0.19078385829925537, -0.02900605835020542, -0.129897341132164, -0.24522392451763153, -0.06994793564081192, 0.07218766212463379], [0.10219083726406097, 0.44256168603897095, 0.21206654608249664, -0.10071452707052231, -0.03607762232422829, 0.3125995397567749, -0.1905144602060318, -0.26813822984695435, 0.15495824813842773, -0.29761797189712524, 0.03562193736433983, -0.11440475285053253, -0.18045438826084137, 0.10174993425607681, -0.16158989071846008, -0.1727304905653, -0.25939327478408813, -0.2342408001422882, 0.052584562450647354, -0.13185186684131622, 0.001948920194990933, 0.10668297111988068, 0.23056519031524658, -0.06606543064117432, -0.13012614846229553, 0.03684718534350395, -0.007200009189546108, -0.03749558702111244, 0.22949205338954926, -0.03170081973075867, -0.14701548218727112, -0.19597265124320984], [0.29813626408576965, -0.18194404244422913, -0.1543436199426651, -0.2526828646659851, 0.0318574532866478, 0.2200700342655182, -0.08455994725227356, -0.43562746047973633, 0.011986812576651573, -0.4848232865333557, 0.02735883928835392, -0.11183679103851318, 0.04509497061371803, 0.24270600080490112, -0.15000271797180176, -0.20081743597984314, -0.28419432044029236, -0.2695859670639038, 0.4433218240737915, 0.03667273372411728, -0.08182413876056671, 0.3027433454990387, 0.34640106558799744, -0.3988930284976959, 0.2752320468425751, 0.13958187401294708, -0.16933095455169678, -0.06991390883922577, 0.0029251445084810257, -0.06839336454868317, -0.43524062633514404, -0.4000800549983978], [-0.15692973136901855, 0.3213665783405304, -0.015252885408699512, 0.10942094773054123, -0.11819934844970703, 0.05168343335390091, 0.03871496394276619, 0.2997554838657379, -0.18485595285892487, 0.3098747432231903, 0.30432239174842834, -0.09924410283565521, 0.21162889897823334, -0.2372337132692337, 0.13518284261226654, -0.28127896785736084, 0.06058357656002045, 0.051705021411180496, -0.08703427761793137, 0.10341231524944305, -0.37107035517692566, -0.13076764345169067, -0.02187577821314335, 0.21853609383106232, 0.20834633708000183, -0.10727015137672424, 0.38035836815834045, 0.025603584945201874, -0.3630847632884979, 0.18391193449497223, 0.21558153629302979, 0.4157346487045288], [0.06947293877601624, -0.028990715742111206, 0.06303282082080841, -0.21376675367355347, -0.2222718894481659, 0.432900071144104, 0.1527295708656311, -0.09420716017484665, 0.08981656283140182, -0.24519385397434235, -0.02348645217716694, -0.1635294407606125, -0.06614285707473755, 0.23427218198776245, -0.28068307042121887, -0.19535911083221436, -0.25919219851493835, -0.22195623815059662, -0.10313314944505692, 0.014893418177962303, 0.26292675733566284, 0.5275312662124634, 0.07047251611948013, 0.031580958515405655, 0.4524137079715729, 0.06348605453968048, -0.13003750145435333, -0.04687367379665375, -0.25939229130744934, -0.20486332476139069, -0.2324981391429901, -0.008118578232824802], [0.024627873674035072, 0.28489089012145996, -0.009989971294999123, -0.08575394004583359, 0.0010660892585292459, -0.33154135942459106, 0.1508309543132782, -0.025275567546486855, -0.2862677574157715, -0.0796537771821022, 0.1645277440547943, -0.05473983660340309, 0.21434944868087769, 0.08407027274370193, 0.08001253008842468, -0.006464370992034674, 0.01268549170345068, -0.22001560032367706, -0.049421485513448715, -0.09085750579833984, -0.33727172017097473, -0.12040124088525772, 0.15661287307739258, -0.15493892133235931, 0.5139524340629578, -0.2233310043811798, 0.0726754292845726, -0.48400071263313293, -0.16960057616233826, 0.3266134262084961, 0.028575357049703598, -0.17032916843891144], [0.13202212750911713, 0.09553084522485733, -0.05397413671016693, -0.07845903933048248, -0.012981385923922062, -0.1185227483510971, -0.0016415606951341033, -0.06082885339856148, -0.2028791606426239, 0.21660445630550385, 0.0326826237142086, -0.019039425998926163, 0.09747016429901123, -0.15238723158836365, 0.21497179567813873, -0.4335729777812958, 0.004470426123589277, -0.17852863669395447, 0.03711172193288803, -0.015435139648616314, -0.41551846265792847, 0.18917623162269592, 0.028516698628664017, -0.04207362234592438, -0.11482129991054535, -0.055178552865982056, 0.08294196426868439, -0.19213363528251648, -0.13650502264499664, 0.10797800123691559, 0.21555115282535553, 0.04946975037455559], [-0.1745080202817917, -0.09884385764598846, 0.01087010744959116, -0.09565826505422592, -0.015595892444252968, 0.3543238341808319, 0.2815224230289459, 0.3032231330871582, -0.2683776021003723, -0.005748703144490719, 0.12782631814479828, 0.06126272678375244, -0.015080076642334461, -0.06370868533849716, -0.04747054725885391, -0.13135743141174316, -0.21167311072349548, -0.037538859993219376, 0.29712122678756714, -0.10826046764850616, 0.1111096665263176, -0.09945659339427948, 0.17881633341312408, 0.0505705289542675, -0.03002343699336052, 0.08024798333644867, 0.17659035325050354, -0.31178656220436096, -0.07805191725492477, -0.13016699254512787, -0.44864270091056824, -0.04203052818775177], [-0.4883989989757538, 0.15145662426948547, -0.3581160604953766, 0.3891783356666565, -0.2427532821893692, -0.306100457906723, -0.43349844217300415, 0.3912065029144287, 0.24514034390449524, 0.4593086838722229, 0.21452251076698303, 0.46291786432266235, 0.1953720897436142, -0.30060577392578125, 0.5011488795280457, -0.2791961431503296, 0.36148104071617126, 0.3893991708755493, -0.29683515429496765, 0.40120843052864075, -0.402535080909729, -0.4691711366176605, -0.2835428714752197, 0.45099979639053345, -0.24361108243465424, -0.29666581749916077, 0.23401787877082825, 0.2689400017261505, -0.32928797602653503, 0.49862852692604065, 0.301874041557312, 0.3147190511226654], [0.08401894569396973, -0.42551642656326294, 0.10359013825654984, -0.20051699876785278, 0.20892353355884552, 0.3134748041629791, 0.25712382793426514, -0.25490859150886536, -0.26755982637405396, 0.2506973445415497, -0.1668817102909088, -0.19916462898254395, -0.08276882767677307, 0.26060545444488525, -0.26629510521888733, -0.16129666566848755, -0.3315764367580414, -0.1738130897283554, 0.424096941947937, -0.1898312270641327, 0.2889916002750397, 0.18282166123390198, 0.4205895662307739, -0.13334770500659943, 0.5101444125175476, 0.19436423480510712, 0.27512380480766296, -0.5501442551612854, 0.15073983371257782, -0.20383404195308685, -0.5002148747444153, -0.5315538644790649], [0.15971790254116058, -0.06833846867084503, 0.045010052621364594, -0.06556504964828491, 0.1662481278181076, 0.27107566595077515, 0.0208873450756073, -0.33489754796028137, -0.03283531963825226, -0.23592445254325867, -0.3656404912471771, -0.21860097348690033, 0.003245175816118717, 0.04547037184238434, -0.10737273842096329, -0.011726891621947289, -0.13796350359916687, -0.33146652579307556, -0.027690919116139412, -0.09469594061374664, 0.07368633151054382, 0.21600529551506042, 0.06934943050146103, -0.20679454505443573, 0.28917431831359863, 0.294127494096756, -0.08847450464963913, -0.0711459144949913, 0.1769980937242508, -0.13554832339286804, -0.0522364117205143, -0.34986820816993713], [-0.2708076536655426, 0.3018432557582855, -0.29572367668151855, -0.05446994677186012, -0.2926304042339325, 0.025499526411294937, 0.03296467289328575, -0.016624584794044495, -0.09059638530015945, 0.06283960491418839, 0.13809631764888763, 0.1894911676645279, -0.01041435543447733, -0.29249119758605957, 0.5619150996208191, -0.28454694151878357, 0.13140422105789185, 0.08786100894212723, 0.1259385496377945, 0.2100142389535904, -0.19215644896030426, 0.012211850844323635, -0.09041015803813934, 0.07020056247711182, 0.02274809218943119, -0.209799125790596, -0.04455257207155228, 0.012714263051748276, -0.23088319599628448, 0.20436114072799683, 0.30882352590560913, 0.14534978568553925], [-0.16932855546474457, -0.06317931413650513, 0.006030404008924961, -0.1890186071395874, -0.051062196493148804, 0.3652775287628174, -0.026058640331029892, -0.10548893362283707, -0.184529110789299, -0.0813201442360878, -0.32245343923568726, -0.08178631961345673, 0.3284783661365509, 0.02864532545208931, -0.15457776188850403, 0.055418431758880615, -0.05071047693490982, 0.009577357210218906, 0.07935263216495514, -0.2687568962574005, 0.26656362414360046, 0.052722930908203125, 0.13178002834320068, -0.03940891847014427, 0.41178205609321594, -0.06319256871938705, -0.014668025076389313, -0.16726671159267426, -0.057146646082401276, -0.016823817044496536, -0.24975326657295227, 0.0651751235127449], [-0.16863510012626648, 0.17640304565429688, 0.21111074090003967, -0.19814251363277435, 0.2991609275341034, 0.05779775232076645, 0.32230687141418457, -0.43742623925209045, -0.18933631479740143, -0.3939111828804016, -0.3019777536392212, -0.5605618357658386, -0.048504117876291275, -0.28240832686424255, -0.07093613594770432, -0.3403770923614502, -0.3663491904735565, -0.288814902305603, 0.21857094764709473, -0.3480348587036133, 0.01561274565756321, 0.5188868045806885, 0.13823720812797546, -0.18019568920135498, 0.21618926525115967, 0.13662101328372955, -0.24788422882556915, -0.22996142506599426, 0.311998575925827, -0.14963538944721222, -0.13745349645614624, -0.062472980469465256], [0.1424291431903839, -0.08507086336612701, 0.016177764162421227, -0.37066394090652466, 0.25937187671661377, 0.49262547492980957, 0.11679591983556747, -0.1648845076560974, -0.31594318151474, -0.02866893634200096, 0.045377496629953384, -0.35601139068603516, -0.2516123950481415, 0.2331610918045044, 0.3886757493019104, -0.38607120513916016, -0.25947055220603943, -0.1675429344177246, 0.1426859050989151, -0.3801601231098175, 0.36279213428497314, 0.12185132503509521, 0.3144460916519165, 0.0763690322637558, 0.40035751461982727, 0.11405599862337112, -0.3777666687965393, -0.3155619204044342, 0.03538880497217178, -0.2217787355184555, -0.29449284076690674, -0.1896844059228897], [0.39878687262535095, -0.5176043510437012, 0.37194564938545227, -0.5824899077415466, 0.27289116382598877, 0.4530804455280304, 0.3442642092704773, -0.4675518572330475, -0.2522848844528198, -0.39908990263938904, -0.21874836087226868, -0.4054948687553406, -0.33599546551704407, 0.39186161756515503, -0.34992721676826477, -0.4904260039329529, -0.37546271085739136, -0.4731665849685669, 0.41255903244018555, -0.5718991160392761, 0.3962983191013336, 0.48071324825286865, 0.3924669027328491, -0.3949394226074219, 0.03946599364280701, 0.47016751766204834, -0.314017653465271, -0.5081666111946106, 0.29264694452285767, -0.5873904824256897, -0.4941490888595581, -0.40149855613708496], [-0.35144728422164917, 0.2442055344581604, -0.06393975019454956, -0.26547184586524963, 0.10565885901451111, 0.029197894036769867, 0.12000413984060287, -0.07136107236146927, -0.2933051288127899, -0.07203283160924911, 0.13931968808174133, -0.11752179265022278, -0.07621043175458908, -0.001096663298085332, 0.10178833454847336, -0.2379060685634613, 0.5762283205986023, -0.0572710782289505, 0.23933552205562592, -0.20204994082450867, -0.14539478719234467, 0.10693923383951187, 0.13109412789344788, -0.14870183169841766, 0.441885769367218, 0.12935104966163635, 0.12213844060897827, -0.09498120099306107, -0.02266998589038849, 0.17224210500717163, -0.1308608204126358, -0.07400364428758621], [-0.08590076863765717, 0.1784505993127823, -0.05592026188969612, -0.00660746218636632, 