{"linear_1.weight": [[0.5507289171218872], [0.9233343601226807], [-0.2394987940788269], [0.6396487355232239], [-0.10270105302333832], [0.13785727322101593], [-0.1338377743959427], [0.7843131422996521], [0.910893976688385], [-0.7889153361320496], [0.8757149577140808], [0.012079253792762756], [0.4335711896419525], [0.13543057441711426], [0.1996258646249771], [-0.10805509239435196], [0.6785907745361328], [0.14780890941619873], [-0.46683990955352783], [0.2548983097076416], [-0.46073663234710693], [0.026151133701205254], [-0.15757884085178375], [0.02991785667836666], [-0.44949421286582947], [-0.16502290964126587], [-0.5489267110824585], [-0.7660971283912659], [0.10516919940710068], [-1.0821830034255981], [0.1682836413383484], [-0.8431181311607361]], "linear_1.bias": [0.83709317445755, -0.16288729012012482, -0.48444661498069763, 0.44597455859184265, 0.13341516256332397, 0.3980337679386139, -0.21820984780788422, -0.35493287444114685, 0.02735200524330139, -0.3602834939956665, 0.3740155100822449, -0.06535305082798004, 0.26900532841682434, -0.437172532081604, 0.30834054946899414, 0.1300855278968811, 0.42281123995780945, -0.6095050573348999, -0.9899084568023682, -0.3863605260848999, -0.7670228481292725, -0.054459355771541595, 0.22814372181892395, -0.07409115135669708, 0.19910915195941925, -0.3045896589756012, 0.608945906162262, -0.7150304317474365, -0.13523755967617035, -0.7348914742469788, -0.2197962999343872, -0.4849545955657959], "lstm.weight_ih_l0": [[-0.2756865322589874, 0.07250164449214935, 0.2666965126991272, 0.2927487790584564, -0.27460089325904846, -0.6036815643310547, -0.3721015155315399, 0.8251217007637024, -0.183763325214386, 0.22295325994491577, 0.05595455691218376, -0.1272188127040863, -0.034913793206214905, -0.2286173403263092, -0.8002496361732483, -0.650921106338501, 0.014207235537469387, 0.025041794404387474, -0.1456422656774521, -0.04655490443110466, -0.12264718860387802, -0.09661692380905151, -0.2960829734802246, 0.20363424718379974, -0.2994759678840637, -0.2787203788757324, -0.4772157073020935, 0.5821120142936707, -0.17230214178562164, 0.3251781165599823, 0.341767281293869, 0.3417956233024597], [0.12193770706653595, 0.12447118759155273, -0.054910168051719666, -0.2557600438594818, 0.12279049307107925, 0.3122345209121704, -0.0782928317785263, 1.1759401559829712, 0.4431045949459076, 0.10732712596654892, -0.3842478096485138, -0.20306067168712616, 0.12084744870662689, -0.17186829447746277, 0.5515336394309998, -0.25734519958496094, 0.2510281503200531, -0.14541538059711456, -0.2095337212085724, 0.23281654715538025, 0.5780244469642639, -0.04815337434411049, -0.09731502830982208, 0.6762596368789673, 0.019826609641313553, -0.03363242745399475, -0.40457263588905334, 0.36748138070106506, 0.032185446470975876, -0.06652437150478363, 0.6415314674377441, -0.1101507693529129], [-0.40664243698120117, 0.11579829454421997, 0.6705306172370911, 0.36243003606796265, -0.3395066261291504, -0.14914937317371368, -0.3338724374771118, 0.9800039529800415, 0.12223318964242935, 0.1647486537694931, 0.6438349485397339, 0.21253080666065216, -0.0980941653251648, 0.3426893949508667, 0.03007197380065918, -0.1919746845960617, 0.031145712360739708, 0.4325111210346222, 0.07957752794027328, -0.3040158450603485, 0.037192706018686295, 0.5445846915245056, -0.11409703642129898, 0.042936116456985474, 0.15564344823360443, 0.06641732901334763, -0.7407371997833252, 0.4045153856277466, -0.005930996499955654, 0.3678041398525238, 0.23160400986671448, 0.09048064798116684], [0.10658377408981323, 0.26683309674263, 0.4798299968242645, -0.13701766729354858, -0.005342032760381699, -0.44605007767677307, -0.36412423849105835, 0.7630550265312195, 0.06736504286527634, -0.2280895709991455, 0.17694395780563354, 0.5159648656845093, -0.1126617044210434, 0.2929641604423523, -0.16057880222797394, -0.22733236849308014, 0.2237558513879776, 0.007591139990836382, 0.3300224542617798, -0.3305259346961975, 0.1668674200773239, 0.03286945819854736, -0.4182712137699127, -0.23175257444381714, -0.3119882047176361, -0.10223875194787979, -0.6292317509651184, 0.5373406410217285, -0.23386439681053162, 0.13908810913562775, -0.11907558888196945, 0.24069643020629883], [-0.4062191843986511, 0.20902898907661438, 0.6518984436988831, -0.23896916210651398, -0.09899527579545975, -0.36626186966896057, 0.10534064471721649, 0.7019868493080139, 0.04671654477715492, -0.04353819787502289, 0.15078875422477722, -0.2698562443256378, 0.03592604771256447, -0.4067537188529968, -0.3985613286495209, -0.31376922130584717, -0.24826432764530182, -0.061159636825323105, -0.03779669851064682, 0.3142131567001343, 0.2506770193576813, -0.267291784286499, -0.3346025049686432, 0.16548246145248413, -0.8293750882148743, -0.19837233424186707, -0.0942644327878952, 0.2598225772380829, 0.44271141290664673, 0.3507593870162964, 0.0973794162273407, 0.35105380415916443], [0.412435382604599, 0.2856033444404602, -0.2908261716365814, 0.07516993582248688, -0.50543212890625, -0.29586026072502136, -0.44654133915901184, 2.023728609085083, 0.009476571343839169, -2.5465996265411377, 0.016112392768263817, -0.02238626778125763, 0.21365971863269806, -0.6439707279205322, 0.004913676995784044, -0.3758609890937805, 0.29552391171455383, -0.44537514448165894, -0.3730004131793976, 0.28353768587112427, -0.2619079649448395, -0.037631917744874954, -0.6132690906524658, 0.36737701296806335, -1.1192458868026733, -1.131978988647461, -0.5910589098930359, -0.44653764367103577, 0.4472202956676483, -1.925599455833435, 0.10059968382120132, -2.9389452934265137], [-0.28519293665885925, 0.42882704734802246, 0.21369849145412445, -0.05319509655237198, 0.08624576032161713, -0.12262304127216339, 0.1998966783285141, 0.5887364149093628, 0.4564244747161865, 0.40809956192970276, 0.3155922293663025, -0.08651000261306763, -0.04477591812610626, 0.16854225099086761, 0.19554708898067474, 0.09622006118297577, 0.06485699862241745, 0.035539209842681885, 0.5119598507881165, -0.27579542994499207, -0.4619351029396057, 0.08472881466150284, 0.02369803935289383, 0.16185644268989563, 0.1319686472415924, 0.06737659126520157, 0.08613289147615433, -0.12590889632701874, 0.22866977751255035, 0.39347612857818604, 0.05954884737730026, 0.8189954161643982], [0.09612603485584259, 0.47214946150779724, 0.07163514196872711, -0.3384055495262146, -0.3039000928401947, -0.10838132351636887, 0.32815712690353394, 0.9935113787651062, 0.5586991310119629, -0.053365424275398254, -0.08533468842506409, -0.31568434834480286, 0.1656879186630249, -0.4022441804409027, 0.08259574323892593, -0.16645944118499756, -0.3624417781829834, 0.42725086212158203, 0.0036865409929305315, -0.007004543673247099, 0.1932460367679596, -0.0026509249582886696, -0.14281894266605377, 0.09628299623727798, 0.21416285634040833, 0.2262788861989975, 0.11438465118408203, 0.7422893047332764, 0.3072379231452942, 0.39587628841400146, -0.01288820430636406, -0.1515216827392578], [0.3705522418022156, 0.568583071231842, 0.3541136682033539, -0.22456218302249908, -0.3407735526561737, -0.3291952908039093, -0.05461578816175461, 0.8149107098579407, 0.32853996753692627, 0.252410352230072, 0.02887571044266224, -0.3494056761264801, 0.34378424286842346, 0.4242264926433563, -0.42577624320983887, 0.03842529281973839, 0.11145142465829849, -0.38885992765426636, -0.12653827667236328, 0.21621929109096527, 0.17406509816646576, 0.3112584352493286, -0.41643497347831726, -0.22493375837802887, -0.0541798397898674, 0.31158608198165894, -0.4902091324329376, 0.865692138671875, -0.2571256160736084, 0.26745373010635376, -0.4197746217250824, 0.3097960352897644], [-0.4131960868835449, 0.314030259847641, 0.6972182393074036, 0.4915373623371124, -0.09157975763082504, -0.4755041301250458, -0.12964440882205963, 0.8585655689239502, 0.6917957067489624, 0.21193671226501465, 0.30129343271255493, 0.17985644936561584, 0.18237103521823883, 0.028063874691724777, -0.09414047002792358, -0.22661736607551575, 0.10988513380289078, -0.08647090196609497, -0.048846285790205, -1.147621750831604, -0.5130724310874939, -0.08751482516527176, -0.03306567668914795, -0.17594465613365173, -0.09568560868501663, 0.08752985298633575, 0.03737623244524002, 1.0585070848464966, -0.11267483234405518, 0.14146864414215088, 0.5031718611717224, 0.45829784870147705], [0.24873213469982147, 0.4479171335697174, 0.9093965888023376, -0.08832951635122299, 0.23024813830852509, 0.11119212210178375, -0.4677538573741913, 0.6798282861709595, 0.4879651963710785, 0.029772158712148666, 0.19749732315540314, -0.1357893943786621, 0.2918413281440735, -0.2010340392589569, -0.20174835622310638, 0.3382771611213684, 0.1578582227230072, 0.39125752449035645, -0.2416190207004547, 0.04166434332728386, 0.3885730803012848, 0.01426280289888382, -0.012930979952216148, 0.2513163089752197, -0.33025845885276794, -0.11697550117969513, -0.4315790832042694, 0.8174768686294556, 0.18177548050880432, 0.8328787684440613, 0.1775655299425125, 0.6497865319252014], [0.043247856199741364, 0.3784855008125305, 0.2641254961490631, 0.15161645412445068, -0.2536764144897461, 0.1412372887134552, -0.027585554867982864, 0.4647817313671112, 0.22625799477100372, 0.3941509425640106, 0.08771208673715591, -0.3888062536716461, -0.0630069300532341, 0.13666924834251404, 0.1647656261920929, 0.026061486452817917, -0.15267427265644073, 0.49755701422691345, -0.3115277588367462, -0.1430370807647705, 0.09282969683408737, -0.15481114387512207, 0.19657166302204132, 0.04608777165412903, 0.05119895190000534, 0.37641310691833496, -0.6482471823692322, -0.07481417804956436, -0.11710405349731445, -0.1135333850979805, 0.008719508536159992, 0.6230919361114502], [0.03625842556357384, 0.33392009139060974, 0.26822203397750854, -0.15673945844173431, -0.2024918645620346, 0.20689757168293, -0.22732873260974884, 0.8573040962219238, 0.10436197370290756, 0.3924058973789215, 0.6519802212715149, 0.18115240335464478, -0.0516069121658802, 0.300366073846817, -0.3743516206741333, -0.07378929108381271, 0.15116403996944427, 0.16834208369255066, 0.06066867709159851, 0.22415903210639954, -0.3602084219455719, 0.08366239070892334, 0.06909547001123428, 0.08647879213094711, 0.10959625989198685, 0.1613897830247879, -0.033817023038864136, 0.825124979019165, -0.18007904291152954, 0.27343451976776123, -0.17211338877677917, 0.5834299921989441], [0.23225003480911255, -0.2235875427722931, 0.20466198027133942, -0.14070799946784973, -0.37202775478363037, 0.05067075416445732, -0.023055361583828926, 0.7503053545951843, 0.35908588767051697, 0.42455047369003296, 0.0017134534427896142, 0.008820119313895702, 0.05580364167690277, -0.044379014521837234, -0.3268224596977234, -0.03408382087945938, -0.09233695268630981, -0.042847879230976105, 0.07252728193998337, 0.018998688086867332, 0.11311542242765427, -0.26862895488739014, -0.04011319577693939, 0.2627577781677246, -0.333118200302124, 0.42544445395469666, 0.041072722524404526, 0.6655181646347046, 0.17596282064914703, 0.617451548576355, 0.21043245494365692, 0.5370106101036072], [0.05216173082590103, 0.5537775754928589, 0.48971447348594666, -0.6376352906227112, -0.23926308751106262, -0.1471482664346695, 0.2818986177444458, 0.46721407771110535, 0.5240764617919922, 0.35351499915122986, 0.8720380067825317, -0.40019601583480835, 0.0425342321395874, -0.1706254929304123, -0.3170824646949768, 0.03364180400967598, -0.30122503638267517, 0.11307138204574585, 0.01940532587468624, 0.1759289652109146, -0.3962465822696686, -0.18564391136169434, -0.24975991249084473, -0.05454337224364281, -0.10757306963205338, -0.14434857666492462, -0.1634773164987564, 0.6230294704437256, 0.255928099155426, 0.56303870677948, 0.23260021209716797, 0.3835800290107727], [-1.1751973628997803, 0.06160218268632889, -0.055160462856292725, -1.3325835466384888, 0.2756105065345764, 0.2888135313987732, -0.17967207729816437, -1.0757049322128296, -1.132736086845398, 0.38373667001724243, -1.1084997653961182, -0.20450620353221893, -1.5026332139968872, -0.20964978635311127, -0.5341435670852661, 0.002620881889015436, -1.41017746925354, 0.30198198556900024, 0.2164488434791565, -0.028780654072761536, -0.051713310182094574, 0.004787600599229336, 0.27307549118995667, -0.5189564824104309, 0.23027192056179047, -0.17290908098220825, -0.008519798517227173, 0.054648466408252716, -0.5464404821395874, 0.6284641623497009, -0.7735076546669006, 0.6383088827133179], [-0.6908425688743591, 0.037119947373867035, 0.7672893404960632, -0.2122042328119278, -0.5291830897331238, -0.45704686641693115, 0.20183065533638, 0.5150655508041382, 0.13047918677330017, 0.5144625902175903, 0.038944900035858154, -0.3264234960079193, 0.08976468443870544, 0.20073926448822021, -0.4593234062194824, 0.0286964550614357, 0.1228865534067154, -0.05446513742208481, 0.06373598426580429, 0.44721558690071106, 0.2094632387161255, -0.3100287616252899, -0.6470836400985718, 0.3456745743751526, -0.24351312220096588, -0.006070333998650312, -0.5067484378814697, 1.0561344623565674, -0.17655600607395172, 0.03895024582743645, -0.12413434684276581, 0.30351516604423523], [0.2721976339817047, 0.5987072587013245, 0.09187135100364685, -0.33363449573516846, 0.5339396595954895, -0.06375619769096375, -0.2211005836725235, 0.9154651761054993, 0.3302927017211914, 0.34880661964416504, 0.07994663715362549, 0.41443395614624023, -0.2856488525867462, -0.2642534077167511, 0.10593335330486298, 0.026455558836460114, 0.28385746479034424, -0.029263807460665703, 0.06079193204641342, -0.4758239686489105, -0.37801748514175415, 0.11456967145204544, -0.37905454635620117, -0.126418799161911, 0.20942677557468414, -0.14366991817951202, -0.4032738506793976, 0.631247878074646, 0.338761568069458, 0.25510579347610474, -0.49094733595848083, 0.22233548760414124], [0.0104810930788517, 0.2593105733394623, 0.5572037100791931, 0.15630291402339935, 0.23491667211055756, -0.5553030371665955, -0.1478077918291092, 0.32438158988952637, 0.1562129706144333, 0.4470955431461334, 0.6158548593521118, 0.10535760968923569, 0.1380920559167862, -0.2746187448501587, -0.08052124083042145, 0.2759462296962738, -0.10996487736701965, -0.1726822704076767, 0.09905418008565903, -0.6336913704872131, -0.3486466705799103, -0.43934378027915955, -0.012077721767127514, 0.3858936131000519, 0.14487886428833008, -0.2590929865837097, -0.5760412216186523, 0.44232651591300964, 0.6656153798103333, 0.3031533658504486, 0.3592197000980377, 0.5352993011474609], [-0.3301306962966919, 0.43385741114616394, 0.48019957542419434, -0.2885911464691162, 0.032153721898794174, -0.4272284507751465, 0.37088775634765625, 0.7688409090042114, 0.0790162906050682, 0.4218168258666992, 0.38874712586402893, -0.1605609655380249, -0.27385663986206055, -0.04615585133433342, -0.12457524240016937, -0.24284325540065765, 0.081696055829525, 0.15967048704624176, -0.23129937052726746, 0.11983557045459747, 0.01983552798628807, 0.10784339159727097, 0.023568226024508476, -0.0687270388007164, -0.05026112124323845, 0.15231236815452576, 0.15597768127918243, 0.4359516501426697, -0.26775500178337097, 0.5215054750442505, -0.056324552744627, 0.3243379294872284], [-0.5576226711273193, -0.8576337695121765, 0.15676401555538177, -1.6566975116729736, -0.41317033767700195, -0.678479015827179, 0.03691645339131355, -0.3267531096935272, -1.7062684297561646, 0.26560303568840027, -0.8608898520469666, -0.46379977464675903, -1.5438026189804077, -0.20254667103290558, -0.44685423374176025, -0.48653367161750793, -1.6840481758117676, -0.30646389722824097, -0.21241530776023865, 0.4166947603225708, 0.12244472652673721, -0.08835987001657486, 0.13283580541610718, -1.0665309429168701, 0.3527454137802124, 0.1143612191081047, -0.027751175686717033, 0.5550687313079834, -0.09073131531476974, 0.8391191959381104, -0.6762655377388, 0.8552226424217224], [-0.013917993754148483, 0.18100540339946747, 0.20560987293720245, -0.09279952198266983, -0.018135033547878265, -0.016323400661349297, -0.14182385802268982, 0.8343460559844971, 0.26286453008651733, 0.10448469966650009, -0.015078244730830193, 0.23948746919631958, -0.17821535468101501, -0.2180822193622589, -0.1332959681749344, -0.37257546186447144, 0.33431607484817505, 0.13020949065685272, 0.2939133644104004, -0.0428168959915638, -0.18785738945007324, -0.26591160893440247, 0.04235164448618889, 0.08134530484676361, 0.1456933468580246, 0.3783913254737854, -0.4493741989135742, 0.8918110132217407, -0.39326581358909607, 0.30165383219718933, 0.21080203354358673, 0.5820304155349731], [0.006629932671785355, -0.07914390414953232, 0.7710517644882202, -0.016850706189870834, -0.31785547733306885, -0.3419133722782135, -0.3213139772415161, 1.1446881294250488, 0.309476375579834, -0.19803039729595184, 0.19478633999824524, -0.19897498190402985, 0.1365339457988739, 0.41746312379837036, 0.05925111100077629, -0.1435447335243225, 0.12032486498355865, 3.677962740766816e-05, 0.06797826290130615, -0.2641274631023407, -0.21324856579303741, 0.13096576929092407, -0.16483601927757263, 0.0542045421898365, 0.19453904032707214, 0.31587281823158264, 0.04619263857603073, 0.5908706784248352, 0.17943355441093445, 0.16194762289524078, 0.18559415638446808, 0.20679599046707153], [-0.10702768713235855, 0.45190155506134033, 0.46122249960899353, -0.5145567059516907, -0.041668910533189774, -0.12971514463424683, 0.19219297170639038, 0.1342075616121292, 0.9871824979782104, 0.3174501359462738, 0.0049979910254478455, -0.22964274883270264, -0.13510189950466156, -0.4618234932422638, -0.6617588996887207, -0.15457622706890106, -0.13906387984752655, -0.26743587851524353, -0.10781750828027725, -0.4149417579174042, 0.020494582131505013, 0.383943110704422, -0.00015847317990846932, 0.07903273403644562, 0.25769856572151184, 0.30567267537117004, 0.18021440505981445, 0.6249821186065674, 0.2913568317890167, 0.07309620082378387, -0.1410718560218811, 0.4523466229438782], [-0.32545167207717896, 0.11874877661466599, 0.13820494711399078, 0.09043069183826447, -0.08512184768915176, -0.27248474955558777, 0.2438938170671463, 0.30066001415252686, 0.17765171825885773, 0.06934737414121628, -0.06655845791101456, -0.1327625960111618, 0.6662116050720215, 0.18470418453216553, 0.030979899689555168, 0.20608937740325928, 0.06699380278587341, -0.27350589632987976, -0.134521484375, -0.21829067170619965, 0.5274247527122498, 0.5237082839012146, 0.16134995222091675, -0.2125658541917801, -0.13083817064762115, 0.04223328083753586, -0.22625024616718292, 0.5866759419441223, 0.39286646246910095, -0.056271787732839584, 0.2744881808757782, 0.5438792109489441], [-0.2650410234928131, 0.3434934616088867, -0.26138201355934143, -0.07627792656421661, -0.02072262205183506, 0.08839279413223267, -0.15130242705345154, 0.717697262763977, 0.29022490978240967, 0.30074378848075867, -0.24085554480552673, -0.23594632744789124, 0.4212772846221924, 0.26604244112968445, 0.44330886006355286, -0.34729447960853577, 0.03523965924978256, 0.2580523192882538, -0.47028279304504395, 0.28491607308387756, -0.07684893906116486, 0.5801466107368469, 0.11987657099962234, -0.05089568346738815, -0.5303722023963928, 0.3027398884296417, -0.29437288641929626, 0.5717068314552307, -0.04231688007712364, 0.48612287640571594, 0.08033619076013565, 0.06106685474514961], [-0.3530953824520111, 0.9492060542106628, -0.07024334371089935, 0.5494230389595032, -0.08310239762067795, -0.020632391795516014, -0.07837061583995819, 0.39368611574172974, 0.41650354862213135, -0.20709271728992462, -0.16475194692611694, 0.04406268894672394, -0.2827274203300476, -0.17621278762817383, 0.034494347870349884, -0.19695577025413513, 0.23491762578487396, 0.2571658492088318, -0.19012655317783356, 0.3229956328868866, -0.4550362527370453, 0.13414929807186127, -0.34649530053138733, 0.02920808270573616, -0.26881468296051025, -0.3838202953338623, 0.2746635973453522, 0.40424349904060364, 0.07582161575555801, 0.12870612740516663, 0.3685740530490875, -0.06915056705474854], [-0.2278725802898407, 0.2941821217536926, 0.2803853154182434, 0.0018172555137425661, 0.18588027358055115, 0.16015714406967163, -0.26133817434310913, 0.4153139591217041, 0.20277443528175354, 0.16277316212654114, 0.20641328394412994, 0.07463613152503967, 0.0514347143471241, -0.0408049076795578, -0.16808640956878662, 0.44105538725852966, 0.0922309085726738, 0.33289510011672974, 0.020033828914165497, 0.45573869347572327, -0.006314091384410858, -0.27080807089805603, 0.42223265767097473, 0.10199733823537827, -0.009894253686070442, 0.07174630463123322, -0.1311323195695877, 0.3521086871623993, 0.1978519856929779, 0.6067567467689514, 0.05166863650083542, 0.22637169063091278], [-0.4846509099006653, -0.26216959953308105, 0.13490474224090576, -0.2384604513645172, 0.11934410035610199, -0.8331775069236755, 0.12162043154239655, 0.32602959871292114, 0.2150162309408188, 0.7840306758880615, -0.15442688763141632, -0.07659509778022766, 0.14133228361606598, 0.05457443371415138, -0.3405594229698181, 0.18376405537128448, 0.3837791681289673, -0.08234719932079315, 0.3260982632637024, 0.4514332711696625, 0.34215861558914185, 0.3226173222064972, -0.32403111457824707, 0.07757123559713364, -0.5162401795387268, 0.09042161703109741, -0.32266250252723694, 0.42965754866600037, 0.21857382357120514, 0.10824491083621979, -0.08377417176961899, 0.4164701998233795], [-0.2898428440093994, 0.5733674168586731, 1.0385808944702148, 0.2397320717573166, -0.39845237135887146, -0.2568470239639282, -0.08378873020410538, 0.8069636225700378, 0.28389668464660645, 0.2803700864315033, 0.38835567235946655, 0.27809077501296997, -0.0995885506272316, -0.15060701966285706, -0.14661379158496857, -0.29155662655830383, 0.17959007620811462, -0.2030704915523529, -0.334981769323349, -0.1837216317653656, -0.5503631830215454, 0.01915792189538479, -0.07650431245565414, 0.15684910118579865, 0.18863831460475922, 0.10492515563964844, -0.1467088758945465, 0.42229118943214417, 0.334782212972641, 0.4494563639163971, 0.27725428342819214, 0.40529853105545044], [-0.1683644950389862, 0.4148668646812439, 0.31187427043914795, -0.14911043643951416, 0.30192360281944275, -0.4711926281452179, 0.25183820724487305, 0.7509883046150208, 0.38364845514297485, 0.28096193075180054, -0.4492334723472595, -0.3360261619091034, 0.3291044533252716, -0.21784727275371552, 0.1913941353559494, -0.1828702688217163, 0.3558592200279236, 0.11149396747350693, 0.025414982810616493, 0.2692527174949646, 0.32146814465522766, 0.3337459862232208, -0.13256989419460297, -0.06498638540506363, 0.2721750736236572, 0.38856905698776245, 0.045375481247901917, 0.8745665550231934, 0.11205026507377625, 0.4841981828212738, 0.38527780771255493, 0.27975142002105713], [-0.2466176152229309, 0.3287356495857239, 0.7161473631858826, 0.21420036256313324, 0.10082171112298965, 0.46807748079299927, 0.004898528568446636, 1.0629194974899292, 0.17879028618335724, 0.3662700951099396, 0.4448617100715637, -0.21344879269599915, 0.16255122423171997, 0.026900405064225197, 0.08782948553562164, -0.2860777974128723, -0.46177586913108826, 0.0900401845574379, 0.14777199923992157, 0.33616384863853455, -0.4582447111606598, 0.00884492788463831, -0.004626401700079441, -0.3666872978210449, 0.057563893496990204, 0.15316754579544067, -0.25971612334251404, 1.187411904335022, 0.10957390069961548, 0.763289749622345, 0.19591069221496582, 0.20666566491127014], [-0.6407893300056458, -0.03680494800209999, -0.38652846217155457, -0.5002778768539429, -0.5142911076545715, -0.9971968531608582, -0.3234265446662903, 0.044307272881269455, -0.4820170998573303, -0.697212278842926, -1.0328376293182373, -0.6221079230308533, -0.4797918498516083, -0.20235784351825714, -0.8014723062515259, -0.775458574295044, -0.6714823246002197, -0.17161931097507477, 0.13532596826553345, -0.11579181253910065, -0.09205357730388641, -0.5824146866798401, -0.7398059368133545, -0.28493446111679077, -0.9946448802947998, -0.6607617139816284, -1.3731003999710083, 0.06906427443027496, 0.10419367253780365, -0.28230881690979004, -0.2011505663394928, -0.243914395570755], [-1.03513503074646, -0.9302321076393127, -0.32384005188941956, -1.1326247453689575, -1.3625191450119019, -1.0395874977111816, -0.34417736530303955, 0.16884447634220123, -0.8396151661872864, -1.2117393016815186, -0.7732691764831543, -1.421502709388733, -0.8269023299217224, 0.41509196162223816, -1.4665237665176392, -0.9103587865829468, -0.41411343216896057, -0.12826620042324066, -0.044133834540843964, -0.20680567622184753, 0.36275893449783325, -0.5194586515426636, -1.1927770376205444, -0.2749505043029785, -0.9224770665168762, -0.7752528190612793, -0.6807252168655396, -0.07985226064920425, -0.29474666714668274, -0.425083726644516, -0.48657822608947754, -0.6658448576927185], [-0.42826685309410095, -0.6471859216690063, 0.43327754735946655, -1.3503224849700928, 0.3557020127773285, -0.30451008677482605, -0.2324422150850296, -0.9701859951019287, -0.6678664088249207, 0.5198451280593872, -0.7848677039146423, 0.0026691900566220284, -1.419137716293335, -0.07357151061296463, -0.6660360097885132, 0.14370650053024292, -1.3611057996749878, -0.0207213144749403, -0.1163814589381218, 0.4940650761127472, 0.21245861053466797, -0.2919410765171051, 0.04524999111890793, -0.8208926320075989, 0.3690766990184784, -0.30432361364364624, -0.01270877942442894, 0.7270917296409607, 0.040480077266693115, 0.3985995054244995, -0.8205810189247131, 0.7235357165336609], [-0.4984554052352905, -0.6884800791740417, -0.7910149693489075, -0.25175967812538147, -0.8673272132873535, -1.0333075523376465, -0.5725743174552917, -0.8983495831489563, -0.5958542823791504, -0.49515125155448914, -0.8234257698059082, -0.7383290529251099, -0.6797995567321777, 0.2848125398159027, -1.0049004554748535, -0.9264417290687561, -0.4383782744407654, -0.15415751934051514, 0.26823219656944275, 0.2142745405435562, -0.18145252764225006, -0.4228880703449249, -1.4525110721588135, -0.32917383313179016, -1.3190466165542603, -0.5443294644355774, -0.9915534853935242, -0.21602970361709595, -0.254138708114624, -0.7918605208396912, -0.14942406117916107, -0.8627896308898926], [-0.7468108534812927, -0.8542765974998474, -0.306178480386734, -1.7320141792297363, -0.7431796193122864, -0.6367442011833191, -0.11924263089895248, -0.6185697317123413, -1.013128638267517, -0.6691364049911499, -1.7072508335113525, -0.3387551009654999, -1.800088882446289, 0.158344104886055, -0.8437557816505432, -0.6285693049430847, -1.2645976543426514, 0.001794532872736454, -0.27356788516044617, 0.41793546080589294, 0.060795821249485016, -0.46241313219070435, -0.40570497512817383, -0.9182915687561035, -0.5742067098617554, -0.46535810828208923, -0.46660730242729187, 0.0812181904911995, -0.23864512145519257, 0.21806947886943817, -0.2704158425331116, -0.5332228541374207], [0.0013428080128505826, 0.37974295020103455, -0.15720294415950775, -0.015393166802823544, -0.5390077829360962, 0.14139987528324127, -0.6248712539672852, 1.811062216758728, 0.784812867641449, -1.6947904825210571, 0.17726555466651917, -0.10982397198677063, 0.434827595949173, 0.23835666477680206, -0.08495047688484192, 0.6160266995429993, 0.24351945519447327, -0.04781368002295494, 0.2031196504831314, 0.24063463509082794, 0.38205382227897644, -0.26443278789520264, -0.45075786113739014, -0.08652359247207642, -0.8336470127105713, -0.8482878804206848, -0.7828489542007446, -0.44783875346183777, 0.017095370218157768, -1.9585161209106445, 0.20951169729232788, -1.8115822076797485], [-0.9005653262138367, -0.010084169916808605, 0.500220000743866, -0.5586509704589844, -0.1482134610414505, -0.22503916919231415, -0.6499414443969727, 0.26682400703430176, -0.4771305024623871, 0.5912777185440063, -0.07504089921712875, -0.21552427113056183, -0.5997105240821838, -0.09467943757772446, -0.1585320234298706, -0.4847792685031891, -0.15386289358139038, 0.0009191775461658835, -0.8677726984024048, 0.13107869029045105, 0.22167851030826569, -0.1309434175491333, -0.10844984650611877, -0.12350428849458694, -0.18951483070850372, -0.15509644150733948, -0.7142617702484131, 0.39206546545028687, 0.6603947281837463, 0.3905516266822815, -0.39541709423065186, 0.4456509053707123], [-0.9415209889411926, -0.31001386046409607, -0.07344166189432144, -0.5005974769592285, -0.6315458416938782, -0.783003568649292, -0.2564704418182373, 0.1459474116563797, -0.74772709608078, -0.7741243243217468, -0.5316629409790039, -0.48535358905792236, -0.5589042901992798, -0.029033105820417404, -0.8356720805168152, -1.0034825801849365, -0.6215034127235413, -0.06633467227220535, 0.14454385638237, 0.38317006826400757, -0.10335028171539307, -0.37862762808799744, -0.8435004353523254, -0.7547850608825684, -0.6348998546600342, -0.21055178344249725, -1.104431390762329, 0.32576698064804077, 0.056724339723587036, -0.0939779281616211, -0.17177535593509674, -0.3961713910102844], [0.3054333031177521, 0.8529399633407593, 0.2875997722148895, 0.2508813738822937, -0.22260017693042755, 0.2583438754081726, -0.5494821071624756, 0.6257351636886597, 0.05699137598276138, -0.3007293939590454, 0.20650804042816162, -0.07286166399717331, 0.20448026061058044, -0.16035474836826324, -0.1337384283542633, -0.2943015694618225, 0.44911664724349976, 0.20931172370910645, 0.486275315284729, -0.41853395104408264, 0.22429729998111725, 0.17859764397144318, 0.060825515538454056, -0.15419529378414154, 0.39312177896499634, 0.2652829885482788, -0.33494842052459717, 0.4664041996002197, -0.04914241284132004, 0.5670374035835266, 0.16840477287769318, 0.649946391582489], [-1.1536513566970825, -0.5141602158546448, 0.029177827760577202, -0.4822924733161926, -0.9118215441703796, -0.8165957927703857, 0.003310438944026828, -0.0879637598991394, -0.011855371296405792, -0.6047946810722351, -0.4567510187625885, -0.6867717504501343, -0.6911423802375793, 0.6268057823181152, -1.3721729516983032, -0.9564158320426941, -0.4945385754108429, -0.17422349750995636, 0.09481062740087509, 0.07122793048620224, -0.12359386682510376, -0.4238610565662384, -0.8854870796203613, -0.4534951150417328, -0.8341209292411804, -0.4877578318119049, -1.3509851694107056, -0.07036693394184113, 0.24672004580497742, -0.36374932527542114, -0.3005150556564331, -1.133245587348938], [-0.3891099691390991, -1.1327557563781738, 0.8837065100669861, -1.2513095140457153, 0.04011509194970131, -0.16947431862354279, 0.38232654333114624, -0.7698051929473877, -0.8323948979377747, 0.5270469784736633, -0.9204131960868835, -0.35874661803245544, -0.9195464253425598, 0.0012136375298723578, -0.6081217527389526, 0.13612495362758636, -1.2704826593399048, -0.015190263278782368, 0.057218536734580994, -0.05799388885498047, -0.37236398458480835, 0.33419421315193176, 0.12448665499687195, -0.4234742522239685, -0.25716400146484375, -0.047361161559820175, 0.13949966430664062, 0.6806639432907104, 0.057314496487379074, 0.7714533805847168, -0.7556126117706299, 0.5222130417823792], [-1.0958857536315918, -0.7857125997543335, -0.3096282482147217, -0.8979210257530212, -0.5692090392112732, -0.35935845971107483, -0.07747212052345276, -0.6616928577423096, -0.6194283962249756, -0.35736194252967834, -0.662605345249176, -0.43951764702796936, -0.7967708706855774, -0.46093854308128357, -0.5809497237205505, -0.9529433250427246, -0.7145288586616516, 0.1906721591949463, -0.32503989338874817, 0.37869730591773987, -0.019952157512307167, -0.4698414206504822, -0.9157330989837646, -0.8267524242401123, -0.44788819551467896, -0.43763044476509094, -0.9748319983482361, -0.2037592977285385, -0.19372011721134186, -0.29842954874038696, -0.30363842844963074, -0.31139075756073], [-1.5148627758026123, -0.7887222170829773, -0.3433951735496521, -1.1361267566680908, -0.8408219814300537, -0.8107397556304932, -0.26376938819885254, -0.9248757362365723, -0.7220034003257751, -0.6034684777259827, -1.02920663356781, -0.5501285791397095, -1.2925955057144165, 0.3343980312347412, -1.3136471509933472, -0.2462526112794876, -1.4994696378707886, -0.180247500538826, 0.08453589677810669, 0.05107710510492325, 0.03438771888613701, -0.8954544067382812, -0.2808987498283386, -0.8145652413368225, -0.7224128842353821, -0.6824432611465454, -0.9650458097457886, -0.32824599742889404, 0.021315347403287888, -0.021833790466189384, -0.8951780796051025, -0.535223662853241], [-1.343220829963684, -0.6355723738670349, 0.07270635664463043, -1.143721342086792, -0.9364194273948669, -1.759453535079956, 0.18104244768619537, -0.9861704707145691, -0.7309695482254028, -0.6242979764938354, -1.1151671409606934, -1.1366024017333984, -1.0874319076538086, -0.6159943342208862, -1.1856629848480225, -1.2853800058364868, -1.408225178718567, 0.018481390550732613, -0.08923820406198502, 0.047989655286073685, -0.16280831396579742, -0.44593629240989685, -0.7649846076965332, -0.5084117650985718, -1.0890344381332397, -0.4294503629207611, -1.086892008781433, 0.596010684967041, 0.008383321575820446, -0.09582814574241638, -0.8688700795173645, -0.3660433888435364], [-1.6729542016983032, -0.28986284136772156, -0.22759085893630981, -1.1740920543670654, -1.0931369066238403, -0.9477360844612122, 0.0820416808128357, -0.23690766096115112, -0.4640972912311554, -0.8799058198928833, -0.6480860710144043, -0.4366365969181061, -1.324102759361267, -0.15883247554302216, -1.2194957733154297, -0.7779767513275146, -0.9811969995498657, 0.030501142144203186, -0.030458632856607437, 0.23402346670627594, -0.07122122496366501, -0.3660365641117096, -0.7374640107154846, -0.6297467947006226, -0.9029766321182251, -0.777769148349762, -0.5955356359481812, -0.4704890847206116, -0.22696438431739807, -0.3853723108768463, -0.6414912343025208, -0.6017797589302063], [-0.9811129570007324, 0.9615749716758728, -0.11018341034650803, -1.3653672933578491, -0.1424742341041565, -0.39648374915122986, 0.13840778172016144, -0.0630493313074112, -0.08019015192985535, 0.26676419377326965, -0.4935963451862335, 0.5213711857795715, -1.2698019742965698, -0.23745769262313843, -0.19129115343093872, -0.23602093756198883, -1.1082643270492554, -0.3088439404964447, 0.2293435037136078, 0.14382211863994598, 0.1737484633922577, -0.04235163331031799, -0.3391009569168091, -0.2295885682106018, 0.07748077809810638, -0.08168742060661316, 0.20929671823978424, 0.2769445478916168, 0.1593748927116394, 0.31602582335472107, -0.9143008589744568, 0.2310648411512375], [-1.198207139968872, -0.8789376616477966, 0.49877336621284485, -1.2484277486801147, 0.10698545724153519, -0.35226815938949585, -0.11786960810422897, -1.0844581127166748, -0.4405903220176697, -0.02429451234638691, -0.9199204444885254, -0.5179526805877686, -0.9783731698989868, -0.010072636418044567, -1.008819818496704, -0.3322570025920868, -0.7815077304840088, -0.2113921344280243, 0.22432327270507812, 0.06824979186058044, 0.06553861498832703, 0.022951526567339897, -0.3548527657985687, -0.45810410380363464, -0.47695088386535645, -0.49276718497276306, -0.7138938903808594, 0.5588656663894653, -0.07242675125598907, 0.06828773766756058, -0.22178985178470612, 0.40233302116394043], [-1.274870753288269, -0.7032597064971924, -0.4192385971546173, -0.9147650003433228, -0.8504077196121216, -1.087684988975525, -0.5185723304748535, -1.2812433242797852, -0.7987914085388184, -0.8771733045578003, -0.4559512436389923, -1.0929441452026367, -0.49981966614723206, 0.15609723329544067, -0.6308360695838928, -0.8763507008552551, -1.0502769947052002, 0.3086211383342743, 0.18884223699569702, 0.11903805285692215, 0.22857309877872467, -0.8519578576087952, -1.199021339416504, -0.6810895800590515, -1.3724756240844727, -0.7510642409324646, -1.8351874351501465, -1.2564136981964111, -0.1556428074836731, -0.9353804588317871, -0.4926094114780426, -0.6512963175773621], [-0.2631246745586395, -0.2356991469860077, 0.13236472010612488, -0.21934564411640167, 0.07011029124259949, -0.29413333535194397, 0.15650954842567444, -0.14261919260025024, -0.14063209295272827, 0.19063793122768402, -0.3897537291049957, -0.3218923509120941, -0.2938690483570099, -0.31411582231521606, -0.2499372810125351, -0.1198984906077385, 0.05569225922226906, 0.03736817091703415, 0.10644332319498062, -0.12290338426828384, 0.17522208392620087, -0.08356969058513641, -0.18998833000659943, -0.5745503902435303, 0.16434550285339355, 0.33939188718795776, 0.25952020287513733, 1.095790982246399, -0.005167812574654818, 0.9119117856025696, -0.3090546727180481, 0.4646957218647003], [-0.9570508003234863, -0.5713280439376831, 0.19714921712875366, -0.4669893682003021, -0.779671847820282, -0.5992088913917542, 0.05724162608385086, 0.40078815817832947, -0.7583199739456177, -0.09694582968950272, -0.3095353841781616, -0.5766584277153015, -0.5500801205635071, 0.036058854311704636, -0.7513420581817627, -0.5899099111557007, -0.7942696213722229, -0.3489275872707367, -0.07121055573225021, 0.26082760095596313, 0.4914666712284088, -0.19642888009548187, -0.36710798740386963, -0.036034684628248215, -0.6074239611625671, -0.5839921236038208, -0.4229787588119507, 0.15678268671035767, -0.605266273021698, -0.033520378172397614, -0.04598289728164673, -0.29678237438201904], [-1.1837997436523438, 0.07772434502840042, 0.26532164216041565, -1.1252788305282593, -0.9797890186309814, -0.762380063533783, -0.20946402847766876, -0.4788222014904022, -0.44303014874458313, -0.09691809117794037, -0.43391337990760803, -1.0281522274017334, -1.2705721855163574, 0.019269084557890892, -0.868867039680481, -0.5396639704704285, -1.046859622001648, -0.22455015778541565, 0.3714028596878052, -0.014372437261044979, 0.16432872414588928, -0.3475576341152191, -0.827652633190155, -0.16311638057231903, -0.7583105564117432, -0.9507241249084473, -0.8599379062652588, 0.03511839732527733, 0.1859586089849472, -0.7575710415840149, -0.16251857578754425, -0.013035991229116917], [-1.2005068063735962, -0.7107943296432495, -0.5734166502952576, -0.788388729095459, -0.6784529089927673, -1.1528573036193848, 0.015329490415751934, -0.8098479509353638, -0.8001695275306702, -0.3195287883281708, -0.7990139722824097, -0.9925890564918518, -0.7878234386444092, 0.36515453457832336, -1.5373895168304443, -1.2126166820526123, -1.2815594673156738, -0.2759399712085724, 0.1414879858493805, -0.28175610303878784, 0.142718106508255, -0.5471597909927368, -1.3607187271118164, -0.05910642445087433, -0.6829959154129028, -1.0024638175964355, -0.7914547324180603, 0.22864899039268494, 0.5477895736694336, -0.44481900334358215, -0.12235400825738907, -0.5821642279624939], [-0.9265234470367432, 0.13337700068950653, 0.14996610581874847, -0.3505444824695587, -0.6039557456970215, -0.9598872661590576, -0.30687496066093445, 0.34085410833358765, -0.5941678285598755, -0.47630077600479126, -0.5330795049667358, -0.7209407687187195, -0.47239771485328674, 0.20346558094024658, -0.43839597702026367, -0.8538815975189209, -0.5315179228782654, -0.22405287623405457, 0.07798361778259277, 0.33176034688949585, -0.09201920032501221, -0.5619878172874451, -0.8796198964118958, -0.2876609265804291, -0.6328234076499939, -0.5940866470336914, -0.9994078278541565, -0.08388639241456985, -0.01533345878124237, -0.4087407886981964, -0.16826076805591583, -0.1633710116147995], [0.02011372521519661, 0.8560592532157898, 0.29073765873908997, 0.6852604150772095, -0.17230141162872314, -0.013397986069321632, -0.10344238579273224, 0.7744394540786743, 0.7493330836296082, -0.04600803181529045, 0.4459185302257538, 0.07591632753610611, 0.041093651205301285, -0.09768077731132507, 0.34727972745895386, -0.38686680793762207, 0.3014736473560333, 0.01664237305521965, -0.23332469165325165, -0.21845446527004242, 0.43630096316337585, -0.03551938757300377, 0.2312055230140686, 0.4823795557022095, -0.12447500228881836, 0.03415613994002342, -0.37959909439086914, 0.1460055112838745, 0.2136041522026062, 0.07593471556901932, -0.12379714846611023, -0.2210615575313568], [0.024406589567661285, 0.13406957685947418, 0.3806378245353699, 0.0036511365324258804, -0.37134850025177, 0.21853680908679962, 0.13613110780715942, 0.38544097542762756, 0.4717330038547516, 0.3666275441646576, 0.1957988739013672, -0.20961062610149384, -0.07771804928779602, 0.335369735956192, 0.19708997011184692, 0.04083692282438278, -0.1432417333126068, -0.3496552109718323, -0.034900788217782974, 0.001448645256459713, 0.2858385145664215, 0.0865350291132927, 0.10649086534976959, 0.3413543105125427, -0.005747203715145588, -0.04097343981266022, -0.2500896155834198, 0.7862692475318909, 0.0473262295126915, 0.1439313143491745, -0.045381851494312286, 0.19826680421829224], [-0.8124657273292542, 0.07643603533506393, 0.7767912745475769, -0.613222062587738, -0.4594283699989319, -0.6054027676582336, -0.09528308361768723, -0.746762752532959, 0.033105168491601944, 0.4561256170272827, -0.5039805173873901, -0.6688478589057922, -0.9388120770454407, 0.10084076225757599, -0.7268407344818115, -0.3489464223384857, -0.6215274333953857, 0.1302386075258255, 0.31120607256889343, 0.016650229692459106, 0.21406112611293793, 0.10882823914289474, -0.2179303765296936, -0.15621040761470795, -0.02645712159574032, -0.34601709246635437, -0.01131491083651781, 0.6573877334594727, 0.03291128948330879, 0.48047196865081787, -0.5453436970710754, -0.33548638224601746], [-1.1750527620315552, -1.0433683395385742, 0.0626077875494957, -1.585439682006836, -0.34506547451019287, -0.7928295731544495, -0.6958580017089844, -0.29730650782585144, -1.1822477579116821, -0.2709979712963104, -1.035980463027954, -0.5878864526748657, -0.9927524924278259, 0.17719754576683044, -0.6829043030738831, -1.2246922254562378, -0.8433535099029541, -0.22133055329322815, 0.4121413230895996, 0.4660702347755432, -0.15684160590171814, -0.6067938208580017, -0.889143705368042, -0.6906079053878784, -0.4873269200325012, -0.3111163377761841, -1.1582825183868408, -0.4087928235530853, -0.1778133511543274, -0.5001583099365234, -0.2817476689815521, -0.19618014991283417], [-0.6508660316467285, -0.05093439668416977, 0.2804480195045471, -0.5593847632408142, -0.33586522936820984, -0.45277270674705505, 0.2196519821882248, 0.2950204312801361, -0.0927940234541893, 0.15231312811374664, -0.36535346508026123, 0.09597688913345337, -0.12850642204284668, -0.25497719645500183, -0.15894769132137299, -0.1311858594417572, -0.26102426648139954, 0.08178986608982086, 0.12138780206441879, 0.014569186605513096, -0.28555142879486084, -0.4334658682346344, 0.04634680971503258, -0.18882927298545837, -0.23013244569301605, 0.24206803739070892, -0.15140217542648315, 0.543818473815918, -0.3026357889175415, 0.01578649692237377, -0.13593652844429016, 0.29803192615509033], [-0.8580780029296875, -1.0060398578643799, 0.6527048945426941, -0.8007704019546509, -0.1420174539089203, 0.12688547372817993, -0.05666345730423927, -0.7933801412582397, -0.554716944694519, 0.7564972639083862, -0.8091385364532471, -0.3386476933956146, -0.8290707468986511, 0.26863330602645874, -0.24426822364330292, -0.43208518624305725, -0.7150701284408569, -0.13354472815990448, 0.03134596347808838, -0.16915765404701233, -0.28172892332077026, -0.18856190145015717, -0.05089590325951576, -0.6635379791259766, 0.41214224696159363, -0.26224562525749207, -0.07325392961502075, 0.5885137319564819, -0.9847743511199951, -0.20487645268440247, -0.8387605547904968, 0.15609896183013916], [-1.5498403310775757, -0.5850276350975037, 0.08825558423995972, -1.2385125160217285, -1.2243845462799072, -1.034529447555542, -0.5946698784828186, -0.4058595895767212, -0.28644585609436035, -0.6344647407531738, -0.8241681456565857, -1.22319495677948, -0.7710234522819519, -0.09580599516630173, -1.0118842124938965, -1.036935806274414, -1.24495267868042, -0.2542875409126282, -0.3466133177280426, -0.3890790343284607, 0.658124566078186, -0.20154884457588196, -1.060935139656067, -0.6355857253074646, -0.43773359060287476, -0.484354704618454, -0.3796983063220978, -0.5332006812095642, -0.15561765432357788, -1.1868633031845093, -0.7193752527236938, -0.8056719899177551], [-1.2804690599441528, -0.12643574178218842, 0.4389784038066864, -1.2772283554077148, -0.6895579099655151, -0.7156674265861511, -0.08390265703201294, -1.1895301342010498, -0.4489259719848633, -0.12842699885368347, -1.2368069887161255, -0.3625015318393707, -0.7653542757034302, 0.5360584855079651, -0.8264814019203186, -0.2735986113548279, -1.001957893371582, -0.3374919295310974, -0.14084529876708984, -0.37090396881103516, -0.4333917200565338, -0.20611083507537842, -0.2722213864326477, -0.80705726146698, -0.383281946182251, -0.01903453841805458, -0.790746808052063, 0.20736278593540192, -0.9570444822311401, 0.17485511302947998, -0.3838413655757904, -0.20603252947330475], [-0.0023335230071097612, 0.4114154875278473, 0.2867905795574188, 0.14570237696170807, -0.7252070307731628, -0.23253589868545532, 0.25728070735931396, 1.2580446004867554, 0.17097486555576324, -0.3099938631057739, -0.12367641925811768, -0.3011586666107178, -0.15011318027973175, 0.5941036343574524, 0.04471275582909584, -0.5896306037902832, 0.0017207893542945385, 0.01787140965461731, 0.07070524245500565, 0.05487551540136337, -0.27012866735458374, 0.09999150782823563, -0.9168522953987122, -0.4691855311393738, -0.3066060543060303, 0.33874884247779846, -1.1362563371658325, 0.00421412568539381, 0.6613216996192932, -0.6293885111808777, -0.2749122679233551, 0.250127911567688], [0.4146965444087982, 0.206960991024971, -0.2929113209247589, 0.6934247612953186, -0.3388485014438629, 0.33835676312446594, 0.030635422095656395, -0.010921673849225044, 0.08815156668424606, -0.5699938535690308, 0.578387439250946, 0.12487393617630005, 0.5209875106811523, 0.232275128364563, -0.28964388370513916, -0.269591748714447, 0.328836053609848, -0.1520698517560959, 0.42020463943481445, -0.1541045904159546, 0.08544909954071045, -0.12361157685518265, -0.5658935308456421, 0.15454678237438202, -0.5631526708602905, -0.01685294136404991, -0.040818095207214355, -0.31769058108329773, 0.4206467568874359, -0.08601050078868866, 0.2229158580303192, -0.682998776435852], [-0.31338733434677124, -0.18387968838214874, 0.5042906999588013, -0.41809025406837463, 0.1140986979007721, 0.0830724835395813, 0.017434360459446907, -0.23688580095767975, -0.18584978580474854, 0.5947111248970032, -0.6993372440338135, 0.015242564491927624, 0.04305070638656616, 0.35441234707832336, -0.3285948634147644, 0.35124096274375916, -0.35533544421195984, 0.22684341669082642, -0.005632682237774134, 0.4223748743534088, -0.35727477073669434, 0.42688265442848206, 0.4130345284938812, -0.04822465777397156, -0.0009329043095931411, 0.3905165493488312, 0.17561496794223785, 0.17391011118888855, 0.10440687835216522, 0.7122240662574768, -0.3528466522693634, 0.45167115330696106], [0.3621392548084259, 0.43393751978874207, -0.2411794364452362, 0.20406393706798553, -0.13447558879852295, -0.023398492485284805, -0.627976655960083, -0.20169059932231903, 0.30860456824302673, -0.5622939467430115, 0.47215232253074646, 0.6538328528404236, 0.6252207159996033, 0.15009969472885132, 0.11808788776397705, -0.482542484998703, 0.5445079803466797, 0.05592842027544975, -0.15573342144489288, 0.04845002293586731, -0.07617053389549255, -0.1615397036075592, -0.30735665559768677, 0.12751416862010956, -0.6677537560462952, -0.2794591188430786, 0.0685509517788887, -0.9090470671653748, -0.01762208715081215, -0.2731437683105469, 0.717950165271759, -0.7854750752449036], [-0.5847575068473816, -0.745611310005188, 0.6973077058792114, -0.48306095600128174, 0.37067264318466187, -0.06265013664960861, -0.12150678783655167, 0.119583860039711, -0.008636662736535072, 0.8782305717468262, -0.5036333203315735, -0.17493562400341034, 0.03602007403969765, -0.10214230418205261, -0.1974305808544159, 0.12107137590646744, -0.4460902512073517, 0.17776775360107422, 0.1461820900440216, 0.19310389459133148, 0.1815226972103119, 0.14962299168109894, 0.3250749409198761, 0.07880590856075287, 0.5955737829208374, 0.15841975808143616, 0.3668094277381897, 0.142067089676857, -0.04680898040533066, 0.6155767440795898, -0.21027986705303192, 0.5929985642433167], [0.3657384216785431, 0.5909490585327148, 0.21039257943630219, 0.2636961042881012, -0.030657097697257996, 0.014756095595657825, -0.3752535283565521, -0.3183292746543884, 0.233779639005661, -0.3040687143802643, 0.2872973680496216, 0.44466158747673035, 0.2620047628879547, 0.15724340081214905, 0.47530075907707214, -0.11595127731561661, 0.5852968692779541, -0.07810384035110474, 0.23674830794334412, -0.11829470843076706, -0.1878991276025772, -0.030218658968806267, -0.03046966902911663, 0.37665045261383057, -0.28696054220199585, -0.6396346092224121, -0.7358327507972717, -0.48887795209884644, -0.18385636806488037, -0.5347856879234314, -0.012279950082302094, -0.4642574191093445], [0.2702610492706299, -0.27197766304016113, -0.6023056507110596, 0.6899517178535461, 0.5716474652290344, 0.5061478018760681, 0.10640980303287506, 1.3055472373962402, 0.400725781917572, -1.2412958145141602, 0.5955610275268555, -0.3172886371612549, 0.5912852883338928, -0.3396226465702057, 0.46556615829467773, 0.03731948882341385, 0.7147014141082764, -0.1347343623638153, 0.23624514043331146, -0.2567838728427887, 0.20884834229946136, 0.32376599311828613, 0.06500638276338577, 0.4430603086948395, -0.1748097836971283, -0.5596297383308411, -0.18111705780029297, -0.9811848402023315, 0.021731678396463394, -1.5075125694274902, 0.5972489714622498, -1.545217514038086], [0.45780155062675476, 0.23412667214870453, -0.29532578587532043, 0.4012496769428253, -0.2111297994852066, -0.43207237124443054, -0.0882929340004921, 0.43746793270111084, 0.3547462224960327, -0.36625635623931885, 0.5728226900100708, 0.18364328145980835, 0.04842458665370941, -0.12863358855247498, 0.13219153881072998, -0.21669431030750275, -0.03685830533504486, 0.1603061705827713, -0.6429792046546936, -0.06190277636051178, 0.023725179955363274, 0.3026730418205261, -0.05916094779968262, 0.35575252771377563, -0.17933133244514465, 0.032352954149246216, -0.46474942564964294, -0.07459325343370438, 0.5492165684700012, -0.611566424369812, 0.08629842102527618, -0.21245405077934265], [-0.40553611516952515, -0.5687117576599121, 0.24187909066677094, -0.07539819926023483, 0.7543742656707764, 0.3128809332847595, -0.09465361386537552, 0.5353554487228394, -0.45560988783836365, 0.45268628001213074, -0.5011295676231384, -0.0015786595176905394, -0.45390844345092773, 0.08114293217658997, -0.1757810264825821, -0.09467043727636337, -1.01526939868927, -0.017855262383818626, 0.21839721500873566, 0.04576383903622627, 0.17842701077461243, 0.29900747537612915, 0.22355501353740692, -0.07828589528799057, 0.5003480315208435, 0.42529764771461487, -0.13922631740570068, 0.2698901891708374, -0.11554074287414551, 0.4490869343280792, -0.24685995280742645, 0.7166866660118103], [-0.27998894453048706, -0.4015520513057709, 0.36710989475250244, -0.23131203651428223, 0.11864302307367325, -0.08339104056358337, -0.1190965324640274, -0.6103836894035339, -0.1829223483800888, 0.4514714777469635, -0.26145443320274353, -0.09235697239637375, -0.2927945852279663, -0.13212384283542633, -0.12465234100818634, 0.22463859617710114, -0.258868932723999, -0.4761413335800171, -0.14128477871418, 0.4464103877544403, 0.4445916712284088, 0.10572578012943268, -0.0032797532621771097, 0.2175969034433365, 0.2172248363494873, -0.2637615501880646, 0.38402292132377625, 0.15467771887779236, -0.03850795328617096, 0.5815543532371521, 0.05090915784239769, 0.47953468561172485], [-0.4181280732154846, -0.548610508441925, 0.07890612632036209, -0.3055512607097626, 0.12350434064865112, -0.019720440730452538, -0.0007221807609312236, 0.17566969990730286, -0.22313891351222992, 0.6400651931762695, -0.4251755177974701, 0.1626073718070984, -0.5161730647087097, 0.4968661665916443, -0.2441921830177307, 0.3554515838623047, -0.6076857447624207, -0.11194953322410583, -0.1846979856491089, -0.0802658423781395, 0.027802638709545135, 0.13751952350139618, -0.28545212745666504, 0.05642547458410263, 0.02257341891527176, -0.3029603958129883, 0.3953789174556732, 0.531398594379425, -0.22221755981445312, 0.534813404083252, -0.1509440690279007, 0.7058054804801941], [-0.13911490142345428, -0.023082956671714783, 0.14576436579227448, -0.6356385350227356, 0.4021309018135071, -0.022657357156276703, -0.3163841962814331, -0.19071169197559357, -0.11913853138685226, 0.7782958149909973, -0.7686522603034973, 0.05374174192547798, -0.7208554148674011, -0.11260247230529785, 0.10647708922624588, -0.2676427960395813, -0.4000628590583801, 0.15110521018505096, 0.17272953689098358, 0.2412087321281433, 0.018163610249757767, 0.23208530247211456, 0.22003377974033356, -0.32363930344581604, 0.2640938460826874, 0.3730677664279938, 0.2029891461133957, 0.7276096940040588, -0.49813297390937805, 0.7501513361930847, -0.5022124648094177, 0.6778393983840942], [0.15600953996181488, -0.8021619915962219, 0.48371025919914246, -0.45279461145401, 0.26476940512657166, 0.10825313627719879, 0.400126188993454, 0.4920307397842407, -0.7779818177223206, 0.548658013343811, -0.6384263634681702, -0.16297991573810577, -0.2333078682422638, -0.1757938265800476, -0.2878918945789337, -0.12157535552978516, -0.5386455655097961, -0.12764596939086914, 0.06535278260707855, 0.18203169107437134, 0.2697005867958069, -0.12549370527267456, 0.006836701650172472, -0.2700587809085846, -0.0037384412717074156, 0.7495208382606506, 0.5342528820037842, 0.846168577671051, 0.017750157043337822, 0.8299478888511658, 0.32976990938186646, 0.5808888077735901], [-0.3065415918827057, -0.17077574133872986, -0.055129025131464005, -0.18923674523830414, 0.06359801441431046, 0.028133993968367577, 0.40856462717056274, 0.06690233200788498, 0.13261976838111877, 0.699919581413269, -0.5059098601341248, -0.005067174788564444, -0.792570948600769, -0.30120813846588135, -0.18922358751296997, -0.06580992788076401, -0.27592676877975464, -0.36207759380340576, 0.13651122152805328, 0.3978004455566406, -0.16998980939388275, 0.22250667214393616, 0.573540210723877, -0.0695379227399826, 0.09872332960367203, 0.44173264503479004, 0.3122658133506775, 0.23790910840034485, -0.06632334738969803, 0.5828344821929932, -0.2757819890975952, 0.44255155324935913], [0.10289251059293747, 0.32995033264160156, -0.5965044498443604, 0.18246769905090332, -0.11401531100273132, 0.07227353006601334, -0.3889061212539673, -0.28648456931114197, 0.7574966549873352, -0.745636522769928, 0.6652492880821228, 0.4944835603237152, 0.18342286348342896, 0.310730516910553, 0.416305273771286, -0.14582937955856323, 0.2970997095108032, 0.27290838956832886, 0.14898528158664703, -0.4012426435947418, 0.10396236181259155, -0.4124063551425934, -0.41268739104270935, 0.42600017786026, -0.11854558438062668, -0.5159910321235657, -0.28602054715156555, -0.6732285022735596, -0.10084625333547592, 0.01908915676176548, 0.29472270607948303, -0.6881704926490784], [0.4188542664051056, 0.6170256733894348, 0.34019365906715393, 0.4024944007396698, -0.3913348615169525, -0.062972791492939, -0.31537818908691406, -0.2113836258649826, 0.49077746272087097, -0.8111307621002197, 0.8459771871566772, 0.1860976219177246, 0.6004973649978638, -0.30865275859832764, 0.1896868646144867, -0.06569609045982361, 0.44223374128341675, 0.1124444454908371, -0.08262178301811218, 0.020367441698908806, -0.32021647691726685, 0.18595018982887268, -0.41185376048088074, -0.09969857335090637, -0.26046350598335266, -0.4532882571220398, -0.26169607043266296, 0.024312632158398628, -0.005215641111135483, -0.49738365411758423, 0.12202195823192596, -0.9785541892051697], [0.3975714445114136, -0.8656029105186462, -0.353495717048645, -0.14912927150726318, 0.31246837973594666, 0.5697346329689026, 0.007995342835783958, -0.23308786749839783, -0.5430625081062317, 0.7987213730812073, -0.5192646980285645, 0.4071928560733795, -0.28007984161376953, 0.18230587244033813, 0.26482751965522766, 0.08569677919149399, -0.40744736790657043, 0.2817690074443817, 0.16389480233192444, -0.0570758618414402, -0.17239154875278473, 0.18323349952697754, 0.28424617648124695, 0.052040945738554, 0.7721388936042786, 0.7017355561256409, 0.7899991869926453, 0.22242844104766846, 0.291175901889801, 0.7108892202377319, -0.2686850130558014, 0.5888116955757141], [0.03440146893262863, -0.040392499417066574, 0.31919538974761963, -0.36303865909576416, 0.20766228437423706, 0.07276653498411179, -0.06195775419473648, 0.8189502358436584, -0.034365296363830566, 0.9427514672279358, -1.0742685794830322, 0.19961661100387573, -0.6988552212715149, 0.35250166058540344, -0.4441147744655609, -0.20205248892307281, -0.2682771384716034, 0.09320786595344543, 0.3800230324268341, 0.1946832686662674, -0.13360947370529175, 0.1514226645231247, 0.4053470194339752, -0.4875582456588745, 0.08670420199632645, 0.3810749650001526, 0.3192448914051056, 0.03708751127123833, -0.3555436432361603, 0.38604864478111267, -0.1624547690153122, 0.4494273066520691], [-0.344808965921402, -0.21546122431755066, 0.31089648604393005, 0.022015109658241272, 0.23483271896839142, -0.10031115263700485, 0.19229570031166077, -0.0016289935447275639, -0.6263127326965332, 1.3003062009811401, -0.499207079410553, -0.004515626467764378, -0.8044213652610779, 0.04776914045214653, -0.45023810863494873, 0.05624249204993248, -0.6953222751617432, -0.22713488340377808, 0.20995019376277924, -0.06333961337804794, -0.05918954312801361, 0.17679810523986816, 0.27279627323150635, -0.8229573965072632, 0.2515844702720642, 1.0420674085617065, 0.19282220304012299, -0.4177566468715668, -0.3192330002784729, 0.58451908826828, -0.19744250178337097, 1.1871689558029175], [0.1491999477148056, -0.12471280246973038, -0.09646477550268173, 0.6042653322219849, -0.09797446429729462, 0.04831726849079132, 0.43572545051574707, -0.8651286363601685, 0.6608256101608276, -0.54350745677948, 0.7297325730323792, -0.331185519695282, 0.34093916416168213, 0.239782452583313, 0.23476789891719818, -0.23675791919231415, 0.8176814317703247, -0.12722501158714294, 0.059464436024427414, 0.08630993217229843, -0.13008858263492584, -0.36819103360176086, 0.1395540088415146, 0.5797783136367798, -0.24636125564575195, -0.7064003348350525, -0.5361374020576477, -1.0620490312576294, 0.38908401131629944, -1.065440058708191, 0.1893351823091507, -1.114668369293213], [-0.24603372812271118, 0.12601877748966217, 0.0814983993768692, -0.23322728276252747, -0.05708709731698036, 0.33542245626449585, -0.09293626993894577, 0.07381937652826309, 0.047111108899116516, 0.8117331266403198, -0.7451788783073425, 0.07274723052978516, -0.8001113533973694, 0.3190936744213104, -0.17653881013393402, 0.34289130568504333, -0.7558391690254211, 0.5952782034873962, -0.07171361893415451, 0.21834366023540497, 0.21616001427173615, 0.11031212657690048, 0.10370796173810959, -0.00967981293797493, 0.5396768450737, -0.02864406816661358, 0.07569888234138489, 0.32962462306022644, 0.08115235716104507, 0.5111339688301086, -0.2809148132801056, 0.5216763019561768], [0.06872670352458954, -0.22029320895671844, -0.48664620518684387, 0.23270384967327118, -0.47272366285324097, -0.447642982006073, -0.32579538226127625, 0.2095983326435089, 0.14174629747867584, -0.8941706418991089, 0.4719127118587494, -0.29902055859565735, 0.4677274525165558, 0.31193792819976807, -0.0912807509303093, -0.160422682762146, 0.33503642678260803, -0.07140663266181946, -0.07661916315555573, 0.03550736606121063, -0.41636592149734497, -0.28595295548439026, -0.5108138918876648, -0.06745609641075134, -0.6688172817230225, -0.4933556318283081, -0.8680127859115601, -0.7006929516792297, -0.18609300255775452, -0.21848951280117035, 0.4696488082408905, -0.6379745006561279], [0.28910064697265625, -0.18594390153884888, -0.44291675090789795, 0.04860652983188629, 0.5244227051734924, 0.31992754340171814, -0.10869816690683365, -0.17624600231647491, 0.18735045194625854, -0.29296010732650757, 0.9742795825004578, -0.08264514803886414, 0.2578423321247101, 0.08122751861810684, 0.031369924545288086, 0.422436386346817, 0.39497002959251404, -0.36068642139434814, -0.02046450972557068, 0.15624761581420898, -0.4469098448753357, -0.07766894996166229, -0.07268216460943222, 0.17045320570468903, -0.5868614315986633, 0.018886378034949303, -0.308796763420105, -0.12168654054403305, 0.13511230051517487, -0.8457304835319519, 0.22398388385772705, -0.5473807454109192], [0.16660518944263458, 0.6141442656517029, -0.5815753936767578, 0.3718658983707428, -0.21198660135269165, -0.13226434588432312, 0.16957329213619232, -0.030461549758911133, 0.520505428314209, -0.6297587752342224, 0.2711595594882965, -0.21803855895996094, 0.4752459228038788, -0.27742230892181396, 0.22340066730976105, -0.5390316247940063, 0.7154608368873596, -0.06507014483213425, 0.024952741339802742, 0.3352595865726471, -0.07686657458543777, 0.2722817063331604, -0.1395294964313507, 0.4295012056827545, -0.34326377511024475, -0.3105207085609436, -0.035513557493686676, -0.21203134953975677, 0.3618994653224945, -0.6525761485099792, -0.015596557408571243, -1.1190192699432373], [-0.6556941866874695, -0.3738768994808197, -0.21175949275493622, -0.1218125969171524, 0.1650594174861908, 0.0630853995680809, -0.023292439058423042, -0.6255866885185242, -0.10867727547883987, 0.484398752450943, -0.6517557501792908, 0.16630813479423523, -0.3872247338294983, 0.0019405042985454202, -0.20194676518440247, 0.029535019770264626, -0.44541314244270325, -0.03378372639417648, 0.3941860795021057, -0.30527636408805847, -0.1575467586517334, 0.3262937366962433, 0.5876932740211487, -0.004268795717507601, 0.24319101870059967, 0.4534732401371002, 0.24175035953521729, -0.10771309584379196, 0.03532619774341583, 0.6006808876991272, -0.20902986824512482, 0.7495431900024414], [0.21505559980869293, -0.1273147016763687, -0.006891423370689154, 0.5905877351760864, -0.15388718247413635, 0.1315287947654724, 0.02229296788573265, 0.5010696053504944, 0.208738774061203, -0.21004268527030945, 0.3485165238380432, -0.181511789560318, -0.16455994546413422, -0.12173226475715637, -0.03068414330482483, -0.08325763046741486, 0.5406439304351807, 0.12216442823410034, 0.28781867027282715, -0.13136301934719086, 0.1376994103193283, 0.05263463780283928, -0.27767258882522583, 0.24359825253486633, -0.2862887382507324, -0.432040810585022, -0.3517317473888397, -0.7879601120948792, -0.1231100931763649, -0.5242580771446228, 0.1193791925907135, -0.16478687524795532], [0.4705647826194763, 0.2753946781158447, -0.3233858644962311, 0.7410376667976379, -0.2486659437417984, -0.24283036589622498, -0.010061838664114475, -0.28233999013900757, 0.08654184639453888, -0.6369943022727966, 0.4679855704307556, 0.2743271589279175, 0.9013369679450989, 0.42402756214141846, 0.24053820967674255, -0.029423324391245842, 0.22186745703220367, -0.2326272875070572, -0.07606920599937439, 0.162995845079422, -0.2461877465248108, -0.11457782238721848, -0.2358219027519226, 0.5610685348510742, -0.15042293071746826, -0.6330748796463013, -0.47798898816108704, 0.05932356417179108, -0.13306370377540588, -0.29719609022140503, -0.5053374767303467, -0.03843512386083603], [0.3932282328605652, 0.09266935288906097, -0.27901536226272583, 0.2685073912143707, -0.20199784636497498, 0.20461887121200562, -0.08283177018165588, -0.047347914427518845, 0.36809512972831726, -0.7781059741973877, 0.3675863742828369, -0.2593126595020294, 0.11352719366550446, -0.1481071412563324, 0.4281807243824005, -0.20927710831165314, 0.4104420840740204, 0.004833186510950327, 0.0538150854408741, 0.32405737042427063, -0.29660242795944214, 0.3165452480316162, -0.2558021545410156, 0.5416732430458069, -0.48704516887664795, -0.3120552897453308, -0.2830892503261566, 0.2816309630870819, -0.0012101196916773915, -0.401210755109787, -0.03256434202194214, -0.8439080715179443], [-0.2420855611562729, -0.5686535239219666, 0.42508986592292786, -0.23539061844348907, -0.0330163910984993, -0.3346680998802185, -0.21186165511608124, -0.21357448399066925, -0.5414965748786926, 0.44325634837150574, -0.11454029381275177, -0.07335499674081802, -0.35359156131744385, -0.46077051758766174, 0.29221898317337036, 0.5314149856567383, -0.4063599109649658, -0.291059285402298, -0.046394020318984985, 0.16321884095668793, -0.25050464272499084, 0.15082880854606628, 0.4688975214958191, 0.08828506618738174, 0.5046259760856628, 0.20747028291225433, 0.36022087931632996, 0.38758641481399536, 0.3278699219226837, 0.35643693804740906, 0.0189950093626976, 0.08644141256809235], [0.4040951430797577, 0.5552024841308594, 0.10983889549970627, 0.5467370748519897, -0.42623022198677063, -0.14001953601837158, -0.3904283344745636, -0.03371037542819977, 0.13125546276569366, -0.8882753252983093, 0.7556183338165283, -0.0007906117825768888, 0.8876115679740906, 0.11878127604722977, -0.4091620445251465, -0.35512447357177734, 0.6053047180175781, -0.21026389300823212, -0.6389046311378479, 0.023401694372296333, 0.393102765083313, -0.4389234781265259, -0.015231119468808174, 0.1764906942844391, -0.16366033256053925, 0.06834765523672104, -0.17528025805950165, -0.45560479164123535, 0.30251455307006836, -0.516568660736084, -0.02991480752825737, -0.7497814893722534], [-0.1375276744365692, -0.2938435971736908, 0.16145914793014526, -0.47493746876716614, -0.03823843225836754, 0.08015920221805573, -0.022871272638440132, 0.16884060204029083, -0.5421671867370605, 0.4801512062549591, -0.47837966680526733, 0.05460314080119133, -0.4488588869571686, -0.2431398630142212, 0.00800627376884222, 0.08298105001449585, -0.8971202969551086, 0.1415877640247345, 0.021619196981191635, 0.20637758076190948, 0.0905834287405014, -0.21620377898216248, 0.11009690165519714, -0.1878674477338791, 0.4901167154312134, 0.515194296836853, 0.3476308286190033, -0.5044533014297485, -0.013023227453231812, 0.1805565059185028, -0.2015267014503479, 0.21472588181495667], [-0.23683927953243256, -0.3308049440383911, 0.022283826023340225, -0.33755117654800415, -0.10416030883789062, 0.1754346340894699, 0.34799376130104065, 0.011103257536888123, -0.5643590092658997, 0.8178273439407349, -0.9114732146263123, -0.5417385101318359, -0.3590441942214966, 0.2116624265909195, -0.08486759662628174, 0.12478999048471451, -0.36232075095176697, 0.5123935341835022, 0.1810707300901413, -0.2060116082429886, 0.10298164933919907, 0.3134823441505432, 0.1731870025396347, -0.201901376247406, -0.08660898357629776, 0.5726619958877563, 0.5791537165641785, 0.5436921119689941, 0.21815983951091766, 0.6589540243148804, -0.3031548261642456, 0.2276831716299057], [-0.38221505284309387, -0.09994900226593018, 0.24688081443309784, -0.06925369799137115, 0.547574520111084, -0.08695205301046371, 0.2885676920413971, -0.3705105483531952, -0.621597409248352, 0.7417648434638977, -0.21550916135311127, 0.1792706549167633, -0.657383143901825, -0.03816359117627144, -0.16730289161205292, 0.3017422556877136, -0.3609921932220459, -0.0649566501379013, 0.37770572304725647, -0.29201486706733704, 0.21977262198925018, 0.253826379776001, 0.03325589373707771, -0.01604515127837658, 0.5682065486907959, 0.36594152450561523, -0.1868496537208557, 0.18847866356372833, 0.09181687980890274, 1.2636654376983643, -0.2037973701953888, 0.5029971599578857], [-0.07457295060157776, 0.4682454466819763, 0.780817449092865, -0.09021986275911331, 0.15499527752399445, 0.1988067626953125, -0.07054471224546432, 0.40505358576774597, 0.5524889826774597, 0.10560624301433563, 0.30246981978416443, 0.085303895175457, 0.16727235913276672, 0.3620590567588806, 0.10769765824079514, -0.27577632665634155, 0.06253121793270111, -0.1413886547088623, 0.14848436415195465, -0.14526383578777313, 0.03391485661268234, -0.019433937966823578, 0.12527693808078766, 0.11892995238304138, 0.027468884363770485, -0.10787616670131683, -0.10073036700487137, 1.1808973550796509, -0.09304530918598175, 0.2796475887298584, -0.009482172317802906, 0.17262278497219086], [-0.5645160675048828, 0.42515242099761963, -0.11406753957271576, -0.10465558618307114, -0.6477078199386597, -0.3741324543952942, -0.11167794466018677, 0.6571150422096252, 0.5684818625450134, -0.06281827390193939, 0.03422187268733978, -0.37333062291145325, -0.10029623657464981, -0.2921425700187683, 0.024655573070049286, -0.7761690616607666, 0.155280202627182, 0.15025627613067627, 0.19264061748981476, -0.3362385928630829, -0.037380509078502655, -0.31887558102607727, -0.6058916449546814, -0.35536888241767883, -0.15324556827545166, 0.3438752293586731, -0.281997412443161, 0.318956583738327, 0.09898822754621506, 0.2599925398826599, -0.22275952994823456, -0.2311505824327469], [-0.39105549454689026, 0.3022288382053375, 0.12560582160949707, -0.2618456184864044, -0.33887583017349243, -0.3270318806171417, 0.07794081419706345, 0.886506974697113, 0.17299041152000427, -0.2560502290725708, 0.19885776937007904, 0.2532714009284973, 0.10162721574306488, -0.17043215036392212, 0.07376764714717865, -0.40611764788627625, -0.20143115520477295, 0.062178052961826324, -0.27785488963127136, 0.3397323787212372, 0.4870363473892212, -0.0066922749392688274, -0.4942459762096405, 0.11566272377967834, -0.46625813841819763, -0.1824658215045929, -0.5148254036903381, 0.2918176054954529, 0.7989663481712341, 0.20849137008190155, 0.09255225211381912, -0.03838720917701721], [-0.5799740552902222, 0.43051987886428833, 0.5633410215377808, -0.08773496747016907, -0.6571245193481445, -0.2622300386428833, 0.24710991978645325, 1.262803077697754, 0.5984222888946533, 0.49447140097618103, 0.1636040359735489, 0.22637446224689484, 0.02883749082684517, 0.016136791557073593, -0.04509926214814186, -0.18445906043052673, 0.11486158519983292, 0.6222968697547913, -0.17634403705596924, -0.1476038545370102, -0.211410790681839, -0.11841724067926407, 0.10702472180128098, -0.24732598662376404, 0.2598155438899994, -0.21975012123584747, -0.32718732953071594, 0.6841880083084106, 0.3602154850959778, 0.43454721570014954, -0.13460610806941986, 0.7178264856338501], [-0.13639575242996216, 0.6356794834136963, 0.3007071614265442, 0.091081403195858, -0.10293222963809967, 0.44731923937797546, 0.046150822192430496, 0.7683669328689575, 0.3891286849975586, -0.3048851788043976, 0.10660706460475922, -0.005451056640595198, 0.35089343786239624, 0.3524007499217987, -0.2640899419784546, 0.20022426545619965, -0.2745431661605835, 0.12406285107135773, 0.012875735759735107, 0.007539780810475349, -0.25538119673728943, 0.10798034816980362, 0.5054078698158264, 0.1106521263718605, 0.11243799328804016, 0.6728971600532532, 0.3761047124862671, 0.6107449531555176, 0.4767518639564514, -0.13649336993694305, 0.15122908353805542, -0.009221932850778103], [-0.18264223635196686, 0.21575623750686646, -0.8113139271736145, 0.1869727522134781, -0.7707802653312683, -0.26096007227897644, -0.010314120911061764, -0.8426666259765625, -0.168292835354805, -2.690723419189453, -0.03454884514212608, -0.05307559296488762, -0.039923012256622314, -0.27344486117362976, 0.02464248053729534, -0.4966277480125427, -0.05353660508990288, 0.09533458203077316, 0.004349697846919298, -0.04731645807623863, 0.22093944251537323, -0.16553008556365967, -0.5413206815719604, 0.07653521001338959, -1.6988599300384521, -1.1639933586120605, -0.04405179247260094, -0.5720027685165405, 0.24090152978897095, -2.127959728240967, -0.2846735119819641, -2.612926959991455], [-0.1390015184879303, 0.4675746262073517, 0.7841084003448486, -0.3095363974571228, -0.20081686973571777, -0.574073076248169, 0.19617201387882233, 0.815789520740509, 0.403417706489563, 0.5991638898849487, -0.03502644598484039, 0.03968540579080582, 0.17235249280929565, 0.006791095249354839, 0.48242178559303284, -0.320386677980423, 0.10190722346305847, -0.1780264675617218, 0.15163074433803558, 0.019577044993638992, -0.5203485488891602, -0.2995394468307495, -0.5363503694534302, 0.03617182374000549, -0.26549863815307617, 0.488290399312973, 0.15407796204090118, 0.2655215859413147, -0.10530287772417068, 0.45475390553474426, -0.049699172377586365, -0.04708804190158844], [-0.3490453362464905, 0.4709135591983795, -0.1428852528333664, 0.20427438616752625, -0.4732533395290375, -0.12501558661460876, 0.4538741409778595, 0.5154978036880493, -0.007438404485583305, 0.4510486423969269, -0.49844974279403687, 0.09859204292297363, -0.1086927130818367, 0.19002050161361694, 0.03590334951877594, -0.2744310796260834, 0.054735440760850906, 0.13457712531089783, -0.11027123034000397, 0.17817457020282745, -0.007861082442104816, -0.4133695662021637, -0.22873879969120026, 0.0747486799955368, -0.5195053815841675, 0.10247543454170227, -0.5012502074241638, 0.9135559797286987, 0.4365993142127991, 0.02571866288781166, -0.03811796382069588, 0.4003206193447113], [0.18366047739982605, 0.0324234738945961, 0.4015272259712219, 0.03689807653427124, 0.3315756618976593, 0.15223397314548492, 0.23540467023849487, 0.8276357054710388, 0.5253820419311523, 0.31188446283340454, 0.0639718547463417, 0.37580129504203796, 0.3094567060470581, 0.19562822580337524, 0.26927292346954346, -0.30550476908683777, 0.12699921429157257, 0.2636226713657379, 0.41938185691833496, -0.18028904497623444, -0.38352128863334656, 0.5227987766265869, 0.2836245596408844, 0.12047483772039413, 0.2868366837501526, -0.09270735830068588, 0.09241338819265366, 0.7328551411628723, -0.02781934104859829, 0.7149171233177185, 0.3040744662284851, -0.12352253496646881], [-0.37719404697418213, 0.30948948860168457, 0.7304688692092896, -0.07573455572128296, -0.7123473286628723, 0.10217458754777908, -0.26374444365501404, 0.42493095993995667, 0.2849767208099365, 0.39296799898147583, -0.47186461091041565, -0.3051915466785431, -0.7104068398475647, -0.15228070318698883, -0.15172944962978363, -0.23390386998653412, 0.045360054820775986, -0.08486709743738174, 0.16300976276397705, 0.11072245985269547, 0.5186157822608948, -0.2606969475746155, -0.5845146775245667, -0.018662400543689728, -0.099119633436203, 0.002232481725513935, -0.3457334339618683, 0.6341009140014648, 0.2917879819869995, 0.09019621461629868, 0.2634022831916809, 0.6492641568183899], [-0.4321512281894684, 0.3920843303203583, 0.7143651247024536, 0.39112356305122375, 0.11635861545801163, -0.5600159764289856, 0.027223605662584305, 0.6875897645950317, -0.07402750104665756, 0.1943693459033966, 0.09485816955566406, -0.24184857308864594, -0.14938676357269287, -0.43424755334854126, -0.08748447895050049, -0.1902138590812683, -0.3542934060096741, -0.2583913505077362, 0.3273845314979553, 0.3815317451953888, 0.32183218002319336, -0.4562824070453644, -0.2912878096103668, -0.0742245689034462, -0.016219070181250572, -0.2540387511253357, -0.5727042555809021, 0.8163430094718933, 0.1402207911014557, 0.15471947193145752, 0.37287160754203796, -0.20493769645690918], [-0.515838623046875, 0.5874262452125549, 0.17450354993343353, -0.03355155885219574, -0.0753871276974678, -0.37320849299430847, 0.1581621617078781, 0.7094581723213196, 0.25490888953208923, 0.21405230462551117, 0.07386405766010284, 0.3958132266998291, -0.14097058773040771, -0.17115186154842377, -0.4561833143234253, 0.22754275798797607, 0.14876019954681396, 0.10450571775436401, -0.07442124933004379, 0.21099752187728882, -0.35650011897087097, -0.23820726573467255, -0.48068010807037354, 0.1284245401620865, -0.3773241937160492, 0.23804420232772827, -0.04500170424580574, -0.167857363820076, 0.7148240804672241, 0.5585662126541138, 0.2541690766811371, -0.3338938057422638], [-0.5410190224647522, -0.31746527552604675, 0.39944571256637573, 0.21379642188549042, -0.2086978554725647, -0.7144238352775574, -0.45949217677116394, 0.6491027474403381, -0.01978524774312973, -0.019367128610610962, 0.19844616949558258, -0.36737436056137085, -0.17292223870754242, -0.09367401897907257, -0.07270049303770065, -0.38381487131118774, 0.27875959873199463, 0.07126053422689438, 0.1680322140455246, -0.5300116539001465, -0.28821343183517456, 0.14700619876384735, -0.3535819351673126, -0.40783438086509705, -0.11772654950618744, 0.09609922766685486, -0.19845537841320038, 0.8768032789230347, -0.14838804304599762, 0.31477034091949463, 0.007160739507526159, 0.16417169570922852], [0.35098782181739807, 0.4278736114501953, 0.3838261365890503, -0.1481846570968628, -0.48510628938674927, -0.27537405490875244, 0.2297648787498474, 0.4323776662349701, -0.4203953444957733, 0.3775577247142792, -0.1149640679359436, 0.13912703096866608, -0.3189707398414612, 0.2953454554080963, -0.09831773489713669, -0.5513923764228821, -0.029209591448307037, -0.3988581597805023, 0.11180335283279419, -0.20447617769241333, -0.4555998146533966, -0.2693839371204376, -0.7158088684082031, -0.12510241568088531, 0.2174612432718277, -0.04400372877717018, -0.16778069734573364, 1.0200918912887573, -0.12235448509454727, -0.01407124474644661, 0.22042237222194672, 0.05890600010752678], [-0.5523785352706909, -0.04003620520234108, 0.41184377670288086, 0.02269558049738407, 0.07121327519416809, -0.03950677812099457, 0.06078936904668808, 0.5722953677177429, 0.33825385570526123, 0.060631923377513885, 0.1478131115436554, -0.07463135570287704, -0.12808357179164886, 0.5495822429656982, -0.6311115622520447, -0.538343608379364, 0.17140734195709229, -0.24762561917304993, -0.3359171450138092, -0.5715861916542053, 0.3873417377471924, -0.04227101430296898, -0.4959244728088379, -0.4111877977848053, -0.3027067184448242, -0.46747633814811707, -0.4404233992099762, 0.4982019364833832, 0.15685626864433289, 0.47104182839393616, -0.16560952365398407, 0.20676523447036743], [-0.6570872068405151, -0.28615012764930725, -0.3517603278160095, -0.9643815755844116, -0.05780555680394173, -0.6636627912521362, 0.0007332942332141101, -1.039367914199829, -1.3769422769546509, 0.4643257260322571, -1.1611707210540771, -0.3009033501148224, -1.192761778831482, 0.18724751472473145, -0.30120325088500977, -0.29699277877807617, -1.6301189661026, 0.49394381046295166, -0.301053524017334, 0.011710976250469685, 0.054160021245479584, -0.32707247138023376, -0.06879596412181854, -0.5228537917137146, 0.0722147524356842, 0.1944178342819214, -0.1452542543411255, -0.27312415838241577, 0.09697607904672623, 0.2466043084859848, -0.47061485052108765, 0.32916903495788574], [-0.039579056203365326, 0.3311202824115753, 0.8177613019943237, 0.281787633895874, 0.21067504584789276, 0.10558763146400452, -0.013967339880764484, 0.8376217484474182, 0.5533701181411743, 0.5220261812210083, -0.32492485642433167, -0.14267441630363464, 0.5124047994613647, 0.0036438507959246635, -0.11653709411621094, 0.08282021433115005, 0.28545042872428894, 0.0865965187549591, -0.34433701634407043, -0.21965815126895905, -0.08110368996858597, 0.12472069263458252, 0.0226272102445364, -0.20920495688915253, 0.03421781584620476, 0.4592815339565277, -0.28258371353149414, 0.5420922636985779, 0.4352378249168396, 0.29645219445228577, 0.40010520815849304, 0.2811388075351715], [-0.46033725142478943, 0.5933856964111328, 0.0625956729054451, 0.20958080887794495, -0.2351796180009842, -0.5181084871292114, 0.14177647233009338, 0.6769059896469116, 0.5851471424102783, 0.12424203753471375, 0.6073530316352844, -0.2078092247247696, -0.15483292937278748, -0.10640112310647964, -0.23080220818519592, -0.41521164774894714, -0.7448149919509888, -0.12214828282594681, -0.04600474610924721, -0.16520516574382782, -0.052822504192590714, -0.3456074595451355, -0.3677195608615875, 0.34838414192199707, 0.2589815557003021, -0.25507652759552, -0.7456337809562683, 0.02102089487016201, 0.018360501155257225, 0.3405509293079376, -0.3656282126903534, 0.08896256983280182], [-0.28131404519081116, 0.3683193027973175, 0.9019916653633118, -0.2775331139564514, -0.5826225876808167, -0.6930954456329346, -0.054250143468379974, 0.5208693742752075, 0.4426945447921753, -0.3911491930484772, -0.10300824046134949, 0.1546267569065094, -0.17573747038841248, 0.2160205990076065, -0.05451969802379608, -0.580595076084137, 0.3465908169746399, 0.08820535242557526, 0.3372398018836975, 0.5824296474456787, -0.1415669471025467, -0.33655962347984314, -0.32474514842033386, -0.14504189789295197, -0.3346564769744873, -0.2491724044084549, -0.40938541293144226, 0.7073789238929749, 0.09194625169038773, 0.2679593861103058, 0.06859242171049118, 0.22620275616645813], [0.057221364229917526, -0.0006218774360604584, 0.6686480641365051, -0.18491698801517487, 0.002814690349623561, -0.21833352744579315, 0.19156073033809662, 0.5114608407020569, 0.41225722432136536, 0.17339780926704407, -0.05313175916671753, -0.3913121819496155, 0.015268911607563496, 0.3033803701400757, -0.4676540791988373, 0.05921219661831856, -0.32040858268737793, -0.10689597576856613, -0.10868250578641891, -0.14215421676635742, -0.04169275611639023, -0.02708551660180092, -0.1765650361776352, 0.26868197321891785, -0.17075708508491516, 0.20332977175712585, -0.582180380821228, 0.6461355090141296, -0.028842773288488388, 0.21769627928733826, 0.2151411771774292, 0.21536916494369507], [-0.5143154859542847, -0.10790270566940308, -0.27051812410354614, -1.617882251739502, -0.4444935917854309, -0.5619046092033386, 0.06672876328229904, -0.7264795303344727, -2.0740811824798584, 0.0907253697514534, -1.4269640445709229, -0.15382535755634308, -1.4251246452331543, 0.2690671682357788, -0.5829448699951172, -0.6214724779129028, -1.409016728401184, -0.005916613154113293, -0.17059198021888733, 0.21738038957118988, 0.08354398608207703, -0.290699303150177, -0.3180519640445709, -0.7894100546836853, -0.3113011419773102, 0.213936910033226, -0.19970408082008362, 0.5243288278579712, 0.1734073907136917, -0.28650763630867004, -1.0688406229019165, -0.37091055512428284], [-0.37232616543769836, 0.16654007136821747, 0.6926400065422058, 0.2544027268886566, -0.3038155138492584, -0.44435638189315796, 0.013680294156074524, 0.4839029014110565, -0.2791232168674469, -0.18318818509578705, 0.101451575756073, -0.21116356551647186, 0.34920212626457214, -0.3696598708629608, 0.05272864177823067, -0.22917620837688446, -0.1519971489906311, 0.1338508129119873, -0.40822866559028625, -0.05395062640309334, -0.20347987115383148, 0.2527250349521637, -0.4206836223602295, 0.33083653450012207, 0.0327606126666069, -0.27486565709114075, 0.08861582726240158, 0.6108882427215576, 0.6318496465682983, 0.012883506715297699, 0.28718236088752747, 0.15588918328285217], [-0.1793946772813797, 0.3082321584224701, 0.3352675437927246, 0.25788170099258423, -0.458347350358963, -0.23061494529247284, -0.030031386762857437, 0.8241003751754761, 0.2560714781284332, 0.42372801899909973, 0.3665004372596741, -0.324627161026001, 0.05254770815372467, 0.10152620077133179, -0.28688883781433105, -0.1782647669315338, -0.2438977211713791, 0.20885352790355682, -0.22968405485153198, 0.11539480835199356, -0.11112784594297409, -0.23053689301013947, -0.31253379583358765, -0.28495728969573975, -0.12919332087039948, -0.12646213173866272, -0.6474241018295288, 0.8271149396896362, 0.04838641732931137, 0.3521720767021179, -0.2813953161239624, -0.09191270917654037], [-0.7477121353149414, 0.14103256165981293, 0.3294363021850586, -0.05589522793889046, -0.12565463781356812, -0.32875576615333557, -0.21753990650177002, 1.0905587673187256, 0.7722074389457703, -0.05383262783288956, -0.20471304655075073, -0.36923083662986755, -0.29688695073127747, -0.1475818157196045, -0.33565524220466614, -0.6646555662155151, -0.5415590405464172, -0.14027002453804016, 0.31242209672927856, 0.38244709372520447, -0.04736935719847679, -0.206607386469841, -0.11321920156478882, -0.1251712143421173, 0.29058852791786194, -0.10783728957176208, -0.5826132297515869, 0.6459377408027649, -0.038633570075035095, 0.5779647827148438, -0.31952741742134094, 0.36182844638824463], [-0.3864133954048157, 0.36253756284713745, 0.30134379863739014, 0.005149377975612879, 0.38273322582244873, 0.2763718366622925, -0.2396867275238037, 0.10067519545555115, 0.15148957073688507, 0.4929015338420868, -0.12720255553722382, -0.21430546045303345, -0.33023321628570557, 0.607062816619873, -0.27755483984947205, -0.2435905486345291, 0.2283034771680832, -0.11590544879436493, -0.2540126144886017, 0.21523801982402802, 0.6220257878303528, -0.014079921878874302, 0.14068515598773956, 0.21630875766277313, -0.2592443823814392, 0.25730377435684204, 0.06805755943059921, 0.3183331787586212, 0.33997204899787903, 0.27971509099006653, -0.057011689990758896, -0.04762294515967369], [-0.3645973801612854, 0.3842724561691284, 0.34506919980049133, -0.33100369572639465, -0.172905832529068, -0.6566829681396484, 0.33066684007644653, 0.08282779157161713, 0.26545217633247375, 0.21372495591640472, -0.1140848770737648, -0.09603647142648697, 0.3096074163913727, -0.1322680115699768, -0.1113150492310524, -0.19419822096824646, 0.11937090009450912, -0.43852001428604126, 0.012853777036070824, -0.09430313855409622, -0.029224179685115814, -0.20026709139347076, -0.12989726662635803, -0.1336306929588318, -0.24538128077983856, -0.039449550211429596, 0.1635843813419342, 0.5679709911346436, 0.14801521599292755, 0.3022564649581909, 0.45412880182266235, 0.18692423403263092], [-0.30243679881095886, 0.5268158316612244, -0.2121177315711975, -0.28200143575668335, -0.7585829496383667, -0.3373616933822632, -0.10352115333080292, 0.5686846971511841, 0.38958778977394104, 0.23616565763950348, 0.0043486738577485085, -0.038721997290849686, -0.051482897251844406, 0.15148693323135376, 0.1320570409297943, 0.015628356486558914, -0.20855525135993958, 0.16333165764808655, -0.1035674661397934, -0.037520118057727814, -0.13527147471904755, 0.1790466457605362, -0.19596226513385773, -0.16767795383930206, -0.6604440212249756, -0.5840662121772766, -0.4592188596725464, -0.24792155623435974, 0.07233618944883347, 0.1610831916332245, 0.118747778236866, 0.25371477007865906], [-0.16199500858783722, 0.26182323694229126, -0.07802941650152206, -0.684694766998291, 0.015113238245248795, 0.18493112921714783, -0.013855624943971634, 0.6334139108657837, 0.5243659615516663, 0.6463536024093628, 0.01581503264605999, -0.2850598096847534, 0.005548030603677034, -0.21615199744701385, -0.0915224477648735, -0.4152098596096039, -0.17314420640468597, -0.013241753913462162, 0.13650193810462952, -0.025126367807388306, 0.048567745834589005, -0.1482231616973877, -0.6929811835289001, 0.04479537531733513, -0.3126773238182068, 0.274546355009079, -0.2240016907453537, 0.33558300137519836, -0.13781045377254486, 0.1483830362558365, 0.49695101380348206, 0.39136895537376404], [-0.20384380221366882, 0.2256365716457367, 0.43019089102745056, 0.009777817875146866, 0.2383209764957428, -0.689909040927887, 0.1780870258808136, 0.517722487449646, 0.3020293414592743, -0.00027131993556395173, -0.07195991277694702, 0.2000531405210495, 0.44394776225090027, 0.36539027094841003, -0.24527482688426971, -0.3813347816467285, 0.04727914556860924, 0.30276554822921753, 0.04390130192041397, 0.45882225036621094, 0.19296227395534515, -0.11619194597005844, 0.011885248124599457, -0.18632955849170685, 0.11022645980119705, 0.045172519981861115, -0.2517274022102356, 0.942546546459198, -0.3399694859981537, 0.42605334520339966, -0.27823320031166077, -0.1597268134355545], [-0.08682551234960556, 0.15001735091209412, 0.0378999225795269, -0.28501585125923157, -0.49034780263900757, -0.3762516677379608, 0.26457348465919495, 0.6778740286827087, -0.26781389117240906, 0.26012569665908813, 0.10329099744558334, 0.015816258266568184, 0.2601199150085449, -0.2874724864959717, -0.21415206789970398, -0.7841715812683105, -0.15533632040023804, -0.27035805583000183, -0.517811119556427, 0.23555628955364227, 0.5786176323890686, -0.02423519641160965, -0.2757464051246643, -0.2568466067314148, -0.39443889260292053, -0.40636953711509705, 0.04023925960063934, 0.7831388711929321, 0.24982069432735443, 0.5242245197296143, 0.020899692550301552, 0.369682639837265], [-0.2669256925582886, 0.5921477675437927, 0.47977787256240845, 0.04658891633152962, -0.39997348189353943, -0.510993480682373, 0.306421160697937, 0.04433564469218254, 0.1484227478504181, -0.22339288890361786, 0.12409920990467072, -0.49607810378074646, -0.621134877204895, -0.03233284875750542, -0.3724689185619354, -0.8492044806480408, -0.10728920251131058, 0.03728284314274788, 0.3625327944755554, 0.06128246709704399, -0.02034085802733898, -0.40881720185279846, -0.48621055483818054, 0.0960857942700386, 0.3737884759902954, -0.046362344175577164, -0.33046114444732666, 0.6548138856887817, -0.24512754380702972, 0.5125963687896729, -0.1575784832239151, -0.20098057389259338], [-0.28900179266929626, 0.32966068387031555, 0.5306780338287354, -0.7190096378326416, -0.11933400481939316, -0.23932066559791565, 0.0792340636253357, 0.27471691370010376, 0.23365534842014313, -0.3134807348251343, -0.2777365744113922, -0.16330595314502716, 0.2428579032421112, -0.20731204748153687, -0.6190124154090881, 0.05737574025988579, 0.04843206703662872, -0.03955667093396187, 0.14076083898544312, -0.25959405303001404, 0.3352411687374115, -0.39375272393226624, -0.5334506630897522, 0.22464947402477264, -0.4423355162143707, -0.20756559073925018, -0.19631803035736084, 1.4832592010498047, 0.043316978961229324, 0.0711459293961525, -0.29418396949768066, 0.6077947616577148]], "lstm.weight_hh_l0": [[-0.4128356873989105, -0.20733588933944702, 0.0038863513618707657, 0.010540122166275978, -0.050383929163217545, -0.2816188335418701, -0.14640530943870544, -0.007022763602435589, 0.05000002682209015, -0.049235276877880096, 0.21251121163368225, -0.22267834842205048, 0.022020164877176285, 0.06328397244215012, -0.016241714358329773, -0.412773460149765, 0.04932498186826706, 0.03329916298389435, -0.05210696533322334, 0.14457224309444427, 0.1431669443845749, -0.13318905234336853, 0.06429781764745712, 0.27322816848754883, -0.1767534762620926, -0.30590346455574036, -0.03295625001192093, -0.03874611482024193, -0.1445947140455246, -0.12665441632270813, -0.13305971026420593, -0.012634333223104477], [-0.18385200202465057, 0.22189489006996155, -0.03258950263261795, 0.07185504585504532, -0.17698371410369873, -0.0644388198852539, -0.26747846603393555, 0.03308013081550598, 0.3019604980945587, -0.04089060053229332, 0.017930736765265465, 0.025807106867432594, 0.14989368617534637, -0.2897980809211731, -0.40185871720314026, -0.22250814735889435, 0.10774078220129013, 0.0789879560470581, -0.1343037337064743, 0.08384652435779572, 0.02874801680445671, -0.014290202409029007, 0.042695965617895126, 0.15488053858280182, -0.3797796666622162, -0.3156983256340027, 0.08215931802988052, 0.10284112393856049, -0.1518983691930771, 0.10065903514623642, 0.24711062014102936, 0.0807548388838768], [0.05138320103287697, 0.3461185395717621, -0.41286391019821167, 0.10861320048570633, -0.13873279094696045, -0.038368839770555496, -0.05365797132253647, -0.0360037237405777, -0.13769683241844177, 0.07764042168855667, 0.057786986231803894, -0.15233708918094635, 0.15405678749084473, 0.08820394426584244, -0.0776781439781189, -0.30173105001449585, -0.07779756933450699, -0.054567888379096985, 0.12413240224123001, 0.22157934308052063, -0.045949120074510574, -0.10862670093774796, -0.1756322830915451, -0.05380742996931076, -0.08782684803009033, -0.0753922164440155, -0.35071802139282227, -0.12581773102283478, -0.18476830422878265, -0.1518285572528839, -0.1315045803785324, 0.07142063230276108], [-0.009114493615925312, 0.2187645584344864, 0.11840993911027908, -0.2612795829772949, -0.05345260351896286, -0.2105635404586792, -0.009751827456057072, 0.23070840537548065, -0.18227453529834747, 0.1548069268465042, 0.16117489337921143, -0.38692528009414673, 0.11039234697818756, -0.15188004076480865, -0.2519431710243225, -0.2449495494365692, 0.006984060630202293, 0.03656220808625221, 0.08698808401823044, 0.04704507812857628, 0.1163715198636055, -0.03175163269042969, 0.09701123088598251, -0.03571623936295509, 0.0799260139465332, -0.05082886293530464, -0.0038522123359143734, 0.005130748264491558, -0.375568687915802, 0.11423925310373306, 0.10540910810232162, 0.28778958320617676], [0.05334128066897392, 0.0779794305562973, 0.03197784349322319, -0.054445162415504456, -0.0011031810427084565, -0.19651193916797638, 0.12195931375026703, -0.23060140013694763, -0.03405508026480675, -0.0033432403579354286, 0.14484134316444397, -0.23320341110229492, 0.06736760586500168, 0.04912257567048073, -0.19682981073856354, -0.21253632009029388, -0.21227549016475677, -0.37085095047950745, -0.06316368281841278, -0.053868260234594345, 0.12740249931812286, 0.24677349627017975, 0.08216730505228043, -0.1315859854221344, -0.08254402875900269, 0.07647672295570374, -0.15264275670051575, -0.052509743720293045, -0.31800633668899536, -0.12408649176359177, -0.13815940916538239, -0.04063730686903], [0.04618620499968529, 0.6577130556106567, -0.09047689288854599, 0.042116858065128326, -0.12773501873016357, -0.7510692477226257, 0.42462271451950073, 0.03811747580766678, -0.7027587890625, -0.1284208446741104, -0.1312822848558426, -0.2828802466392517, 0.05311010032892227, -0.25302863121032715, 0.07549509406089783, -1.0033912658691406, 0.21525117754936218, -0.12856213748455048, 0.042746905237436295, -0.22635997831821442, 0.7277308106422424, -0.08248930424451828, -0.07996843755245209, -0.24625210464000702, 0.5510835647583008, 0.0072234333492815495, -0.3777592182159424, -0.8764160871505737, -0.08210987597703934, -0.026240047067403793, -0.271004855632782, 0.16163800656795502], [0.12761110067367554, 0.022785071283578873, 0.02742481231689453, -0.0631396695971489, 0.030273590236902237, -0.22721411287784576, 0.06834769994020462, 0.026887375861406326, -0.24049659073352814, 0.20052939653396606, -0.02921132557094097, -0.05400150641798973, 0.03719916567206383, -0.1303236037492752, 0.28946658968925476, -0.3042614459991455, 0.0037787682376801968, -0.09927450120449066, -0.024581415578722954, -0.019238580018281937, 0.1107015535235405, 0.12995606660842896, 0.010269752703607082, -0.012558335438370705, -0.06332656741142273, 0.05602893978357315, 0.11565130203962326, -0.1494968980550766, -0.10941430926322937, 0.11045161634683609, 0.1230705976486206, 0.08820701390504837], [-0.2198268175125122, 0.0751989558339119, -0.046151384711265564, -0.02362147718667984, -0.2905392050743103, -0.0511912927031517, 0.20534533262252808, 0.18640397489070892, -0.29310667514801025, 0.2580460011959076, 0.10986604541540146, -0.06546609848737717, 0.2795710563659668, -0.14826656877994537, -0.18380200862884521, -0.08484797179698944, 0.22039364278316498, 0.14389392733573914, 0.016186578199267387, 0.09559526294469833, 0.185005784034729, -0.09411672502756119, 0.06200835853815079, 0.10739459097385406, -0.22683708369731903, -0.2023804485797882, -0.002651977352797985, -0.18266265094280243, -0.35376131534576416, 0.12216674536466599, -0.17834965884685516, 0.2182767242193222], [-0.5380178093910217, 0.040597159415483475, -0.3857094943523407, 0.4099859595298767, -0.27584537863731384, -0.2599411606788635, -0.37042856216430664, 0.4904301166534424, 0.16336148977279663, 0.40965160727500916, 0.21314756572246552, 0.5016894340515137, 0.19993875920772552, -0.3403622806072235, -0.1361735314130783, -0.04047456383705139, 0.416236937046051, 0.3610151708126068, -0.3515873849391937, 0.4435475468635559, 0.19625501334667206, -0.4378257691860199, -0.28724604845046997, 0.5252848863601685, -0.33312442898750305, -0.29374098777770996, -0.2417905628681183, 0.3669191896915436, -0.44591885805130005, 0.5116062164306641, 0.335293173789978, 0.2831730246543884], [0.00691396277397871, -0.45071423053741455, 0.48390957713127136, 0.04935213550925255, 0.2582918703556061, -0.05422382429242134, -0.00020538613898679614, -0.03379524126648903, 0.16922086477279663, -0.16469843685626984, -0.11482354253530502, -0.12844794988632202, -0.07000609487295151, 0.21017345786094666, -0.1388382613658905, -0.2191496342420578, -0.050869736820459366, 0.036038823425769806, 0.3048052191734314, -0.08398208767175674, 0.24063420295715332, 0.17694821953773499, 0.00435652444139123, -0.20277824997901917, -0.026883352547883987, -0.020709481090307236, 0.4205361306667328, -0.415576308965683, 0.06019734591245651, -0.00465650437399745, -0.12807786464691162, -0.10986975580453873], [-0.03421507775783539, 0.15418067574501038, 0.00802581012248993, -0.024288974702358246, 0.03201327472925186, -0.263705313205719, -0.2671356499195099, -0.15092305839061737, -0.05367468297481537, -0.08813206106424332, 0.3029533624649048, -0.1919519305229187, 0.3290352523326874, 0.03877115994691849, -0.07765677571296692, 0.16312773525714874, -0.04968398064374924, -0.11834042519330978, -0.05978858843445778, 0.07276614010334015, -0.08123242110013962, -0.03061186522245407, -0.11534284055233002, -0.19709306955337524, -0.057508792728185654, 0.01023430097848177, -0.10602066665887833, -0.1404387354850769, -0.05090644583106041, -0.13712631165981293, -0.06644893437623978, -0.21526114642620087], [-0.24011585116386414, 0.3731461763381958, -0.2570445239543915, -0.056953661143779755, -0.2993374466896057, -0.11074595153331757, 0.21745726466178894, 0.10155260562896729, -0.3837968707084656, 0.2226872742176056, 0.2400978058576584, -0.2689853608608246, 0.13025513291358948, -0.3039228916168213, -0.16340035200119019, -0.03703313693404198, 0.1702646166086197, 0.0749947801232338, 0.04875599592924118, 0.12212933599948883, 0.0499907061457634, -0.20374831557273865, 0.014227968640625477, 0.11796339601278305, -0.04777723550796509, -0.26971539855003357, -0.4307399094104767, -0.049610018730163574, -0.2939167618751526, 0.2042912393808365, 0.29272162914276123, 0.2012942135334015], [-0.1500607132911682, 0.029884176328778267, 0.1222529485821724, -0.06325235217809677, -0.12137377262115479, -0.15963834524154663, -0.14345978200435638, -0.20434367656707764, -0.11909355968236923, -0.00026365192024968565, -0.2826067805290222, -0.30679234862327576, 0.005422575864940882, 0.1261667013168335, -0.06935860961675644, -0.023759959265589714, 0.03245634585618973, -0.14036954939365387, 0.042526643723249435, -0.26612144708633423, 0.11117210239171982, -0.004799025598913431, -0.07745297998189926, -0.22206412255764008, -0.11711316555738449, 0.1427863985300064, -0.04567481577396393, -0.2938227951526642, 0.028485961258411407, -0.00787284504622221, -0.268322616815567, 0.13102522492408752], [-0.036890335381031036, 0.05609288439154625, -0.10164231061935425, -0.23769511282444, 0.362686425447464, -0.48399218916893005, 0.16050149500370026, -0.3268184959888458, -0.23143111169338226, -0.22241033613681793, -0.18334059417247772, -0.6699670553207397, 0.04794630780816078, -0.10050740838050842, -0.19572436809539795, -0.3155949115753174, 0.046998485922813416, -0.3337254524230957, 0.02644803375005722, -0.3159240186214447, 0.1396104097366333, 0.1599896252155304, 0.052453067153692245, -0.1610792577266693, -0.07066581398248672, -0.13100823760032654, -0.09750667214393616, -0.26563650369644165, -0.01124249491840601, -0.13865436613559723, -0.18259412050247192, -0.21563073992729187], [0.08017806708812714, -0.1835789531469345, 0.1479175090789795, -0.10130645334720612, 0.19262078404426575, -0.05748420208692551, -0.2970713973045349, -0.05607243999838829, 0.03550799563527107, 0.021935978904366493, 0.014479129575192928, -0.03476963937282562, -0.1540386974811554, 0.09353938698768616, -0.11016416549682617, -0.3107534945011139, 0.010855870321393013, -0.034123606979846954, 0.20206838846206665, -0.13421575725078583, 0.4460064172744751, 0.14410409331321716, 0.2593573331832886, -0.029877765104174614, -0.2511754333972931, 0.11362037807703018, -0.02200751192867756, -0.11633436381816864, 0.05693502724170685, -0.2109217345714569, -0.05509161204099655, -0.22515244781970978], [0.10183043777942657, -0.271636039018631, 0.033826857805252075, -0.17036862671375275, 0.10074557363986969, -0.4512677490711212, -0.06792370229959488, -0.18884184956550598, 0.5141525864601135, -0.19344675540924072, 0.046527549624443054, -0.11096108704805374, -0.13511310517787933, 0.19427157938480377, 0.2034529149532318, -0.29445430636405945, -0.09013988822698593, -0.0776159018278122, 0.22226420044898987, -0.21294504404067993, 0.1774401217699051, 0.3848472237586975, 0.0914139449596405, -0.09051884710788727, -0.39869895577430725, 0.07740136981010437, 0.35561755299568176, -0.18652428686618805, -0.0950569286942482, -0.290528804063797, -0.12701892852783203, -0.15326958894729614], [-0.31977948546409607, 0.0463031530380249, 0.06896556913852692, -0.1216668039560318, -0.04164092242717743, -0.15627501904964447, -0.007140413857996464, -0.1871335208415985, 0.0355546697974205, -0.1826583743095398, 0.03930523991584778, -0.22061720490455627, 0.03617775812745094, 0.23097831010818481, -0.12864896655082703, -0.24267278611660004, 0.15303055942058563, -0.22652798891067505, 0.29086506366729736, -0.21177884936332703, 0.24712301790714264, 0.17540784180164337, 0.1355130672454834, 0.035547979176044464, -0.1484881043434143, -0.03225937858223915, -0.026990827172994614, -0.147774800658226, -0.03587808832526207, -0.2474929392337799, 0.0007361166644841433, 0.029883798211812973], [-0.29197078943252563, 0.17451409995555878, 0.06442702561616898, 0.03438236564397812, -0.2636987864971161, -0.2546398341655731, 0.09085772186517715, 0.2118677943944931, -0.08775894343852997, 0.13039906322956085, 0.06214342638850212, -0.04712232947349548, -0.05891001224517822, 