{"linear_1.weight": [[0.8359248638153076], [0.9186160564422607], [-0.23427248001098633], [0.9159875512123108], [-0.1523941159248352], [0.06400959193706512], [-0.20554612576961517], [0.587282657623291], [1.1841987371444702], [-0.78038489818573], [0.7824020981788635], [0.11304054409265518], [0.2418156862258911], [0.13543057441711426], [0.23176610469818115], [-0.24751976132392883], [0.7799022793769836], [0.14780890941619873], [-0.46683990955352783], [0.2548983097076416], [-0.46073663234710693], [0.021486841142177582], [-0.3581669330596924], [0.6510176658630371], [-0.5720467567443848], [-0.46198925375938416], [-0.4822160601615906], [-0.601272463798523], [0.6912223696708679], [-0.987679123878479], [0.6129198670387268], [-0.811067521572113]], "linear_1.bias": [0.574250340461731, -0.01330434437841177, -0.32470452785491943, 0.6355460286140442, 0.06413507461547852, -0.06995847821235657, -0.15172456204891205, -0.31537318229675293, 0.2790510654449463, -0.17794813215732574, 0.5379210710525513, -0.07076682150363922, -0.11918377876281738, -0.437172532081604, -0.12667050957679749, 0.11682227998971939, 0.5327498316764832, -0.6095050573348999, -0.9899084568023682, -0.3863605260848999, -0.7670228481292725, -0.03535033389925957, 0.19599571824073792, 0.45003291964530945, 0.2659361660480499, -0.10350783169269562, 0.6552444100379944, -0.7105135917663574, -0.1544913649559021, -0.6825401782989502, 0.42239588499069214, -0.22584141790866852], "lstm.weight_ih_l0": [[-0.22459781169891357, 0.2258773297071457, -0.2396354079246521, 0.15118126571178436, -0.33924296498298645, -0.3310166299343109, -0.3779534101486206, 0.1100926622748375, -0.07730340212583542, 0.16969163715839386, -0.12106862664222717, -0.021689409390091896, -0.051312610507011414, -0.2286173403263092, -0.7202558517456055, -0.7530685067176819, -0.1488204002380371, 0.025041794404387474, -0.1456422656774521, -0.04655490443110466, -0.12264718860387802, -0.09247162193059921, -0.4208991527557373, 0.06941989064216614, -0.5543482303619385, -0.42061299085617065, -0.5106720924377441, -0.12421517074108124, 0.17828989028930664, 0.02509530819952488, 0.20668278634548187, 0.290261834859848], [0.1334865689277649, 0.04904274269938469, -0.19155508279800415, -0.39114582538604736, 0.01174435205757618, 0.2959810793399811, 0.0475551038980484, 0.24833078682422638, 0.41660404205322266, -0.08284980058670044, -0.5551891326904297, -0.2606647312641144, -0.03192783147096634, -0.17186829447746277, 0.4592106342315674, -0.42313775420188904, 0.10579237341880798, -0.14541538059711456, -0.2095337212085724, 0.23281654715538025, 0.5780244469642639, -0.04017734155058861, -0.26961642503738403, 0.6307725310325623, -0.19530509412288666, -0.16045351326465607, -0.5681114792823792, -0.19050362706184387, 0.41349875926971436, -0.4464523494243622, 0.3156200051307678, -0.31186407804489136], [-0.5305077433586121, -0.11799604445695877, 0.27430596947669983, 0.110130175948143, -0.38998958468437195, -0.3153149485588074, -0.3463105857372284, 0.22009125351905823, -0.039220985025167465, 0.11523998528718948, 0.3201996684074402, 0.1763942539691925, -0.3275200426578522, 0.3426893949508667, 0.019349191337823868, -0.3768528699874878, -0.22725750505924225, 0.4325111210346222, 0.07957752794027328, -0.3040158450603485, 0.037192706018686295, 0.47702449560165405, -0.1658938080072403, -0.1680992841720581, 0.16737531125545502, -0.15035958588123322, -0.6887055039405823, -0.3681429326534271, 0.025176718831062317, 0.09118103235960007, -0.08915901929140091, 0.047606851905584335], [0.11105018854141235, 0.39237046241760254, -0.019047759473323822, -0.20760218799114227, -0.28683537244796753, -0.4838874340057373, -0.41987618803977966, -0.02368236891925335, 0.15534521639347076, -0.23339079320430756, 0.0747317522764206, 0.5416668057441711, -0.14151287078857422, 0.2929641604423523, -0.1267152577638626, -0.5942180156707764, 0.12454380095005035, 0.007591139990836382, 0.3300224542617798, -0.3305259346961975, 0.1668674200773239, -0.12500646710395813, -0.7620653510093689, -0.37041348218917847, -0.7997644543647766, -0.14952725172042847, -0.7738152146339417, 0.15021435916423798, 0.36006808280944824, -0.13082167506217957, -0.2804090678691864, 0.28290510177612305], [-0.2504443824291229, 0.1439978927373886, 0.4214678406715393, -0.30400514602661133, -0.265125572681427, -0.2248445451259613, 0.06939679384231567, -0.06023034080862999, 0.026183350011706352, -0.11064978688955307, -0.05767373368144035, -0.13936585187911987, 0.014502025209367275, -0.4067537188529968, -0.18074488639831543, -0.5659319758415222, -0.3501381278038025, -0.061159636825323105, -0.03779669851064682, 0.3142131567001343, 0.2506770193576813, -0.3843713104724884, -0.5655359029769897, -0.02348053641617298, -1.2025781869888306, -0.4180557131767273, -0.2033056616783142, -0.1653710901737213, 0.6965625286102295, 0.07173122465610504, -0.26415660977363586, 0.303646057844162], [0.47589242458343506, 0.3627842366695404, 0.3644362688064575, -0.23138439655303955, -0.13920091092586517, 0.06253085285425186, -0.11858624219894409, 0.26855334639549255, 0.03375343605875969, 0.23293671011924744, -0.5375104546546936, 0.15287861227989197, -0.014839785173535347, -0.6439707279205322, 0.15972189605236053, -0.10470166057348251, -0.09903659671545029, -0.44537514448165894, -0.3730004131793976, 0.28353768587112427, -0.2619079649448395, 0.1142919510602951, -0.1737242341041565, 0.05058491230010986, -0.4397141635417938, 0.03921447694301605, -0.1504371613264084, -0.01606767438352108, 0.5948531031608582, -0.07153673470020294, -0.31695470213890076, 0.06420979648828506], [-0.026656869798898697, 0.6762415766716003, 0.23033683001995087, 0.09028282016515732, 0.26090529561042786, 0.14083483815193176, 0.22205011546611786, -0.09330146759748459, 0.7374516725540161, 0.4425349831581116, 0.38770657777786255, 0.119831383228302, 0.16307736933231354, 0.16854225099086761, 0.37106454372406006, 0.17720818519592285, 0.18720969557762146, 0.035539209842681885, 0.5119598507881165, -0.27579542994499207, -0.4619351029396057, 0.19114288687705994, 0.13419778645038605, 0.24406713247299194, 0.17700958251953125, 0.040543682873249054, 0.29816344380378723, -0.39078083634376526, 0.7622348070144653, 0.17491136491298676, 0.10293613374233246, 0.8794574737548828], [0.12065575271844864, 0.5834871530532837, -0.30954399704933167, -0.35109999775886536, -0.47965240478515625, -0.06053142249584198, 0.24630524218082428, 0.2712114751338959, 0.8193835616111755, -0.4154824912548065, -0.008238366805016994, -0.31553831696510315, 0.13183289766311646, -0.4022441804409027, 0.08870966732501984, -0.4310671389102936, -0.39269399642944336, 0.42725086212158203, 0.0036865409929305315, -0.007004543673247099, 0.1932460367679596, -0.08370980620384216, -0.335476279258728, 0.1437063217163086, -0.0872858315706253, -0.19513335824012756, 0.055550288408994675, 0.06483222544193268, 0.7003461718559265, -0.10585841536521912, 0.11531031876802444, -0.502184271812439], [0.4320877194404602, 0.6312040686607361, -0.03752311319112778, -0.1981406956911087, -0.5315777063369751, -0.2823370695114136, -0.17203141748905182, 0.19086827337741852, 0.3890612721443176, -0.08948910236358643, 0.016470953822135925, -0.3004850447177887, 0.40969011187553406, 0.4242264926433563, -0.392753005027771, -0.22036992013454437, 0.12795335054397583, -0.38885992765426636, -0.12653827667236328, 0.21621929109096527, 0.17406509816646576, 0.21169088780879974, -0.6712478399276733, -0.2610084116458893, -0.41760340332984924, 0.0022789561189711094, -0.6151173710823059, 0.14617733657360077, 0.10380484163761139, -0.17553041875362396, -0.4416198134422302, -0.017562346532940865], [-0.1601470410823822, 0.1694113165140152, 0.07690652459859848, 0.31263649463653564, -0.20191790163516998, -0.4519971013069153, -0.1960393190383911, 0.04375064745545387, 0.6452582478523254, 0.04302700236439705, 0.015069784596562386, 0.15224933624267578, -0.09305691719055176, 0.028063874691724777, 0.1625826507806778, -0.3616005480289459, -0.09716977924108505, -0.08647090196609497, -0.048846285790205, -1.147621750831604, -0.5130724310874939, -0.20523692667484283, -0.23088279366493225, -0.3026684820652008, -0.34941837191581726, -0.1621704250574112, -0.11880483478307724, 0.17674903571605682, 0.06260793656110764, -0.25483134388923645, 0.20750035345554352, 0.2784518003463745], [-0.04085909575223923, -0.5479699373245239, 0.4284399151802063, -0.7980918288230896, 0.19201688468456268, -0.1394641399383545, -0.4550861716270447, -0.29119443893432617, -1.1084579229354858, -0.2983859181404114, -0.780396580696106, -0.28154832124710083, -0.3894102871417999, -0.2010340392589569, -0.48505133390426636, 0.24558667838573456, -0.6656609773635864, 0.39125752449035645, -0.2416190207004547, 0.04166434332728386, 0.3885730803012848, -0.011538969352841377, -0.017681390047073364, -0.48841848969459534, -0.3914659023284912, -0.31927490234375, -0.40430203080177307, -0.11062406003475189, 0.17508108913898468, 0.16285283863544464, -0.7107639312744141, 0.24404679238796234], [0.019329002127051353, 0.10907188802957535, 0.09887226670980453, 0.02464454062283039, -0.6075641512870789, 0.028555335476994514, -0.05318674445152283, -0.30893614888191223, 0.05945425108075142, 0.18904012441635132, -0.1457134485244751, -0.3417513370513916, -0.1288788616657257, 0.13666924834251404, 0.2913285493850708, -0.4618697166442871, -0.29919907450675964, 0.49755701422691345, -0.3115277588367462, -0.1430370807647705, 0.09282969683408737, -0.2640593945980072, -0.16683687269687653, -0.12900573015213013, -0.5459128618240356, 0.07940509915351868, -0.7889114618301392, -0.31709015369415283, -0.19545413553714752, -0.44078198075294495, -0.33901843428611755, 0.4880508780479431], [0.08997394889593124, 0.40598657727241516, -0.006972296629101038, -0.29120710492134094, -0.43447932600975037, 0.20674411952495575, -0.2793222963809967, 0.23327359557151794, 0.20065908133983612, 0.2968945801258087, 0.5292984843254089, 0.09011654555797577, -0.09269355237483978, 0.300366073846817, -0.2825140953063965, -0.368150919675827, 0.03338655084371567, 0.16834208369255066, 0.06066867709159851, 0.22415903210639954, -0.3602084219455719, -0.07824449241161346, -0.26806238293647766, 0.010782315395772457, -0.33179348707199097, -0.024992968887090683, -0.3011806607246399, 0.2625299394130707, 0.634577751159668, -0.1387001872062683, -0.18776725232601166, 0.5020617842674255], [0.4127151072025299, -0.3684369623661041, -0.21306146681308746, -0.1891086995601654, -0.3419533967971802, 0.18342304229736328, 0.022740444168448448, 0.2434142380952835, 0.30778205394744873, 0.1306835561990738, -0.18123485147953033, 0.16963593661785126, 0.06485459953546524, -0.044379014521837234, -0.17431478202342987, -0.0833725705742836, -0.17105716466903687, -0.042847879230976105, 0.07252728193998337, 0.018998688086867332, 0.11311542242765427, -0.25692519545555115, -0.07758286595344543, 0.19543974101543427, -0.49179911613464355, 0.20036859810352325, 0.098063625395298, -0.09953241795301437, 0.7627830505371094, 0.109596386551857, 0.03509281948208809, 0.22515098750591278], [0.33536475896835327, 0.6075692176818848, 0.06394079327583313, -0.8086079955101013, -0.2031460702419281, 0.057600706815719604, 0.2764897644519806, 0.023699164390563965, 0.42586854100227356, 0.27836087346076965, 0.5225512981414795, -0.2773933410644531, -0.0003444570756983012, -0.1706254929304123, -0.11897936463356018, 0.06386453658342361, -0.5560011267662048, 0.11307138204574585, 0.01940532587468624, 0.1759289652109146, -0.3962465822696686, -0.1527816355228424, -0.28717315196990967, -0.2614469826221466, -0.15223704278469086, -0.25136223435401917, -0.10249851644039154, 0.10448725521564484, 0.8834491968154907, 0.3147040009498596, -0.002701951190829277, 0.31755876541137695], [-0.7833274602890015, 0.7144401669502258, -0.024163898080587387, -0.19260351359844208, -0.08623234927654266, 0.3697546422481537, -0.22232794761657715, 0.028705012053251266, -0.053173892199993134, -0.1357763409614563, -0.17854510247707367, -0.17436978220939636, -0.2085106521844864, -0.20964978635311127, -0.1823687106370926, -0.3638772964477539, -0.14737747609615326, 0.30198198556900024, 0.2164488434791565, -0.028780654072761536, -0.051713310182094574, -0.15943051874637604, -0.1612384170293808, -0.0864357203245163, -0.2779149115085602, -0.5170390605926514, -0.38721898198127747, -0.5735041499137878, 0.4921608567237854, -0.029178036376833916, -0.5697330236434937, 0.14082957804203033], [-0.5236425399780273, -0.015350471250712872, 0.22917865216732025, -0.26635971665382385, -0.7339338064193726, -0.2417370080947876, 0.1592019498348236, -0.023940492421388626, 0.1206715777516365, 0.2762131989002228, -0.09991765022277832, -0.21511559188365936, 0.07664158195257187, 0.20073926448822021, -0.3509335517883301, -0.18778486549854279, 0.047852277755737305, -0.05446513742208481, 0.06373598426580429, 0.44721558690071106, 0.2094632387161255, -0.3177778124809265, -0.9194378852844238, 0.2241007387638092, -0.6505979895591736, -0.24243134260177612, -0.6042666435241699, 0.20494863390922546, -0.047302667051553726, -0.3751113712787628, -0.37596821784973145, 0.06621593236923218], [0.3017925024032593, 0.5943024754524231, -0.11648089438676834, -0.3285367786884308, 0.34172144532203674, 0.13761070370674133, -0.25456562638282776, 0.28136053681373596, 0.38368895649909973, 0.34430426359176636, 0.01400857511907816, 0.4355407655239105, -0.24398888647556305, -0.2642534077167511, 0.22820518910884857, -0.24889150261878967, 0.27168962359428406, -0.029263807460665703, 0.06079193204641342, -0.4758239686489105, -0.37801748514175415, -0.0477311909198761, -0.6060042977333069, -0.1343170553445816, -0.17165587842464447, -0.2894909083843231, -0.49366438388824463, 0.3662252426147461, 0.6659610271453857, 0.01998746767640114, -0.523844838142395, 0.25502726435661316], [-0.06236167997121811, 0.3518292307853699, 0.15605349838733673, 0.027638159692287445, 0.1478736400604248, -0.5567412972450256, -0.08658039569854736, -0.2996317148208618, 0.19845162332057953, 0.18353378772735596, 0.43134331703186035, 0.1505519598722458, 0.07715627551078796, -0.2746187448501587, -0.08856809139251709, 0.07483018934726715, -0.2581035792827606, -0.1726822704076767, 0.09905418008565903, -0.6336913704872131, -0.3486466705799103, -0.49649035930633545, -0.12780092656612396, 0.2812016010284424, 0.04720153287053108, -0.26003462076187134, -0.5967435836791992, -0.36422672867774963, 1.4656227827072144, -0.27134740352630615, 0.20325136184692383, 0.263161838054657], [-0.20692434906959534, 0.3365544378757477, 0.10528300702571869, -0.3951801359653473, -0.07515160739421844, -0.32386067509651184, 0.33948779106140137, 0.23244665563106537, 0.11784101277589798, 0.11186999827623367, 0.20893999934196472, -0.15387137234210968, -0.2570527493953705, -0.04615585133433342, -0.06723523139953613, -0.4029616117477417, -0.01692127250134945, 0.15967048704624176, -0.23129937052726746, 0.11983557045459747, 0.01983552798628807, 0.03902537003159523, -0.13952362537384033, -0.1545066386461258, -0.24239543080329895, -0.12524446845054626, 0.06224633380770683, -0.25773710012435913, 0.2855880558490753, 0.13719648122787476, -0.37638166546821594, 0.007085493765771389], [0.11622827500104904, -0.12980347871780396, -0.23342163860797882, -0.22051787376403809, -0.5301949977874756, -0.37905919551849365, 0.02485049143433571, 0.1764737367630005, 0.395352303981781, -0.26394233107566833, 0.3573608696460724, -0.07817115634679794, -0.07299651205539703, -0.20254667103290558, 0.1428331732749939, -0.6043915152549744, -0.05004455894231796, -0.30646389722824097, -0.21241530776023865, 0.4166947603225708, 0.12244472652673721, -0.0025838210713118315, -0.07679303735494614, -0.33612510561943054, 0.04785546287894249, -0.15734459459781647, -0.1648595780134201, -0.4064294099807739, 0.730750322341919, 0.22384929656982422, 0.17809608578681946, 0.3467942774295807], [-0.08250880241394043, -0.10737906396389008, -0.3245195150375366, -0.4137478172779083, -0.20201842486858368, -0.11049606651067734, -0.16745197772979736, 0.1588849574327469, 0.10234352946281433, -0.051596395671367645, -0.41025084257125854, 0.1802794188261032, -0.4313332438468933, -0.2180822193622589, -0.05767875909805298, -0.6116397976875305, -0.001746291178278625, 0.13020949065685272, 0.2939133644104004, -0.0428168959915638, -0.18785738945007324, -0.4229993522167206, -0.22624951601028442, -0.2559118866920471, -0.21809101104736328, 0.17097912728786469, -0.6406303644180298, 0.024153081700205803, 0.11509199440479279, -0.1086026281118393, -0.16877298057079315, 0.45766592025756836], [0.09048287570476532, 0.22951379418373108, 0.07071402668952942, -0.08315299451351166, -0.37564516067504883, -0.13145697116851807, -0.3661653399467468, 0.12508422136306763, 0.644338071346283, -0.3243100047111511, 0.04347936436533928, -0.1392599493265152, 0.19985884428024292, 0.41746312379837036, 0.22637882828712463, -0.313001811504364, 0.014409038238227367, 3.677962740766816e-05, 0.06797826290130615, -0.2641274631023407, -0.21324856579303741, 0.15380021929740906, -0.24830558896064758, -0.024083571508526802, -0.12075179815292358, 0.16074149310588837, 0.14210253953933716, -0.2920025587081909, 0.6447166204452515, -0.3446926474571228, 0.1804218888282776, 0.11743848025798798], [0.19779789447784424, 0.4960688352584839, 0.11406347900629044, -0.3642107844352722, -0.27333328127861023, 0.06402502208948135, 0.035842087119817734, -0.21834716200828552, 1.129927396774292, -0.1738765388727188, -0.08128970861434937, -0.16052384674549103, 0.052934493869543076, -0.4618234932422638, -0.3219675123691559, -0.4279555082321167, -0.03609225153923035, -0.26743587851524353, -0.10781750828027725, -0.4149417579174042, 0.020494582131505013, 0.19215364754199982, -0.304391086101532, 0.015349502675235271, -0.08414119482040405, -0.033968836069107056, -0.08373969793319702, 0.04372607544064522, 0.8291456699371338, -0.4724223017692566, -0.20094923675060272, -0.04250546172261238], [-0.11156156659126282, 0.3325144052505493, -0.08983509987592697, 0.11524949967861176, 0.05876598507165909, -0.10766281932592392, 0.20498447120189667, -0.11875518411397934, 0.3488919734954834, 0.05643988773226738, -0.13203158974647522, -0.01278386265039444, 0.7715675234794617, 0.18470418453216553, 0.1674262434244156, 0.28928327560424805, 0.05664146691560745, -0.27350589632987976, -0.134521484375, -0.21829067170619965, 0.5274247527122498, 0.6148781776428223, 0.25079575181007385, -0.23344546556472778, -0.06181008741259575, 0.03162090480327606, -0.08251149952411652, 0.04680308327078819, 1.0578007698059082, -0.36836445331573486, 0.3160678744316101, 0.5161333084106445], [-0.18281175196170807, 0.18464596569538116, -0.7327833771705627, -0.3163226544857025, -0.07007467746734619, 0.15316890180110931, -0.1905801147222519, 0.30831870436668396, 0.1903894692659378, 0.04911082610487938, -0.5919095873832703, -0.2807973623275757, 0.24686041474342346, 0.26604244112968445, 0.46891653537750244, -0.44952791929244995, -0.22921748459339142, 0.2580523192882538, -0.47028279304504395, 0.28491607308387756, -0.07684893906116486, 0.46872857213020325, -0.01784929819405079, -0.2681107223033905, -0.6852855086326599, 0.12107668071985245, -0.41706913709640503, -0.06500405073165894, -0.08382779359817505, 0.13606488704681396, -0.21308955550193787, -0.20513014495372772], [-0.21910704672336578, 0.6638942956924438, -0.003944950643926859, 0.49113157391548157, -0.08651016652584076, 0.009096570312976837, 0.05719361826777458, -0.4864201247692108, 0.2799829840660095, -0.47754499316215515, -0.34573155641555786, 0.026597654446959496, -0.25599321722984314, -0.17621278762817383, 0.036562077701091766, -0.24286288022994995, 0.14589639008045197, 0.2571658492088318, -0.19012655317783356, 0.3229956328868866, -0.4550362527370453, 0.07450088858604431, -0.40825796127319336, -0.026150409132242203, -0.29699867963790894, -0.5348966717720032, 0.1857011318206787, 0.16639958322048187, 0.33963868021965027, -0.1123805046081543, 0.24030813574790955, -0.36648985743522644], [-0.06314684450626373, 0.25653865933418274, 0.04055286571383476, 0.015145925804972649, 0.1451762169599533, 0.26406651735305786, -0.32376471161842346, -0.35932794213294983, 0.20934763550758362, -0.08471161127090454, 0.09778162091970444, 0.1916692554950714, 0.10853483527898788, -0.0408049076795578, -0.003543034428730607, 0.31640762090682983, 0.07097689807415009, 0.33289510011672974, 0.020033828914165497, 0.45573869347572327, -0.006314091384410858, -0.260648250579834, 0.3221203684806824, 0.016201253980398178, -0.1795862317085266, -0.07992205023765564, -0.14510856568813324, -0.13545115292072296, 0.5246753692626953, 0.1789310872554779, -0.08802328258752823, -0.006844381336122751], [-0.21969012916088104, -0.28095951676368713, -0.03150616213679314, -0.33266422152519226, -0.03420373424887657, -0.7698583602905273, 0.08349936455488205, -0.025399858132004738, 0.21229271590709686, 0.6940008997917175, -0.38702192902565, -0.12181367725133896, 0.13849641382694244, 0.05457443371415138, -0.1546647995710373, -0.03369354084134102, 0.27206024527549744, -0.08234719932079315, 0.3260982632637024, 0.4514332711696625, 0.34215861558914185, 0.15906411409378052, -0.5814157128334045, 0.028073977679014206, -0.8221959471702576, -0.07628479599952698, -0.5410891771316528, -0.061925821006298065, 0.653207540512085, -0.21410532295703888, -0.32828977704048157, 0.3231941759586334], [-0.2784371078014374, 0.5227159857749939, 0.6170981526374817, 0.08272650837898254, -0.47287407517433167, -0.164277583360672, -0.08855211734771729, 0.1626807302236557, 0.2484031319618225, 0.035858482122421265, 0.14137719571590424, 0.28672489523887634, -0.2295674979686737, -0.15060701966285706, -0.18344257771968842, -0.4614473581314087, -0.03813847154378891, -0.2030704915523529, -0.334981769323349, -0.1837216317653656, -0.5503631830215454, -0.01994183473289013, -0.2142772525548935, 0.07406043261289597, -0.04561324417591095, -0.1847221404314041, -0.16588445007801056, -0.07085917890071869, 0.6297473907470703, 0.17488378286361694, 0.020971668884158134, 0.1780843883752823], [-0.0981617346405983, 0.4338478446006775, -0.11113600432872772, -0.2518255114555359, 0.07566825300455093, -0.5102965235710144, 0.2544470429420471, 0.16060154139995575, 0.40955761075019836, 0.08652745187282562, -0.5961084365844727, -0.3244755268096924, 0.2042626142501831, -0.21784727275371552, 0.27557533979415894, -0.47404998540878296, 0.25847354531288147, 0.11149396747350693, 0.025414982810616493, 0.2692527174949646, 0.32146814465522766, 0.2823921740055084, -0.42449837923049927, -0.10798145830631256, -0.11017506569623947, 0.21517421305179596, -0.13048642873764038, 0.18724238872528076, 0.6766614317893982, 0.05900875851511955, 0.25093722343444824, 0.10407591611146927], [0.11110421270132065, 0.2356054037809372, 0.32741355895996094, 0.24014908075332642, 0.08634631335735321, 0.6623125672340393, -0.023314498364925385, -0.26061898469924927, 0.27859678864479065, 0.09996442496776581, 0.3580597937107086, -0.13666827976703644, 0.21332038938999176, 0.026900405064225197, 0.26396968960762024, -0.3098595142364502, -0.4823610484600067, 0.0900401845574379, 0.14777199923992157, 0.33616384863853455, -0.4582447111606598, -0.004250762984156609, -0.11067938059568405, -0.3608565628528595, -0.10853064805269241, -0.08691124618053436, -0.32068461179733276, 0.5154590606689453, 0.03426549956202507, 0.3784916400909424, 0.1299576610326767, -0.04792004078626633], [-0.9234907031059265, 0.12165524065494537, -0.4434954524040222, -0.9660467505455017, 0.0951731950044632, -0.5001185536384583, -0.25577312707901, 0.09841901063919067, -0.47222277522087097, -0.2426876276731491, -1.5354186296463013, -0.3308170437812805, -0.6022104024887085, -0.20235784351825714, -0.5363776087760925, -0.20790673792362213, -1.145251989364624, -0.17161931097507477, 0.13532596826553345, -0.11579181253910065, -0.09205357730388641, -0.5237786173820496, -0.18600793182849884, -1.0004079341888428, -0.6333004236221313, -0.30496981739997864, -0.8189551830291748, 0.1731671690940857, 0.06781353801488876, 0.16174691915512085, -0.9318763613700867, 0.2133871167898178], [-0.17768870294094086, -0.3509168326854706, -0.03170081973075867, -0.5544236898422241, -1.0777474641799927, -0.5074138641357422, -0.27269649505615234, 0.4277053773403168, -0.23460912704467773, -0.9687604308128357, -0.2948039770126343, -0.7744640707969666, -0.27282312512397766, 0.41509196162223816, -0.6392093896865845, -0.6742527484893799, 0.1615046262741089, -0.12826620042324066, -0.044133834540843964, -0.20680567622184753, 0.36275893449783325, -0.4978272318840027, -1.0006470680236816, -0.08664612472057343, -0.8231934905052185, -0.6348828673362732, -0.4784296452999115, 0.32283997535705566, -0.0233162734657526, 0.07326183468103409, -0.5051128268241882, -0.42328229546546936], [-1.3330941200256348, -0.26965898275375366, 0.03566094487905502, -1.4625147581100464, 0.056482646614313126, -0.8562532067298889, -0.30183863639831543, 0.1065809577703476, -0.309922456741333, 0.2552598714828491, -1.3512063026428223, -0.3516174256801605, -1.0928232669830322, -0.07357151061296463, -0.7298688292503357, -0.18139435350894928, -1.4960111379623413, -0.0207213144749403, -0.1163814589381218, 0.4940650761127472, 0.21245861053466797, -0.6178076267242432, -0.31747758388519287, -1.2430429458618164, -0.013917280361056328, -0.6314105987548828, -0.44462618231773376, -0.10414250940084457, 0.2548210024833679, 0.08756151795387268, -1.4190727472305298, 0.4725033938884735], [-0.41485220193862915, -0.3928743302822113, -0.7255876064300537, -0.22472593188285828, -0.7279924750328064, -0.8896579146385193, -0.520327627658844, -0.4140360951423645, -0.3648594319820404, -0.10845030099153519, -0.7888960838317871, -0.5178519487380981, -0.6189905405044556, 0.2848125398159027, -0.7552099227905273, -0.8921302556991577, -0.40384647250175476, -0.15415751934051514, 0.26823219656944275, 0.2142745405435562, -0.18145252764225006, -0.5658313632011414, -1.416569709777832, -0.48116543889045715, -1.4394795894622803, -0.21945588290691376, -0.941899299621582, 0.31256237626075745, 0.1082485169172287, -0.1525399535894394, -0.2726077735424042, -0.406442254781723], [-0.5867756605148315, -0.3941185474395752, -0.25979140400886536, -1.3076603412628174, -0.5257900953292847, -0.44739294052124023, -0.11422814428806305, 0.5215606689453125, -0.4972248375415802, -0.4022041857242584, -1.7622686624526978, -0.012033592909574509, -1.2365158796310425, 0.158344104886055, -0.3595491945743561, -0.41587215662002563, -0.8874207735061646, 0.001794532872736454, -0.27356788516044617, 0.41793546080589294, 0.060795821249485016, -0.5731436014175415, -0.2603059411048889, -1.087712049484253, -0.4448360204696655, -0.2437807023525238, -0.3793335556983948, 0.06430566310882568, 0.03987401723861694, 0.3927028179168701, -0.645237147808075, -0.25646182894706726], [-0.8399266004562378, -0.5861455798149109, 0.1741224080324173, -1.0224298238754272, -0.7973129749298096, -0.4482616186141968, -0.46377745270729065, 0.014113204553723335, 0.06973825395107269, -0.3858388066291809, -0.9880433082580566, -0.4601130187511444, -0.3007414937019348, 0.23835666477680206, -0.3134607672691345, 0.2172708660364151, -0.7619297504425049, -0.04781368002295494, 0.2031196504831314, 0.24063463509082794, 0.38205382227897644, -0.852615475654602, -0.7032557129859924, -1.0758657455444336, -0.737889289855957, -0.3446809947490692, -1.1634445190429688, 0.10906334966421127, -0.2808365225791931, -0.41449421644210815, -0.9119890928268433, -0.22276712954044342], [-0.5739745497703552, 0.14220620691776276, 0.2603016793727875, -0.4563681185245514, -0.14511458575725555, -0.01967472955584526, -0.6740593314170837, -0.08362449705600739, -0.28636518120765686, 0.34345051646232605, -0.0731564536690712, 0.02888978086411953, -0.4327605366706848, -0.09467943757772446, 0.09949804842472076, -0.514021635055542, -0.08915981650352478, 0.0009191775461658835, -0.8677726984024048, 0.13107869029045105, 0.22167851030826569, -0.1101987436413765, -0.181991845369339, -0.21684443950653076, -0.35552525520324707, -0.3748275935649872, -0.7538867592811584, -0.3230304718017578, 0.916330099105835, 0.02538212761282921, -0.5322144031524658, 0.17782893776893616], [-0.666793167591095, -0.0426185242831707, -0.09689448773860931, -0.4146995544433594, -0.44742047786712646, -0.4325554072856903, -0.2530086636543274, 0.2722802758216858, -0.34703147411346436, -0.6613402962684631, -0.40057674050331116, -0.15832693874835968, -0.4935929477214813, -0.029033105820417404, -0.3683167099952698, -0.854130744934082, -0.5476507544517517, -0.06633467227220535, 0.14454385638237, 0.38317006826400757, -0.10335028171539307, -0.5316183567047119, -0.7343528866767883, -0.881632387638092, -0.6393436193466187, -0.2511015236377716, -1.0072039365768433, 0.3993348777294159, 0.05620832368731499, 0.18092505633831024, -0.185850590467453, -0.27335333824157715], [0.0839427188038826, 0.6078507304191589, -0.08570417761802673, -6.069073060643859e-05, -0.6061398386955261, -0.033018313348293304, -0.6437029242515564, -0.13224396109580994, -0.1906614750623703, -0.9120527505874634, -0.0730944350361824, -0.3145536780357361, -0.0022832255344837904, -0.16035474836826324, -0.3981977701187134, -0.760803759098053, 0.1967579573392868, 0.20931172370910645, 0.486275315284729, -0.41853395104408264, 0.22429729998111725, -0.037347130477428436, -0.41257163882255554, -0.37220582365989685, -0.21737569570541382, -0.26514697074890137, -0.700310468673706, -0.34982872009277344, 0.14396272599697113, 0.11440381407737732, 0.009028371423482895, 0.046486835926771164], [-0.6095072031021118, -0.32319459319114685, 0.03645232319831848, -0.3421914577484131, -0.658287525177002, -0.32110556960105896, 0.01599472016096115, -0.09203767776489258, 0.20933395624160767, -0.3621130883693695, -0.41502147912979126, -0.29392552375793457, -0.6282662749290466, 0.6268057823181152, -0.6599151492118835, -0.761890172958374, -0.36565640568733215, -0.17422349750995636, 0.09481062740087509, 0.07122793048620224, -0.12359386682510376, -0.5049912333488464, -0.7439969778060913, -0.5388413071632385, -0.9100443720817566, -0.44067203998565674, -1.13752019405365, 0.12954361736774445, 0.27650338411331177, 0.15603961050510406, -0.4576966464519501, -0.8874021768569946], [0.3425622582435608, -0.7214549779891968, 0.4807802736759186, -0.40720298886299133, -0.12898877263069153, -0.13942064344882965, 0.4147113561630249, 0.15364490449428558, -0.8557001948356628, 0.09909510612487793, -0.4400879442691803, 0.09199243038892746, -0.1449451446533203, 0.0012136375298723578, -0.2725606858730316, -0.04833267256617546, -0.40464967489242554, -0.015190263278782368, 0.057218536734580994, -0.05799388885498047, -0.37236398458480835, 0.4549722671508789, -0.04598930478096008, -0.004938554484397173, -0.4658830463886261, -0.32683202624320984, 0.03673578426241875, -0.21527375280857086, 0.07708647847175598, 0.2012694627046585, -0.2997080087661743, 0.02869247831404209], [-1.0621181726455688, -0.6759050488471985, -0.19325485825538635, -0.8737932443618774, -0.48821887373924255, -0.18655405938625336, 0.010096491314470768, -0.062434639781713486, -0.3975607752799988, 0.008045783266425133, -0.7984186410903931, -0.180307999253273, -0.5059380531311035, -0.46093854308128357, -0.22652053833007812, -0.8900737166404724, -0.6965864896774292, 0.1906721591949463, -0.32503989338874817, 0.37869730591773987, -0.019952157512307167, -0.5630908012390137, -0.8887952566146851, -1.0681613683700562, -0.4494560956954956, -0.16291390359401703, -0.9597956538200378, 0.01311651710420847, -0.2859957218170166, 0.12452636659145355, -0.6694397330284119, 0.11518944799900055], [-1.277484655380249, -0.18304266035556793, -0.17678630352020264, -0.9216257333755493, -0.5867393016815186, -0.4985215961933136, -0.2954011857509613, -0.028844764456152916, -0.029246436432003975, -0.23409339785575867, -0.8929342031478882, -0.1575143039226532, -0.8470900058746338, 0.3343980312347412, -0.6551122665405273, -0.0002242417831439525, -1.2617897987365723, -0.180247500538826, 0.08453589677810669, 0.05107710510492325, 0.03438771888613701, -1.1091948747634888, -0.10652592033147812, -1.149849772453308, -0.5739516019821167, -0.40066370368003845, -0.8570707440376282, -0.07915021479129791, 0.4938335418701172, 0.37894126772880554, -1.0301403999328613, -0.15402008593082428], [-0.3842197358608246, -0.4429188370704651, -0.0671776682138443, -0.5227567553520203, -0.575512170791626, -0.9123794436454773, 0.25755593180656433, -0.16804224252700806, -0.27765560150146484, -0.43046846985816956, -0.7969468235969543, -0.25450804829597473, -0.3286779820919037, -0.6159943342208862, -0.20171646773815155, -0.9499400854110718, -0.8111827373504639, 0.018481390550732613, -0.08923820406198502, 0.047989655286073685, -0.16280831396579742, -0.31505587697029114, -0.46846726536750793, -0.48402169346809387, -0.8607708811759949, -0.2746444642543793, -0.7964338064193726, 0.48521140217781067, 0.3483029901981354, 0.16946715116500854, -0.9602121710777283, -0.1713087260723114], [-1.3733326196670532, 0.027504991739988327, -0.0987805724143982, -1.192499041557312, -0.585957407951355, -0.4238543212413788, 0.19707433879375458, 0.3501878082752228, -0.2661832571029663, -0.4401569068431854, -0.8718467950820923, 0.1245732307434082, -1.0891269445419312, -0.15883247554302216, -0.5376578569412231, -0.28474515676498413, -1.0974547863006592, 0.030501142144203186, -0.030458632856607437, 0.23402346670627594, -0.07122122496366501, -0.17226827144622803, -0.30067765712738037, -1.0994980335235596, -0.5080437660217285, -0.395368754863739, -0.15905164182186127, -0.041879069060087204, 0.025201359763741493, 0.11630211025476456, -1.1782742738723755, -0.13033033907413483], [-0.9887548685073853, 0.23983891308307648, 0.03621640056371689, -0.6728011965751648, -0.3560395836830139, -0.6299352049827576, 0.1183318942785263, 0.20513683557510376, -0.05683373659849167, 0.024509282782673836, -0.3519791066646576, 0.3474388122558594, -0.4254336953163147, -0.23745769262313843, -0.1412247270345688, -0.4528052806854248, -0.26424306631088257, -0.3088439404964447, 0.2293435037136078, 0.14382211863994598, 0.1737484633922577, -0.30927082896232605, -0.6388599276542664, -0.32460707426071167, -0.22855310142040253, -0.23699688911437988, -0.14390675723552704, 0.06921499967575073, 0.7450822591781616, 0.03885503485798836, -1.227677822113037, 0.005672503728419542], [-0.8346735835075378, -0.6235283613204956, 0.04051712900400162, -1.1427263021469116, 0.1458161473274231, -0.09392997622489929, -0.14359024167060852, -0.34949299693107605, -0.10994574427604675, -0.035730570554733276, -1.0309761762619019, -0.1550462543964386, -0.6817818880081177, -0.010072636418044567, -0.6126967072486877, -0.2584313750267029, -0.6730048060417175, -0.2113921344280243, 0.22432327270507812, 0.06824979186058044, 0.06553861498832703, -0.08212307095527649, -0.3885907232761383, -0.6250749826431274, -0.5500949621200562, -0.5049331188201904, -0.7473000288009644, -0.07410391420125961, -0.059417642652988434, -0.04649955779314041, -0.4422992169857025, 0.36400797963142395], [-1.1263710260391235, -0.5428176522254944, 0.0689217671751976, -0.8896543979644775, -0.6045665144920349, -0.7930365800857544, -0.4466589093208313, -0.5063918232917786, -0.6141977906227112, -0.3991025686264038, -0.5172412991523743, -0.7843011021614075, -0.3876916170120239, 0.15609723329544067, -0.10601922869682312, -0.6885074377059937, -1.015847086906433, 0.3086211383342743, 0.18884223699569702, 0.11903805285692215, 0.22857309877872467, -0.9824420213699341, -1.011907935142517, -0.8826699256896973, -1.3237266540527344, -0.5171546936035156, -1.6604399681091309, -0.3257315754890442, -0.15259861946105957, -0.08910170197486877, -0.7448399066925049, -0.09417666494846344], [0.023785144090652466, 0.28730976581573486, -0.257016658782959, 0.14071732759475708, -0.11349174380302429, -0.21422404050827026, 0.2115323394536972, -0.048758722841739655, 0.32454073429107666, -0.23232056200504303, -0.08563119173049927, -0.06202642247080803, 0.08435946702957153, -0.31411582231521606, -0.11810033768415451, -0.3799530863761902, 0.4120000898838043, 0.03736817091703415, 0.10644332319498062, -0.12290338426828384, 0.17522208392620087, -0.1661400943994522, -0.45862698554992676, -0.3465334177017212, -0.2500363886356354, 0.10894549638032913, 0.09936129301786423, 0.3998706638813019, 0.6705474257469177, 0.41831958293914795, -0.11104846745729446, 0.04576720669865608], [-0.5941064953804016, -0.6595075726509094, -0.01866910420358181, -0.452176034450531, -0.7278542518615723, -0.28989121317863464, 0.034925539046525955, 0.5925482511520386, -0.6563041806221008, -0.21856798231601715, -0.4069121181964874, -0.27885159850120544, -0.3586697280406952, 0.036058854311704636, -0.3211077153682709, -0.5756422877311707, -0.7790325880050659, -0.3489275872707367, -0.07121055573225021, 0.26082760095596313, 0.4914666712284088, -0.3374391794204712, -0.39136001467704773, -0.2694268524646759, -0.6854698657989502, -0.7587187886238098, -0.4630717635154724, -0.14873817563056946, -0.39405909180641174, 0.0012372389901429415, -0.5089231729507446, -0.42476585507392883], [-0.37136968970298767, 0.28056204319000244, 0.3091773986816406, -0.10707921534776688, -0.5593973994255066, -0.14952129125595093, -0.16330969333648682, -0.2566205859184265, 0.27274516224861145, 0.041511937975883484, 0.07942959666252136, -0.4547710120677948, -0.28177958726882935, 0.019269084557890892, -0.08909649401903152, -0.12067224085330963, 0.13019533455371857, -0.22455015778541565, 0.3714028596878052, -0.014372437261044979, 0.16432872414588928, -0.05672111362218857, -0.5159599781036377, 0.18126311898231506, -0.500981867313385, -0.6312883496284485, -0.49353718757629395, -0.0599827840924263, 0.7273064851760864, -0.38927286863327026, 0.2091166079044342, 0.16664868593215942], [-0.6854839324951172, -0.4271073043346405, -0.6094287633895874, -0.5426786541938782, -0.41274622082710266, -0.5531919598579407, 0.057498592883348465, -0.4840456247329712, -0.25957322120666504, 0.11932144314050674, -0.6937422156333923, -0.43424054980278015, -0.40958818793296814, 0.36515453457832336, -0.8169002532958984, -0.9749204516410828, -1.0327364206314087, -0.2759399712085724, 0.1414879858493805, -0.28175610303878784, 0.142718106508255, -0.5954052805900574, -1.1683785915374756, -0.30106523633003235, -0.5982170104980469, -0.696520209312439, -0.5805800557136536, 0.43218064308166504, 0.8320111632347107, 0.09077974408864975, -0.4065997898578644, -0.11263289302587509], [-1.9676036834716797, 0.333029180765152, -0.16001379489898682, -1.569493293762207, 0.06736345589160919, -0.5178954601287842, -0.2528165876865387, 0.06336581707000732, -0.43415242433547974, 0.01864814944565296, -1.7920957803726196, -0.6040917634963989, -1.0568681955337524, 0.20346558094024658, -0.22595927119255066, -0.27291467785835266, -1.8212916851043701, -0.22405287623405457, 0.07798361778259277, 0.33176034688949585, -0.09201920032501221, -0.4394356608390808, -0.23221758008003235, -1.7248140573501587, -0.2872975170612335, -0.13549962639808655, -0.36577513813972473, -0.057280685752630234, 0.015454580076038837, -0.08589986711740494, -1.517487645149231, 0.35610976815223694], [-0.253071665763855, 0.23029257357120514, 0.1831061691045761, 0.09663311392068863, -0.5257599353790283, -0.23916566371917725, -0.21048679947853088, 0.14506298303604126, 0.15974025428295135, -0.4540402293205261, -0.2573130428791046, -0.20927037298679352, -0.49687525629997253, -0.09768077731132507, 0.17188793420791626, -0.8055272698402405, -0.30726397037506104, 0.01664237305521965, -0.23332469165325165, -0.21845446527004242, 0.43630096316337585, -0.46635961532592773, -0.21945062279701233, 0.02833089791238308, -0.5010591745376587, -0.2653404474258423, -0.7837274670600891, 0.053198013454675674, 0.2624417841434479, -0.0362413227558136, -0.5002313852310181, -0.6200067400932312], [0.3601837158203125, 0.43214577436447144, 0.09513811022043228, 0.16394048929214478, -0.3386780321598053, 0.34973764419555664, 0.11085222661495209, 0.021061817184090614, 0.7237324118614197, 0.07858767360448837, 0.2898891270160675, -0.13526225090026855, 0.11439815163612366, 0.335369735956192, 0.28784850239753723, 0.001327873207628727, -0.007075016852468252, -0.3496552109718323, -0.034900788217782974, 0.001448645256459713, 0.2858385145664215, 0.15877199172973633, 0.08261875808238983, 0.4727025628089905, -0.08578892052173615, -0.25042062997817993, -0.17003695666790009, 0.09653725475072861, 0.6220091581344604, -0.252442330121994, 0.16626673936843872, -0.12025674432516098], [-0.5358765721321106, 0.140622079372406, 0.3524611294269562, -0.6639538407325745, -0.5032202005386353, -0.5286260843276978, -0.1055365726351738, -0.38398391008377075, 0.12798623740673065, 0.25026124715805054, -0.697162926197052, -0.4251598119735718, -0.867962658405304, 0.10084076225757599, -0.36930689215660095, -0.4224961996078491, -0.6779781579971313, 0.1302386075258255, 0.31120607256889343, 0.016650229692459106, 0.21406112611293793, -0.08795499801635742, -0.36170700192451477, -0.4223174452781677, -0.21698860824108124, -0.5248703956604004, -0.21995580196380615, 0.14573292434215546, -0.11665728688240051, 0.2957448959350586, -0.8784605264663696, -0.5697201490402222], [-0.7160775661468506, -0.6171185374259949, 0.4410913288593292, -0.8776837587356567, -0.038663920015096664, -0.47196096181869507, -0.6458147764205933, -0.036512356251478195, -0.6039152145385742, -0.2231413871049881, -0.6067530512809753, -0.20519687235355377, -0.1945054531097412, 0.17719754576683044, -0.2225547432899475, -0.954181432723999, -0.15234670042991638, -0.22133055329322815, 0.4121413230895996, 0.4660702347755432, -0.15684160590171814, -0.5685107707977295, -0.6593329310417175, -0.5347133874893188, -0.28540387749671936, -0.23295053839683533, -0.9726621508598328, 0.04480918496847153, -0.09926096349954605, -0.1301291435956955, -0.17683270573616028, -0.16872841119766235], [-0.435244083404541, -0.15637247264385223, -0.0018092470709234476, -0.49772727489471436, -0.31428876519203186, -0.33499735593795776, 0.16331978142261505, 0.026717957109212875, -0.10038013011217117, -0.07074740529060364, -0.42366689443588257, 0.2567940354347229, -0.02004733681678772, -0.25497719645500183, 0.04674110934138298, -0.15963739156723022, -0.22966700792312622, 0.08178986608982086, 0.12138780206441879, 0.014569186605513096, -0.28555142879486084, -0.4768974781036377, -0.011205452494323254, -0.3572654128074646, -0.3615984618663788, 0.08296424150466919, -0.19972415268421173, 0.004637150093913078, -0.16131925582885742, -0.2809229791164398, -0.35094669461250305, 0.06125594303011894], [-1.1179784536361694, -0.8219555020332336, 0.4316278100013733, -1.0293070077896118, -0.24584603309631348, -0.11620156466960907, -0.08339221030473709, -0.03396843001246452, -0.29016897082328796, 0.6442417502403259, -1.2437331676483154, -0.46271011233329773, -0.7243936061859131, 0.26863330602645874, -0.12412825226783752, -0.557020902633667, -0.960193932056427, -0.13354472815990448, 0.03134596347808838, -0.16915765404701233, -0.28172892332077026, -0.4741062819957733, -0.2342192828655243, -1.1522536277770996, 0.22345370054244995, -0.36925509572029114, -0.33314451575279236, 0.06499407440423965, -0.7394250631332397, -0.5138939619064331, -1.4001240730285645, 0.02275427058339119], [-0.8174465894699097, -0.2181541919708252, 0.1856914758682251, -0.6859899759292603, -0.7991936206817627, -0.37899261713027954, -0.525633692741394, 0.05444664880633354, 0.1407196968793869, -0.2968112826347351, -0.5674416422843933, -0.5837241411209106, -0.2145184427499771, -0.09580599516630173, -0.26483583450317383, -0.6498720645904541, -0.748703122138977, -0.2542875409126282, -0.3466133177280426, -0.3890790343284607, 0.658124566078186, -0.08942297101020813, -0.7193179726600647, -0.5338428020477295, -0.15002800524234772, -0.23439469933509827, -0.036950401961803436, -0.13230761885643005, 0.11466480791568756, -0.587727427482605, -0.7393263578414917, -0.4317992627620697], [-1.0041141510009766, 0.23408456146717072, 0.11163666844367981, -1.079398274421692, -0.6937555074691772, -0.639543354511261, -0.11609426140785217, -0.3866102695465088, -0.04644636809825897, -0.026967037469148636, -1.2510008811950684, -0.18850433826446533, -0.4836171567440033, 0.5360584855079651, -0.3054315149784088, -0.2787984609603882, -0.7851094603538513, -0.3374919295310974, -0.14084529876708984, -0.37090396881103516, -0.4333917200565338, -0.4179224967956543, -0.34175825119018555, -0.8635398745536804, -0.46781447529792786, 0.03912626579403877, -0.9148452877998352, -0.08425400406122208, -0.45211634039878845, 0.2478080540895462, -0.5450639128684998, -0.10946124792098999], [0.04464805871248245, 0.21922427415847778, 0.18964627385139465, -0.028456535190343857, -0.44442883133888245, -0.023931048810482025, 0.2689943313598633, 0.07762445509433746, 0.08356454968452454, -0.3507586121559143, -0.365471750497818, -0.13481035828590393, -0.28275981545448303, 0.5941036343574524, 0.135041743516922, -0.3112730383872986, -0.20130513608455658, 0.01787140965461731, 0.07070524245500565, 0.05487551540136337, -0.27012866735458374, 0.07822488993406296, -0.7163994908332825, -0.6904199719429016, -0.1553468555212021, 0.2828851044178009, -0.8989585638046265, 0.043196287006139755, 0.3860665559768677, -0.48040276765823364, -0.5631416440010071, 0.24544483423233032], [0.4024305045604706, 0.3003471791744232, -0.07515157759189606, 0.5541532635688782, -0.12769731879234314, 0.4991154968738556, -0.0037608733400702477, -0.4376656711101532, 0.06308848410844803, -0.33311641216278076, 0.47083017230033875, 0.12506690621376038, 0.3399951756000519, 0.232275128364563, -0.25652292370796204, -0.13818752765655518, 0.194843590259552, -0.1520698517560959, 0.42020463943481445, -0.1541045904159546, 0.08544909954071045, -0.09111331403255463, -0.351299524307251, 0.24750548601150513, -0.3169824779033661, 0.07443170249462128, 0.19804681837558746, -0.13221628963947296, 0.5134974122047424, 0.3201526403427124, 0.28861889243125916, -0.5204489231109619], [-0.4421369731426239, -0.1711510270833969, 0.19257616996765137, -0.4201107323169708, 0.011246927082538605, 0.05523189902305603, 0.05633021891117096, 0.08666149526834488, -0.34511885046958923, 0.4956356883049011, -0.6305891871452332, 0.011655325070023537, 0.1460779905319214, 0.35441234707832336, -0.35954105854034424, 0.3159100413322449, -0.3363894820213318, 0.22684341669082642, -0.005632682237774134, 0.4223748743534088, -0.35727477073669434, 0.43888360261917114, 0.290671169757843, -0.18348516523838043, -0.18917302787303925, 0.4466943144798279, 0.04179796576499939, -0.18862652778625488, -0.24604938924312592, 0.22106420993804932, -0.40765970945358276, 0.3525877594947815], [-0.0903501957654953, -0.36323344707489014, 0.38623833656311035, -0.6045740246772766, 0.06524886190891266, -0.06724900752305984, -0.4543016254901886, 0.10757241398096085, -0.7581275105476379, 0.4282309114933014, -0.43743953108787537, 0.5070142149925232, -0.10463837534189224, 0.15009969472885132, -0.30296090245246887, -0.3478916883468628, -0.31029775738716125, 0.05592842027544975, -0.15573342144489288, 0.04845002293586731, -0.07617053389549255, 0.0580800399184227, -0.005263275932520628, -0.47248122096061707, -0.11891970783472061, 0.33176520466804504, 0.33446112275123596, -0.0012490653898566961, 0.009813622571527958, 0.33174511790275574, 0.16230551898479462, 0.2302635908126831], [-0.544834554195404, -0.5986196398735046, 0.26131391525268555, -0.39590418338775635, 0.23593223094940186, -0.0057373857125639915, -0.15215934813022614, 0.02932186983525753, 0.05637132003903389, 0.5613593459129333, -0.4250237047672272, -0.1683671772480011, 0.18019485473632812, -0.10214230418205261, -0.031047165393829346, 0.08315476775169373, -0.3570464551448822, 0.17776775360107422, 0.1461820900440216, 0.19310389459133148, 0.1815226972103119, 0.1794731765985489, 0.13754981756210327, -0.02408641204237938, 0.12413966655731201, 0.048617955297231674, 0.10747416317462921, -0.09403131157159805, -0.4089634120464325, 0.013535797595977783, -0.41862747073173523, 0.41648146510124207], [0.2864353060722351, 0.5569357872009277, 0.35090363025665283, 0.16310171782970428, 0.09906767308712006, 0.12095796316862106, -0.36439719796180725, -0.2060890793800354, 0.31184741854667664, 0.043593212962150574, 0.2512683868408203, 0.3696804344654083, 0.09620537608861923, 0.15724340081214905, 0.1593625843524933, -0.04657899960875511, 0.4821345806121826, -0.07810384035110474, 0.23674830794334412, -0.11829470843076706, -0.1878991276025772, 0.1068279892206192, 0.1301153153181076, 0.5515134334564209, -0.02463952824473381, -0.5160472989082336, -0.5299993753433228, -0.05402868986129761, -0.10716034471988678, 0.0750729963183403, 0.18290826678276062, -0.1440139263868332], [-0.3844755291938782, -0.7328175902366638, -0.1920652538537979, -0.24147069454193115, 0.5802013874053955, 0.3155040144920349, 0.22167372703552246, 0.1474766880273819, -0.5262637734413147, 0.39615532755851746, -0.3143536448478699, -0.5229848623275757, -0.26552483439445496, -0.3396226465702057, -0.2285756915807724, 0.010720411315560341, -0.3484817445278168, -0.1347343623638153, 0.23624514043331146, -0.2567838728427887, 0.20884834229946136, 0.3399466574192047, 0.16832314431667328, -0.12507985532283783, 0.06842182576656342, -0.13153159618377686, -0.1553378850221634, -0.015555202960968018, -0.09132753312587738, 0.01372201181948185, 0.15539611876010895, 0.296330988407135], [0.4490389823913574, 0.07299046963453293, -0.321958065032959, 0.436302125453949, -0.17673523724079132, -0.4624398648738861, -0.10471907258033752, 0.12050608545541763, 0.3974345922470093, -0.2622637152671814, 0.6319243907928467, 0.18354427814483643, 0.04094491899013519, -0.12863358855247498, 0.04233086481690407, -0.27585700154304504, -0.008806428872048855, 0.1603061705827713, -0.6429792046546936, -0.06190277636051178, 0.023725179955363274, 0.25456497073173523, -0.00016783480532467365, 0.4717828035354614, -0.10035964101552963, 0.09435085952281952, -0.35892802476882935, 0.22174598276615143, 0.5314985513687134, -0.34061962366104126, 0.22076983749866486, -0.09254337102174759], [-0.4074253439903259, -0.6194949746131897, 0.1552399843931198, 0.10826516896486282, 0.6694621443748474, 0.15996967256069183, -0.09511065483093262, 0.38517531752586365, -0.7474477887153625, 0.20317670702934265, -0.2883136570453644, -0.060925375670194626, -0.2716580331325531, 0.08114293217658997, -0.18674932420253754, -0.10397519916296005, -0.8119993805885315, -0.017855262383818626, 0.21839721500873566, 0.04576383903622627, 0.17842701077461243, 0.2701265811920166, 0.09950684756040573, -0.11560294032096863, 0.260087251663208, 0.35723885893821716, -0.3067683279514313, 0.1925363391637802, -0.052543915808200836, 0.05294972285628319, -0.4681055545806885, 0.5352884531021118], [-0.41506585478782654, -0.299124151468277, 0.20690235495567322, -0.3958941400051117, 0.07875765860080719, -0.1562666893005371, -0.10741230845451355, -0.178839311003685, -0.24516898393630981, 0.4136519432067871, -0.4038666784763336, -0.16412408649921417, -0.4305954575538635, -0.13212384283542633, -0.12145531177520752, 0.30568885803222656, -0.42269158363342285, -0.4761413335800171, -0.14128477871418, 0.4464103877544403, 0.4445916712284088, 0.12567947804927826, -0.06936295330524445, 0.020661205053329468, 0.17212827503681183, -0.2891542315483093, 0.2729061245918274, -0.35586118698120117, -0.31078439950942993, 0.27045872807502747, -0.14461596310138702, 0.4133686125278473], [-0.4082031846046448, -0.6561336517333984, -0.07996618747711182, -0.0945078432559967, 0.021964406594634056, -0.09488889575004578, -0.005280529614537954, 0.40670502185821533, -0.2466898262500763, 0.5002856850624084, -0.17709749937057495, 0.09109830111265182, -0.23276591300964355, 0.4968661665916443, -0.15188667178153992, 0.29969626665115356, -0.34254273772239685, -0.11194953322410583, -0.1846979856491089, -0.0802658423781395, 0.027802638709545135, 0.04657987505197525, -0.4209325909614563, 0.06676669418811798, -0.16241218149662018, -0.2571059465408325, 0.17915624380111694, 0.33191508054733276, -0.28926199674606323, 0.19127057492733002, -0.1713336557149887, 0.6540730595588684], [0.10282963514328003, -0.9101171493530273, -0.14781099557876587, -0.37884244322776794, 0.576352596282959, 0.07700276374816895, -0.29499122500419617, -0.4001948833465576, -0.7841553092002869, 1.4313071966171265, -0.7517131567001343, 0.1963614523410797, -0.1720125526189804, -0.11260247230529785, 0.2001510113477707, -0.02960324101150036, -0.14641091227531433, 0.15110521018505096, 0.17272953689098358, 0.2412087321281433, 0.018163610249757767, 0.4821636378765106, 0.41092851758003235, -0.29986292123794556, 0.37604478001594543, 0.9905800819396973, 0.3356646001338959, 0.28611311316490173, -0.02280493639409542, 0.11966854333877563, -0.9523053169250488, 1.3487640619277954], [0.21027646958827972, -0.8585107326507568, 0.171127587556839, -0.42088133096694946, 0.3749288022518158, 0.2299029529094696, 0.39489051699638367, 0.055712874978780746, -0.8345351219177246, 0.08793875575065613, -0.6470115184783936, -0.04094172269105911, -0.29817014932632446, -0.1757938265800476, -0.12641172111034393, 0.11323152482509613, -0.5070401430130005, -0.12764596939086914, 0.06535278260707855, 0.18203169107437134, 0.2697005867958069, -0.0668950006365776, 0.0448373407125473, -0.46328476071357727, -0.46161359548568726, 0.4517385959625244, 0.45398473739624023, 0.41476550698280334, -0.1874464452266693, 0.20631442964076996, 0.04012110084295273, 0.27213868498802185], [-0.35451018810272217, -0.18136365711688995, -0.03519130498170853, -0.09870951622724533, -0.05130936950445175, -0.05028759688138962, 0.3968541622161865, -0.045280762016773224, -0.09125011414289474, 0.504385769367218, -0.48211410641670227, -0.017528200522065163, -0.6798492670059204, -0.30120813846588135, -0.1288435012102127, -0.1483156681060791, -0.18763844668865204, -0.36207759380340576, 0.13651122152805328, 0.3978004455566406, -0.16998980939388275, 0.11296072602272034, 0.421052485704422, -0.13641750812530518, -0.13469871878623962, 0.44581159949302673, 0.11838211864233017, 0.22963638603687286, -0.2780636250972748, 0.1302027851343155, -0.4483889937400818, 0.34615328907966614], [0.059801723808050156, 0.1820932924747467, -0.2017969787120819, 0.05965758115053177, -0.009604820050299168, 0.10875899344682693, -0.35227838158607483, 0.15406550467014313, 0.8188941478729248, -0.3821689188480377, 0.5659141540527344, 0.4516952633857727, 0.1118142232298851, 0.310730516910553, 0.13581663370132446, -0.08629321306943893, 0.15253913402557373, 0.27290838956832886, 0.14898528158664703, -0.4012426435947418, 0.10396236181259155, -0.4267398416996002, -0.2870071232318878, 0.4766928255558014, 0.09504007548093796, -0.4470544755458832, -0.1331985890865326, -0.0906299576163292, 0.19790972769260406, 0.65362948179245, 0.5059619545936584, -0.36249276995658875], [-0.03414961323142052, -0.014416132122278214, 0.42730769515037537, -0.5032008290290833, -0.06060187891125679, 0.14986784756183624, -0.1399734616279602, -0.24227075278759003, -0.43923625349998474, 0.15614961087703705, -0.2812786102294922, 0.2616173028945923, -0.2838403582572937, -0.30865275859832764, 0.08784239739179611, 0.21425047516822815, -0.6483340263366699, 0.1124444454908371, -0.08262178301811218, 0.020367441698908806, -0.32021647691726685, 0.6003556251525879, 0.025358593091368675, -0.8934305906295776, 0.29514461755752563, 0.11608894169330597, 0.14401140809059143, 0.11454696208238602, -0.7482712864875793, 0.003958648070693016, -0.6784464716911316, -0.06699637323617935], [0.036768507212400436, -0.49737024307250977, -0.5350321531295776, -0.2882419228553772, -0.05486287921667099, 0.18334928154945374, 0.0010616477811709046, 0.16434752941131592, -0.5720412731170654, 0.16116715967655182, -0.6689704656600952, 0.013653915375471115, -0.3355535566806793, 0.18230587244033813, -0.08753592520952225, -0.24697120487689972, -0.5224478840827942, 0.2817690074443817, 0.16389480233192444, -0.0570758618414402, -0.17239154875278473, -0.012917178682982922, -0.10259784758090973, -0.27920570969581604, 0.3724462687969208, 0.4513978362083435, 0.34512388706207275, -0.47265151143074036, -0.22551770508289337, 0.02391779236495495, -0.6660798192024231, 0.04883650690317154], [0.1210881918668747, -0.5447068214416504, 0.27975866198539734, -0.16082020103931427, 0.08872553706169128, 0.07880677282810211, -0.06867377460002899, 0.7070561647415161, -0.44961875677108765, 0.6390274167060852, -0.9447537660598755, 0.24139492213726044, -0.5044509172439575, 0.35250166058540344, -0.3125353753566742, -0.269117146730423, -0.06806638836860657, 0.09320786595344543, 0.3800230324268341, 0.1946832686662674, -0.13360947370529175, 0.07268490642309189, 0.27202001214027405, -0.5479779839515686, -0.1201448068022728, 0.34577175974845886, 0.1430734544992447, 0.21830596029758453, -0.22974848747253418, 0.010426664724946022, -0.39623862504959106, 0.220707967877388], [-0.21980854868888855, -0.28178733587265015, 0.2097899317741394, 0.3184005916118622, 0.06959059834480286, -0.060644425451755524, 0.1462155282497406, -0.2452387511730194, -0.7366282939910889, 0.21156568825244904, -0.21431121230125427, 0.07789218425750732, -0.2676336169242859, 0.04776914045214653, -0.527842104434967, -0.025616087019443512, -0.3830384314060211, -0.22713488340377808, 0.20995019376277924, -0.06333961337804794, -0.05918954312801361, 0.15413597226142883, 0.08315736800432205, -0.8455407619476318, -0.1799594610929489, 0.6850220561027527, -0.07040354609489441, -0.19649510085582733, -0.31275251507759094, -0.2312973588705063, -0.43549665808677673, 0.3895694315433502], [0.06332892179489136, -0.085677869617939, 0.3767276108264923, 0.31330618262290955, 0.055621106177568436, 0.053057409822940826, 0.43467503786087036, -0.19056148827075958, 0.6222040057182312, 0.15754011273384094, 0.4492952525615692, -0.3586687743663788, 0.024362394586205482, 0.239782452583313, 0.10350160300731659, -0.14739321172237396, 0.5062219500541687, -0.12722501158714294, 0.059464436024427414, 0.08630993217229843, -0.13008858263492584, -0.4156053066253662, 0.29916244745254517, 0.5755038857460022, -0.011961394920945168, -0.5572363138198853, -0.3690769672393799, -0.24899442493915558, 0.9418877363204956, -0.3205401599407196, 0.34048378467559814, -0.47699370980262756], [-0.20728258788585663, -0.08072390407323837, -0.12522859871387482, -0.1493128389120102, -0.10077246278524399, 0.23290792107582092, -0.11230281740427017, -0.13383574783802032, -0.48454469442367554, 0.4900142252445221, -0.6708182096481323, 0.04824965074658394, -0.7700478434562683, 0.3190936744213104, -0.24854381382465363, 0.33969390392303467, -0.6472374200820923, 0.5952782034873962, -0.07171361893415451, 0.21834366023540497, 0.21616001427173615, 0.15353839099407196, 0.033126652240753174, -0.14022575318813324, 0.4086476266384125, -0.1280680149793625, -0.033630646765232086, -0.0938892811536789, -0.3628426790237427, 0.08822249621152878, -0.3540964126586914, 0.21958781778812408], [0.5066608190536499, -0.11947852373123169, -0.00023659091675654054, 0.3879658877849579, -0.1652156412601471, -0.08170022070407867, -0.2853642702102661, -0.18935276567935944, 0.12188048660755157, -0.14232471585273743, 0.37316685914993286, 0.15715648233890533, 0.5579615831375122, 0.31193792819976807, 0.3026708960533142, 0.19898472726345062, 0.38327786326408386, -0.07140663266181946, -0.07661916315555573, 0.03550736606121063, -0.41636592149734497, -0.1577090620994568, -0.2032514363527298, 0.20678192377090454, -0.3264602720737457, -0.21685311198234558, -0.4022500216960907, 0.30202317237854004, 0.37383389472961426, 0.2962494492530823, 0.6890528798103333, -0.016790704801678658], [-0.10245417058467865, -0.532349169254303, -0.31287166476249695, -0.6278717517852783, 0.6809602975845337, 0.19669505953788757, 0.08693809807300568, -0.02107647992670536, -0.5292221903800964, 0.6874747276306152, 0.3458458483219147, -0.061074398458004, -0.39109519124031067, 0.08122751861810684, -0.07909034937620163, 0.5235645771026611, -0.3085547685623169, -0.36068642139434814, -0.02046450972557068, 0.15624761581420898, -0.4469098448753357, 0.12016928941011429, 0.17488709092140198, -0.3378179371356964, -0.20454290509223938, 0.4895380735397339, -0.09483380615711212, 0.2774164080619812, -0.29562410712242126, -0.34983888268470764, -0.08163146674633026, 0.391348659992218], [0.115119569003582, 0.8945921659469604, -0.1377272605895996, 0.19525523483753204, -0.12372000515460968, -0.23322555422782898, 0.1905907243490219, -0.009866314008831978, 0.714379608631134, -0.16503241658210754, 0.07496773451566696, -0.32388654351234436, 0.33419540524482727, -0.27742230892181396, 0.09080304950475693, -0.5486119389533997, 0.5357803106307983, -0.06507014483213425, 0.024952741339802742, 0.3352595865726471, -0.07686657458543777, 0.1708327978849411, 0.007535301614552736, 0.4200182855129242, 0.014082791283726692, -0.17091849446296692, 0.16525720059871674, 0.21217451989650726, 0.6483967900276184, -0.1194174662232399, 0.18604573607444763, -0.7683420181274414], [-0.7368527054786682, -0.41957372426986694, -0.016296692192554474, -0.06275181472301483, 0.056397367268800735, -0.20573754608631134, -0.030231419950723648, 0.058204375207424164, -0.2834784984588623, 0.04606690630316734, -0.7190068960189819, 0.03680051118135452, -0.2314692884683609, 0.0019405042985454202, -0.4913211762905121, -0.041742127388715744, -0.3658129870891571, -0.03378372639417648, 0.3941860795021057, -0.30527636408805847, -0.1575467586517334, 0.28071337938308716, 0.44135645031929016, -0.11635684967041016, 0.0651891678571701, 0.3408217430114746, 0.037859611213207245, -0.12699782848358154, -0.2983507513999939, 0.09851446002721786, -0.3877028822898865, 0.3839358985424042], [0.21674245595932007, -0.14514614641666412, 0.04865207150578499, 0.5961900353431702, -0.06293930113315582, 0.1452019065618515, 0.0061382693238556385, 0.06366999447345734, 0.23214639723300934, -0.04917752370238304, 0.3109683096408844, -0.13945412635803223, -0.17616860568523407, -0.12173226475715637, -0.018493272364139557, -0.05370427668094635, 0.5174722075462341, 0.12216442823410034, 0.28781867027282715, -0.13136301934719086, 0.1376994103193283, -0.012280666269361973, -0.19293418526649475, 0.2956736087799072, -0.24500299990177155, -0.3540329933166504, -0.2564581334590912, -0.3924545347690582, 0.06061438098549843, -0.23025162518024445, 0.17982101440429688, 0.0367172509431839], [0.6009427905082703, 0.4247126281261444, -0.13466094434261322, 0.6591067910194397, -0.12670373916625977, -0.03772399201989174, -0.008187917992472649, 0.18020422756671906, 0.31736457347869873, -0.3980880379676819, 0.35564398765563965, 0.36387503147125244, 0.6621127128601074, 0.42402756214141846, 0.3938761353492737, 0.06149351969361305, 0.11065865308046341, -0.2326272875070572, -0.07606920599937439, 0.162995845079422, -0.2461877465248108, -0.1146508976817131, -0.0748675987124443, 0.7117171883583069, 0.061969444155693054, -0.6036393642425537, -0.27879682183265686, 0.3562595844268799, -0.1528424769639969, 0.09137674421072006, -0.27741706371307373, 0.15966588258743286], [0.3972533047199249, 0.049598079174757004, 0.02336539886891842, 0.20508955419063568, -0.05885870382189751, 0.3088167607784271, -0.12838563323020935, -0.5129015445709229, 0.4868144690990448, -0.3666066527366638, 0.35630425810813904, -0.26969221234321594, 0.10664202272891998, -0.1481071412563324, 0.3372582793235779, -0.12345944344997406, 0.34143027663230896, 0.004833186510950327, 0.0538150854408741, 0.32405737042427063, -0.29660242795944214, 0.32313668727874756, -0.08809797465801239, 0.6967406868934631, -0.29662033915519714, -0.18273025751113892, -0.10570821166038513, 0.5853044986724854, 0.03003242053091526, 0.1761905699968338, 0.21115437150001526, -0.4408434331417084], [-0.35241520404815674, -0.1997663974761963, 0.17379775643348694, -0.3997499644756317, -0.08751045912504196, -0.32025593519210815, -0.2450437694787979, 0.00812754686921835, -0.47528335452079773, 0.21235720813274384, -0.2774083614349365, -0.10727719217538834, -0.4056275486946106, -0.46077051758766174, 0.3781787157058716, 0.5927228927612305, -0.5628175735473633, -0.291059285402298, -0.046394020318984985, 0.16321884095668793, -0.25050464272499084, 0.20504584908485413, 0.3605708181858063, -0.13224643468856812, 0.318697065114975, 0.11405222862958908, 0.19220378994941711, -0.16877825558185577, 0.4466778337955475, -0.12224990874528885, -0.22877861559391022, -0.16387054324150085], [0.4330311715602875, 0.6592887043952942, -0.16758424043655396, 0.2594824731349945, -0.27671849727630615, -0.005294811446219683, -0.3887077569961548, -0.25229448080062866, 0.2862456738948822, -0.7018724679946899, 0.509658932685852, 0.09306535869836807, 0.4160099923610687, 0.11878127604722977, -0.24842742085456848, -0.23701691627502441, 0.3018784821033478, -0.21026389300823212, -0.6389046311378479, 0.023401694372296333, 0.393102765083313, -0.334683358669281, 0.16452430188655853, 0.0767998918890953, 0.02916893921792507, 0.06615835428237915, 0.041416238993406296, -0.5374305844306946, 0.07211707532405853, -0.16812458634376526, 0.05580649897456169, -0.6231803297996521], [-0.1852882206439972, -0.23033863306045532, 0.03958294540643692, -0.34514835476875305, -0.0975932776927948, 0.023654429242014885, -0.010585317388176918, -0.017689138650894165, -0.4919738173484802, 0.16287930309772491, -0.2931912839412689, 0.05489487200975418, -0.26938340067863464, -0.2431398630142212, 0.08245669305324554, 0.04605235159397125, -0.7756054401397705, 0.1415877640247345, 0.021619196981191635, 0.20637758076190948, 0.0905834287405014, -0.2502188980579376, 0.03393368795514107, -0.2970905303955078, 0.33811262249946594, 0.4217264652252197, 0.23252515494823456, -0.427299827337265, -0.27361640334129333, -0.21578086912631989, -0.4382944107055664, -0.007861156016588211], [-0.20313099026679993, -0.1572912484407425, -0.15236446261405945, -0.23492668569087982, -0.16911013424396515, 0.144173726439476, 0.3982982039451599, -0.20379024744033813, -0.5512213706970215, 0.6414005756378174, -0.8759545087814331, -0.5004997253417969, -0.20735988020896912, 0.2116624265909195, 0.11701101064682007, 0.11191046237945557, -0.27937906980514526, 0.5123935341835022, 0.1810707300901413, -0.2060116082429886, 0.10298164933919907, 0.29726824164390564, 0.07148810476064682, -0.38021987676620483, -0.29880204796791077, 0.5300700664520264, 0.440623939037323, 0.22835390269756317, -0.3442222476005554, 0.22817285358905792, -0.5167607665061951, 0.13130690157413483], [0.058782342821359634, 0.13132652640342712, 0.2685573399066925, 0.7100182175636292, 0.30723389983177185, -0.03051060438156128, 0.12815743684768677, 0.4275776445865631, 0.15594486892223358, -0.21712982654571533, 0.565955400466919, 0.23946265876293182, 0.11526086181402206, -0.03816359117627144, 0.03100855089724064, 0.10179556906223297, 0.46129658818244934, -0.0649566501379013, 0.37770572304725647, -0.29201486706733704, 0.21977262198925018, -0.051636792719364166, -0.32390889525413513, 0.47284117341041565, 0.07906253635883331, -0.10397078841924667, -0.5094737410545349, 0.14583955705165863, 0.449023574590683, 0.5164520740509033, 0.2394983470439911, -0.39371421933174133], [-0.1322416514158249, 0.5453527569770813, 0.2737274169921875, -0.28921008110046387, -0.00408400222659111, 0.2373727262020111, -0.07743985950946808, -0.19958063960075378, 0.587157130241394, 0.018553413450717926, 0.08781712502241135, -0.008906107395887375, 0.07078234851360321, 0.3620590567588806, 0.025636611506342888, -0.4599587321281433, -0.15524792671203613, -0.1413886547088623, 0.14848436415195465, -0.14526383578777313, 0.03391485661268234, -0.11448461562395096, -0.10130741447210312, -0.007273240014910698, -0.2740498185157776, -0.26644569635391235, -0.2508871853351593, 0.4673612713813782, 0.2874482572078705, -0.0741659477353096, -0.18144433200359344, 0.09392696619033813], [-0.44750499725341797, 0.4328540861606598, -0.20125533640384674, -0.12132542580366135, -0.641414225101471, -0.2123839408159256, 0.0014578932896256447, -0.13172511756420135, 0.6194629669189453, -0.16548052430152893, -0.014041430316865444, -0.33165794610977173, -0.12349992245435715, -0.2921425700187683, 0.06420914083719254, -0.8455553650856018, 0.13187135756015778, 0.15025627613067627, 0.19264061748981476, -0.3362385928630829, -0.037380509078502655, -0.27654924988746643, -0.6568610668182373, -0.3489527404308319, -0.3306237757205963, 0.27458134293556213, -0.3046358525753021, -0.1120268777012825, 0.40590906143188477, 0.005342571530491114, -0.48646554350852966, -0.34642690420150757], [-0.43192213773727417, 0.1141965389251709, -0.05208050459623337, -0.46898728609085083, -0.3190978467464447, -0.34988075494766235, 0.06067529320716858, 0.11511817574501038, 0.061200760304927826, -0.2777240574359894, -0.07481116056442261, 0.31280797719955444, -0.07703801244497299, -0.17043215036392212, 0.18670205771923065, -0.5080019235610962, -0.4084238111972809, 0.062178052961826324, -0.27785488963127136, 0.3397323787212372, 0.4870363473892212, -0.02719438076019287, -0.4990682005882263, -0.08669056743383408, -0.6536301374435425, -0.27591150999069214, -0.40267378091812134, -0.1211385428905487, 0.8404908776283264, 0.004155166447162628, -0.22763660550117493, -0.04729412868618965], [-0.4777390956878662, 0.64683997631073, 0.19415251910686493, -0.04440942034125328, -0.7583423852920532, -0.21936476230621338, 0.16474635899066925, 0.487151175737381, 0.7889779210090637, 0.41088995337486267, 0.18505576252937317, 0.30573195219039917, 0.10596045106649399, 0.016136791557073593, 0.06960755586624146, -0.4668951630592346, 0.1340046226978302, 0.6222968697547913, -0.17634403705596924, -0.1476038545370102, -0.211410790681839, -0.20219510793685913, -0.0026872139424085617, -0.2909238040447235, -0.24309496581554413, -0.30986443161964417, -0.19900357723236084, 0.48022741079330444, 1.0240963697433472, 0.0631701871752739, -0.20124858617782593, 0.7025302052497864], [0.037660740315914154, 0.6780903935432434, -0.02473575249314308, 0.09714380651712418, -0.3175852298736572, 0.5684179663658142, -0.017479106783866882, -0.0009447137708775699, 0.48706960678100586, -0.4648090600967407, -0.024672960862517357, 0.07945060729980469, 0.4038279354572296, 0.3524007499217987, -0.1229119822382927, -0.10179562121629715, -0.3042600750923157, 0.12406285107135773, 0.012875735759735107, 0.007539780810475349, -0.25538119673728943, 0.05047459155321121, 0.24548296630382538, 0.07767466455698013, -0.25980448722839355, 0.3998017907142639, 0.25410422682762146, 0.035830650478601456, 0.8854856491088867, -0.592011034488678, -0.05183452367782593, -0.1461871713399887], [-0.29922404885292053, 0.3383543789386749, -0.196645587682724, -0.05558641254901886, -0.6920934319496155, -0.2723417580127716, 0.27333560585975647, -0.400553435087204, -0.04317019507288933, -0.169601172208786, -0.3650050461292267, -0.09053530544042587, -0.15376146137714386, -0.27344486117362976, 0.0663122683763504, -0.5118173360824585, -0.27838385105133057, 0.09533458203077316, 0.004349697846919298, -0.04731645807623863, 0.22093944251537323, -0.2702057957649231, -0.44790947437286377, -0.07003185898065567, -0.9080065488815308, -0.08647600561380386, -0.06418346613645554, -0.15710380673408508, 0.5097963809967041, -0.3680330812931061, -0.6249663829803467, 0.13451239466667175], [0.0688471868634224, 0.6945604681968689, 0.4957515597343445, -0.24435420334339142, -0.17361079156398773, -0.39308714866638184, 0.13501673936843872, -0.032546404749155045, 0.6425566077232361, 0.4716983139514923, -0.04609595239162445, 0.1790042370557785, 0.31023621559143066, 0.006791095249354839, 0.625852644443512, -0.3469942808151245, 0.1331884115934372, -0.1780264675617218, 0.15163074433803558, 0.019577044993638992, -0.5203485488891602, -0.286236971616745, -0.5736857652664185, 0.02526083216071129, -0.37050575017929077, 0.3326483964920044, 0.21245990693569183, -0.3712173402309418, 0.41715988516807556, 0.04636652395129204, -0.0781465545296669, -0.1652327924966812], [-0.3590036928653717, 0.4779411852359772, -0.4028327465057373, 0.10218635201454163, -0.5429415106773376, -0.07133070379495621, 0.4105933904647827, -0.23375216126441956, 0.12166012823581696, 0.25900036096572876, -0.5183336734771729, 0.1338474154472351, -0.2560734152793884, 0.19002050161361694, 0.1124638020992279, -0.4238024652004242, -0.0706719160079956, 0.13457712531089783, -0.11027123034000397, 0.17817457020282745, -0.007861082442104816, -0.533713698387146, -0.35365620255470276, -0.043658141046762466, -0.7777960300445557, -0.19393737614154816, -0.5282008051872253, 0.4404847025871277, 0.6696644425392151, -0.2660394310951233, -0.06941083818674088, 0.21994593739509583], [0.1626749336719513, 0.04696325585246086, 0.10105633735656738, -0.000929993053432554, 0.2511880397796631, 0.11237170547246933, 0.1648547649383545, 0.32571467757225037, 0.5412154793739319, 0.1388057917356491, -0.0037148999981582165, 0.32660531997680664, 0.29986998438835144, 0.19562822580337524, 0.16604873538017273, -0.44732141494750977, 0.07785072922706604, 0.2636226713657379, 0.41938185691833496, -0.18028904497623444, -0.38352128863334656, 0.45801082253456116, 0.13159480690956116, 0.10147926211357117, 0.10239838808774948, -0.24027720093727112, 0.003367273835465312, 0.16376477479934692, 0.3393722176551819, 0.37181559205055237, 0.2909543216228485, -0.2745119035243988], [-0.22881115972995758, 0.17290791869163513, 0.1932452917098999, -0.2460540384054184, -0.8410123586654663, 0.22947414219379425, -0.30636876821517944, -0.34667229652404785, 0.19718508422374725, 0.26260268688201904, -0.7158498764038086, -0.21577265858650208, -0.9536573886871338, -0.15228070318698883, 0.1259789764881134, -0.4038926362991333, -0.14572590589523315, -0.08486709743738174, 0.16300976276397705, 0.11072245985269547, 0.5186157822608948, -0.32441237568855286, -0.8154866695404053, -0.2443564087152481, -0.48419415950775146, -0.24087753891944885, -0.4544591009616852, -0.11899509280920029, 0.36715635657310486, -0.19767308235168457, -0.027454601600766182, 0.5062414407730103], [-0.5450558662414551, -0.2892305850982666, 0.21520991623401642, -0.09286607801914215, 0.2966737747192383, -0.43640923500061035, 0.05095639079809189, -0.15945005416870117, -1.2110258340835571, 0.014297270216047764, -0.5609042048454285, -0.1209343895316124, -0.6318568587303162, -0.43424755334854126, -0.22668468952178955, -0.06773971766233444, -0.9089766144752502, -0.2583913505077362, 0.3273845314979553, 0.3815317451953888, 0.32183218002319336, -0.26681220531463623, -0.07917310297489166, -0.6207439303398132, -0.016068916767835617, -0.40416136384010315, -0.2460455745458603, 0.11893808096647263, 0.1444837599992752, -0.20031636953353882, -0.261202335357666, -0.4572661221027374], [-0.338948130607605, 0.4406728148460388, 0.041063904762268066, 0.0015639070188626647, -0.222083181142807, -0.31712132692337036, 0.15209536254405975, -0.08576877415180206, 0.22954173386096954, 0.16896182298660278, -0.021222146227955818, 0.5262327194213867, -0.0320214182138443, -0.17115186154842377, -0.18217095732688904, -0.04144645854830742, 0.15723946690559387, 0.10450571775436401, -0.07442124933004379, 0.21099752187728882, -0.35650011897087097, -0.25480449199676514, -0.6193143725395203, 0.07805982232093811, -0.7469775080680847, 0.09393097460269928, 0.03211144730448723, -0.32053127884864807, 0.7692896127700806, 0.3452148139476776, -0.002331205876544118, -0.31442660093307495], [-0.33301547169685364, -0.027229303494095802, 0.06049295887351036, 0.2124222218990326, -0.2721150815486908, -0.4533684253692627, -0.4748966693878174, 0.18959686160087585, 0.2559291422367096, 0.010814010165631771, 0.21291305124759674, -0.2351251095533371, -0.08205030858516693, -0.09367401897907257, 0.21115157008171082, -0.510696291923523, 0.2986823618412018, 0.07126053422689438, 0.1680322140455246, -0.5300116539001465, -0.28821343183517456, 0.0915791392326355, -0.5154516100883484, -0.36196544766426086, -0.4569139778614044, 0.02210366353392601, -0.26429325342178345, 0.3100425601005554, 0.6573126316070557, 0.03079787828028202, 0.06857531517744064, 0.19966712594032288], [0.571108877658844, 0.2890721261501312, -0.04117443412542343, -0.19237568974494934, -0.5064852833747864, -0.13565346598625183, 0.2670270800590515, -0.06942744553089142, -0.47690415382385254, 0.09097841382026672, -0.2939392924308777, 0.31229785084724426, -0.3040008246898651, 0.2953454554080963, 0.16110581159591675, -0.6370431184768677, -0.10723728686571121, -0.3988581597805023, 0.11180335283279419, -0.20447617769241333, -0.4555998146533966, -0.3445436656475067, -0.8072531819343567, -0.21579404175281525, -0.024363286793231964, -0.3107371926307678, -0.16345752775669098, 0.26806142926216125, 0.3909410834312439, -0.45868077874183655, 0.0013292052317410707, -0.23367829620838165], [-0.2544447183609009, -0.02158196270465851, -0.1453610360622406, -0.19041693210601807, -0.01889442466199398, 0.06408389657735825, -0.019312268123030663, 0.19510063529014587, 0.20869998633861542, -0.11432646960020065, -0.22449438273906708, 0.026529772207140923, -0.2204987108707428, 0.5495822429656982, -0.3442060351371765, -0.6276782155036926, -0.12114857137203217, -0.24762561917304993, -0.3359171450138092, -0.5715861916542053, 0.3873417377471924, -0.17807205021381378, -0.6704556345939636, -0.7023181915283203, -0.5010001063346863, -0.6873440742492676, -0.5411882996559143, -0.12624119222164154, 0.6555254459381104, 0.16969728469848633, -0.4870516061782837, 0.035109031945466995], [-0.24979925155639648, 0.19171009957790375, -0.11201257258653641, 0.14799323678016663, -0.217490091919899, -0.4844159483909607, 0.018018143251538277, 0.010178427211940289, -0.384994238615036, 0.4034244120121002, -0.35952839255332947, -0.237497478723526, 0.09302842617034912, 0.18724751472473145, 0.04349330812692642, -0.45896828174591064, -0.37138041853904724, 0.49394381046295166, -0.301053524017334, 0.011710976250469685, 0.054160021245479584, -0.3850042223930359, -0.300179123878479, -0.15048889815807343, -0.20222294330596924, 0.15373972058296204, -0.31749945878982544, -0.35938987135887146, 1.0741288661956787, 0.060160767287015915, -0.2972131073474884, 0.30410289764404297], [0.09996312111616135, 0.2805151641368866, 0.33005744218826294, 0.25000903010368347, 0.004138495307415724, 0.261226624250412, -0.04066981002688408, 0.26363399624824524, 0.557219922542572, 0.3125638961791992, -0.483894020318985, -0.1265009641647339, 0.5099027156829834, 0.0036438507959246635, -0.14702284336090088, -0.16090483963489532, 0.22630733251571655, 0.0865965187549591, -0.34433701634407043, -0.21965815126895905, -0.08110368996858597, 0.0993175059556961, -0.24838364124298096, -0.24785490334033966, -0.30901914834976196, 0.2674340605735779, -0.4197274148464203, -0.24146969616413116, 0.6677117347717285, -0.14452311396598816, 0.21148636937141418, 0.08175801485776901], [-0.4477623999118805, 0.48616328835487366, -0.05935462936758995, 0.15139934420585632, -0.27086204290390015, -0.2683688700199127, 0.11993847042322159, 0.029130969196558, 0.5276209712028503, 0.24057048559188843, 0.47525468468666077, -0.1748206913471222, -0.1726391613483429, -0.10640112310647964, -0.10564494132995605, -0.5466606020927429, -0.8202434182167053, -0.12214828282594681, -0.04600474610924721, -0.16520516574382782, -0.052822504192590714, -0.48985156416893005, -0.44287848472595215, 0.24296841025352478, -0.10264735668897629, -0.28021708130836487, -0.6737629175186157, -0.1233225166797638, 0.22815820574760437, 0.2619978189468384, -0.5054785013198853, 0.2352510690689087], [-0.23766259849071503, 0.4352947175502777, 0.42527031898498535, -0.34290066361427307, -0.4086427688598633, -0.5050824880599976, 0.04315726086497307, -0.07749655097723007, 0.4940875172615051, -0.3366723358631134, -0.21374444663524628, 0.3179651200771332, -0.17326685786247253, 0.2160205990076065, 0.07028019428253174, -0.4882192313671112, 0.2663278579711914, 0.08820535242557526, 0.3372398018836975, 0.5824296474456787, -0.1415669471025467, -0.3196873664855957, -0.22523534297943115, -0.21840693056583405, -0.3706566393375397, -0.23980465531349182, -0.22803589701652527, 0.19838903844356537, 0.7530244588851929, 0.09179180860519409, -0.07474540919065475, 0.28867307305336], [0.2521335780620575, -0.1250384896993637, 0.25029873847961426, -0.2980636656284332, -0.11106958985328674, -0.08829735219478607, 0.13335302472114563, -0.07597760111093521, 0.4228118062019348, -0.1316787451505661, -0.2734144628047943, -0.34600383043289185, 0.033835072070360184, 0.3033803701400757, -0.2729394733905792, -0.09628896415233612, -0.439555823802948, -0.10689597576856613, -0.10868250578641891, -0.14215421676635742, -0.04169275611639023, -0.13406683504581451, -0.3530707359313965, 0.12396758794784546, -0.40459415316581726, -0.07740382105112076, -0.7114855647087097, -0.04314761981368065, 0.5621697306632996, -0.1330421268939972, -0.19904792308807373, -0.09362788498401642], [0.0750221461057663, 0.3934580981731415, -0.42710328102111816, -0.31275609135627747, -0.4686988890171051, -0.3390676975250244, 0.07144337147474289, -0.22552558779716492, -0.21501785516738892, -0.09951383620500565, -0.41457006335258484, 0.18157251179218292, -0.057054754346609116, 0.2690671682357788, -0.024542609229683876, -0.6526424288749695, 0.11026261001825333, -0.005916613154113293, -0.17059198021888733, 0.21738038957118988, 0.08354398608207703, -0.2710966169834137, -0.43204987049102783, -0.2321045994758606, -0.48192620277404785, 0.04808126017451286, -0.3053038418292999, 0.11908699572086334, 0.8913345336914062, -0.4792208969593048, -0.4241739809513092, -0.5328181385993958], [-0.3195178806781769, -0.010649679228663445, 0.1893020123243332, 0.027479544281959534, -0.3046082556247711, -0.3712092638015747, 0.008963215164840221, -0.20547796785831451, -0.3223399817943573, -0.19308562576770782, -0.1759437918663025, -0.1803477257490158, 0.18873751163482666, -0.3696598708629608, 0.22455307841300964, -0.2791779041290283, -0.39685043692588806, 0.1338508129119873, -0.40822866559028625, -0.05395062640309334, -0.20347987115383148, 0.1824558675289154, -0.49955618381500244, 0.05088337883353233, -0.1605321317911148, -0.35994940996170044, 0.07126211374998093, -0.10719666630029678, 1.1770156621932983, -0.27641168236732483, -0.004068000242114067, 0.17759452760219574], [-0.26516276597976685, 0.26898762583732605, -0.28682833909988403, 0.011439681984484196, -0.5802754163742065, -0.2836349308490753, -0.05078047141432762, 0.0284425038844347, 0.24315933883190155, 0.3501419126987457, 0.054050691425800323, -0.3963858187198639, -0.1251862794160843, 0.10152620077133179, -0.30288442969322205, -0.4217761754989624, -0.5237693786621094, 0.20885352790355682, -0.22968405485153198, 0.11539480835199356, -0.11112784594297409, -0.4870204031467438, -0.5102695226669312, -0.5903474688529968, -0.6003404855728149, -0.2834804058074951, -0.6764354705810547, 0.11524201184511185, 0.1736610382795334, 0.027922268956899643, -0.46842020750045776, -0.12604250013828278], [-0.6146571636199951, 0.3182614743709564, 0.08460000902414322, -0.13321073353290558, -0.10319697856903076, -0.005857883952558041, -0.2721692621707916, 0.6066122055053711, 0.963066577911377, -0.21418550610542297, -0.32659730315208435, -0.21039913594722748, -0.3089975416660309, -0.1475818157196045, -0.12227493524551392, -0.723640501499176, -0.6426923871040344, -0.14027002453804016, 0.31242209672927856, 0.38244709372520447, -0.04736935719847679, -0.31999659538269043, -0.18797047436237335, -0.2737390100955963, 0.13267065584659576, -0.19718718528747559, -0.6140469312667847, 0.29324182868003845, 0.10947734862565994, 0.3826780915260315, -0.4103476107120514, 0.1912255436182022], [-0.19794906675815582, 0.5946021676063538, 0.14271564781665802, 0.08236805349588394, 0.6014807224273682, 0.4660504460334778, -0.2650662362575531, -0.244357630610466, 0.3834068179130554, 0.5544817447662354, -0.07739901542663574, -0.10625462234020233, -0.18911248445510864, 0.607062816619873, -0.20925407111644745, -0.08950963616371155, 0.2918020784854889, -0.11590544879436493, -0.2540126144886017, 0.21523801982402802, 0.6220257878303528, 0.08985313773155212, 0.30715686082839966, 0.2434709370136261, -0.10923897475004196, 0.31265801191329956, 0.2839650511741638, -0.10110387206077576, 0.915562093257904, 0.07034680247306824, 0.09696521610021591, 0.003481609048321843], [-0.29900655150413513, 0.3177454471588135, 0.031767331063747406, -0.4530004858970642, -0.07490865141153336, -0.5311397910118103, 0.31479671597480774, -0.4030410945415497, 0.2915096879005432, 0.10040006041526794, -0.3221551775932312, -0.10777176171541214, 0.252578467130661, -0.1322680115699768, -0.09341911226511002, -0.16428813338279724, -0.0162804014980793, -0.43852001428604126, 0.012853777036070824, -0.09430313855409622, -0.029224179685115814, -0.28287699818611145, -0.11189328879117966, -0.27587440609931946, -0.27997323870658875, -0.10713527351617813, 0.1659519076347351, 0.1264350712299347, 0.10131079703569412, 0.12041836977005005, 0.24907928705215454, 0.07446236163377762], [-0.14133164286613464, 0.28190192580223083, -0.11306102573871613, -0.3276631832122803, -0.7279669046401978, -0.24240529537200928, 0.02163630910217762, -0.1066855862736702, 0.25710153579711914, -0.028472207486629486, -0.1450679451227188, 0.011751972138881683, -0.02398301288485527, 0.15148693323135376, 0.22766700387001038, -0.014530208893120289, -0.2782061994075775, 0.16333165764808655, -0.1035674661397934, -0.037520118057727814, -0.13527147471904755, 0.13215762376785278, -0.23002205789089203, -0.21844592690467834, -0.6715109944343567, -0.7381801605224609, -0.5094471573829651, -0.4220166802406311, 0.3644639253616333, -0.014561105519533157, 0.014836711809039116, -0.038187816739082336], [-0.047612495720386505, 0.14647631347179413, -0.31739649176597595, -0.7500345706939697, -0.018418017774820328, 0.27762889862060547, -0.08053459227085114, -0.17517082393169403, 0.4058542549610138, 0.4529387056827545, -0.17916855216026306, -0.1863270252943039, -0.006492409389466047, -0.21615199744701385, 0.05371968820691109, -0.53437340259552, -0.27615538239479065, -0.013241753913462162, 0.13650193810462952, -0.025126367807388306, 0.048567745834589005, -0.18864908814430237, -0.795964241027832, -0.1476287841796875, -0.5124881267547607, 0.13502885401248932, -0.22258445620536804, -0.11094650626182556, 0.10647590458393097, -0.16070526838302612, 0.2327427864074707, 0.21216408908367157], [0.12187156081199646, 0.23681455850601196, 0.18660005927085876, -0.026329709216952324, 0.13532598316669464, -0.5976085066795349, 0.13087418675422668, 0.18681900203227997, 0.34971827268600464, -0.026945488527417183, -0.27678704261779785, 0.1355694979429245, 0.502983033657074, 0.36539027094841003, -0.03232357278466225, -0.5202946662902832, -0.014095897786319256, 0.30276554822921753, 0.04390130192041397, 0.45882225036621094, 0.19296227395534515, -0.24094219505786896, -0.18218618631362915, -0.15267527103424072, -0.09938210994005203, -0.07702194899320602, -0.41894838213920593, 0.466738760471344, 0.2007400095462799, 0.16959220170974731, -0.4501335620880127, -0.18352462351322174], [0.03433922305703163, 0.23359376192092896, -0.41318267583847046, -0.3437877297401428, -0.5597500801086426, -0.21294377744197845, 0.27655234932899475, 0.007262431550770998, -0.18484480679035187, 0.056377045810222626, -0.010339506901800632, 0.10541580617427826, 0.22685106098651886, -0.2874724864959717, -0.09484107792377472, -0.9255833029747009, -0.24943511188030243, -0.27035805583000183, -0.517811119556427, 0.23555628955364227, 0.5786176323890686, -0.026727309450507164, -0.4128361642360687, -0.33297571539878845, -0.6847177743911743, -0.6637334227561951, 0.06794411689043045, 0.2630980908870697, 0.5573614835739136, 0.33066582679748535, -0.209940105676651, 0.1780041754245758], [-0.07508852332830429, 0.6653946042060852, -0.060908835381269455, 0.010289656929671764, -0.5445265769958496, -0.4069600999355316, 0.2549867331981659, -0.5267617702484131, 0.22802600264549255, -0.37308430671691895, 0.03909583017230034, -0.3962540328502655, -0.6753031015396118, -0.03233284875750542, -0.11171689629554749, -1.0606999397277832, -0.1355360448360443, 0.03728284314274788, 0.3625327944755554, 0.06128246709704399, -0.02034085802733898, -0.4694835841655731, -0.6907817125320435, 0.035738177597522736, -0.001184823107905686, -0.21394257247447968, -0.4178093671798706, -0.035724740475416183, 0.2515277862548828, 0.1644868105649948, -0.32483726739883423, -0.3396090567111969], [-0.003671291284263134, 0.33890828490257263, 0.0850738137960434, -0.785438060760498, -0.09421598166227341, 0.12787820398807526, 0.06018204614520073, -0.4044106900691986, 0.32157668471336365, -0.6019807457923889, -0.39590540528297424, 0.10504905134439468, 0.22344544529914856, -0.20731204748153687, -0.39381143450737, 0.057766225188970566, -0.04114457964897156, -0.03955667093396187, 0.14076083898544312, -0.25959405303001404, 0.3352411687374115, -0.3552679717540741, -0.614975094795227, 0.15822216868400574, -0.669369101524353, -0.46935272216796875, -0.18888285756111145, 0.8035184741020203, 0.026439771056175232, -0.25160202383995056, -0.29958224296569824, 0.3292480409145355]], "lstm.weight_hh_l0": [[-0.9423996210098267, -9.516404679743573e-05, -0.015355031937360764, -0.09120896458625793, -0.06432083249092102, -0.04173758253455162, 0.013288554735481739, 0.05406233295798302, 0.0455406978726387, 0.06476430594921112, 0.19061771035194397, 0.049322158098220825, 0.09207400679588318, -0.23905886709690094, 0.012647479772567749, -0.19699598848819733, -0.036516137421131134, -0.05071840062737465, -0.11575984209775925, 0.27302229404449463, -0.20101110637187958, -0.10691408067941666, 0.008743293583393097, 0.4277271032333374, 0.13001376390457153, -0.03229731321334839, -0.17225107550621033, -0.08454877883195877, -0.2184319794178009, -0.306422621011734, 0.1062183827161789, 0.034246157854795456], [-0.037927765399217606, 0.45852240920066833, 0.10037758946418762, 0.16376523673534393, -0.2957999110221863, 0.016684312373399734, 0.04758957773447037, -0.1037580668926239, 0.08774081617593765, 0.042557526379823685, 0.05710431560873985, 0.12557217478752136, 0.18235141038894653, -0.21258732676506042, 0.12171318382024765, -0.15230271220207214, 0.03427521139383316, -0.0032101464457809925, -0.03415205702185631, 0.15059776604175568, -0.1979644000530243, 0.08323298394680023, -0.005826262757182121, 0.14849436283111572, 0.000752971856854856, -0.21586573123931885, -0.08784611523151398, 0.01051145326346159, 0.13269266486167908, -0.039085905998945236, 0.16587044298648834, -0.11635871231555939], [0.19209235906600952, 0.10531143099069595, 0.21556274592876434, -0.15730920433998108, 0.23152491450309753, -0.09841953963041306, 0.1942603886127472, -0.4905232787132263, 0.09641310572624207, -0.6106483936309814, 0.13139712810516357, -0.2012804001569748, 0.22714127600193024, 0.2787192165851593, 0.07098107784986496, -0.04438285902142525, -0.22132417559623718, -0.21344424784183502, 0.3117554485797882, -0.1458587497472763, 0.021620210260152817, -0.2867254614830017, 0.48203548789024353, -0.41396626830101013, 0.49477022886276245, 0.2098488211631775, -0.23162610828876495, -0.13068988919258118, 0.1787823736667633, -0.2362552136182785, -0.14364950358867645, 0.08924464881420135], [-0.23915979266166687, 0.1927747279405594, 0.06876617670059204, 0.468346506357193, 0.024655601009726524, 0.3877668082714081, 0.058092307299375534, 0.2668175995349884, 0.07187637686729431, 0.24415893852710724, 0.14842815697193146, -0.07029317319393158, 0.01426450815051794, -0.1055881679058075, 0.011110353283584118, 0.16118717193603516, 0.021466553211212158, -0.07810397446155548, 0.07235272973775864, 0.014888351783156395, -0.12076874077320099, 0.2576899230480194, -0.10554691404104233, 0.14925609529018402, 0.12895284593105316, 0.09192827343940735, -0.0010089672869071364, 0.09615589678287506, -0.18446707725524902, -0.021565649658441544, 0.057618264108896255, 0.07720543444156647], [0.02020673081278801, 0.03051949478685856, 0.23574011027812958, 0.017464028671383858, -0.23228956758975983, 0.24199114739894867, 0.1544267237186432, 0.0003414162201806903, 0.2803102731704712, -0.13775643706321716, -0.026039309799671173, -0.02644713595509529, -0.1239686831831932, -0.015432607382535934, -0.031214550137519836, -0.006472226697951555, -0.14791910350322723, -0.11021970957517624, -0.05775438994169235, 0.1750892549753189, 0.09031957387924194, 0.09421582520008087, -0.13434340059757233, -0.009495525620877743, 0.2238255739212036, -0.09312375634908676, -0.26315611600875854, 0.1687627136707306, -0.35699164867401123, -0.2296016961336136, -0.04248400032520294, -0.05368402227759361], [0.18754009902477264, 0.35738593339920044, -0.5299803614616394, -0.23615211248397827, 0.39698654413223267, 0.536607027053833, 0.0243549644947052, -0.12573382258415222, 0.05881750211119652, -0.37499603629112244, -0.021264048293232918, -0.1490471065044403, 0.07527206838130951, 0.12379515916109085, -0.3345296382904053, -0.13908293843269348, -0.188248410820961, -0.28120583295822144, -0.06571664661169052, -0.23087471723556519, -0.10776641964912415, -0.14314816892147064, 0.38204899430274963, -0.45490458607673645, 0.28091344237327576, 0.19772551953792572, 0.019000140950083733, -0.3078482747077942, 0.1419975459575653, -0.11216025799512863, -0.08065390586853027, 0.10984218865633011], [0.14989887177944183, 0.009038046002388, 0.30519184470176697, -0.0342022068798542, -0.011822282336652279, 0.1813039481639862, 0.09020799398422241, -0.01571141928434372, -0.02131817676126957, 0.244009867310524, -0.057158004492521286, 0.034850575029850006, 0.07996329665184021, -0.1746363788843155, 0.2837599217891693, 0.19135524332523346, 0.14063116908073425, -0.027126220986247063, 0.03994226083159447, 0.09038398414850235, -0.35207685828208923, 0.3897019922733307, -0.0825386643409729, -0.019013499841094017, -0.09565405547618866, -0.1224251314997673, 0.06105261296033859, -0.03189295157790184, -0.21912240982055664, 0.08685291558504105, 0.22197870910167694, -0.12094239890575409], [-0.18047067523002625, -0.0186413936316967, 0.046885330229997635, 0.060297153890132904, 0.15046733617782593, -0.12211345881223679, 0.27950966358184814, 0.48828715085983276, -0.1697380095720291, -0.09009484946727753, -0.15198305249214172, 0.043337494134902954, -0.027934759855270386, -0.017865866422653198, -0.10561986267566681, -0.09139446169137955, -0.2871187627315521, -0.10612600296735764, 0.17562122642993927, -0.03122815489768982, -0.04471646994352341, 0.05479700490832329, -0.029567869380116463, 0.07813624292612076, -0.10211054235696793, 0.08175714313983917, 0.09824125468730927, -0.12074705958366394, 0.10903889685869217, -0.04643869772553444, -0.31661540269851685, 0.20991218090057373], [-0.5467384457588196, 0.15034517645835876, 0.260847270488739, 0.4971974492073059, -0.17249801754951477, 0.2830836772918701, -0.2198021411895752, 0.3585694134235382, 0.2772536873817444, 0.46013152599334717, -0.14119434356689453, 0.45970994234085083, 0.1361033171415329, -0.22357690334320068, 0.4858298599720001, 0.24903792142868042, 0.2783409655094147, 0.37714195251464844, -0.2660071551799774, 0.3563120365142822, -0.42252832651138306, 0.2798309624195099, -0.3660566210746765, 0.48751699924468994, -0.2154022455215454, -0.2720522880554199, -0.3519885241985321, 0.22562357783317566, -0.3117786645889282, 0.46721765398979187, 0.2660163640975952, -0.3620024025440216], [0.1263289600610733, -0.19874048233032227, -0.0068970429711043835, -0.003751216921955347, 0.40662238001823425, 0.07544101029634476, 0.3949342668056488, -0.195887491106987, -0.31869053840637207, 0.22740203142166138, -0.08990753442049026, -0.19419585168361664, -0.2893330156803131, 0.33974048495292664, -0.35588836669921875, -0.16514818370342255, -0.2541542947292328, -0.11882328987121582, 0.4695854187011719, -0.0404164120554924, 0.30695024132728577, -0.23044109344482422, 0.16425520181655884, -0.18562163412570953, 0.5203993916511536, 0.18014277517795563, 0.1762821525335312, -0.44507718086242676, 0.3483934700489044, -0.26765549182891846, -0.2924887239933014, 0.15156029164791107], [0.12567713856697083, -0.024248067289590836, 0.05238766223192215, -0.12814490497112274, 0.2012324035167694, -0.12228143215179443, -0.04996789991855621, -0.2518148422241211, 0.11005070805549622, -0.1296033263206482, -0.34950128197669983, -0.03407080098986626, 0.12146524339914322, 0.04474687576293945, 0.03916879743337631, 0.04523971304297447, 0.0011401133378967643, -0.28658366203308105, -0.08005456626415253, -0.055456750094890594, -0.14069321751594543, -0.06695478409528732, 0.027962256222963333, -0.29689309000968933, -0.20339424908161163, 0.29205337166786194, -0.002884249435737729, 0.06032966077327728, 0.22118309140205383, -0.2498391568660736, 0.029710112139582634, -0.09728030115365982], [-0.27550849318504333, 0.0826982855796814, 0.09456421434879303, 0.07293695956468582, -0.1796485185623169, 0.23599806427955627, 0.021420815959572792, -0.1431722640991211, 0.26776498556137085, -0.012209123931825161, -0.01488178689032793, 0.453503280878067, -0.1608107089996338, -0.23068390786647797, 0.41394445300102234, 0.09722135215997696, 0.012091332115232944, 0.13086456060409546, 0.11741550266742706, 0.1743973344564438, 0.1454927921295166, 0.0764487087726593, -0.04243528097867966, -0.12920443713665009, -0.039635930210351944, -0.04255525767803192, -0.2903572916984558, 0.22938624024391174, -0.18929988145828247, 0.03110101819038391, 0.2555676996707916, -0.19794565439224243], [-0.3933006525039673, 0.2940652668476105, -0.08481430262327194, 0.1197829395532608, -0.29382988810539246, 0.10402356088161469, -0.10486222058534622, 0.372410386800766, -0.04427788406610489, 0.26862308382987976, -0.07690152525901794, 0.22792035341262817, 0.5885379314422607, -0.41525718569755554, 0.12028683722019196, 0.2773861885070801, 0.04627596214413643, 0.02196498028934002, -0.1362212896347046, 0.02334580197930336, -0.09842721372842789, -0.013616377487778664, -0.06285758316516876, 0.06260369718074799, 0.25435343384742737, -0.24110279977321625, -0.1544039100408554, 0.07262134552001953, -0.0006666593253612518, 0.09005244076251984, 0.12460089474916458, -0.2550199627876282], [-0.09801346063613892, 0.1598236858844757, -0.163008913397789, -0.0916161760687828, 0.21760495007038116, -0.026669558137655258, 0.21001803874969482, -0.1611836850643158, 0.0550193265080452, -0.23580850660800934, -0.24951207637786865, -0.23221513628959656, -0.028624262660741806, -0.2487611621618271, -0.05417023226618767, 0.09484562277793884, -0.11667435616254807, -0.23054766654968262, 0.01781260222196579, -0.08417165279388428, -0.13506197929382324, 0.1011592298746109, -0.04071725904941559, -0.08153540641069412, -0.005379498936235905, -0.08000937104225159, -0.12666809558868408, 0.020832477137446404, 0.2520700991153717, -0.19129841029644012, 0.0571325421333313, 0.0420672707259655], [0.1028735414147377, -0.0604039803147316, -0.16459880769252777, -0.37340331077575684, 0.36451834440231323, -0.05224904417991638, 0.11615001410245895, 0.007257341872900724, -0.14730393886566162, 0.14064760506153107, 0.05246678739786148, -0.20787690579891205, -0.41541773080825806, 0.03740145266056061, 0.40457451343536377, -0.369996577501297, -0.3303896486759186, -0.3116983473300934, 0.23001833260059357, -0.290983647108078, 0.22157904505729675, -0.39802420139312744, 0.11897941678762436, 0.013538623228669167, 0.30174487829208374, 0.16199685633182526, -0.20547644793987274, -0.18501310050487518, 0.3683280646800995, -0.29797613620758057, -0.11088595539331436, 0.23999299108982086], [0.30162549018859863, -0.3185868561267853, -0.4423215389251709, -0.5491982102394104, 0.3004782199859619, -0.3799964487552643, 0.47078466415405273, -0.4625082314014435, -0.1667146533727646, -0.5057016611099243, -0.12143586575984955, -0.2387934923171997, -0.324981689453125, 0.2938878536224365, -0.26561087369918823, -0.26402997970581055, -0.39787963032722473, -0.4900834858417511, 0.44882267713546753, -0.4589370787143707, 0.32681405544281006, -0.353430837392807, 0.37318965792655945, -0.4276411831378937, 0.44936543703079224, 0.4089847505092621, 0.24729157984256744, -0.4819823205471039, 0.3529749810695648, -0.5408889651298523, -0.577375054359436, 0.32321131229400635], [-0.413708359003067, 0.3092619478702545, -0.1458825320005417, -0.24952492117881775, -0.10650236159563065, 0.3557797968387604, 0.19363023340702057, -0.04519343748688698, 0.10012532770633698, -0.05035501345992088, -0.039739057421684265, 0.04462147131562233, 0.1319485902786255, -0.09636853635311127, 0.26094016432762146, -0.0011029297020286322, 0.5769970417022705, -0.0328090637922287, 0.13328862190246582, -0.1561485230922699, 0.10068751871585846, 