{"linear_1.weight": [[0.7151519656181335], [0.7565439343452454], [-0.23427248001098633], [0.7375766634941101], [-0.12983886897563934], [0.13869985938072205], [-0.1579156219959259], [0.8330535888671875], [1.0193525552749634], [-0.754368007183075], [0.8793159127235413], [0.016143254935741425], [0.12090976536273956], [0.13543057441711426], [0.038039520382881165], [-0.1314271092414856], [0.5874238014221191], [0.14780890941619873], [-0.46683990955352783], [0.2548983097076416], [-0.46073663234710693], [0.02416761964559555], [-0.2519936263561249], [0.6646192669868469], [-0.7364245057106018], [-0.48847612738609314], [-0.561404287815094], [-0.601272463798523], [0.21656842529773712], [-1.1077275276184082], [0.41447094082832336], [-0.9350136518478394]], "linear_1.bias": [0.7136463522911072, -0.029407942667603493, -0.32470452785491943, 0.7225552797317505, 0.12646256387233734, 0.17396560311317444, -0.16323576867580414, -0.29262658953666687, 0.19964756071567535, -0.294750452041626, 0.47719618678092957, -0.05650259926915169, -0.11829807609319687, -0.437172532081604, -0.07404386252164841, 0.14701227843761444, 0.5797292590141296, -0.6095050573348999, -0.9899084568023682, -0.3863605260848999, -0.7670228481292725, -0.05365925282239914, 0.24180109798908234, 0.3616330623626709, 0.23960185050964355, -0.041100453585386276, 0.6547715663909912, -0.7105135917663574, -0.20515675842761993, -0.6176151037216187, 0.1417022943496704, -0.2446623295545578], "lstm.weight_ih_l0": [[-0.21473117172718048, 0.11523357033729553, -0.2396354079246521, 0.2203441560268402, -0.2765580117702484, -0.4362274408340454, -0.3010897636413574, 0.891562819480896, -0.14326059818267822, 0.26625487208366394, 0.09440401196479797, 0.09230782836675644, 0.057454198598861694, -0.2286173403263092, -0.7228517532348633, -0.6667208671569824, -0.029383350163698196, 0.025041794404387474, -0.1456422656774521, -0.04655490443110466, -0.12264718860387802, -0.020630255341529846, -0.3552434742450714, 0.2638067901134491, -0.2831498086452484, -0.3631688952445984, -0.48129943013191223, -0.12421517074108124, -0.05040033906698227, 0.4715730845928192, 0.39531970024108887, 0.3071717917919159], [0.18380405008792877, -0.07495150715112686, -0.19155508279800415, -0.3924398422241211, 0.09703369438648224, 0.3113804757595062, 0.09020774811506271, 0.5165197849273682, 0.3211752772331238, 0.2882913053035736, -0.4944848418235779, -0.2045074701309204, 0.05040626600384712, -0.17186829447746277, 0.5766103267669678, -0.31738215684890747, 0.024446237832307816, -0.14541538059711456, -0.2095337212085724, 0.23281654715538025, 0.5780244469642639, -0.05599555745720863, -0.19430311024188995, 0.6804288625717163, 0.021718349307775497, 0.03508642688393593, -0.48720666766166687, -0.19050362706184387, -0.018762167543172836, 0.10773409903049469, 0.42605534195899963, -0.09684540331363678], [-0.48943090438842773, 0.009014716371893883, 0.27430596947669983, 0.1653757393360138, -0.24720387160778046, -0.16659016907215118, -0.2982645630836487, 1.0144150257110596, 0.06742244958877563, 0.17689836025238037, 0.5939980745315552, 0.18379294872283936, -0.05498111993074417, 0.3426893949508667, -0.04935356602072716, -0.19648517668247223, -0.1335761994123459, 0.4325111210346222, 0.07957752794027328, -0.3040158450603485, 0.037192706018686295, 0.5471479296684265, 0.01567716710269451, 0.04304714500904083, 0.4334908723831177, -0.037009097635746, -0.5588760375976562, -0.3681429326534271, 0.0829419493675232, 0.4888712167739868, 0.21860669553279877, -0.005538309924304485], [0.15645164251327515, 0.31555095314979553, -0.019047759473323822, -0.12949323654174805, -0.11338751763105392, -0.36586520075798035, -0.3162158131599426, 0.7434980869293213, 0.1487087905406952, -0.21129895746707916, 0.27337169647216797, 0.6007906794548035, 0.03299355134367943, 0.2929641604423523, -0.13599765300750732, -0.3842279016971588, 0.2515842020511627, 0.007591139990836382, 0.3300224542617798, -0.3305259346961975, 0.1668674200773239, 0.002771449973806739, -0.5419347286224365, -0.1865648627281189, -0.44284671545028687, -0.1857675313949585, -0.6813936233520508, 0.15021435916423798, -0.028610235080122948, 0.3379706144332886, -0.09097670018672943, 0.22962720692157745], [-0.34476515650749207, 0.12162527441978455, 0.4214678406715393, -0.38323819637298584, -0.09975890815258026, -0.2775995433330536, 0.1306227296590805, 0.762668251991272, 0.015915483236312866, 0.025811931118369102, 0.13002143800258636, -0.11997728794813156, 0.044949378818273544, -0.4067537188529968, -0.294050931930542, -0.3640406131744385, -0.36508920788764954, -0.061159636825323105, -0.03779669851064682, 0.3142131567001343, 0.2506770193576813, -0.2924693524837494, -0.38099128007888794, 0.09225951880216599, -0.8395776748657227, -0.2912573516368866, -0.11371970176696777, -0.1653710901737213, 0.2666746973991394, 0.5701966881752014, -0.07123413681983948, 0.3353135585784912], [0.44860532879829407, 0.45921069383621216, 0.3644362688064575, -0.15891987085342407, 0.015574198216199875, -0.00375521183013916, -0.23018842935562134, 1.2531229257583618, 0.11126374453306198, 0.1613347977399826, -0.16622164845466614, 0.19032250344753265, 0.21650590002536774, -0.6439707279205322, 0.1484309881925583, 0.06662598997354507, -0.025543345138430595, -0.44537514448165894, -0.3730004131793976, 0.28353768587112427, -0.2619079649448395, 0.23652587831020355, -0.013288518413901329, 0.3373664915561676, -0.24045735597610474, 0.10299641638994217, -0.014280390925705433, -0.01606767438352108, 0.43396496772766113, 0.1793617159128189, 0.0892803892493248, -0.1219710186123848], [-0.16016601026058197, 0.5201261639595032, 0.23033683001995087, -0.022730344906449318, 0.1119103655219078, -0.023246420547366142, 0.2339455485343933, 0.511728048324585, 0.5463863611221313, 0.40869176387786865, 0.4169797897338867, 0.0035382865462452173, 0.15488338470458984, 0.16854225099086761, 0.23341955244541168, 0.08052483946084976, 0.12239164859056473, 0.035539209842681885, 0.5119598507881165, -0.27579542994499207, -0.4619351029396057, 0.039235979318618774, -0.0008546757162548602, 0.20919397473335266, 0.08352910727262497, 0.00543582160025835, 0.1095215231180191, -0.39078083634376526, 0.3819018602371216, 0.4304393529891968, 0.09133843332529068, 0.7968289256095886], [0.11881043761968613, 0.4003449082374573, -0.30954399704933167, -0.4013139009475708, -0.4490848481655121, -0.16074001789093018, 0.3488016128540039, 0.9452885389328003, 0.5446663498878479, -0.20117780566215515, -0.08193895220756531, -0.37138137221336365, 0.2251836508512497, -0.4022441804409027, 0.0434206984937191, -0.3812733590602875, -0.4144223630428314, 0.42725086212158203, 0.0036865409929305315, -0.007004543673247099, 0.1932460367679596, -0.11810799688100815, -0.3317054510116577, 0.14148667454719543, 0.01395763736218214, -0.09182529896497726, 0.0015909791691228747, 0.06483222544193268, 0.4615364968776703, 0.4062414765357971, 0.012917003594338894, -0.3960302770137787], [0.40340811014175415, 0.5780037045478821, -0.03752311319112778, -0.24668040871620178, -0.5425164699554443, -0.3251045346260071, -0.0883440300822258, 0.729724109172821, 0.3400211036205292, 0.07302983850240707, 0.05392751470208168, -0.280674546957016, 0.4592231214046478, 0.4242264926433563, -0.40875107049942017, -0.2158154547214508, 0.10291541367769241, -0.38885992765426636, -0.12653827667236328, 0.21621929109096527, 0.17406509816646576, 0.20822663605213165, -0.656766414642334, -0.24892522394657135, -0.270900696516037, 0.08571245521306992, -0.6249582767486572, 0.14617733657360077, -0.15296941995620728, 0.14935636520385742, -0.39790940284729004, 0.08995816856622696], [-0.3450286388397217, 0.0318925678730011, 0.07690652459859848, 0.146142840385437, -0.13801057636737823, -0.47474002838134766, -0.16500058770179749, 0.6975026726722717, 0.4590275287628174, 0.2387300580739975, 0.0790906697511673, 0.07612667977809906, 0.04149744287133217, 0.028063874691724777, 0.009116457775235176, -0.26847049593925476, -0.2467844933271408, -0.08647090196609497, -0.048846285790205, -1.147621750831604, -0.5130724310874939, -0.05104762315750122, -0.11792619526386261, -0.268324613571167, -0.09372211247682571, -0.03737087547779083, -0.027430159971117973, 0.17674903571605682, -0.22791150212287903, 0.2677762806415558, 0.295229434967041, 0.3490854501724243], [0.01930130273103714, 0.34352192282676697, 0.4284399151802063, -0.6378917694091797, 0.2165958136320114, 0.12142844498157501, -0.5107630491256714, 0.03297250345349312, 0.2744229733943939, -0.19464515149593353, -0.4418902099132538, -0.3352208435535431, -0.16928257048130035, -0.2010340392589569, -0.5258346796035767, 0.2638828754425049, -0.4409370720386505, 0.39125752449035645, -0.2416190207004547, 0.04166434332728386, 0.3885730803012848, -0.08425362408161163, -0.03288375213742256, -0.2596294581890106, -0.4730801284313202, -0.3145590126514435, -0.40724432468414307, -0.11062406003475189, -0.0675319954752922, 0.4831450283527374, -0.03551334887742996, 0.32237720489501953], [0.058360762894153595, 0.26218727231025696, 0.09887226670980453, 0.051120609045028687, -0.5053502917289734, 0.1393676996231079, -0.05873224511742592, 0.357992559671402, 0.164973646402359, 0.2972150444984436, 0.06300131231546402, -0.33981120586395264, 0.037136614322662354, 0.13666924834251404, 0.13225507736206055, -0.3011528551578522, -0.23920172452926636, 0.49755701422691345, -0.3115277588367462, -0.1430370807647705, 0.09282969683408737, -0.20532505214214325, -0.031155362725257874, -0.010932381264865398, -0.20334205031394958, 0.17802366614341736, -0.769291877746582, -0.31709015369415283, -0.04977182298898697, -0.06160581111907959, -0.10587690770626068, 0.49413982033729553], [0.0054218582808971405, 0.1696484088897705, -0.006972296629101038, -0.3762083649635315, -0.37047216296195984, 0.09979242831468582, -0.31729960441589355, 0.9940146803855896, 0.004359113052487373, 0.40756839513778687, 0.5644087791442871, 0.0453067347407341, -0.05311458930373192, 0.300366073846817, -0.49474650621414185, -0.25368431210517883, -0.05325617268681526, 0.16834208369255066, 0.06066867709159851, 0.22415903210639954, -0.3602084219455719, 0.04924691095948219, -0.1645459532737732, 0.018766241148114204, 0.005152876488864422, 0.029910989105701447, -0.2456527203321457, 0.2625299394130707, -0.10412336885929108, 0.4167177677154541, -0.1359606683254242, 0.4907419681549072], [0.3044547140598297, -0.3864700198173523, -0.21306146681308746, -0.3041447401046753, -0.36314189434051514, 0.13353613018989563, 0.0007826423970982432, 0.86355060338974, 0.2801280915737152, 0.4085785746574402, -0.06333913654088974, 0.0749385803937912, 0.09541758894920349, -0.044379014521837234, -0.25201350450515747, -0.07744136452674866, -0.254824161529541, -0.042847879230976105, 0.07252728193998337, 0.018998688086867332, 0.11311542242765427, -0.2711121737957001, -0.08299499750137329, 0.23764432966709137, -0.370347261428833, 0.2878152132034302, 0.027367856353521347, -0.09953241795301437, 0.19473528861999512, 0.6807577610015869, 0.17796874046325684, 0.3612062335014343], [0.24803043901920319, 0.39552438259124756, 0.06394079327583313, -0.8862186074256897, -0.26346033811569214, -0.05453380197286606, 0.30365225672721863, 0.8408468961715698, 0.32648685574531555, 0.4937710464000702, 0.6802824139595032, -0.32366234064102173, -0.058642785996198654, -0.1706254929304123, -0.08807564526796341, 0.0054178363643586636, -0.5831199288368225, 0.11307138204574585, 0.01940532587468624, 0.1759289652109146, -0.3962465822696686, -0.21359883248806, -0.34225770831108093, -0.19382281601428986, -0.013071306981146336, -0.10429266840219498, -0.20895230770111084, 0.10448725521564484, 0.16312818229198456, 0.7973403930664062, 0.2067164033651352, 0.45342105627059937], [-1.0285724401474, 0.5356860160827637, -0.024163898080587387, -0.4069015681743622, 0.08306477963924408, 0.36415666341781616, -0.22245973348617554, 0.37988269329071045, -0.14285357296466827, -0.13559238612651825, -0.26708677411079407, -0.2690419554710388, -0.43737730383872986, -0.20964978635311127, -0.46544116735458374, -0.18976306915283203, -0.25211527943611145, 0.30198198556900024, 0.2164488434791565, -0.028780654072761536, -0.051713310182094574, -0.11082590371370316, 0.03421834856271744, -0.2007024735212326, -0.04888124763965607, -0.49108266830444336, -0.23564425110816956, -0.5735041499137878, -0.5380905270576477, 0.21073941886425018, -0.4021892547607422, 0.10644781589508057], [-0.6094348430633545, -0.07683558762073517, 0.22917865216732025, -0.3222610354423523, -0.5709507465362549, -0.351681649684906, 0.21758031845092773, 0.6610182523727417, 0.08596259355545044, 0.49186888337135315, 0.029122987762093544, -0.22596602141857147, 0.0516730472445488, 0.20073926448822021, -0.3716749846935272, -0.010554207488894463, 0.046187352389097214, -0.05446513742208481, 0.06373598426580429, 0.44721558690071106, 0.2094632387161255, -0.34563177824020386, -0.7623099088668823, 0.2975328266620636, -0.27418816089630127, -0.116919606924057, -0.5518819689750671, 0.20494863390922546, -0.07259280234575272, 0.1392037719488144, -0.26379698514938354, 0.14679820835590363], [0.3323373794555664, 0.5330421328544617, -0.11648089438676834, -0.2928878962993622, 0.3771059513092041, -0.030785877257585526, -0.24807026982307434, 0.6701331734657288, 0.3261830806732178, 0.3206436038017273, 0.1025221049785614, 0.3684975504875183, -0.17121179401874542, -0.2642534077167511, 0.12529951333999634, -0.21462607383728027, 0.25956445932388306, -0.029263807460665703, 0.06079193204641342, -0.4758239686489105, -0.37801748514175415, -0.018406152725219727, -0.5840229392051697, -0.0635429322719574, 0.02456752210855484, -0.3439576029777527, -0.5222698450088501, 0.3662252426147461, 0.2942016124725342, 0.37780341506004333, -0.42555439472198486, 0.1027679592370987], [-0.25787267088890076, 0.23628759384155273, 0.15605349838733673, -0.19042401015758514, 0.06989332288503647, -0.7255486249923706, -0.08475643396377563, 0.6868975758552551, 0.08045940101146698, 0.3447912633419037, 0.43214359879493713, 0.07407302409410477, -0.035512883216142654, -0.2746187448501587, -0.1707105040550232, 0.03803667053580284, -0.43694788217544556, -0.1726822704076767, 0.09905418008565903, -0.6336913704872131, -0.3486466705799103, -0.5532238483428955, -0.16076864302158356, 0.21821840107440948, 0.1416367143392563, -0.2131810486316681, -0.674172043800354, -0.36422672867774963, 0.6677021384239197, 0.266752153635025, 0.24093149602413177, 0.3414197564125061], [-0.27140623331069946, 0.18156850337982178, 0.10528300702571869, -0.48458385467529297, -0.013648767955601215, -0.42033714056015015, 0.3410303294658661, 0.6579732894897461, -0.0150417760014534, 0.25207123160362244, 0.3401942551136017, -0.12663805484771729, -0.3218511641025543, -0.04615585133433342, -0.13583116233348846, -0.305782675743103, -0.011013643816113472, 0.15967048704624176, -0.23129937052726746, 0.11983557045459747, 0.01983552798628807, 0.06177663058042526, -0.05835120007395744, -0.10709991306066513, -0.18258346617221832, -0.05781887471675873, 0.09781023859977722, -0.25773710012435913, -0.20442000031471252, 0.41753077507019043, -0.32960712909698486, 0.05165177211165428], [-0.16149026155471802, -0.1466294527053833, -0.23342163860797882, -0.4827156066894531, -0.6161156892776489, -0.4376826882362366, 0.013440304435789585, 0.3671301305294037, 0.20144294202327728, 0.2014053910970688, 0.3233264088630676, -0.22956392168998718, -0.21490563452243805, -0.20254667103290558, -0.014045541174709797, -0.6869093775749207, -0.2853967547416687, -0.30646389722824097, -0.21241530776023865, 0.4166947603225708, 0.12244472652673721, -0.0759512186050415, -0.15993990004062653, -0.4621453285217285, 0.16065628826618195, 0.06968659907579422, -0.2891048491001129, -0.4064294099807739, -0.019044753164052963, 0.9863831400871277, 0.18715402483940125, 0.6832436323165894], [-0.041757144033908844, 0.03547880798578262, -0.3245195150375366, -0.2604006230831146, -0.10332254320383072, -0.05047547072172165, -0.15558455884456635, 0.6742286682128906, 0.17337730526924133, 0.020510124042630196, -0.08379192650318146, 0.1184605062007904, -0.20882871747016907, -0.2180822193622589, -0.14006337523460388, -0.4762784242630005, 0.16015346348285675, 0.13020949065685272, 0.2939133644104004, -0.0428168959915638, -0.18785738945007324, -0.3762466311454773, -0.07482673227787018, 0.038068968802690506, 0.03875573351979256, 0.21893341839313507, -0.5263060331344604, 0.024153081700205803, -0.15269719064235687, 0.32923436164855957, 0.1382502019405365, 0.4220375418663025], [0.03961633890867233, -0.0651395320892334, 0.07071402668952942, -0.050833363085985184, -0.3688786029815674, -0.2293565720319748, -0.2964353561401367, 0.9828272461891174, 0.3611709475517273, -0.25642654299736023, 0.26216453313827515, -0.11522740870714188, 0.19334200024604797, 0.41746312379837036, 0.1553352326154709, -0.2766364812850952, 0.08586930483579636, 3.677962740766816e-05, 0.06797826290130615, -0.2641274631023407, -0.21324856579303741, 0.09313806146383286, -0.2519822418689728, 0.12597765028476715, 0.00714222202077508, 0.21468493342399597, 0.09179455041885376, -0.2920025587081909, 0.36567744612693787, 0.2664417326450348, 0.4031495153903961, 0.08450599759817123], [0.08582521229982376, 0.21031373739242554, 0.11406347900629044, -0.435724675655365, -0.2026302069425583, -0.1563464254140854, 0.11096198111772537, 0.5971636176109314, 0.9810882210731506, 0.09429819136857986, 0.23193296790122986, -0.22385118901729584, 0.26224079728126526, -0.4618234932422638, -0.544613242149353, -0.3498096168041229, -0.012994065880775452, -0.26743587851524353, -0.10781750828027725, -0.4149417579174042, 0.020494582131505013, 0.2683658301830292, -0.22839805483818054, 0.2742098271846771, 0.014322222210466862, 0.060913003981113434, -0.02437247708439827, 0.04372607544064522, 0.3981174826622009, 0.07278502732515335, 0.006172847934067249, 0.12206249684095383], [-0.21339082717895508, 0.18156448006629944, -0.08983509987592697, 0.034572336822748184, 0.03520379588007927, -0.17617841064929962, 0.2758888602256775, 0.41665250062942505, 0.21213982999324799, 0.13970310986042023, -0.04436666890978813, -0.07341455668210983, 0.7881790995597839, 0.18470418453216553, 0.08079542219638824, 0.2915042042732239, 0.050882864743471146, -0.27350589632987976, -0.134521484375, -0.21829067170619965, 0.5274247527122498, 0.517707109451294, 0.22695015370845795, -0.2019791454076767, -0.06440191715955734, 0.08057911694049835, -0.14629994332790375, 0.04680308327078819, 0.5904236435890198, 0.052149102091789246, 0.33913272619247437, 0.5636246204376221], [-0.18698905408382416, 0.30482515692710876, -0.7327833771705627, -0.2686963379383087, -0.015133246779441833, 0.11275041848421097, -0.1279461532831192, 1.0267118215560913, 0.2736284136772156, 0.21720720827579498, -0.2693724036216736, -0.24882936477661133, 0.3420528173446655, 0.26604244112968445, 0.4442000985145569, -0.38288602232933044, -0.0695519745349884, 0.2580523192882538, -0.47028279304504395, 0.28491607308387756, -0.07684893906116486, 0.5738164186477661, 0.07465258240699768, -0.02986380271613598, -0.5285638570785522, 0.2350597232580185, -0.31475529074668884, -0.06500405073165894, -0.010450960136950016, 0.45829179883003235, 0.08551522344350815, -0.11081825941801071], [-0.24337466061115265, 0.8394810557365417, -0.003944950643926859, 0.4308742880821228, -0.0033029390033334494, 0.027375465258955956, 0.16815832257270813, -0.1580534428358078, 0.3941744267940521, -0.15851852297782898, -0.14437492191791534, 0.08224476128816605, -0.1828971952199936, -0.17621278762817383, 0.0106753408908844, -0.16772843897342682, 0.1363562047481537, 0.2571658492088318, -0.19012655317783356, 0.3229956328868866, -0.4550362527370453, 0.15673762559890747, -0.2939343750476837, 0.12612678110599518, -0.12591008841991425, -0.3166542947292328, 0.2954140603542328, 0.16639958322048187, 0.16221684217453003, 0.2749998867511749, 0.44412878155708313, -0.12281309068202972], [-0.17567329108715057, 0.28717687726020813, 0.04055286571383476, -0.08193739503622055, 0.1335516721010208, 0.21883337199687958, -0.2703627049922943, 0.16675041615962982, 0.2203799933195114, 0.005072328727692366, 0.25986117124557495, 0.1662483960390091, 0.1839364469051361, -0.0408049076795578, -0.11486348509788513, 0.3268022835254669, 0.06506626307964325, 0.33289510011672974, 0.020033828914165497, 0.45573869347572327, -0.006314091384410858, -0.23955152928829193, 0.34042444825172424, 0.0777311772108078, -0.12203196436166763, -0.038164980709552765, -0.15517297387123108, -0.13545115292072296, 0.2524881958961487, 0.5545453429222107, 0.04816786199808121, 0.037912767380476], [-0.3022448718547821, -0.29166173934936523, -0.03150616213679314, -0.4291285276412964, 0.05311260744929314, -0.8041409850120544, 0.09318175911903381, 0.42856428027153015, 0.20550931990146637, 0.8396190404891968, -0.1890917420387268, -0.17017556726932526, 0.10764104127883911, 0.05457443371415138, -0.1852685809135437, 0.0729522854089737, 0.291524738073349, -0.08234719932079315, 0.3260982632637024, 0.4514332711696625, 0.34215861558914185, 0.21863417327404022, -0.4503335952758789, 0.16904495656490326, -0.5631884932518005, 0.04856902360916138, -0.4416622817516327, -0.061925821006298065, 0.0945228561758995, 0.2891117036342621, -0.12457051873207092, 0.3663700819015503], [-0.3808397650718689, 0.3494778275489807, 0.6170981526374817, -0.01010052114725113, -0.38889965415000916, -0.2843209207057953, -0.11834924668073654, 1.012903094291687, 0.15590159595012665, 0.25431591272354126, 0.29143908619880676, 0.16184678673744202, -0.16312657296657562, -0.15060701966285706, -0.295877069234848, -0.3446718454360962, -0.08852895349264145, -0.2030704915523529, -0.334981769323349, -0.1837216317653656, -0.5503631830215454, -0.10159315168857574, -0.09062887728214264, 0.17940495908260345, 0.203865647315979, -0.008274388499557972, -0.0805986151099205, -0.07085917890071869, 0.4579158425331116, 0.5900309681892395, 0.1326334923505783, 0.3062744438648224], [-0.18208517134189606, 0.3873286247253418, -0.11113600432872772, -0.44705963134765625, 0.11678145825862885, -0.46006131172180176, 0.23752997815608978, 0.6122684478759766, 0.24238798022270203, 0.19241966307163239, -0.7171726822853088, -0.32205820083618164, 0.12974010407924652, -0.21784727275371552, 0.1606762707233429, -0.40651699900627136, 0.08328425139188766, 0.11149396747350693, 0.025414982810616493, 0.2692527174949646, 0.32146814465522766, 0.21643981337547302, -0.341037392616272, -0.2486891746520996, 0.05802450701594353, 0.20215339958667755, -0.08572126179933548, 0.18724238872528076, -0.14748138189315796, 0.5072098970413208, 0.1960611343383789, 0.09902975708246231], [-0.06877171993255615, 0.24252595007419586, 0.32741355895996094, 0.08153621852397919, 0.07192904502153397, 0.4050382971763611, -0.00503306370228529, 0.5972208976745605, 0.14418548345565796, 0.47873562574386597, 0.44925573468208313, -0.29725176095962524, 0.25703150033950806, 0.026900405064225197, 0.15874478220939636, -0.292553573846817, -0.5946657061576843, 0.0900401845574379, 0.14777199923992157, 0.33616384863853455, -0.4582447111606598, -0.10760406404733658, -0.0828312486410141, -0.28075671195983887, 0.06348136067390442, 0.14921525120735168, -0.3259652554988861, 0.5154590606689453, -0.05576184019446373, 1.0463182926177979, 0.241689071059227, 0.21040761470794678], [-0.20161840319633484, 0.285045862197876, -0.4434954524040222, -0.23264920711517334, -0.19865666329860687, -0.4580753445625305, -0.22471921145915985, 0.500651478767395, -0.1435103565454483, -0.28189757466316223, -0.6825739145278931, -0.0922514796257019, -0.05937521159648895, -0.20235784351825714, -0.3603040277957916, -0.480875700712204, -0.374860554933548, -0.17161931097507477, 0.13532596826553345, -0.11579181253910065, -0.09205357730388641, -0.3824335038661957, -0.46693018078804016, -0.17568089067935944, -0.6520219445228577, -0.39702191948890686, -1.0324827432632446, 0.1731671690940857, 0.27082881331443787, 0.2618175745010376, -0.13674435019493103, 0.12370849400758743], [-0.7672792077064514, -0.7102668881416321, -0.03170081973075867, -1.2009936571121216, -0.9993005990982056, -0.9479144811630249, -0.2306153029203415, 0.30285778641700745, -0.4480155408382416, -0.6408742070198059, -0.4776928722858429, -0.9504148364067078, -0.47187644243240356, 0.41509196162223816, -1.0161229372024536, -0.5854787230491638, -0.5312042832374573, -0.12826620042324066, -0.044133834540843964, -0.20680567622184753, 0.36275893449783325, -0.6709534525871277, -0.8668450713157654, -0.29662489891052246, -0.5122604966163635, -0.4120628833770752, -0.39468660950660706, 0.32283997535705566, -0.2815878391265869, 0.17579016089439392, -0.5872967839241028, -0.22984036803245544], [-0.9847444891929626, -0.4345075786113739, 0.03566094487905502, -1.1373493671417236, 0.11388330161571503, -0.8088953495025635, -0.257882297039032, 0.24473510682582855, -0.3803153932094574, 0.3289826214313507, -0.4927181601524353, -0.18593554198741913, -0.6235094666481018, -0.07357151061296463, -0.9437457919120789, -0.11058349162340164, -1.095422625541687, -0.0207213144749403, -0.1163814589381218, 0.4940650761127472, 0.21245861053466797, -0.4807482957839966, -0.22239643335342407, -0.48562461137771606, 0.14464125037193298, -0.5702480673789978, -0.2728920578956604, -0.10414250940084457, 0.41458597779273987, 0.35639116168022156, -0.5338844060897827, 0.4809440076351166], [-0.2938081622123718, -0.5217034220695496, -0.7255876064300537, -0.11284366250038147, -0.741706132888794, -0.8013232350349426, -0.497986376285553, -0.37252065539360046, -0.37713801860809326, -0.14560411870479584, -0.6003199815750122, -0.41941317915916443, -0.42122355103492737, 0.2848125398159027, -0.8282715678215027, -0.8710281848907471, -0.2784580886363983, -0.15415751934051514, 0.26823219656944275, 0.2142745405435562, -0.18145252764225006, -0.3858104944229126, -1.3508329391479492, -0.30623289942741394, -1.222984790802002, -0.36709949374198914, -0.8981091380119324, 0.31256237626075745, -0.043845802545547485, -0.20544326305389404, -0.11538086831569672, -0.5113542675971985], [-0.5890118479728699, -0.45247313380241394, -0.25979140400886536, -1.3082531690597534, -0.46772801876068115, -0.48866310715675354, -0.06360344588756561, 0.7203130125999451, -0.3987663984298706, -0.3010958433151245, -1.1957789659500122, 0.021249931305646896, -0.9924154281616211, 0.158344104886055, -0.6040054559707642, -0.3671528398990631, -0.7865420579910278, 0.001794532872736454, -0.27356788516044617, 0.41793546080589294, 0.060795821249485016, -0.4564066529273987, -0.1778498888015747, -0.6513485312461853, -0.2962251603603363, -0.18999555706977844, -0.24022428691387177, 0.06430566310882568, -0.16392074525356293, 0.7678430676460266, -0.09912463277578354, -0.21477307379245758], [-0.18549801409244537, -0.08258301764726639, 0.1741224080324173, -0.3233638107776642, -0.7632920742034912, -0.06353688985109329, -0.5286294221878052, 0.7187127470970154, 0.46973899006843567, -0.4651753008365631, -0.11933368444442749, -0.23653611540794373, 0.27374133467674255, 0.23835666477680206, -0.18746532499790192, 0.2927614748477936, -0.09867793321609497, -0.04781368002295494, 0.2031196504831314, 0.24063463509082794, 0.38205382227897644, -0.4252112805843353, -0.6315560936927795, -0.3040684759616852, -0.6104761362075806, -0.3522743284702301, -0.986310601234436, 0.10906334966421127, 3.7762201827717945e-05, -0.514880895614624, -0.05651815980672836, -0.4112226366996765], [-0.5692608952522278, 0.14530135691165924, 0.2603016793727875, -0.4113950729370117, -0.19151799380779266, -0.11455640196800232, -0.6458646655082703, 0.2667124569416046, -0.2931359112262726, 0.4681457281112671, 0.15001055598258972, -0.03762257471680641, -0.274616003036499, -0.09467943757772446, 0.05402851477265358, -0.5383937358856201, 0.026352714747190475, 0.0009191775461658835, -0.8677726984024048, 0.13107869029045105, 0.22167851030826569, -0.20103266835212708, -0.19258593022823334, -0.05833781883120537, -0.2846640944480896, -0.2870940566062927, -0.7861480116844177, -0.3230304718017578, 0.8877972960472107, 0.28834038972854614, -0.3801209330558777, 0.2731223404407501], [-0.6347010731697083, -0.16783107817173004, -0.09689448773860931, -0.3868144154548645, -0.4841545820236206, -0.4927309453487396, -0.1975214183330536, 0.46604016423225403, -0.4944780468940735, -0.48726892471313477, -0.27075108885765076, -0.19411903619766235, -0.2630731463432312, -0.029033105820417404, -0.522400975227356, -0.8731530904769897, -0.47899356484413147, -0.06633467227220535, 0.14454385638237, 0.38317006826400757, -0.10335028171539307, -0.47303131222724915, -0.7180141806602478, -0.7049287557601929, -0.45678970217704773, -0.17012371122837067, -0.9810448884963989, 0.3993348777294159, 0.3040427565574646, 0.34368085861206055, -0.14434003829956055, -0.17727425694465637], [0.15655355155467987, 0.6597757935523987, -0.08570417761802673, 0.05089254677295685, -0.4993111789226532, 0.04776822775602341, -0.5746469497680664, 0.31997039914131165, -0.1264580339193344, -0.6580705642700195, 0.037323664873838425, -0.1918627768754959, 0.1161322295665741, -0.16035474836826324, -0.308329313993454, -0.6354454755783081, 0.2626044452190399, 0.20931172370910645, 0.486275315284729, -0.41853395104408264, 0.22429729998111725, 0.08084692806005478, -0.28106310963630676, -0.285649836063385, 0.02051311358809471, -0.10698570311069489, -0.6163588762283325, -0.34982872009277344, 0.04578858241438866, 0.23945115506649017, 0.10883525013923645, 0.2572881579399109], [-0.8650793433189392, -0.6614370346069336, 0.03645232319831848, -0.6124967336654663, -0.578919529914856, -0.4146006405353546, 0.005487135611474514, -0.09439957141876221, -0.033769406378269196, -0.1770380437374115, -0.43266528844833374, -0.3505602777004242, -0.6581963300704956, 0.6268057823181152, -0.9677030444145203, -0.6326029300689697, -0.6166580319404602, -0.17422349750995636, 0.09481062740087509, 0.07122793048620224, -0.12359386682510376, -0.28771069645881653, -0.5571255683898926, -0.5870735049247742, -0.48457449674606323, -0.3075130879878998, -1.0054129362106323, 0.12954361736774445, 0.21954351663589478, 0.19799403846263885, -0.4817124605178833, -0.8080688714981079], [-0.30270200967788696, -0.24275684356689453, 0.4807802736759186, -0.960630476474762, -0.4710457921028137, -0.3240973651409149, 0.3501555621623993, 0.09743295609951019, -0.3993712067604065, -0.1017652153968811, -1.3118665218353271, -0.09071717411279678, -0.7201932072639465, 0.0012136375298723578, -0.57033371925354, -0.4001536965370178, -0.922546923160553, -0.015190263278782368, 0.057218536734580994, -0.05799388885498047, -0.37236398458480835, 0.29529932141304016, -0.42125529050827026, -0.8976471424102783, -0.8449797034263611, -0.5771000385284424, -0.3525165319442749, -0.21527375280857086, 0.06397084891796112, 0.0016300238203257322, -0.7611539959907532, -0.17811942100524902], [-1.0750490427017212, -0.7559953331947327, -0.19325485825538635, -0.9236862659454346, -0.590254008769989, -0.3238869309425354, -0.0208056028932333, -0.4025488495826721, -0.45564141869544983, -0.16467921435832977, -0.4898163974285126, -0.1408100426197052, -0.41946834325790405, -0.46093854308128357, -0.4320164918899536, -0.9886531233787537, -0.709854781627655, 0.1906721591949463, -0.32503989338874817, 0.37869730591773987, -0.019952157512307167, -0.4655671715736389, -0.9516258835792542, -0.86754310131073, -0.43779051303863525, -0.3427300453186035, -0.9718632102012634, 0.01311651710420847, -0.15344242751598358, 0.06650643795728683, -0.3430832326412201, -0.10993168503046036], [-1.6258374452590942, -0.5189685225486755, -0.17678630352020264, -1.2884188890457153, -0.5947238802909851, -0.7905288338661194, -0.3285541832447052, -0.36082759499549866, -0.2577344477176666, -0.20917023718357086, -0.6351534128189087, -0.2081870585680008, -0.7565625309944153, 0.3343980312347412, -1.0408419370651245, -0.013274830766022205, -1.5904079675674438, -0.180247500538826, 0.08453589677810669, 0.05107710510492325, 0.03438771888613701, -0.9165874719619751, -0.07532758265733719, -0.9326624870300293, -0.46607011556625366, -0.4452784061431885, -0.7474843263626099, -0.07915021479129791, 0.12437422573566437, 0.546017050743103, -0.758682906627655, -0.19744129478931427], [-0.9092588424682617, -0.5271238088607788, -0.0671776682138443, -1.0674220323562622, -0.5487326979637146, -1.3798894882202148, 0.24094726145267487, -0.28676027059555054, -0.3696770966053009, -0.15057504177093506, -0.7440727353096008, -0.44195887446403503, -0.3977305591106415, -0.6159943342208862, -0.4478454887866974, -0.908771276473999, -1.29283607006073, 0.018481390550732613, -0.08923820406198502, 0.047989655286073685, -0.16280831396579742, -0.37273725867271423, -0.41173434257507324, -0.5244926810264587, -0.6947721242904663, -0.12999877333641052, -0.7261655330657959, 0.48521140217781067, 0.15845684707164764, 0.520560085773468, -0.8402471542358398, 0.011017329059541225], [-1.548475980758667, -0.15989060699939728, -0.0987805724143982, -1.3637936115264893, -0.5121251344680786, -0.6588323712348938, 0.22016960382461548, 0.4069582521915436, -0.21333009004592896, -0.18246230483055115, -0.3895304203033447, 0.05145607516169548, -1.08226478099823, -0.15883247554302216, -0.8166148066520691, -0.21591918170452118, -1.192716360092163, 0.030501142144203186, -0.030458632856607437, 0.23402346670627594, -0.07122122496366501, -0.18120281398296356, -0.19774623215198517, -0.7317759990692139, -0.3120347559452057, -0.21238639950752258, -0.030535249039530754, -0.041879069060087204, -0.17984077334403992, 0.5028939843177795, -0.6303065419197083, 0.07291624695062637], [-1.0447849035263062, 0.3595235049724579, 0.03621640056371689, -0.6956759691238403, -0.2852311432361603, -0.4531129002571106, 0.12296894192695618, 0.06403791159391403, 0.07253105938434601, 0.042918816208839417, -0.5620244741439819, 0.3836022615432739, -0.5508731007575989, -0.23745769262313843, -0.26011037826538086, -0.3842546045780182, -0.11928484588861465, -0.3088439404964447, 0.2293435037136078, 0.14382211863994598, 0.1737484633922577, -0.12405449897050858, -0.5207647681236267, -0.4683648347854614, -0.08285440504550934, -0.22787334024906158, 0.03759611025452614, 0.06921499967575073, 0.15532244741916656, 0.22601710259914398, -1.0377167463302612, 0.001997563987970352], [-1.1288286447525024, -0.7154057025909424, 0.04051712900400162, -1.4136817455291748, 0.2930256128311157, -0.34198153018951416, -0.08526714891195297, -0.7836520671844482, 0.0746721476316452, 0.2088387906551361, -0.4650558531284332, -0.1947673261165619, -0.5302947759628296, -0.010072636418044567, -0.8102211952209473, -0.10447627305984497, -0.8619003295898438, -0.2113921344280243, 0.22432327270507812, 0.06824979186058044, 0.06553861498832703, -0.010164342820644379, -0.2021516114473343, -0.1349402815103531, -0.2738911509513855, -0.3402326703071594, -0.5093990564346313, -0.07410391420125961, 0.04559813812375069, 0.4012202322483063, 0.10648208856582642, 0.5312784910202026], [-1.1811891794204712, -0.5475269556045532, 0.0689217671751976, -0.9526274800300598, -0.6734175682067871, -0.9227123260498047, -0.4648548364639282, -0.9391351938247681, -0.5506186485290527, -0.4826311767101288, -0.22133827209472656, -0.8648120164871216, -0.1538720428943634, 0.15609723329544067, -0.34714341163635254, -0.7653043270111084, -1.065498948097229, 0.3086211383342743, 0.18884223699569702, 0.11903805285692215, 0.22857309877872467, -0.7654911279678345, -1.054462194442749, -0.6220404505729675, -1.2301971912384033, -0.6429395079612732, -1.6953333616256714, -0.3257315754890442, -0.16155171394348145, -0.23268987238407135, -0.4531219005584717, -0.26962512731552124], [0.1839313507080078, 0.4297317564487457, -0.257016658782959, 0.27784910798072815, 0.11251376569271088, 0.054631736129522324, 0.2364913821220398, 1.023179531097412, 0.5132217407226562, 0.06404352188110352, 0.20733997225761414, 0.02891581505537033, 0.25283339619636536, -0.31411582231521606, 0.05060553178191185, -0.11073075979948044, 0.5914223194122314, 0.03736817091703415, 0.10644332319498062, -0.12290338426828384, 0.17522208392620087, -0.05896623805165291, -0.20165151357650757, -0.11647626757621765, 0.03013874776661396, 0.33208340406417847, 0.32343417406082153, 0.3998706638813019, 0.04909300059080124, 0.8896710872650146, 0.1521397978067398, 0.30603882670402527], [-0.6675187349319458, -0.6657729148864746, -0.01866910420358181, -0.5608900189399719, -0.704048752784729, -0.41350987553596497, 0.034494999796152115, 0.4237443804740906, -0.6145078539848328, -0.023713884875178337, -0.14968428015708923, -0.32581835985183716, -0.34295645356178284, 0.036058854311704636, -0.5268454551696777, -0.5366978645324707, -0.7738131284713745, -0.3489275872707367, -0.07121055573225021, 0.26082760095596313, 0.4914666712284088, -0.3015502989292145, -0.32704880833625793, -0.0958108901977539, -0.5712252259254456, -0.6320557594299316, -0.37209317088127136, -0.14873817563056946, -0.5708605051040649, 0.11294041574001312, -0.33628565073013306, -0.2991219758987427], [-1.0604914426803589, -0.13522157073020935, 0.3091773986816406, -0.7775464057922363, -0.7064903378486633, -0.5870519876480103, -0.18428441882133484, -0.6673718094825745, -0.2152620255947113, 0.53011554479599, -0.3063320517539978, -0.6787603497505188, -0.7106431126594543, 0.019269084557890892, -0.4728105068206787, -0.26556357741355896, -0.5045709013938904, -0.22455015778541565, 0.3714028596878052, -0.014372437261044979, 0.16432872414588928, -0.19869381189346313, -0.6195753216743469, -0.29871243238449097, -0.25354862213134766, -0.3211000859737396, -0.6912625432014465, -0.0599827840924263, 0.20786811411380768, 0.08271265774965286, -0.15555469691753387, 0.5530258417129517], [-0.6571348905563354, -0.38490837812423706, -0.6094287633895874, -0.39970993995666504, -0.34320250153541565, -0.6916517019271851, 0.04479501023888588, -0.40437182784080505, -0.36655929684638977, 0.21447598934173584, -0.3214721381664276, -0.42996877431869507, -0.17905651032924652, 0.36515453457832336, -0.9094858765602112, -0.8884491920471191, -0.8731914758682251, -0.2759399712085724, 0.1414879858493805, -0.28175610303878784, 0.142718106508255, -0.4968639314174652, -1.0449144840240479, 0.034906040877103806, -0.29294922947883606, -0.6364554762840271, -0.46331918239593506, 0.43218064308166504, 0.849323570728302, 0.24324974417686462, -0.08785216510295868, -0.09515396505594254], [-0.9198655486106873, 0.20525074005126953, -0.16001379489898682, -0.4655179977416992, -0.3627248704433441, -0.805610179901123, -0.24933095276355743, 0.39318472146987915, -0.47797268629074097, -0.21625415980815887, -0.42701536417007446, -0.4749591648578644, -0.3510904610157013, 0.20346558094024658, -0.2731238007545471, -0.6807132959365845, -0.6285703778266907, -0.22405287623405457, 0.07798361778259277, 0.33176034688949585, -0.09201920032501221, -0.6592086553573608, -0.6404551267623901, -0.46576303243637085, -0.5293241143226624, -0.422057569026947, -0.7264086604118347, -0.057280685752630234, 0.18672674894332886, 0.01192989107221365, -0.1980353146791458, 0.057289984077215195], [-0.04329671710729599, 0.2755029797554016, 0.1831061691045761, 0.37307244539260864, -0.33527445793151855, -0.16772644221782684, -0.18053866922855377, 0.6801222562789917, 0.2707284986972809, -0.26142755150794983, 0.15537302196025848, -0.18407033383846283, -0.24221675097942352, -0.09768077731132507, 0.10727746039628983, -0.5613901019096375, 0.013799259439110756, 0.01664237305521965, -0.23332469165325165, -0.21845446527004242, 0.43630096316337585, -0.1544143557548523, -0.00274577084928751, 0.407549649477005, -0.30600354075431824, -0.2525654137134552, -0.5731043219566345, 0.053198013454675674, 0.34261202812194824, 0.0640045702457428, -0.2181810736656189, -0.5262296199798584], [0.3131120502948761, 0.3036876916885376, 0.09513811022043228, 0.14114487171173096, -0.22604437172412872, 0.4492851495742798, 0.15423834323883057, 0.46558648347854614, 0.6513941884040833, 0.24189648032188416, 0.3963526487350464, -0.09824355691671371, 0.1712900847196579, 0.335369735956192, 0.29629066586494446, 0.15043611824512482, 0.039958417415618896, -0.3496552109718323, -0.034900788217782974, 0.001448645256459713, 0.2858385145664215, 0.15507772564888, 0.19582499563694, 0.531865656375885, -0.030655307695269585, -0.11566660553216934, -0.12472104281187057, 0.09653725475072861, 0.25788629055023193, 0.03138401359319687, 0.18075516819953918, 0.03319267928600311], [-0.5111229419708252, 0.21140657365322113, 0.3524611294269562, -0.5819029808044434, -0.469533771276474, -0.6180989146232605, -0.070271335542202, -0.10904417186975479, 0.2397974133491516, 0.39186209440231323, -0.3091323971748352, -0.36866921186447144, -0.751114010810852, 0.10084076225757599, -0.4778600335121155, -0.3859139680862427, -0.49716654419898987, 0.1302386075258255, 0.31120607256889343, 0.016650229692459106, 0.21406112611293793, 0.06657472252845764, -0.27436378598213196, -0.12298191338777542, -0.035272493958473206, -0.44090113043785095, -0.06372819095849991, 0.14573292434215546, 0.12600061297416687, 0.45327073335647583, -0.5150717496871948, -0.47712334990501404], [-1.0666424036026, -0.5071936249732971, 0.4410913288593292, -1.2712483406066895, 0.05394254997372627, -0.6550459861755371, -0.5822167992591858, 0.1556900590658188, -0.5929639339447021, 0.0916188582777977, -0.5320791602134705, -0.21643061935901642, -0.23012271523475647, 0.17719754576683044, -0.4059196710586548, -0.8700131177902222, -0.4676920473575592, -0.22133055329322815, 0.4121413230895996, 0.4660702347755432, -0.15684160590171814, -0.46270951628685, -0.5206701755523682, -0.5187569856643677, -0.06430643796920776, 0.00022317499679047614, -0.8035650253295898, 0.04480918496847153, -0.007223809137940407, -0.03313649818301201, -0.09929178655147552, 0.08073204010725021], [-0.39522355794906616, 0.11018797755241394, -0.0018092470709234476, -0.4358699917793274, -0.25318416953086853, -0.25459471344947815, 0.21374011039733887, 0.21915486454963684, 0.11710461974143982, 0.08635023236274719, -0.11110252887010574, 0.31896987557411194, 0.17200639843940735, -0.25497719645500183, 0.05598939210176468, -0.08314020931720734, -0.0720236673951149, 0.08178986608982086, 0.12138780206441879, 0.014569186605513096, -0.28555142879486084, -0.3836976885795593, 0.08048426359891891, -0.15538626909255981, -0.23985567688941956, 0.18119454383850098, -0.08494453877210617, 0.004637150093913078, -0.15546707808971405, 0.010289323516190052, -0.0646941289305687, 0.19102972745895386], [-1.235724925994873, -0.7069084048271179, 0.4316278100013733, -1.1994078159332275, -0.1821380853652954, -0.16505961120128632, -0.07731284946203232, -0.11562135070562363, -0.13012275099754333, 0.8162246942520142, -0.4926736354827881, -0.317082017660141, -0.4264611601829529, 0.26863330602645874, -0.23382769525051117, -0.49483123421669006, -0.961811900138855, -0.13354472815990448, 0.03134596347808838, -0.16915765404701233, -0.28172892332077026, -0.2939550578594208, -0.14116710424423218, -0.5213930010795593, 0.38464584946632385, -0.2627499997615814, -0.16551727056503296, 0.06499407440423965, -0.904782235622406, -0.027446379885077477, -0.6421290636062622, 0.13184067606925964], [-1.2424447536468506, -0.4406229257583618, 0.1856914758682251, -1.0840057134628296, -1.0206334590911865, -0.8667542934417725, -0.6297062635421753, 0.114691361784935, -0.0036959219723939896, -0.3176354467868805, -0.4795842468738556, -0.8633803129196167, -0.2617379128932953, -0.09580599516630173, -0.5533798933029175, -0.8466196656227112, -1.0828036069869995, -0.2542875409126282, -0.3466133177280426, -0.3890790343284607, 0.658124566078186, -0.28383004665374756, -0.8876549601554871, -0.5130490064620972, -0.1976446658372879, -0.32076793909072876, -0.1743825078010559, -0.13230761885643005, 0.03582858666777611, -0.6701111197471619, -0.6829211711883545, -0.522175669670105], [-1.31057608127594, 0.21935707330703735, 0.11163666844367981, -1.4900978803634644, -0.534401535987854, -0.7594988346099854, -0.15684647858142853, -0.7027817368507385, -0.2333480566740036, 0.14999011158943176, -1.2447401285171509, -0.23967579007148743, -0.3084907531738281, 0.5360584855079651, -0.48127615451812744, -0.12647323310375214, -1.1853948831558228, -0.3374919295310974, -0.14084529876708984, -0.37090396881103516, -0.4333917200565338, -0.34803009033203125, -0.15004344284534454, -0.8022291660308838, -0.1836709827184677, 0.12470072507858276, -0.6469241380691528, -0.08425400406122208, -0.8337410092353821, 0.5393270254135132, -0.3983176052570343, 0.0023293059784919024], [-0.3571754992008209, -0.0367383174598217, 0.18964627385139465, -0.3979317247867584, -0.7732905745506287, -0.534214437007904, 0.2349432110786438, 0.29542607069015503, -0.22563737630844116, -0.1835654377937317, -0.4695276916027069, -0.36461466550827026, -0.4451577365398407, 0.5941036343574524, -0.0827636867761612, -0.6067660450935364, -0.5148100852966309, 0.01787140965461731, 0.07070524245500565, 0.05487551540136337, -0.27012866735458374, -0.13656169176101685, -0.9864574670791626, -0.8359964489936829, -0.15224885940551758, 0.3336024582386017, -1.206804633140564, 0.043196287006139755, 0.4573192894458771, -0.30634090304374695, -0.7074621915817261, 0.3187370300292969], [0.41446733474731445, 0.08361171185970306, -0.07515157759189606, 0.5554532408714294, -0.16774193942546844, 0.42201265692710876, -0.020635439082980156, 0.17023488879203796, 0.0422680526971817, -0.3484046757221222, 0.4529595375061035, 0.16147945821285248, 0.3568183183670044, 0.232275128364563, -0.3790527582168579, -0.11863113939762115, 0.1262960582971573, -0.1520698517560959, 0.42020463943481445, -0.1541045904159546, 0.08544909954071045, -0.18083912134170532, -0.3677627146244049, 0.22658967971801758, -0.4075683057308197, 1.9911149138351902e-06, 0.15215633809566498, -0.13221628963947296, 0.41715919971466064, -0.08915861696004868, 0.25856414437294006, -0.5908490419387817], [0.014974316582083702, 0.2036828249692917, 0.19257616996765137, 0.12443041801452637, -0.016118986532092094, 0.15350233018398285, -0.16603238880634308, 0.18863147497177124, 0.4597213566303253, -0.2230435460805893, -0.14360882341861725, 0.11002758145332336, 0.4500490427017212, 0.35441234707832336, -0.28451672196388245, 0.29767417907714844, 0.27672308683395386, 0.22684341669082642, -0.005632682237774134, 0.4223748743534088, -0.35727477073669434, 0.2970423102378845, 0.160958394408226, 0.2636989951133728, -0.500787615776062, -0.05755646899342537, -0.04222993925213814, -0.18862652778625488, 0.15455196797847748, -0.533443033695221, 0.13384917378425598, -0.29256826639175415], [0.4292919635772705, 0.36663490533828735, 0.38623833656311035, 0.04124320298433304, -0.01781216450035572, -0.06643307209014893, -0.6125850081443787, 0.21662737429141998, 0.28620362281799316, -0.21500587463378906, 0.22719262540340424, 0.5938294529914856, 0.4757959544658661, 0.15009969472885132, -0.06805708259344101, -0.4047864079475403, 0.2945050895214081, 0.05592842027544975, -0.15573342144489288, 0.04845002293586731, -0.07617053389549255, -0.18358354270458221, -0.18031540513038635, 0.13857778906822205, -0.43222513794898987, -0.08116001635789871, 0.20640970766544342, -0.0012490653898566961, 0.003107151249423623, -0.18740156292915344, 0.9462511539459229, -0.4688493013381958], [-0.6101797223091125, -0.7001050114631653, 0.26131391525268555, -0.4191741943359375, 0.2626951038837433, -0.07608169317245483, -0.11566232144832611, -0.20510077476501465, -0.07679242640733719, 0.4237397313117981, -0.4653817117214203, -0.21260733902454376, 0.12769147753715515, -0.10214230418205261, -0.0725184753537178, 0.06604085862636566, -0.3514590263366699, 0.17776775360107422, 0.1461820900440216, 0.19310389459133148, 0.1815226972103119, 0.2532881796360016, 0.16993612051010132, -0.05447777733206749, 0.2600744962692261, 0.05887903645634651, 0.18089941143989563, -0.09403131157159805, -0.08206365257501602, 0.5899758338928223, -0.45837584137916565, 0.3647887110710144], [0.3695984184741974, 0.25660744309425354, 0.35090363025665283, 0.1863531917333603, 0.11248648166656494, 0.02675710804760456, -0.37814515829086304, 0.19241948425769806, 0.24844475090503693, 0.04754834249615669, 0.2082591950893402, 0.4403434693813324, 0.021483080461621284, 0.15724340081214905, 0.2316446602344513, 0.0024450828786939383, 0.45356476306915283, -0.07810384035110474, 0.23674830794334412, -0.11829470843076706, -0.1878991276025772, -0.03774217888712883, 0.1475469172000885, 0.5128647089004517, -0.08574490994215012, -0.6171801090240479, -0.5458547472953796, -0.05402868986129761, -0.27361440658569336, -0.3595171868801117, 0.09448099881410599, -0.23462264239788055], [0.1409893035888672, 0.1594535857439041, -0.1920652538537979, 0.30941522121429443, 0.48920688033103943, 0.3229721486568451, 0.06558112055063248, 0.9264119267463684, 0.514251708984375, -0.20044660568237305, 0.25970447063446045, -0.46294331550598145, 0.17945857346057892, -0.3396226465702057, 0.15787847340106964, -0.04642169177532196, 0.2205968201160431, -0.1347343623638153, 0.23624514043331146, -0.2567838728427887, 0.20884834229946136, 0.13347871601581573, 0.0009979279711842537, 0.44096311926841736, -0.22387202084064484, -0.5199487805366516, -0.27345675230026245, -0.015555202960968018, 0.016227776184678078, -0.5574027299880981, 0.7114967703819275, -0.39353886246681213], [0.46051883697509766, 0.16150254011154175, -0.321958065032959, 0.3898540735244751, -0.17885509133338928, -0.46302294731140137, -0.10147333145141602, 0.22590704262256622, 0.3188735842704773, -0.27115076780319214, 0.5536215305328369, 0.2032727152109146, 0.09566710144281387, -0.12863358855247498, 0.048405442386865616, -0.23299376666545868, -0.08913327008485794, 0.1603061705827713, -0.6429792046546936, -0.06190277636051178, 0.023725179955363274, 0.2854287028312683, 0.01559991855174303, 0.4237913489341736, -0.13823513686656952, 0.04840216785669327, -0.36338943243026733, 0.22174598276615143, 0.5520133972167969, -0.5038378834724426, 0.1129855141043663, -0.1744433492422104], [-0.4116848409175873, -0.432698518037796, 0.1552399843931198, 0.09647514671087265, 0.6418933868408203, 0.2582535743713379, -0.038073983043432236, 0.2505260705947876, -0.610313355922699, 0.1724630892276764, -0.40416020154953003, -0.095196433365345, -0.4060569107532501, 0.08114293217658997, -0.149088516831398, -0.17187118530273438, -0.7908837199211121, -0.017855262383818626, 0.21839721500873566, 0.04576383903622627, 0.17842701077461243, 0.2699628472328186, 0.08254243433475494, -0.20288242399692535, 0.34789636731147766, 0.4250982403755188, -0.2806871235370636, 0.1925363391637802, -0.16518491506576538, 0.4333501160144806, -0.6614189147949219, 0.6517232656478882], [-0.39038172364234924, -0.411426842212677, 0.20690235495567322, -0.32604914903640747, 0.10727696120738983, -0.1493280977010727, -0.12414803355932236, -0.40780240297317505, -0.2618599534034729, 0.34251150488853455, -0.3753463923931122, -0.17054951190948486, -0.4548288583755493, -0.13212384283542633, -0.1577015221118927, 0.27759942412376404, -0.30724766850471497, -0.4761413335800171, -0.14128477871418, 0.4464103877544403, 0.4445916712284088, 0.13915133476257324, -0.05895345285534859, 0.060927920043468475, 0.2521236538887024, -0.2460411638021469, 0.3177345097064972, -0.35586118698120117, -0.06519130617380142, 0.39472696185112, -0.13791480660438538, 0.46872609853744507], [-0.3721170127391815, -0.18607155978679657, -0.07996618747711182, -0.0916638895869255, 0.00018887952319346368, -0.07430685311555862, 0.014457576908171177, -0.031939707696437836, -0.15077221393585205, 0.37677597999572754, -0.20570378005504608, 0.10652723908424377, -0.28314533829689026, 0.4968661665916443, -0.08327788859605789, 0.2391229271888733, -0.3388996720314026, -0.11194953322410583, -0.1846979856491089, -0.0802658423781395, 0.027802638709545135, 0.00826529785990715, -0.43721944093704224, 0.050701819360256195, -0.08341264724731445, -0.24552449584007263, 0.22781451046466827, 0.33191508054733276, -0.14807821810245514, 0.6814639568328857, -0.3121752440929413, 0.5879998207092285], [0.03034786321222782, -1.1570141315460205, -0.14781099557876587, -0.4584432542324066, 0.3467821478843689, -0.07408560812473297, -0.32214993238449097, -1.1888518333435059, -0.5469732880592346, 0.46892985701560974, -0.9080061912536621, 0.09683394432067871, -0.546954333782196, -0.11260247230529785, 0.31601783633232117, -0.3243262469768524, -0.17359872162342072, 0.15110521018505096, 0.17272953689098358, 0.2412087321281433, 0.018163610249757767, 0.32252296805381775, 0.15577906370162964, -0.42666926980018616, 0.20929387211799622, 0.3836795687675476, 0.14431598782539368, 0.28611311316490173, -0.08375591039657593, 0.8247479796409607, -1.0846054553985596, 0.7390525341033936], [0.13720712065696716, -0.7935549020767212, 0.171127587556839, -0.42912089824676514, 0.33579498529434204, 0.20931829512119293, 0.4141119122505188, 0.5702412724494934, -0.9781062006950378, 0.16769927740097046, -0.6332889199256897, -0.1261378824710846, -0.30990156531333923, -0.1757938265800476, -0.17422164976596832, 0.0423237644135952, -0.49186253547668457, -0.12764596939086914, 0.06535278260707855, 0.18203169107437134, 0.2697005867958069, -0.15798772871494293, 0.01222384162247181, -0.47180336713790894, -0.3337042033672333, 0.6186606884002686, 0.4638710021972656, 0.41476550698280334, -0.08289976418018341, 0.9015669822692871, -0.04165848344564438, 0.4034571647644043], [-0.3561573326587677, -0.20021197199821472, -0.03519130498170853, -0.05010709911584854, -0.11767958104610443, -0.05391216278076172, 0.37606921792030334, -0.20563578605651855, 0.01062645111232996, 0.4445580840110779, -0.36374109983444214, -0.012046190910041332, -0.6555092334747314, -0.30120813846588135, -0.15348732471466064, -0.23730167746543884, -0.09816846251487732, -0.36207759380340576, 0.13651122152805328, 0.3978004455566406, -0.16998980939388275, 0.19950762391090393, 0.3636634051799774, -0.012582235969603062, -0.10401224344968796, 0.4256489872932434, 0.10527543723583221, 0.22963638603687286, 0.048116542398929596, 0.7199827432632446, -0.3730222284793854, 0.34846964478492737], [0.12115782499313354, 0.17553836107254028, -0.2017969787120819, 0.07525529712438583, 0.019596345722675323, 0.13109567761421204, -0.3576453924179077, 0.26725438237190247, 0.7550143003463745, -0.5569788813591003, 0.48094701766967773, 0.5060878992080688, -0.018754199147224426, 0.310730516910553, 0.2339673638343811, -0.0279117152094841, 0.12782587110996246, 0.27290838956832886, 0.14898528158664703, -0.4012426435947418, 0.10396236181259155, -0.3979344367980957, -0.2512587904930115, 0.40079265832901, 0.047029782086610794, -0.5471568703651428, -0.11773315817117691, -0.0906299576163292, -0.06690976768732071, -0.04721642658114433, 0.38269296288490295, -0.5543345212936401], [-0.09038296341896057, 0.07080890238285065, 0.42730769515037537, -0.5297741889953613, -0.06280995160341263, 0.07736948132514954, -0.10206525027751923, -0.5732417106628418, -0.3778834044933319, 0.27683016657829285, -0.27075836062431335, 0.1863517463207245, -0.15384447574615479, -0.30865275859832764, 0.1366937905550003, 0.172622948884964, -0.5817867517471313, 0.1124444454908371, -0.08262178301811218, 0.020367441698908806, -0.32021647691726685, 0.5007830858230591, 0.02260727249085903, -0.8762367963790894, 0.3571717441082001, 0.17323516309261322, 0.16383476555347443, 0.11454696208238602, -0.17000028491020203, 0.6599172353744507, -0.5993220210075378, 0.0943056121468544], [-0.061322394758462906, -1.2092586755752563, -0.5350321531295776, -0.3375997841358185, -0.07922549545764923, 0.12884435057640076, 0.015358966775238514, -0.38641247153282166, -0.8543597459793091, 0.14096787571907043, -0.8587815165519714, 0.055108312517404556, -0.5011188387870789, 0.18230587244033813, 0.03795834630727768, -0.29866883158683777, -0.500839114189148, 0.2817690074443817, 0.16389480233192444, -0.0570758618414402, -0.17239154875278473, 0.06328630447387695, -0.11856578290462494, -0.4252873659133911, 0.4398438036441803, 0.4755256772041321, 0.36967235803604126, -0.47265151143074036, 0.32481110095977783, 0.36283355951309204, -0.8349941968917847, 0.11341147124767303], [-0.04093347117304802, -0.3934062719345093, 0.27975866198539734, -0.24518293142318726, 0.06566926836967468, 0.14191217720508575, -0.036306049674749374, 0.5276430249214172, -0.5602811574935913, 0.6513685584068298, -0.98090660572052, 0.17904533445835114, -0.6755318641662598, 0.35250166058540344, -0.41892382502555847, -0.32690194249153137, -0.09321849793195724, 0.09320786595344543, 0.3800230324268341, 0.1946832686662674, -0.13360947370529175, 0.09504135698080063, 0.23479335010051727, -0.6074532270431519, -0.08609530329704285, 0.36101970076560974, 0.13928203284740448, 0.21830596029758453, -0.3918082118034363, 0.5106285214424133, -0.6762401461601257, 0.2900179326534271], [-0.29806995391845703, -0.16953639686107635, 0.2097899317741394, 0.23658688366413116, 0.014362627640366554, -0.1304263025522232, 0.13777503371238708, -0.528430700302124, -0.5788775682449341, 0.42163851857185364, -0.2571465075016022, 0.021127082407474518, -0.6184658408164978, 0.04776914045214653, -0.23692594468593597, -0.10873014479875565, -0.4562683403491974, -0.22713488340377808, 0.20995019376277924, -0.06333961337804794, -0.05918954312801361, 0.11302407830953598, 0.039556436240673065, -0.9016594886779785, -0.09551378339529037, 0.7960240840911865, -0.06355118751525879, -0.19649510085582733, -0.29154637455940247, 0.47870776057243347, -0.5661821961402893, 0.5968877673149109], [0.07224000990390778, -0.03403409570455551, 0.3767276108264923, 0.29266560077667236, 0.017143849283456802, 0.053334932774305344, 0.4358409345149994, 0.7114359736442566, 0.6542579531669617, 0.11895301192998886, 0.45547783374786377, -0.3580206036567688, 0.009850195609033108, 0.239782452583313, 0.09318970888853073, -0.14266112446784973, 0.43594789505004883, -0.12722501158714294, 0.059464436024427414, 0.08630993217229843, -0.13008858263492584, -0.43248623609542847, 0.26660582423210144, 0.5539402365684509, -0.10977071523666382, -0.6914531588554382, -0.42595136165618896, -0.24899442493915558, 0.46405190229415894, -0.702152669429779, 0.34925365447998047, -0.6555189490318298], [-0.1983189880847931, -0.38759633898735046, -0.12522859871387482, -0.10244809091091156, -0.11032316088676453, 0.3422505855560303, -0.11183683574199677, -0.35459738969802856, -0.5022435188293457, 0.525638222694397, -0.7440250515937805, 0.03210914880037308, -0.9730662703514099, 0.3190936744213104, -0.12205016613006592, 0.3040268123149872, -0.537934422492981, 0.5952782034873962, -0.07171361893415451, 0.21834366023540497, 0.21616001427173615, 0.12151983380317688, 0.018300704658031464, -0.1863214522600174, 0.45357367396354675, -0.09890495240688324, -0.017832785844802856, -0.0938892811536789, -0.01925211027264595, 0.3796040117740631, -0.7031083106994629, 0.3448273539543152], [0.4097428321838379, 0.16815321147441864, -0.00023659091675654054, 0.255886435508728, -0.05988143011927605, -0.09176872670650482, -0.2909547984600067, 0.19637779891490936, 0.08996664732694626, -0.3839886784553528, 0.2989062964916229, 0.11569692194461823, 0.3546917140483856, 0.31193792819976807, 0.099973164498806, 0.3306960463523865, 0.23521831631660461, -0.07140663266181946, -0.07661916315555573, 0.03550736606121063, -0.41636592149734497, -0.12800244987010956, -0.09266810864210129, 0.0820644423365593, -0.2444296032190323, -0.2445008009672165, -0.35315096378326416, 0.30202317237854004, -0.2364780306816101, -0.4724682867527008, 0.7490576505661011, -0.2866531014442444], [0.2976514995098114, -0.09837710112333298, -0.31287166476249695, -0.10247566550970078, 0.6315937042236328, 0.3349210023880005, -0.09096886217594147, 0.1185770332813263, 0.2910093069076538, -0.027174705639481544, 0.9191810488700867, -0.04933782294392586, 0.12609826028347015, 0.08122751861810684, -0.05715368688106537, 0.5260260701179504, 0.25808072090148926, -0.36068642139434814, -0.02046450972557068, 0.15624761581420898, -0.4469098448753357, -0.022728340700268745, 0.05990530550479889, 0.16601920127868652, -0.45935937762260437, 0.037795599550008774, -0.1656743288040161, 0.2774164080619812, 0.28471601009368896, -0.9138466715812683, 0.38462501764297485, -0.40574559569358826], [0.1699458360671997, 0.6518893837928772, -0.1377272605895996, 0.2377336472272873, -0.10049321502447128, -0.12917137145996094, 0.17472173273563385, 0.35587427020072937, 0.6058520674705505, -0.24976541101932526, 0.18155701458454132, -0.26493144035339355, 0.3449104428291321, -0.27742230892181396, 0.08908486366271973, -0.49604812264442444, 0.5433841347694397, -0.06507014483213425, 0.024952741339802742, 0.3352595865726471, -0.07686657458543777, 0.2719138562679291, 0.006947861053049564, 0.47181209921836853, -0.10647471249103546, -0.3205198645591736, 0.13154073059558868, 0.21217451989650726, 0.3467269241809845, -0.6652041077613831, 0.31471019983291626, -0.907120943069458], [-0.7312912344932556, -0.4443855881690979, -0.016296692192554474, -0.05108809471130371, 0.05088714882731438, -0.026901917532086372, -0.015999887138605118, -0.5132591724395752, -0.42797499895095825, 0.003992901649326086, -0.7275250554084778, -0.041726551949977875, -0.41673851013183594, 0.0019405042985454202, -0.28031569719314575, -0.08016552031040192, -0.30063170194625854, -0.03378372639417648, 0.3941860795021057, -0.30527636408805847, -0.1575467586517334, 0.28359657526016235, 0.4400043785572052, -0.0975581556558609, 0.12329930067062378, 0.3553076386451721, 0.07916171103715897, -0.12699782848358154, 0.16575033962726593, 0.44028928875923157, -0.5702750086784363, 0.4038194715976715], [0.21717779338359833, -0.098939910531044, 0.04865207150578499, 0.5668596625328064, -0.10405221581459045, 0.13865911960601807, 0.00982473324984312, 0.5014747977256775, 0.2038389891386032, -0.0410141684114933, 0.33464351296424866, -0.13389116525650024, -0.0771343857049942, -0.12173226475715637, -0.04434416443109512, -0.04933451861143112, 0.43900224566459656, 0.12216442823410034, 0.28781867027282715, -0.13136301934719086, 0.1376994103193283, -0.006136588752269745, -0.21811503171920776, 0.2921088635921478, -0.3103953003883362, -0.3962775468826294, -0.31841281056404114, -0.3924545347690582, 0.01589684560894966, -0.3201594650745392, 0.19681477546691895, -0.05504382401704788], [0.5880082845687866, 0.16374236345291138, -0.13466094434261322, 0.6355270147323608, -0.12844513356685638, -0.07080300152301788, -0.01968260481953621, 0.6313002109527588, 0.141085684299469, -0.4384436309337616, 0.3609330952167511, 0.3556160032749176, 0.6837664842605591, 0.42402756214141846, 0.17672407627105713, 0.0920594185590744, 0.0003704196715261787, -0.2326272875070572, -0.07606920599937439, 0.162995845079422, -0.2461877465248108, -0.06319373846054077, -0.08186693489551544, 0.6756746768951416, -0.02034679614007473, -0.6743255257606506, -0.32524681091308594, 0.3562595844268799, -0.2708575129508972, -0.2630012631416321, -0.25281715393066406, 0.07465678453445435], [0.4294738173484802, 0.23283621668815613, 0.02336539886891842, 0.21147949993610382, -0.08009477704763412, 0.25337690114974976, -0.12374138087034225, -0.07208123058080673, 0.5269363522529602, -0.37593069672584534, 0.3462928533554077, -0.2663269340991974, 0.01730143092572689, -0.1481071412563324, 0.3395661413669586, -0.10169757902622223, 0.18588556349277496, 0.004833186510950327, 0.0538150854408741, 0.32405737042427063, -0.29660242795944214, 0.3322412371635437, -0.09615463763475418, 0.6597735285758972, -0.3490832448005676, -0.20860470831394196, -0.13620783388614655, 0.5853044986724854, 0.053359027951955795, -0.13505351543426514, 0.23284097015857697, -0.5277968645095825], [-0.3410196602344513, -0.4410277009010315, 0.17379775643348694, -0.3411655128002167, -0.04517391324043274, -0.3705121874809265, -0.21315185725688934, 0.20575086772441864, -0.5135278701782227, 0.2710369825363159, -0.15901419520378113, -0.14702580869197845, -0.4110155999660492, -0.46077051758766174, 0.3144766688346863, 0.5913895964622498, -0.4509144723415375, -0.291059285402298, -0.046394020318984985, 0.16321884095668793, -0.25050464272499084, 0.19237439334392548, 0.39395445585250854, -0.04387318715453148, 0.42565953731536865, 0.1953704059123993, 0.25241178274154663, -0.16877825558185577, 0.33315780758857727, 0.22100341320037842, -0.05438782274723053, -0.05064745619893074], [0.4487330913543701, 0.6400071382522583, -0.16758424043655396, 0.2420945018529892, -0.30343878269195557, -0.0022560516372323036, -0.38053983449935913, 0.06921781599521637, 0.30578210949897766, -0.6055349111557007, 0.5600090622901917, 0.14820721745491028, 0.6181305646896362, 0.11878127604722977, -0.3895447254180908, -0.23384647071361542, 0.20639517903327942, -0.21026389300823212, -0.6389046311378479, 0.023401694372296333, 0.393102765083313, -0.3517967164516449, 0.1353301852941513, 0.1063435897231102, -0.06921286880970001, 0.05901460349559784, -0.025573348626494408, -0.5374305844306946, 0.1444358229637146, -0.42975690960884094, 0.25003471970558167, -0.5895279049873352], [-0.21552543342113495, -0.06824690103530884, 0.03958294540643692, -0.32005321979522705, -0.09814227372407913, 0.04437267780303955, 0.0188490841537714, -0.4131162762641907, -0.36645805835723877, 0.19833123683929443, -0.23528482019901276, 0.0810188502073288, -0.33393076062202454, -0.2431398630142212, 0.019129492342472076, 0.009455264545977116, -0.7107608914375305, 0.1415877640247345, 0.021619196981191635, 0.20637758076190948, 0.0905834287405014, -0.19254325330257416, 0.02189153991639614, -0.22888977825641632, 0.37813711166381836, 0.4361143112182617, 0.24758625030517578, -0.427299827337265, -0.2047782689332962, 0.32585760951042175, -0.4010753929615021, 0.0840654969215393], [-0.25250083208084106, -0.6524269580841064, -0.15236446261405945, -0.19368326663970947, -0.20105770230293274, 0.2054254114627838, 0.39503273367881775, -0.4291149973869324, -0.8079876899719238, 0.6005527973175049, -0.9057311415672302, -0.4930723011493683, -0.40057632327079773, 0.2116624265909195, -0.08380826562643051, 0.0398518405854702, -0.1969892382621765, 0.5123935341835022, 0.1810707300901413, -0.2060116082429886, 0.10298164933919907, 0.2972578704357147, 0.030243121087551117, -0.3628310561180115, -0.3012329936027527, 0.4909664988517761, 0.4399789869785309, 0.22835390269756317, 0.29662245512008667, 0.8435880541801453, -0.7033582925796509, 0.10392328351736069], [-0.4181973934173584, -0.06744112074375153, 0.2685573399066925, 0.15102939307689667, 0.3546048700809479, -0.20661386847496033, 0.31898319721221924, 0.1852022260427475, -0.6087289452552795, 0.34288981556892395, -0.05780601501464844, 0.1688040792942047, -0.48341459035873413, -0.03816359117627144, -0.0918244794011116, 0.13583345711231232, -0.13553902506828308, -0.0649566501379013, 0.37770572304725647, -0.29201486706733704, 0.21977262198925018, 0.18693184852600098, -0.18059422075748444, -0.1068711131811142, 0.37270328402519226, 0.3396476209163666, -0.4082317352294922, 0.14583955705165863, 0.1947917491197586, 1.0530619621276855, -0.3048737943172455, 0.18238765001296997], [-0.14151671528816223, 0.3481060862541199, 0.2737274169921875, -0.2987964153289795, 0.04776967316865921, 0.09808951616287231, 0.0018359915120527148, 0.5693466067314148, 0.43869972229003906, 0.10102798789739609, 0.18821777403354645, 0.08330627530813217, 0.14346013963222504, 0.3620590567588806, 0.014587508514523506, -0.3807483911514282, -0.11726179718971252, -0.1413886547088623, 0.14848436415195465, -0.14526383578777313, 0.03391485661268234, -0.07202813774347305, -0.05004937946796417, 0.093752421438694, -0.018410073593258858, -0.22299659252166748, -0.24849802255630493, 0.4673612713813782, -0.06411747634410858, 0.397440642118454, -0.07552935928106308, 0.09575232118368149], [-0.4505214989185333, 0.30648496747016907, -0.20125533640384674, -0.17715369164943695, -0.7190476059913635, -0.25126954913139343, 0.04389618709683418, 0.10296300798654556, 0.4997154772281647, 0.16038091480731964, -0.011925109662115574, -0.29965370893478394, -0.09503377974033356, -0.2921425700187683, 0.17467914521694183, -0.894649088382721, 0.016610724851489067, 0.15025627613067627, 0.19264061748981476, -0.3362385928630829, -0.037380509078502655, -0.2892698049545288, -0.760445237159729, -0.3528535068035126, -0.14735721051692963, 0.4046822488307953, -0.3736155331134796, -0.1120268777012825, 0.05395609512925148, 0.49278151988983154, -0.4324568808078766, -0.186321422457695], [-0.4153393805027008, 0.2366277128458023, -0.05208050459623337, -0.43708646297454834, -0.23602190613746643, -0.22467318177223206, 0.114305779337883, 0.9572914838790894, 0.11882558465003967, -0.2060045450925827, 0.15116426348686218, 0.2993163764476776, 0.1851302832365036, -0.17043215036392212, 0.06408259272575378, -0.3842700123786926, -0.3390823304653168, 0.062178052961826324, -0.27785488963127136, 0.3397323787212372, 0.4870363473892212, 0.04566909372806549, -0.3773672878742218, 0.07969150692224503, -0.357061505317688, -0.15727771818637848, -0.34484437108039856, -0.1211385428905487, 0.9435358047485352, 0.36066409945487976, 0.045597996562719345, -0.08662186563014984], [-0.5573227405548096, 0.3998742997646332, 0.19415251910686493, -0.10818012058734894, -0.7558203339576721, -0.2615281939506531, 0.23633982241153717, 1.1176027059555054, 0.6017365455627441, 0.36544400453567505, 0.1978902369737625, 0.2475348711013794, 0.1314445436000824, 0.016136791557073593, -0.021242858842015266, -0.41450992226600647, 0.10603471100330353, 0.6222968697547913, -0.17634403705596924, -0.1476038545370102, -0.211410790681839, -0.2117205113172531, 0.030795445665717125, -0.2829459309577942, -0.007350616157054901, -0.4303802251815796, -0.3204607665538788, 0.48022741079330444, 0.5609782338142395, 0.5230050086975098, -0.19793982803821564, 0.5669314861297607], [-0.17591799795627594, 0.4453140199184418, -0.02473575249314308, -0.10102644562721252, -0.15721754729747772, 0.40828198194503784, 0.0708269476890564, 0.8431840538978577, 0.27493777871131897, -0.32838428020477295, 0.012260387651622295, 0.06430909037590027, 0.2702336311340332, 0.3524007499217987, -0.29262155294418335, 0.08894082903862, -0.4442112445831299, 0.12406285107135773, 0.012875735759735107, 0.007539780810475349, -0.25538119673728943, 0.047784093767404556, 0.407423198223114, 0.043972644954919815, 0.04863618314266205, 0.5147387385368347, 0.3124118447303772, 0.035830650478601456, 0.30926933884620667, 0.009197383187711239, -0.0259744543582201, -0.1088973805308342], [-0.2997325360774994, 0.3455463945865631, -0.196645587682724, -0.0034567280672490597, -0.5596250295639038, -0.31494519114494324, 0.20778223872184753, 0.04734327271580696, -0.10525955259799957, -0.20446479320526123, -0.09720967710018158, -0.05423532798886299, -0.02695736475288868, -0.27344486117362976, 0.036049313843250275, -0.35945916175842285, -0.25098371505737305, 0.09533458203077316, 0.004349697846919298, -0.04731645807623863, 0.22093944251537323, -0.15277813374996185, -0.31189754605293274, 0.09588591009378433, -0.6904340982437134, 0.010521266609430313, 0.05048026889562607, -0.15710380673408508, 0.3034248650074005, -0.1772245317697525, -0.3555706739425659, -0.020973315462470055], [0.0017722948687151074, 0.55593341588974, 0.4957515597343445, -0.2833198308944702, -0.23074081540107727, -0.48013821244239807, 0.19862429797649384, 0.7914393544197083, 0.4923437237739563, 0.5408039093017578, 0.07089484483003616, 0.12263956665992737, 0.3768530488014221, 0.006791095249354839, 0.5379567742347717, -0.3742142617702484, 0.16046877205371857, -0.1780264675617218, 0.15163074433803558, 0.019577044993638992, -0.5203485488891602, -0.3625582456588745, -0.6177204251289368, 0.08799294382333755, -0.33292871713638306, 0.38034456968307495, 0.12062957137823105, -0.3712173402309418, 0.06821386516094208, 0.45667895674705505, -0.02051878161728382, -0.13523879647254944], [-0.23711970448493958, 0.4726082980632782, -0.4028327465057373, 0.2049671709537506, -0.47314581274986267, -0.03822964057326317, 0.5120978355407715, 0.4822160005569458, 0.041902001947164536, 0.49503713846206665, -0.43120285868644714, 0.11895103752613068, 0.032176822423934937, 0.19002050161361694, 0.12927144765853882, -0.32646164298057556, 0.06533361226320267, 0.13457712531089783, -0.11027123034000397, 0.17817457020282745, -0.007861082442104816, -0.48700058460235596, -0.287766695022583, 0.12116154283285141, -0.56284499168396, -0.056578628718853, -0.5074666738510132, 0.4404847025871277, 0.6186286807060242, 0.22769692540168762, -0.006658937782049179, 0.3454194664955139], [0.10237541794776917, -0.054087866097688675, 0.10105633735656738, -0.07925465703010559, 0.19237427413463593, 0.029767652973532677, 0.2356642633676529, 0.8646597266197205, 0.4489917755126953, 0.21127744019031525, -0.006913446355611086, 0.30467140674591064, 0.30652955174446106, 0.19562822580337524, 0.14065492153167725, -0.49290934205055237, 0.032150376588106155, 0.2636226713657379, 0.41938185691833496, -0.18028904497623444, -0.38352128863334656, 0.3938157856464386, 0.08915597200393677, 0.07125700265169144, 0.14213261008262634, -0.24247035384178162, -0.05672037973999977, 0.16376477479934692, 0.050667937844991684, 0.6834825277328491, 0.2833399176597595, -0.2521038055419922], [-0.30637165904045105, 0.10914862900972366, 0.1932452917098999, -0.31420671939849854, -0.7595360279083252, 0.2121591567993164, -0.2894473373889923, 0.20402733981609344, 0.1133112758398056, 0.46905380487442017, -0.6265062689781189, -0.30211445689201355, -0.7569865584373474, -0.15228070318698883, 0.010186429135501385, -0.3083234429359436, -0.20312203466892242, -0.08486709743738174, 0.16300976276397705, 0.11072245985269547, 0.5186157822608948, -0.12342403084039688, -0.6698827743530273, -0.1759464144706726, -0.05968605354428291, -0.08600868284702301, -0.3948405385017395, -0.11899509280920029, 0.2327306717634201, 0.2628403604030609, 0.06934800744056702, 0.5820525884628296], [-0.5407552123069763, 0.5502254962921143, 0.21520991623401642, 0.0091925710439682, 0.2710411250591278, -0.2591013014316559, -0.016166234388947487, 0.22197578847408295, -0.023284783586859703, 0.0679897889494896, -0.3116034269332886, -0.22741633653640747, -0.42815548181533813, -0.43424755334854126, -0.2841659486293793, -0.10067089647054672, -0.764319896697998, -0.2583913505077362, 0.3273845314979553, 0.3815317451953888, 0.32183218002319336, -0.3687153160572052, -0.14277149736881256, -0.4738706648349762, -0.12766380608081818, -0.42348623275756836, -0.3137546479701996, 0.11893808096647263, -0.058420222252607346, -0.07596760243177414, 0.3028292655944824, -0.43037325143814087], [-0.43973588943481445, 0.48424234986305237, 0.041063904762268066, -0.10712197422981262, -0.22214607894420624, -0.3305315673351288, 0.13857097923755646, 0.6015903353691101, 0.20446538925170898, 0.20879612863063812, 0.06730625033378601, 0.4668283760547638, 0.0028229583986103535, -0.17115186154842377, -0.42257440090179443, 0.017754696309566498, 0.09335390478372574, 0.10450571775436401, -0.07442124933004379, 0.21099752187728882, -0.35650011897087097, -0.2874726355075836, -0.6029350161552429, 0.05494331195950508, -0.530343234539032, 0.11319227516651154, -0.06744575500488281, -0.32053127884864807, 0.8403659462928772, 0.6968836188316345, 0.1199934110045433, -0.3716568350791931], [-0.4019159972667694, -0.2450874000787735, 0.06049295887351036, 0.14097347855567932, -0.3080407679080963, -0.5722060799598694, -0.5293110013008118, 0.9683623313903809, 0.07239071279764175, 0.0788092091679573, 0.28305283188819885, -0.32490208745002747, -0.031025851145386696, -0.09367401897907257, 0.01716751977801323, -0.4887813627719879, 0.22713737189769745, 0.07126053422689438, 0.1680322140455246, -0.5300116539001465, -0.28821343183517456, 0.2081100344657898, -0.5144062042236328, -0.3399907648563385, -0.11876308917999268, 0.041667159646749496, -0.3126876652240753, 0.3100425601005554, -0.036234721541404724, 0.5266368985176086, 0.13624238967895508, 0.15240363776683807], [0.494033545255661, 0.31278544664382935, -0.04117443412542343, -0.27735593914985657, -0.519091010093689, -0.14267279207706451, 0.2729521095752716, 0.5250813364982605, -0.48292362689971924, 0.40863463282585144, -0.15631988644599915, 0.23030999302864075, -0.2758980989456177, 0.2953454554080963, 0.07402516156435013, -0.6144894361495972, -0.15193219482898712, -0.3988581597805023, 0.11180335283279419, -0.20447617769241333, -0.4555998146533966, -0.32721182703971863, -0.799603283405304, -0.1543366014957428, 0.19058871269226074, -0.16347171366214752, -0.21533888578414917, 0.26806142926216125, -0.08181659132242203, 0.15471026301383972, 0.1694231480360031, -0.04367286339402199], [-0.277416855096817, -0.12993064522743225, -0.1453610360622406, -0.1981258988380432, 0.000417890289099887, 0.04553273692727089, 0.02224252000451088, 0.9069607257843018, 0.19957026839256287, 0.17414024472236633, 0.0042876508086919785, 0.027965668588876724, -0.17144763469696045, 0.5495822429656982, -0.2794775664806366, -0.605718195438385, -0.07238607108592987, -0.24762561917304993, -0.3359171450138092, -0.5715861916542053, 0.3873417377471924, -0.13177306950092316, -0.6306318044662476, -0.562930703163147, -0.21900464594364166, -0.4673195481300354, -0.5401690006256104, -0.12624119222164154, 0.059973496943712234, 0.6798351407051086, -0.19790078699588776, 0.24842137098312378], [-0.4884071350097656, 0.03033580631017685, -0.11201257258653641, -0.06271204352378845, -0.06326156854629517, -0.4892522692680359, 0.012253043241798878, 0.3204629719257355, -0.46623852849006653, 0.3696803152561188, -0.4433189928531647, -0.335003137588501, -0.1304955929517746, 0.18724751472473145, -0.23098021745681763, -0.30001696944236755, -0.4611768424510956, 0.49394381046295166, -0.301053524017334, 0.011710976250469685, 0.054160021245479584, -0.34432291984558105, -0.11720753461122513, -0.25631117820739746, 0.01096570398658514, 0.14817042648792267, -0.1789035052061081, -0.35938987135887146, 0.10558497905731201, 0.277031272649765, -0.1425078809261322, 0.23735596239566803], [-0.08695154637098312, 0.09504254162311554, 0.33005744218826294, 0.07139552384614944, 0.14461581408977509, 0.08301905542612076, 0.015350555069744587, 0.9942640066146851, 0.4039996564388275, 0.48635542392730713, -0.4395115077495575, -0.16042101383209229, 0.3581320643424988, 0.0036438507959246635, -0.2331055998802185, 0.0011283414205536246, 0.11647443473339081, 0.0865965187549591, -0.34433701634407043, -0.21965815126895905, -0.08110368996858597, -0.009283275343477726, -0.11970711499452591, -0.2711361348628998, -0.019541312009096146, 0.3429704010486603, -0.38977232575416565, -0.24146969616413116, 0.5211266279220581, 0.4047795236110687, 0.2303258776664734, 0.11909515410661697], [-0.37607112526893616, 0.49120083451271057, -0.05935462936758995, 0.22580713033676147, -0.31838396191596985, -0.4085313677787781, 0.11309999227523804, 0.3533300459384918, 0.5366608500480652, 0.18316270411014557, 0.5971686244010925, -0.20558829605579376, -0.07441557198762894, -0.10640112310647964, -0.15616652369499207, -0.5797162055969238, -0.7889588475227356, -0.12214828282594681, -0.04600474610924721, -0.16520516574382782, -0.052822504192590714, -0.43355104327201843, -0.5055714845657349, 0.3480679392814636, 0.12332376092672348, -0.3706667721271515, -0.7436370849609375, -0.1233225166797638, -0.03918154910206795, 0.5435723662376404, -0.36717402935028076, 0.042851369827985764], [-0.2555534243583679, 0.18967927992343903, 0.42527031898498535, -0.38764438033103943, -0.3417772948741913, -0.5158312320709229, 0.0631958395242691, 0.5899386405944824, 0.36744970083236694, -0.3241898715496063, -0.1374858021736145, 0.20793643593788147, -0.19990351796150208, 0.2160205990076065, -0.031079154461622238, -0.3685064911842346, 0.26604366302490234, 0.08820535242557526, 0.3372398018836975, 0.5824296474456787, -0.1415669471025467, -0.3301427364349365, -0.11290150135755539, -0.1989053189754486, -0.13465090095996857, -0.28102800250053406, -0.1503976434469223, 0.19838903844356537, 0.17326539754867554, 0.44521021842956543, -0.03905169293284416, 0.24585939943790436], [0.2054634392261505, -0.24840600788593292, 0.25029873847961426, -0.3819146752357483, 0.00032404978992417455, -0.14533929526805878, 0.1578802764415741, 0.3169322907924652, 0.33168092370033264, 0.0640687495470047, -0.06128449738025665, -0.2929062843322754, 0.028134819120168686, 0.3033803701400757, -0.3532027006149292, 0.04480099305510521, -0.38107365369796753, -0.10689597576856613, -0.10868250578641891, -0.14215421676635742, -0.04169275611639023, -0.05659129098057747, -0.2115771472454071, 0.23615364730358124, -0.2596367597579956, 0.0417807511985302, -0.5904697179794312, -0.04314761981368065, 0.09481001645326614, 0.19258040189743042, -0.08576104789972305, 0.01398567482829094], [-0.06587564200162888, 0.5411968231201172, -0.42710328102111816, -0.4422416090965271, -0.4829059839248657, -0.28758376836776733, 0.06524832546710968, -0.04512414336204529, -0.19578145444393158, 0.40940597653388977, -0.28571978211402893, 0.10838700085878372, -0.055831559002399445, 0.2690671682357788, -0.07008199393749237, -0.670325756072998, 0.016802096739411354, -0.005916613154113293, -0.17059198021888733, 0.21738038957118988, 0.08354398608207703, -0.276554137468338, -0.4307398498058319, -0.21324197947978973, -0.24202923476696014, 0.3555535674095154, -0.30600476264953613, 0.11908699572086334, 0.22556623816490173, 0.2490418255329132, -0.22846706211566925, -0.14056076109409332], [-0.3098144233226776, 0.06677845120429993, 0.1893020123243332, 0.1548340767621994, -0.29676634073257446, -0.3596707880496979, 0.03062141127884388, 0.38126617670059204, -0.3248956501483917, -0.1443673074245453, 0.08500497043132782, -0.2635820806026459, 0.3657230734825134, -0.3696598708629608, 0.13681139051914215, -0.2348458617925644, -0.26022014021873474, 0.1338508129119873, -0.40822866559028625, -0.05395062640309334, -0.20347987115383148, 0.1712162047624588, -0.44530096650123596, 0.30155712366104126, 0.025685342028737068, -0.34534183144569397, 0.08836568146944046, -0.10719666630029678, 0.8988229632377625, 0.17626933753490448, 0.23854289948940277, 0.12470896542072296], [-0.1598970592021942, 0.2517499625682831, -0.28682833909988403, 0.1691093146800995, -0.5292201042175293, -0.2405463606119156, 0.00018808884487953037, 0.7206487059593201, 0.2271517813205719, 0.43074026703834534, 0.3569379448890686, -0.336647093296051, 0.08731888979673386, 0.10152620077133179, -0.23973260819911957, -0.3144810199737549, -0.3269500434398651, 0.20885352790355682, -0.22968405485153198, 0.11539480835199356, -0.11112784594297409, -0.3624589741230011, -0.4310041069984436, -0.33547163009643555, -0.288775235414505, -0.18026401102542877, -0.6704820394515991, 0.11524201184511185, 0.21676203608512878, 0.5208418965339661, -0.1759212464094162, -0.14894971251487732], [-0.6605086326599121, 0.07535526156425476, 0.08460000902414322, -0.13493593037128448, -0.12127993255853653, -0.2779572010040283, -0.21563273668289185, 1.1820154190063477, 0.7708811163902283, -0.027784913778305054, -0.1688002347946167, -0.31212741136550903, -0.2820751965045929, -0.1475818157196045, -0.27263879776000977, -0.6892638802528381, -0.5767655372619629, -0.14027002453804016, 0.31242209672927856, 0.38244709372520447, -0.04736935719847679, -0.1630072444677353, -0.17732074856758118, -0.1472340226173401, 0.3223307132720947, -0.18955720961093903, -0.6319777369499207, 0.29324182868003845, 0.20093588531017303, 0.7893055081367493, -0.373102068901062, 0.2672179341316223], [-0.1366354078054428, 0.5695638060569763, 0.14271564781665802, 0.16468095779418945, 0.6068397760391235, 0.5403981804847717, -0.19125625491142273, 0.37623926997184753, 0.3711493909358978, 0.6303450465202332, 0.08472879976034164, -0.08668272197246552, -0.0957164466381073, 0.607062816619873, -0.1607358604669571, -0.05144850164651871, 0.41044268012046814, -0.11590544879436493, -0.2540126144886017, 0.21523801982402802, 0.6220257878303528, 0.07376398891210556, 0.3346875011920929, 0.3861713409423828, -0.058707091957330704, 0.3629402816295624, 0.302759051322937, -0.10110387206077576, 0.4876508414745331, 0.45450258255004883, 0.17221765220165253, 0.04956073313951492], [-0.33715716004371643, 0.3551642894744873, 0.031767331063747406, -0.4459770917892456, -0.12248492240905762, -0.6317813992500305, 0.3627752363681793, 0.2695108652114868, 0.2785985767841339, 0.2152874618768692, -0.11470536142587662, -0.11853469163179398, 0.24744564294815063, -0.1322680115699768, -0.12729012966156006, -0.19620473682880402, 0.06813328713178635, -0.43852001428604126, 0.012853777036070824, -0.09430313855409622, -0.029224179685115814, -0.2538315951824188, -0.13012385368347168, -0.1449306160211563, -0.18509048223495483, -0.0513443760573864, 0.1493971198797226, 0.1264350712299347, 0.21591098606586456, 0.38928326964378357, 0.43518733978271484, 0.1168505921959877], [-0.20330506563186646, 0.3637539744377136, -0.11306102573871613, -0.4221423864364624, -0.7073380947113037, -0.2706819772720337, 0.11365032196044922, 0.11350236088037491, 0.29581594467163086, 0.24813728034496307, -0.03863425925374031, 0.012598207220435143, -0.017825981602072716, 0.15148693323135376, 0.0850810557603836, -0.0033122010063380003, -0.3295746445655823, 0.16333165764808655, -0.1035674661397934, -0.037520118057727814, -0.13527147471904755, 0.18634051084518433, -0.17626819014549255, -0.15581806004047394, -0.5189821720123291, -0.5588435530662537, -0.4815845191478729, -0.4220166802406311, 0.21927620470523834, 0.2607238292694092, 0.12715929746627808, 0.1559533327817917], [-0.1106397807598114, 0.18706387281417847, -0.31739649176597595, -0.7759009003639221, 0.010210788808763027, 0.24443459510803223, -0.022532625123858452, 0.4230639934539795, 0.4805266261100769, 0.5439229607582092, 0.0217453483492136, -0.21574240922927856, 0.10989708453416824, -0.21615199744701385, -0.02870737574994564, -0.4780994951725006, -0.21840591728687286, -0.013241753913462162, 0.13650193810462952, -0.025126367807388306, 0.048567745834589005, -0.1568267047405243, -0.7385667562484741, -0.035859860479831696, -0.3803233802318573, 0.18959307670593262, -0.22640055418014526, -0.11094650626182556, -0.06882386654615402, 0.13134483993053436, 0.4264601469039917, 0.2597615420818329], [-0.06841807067394257, 0.12240800261497498, 0.18660005927085876, -0.25697124004364014, 0.1988571584224701, -0.6953508257865906, 0.16383054852485657, 0.6471135020256042, 0.2220008820295334, 0.12489625811576843, -0.15967200696468353, 0.052885234355926514, 0.37328606843948364, 0.36539027094841003, -0.1546294093132019, -0.44604408740997314, -0.09055814146995544, 0.30276554822921753, 0.04390130192041397, 0.45882225036621094, 0.19296227395534515, -0.22320668399333954, -0.087006576359272, -0.10676226764917374, 0.12101619690656662, 0.0387057401239872, -0.34593087434768677, 0.466738760471344, -0.4260236918926239, 0.6889976859092712, -0.33530867099761963, -0.12226377427577972], [-0.048161450773477554, 0.01862337440252304, -0.41318267583847046, -0.43247511982917786, -0.5167677998542786, -0.32400256395339966, 0.24742893874645233, 0.658598780632019, -0.3532516360282898, 0.27510976791381836, 0.04435334727168083, -0.003492030082270503, 0.25126877427101135, -0.2874724864959717, -0.22425653040409088, -0.8464784026145935, -0.31654369831085205, -0.27035805583000183, -0.517811119556427, 0.23555628955364227, 0.5786176323890686, -0.16991287469863892, -0.32763242721557617, -0.29582759737968445, -0.3860607147216797, -0.48898017406463623, 0.06306333094835281, 0.2630980908870697, 0.36382439732551575, 0.693091869354248, -0.19054746627807617, 0.3077085614204407], [-0.15335030853748322, 0.5973628163337708, -0.060908835381269455, -0.18085023760795593, -0.48041263222694397, -0.36264288425445557, 0.23319153487682343, -0.16728419065475464, 0.033127520233392715, -0.2488131821155548, -0.09281381219625473, -0.37546756863594055, -0.7137311100959778, -0.03233284875750542, -0.23951555788516998, -0.972775936126709, -0.2984536290168762, 0.03728284314274788, 0.3625327944755554, 0.06128246709704399, -0.02034085802733898, -0.5095126628875732, -0.5804603099822998, -0.09026403725147247, 0.2449178546667099, -0.19800683856010437, -0.3402400016784668, -0.035724740475416183, -0.4499058425426483, 0.5861636996269226, -0.3982405960559845, -0.3191131055355072], [-0.14947371184825897, 0.3085591197013855, 0.0850738137960434, -0.8995753526687622, -0.2453964352607727, -0.06278497725725174, 0.07061834633350372, 0.20788295567035675, 0.21024048328399658, -0.2386142760515213, -0.296968549489975, -0.057844556868076324, 0.24749138951301575, -0.20731204748153687, -0.45380520820617676, -0.04157665744423866, -0.11079385876655579, -0.03955667093396187, 0.14076083898544312, -0.25959405303001404, 0.3352411687374115, -0.4371577203273773, -0.7090615630149841, 0.22799566388130188, -0.47970718145370483, -0.23872607946395874, -0.33008453249931335, 0.8035184741020203, -0.0432509183883667, 0.28931623697280884, -0.23300856351852417, 0.5758780837059021]], "lstm.weight_hh_l0": [[-0.47062087059020996, -0.2807426452636719, -0.22385567426681519, 0.1441778540611267, 0.03693682327866554, -0.19230136275291443, 0.032714758068323135, 0.10727764666080475, -0.027682140469551086, 0.05575278028845787, 0.06399600207805634, -0.0039741951040923595, 0.3383747339248657, -0.14477667212486267, 0.09049339592456818, -0.15377190709114075, 0.19482752680778503, 0.2031484842300415, -0.14556142687797546, 0.1320253163576126, -0.2841166853904724, -0.18757975101470947, 0.005899116396903992, 0.3681795299053192, 0.24378791451454163, -0.1038421094417572, -0.10959592461585999, -0.044673532247543335, -0.22494955360889435, -0.1702476590871811, 0.12836404144763947, 0.1698821783065796], [0.07391588389873505, -0.36400535702705383, 0.033986128866672516, 0.22306334972381592, 0.056776463985443115, 0.13323265314102173, 0.21835912764072418, -0.20737957954406738, -0.02720993012189865, 0.010623726062476635, 0.23762932419776917, -0.26196199655532837, -0.12279113382101059, -0.013129210099577904, -0.09034497290849686, 0.1652541160583496, -0.11375187337398529, -0.1890590935945511, 0.15460191667079926, -0.15823784470558167, -0.15475474298000336, 0.1476897895336151, 0.06646685302257538, -0.10950811952352524, 0.21655842661857605, -0.13592231273651123, -0.010306921787559986, -0.203752338886261, 0.041943661868572235, 0.15258948504924774, 0.03603852912783623, -0.08220133185386658], [0.41143572330474854, 0.30502626299858093, -0.2911887764930725, -0.1256919503211975, 0.050534430891275406, 0.19760341942310333, -0.09451884776353836, -0.1971382200717926, -0.08476732671260834, 0.0025160368531942368, 0.08629786223173141, -0.001797130098566413, 0.016684917733073235, 0.12557333707809448, -0.021713824942708015, -0.023113654926419258, -0.2968360185623169, -0.135116308927536, 0.2783230245113373, 0.12829701602458954, -0.2065449208021164, 0.29360705614089966, 0.09446223080158234, -0.18472224473953247, 0.030478544533252716, 0.2343939244747162, -0.023719655349850655, -0.10853046923875809, 0.030902188271284103, 0.013326858170330524, -0.1506548523902893, -0.384354829788208], [0.005250794813036919, 0.11530125141143799, 0.1031896248459816, 0.2548166513442993, 0.00843138713389635, 0.11289192736148834, 0.04846121743321419, 0.13103973865509033, -0.0545821487903595, 0.2380611151456833, 0.016530591994524002, -0.09972136467695236, 0.06891549378633499, -0.16639752686023712, 0.06791981309652328, -0.13561749458312988, -0.08942391723394394, 0.04432279244065285, 0.15619786083698273, -0.06499812006950378, -0.03490249812602997, -0.12757381796836853, 0.0009951087413355708, 0.08240798115730286, 0.0727672129869461, -0.18443936109542847, -0.030221980065107346, -0.025340426713228226, -0.2097202092409134, 0.1626814603805542, 0.18057577311992645, 0.1910860240459442], [0.13376352190971375, 0.015867868438363075, 0.07885929197072983, -0.17396259307861328, 0.014377235434949398, 0.22801008820533752, 0.1870076060295105, -0.34566816687583923, -0.24108745157718658, -0.08265744149684906, -0.0005467100418172777, -0.16839314997196198, -0.11912365257740021, 0.051636286079883575, -0.184779554605484, 0.01215826254338026, -0.37292030453681946, -0.22753551602363586, 0.12762321531772614, -0.05523713678121567, 0.08831030130386353, 0.24419207870960236, 0.1818188577890396, -0.2498805671930313, 0.35423043370246887, 0.06444334983825684, -0.22620730102062225, -0.107138991355896, -0.13119326531887054, -0.15488341450691223, -0.04536158964037895, -0.15633486211299896], [0.09496772289276123, 0.3244575262069702, 0.09514559805393219, -0.010979904793202877, -0.08167196065187454, -0.10411494225263596, -0.18139010667800903, 0.0903165265917778, 0.0856696218252182, -0.13200217485427856, -0.08059369027614594, 0.14917825162410736, 0.1441975086927414, -0.023523570969700813, 0.08474351465702057, 0.045180533081293106, 0.0907539501786232, -0.1704156994819641, 0.10474464297294617, 0.11541818827390671, -0.23618386685848236, 0.09505912661552429, 0.03413810580968857, -0.17536278069019318, -0.026091448962688446, -0.003387710079550743, 0.07907074689865112, -0.17904603481292725, -0.0890234112739563, 0.13131029903888702, 0.2215331792831421, -0.06738592684268951], [0.08898167312145233, -0.11573471873998642, -0.10020288825035095, 0.016501693055033684, -0.06044450402259827, -0.1829817146062851, 0.11827166378498077, 0.04889816418290138, -0.010019415989518166, 0.354472279548645, -0.12759366631507874, 0.06785772740840912, 0.26718971133232117, -0.23479953408241272, 0.38354411721229553, -0.09524525701999664, 0.1775617003440857, -0.09607210755348206, -0.028618520125746727, 0.09950508177280426, -0.4823518395423889, 0.09171454608440399, -0.022976644337177277, 0.054200295358896255, -0.050037775188684464, -0.029259830713272095, -0.042687155306339264, -0.07123302668333054, -0.21774427592754364, 0.2705303132534027, 0.44254589080810547, 0.20019906759262085], [-0.09530195593833923, -0.17531530559062958, -0.07201695442199707, 0.04575570672750473, -0.3364769220352173, 0.17167913913726807, 0.33900967240333557, 0.3619871735572815, -0.24252495169639587, 0.3736298382282257, -0.09288418292999268, 0.08988816291093826, 0.09082486480474472, -0.09722154587507248, 0.17251285910606384, -0.07743075489997864, 0.1954777091741562, 0.035582754760980606, 0.10529948770999908, 0.1605072021484375, -0.028950093314051628, -0.0862438976764679, -0.017922621220350266, 0.04050423204898834, 0.004121268633753061, -0.20902132987976074, 0.04095365107059479, -0.11540582776069641, -0.29699766635894775, 0.1325141042470932, -0.003943535499274731, 0.38529226183891296], [-0.4332575500011444, -0.3679922819137573, -0.27660128474235535, 0.3725551962852478, -0.12456308305263519, -0.16646398603916168, -0.18259893357753754, 0.33117422461509705, 0.26078227162361145, 0.351695716381073, -0.13107861578464508, 0.43160197138786316, 0.19500426948070526, -0.19999149441719055, 0.4041667878627777, -0.057044923305511475, 0.2725089192390442, 0.2573814392089844, -0.26364976167678833, 0.29452627897262573, -0.40606173872947693, -0.3453976511955261, -0.18262788653373718, 0.3690491318702698, -0.13662464916706085, -0.22772634029388428, -0.2548457682132721, 0.150557741522789, -0.2641907334327698, 0.3821384310722351, 0.17090409994125366, 0.24128320813179016], [0.036850497126579285, 0.19965706765651703, 0.23426184058189392, 0.04690215364098549, 0.3273600935935974, 0.1200309470295906, 0.12483511865139008, -0.2381172627210617, -0.09809298068284988, 0.3603372275829315, -0.09413281828165054, -0.3158372640609741, -0.11396343261003494, 0.172451451420784, -0.27849897742271423, -0.11964535713195801, -0.20085877180099487, 0.09313381463289261, 0.484199196100235, -0.13380371034145355, 0.11138268560171127, 0.17719021439552307, 0.18979428708553314, -0.2606334090232849, 0.43572771549224854, 0.03817233443260193, 0.2654055953025818, -0.43334493041038513, -0.12100783735513687, -0.2161821573972702, -0.30818885564804077, -0.3311742842197418], [0.12274772673845291, 0.3938184976577759, 0.033046502619981766, -0.21076937019824982, 0.2039245367050171, 0.03004325181245804, 0.0537787601351738, -0.2832412123680115, -0.011829554103314877, -0.22382573783397675, -0.5856096744537354, -0.08416684716939926, 0.06385069340467453, 0.16925345361232758, -0.07640263438224792, -0.01209213025867939, -0.03042573854327202, -0.3192662000656128, 0.045621417462825775, -0.07279425114393234, 0.15969230234622955, 0.2984917163848877, -0.0501057431101799, -0.25887545943260193, 0.1447906196117401, 0.2955330014228821, -0.005204242654144764, -0.15306752920150757, 0.2410833239555359, -0.1117616593837738, -0.0654924064874649, -0.35698598623275757], [-0.07515750825405121, -0.05925426259636879, -0.14382648468017578, -0.0027241569478064775, -0.21373307704925537, -0.09014330804347992, 0.19365784525871277, -0.06519058346748352, -0.2442440390586853, 0.17817693948745728, -0.1299433410167694, 0.09460090845823288, -0.01667691022157669, -0.27722951769828796, 0.5390692949295044, -0.1562204509973526, 0.08700346201658249, 0.10384915769100189, 0.21711649000644684, 0.2608584761619568, -0.041113149374723434, -0.05477365851402283, 0.004436582792550325, 0.06924327462911606, 0.07029183208942413, -0.11837861686944962, -0.29278266429901123, 0.017745686694979668, -0.23369915783405304, 0.23683950304985046, 0.526551365852356, 0.1572636514902115], [0.08091680705547333, -0.024091055616736412, -0.07372541725635529, -0.03931031376123428, -0.07330460846424103, 0.017616763710975647, 0.017280548810958862, 0.20956142246723175, -0.3577047884464264, -0.23779451847076416, -0.15442126989364624, -0.14970257878303528, 0.32025983929634094, -0.0372091643512249, -0.16017508506774902, 0.17828696966171265, -0.2130395621061325, -0.11158686131238937, 0.1641920804977417, -0.01767744868993759, 0.25935104489326477, -0.0651945024728775, 0.16639922559261322, 0.006521561183035374, 0.2097615748643875, 0.006908959709107876, 0.0919027328491211, -0.15822844207286835, -0.14036765694618225, 0.08261620253324509, -0.08968086540699005, 0.06858684867620468], [-0.047160062938928604, 0.11626094579696655, -0.029446344822645187, -0.08720631152391434, 0.29510027170181274, -0.12760458886623383, 0.23810429871082306, -0.23753651976585388, -0.2667408287525177, -0.2854754328727722, -0.1599080115556717, -0.3984173536300659, -0.14925937354564667, -0.18997804820537567, -0.04325554147362709, -0.09774869680404663, -0.14603431522846222, -0.3356337249279022, 0.27801501750946045, 0.0009322664700448513, 0.19503472745418549, 0.31942906975746155, 0.006508824415504932, -0.03401992470026016, 0.1616622358560562, 0.09618532657623291, -0.11756843328475952, -0.18901871144771576, 0.06581790745258331, -0.17149406671524048, 0.11940478533506393, -0.03768588602542877], [0.210353285074234, 0.021593155339360237, -0.018636617809534073, -0.2448667734861374, 0.3058694899082184, 0.04442472383379936, 0.17565715312957764, -0.1278187334537506, -0.31459614634513855, -0.11386451870203018, 0.08118593692779541, -0.2966327965259552, -0.3017047941684723, -0.015805888921022415, 0.3267534375190735, -0.12421751022338867, -0.19580575823783875, -0.18998602032661438, 0.15979988873004913, -0.13556519150733948, 0.16876362264156342, 0.0007459225598722696, 0.09127543866634369, -0.0014243564801290631, 0.4622925817966461, 0.2657078206539154, -0.17862246930599213, -0.31976786255836487, 0.05281522870063782, -0.1317293494939804, 0.041458241641521454, 0.031139569357037544], [0.3321053385734558, 0.4141366481781006, 0.4493579566478729, -0.5412936806678772, 0.38620927929878235, 0.5086942315101624, 0.3674861490726471, -0.4840991199016571, -0.2891739308834076, -0.4266226291656494, -0.24198590219020844, -0.4716503918170929, -0.4485988914966583, 0.5591492056846619, -0.38912031054496765, -0.4849892556667328, -0.41260167956352234, -0.5409712195396423, 0.49179330468177795, -0.5858055353164673, 0.4207882881164551, 0.5621315836906433, 0.40153300762176514, -0.35638561844825745, 0.13947688043117523, 0.4668234884738922, 0.5239190459251404, -0.5607030987739563, 0.3350611925125122, -0.6506272554397583, -0.4358980059623718, -0.4467451572418213], [-0.06171320378780365, 0.1753229796886444, -0.2059580683708191, -0.22451189160346985, -0.08615884184837341, 0.13324296474456787, 0.26491260528564453, -0.26855772733688354, -0.15667888522148132, -0.10771492123603821, -0.21648336946964264, -0.2685256898403168, 0.06531732529401779, -0.04591456055641174, -0.08098706603050232, -0.14792130887508392, 0.32978150248527527, -0.22357456386089325, 0.302743524312973, -0.08530807495117188, 0.1317274421453476, 0.1998242735862732, 0.1968131810426712, -0.32258063554763794, 0.3619711399078369, 0.08064907789230347, -0.10674353688955307, -0.17513737082481384, -0.07384323328733444, 0.16314025223255157, 