{"linear_1.weight": [[0.7164386510848999], [0.5416205525398254], [-0.23427248001098633], [0.8013883233070374], [-0.054666243493556976], [0.03440621867775917], [-0.18968352675437927], [0.7888787984848022], [0.9153181314468384], [-0.7789449095726013], [0.8879467844963074], [0.03988846018910408], [0.1809539496898651], [0.13543057441711426], [0.09184356778860092], [-0.23404882848262787], [0.6508265733718872], [0.14780890941619873], [-0.46683990955352783], [0.2548983097076416], [-0.46073663234710693], [-0.017922773957252502], [-0.1643487513065338], [0.4941480755805969], [-0.599632978439331], [-0.5151326060295105], [-0.630342423915863], [-0.601272463798523], [0.22855007648468018], [-1.080941081047058], [0.4132780134677887], [-0.8859668374061584]], "linear_1.bias": [0.6282263398170471, -0.3976458013057709, -0.32470452785491943, 0.6801019906997681, -0.06887152045965195, -0.08803579211235046, -0.19190353155136108, -0.3743838965892792, 0.2170434296131134, -0.2734852433204651, 0.4774986803531647, -0.07365541160106659, -0.1785062998533249, -0.437172532081604, -0.12872204184532166, 0.14028629660606384, 0.543502151966095, -0.6095050573348999, -0.9899084568023682, -0.3863605260848999, -0.7670228481292725, -0.04581275209784508, 0.21559546887874603, 0.4375119209289551, 0.23754797875881195, -0.10596861690282822, 0.6900514364242554, -0.7105135917663574, -0.260071724653244, -0.6323935389518738, -0.10507507622241974, -0.38134315609931946], "lstm.weight_ih_l0": [[-0.1797281950712204, 0.17298854887485504, -0.2396354079246521, 0.2587735056877136, -0.14579947292804718, -0.25982311367988586, -0.35334646701812744, 0.7233480215072632, -0.04813448712229729, 0.3261701762676239, 0.10694634169340134, 0.05603950470685959, 0.014702844433486462, -0.2286173403263092, -0.7071517705917358, -0.5467096567153931, -0.03240373358130455, 0.025041794404387474, -0.1456422656774521, -0.04655490443110466, -0.12264718860387802, -0.06296803057193756, -0.32173237204551697, 0.17384599149227142, -0.2786875367164612, -0.2579904794692993, -0.48330745100975037, -0.12421517074108124, 0.08881746977567673, 0.6798406839370728, 0.5589765310287476, 0.43211886286735535], [0.12919031083583832, 0.055920928716659546, -0.19155508279800415, -0.4278982877731323, 0.1571962833404541, 0.25120678544044495, 0.058927781879901886, 0.9601574540138245, 0.4668412208557129, 0.04487951844930649, -0.45519694685935974, -0.24953003227710724, 0.1826142966747284, -0.17186829447746277, 0.5892782211303711, -0.3234337866306305, 0.048320554196834564, -0.14541538059711456, -0.2095337212085724, 0.23281654715538025, 0.5780244469642639, -0.0435965396463871, -0.17601442337036133, 0.5641589760780334, 0.019206808879971504, -0.0020298315212130547, -0.5050326585769653, -0.19050362706184387, 0.1698722094297409, 0.015616273507475853, 0.5603736639022827, -0.20957666635513306], [-0.4428606629371643, 0.0533764585852623, 0.27430596947669983, 0.21576474606990814, -0.2043176144361496, -0.08793404698371887, -0.2820129692554474, 0.9397768974304199, 0.1465812623500824, 0.07979128509759903, 0.5828384757041931, 0.2519420087337494, -0.08774372190237045, 0.3426893949508667, -0.030290743336081505, -0.22800712287425995, -0.13720861077308655, 0.4325111210346222, 0.07957752794027328, -0.3040158450603485, 0.037192706018686295, 0.5924210548400879, -0.013866317458450794, -0.07394008338451385, 0.3991057276725769, -0.027229543775320053, -0.6191155314445496, -0.3681429326534271, 0.14916843175888062, 0.39406996965408325, 0.3856426179409027, -0.02312449738383293], [0.19249308109283447, 0.4663052260875702, -0.019047759473323822, -0.09620267152786255, -0.055395081639289856, -0.3610275685787201, -0.3650548458099365, 0.851382315158844, 0.17839375138282776, -0.15783926844596863, 0.25818267464637756, 0.6185867190361023, -0.031751345843076706, 0.2929641604423523, -0.10190519690513611, -0.41102954745292664, 0.25709864497184753, 0.007591139990836382, 0.3300224542617798, -0.3305259346961975, 0.1668674200773239, 0.04459841176867485, -0.5852941274642944, -0.2482656091451645, -0.37101230025291443, -0.058441780507564545, -0.8063336610794067, 0.15021435916423798, 0.01577882282435894, 0.3909893035888672, -0.028300657868385315, 0.3475334346294403], [-0.263904869556427, 0.053132083266973495, 0.4214678406715393, -0.3149597644805908, -0.09308724850416183, -0.2377835065126419, 0.09084774553775787, 0.5957548022270203, 0.06872715055942535, 0.05314214527606964, 0.11042211949825287, -0.11720344424247742, 0.1491170972585678, -0.4067537188529968, -0.2835215628147125, -0.41623008251190186, -0.3543711304664612, -0.061159636825323105, -0.03779669851064682, 0.3142131567001343, 0.2506770193576813, -0.25768232345581055, -0.45239877700805664, -0.0030891902279108763, -0.926419198513031, -0.1458551585674286, -0.2385694533586502, -0.1653710901737213, 0.5018535256385803, 0.6264700293540955, 0.042621199041604996, 0.4306015372276306], [0.48889195919036865, 0.5626068115234375, 0.3644362688064575, -0.14400380849838257, 0.017261257395148277, 0.015940483659505844, -0.06939219683408737, 1.1170567274093628, 0.09898768365383148, 0.3882658779621124, -0.26822301745414734, 0.25506412982940674, 0.03689582645893097, -0.6439707279205322, 0.1180500015616417, -0.04465575888752937, -0.014438072219491005, -0.44537514448165894, -0.3730004131793976, 0.28353768587112427, -0.2619079649448395, 0.19386157393455505, -0.2097998857498169, 0.1433652937412262, -0.36666759848594666, 0.3317551016807556, -0.30933678150177, -0.01606767438352108, 0.6069416403770447, 0.5397005081176758, 0.16736441850662231, 0.18674392998218536], [-0.19527341425418854, 0.6733152270317078, 0.23033683001995087, -0.05760066211223602, 0.16787007451057434, -0.03823428973555565, 0.2294771671295166, 0.8273183703422546, 0.5999865531921387, 0.48625457286834717, 0.39192089438438416, 0.007247335743159056, 0.1348475068807602, 0.16854225099086761, 0.23871862888336182, -0.03323102742433548, 0.06566859036684036, 0.035539209842681885, 0.5119598507881165, -0.27579542994499207, -0.4619351029396057, 0.04578845947980881, -0.07004719972610474, 0.11661413311958313, 0.00944574549794197, 0.04925885051488876, -0.0355725958943367, -0.39078083634376526, 0.5052016377449036, 0.6638394594192505, 0.127129927277565, 0.9055562019348145], [0.13200053572654724, 0.4813478887081146, -0.30954399704933167, -0.35120803117752075, -0.3211875855922699, -0.05326676741242409, 0.29120567440986633, 1.1164741516113281, 0.7334322333335876, -0.13360150158405304, -0.013426363468170166, -0.33592167496681213, 0.28665846586227417, -0.4022441804409027, 0.0036288306582719088, -0.3668827414512634, -0.38533538579940796, 0.42725086212158203, 0.0036865409929305315, -0.007004543673247099, 0.1932460367679596, -0.06696420907974243, -0.3328728675842285, 0.1190798282623291, 0.015468375757336617, 0.09923037141561508, -0.03629153594374657, 0.06483222544193268, 0.45662689208984375, 0.5369083285331726, 0.23721933364868164, -0.24065470695495605], [0.42098191380500793, 0.5903804898262024, -0.03752311319112778, -0.20470258593559265, -0.42269057035446167, -0.28776615858078003, -0.13514140248298645, 0.6300822496414185, 0.37318694591522217, 0.026420561596751213, 0.06585075706243515, -0.24454306066036224, 0.4541415572166443, 0.4242264926433563, -0.4024962782859802, -0.20549429953098297, 0.11597983539104462, -0.38885992765426636, -0.12653827667236328, 0.21621929109096527, 0.17406509816646576, 0.2825694978237152, -0.6478528380393982, -0.28095561265945435, -0.3618783950805664, 0.055411309003829956, -0.6897182464599609, 0.14617733657360077, -0.1098235696554184, 0.19887083768844604, -0.3967967629432678, 0.09110354632139206], [-0.3014959692955017, -0.010118137113749981, 0.07690652459859848, 0.18713580071926117, -0.07958341389894485, -0.37620171904563904, -0.1847984939813614, 0.8613688945770264, 0.5968040823936462, 0.10234399884939194, 0.12931965291500092, 0.23175980150699615, -0.006854684557765722, 0.028063874691724777, 0.07344894111156464, -0.25757768750190735, -0.23347684741020203, -0.08647090196609497, -0.048846285790205, -1.147621750831604, -0.5130724310874939, -0.005061587318778038, -0.11343507468700409, -0.4323173463344574, -0.10612404346466064, -0.025116102769970894, -0.05669115483760834, 0.17674903571605682, -0.0726533755660057, 0.23828233778476715, 0.3648029863834381, 0.30816349387168884], [-0.29539626836776733, -0.11292526870965958, 0.4284399151802063, -0.9919646978378296, 0.18515947461128235, -0.08783762156963348, -0.4731443524360657, -0.5394896864891052, -0.8746875524520874, -0.31470900774002075, -2.050513982772827, -0.35447806119918823, -1.3326059579849243, -0.2010340392589569, -0.9206001162528992, 0.2108507752418518, -0.7867022752761841, 0.39125752449035645, -0.2416190207004547, 0.04166434332728386, 0.3885730803012848, -0.09577340632677078, -0.06898457556962967, -0.5906626582145691, -0.4077270030975342, -0.2994860112667084, -0.4477965235710144, -0.11062406003475189, -0.22687114775180817, 0.1417805254459381, -0.5086574554443359, 0.27109506726264954], [0.03752020373940468, 0.11535326391458511, 0.09887226670980453, 0.049411140382289886, -0.39690133929252625, 0.10016323626041412, -0.044391293078660965, 0.19878995418548584, 0.10322406888008118, 0.331362783908844, -0.036265719681978226, -0.2889559268951416, -0.15674404799938202, 0.13666924834251404, 0.21110738813877106, -0.34255778789520264, -0.2689129710197449, 0.49755701422691345, -0.3115277588367462, -0.1430370807647705, 0.09282969683408737, -0.19927465915679932, -0.12617996335029602, -0.09640496224164963, -0.25218695402145386, 0.33857953548431396, -0.9244349598884583, -0.31709015369415283, -0.21137337386608124, 0.0660775750875473, -0.15762068331241608, 0.5921656489372253], [0.11383470147848129, 0.32998356223106384, -0.006972296629101038, -0.2788148522377014, -0.30543431639671326, 0.247926265001297, -0.2943522334098816, 0.7869241833686829, 0.06645569950342178, 0.32179996371269226, 0.5737912654876709, -0.007046032696962357, -0.005189971998333931, 0.300366073846817, -0.2759304642677307, -0.24479089677333832, 0.009065770544111729, 0.16834208369255066, 0.06066867709159851, 0.22415903210639954, -0.3602084219455719, -0.01468970999121666, -0.16003601253032684, -0.0266122929751873, -0.07188139110803604, 0.0699833333492279, -0.28757402300834656, 0.2625299394130707, -0.1538027673959732, 0.467178076505661, -0.016786882653832436, 0.48623526096343994], [0.40551188588142395, -0.44602352380752563, -0.21306146681308746, -0.20669448375701904, -0.3240545392036438, 0.12927870452404022, -0.003856206312775612, 1.01339852809906, 0.37871700525283813, 0.3602612614631653, -0.03716258704662323, 0.10323446989059448, 0.15897706151008606, -0.044379014521837234, -0.22437027096748352, -0.1820046603679657, -0.18556012213230133, -0.042847879230976105, 0.07252728193998337, 0.018998688086867332, 0.11311542242765427, -0.25322145223617554, -0.16129671037197113, 0.18845656514167786, -0.3917434811592102, 0.3930232524871826, -0.08990588784217834, -0.09953241795301437, 0.2742530405521393, 0.6661544442176819, 0.20937633514404297, 0.4212060272693634], [0.30834585428237915, 0.40102869272232056, 0.06394079327583313, -0.8414154052734375, -0.17363625764846802, -0.035628966987133026, 0.3051956593990326, 0.7771047949790955, 0.38215816020965576, 0.37789246439933777, 0.6339616179466248, -0.30626916885375977, -0.0304256621748209, -0.1706254929304123, -0.17425452172756195, 0.07271819561719894, -0.5770219564437866, 0.11307138204574585, 0.01940532587468624, 0.1759289652109146, -0.3962465822696686, -0.14060473442077637, -0.2771979868412018, -0.2881368398666382, -0.04724494740366936, -0.13636277616024017, -0.1477929651737213, 0.10448725521564484, 0.2766781747341156, 0.645807147026062, 0.24370141327381134, 0.4068395495414734], [-1.4849096536636353, 0.13472697138786316, -0.024163898080587387, -0.8929585814476013, 0.05525001883506775, 0.1773301661014557, -0.21812863647937775, 0.26324760913848877, -1.86208176612854, -0.13881687819957733, -1.5960321426391602, -0.31726568937301636, -1.2845195531845093, -0.20964978635311127, -0.7412404417991638, -0.218345046043396, -0.7790747284889221, 0.30198198556900024, 0.2164488434791565, -0.028780654072761536, -0.051713310182094574, -0.13226217031478882, -0.009832707233726978, -0.6670690774917603, -0.025345437228679657, -0.44453704357147217, -0.2708580195903778, -0.5735041499137878, -0.6326623558998108, -0.021477963775396347, -1.0434067249298096, 0.12295456975698471], [-0.6043752431869507, -0.1565416008234024, 0.22917865216732025, -0.31332239508628845, -0.42620953917503357, -0.29911571741104126, 0.21128833293914795, 0.21422339975833893, 0.06791999936103821, 0.44915080070495605, -0.04660322889685631, -0.23181021213531494, 0.08176824450492859, 0.20073926448822021, -0.3419664204120636, -0.05415131896734238, -0.0025681599508970976, -0.05446513742208481, 0.06373598426580429, 0.44721558690071106, 0.2094632387161255, -0.31946584582328796, -0.765143632888794, 0.175749272108078, -0.35110795497894287, 0.00040912680560722947, -0.6484504342079163, 0.20494863390922546, -0.16515076160430908, 0.1350514441728592, -0.25819075107574463, 0.20858266949653625], [0.3597749173641205, 0.8714877367019653, -0.11648089438676834, -0.2673613727092743, 0.4050481617450714, 0.027421066537499428, -0.22978202998638153, 0.67702317237854, 0.46903061866760254, 0.41600778698921204, 0.1567474901676178, 0.4136207401752472, -0.1021474301815033, -0.2642534077167511, 0.17566175758838654, -0.1584736555814743, 0.31180354952812195, -0.029263807460665703, 0.06079193204641342, -0.4758239686489105, -0.37801748514175415, 0.03255040943622589, -0.5248423218727112, -0.09901803731918335, 0.029001273214817047, -0.07991056144237518, -0.49648624658584595, 0.3662252426147461, 0.3150019943714142, 0.5432083606719971, -0.15362317860126495, 0.28752297163009644], [-0.18096128106117249, 0.33031654357910156, 0.15605349838733673, -0.11776544153690338, 0.2617507576942444, -0.5736104846000671, -0.07134456187486649, 0.6459040641784668, 0.13784679770469666, 0.3241691291332245, 0.41167324781417847, 0.09697144478559494, 0.11432307213544846, -0.2746187448501587, -0.15421746671199799, -0.026319092139601707, -0.396065890789032, -0.1726822704076767, 0.09905418008565903, -0.6336913704872131, -0.3486466705799103, -0.4812573492527008, -0.25969991087913513, 0.13331793248653412, -0.01890479400753975, -0.13262833654880524, -0.821004331111908, -0.36422672867774963, 0.9427980780601501, 0.15603666007518768, 0.42051592469215393, 0.37690213322639465], [-0.2084392011165619, 0.540873646736145, 0.10528300702571869, -0.40333810448646545, -0.030612638220191002, -0.4199322462081909, 0.3640199899673462, 0.8501749634742737, 0.22315092384815216, 0.3338265120983124, 0.3836215138435364, -0.14332228899002075, -0.10293561965227127, -0.04615585133433342, -0.06468074023723602, -0.3768371045589447, -0.01118616946041584, 0.15967048704624176, -0.23129937052726746, 0.11983557045459747, 0.01983552798628807, 0.06487907469272614, -0.11811497807502747, -0.15065331757068634, -0.1675414890050888, 0.10801380127668381, 0.039223555475473404, -0.25773710012435913, -0.19662193953990936, 0.4700604975223541, -0.09640678018331528, 0.20581811666488647], [-0.09789120405912399, -0.2724972665309906, -0.23342163860797882, -0.49657142162323, -0.540549635887146, -0.3549105226993561, 0.027051875367760658, 0.6085742712020874, 0.24353983998298645, -0.030449120327830315, 0.24782685935497284, -0.19890247285366058, -0.1019754484295845, -0.20254667103290558, -0.07248683273792267, -0.7544209361076355, -0.3100312352180481, -0.30646389722824097, -0.21241530776023865, 0.4166947603225708, 0.12244472652673721, -0.05500651150941849, -0.1234683021903038, -0.5941404104232788, 0.046170324087142944, 0.02527911774814129, -0.28139734268188477, -0.4064294099807739, -0.027060572057962418, 0.9074458479881287, 0.2505587935447693, 0.5531330704689026], [-0.06225043162703514, -0.049022775143384933, -0.3245195150375366, -0.25031208992004395, -0.07642557471990585, -0.050583336502313614, -0.13516020774841309, 0.7530916929244995, 0.1561809629201889, 0.018741197884082794, -0.15814551711082458, 0.1303664892911911, -0.20454514026641846, -0.2180822193622589, -0.19222775101661682, -0.5077501535415649, 0.15844444930553436, 0.13020949065685272, 0.2939133644104004, -0.0428168959915638, -0.18785738945007324, -0.3002047836780548, -0.15006737411022186, -0.08954998850822449, 0.03747832402586937, 0.31813234090805054, -0.6599130034446716, 0.024153081700205803, -0.13909490406513214, 0.3932369351387024, 0.13773058354854584, 0.4864276647567749], [0.08142074197530746, 0.09602023661136627, 0.07071402668952942, -0.041639018803834915, -0.29257732629776, -0.12676972150802612, -0.31975170969963074, 1.1687709093093872, 0.4738680422306061, -0.2852511405944824, 0.25036075711250305, -0.05744374915957451, 0.1972322016954422, 0.41746312379837036, 0.21645689010620117, -0.24042512476444244, 0.08384522795677185, 3.677962740766816e-05, 0.06797826290130615, -0.2641274631023407, -0.21324856579303741, 0.20973551273345947, -0.2168981283903122, 0.023243654519319534, 0.0005497667007148266, 0.27965787053108215, 0.08430042117834091, -0.2920025587081909, 0.39817628264427185, 0.37595003843307495, 0.48285117745399475, 0.1291295439004898], [-0.041599057614803314, 0.14735035598278046, 0.11406347900629044, -0.5298451781272888, -0.22498439252376556, -0.18257498741149902, 0.06169482693076134, 0.7368230819702148, 0.8787881135940552, 0.04199814051389694, 0.031224247068166733, -0.2566618025302887, 0.16173425316810608, -0.4618234932422638, -0.5612800121307373, -0.3679477572441101, -0.17356806993484497, -0.26743587851524353, -0.10781750828027725, -0.4149417579174042, 0.020494582131505013, 0.26022645831108093, -0.24557888507843018, -0.11686046421527863, 0.016845006495714188, 0.13213638961315155, -0.05898398533463478, 0.04372607544064522, 0.5381346940994263, 0.10331147909164429, -0.006589315365999937, 0.1623084545135498], [-0.17937512695789337, 0.4150800108909607, -0.08983509987592697, 0.05440863221883774, 0.07883923500776291, -0.1034126877784729, 0.24242685735225677, 0.577092707157135, 0.3035529553890228, 0.12941871583461761, -0.023698346689343452, -0.0119633749127388, 0.769895613193512, 0.18470418453216553, 0.10311387479305267, 0.21401692926883698, 0.03391719236969948, -0.27350589632987976, -0.134521484375, -0.21829067170619965, 0.5274247527122498, 0.57701575756073, 0.174554705619812, -0.25410446524620056, -0.12960253655910492, 0.07110792398452759, -0.21643225848674774, 0.04680308327078819, 0.5759221911430359, 0.1608184278011322, 0.3774692714214325, 0.580598771572113], [-0.11467717587947845, 0.2365243285894394, -0.7327833771705627, -0.19606971740722656, 0.03649042546749115, 0.21179921925067902, -0.1574314385652542, 0.9896895289421082, 0.40475353598594666, 0.20253534615039825, -0.2239876240491867, -0.2350650578737259, 0.4551922380924225, 0.26604244112968445, 0.5551417469978333, -0.3603518009185791, -0.08290993422269821, 0.2580523192882538, -0.47028279304504395, 0.28491607308387756, -0.07684893906116486, 0.5741982460021973, 0.02656565234065056, -0.12582755088806152, -0.5952183604240417, 0.2799133062362671, -0.3923802077770233, -0.06500405073165894, 0.014632449485361576, 0.49252888560295105, 0.25093403458595276, -0.07248091697692871], [-0.27550703287124634, 0.8764145970344543, -0.003944950643926859, 0.40863969922065735, 0.010392834432423115, -0.02063596434891224, 0.05350334569811821, 0.08553599566221237, 0.4633651375770569, -0.29243001341819763, -0.20596688985824585, 0.009803040884435177, -0.19555187225341797, -0.17621278762817383, 0.016969289630651474, -0.19083145260810852, 0.05333028733730316, 0.2571658492088318, -0.19012655317783356, 0.3229956328868866, -0.4550362527370453, 0.13802874088287354, -0.36445197463035583, -0.12112155556678772, -0.17697565257549286, -0.36637988686561584, 0.24038921296596527, 0.16639958322048187, 0.4557391107082367, 0.15924911201000214, 0.5937817096710205, -0.19978757202625275], [-0.1082737147808075, 0.34246188402175903, 0.04055286571383476, -0.027889754623174667, 0.16278262436389923, 0.20729072391986847, -0.29137375950813293, 0.3665781021118164, 0.3249053359031677, -0.020542988553643227, 0.27656975388526917, 0.1506926715373993, 0.1843540221452713, -0.0408049076795578, -0.13507094979286194, 0.2878575325012207, 0.058574378490448, 0.33289510011672974, 0.020033828914165497, 0.45573869347572327, -0.006314091384410858, -0.2719150483608246, 0.30308207869529724, 0.003215223550796509, -0.16296589374542236, -0.048117753118276596, -0.22567987442016602, -0.13545115292072296, 0.27074357867240906, 0.6115953326225281, 0.14985771477222443, 0.042268525809049606], [-0.23306699097156525, -0.37603309750556946, -0.03150616213679314, -0.35199692845344543, 0.10415884107351303, -0.785893440246582, 0.13368305563926697, 0.268356591463089, 0.17660453915596008, 0.8106968998908997, -0.27111873030662537, -0.1703483611345291, 0.13459639251232147, 0.05457443371415138, -0.25526031851768494, 0.14092357456684113, 0.2531145215034485, -0.08234719932079315, 0.3260982632637024, 0.4514332711696625, 0.34215861558914185, 0.2438100129365921, -0.4718818664550781, 0.02101089060306549, -0.5881685614585876, 0.1346544325351715, -0.4931749701499939, -0.061925821006298065, 0.14921003580093384, 0.20017510652542114, -0.1279861479997635, 0.4137643873691559], [-0.3380263149738312, 0.48567378520965576, 0.6170981526374817, 0.031032761558890343, -0.3557225465774536, -0.16793230175971985, -0.0820435956120491, 0.8150922656059265, 0.19653591513633728, 0.219790980219841, 0.22868214547634125, 0.24567215144634247, -0.29800117015838623, -0.15060701966285706, -0.2587488293647766, -0.4026433527469635, -0.05755047872662544, -0.2030704915523529, -0.334981769323349, -0.1837216317653656, -0.5503631830215454, -0.031967032700777054, -0.20506632328033447, 0.0468885712325573, 0.1071312427520752, 0.03463762253522873, -0.266339510679245, -0.07085917890071869, 0.3519405722618103, 0.6297537088394165, 0.21867132186889648, 0.3323517441749573], [-0.05424385517835617, 0.341757595539093, -0.11113600432872772, -0.24536770582199097, 0.17851200699806213, -0.45744720101356506, 0.2541915476322174, 0.9095678329467773, 0.38172248005867004, 0.2156001627445221, -0.5145705938339233, -0.3624688982963562, 0.3475128412246704, -0.21784727275371552, 0.3240325152873993, -0.4484066665172577, 0.25486865639686584, 0.11149396747350693, 0.025414982810616493, 0.2692527174949646, 0.32146814465522766, 0.24641045928001404, -0.40224984288215637, -0.1258620172739029, 0.12008394300937653, 0.33163750171661377, -0.23305857181549072, 0.18724238872528076, 0.19975286722183228, 0.557131290435791, 0.3687017560005188, 0.20937153697013855], [-0.08065757155418396, 0.17881600558757782, 0.32741355895996094, 0.09274295717477798, 0.16336257755756378, 0.6141015887260437, -0.032449860125780106, 0.98172527551651, 0.32083186507225037, 0.3227918744087219, 0.42889294028282166, -0.20639361441135406, 0.17285402119159698, 0.026900405064225197, 0.14688070118427277, -0.2850918769836426, -0.602002739906311, 0.0900401845574379, 0.14777199923992157, 0.33616384863853455, -0.4582447111606598, 0.0005143485032021999, -0.1198609247803688, -0.49068742990493774, -0.008764185942709446, 0.12903279066085815, -0.37966179847717285, 0.5154590606689453, 0.11046604067087173, 0.9024147987365723, 0.4106246531009674, 0.14808332920074463], [-0.7712234258651733, 0.12595301866531372, -0.4434954524040222, -0.8041911125183105, 0.031130963936448097, -0.5169370770454407, -0.2571047246456146, 0.17221996188163757, -0.4424538016319275, -0.1989145576953888, -1.0587514638900757, -0.14437535405158997, -0.22802701592445374, -0.20235784351825714, -0.4497144818305969, -0.24158217012882233, -0.9792443513870239, -0.17161931097507477, 0.13532596826553345, -0.11579181253910065, -0.09205357730388641, -0.32275789976119995, -0.2672741413116455, -0.839046835899353, -0.5412511229515076, -0.26618197560310364, -0.8740062713623047, 0.1731671690940857, 0.23726874589920044, 0.4654293656349182, -0.2422187328338623, 0.2627597451210022], [-1.0597680807113647, -0.6713172793388367, -0.03170081973075867, -1.4976953268051147, -0.8083680272102356, -0.5868711471557617, -0.2458418309688568, 0.5558295249938965, -0.6710792779922485, -0.7750938534736633, -0.8350281715393066, -0.8417240381240845, -0.4327132999897003, 0.41509196162223816, -0.8186993598937988, -0.4192412495613098, -0.8010802865028381, -0.12826620042324066, -0.044133834540843964, -0.20680567622184753, 0.36275893449783325, -0.34670042991638184, -0.7253881692886353, -1.020311713218689, -0.4075009226799011, -0.3756123483181, -0.2531784474849701, 0.32283997535705566, -0.34340009093284607, 0.1234261766076088, -0.6119033694267273, -0.2486560195684433], [-1.1168475151062012, -0.5460554361343384, 0.03566094487905502, -1.3255386352539062, 0.11919610947370529, -0.4831947982311249, -0.26474401354789734, 0.31471821665763855, -0.5962021946907043, 0.2368750423192978, -0.7453259825706482, -0.01175117027014494, -0.8040283918380737, -0.07357151061296463, -0.940289318561554, -0.06953175365924835, -1.3633184432983398, -0.0207213144749403, -0.1163814589381218, 0.4940650761127472, 0.21245861053466797, -0.3286190629005432, -0.21288400888442993, -1.1188029050827026, 0.14263328909873962, -0.5814876556396484, -0.26283925771713257, -0.10414250940084457, 0.26152998208999634, 0.282061904668808, -0.5908793807029724, 0.4512714743614197], [-0.3222196400165558, -0.37530267238616943, -0.7255876064300537, -0.13615410029888153, -0.7166666984558105, -0.7626228332519531, -0.5430527925491333, -0.20153072476387024, -0.4328894019126892, -0.1393127739429474, -0.689831018447876, -0.28670841455459595, -0.3825201094150543, 0.2848125398159027, -0.6150851845741272, -0.9728878736495972, -0.32175037264823914, -0.15415751934051514, 0.26823219656944275, 0.2142745405435562, -0.18145252764225006, -0.21828582882881165, -1.5542465448379517, -0.40828388929367065, -1.1519888639450073, -0.26920798420906067, -1.0413521528244019, 0.31256237626075745, -0.12707538902759552, -0.3282186985015869, -0.12544475495815277, -0.4353092908859253], [-0.8154995441436768, -0.5372223258018494, -0.25979140400886536, -1.572153091430664, -0.4703929126262665, -0.4284825026988983, -0.09517845511436462, 0.5813271999359131, -0.5853898525238037, -0.2646932303905487, -1.473037838935852, 0.07771661877632141, -0.8931503891944885, 0.158344104886055, -0.41369014978408813, -0.2604854106903076, -1.147143006324768, 0.001794532872736454, -0.27356788516044617, 0.41793546080589294, 0.060795821249485016, -0.3645276725292206, -0.10884370654821396, -1.2982457876205444, -0.22975291311740875, -0.06628382951021194, -0.18352296948432922, 0.06430566310882568, -0.1547432392835617, 0.8455211520195007, -0.07529915869235992, -0.12744148075580597], [-0.7552018761634827, -0.43779557943344116, 0.1741224080324173, -0.8868464827537537, -0.7734173536300659, -0.48563435673713684, -0.48682504892349243, 0.08889050036668777, -0.09512905031442642, -0.5617848634719849, -0.7190079092979431, -0.3696960508823395, -0.10783062875270844, 0.23835666477680206, -0.4913724958896637, 0.14231222867965698, -0.6622166633605957, -0.04781368002295494, 0.2031196504831314, 0.24063463509082794, 0.38205382227897644, -0.5069429278373718, -0.7957809567451477, -0.9629659056663513, -0.6777615547180176, -0.37722575664520264, -1.2523168325424194, 0.10906334966421127, -0.19367460906505585, -0.5690251588821411, -0.37332427501678467, -0.42040640115737915], [-0.6492528915405273, 0.18052931129932404, 0.2603016793727875, -0.48877984285354614, -0.13768522441387177, -0.1192915067076683, -0.6767014861106873, 0.268602579832077, -0.36169013381004333, 0.43332093954086304, 0.04680925980210304, 0.004435881040990353, -0.33606958389282227, -0.09467943757772446, 0.08425173908472061, -0.5475553870201111, -0.08294744789600372, 0.0009191775461658835, -0.8677726984024048, 0.13107869029045105, 0.22167851030826569, -0.12441297620534897, -0.22791796922683716, -0.2158409059047699, -0.2969989776611328, -0.30553117394447327, -0.8606628179550171, -0.3230304718017578, 0.7983047366142273, 0.3036646544933319, -0.46863681077957153, 0.27299776673316956], [-0.9743707180023193, -0.19639991223812103, -0.09689448773860931, -0.6840141415596008, -0.39312154054641724, -0.5309902429580688, -0.23729737102985382, 0.5413215160369873, -0.6880168914794922, -0.5467639565467834, -0.5769339203834534, -0.12715236842632294, -0.29587382078170776, -0.029033105820417404, -0.4523804187774658, -0.8732849955558777, -0.8058422803878784, -0.06633467227220535, 0.14454385638237, 0.38317006826400757, -0.10335028171539307, -0.29813963174819946, -0.7836610078811646, -1.1532942056655884, -0.5099614858627319, -0.12451537698507309, -1.059828519821167, 0.3993348777294159, 0.09640584141016006, 0.28385716676712036, -0.19028301537036896, -0.1648334562778473], [0.136307030916214, 0.5376390218734741, -0.08570417761802673, 0.03259417787194252, -0.29447394609451294, 0.05183893442153931, -0.6281611323356628, -0.0022506576497107744, -0.1840725839138031, -0.7048356533050537, -0.019537635147571564, -0.2048671543598175, 0.016846511512994766, -0.16035474836826324, -0.36253079771995544, -0.5333406925201416, 0.21960578858852386, 0.20931172370910645, 0.486275315284729, -0.41853395104408264, 0.22429729998111725, 0.09597282856702805, -0.1517905592918396, -0.35372233390808105, 0.042979203164577484, -0.11401494592428207, -0.5855516195297241, -0.34982872009277344, 0.006020348984748125, 0.17182502150535583, -0.014633577316999435, 0.25339820981025696], [-0.9817107319831848, -0.6916671395301819, 0.03645232319831848, -0.7051612734794617, -0.3234964907169342, -0.3186463415622711, 0.017077047377824783, -0.0008174198446795344, 0.11982201039791107, -0.27673056721687317, -0.33047744631767273, -0.25375857949256897, -0.6549686789512634, 0.6268057823181152, -0.8767765164375305, -0.45941007137298584, -0.7266863584518433, -0.17422349750995636, 0.09481062740087509, 0.07122793048620224, -0.12359386682510376, -0.10626351088285446, -0.4109238088130951, -0.8848154544830322, -0.4233362078666687, -0.2586248815059662, -0.8977496027946472, 0.12954361736774445, -0.03207718953490257, 0.15894272923469543, -0.47006434202194214, -0.8226333260536194], [0.05685945600271225, -0.4778667986392975, 0.4807802736759186, -0.646808922290802, -0.2105257660150528, -0.12320774793624878, 0.3997427523136139, 0.000765591801609844, -1.2971837520599365, -0.022601621225476265, -1.3804824352264404, 0.04936343431472778, -1.216244101524353, 0.0012136375298723578, -0.6721171736717224, -0.16728930175304413, -0.605866551399231, -0.015190263278782368, 0.057218536734580994, -0.05799388885498047, -0.37236398458480835, 0.4057070016860962, -0.18095766007900238, -0.20770974457263947, -0.5966268181800842, -0.41899096965789795, -0.10802870988845825, -0.21527375280857086, 0.025534117594361305, -0.10182686895132065, -0.8022842407226562, -0.04878070577979088], [-1.3985943794250488, -0.7958270907402039, -0.19325485825538635, -1.2194510698318481, -0.5215471982955933, -0.31369033455848694, 0.01878437027335167, -0.008931126445531845, -0.6693384647369385, -0.10388427972793579, -0.785378098487854, -0.04408431425690651, -0.5757104158401489, -0.46093854308128357, -0.307055801153183, -0.9168015122413635, -1.0314898490905762, 0.1906721591949463, -0.32503989338874817, 0.37869730591773987, -0.019952157512307167, -0.38853734731674194, -0.9343146085739136, -1.4062786102294922, -0.3749200105667114, -0.21849440038204193, -0.9820626378059387, 0.01311651710420847, -0.34388092160224915, 0.21605487167835236, -0.43793103098869324, -0.007543475832790136], [-1.585229754447937, -0.4585828185081482, -0.17678630352020264, -1.264276146888733, -0.6047261953353882, -0.5052244663238525, -0.2818172872066498, -0.16768907010555267, -0.36404213309288025, -0.3002530634403229, -0.731093168258667, -0.1642657071352005, -0.8689563274383545, 0.3343980312347412, -0.7521167993545532, -0.0007901820936240256, -1.6231920719146729, -0.180247500538826, 0.08453589677810669, 0.05107710510492325, 0.03438771888613701, -0.8087254166603088, -0.0938040018081665, -1.4881778955459595, -0.4923193156719208, -0.45960548520088196, -0.7933076620101929, -0.07915021479129791, 0.010282865725457668, 0.5891256928443909, -0.9134136438369751, -0.2304546982049942], [-0.5815857648849487, -0.7817456722259521, -0.0671776682138443, -0.7416765689849854, -0.6024428606033325, -1.2441529035568237, 0.2476722151041031, -0.2729726731777191, -0.30601656436920166, -0.4628202021121979, -0.7156674861907959, -0.3554898202419281, -0.48329636454582214, -0.6159943342208862, -0.36952927708625793, -1.1280946731567383, -1.0136313438415527, 0.018481390550732613, -0.08923820406198502, 0.047989655286073685, -0.16280831396579742, -0.2859194874763489, -0.6645054817199707, -0.6924006342887878, -0.9548486471176147, -0.3378826379776001, -1.0026319026947021, 0.48521140217781067, -0.004802708048373461, 0.2320050746202469, -0.9845280051231384, -0.21894571185112], [-1.537847638130188, -0.0926412045955658, -0.0987805724143982, -1.4006462097167969, -0.532175600528717, -0.3286498188972473, 0.22044435143470764, 0.5645004510879517, -0.4064970016479492, -0.3260725736618042, -0.6397716403007507, 0.14669014513492584, -0.913061797618866, -0.15883247554302216, -0.6712026000022888, -0.18547634780406952, -1.2646703720092773, 0.030501142144203186, -0.030458632856607437, 0.23402346670627594, -0.07122122496366501, -0.0003937520377803594, -0.20527072250843048, -1.2419803142547607, -0.3545991778373718, -0.28028756380081177, -0.036088977009058, -0.041879069060087204, -0.36006420850753784, 0.3370387554168701, -0.7904197573661804, -0.013645379804074764], [-0.9441572427749634, -0.05115353316068649, 0.03621640056371689, -0.6293739676475525, -0.2578260600566864, -0.45520877838134766, 0.12340801954269409, 0.18819965422153473, -1.0424997806549072, 0.006795620080083609, -0.6014800667762756, 0.38838544487953186, -0.5039743781089783, -0.23745769262313843, -0.07165364921092987, -0.3424675464630127, -0.10777567327022552, -0.3088439404964447, 0.2293435037136078, 0.14382211863994598, 0.1737484633922577, -0.13305442035198212, -0.4936521351337433, -0.14495223760604858, -0.04156750068068504, -0.21836020052433014, 0.07897841930389404, 0.06921499967575073, 0.014110781252384186, -0.05142713338136673, -1.1138150691986084, -0.011904445476830006], [-1.1372931003570557, -1.0235928297042847, 0.04051712900400162, -1.4290679693222046, 0.3144245445728302, -0.07204578071832657, -0.098421111702919, -0.9059296250343323, -0.41821444034576416, 0.120563805103302, -0.9369339942932129, -0.10698725283145905, -0.7574858069419861, -0.010072636418044567, -0.6744690537452698, -0.07156840711832047, -0.9362435340881348, -0.2113921344280243, 0.22432327270507812, 0.06824979186058044, 0.06553861498832703, 0.10957138985395432, -0.18835234642028809, -0.8468742370605469, -0.28360071778297424, -0.34483203291893005, -0.5266767740249634, -0.07410391420125961, -0.24060887098312378, 0.4195335805416107, -0.28762370347976685, 0.5176538228988647], [-1.2142901420593262, -0.39922988414764404, 0.0689217671751976, -0.9756541848182678, -0.5640667080879211, -0.8990359306335449, -0.4380887448787689, -0.9939714074134827, -0.7440147399902344, -0.4593738615512848, -0.46219658851623535, -0.616320788860321, -0.18842294812202454, 0.15609723329544067, -0.20494681596755981, -0.6804735660552979, -1.1077114343643188, 0.3086211383342743, 0.18884223699569702, 0.11903805285692215, 0.22857309877872467, -0.6067711114883423, -1.0133634805679321, -0.9788818955421448, -1.1800588369369507, -0.46223923563957214, -1.657873511314392, -0.3257315754890442, -0.25775986909866333, -0.22032788395881653, -0.4553743898868561, -0.17288300395011902], [0.12456449866294861, 0.35041651129722595, -0.257016658782959, 0.21523183584213257, 0.3874390125274658, 0.06197772175073624, 0.23081374168395996, 0.8272035717964172, 0.360289603471756, 0.33130553364753723, 0.011058245785534382, -0.022583920508623123, 0.16923953592777252, -0.31411582231521606, -0.08763421326875687, 0.18872596323490143, 0.48920878767967224, 0.03736817091703415, 0.10644332319498062, -0.12290338426828384, 0.17522208392620087, -0.07237162441015244, 0.06011335179209709, -0.27517256140708923, 0.34616658091545105, 0.6927180886268616, 0.5062352418899536, 0.3998706638813019, 0.3150891065597534, 0.8960875272750854, 0.05045482516288757, 0.598020613193512], [-0.9093541502952576, -0.5603532195091248, -0.01866910420358181, -0.7849715352058411, -0.6891759634017944, -0.45730793476104736, 0.052613515406847, 0.4764275550842285, -0.7396112680435181, -0.0808025598526001, -0.48776277899742126, -0.3333496153354645, -0.3277517557144165, 0.036058854311704636, -0.45034900307655334, -0.549964189529419, -1.0878841876983643, -0.3489275872707367, -0.07121055573225021, 0.26082760095596313, 0.4914666712284088, -0.18457134068012238, -0.37730568647384644, -0.5726893544197083, -0.5853492021560669, -0.6026498079299927, -0.43605583906173706, -0.14873817563056946, -0.8015651702880859, -0.014338227920234203, -0.386608362197876, -0.2958284914493561], [-1.1122853755950928, -0.23559080064296722, 0.3091773986816406, -0.9288241267204285, -0.45646432042121887, -0.3372138440608978, -0.16213691234588623, -0.42782917618751526, -0.29822802543640137, 0.40467554330825806, -0.4853622615337372, -0.49740684032440186, -0.5458938479423523, 0.019269084557890892, -0.3829907774925232, -0.048301178961992264, -0.6830415725708008, -0.22455015778541565, 0.3714028596878052, -0.014372437261044979, 0.16432872414588928, 0.04431400075554848, -0.4485369920730591, -0.6063218712806702, -0.246750608086586, -0.30271098017692566, -0.4988415539264679, -0.0599827840924263, 0.004975415300577879, 0.11213695257902145, -0.09441892802715302, 0.5101873278617859], [-0.5736384987831116, -0.40543052554130554, -0.6094287633895874, -0.2819865942001343, -0.32275307178497314, -0.6441680788993835, 0.07639260590076447, -0.32100987434387207, -0.32878533005714417, 0.08566875010728836, -0.3245190680027008, -0.3356938064098358, -0.1448736935853958, 0.36515453457832336, -0.8124182224273682, -0.9494550824165344, -0.7767814993858337, -0.2759399712085724, 0.1414879858493805, -0.28175610303878784, 0.142718106508255, -0.318828284740448, -1.2072550058364868, -0.03525221347808838, -0.35774025321006775, -0.6604894995689392, -0.6286482214927673, 0.43218064308166504, 0.7089714407920837, 0.09652436524629593, 0.005660125985741615, -0.1683478057384491], [-1.305501937866211, 0.05752274766564369, -0.16001379489898682, -0.9047597050666809, -0.2191285640001297, -0.533621609210968, -0.24206885695457458, 0.2703205347061157, -0.6535062789916992, -0.24918924272060394, -0.6713727712631226, -0.39576318860054016, -0.5267387628555298, 0.20346558094024658, -0.19759038090705872, -0.5685897469520569, -1.0712121725082397, -0.22405287623405457, 0.07798361778259277, 0.33176034688949585, -0.09201920032501221, -0.3960408568382263, -0.5560632348060608, -1.1032261848449707, -0.5074192881584167, -0.39077988266944885, -0.662502646446228, -0.057280685752630234, -0.062092434614896774, 0.13706445693969727, -0.4029955267906189, 0.08406529575586319], [-0.02877611108124256, 0.3701004385948181, 0.1831061691045761, 0.40909698605537415, -0.2622412443161011, -0.18443213403224945, -0.20281769335269928, 1.0492103099822998, 0.30381736159324646, -0.36972567439079285, 0.14480477571487427, -0.11957170069217682, -0.09909714758396149, -0.09768077731132507, 0.21629968285560608, -0.6180968284606934, 0.01984289102256298, 0.01664237305521965, -0.23332469165325165, -0.21845446527004242, 0.43630096316337585, -0.1480398178100586, 0.01764754392206669, 0.35961592197418213, -0.36794590950012207, -0.20355422794818878, -0.5916089415550232, 0.053198013454675674, 0.4307958483695984, -0.10425879061222076, -0.13329409062862396, -0.5375373363494873], [0.38841137290000916, 0.4837384819984436, 0.09513811022043228, 0.20174671709537506, -0.10780555754899979, 0.5067324638366699, 0.11564657837152481, 0.6206303238868713, 0.6985722184181213, 0.3279153108596802, 0.4163452088832855, -0.1064964160323143, 0.09775710850954056, 0.335369735956192, 0.2722691297531128, 0.2658102214336395, 0.06540635228157043, -0.3496552109718323, -0.034900788217782974, 0.001448645256459713, 0.2858385145664215, 0.15016363561153412, 0.3571724593639374, 0.5510932803153992, 0.14309625327587128, -0.021461835131049156, -0.000714564579539001, 0.09653725475072861, 0.22998046875, 0.10771679878234863, 0.1253918707370758, 0.131321519613266], [-0.8115163445472717, -0.01803659461438656, 0.3524611294269562, -0.8781991600990295, -0.44310712814331055, -0.5992012619972229, -0.09644701331853867, -0.4216160774230957, 0.12040060013532639, 0.35176634788513184, -0.4997192919254303, -0.3448185324668884, -0.8044896721839905, 0.10084076225757599, -0.398651123046875, -0.3432037830352783, -0.8656133413314819, 0.1302386075258255, 0.31120607256889343, 0.016650229692459106, 0.21406112611293793, 0.14403176307678223, -0.2931598722934723, -0.599511981010437, -0.06776200979948044, -0.4262349009513855, -0.10800310224294662, 0.14573292434215546, -0.02262219786643982, 0.4422628581523895, -0.5469638109207153, -0.47337764501571655], [-1.5013855695724487, -0.5729029178619385, 0.4410913288593292, -1.7299540042877197, 0.07464443147182465, -0.4378684163093567, -0.6540976166725159, 0.28703999519348145, -0.8896780014038086, -0.03498903661966324, -1.0156296491622925, -0.18460799753665924, -0.44288763403892517, 0.17719754576683044, -0.39876362681388855, -0.8494210839271545, -1.0329418182373047, -0.22133055329322815, 0.4121413230895996, 0.4660702347755432, -0.15684160590171814, -0.38418981432914734, -0.5521140098571777, -1.3504685163497925, -0.118152916431427, -0.05607057735323906, -0.8162657618522644, 0.04480918496847153, -0.02598423883318901, -0.1771731972694397, -0.23686720430850983, 0.0033739982172846794], [-0.6747955083847046, -0.030371854081749916, -0.0018092470709234476, -0.7388946413993835, -0.2791314125061035, -0.41442281007766724, 0.1855594515800476, 0.24601566791534424, -0.06502541154623032, 0.015711992979049683, -0.371527761220932, 0.2698039710521698, -0.03704129531979561, -0.25497719645500183, -0.052254486829042435, -0.14945672452449799, -0.43593713641166687, 0.08178986608982086, 0.12138780206441879, 0.014569186605513096, -0.28555142879486084, -0.40348172187805176, -0.00570111908018589, -0.5577247738838196, -0.283474326133728, 0.1359257698059082, -0.1924677938222885, 0.004637150093913078, -0.26921895146369934, -0.03984907269477844, -0.23996920883655548, 0.1467312127351761], [-0.9160364270210266, -0.805804967880249, 0.4316278100013733, -0.8750743865966797, -0.16238009929656982, 0.10600800067186356, -0.04207504540681839, -0.1084141880273819, -0.35073527693748474, 0.7648374438285828, -0.7073075771331787, -0.26809048652648926, -0.5448948740959167, 0.26863330602645874, -0.18367578089237213, -0.39106690883636475, -0.7730459570884705, -0.13354472815990448, 0.03134596347808838, -0.16915765404701233, -0.28172892332077026, -0.24769654870033264, -0.08479230105876923, -0.946911096572876, 0.42972931265830994, -0.20921510457992554, -0.11649720370769501, 0.06499407440423965, -0.9572303891181946, -0.17406032979488373, -0.717896044254303, 0.13927064836025238], [-1.2848912477493286, -0.3047206401824951, 0.1856914758682251, -1.1325092315673828, -0.8306881189346313, -0.586042582988739, -0.5455125570297241, 0.24296657741069794, -0.11521674692630768, -0.26629123091697693, -0.6349754929542542, -0.6297398805618286, -0.33957213163375854, -0.09580599516630173, -0.43456077575683594, -0.6927266120910645, -1.151638150215149, -0.2542875409126282, -0.3466133177280426, -0.3890790343284607, 0.658124566078186, -0.04016600549221039, -0.7678320407867432, -0.9166346192359924, -0.0945313572883606, -0.19848236441612244, -0.10216380655765533, -0.13230761885643005, -0.21627816557884216, -0.538788378238678, -0.6681632995605469, -0.40958794951438904], [-1.7695037126541138, -0.14924876391887665, 0.11163666844367981, -1.963105320930481, -0.5705130696296692, -0.5353700518608093, -0.13601148128509521, -0.3473125100135803, -0.5077273845672607, 0.02086699940264225, -1.5499049425125122, -0.08276005834341049, -0.5576874613761902, 0.5360584855079651, -0.4534788131713867, -0.1257130205631256, -1.676207184791565, -0.3374919295310974, -0.14084529876708984, -0.37090396881103516, -0.4333917200565338, -0.2512511610984802, -0.18452920019626617, -1.6916507482528687, -0.24218499660491943, 0.06782638281583786, -0.6886746883392334, -0.08425400406122208, -1.0536104440689087, 0.490887314081192, -0.6290270686149597, -0.05594702064990997], [0.2992483079433441, 0.3674606680870056, 0.18964627385139465, 0.28593021631240845, -0.38327470421791077, 0.08969110250473022, 0.2680126428604126, 1.0660223960876465, 0.3867223858833313, -0.20831096172332764, 0.060026541352272034, 0.025238696485757828, -0.09784290194511414, 0.5941036343574524, 0.30549103021621704, -0.4658553898334503, 0.1335304230451584, 0.01787140965461731, 0.07070524245500565, 0.05487551540136337, -0.27012866735458374, 0.2622721195220947, -0.7596840858459473, -0.36839064955711365, -0.07793634384870529, 0.4298337399959564, -0.9690347909927368, 0.043196287006139755, 0.6428520083427429, -0.4132952094078064, -0.17713220417499542, 0.3745793104171753], [0.39252427220344543, 0.07586535811424255, -0.07515157759189606, 0.5633040070533752, -0.2325323075056076, 0.49050551652908325, -0.010313947685062885, 0.07874823361635208, -0.019407805055379868, -0.4848688840866089, 0.4593784213066101, 0.1501523107290268, 0.27085310220718384, 0.232275128364563, -0.4106772243976593, -0.11413849890232086, 0.1435040682554245, -0.1520698517560959, 0.42020463943481445, -0.1541045904159546, 0.08544909954071045, -0.15105040371418, -0.3367738425731659, 0.18551674485206604, -0.3385477066040039, -0.09154506772756577, 0.14611168205738068, -0.13221628963947296, 0.6624234914779663, -0.00880619790405035, 0.3752591013908386, -0.675728976726532], [-0.3993094265460968, -0.0549183264374733, 0.19257616996765137, -0.3487696647644043, -0.00023546475858893245, 0.12781032919883728, 0.055971093475818634, -0.37154826521873474, -0.21576884388923645, 0.6102076172828674, -0.631888210773468, 0.015106854028999805, 0.0744842141866684, 0.35441234707832336, -0.30396145582199097, 0.27765554189682007, -0.21235354244709015, 0.22684341669082642, -0.005632682237774134, 0.4223748743534088, -0.35727477073669434, 0.4636547863483429, 0.23630821704864502, -0.05403149500489235, -0.1756395399570465, 0.5375456809997559, 0.05866314843297005, -0.18862652778625488, -0.07155338674783707, 0.6001558303833008, -0.3698864281177521, 0.4869120121002197], [0.45335736870765686, -0.20119553804397583, 0.38623833656311035, 0.0837518498301506, -0.023639027029275894, 0.0077257538214325905, -0.6252261400222778, 0.08192019164562225, 0.00858387816697359, -0.38918372988700867, 0.3114157021045685, 0.6129844188690186, 0.36601021885871887, 0.15009969472885132, 0.0645296722650528, -0.4418894350528717, 0.3698761463165283, 0.05592842027544975, -0.15573342144489288, 0.04845002293586731, -0.07617053389549255, -0.14399811625480652, -0.18502256274223328, 0.15558484196662903, -0.46036839485168457, -0.2775537371635437, 0.1695452630519867, -0.0012490653898566961, 0.07429785281419754, 0.10295553505420685, 0.6844448447227478, -0.6160079836845398], [-0.6171419620513916, -0.6728202700614929, 0.26131391525268555, -0.43066534399986267, 0.17862455546855927, -0.08441385626792908, -0.15248534083366394, -0.540780246257782, 0.09766840189695358, 0.6176090836524963, -0.5098917484283447, -0.18343286216259003, 0.2277977168560028, -0.10214230418205261, -0.07588007301092148, 0.08897692710161209, -0.3738044202327728, 0.17776775360107422, 0.1461820900440216, 0.19310389459133148, 0.1815226972103119, 0.17699730396270752, 0.12973473966121674, -0.03639720752835274, 0.25499796867370605, 0.28765252232551575, 0.21717092394828796, -0.09403131157159805, -0.19385313987731934, 0.21479745209217072, -0.2120344638824463, 0.4801708459854126], [0.3238395154476166, 0.17427480220794678, 0.35090363025665283, 0.17282423377037048, 0.12117418646812439, 0.012193486094474792, -0.3574400246143341, 0.3181193172931671, 0.07518693804740906, -0.12989091873168945, 0.22806337475776672, 0.4512815773487091, 0.14850492775440216, 0.15724340081214905, 0.2705180048942566, -0.0012439432321116328, 0.4591989517211914, -0.07810384035110474, 0.23674830794334412, -0.11829470843076706, -0.1878991276025772, 0.031019767746329308, 0.17163793742656708, 0.5134958028793335, -0.07480348646640778, -0.7111125588417053, -0.5642343163490295, -0.05402868986129761, -0.19470344483852386, -0.04093610495328903, 0.12156970053911209, -0.3171330392360687], [0.1525888592004776, -0.05502535402774811, -0.1920652538537979, 0.3256567716598511, 0.527895450592041, 0.2734789252281189, 0.045308470726013184, 0.3256630599498749, 0.29033052921295166, -0.5484045743942261, 0.25871357321739197, -0.49177417159080505, 0.034004222601652145, -0.3396226465702057, 0.1346432864665985, 0.02142507955431938, 0.24545209109783173, -0.1347343623638153, 0.23624514043331146, -0.2567838728427887, 0.20884834229946136, 0.13332204520702362, 0.09030171483755112, 0.42228150367736816, -0.1975506991147995, -0.9267328381538391, -0.23057813942432404, -0.015555202960968018, 0.04540051892399788, -0.2880880534648895, 0.5753273963928223, -0.6867730021476746], [0.43718528747558594, 0.17981314659118652, -0.321958065032959, 0.3951663076877594, -0.09796532988548279, -0.47749021649360657, -0.09975847601890564, 0.5012452602386475, 0.3178478181362152, -0.27561500668525696, 0.5548120141029358, 0.21574056148529053, 0.019718974828720093, -0.12863358855247498, 0.028208095580339432, -0.23617860674858093, -0.06732926517724991, 0.1603061705827713, -0.6429792046546936, -0.06190277636051178, 0.023725179955363274, 0.31210219860076904, 0.054690077900886536, 0.41187942028045654, -0.12213293462991714, 0.06350463628768921, -0.39404621720314026, 0.22174598276615143, 0.5720000267028809, -0.3633362948894501, 0.03348720446228981, -0.15400999784469604], [-0.4234910309314728, -0.2615775167942047, 0.1552399843931198, 0.08118968456983566, 0.6741507649421692, 0.2544448971748352, -0.0880175530910492, -0.13991543650627136, -0.4070877432823181, 0.35092371702194214, -0.3844704329967499, -0.020435839891433716, -0.3601936101913452, 0.08114293217658997, -0.13429982960224152, -0.11487559974193573, -0.8129743337631226, -0.017855262383818626, 0.21839721500873566, 0.04576383903622627, 0.17842701077461243, 0.2994649410247803, 0.08585149049758911, -0.10844574123620987, 0.34643495082855225, 0.4906209409236908, -0.24357113242149353, 0.1925363391637802, -0.2808416783809662, 0.17124438285827637, -0.6369802355766296, 0.7093751430511475], [-0.40901339054107666, -0.36104530096054077, 0.20690235495567322, -0.3763522505760193, 0.010756565257906914, -0.12772102653980255, -0.11457829922437668, -0.44538718461990356, -0.26827603578567505, 0.394020140171051, -0.38955456018447876, -0.16774135828018188, -0.37618520855903625, -0.13212384283542633, -0.09764479100704193, 0.2891823351383209, -0.37243229150772095, -0.4761413335800171, -0.14128477871418, 0.4464103877544403, 0.4445916712284088, 0.10094758868217468, -0.11185669153928757, 0.07235999405384064, 0.2447711080312729, -0.23394496738910675, 0.3371342122554779, -0.35586118698120117, -0.1070554181933403, 0.2924181818962097, -0.04837673529982567, 0.44957342743873596], [-0.41124406456947327, -0.011006856337189674, -0.07996618747711182, -0.16793355345726013, 0.0532560832798481, -0.09650026261806488, -0.00685684010386467, 0.008219519630074501, 0.18703502416610718, 0.6253769397735596, -0.280649870634079, 0.1240866407752037, -0.27374884486198425, 0.4968661665916443, -0.1322440654039383, 0.22857828438282013, -0.40542519092559814, -0.11194953322410583, -0.1846979856491089, -0.0802658423781395, 0.027802638709545135, 0.05023550987243652, -0.4538336396217346, 0.023602666333317757, -0.1420537233352661, -0.05660780146718025, 0.22805093228816986, 0.33191508054733276, -0.13096973299980164, 0.3780795633792877, 0.15875595808029175, 0.775761604309082], [-0.087179996073246, -0.5294657945632935, -0.14781099557876587, -0.5866536498069763, 0.4146709144115448, 0.0408264622092247, -0.31564992666244507, -0.7865402102470398, -1.2020857334136963, 0.9884859323501587, -1.1715046167373657, 0.10595911741256714, -0.34723758697509766, -0.11260247230529785, 0.293386310338974, -0.17050842940807343, -0.3061846196651459, 0.15110521018505096, 0.17272953689098358, 0.2412087321281433, 0.018163610249757767, 0.3049164116382599, 0.2361176759004593, -0.42493975162506104, 0.3534615635871887, 1.022707462310791, 0.2855829894542694, 0.28611311316490173, -0.16897183656692505, 0.35649770498275757, -0.7441694736480713, 0.8951392769813538], [0.1986607164144516, -0.2351846694946289, 0.171127587556839, -0.373107373714447, 0.2994551956653595, 0.2468065619468689, 0.3878347873687744, -0.1910521239042282, -0.29529231786727905, 0.45147934556007385, -0.5394540429115295, -0.04811283200979233, -0.05514609068632126, -0.1757938265800476, 0.0011974697699770331, 0.013226030394434929, -0.4360361099243164, -0.12764596939086914, 0.06535278260707855, 0.18203169107437134, 0.2697005867958069, -0.1818639039993286, -0.0342998169362545, -0.37965676188468933, -0.4155130386352539, 0.8498544692993164, 0.4612882733345032, 0.41476550698280334, 0.003373777726665139, 0.6252326965332031, 0.44360285997390747, 0.613735020160675], [-0.3675539791584015, -0.0906410738825798, -0.03519130498170853, -0.08842567354440689, -0.07583735138177872, -0.05396553501486778, 0.373058557510376, -0.022528139874339104, 0.11400197446346283, 0.7689468860626221, -0.5143575072288513, 0.01229271199554205, -0.5376182794570923, -0.30120813846588135, -0.15324841439723969, -0.1847275346517563, -0.14289556443691254, -0.36207759380340576, 0.13651122152805328, 0.3978004455566406, -0.16998980939388275, 0.12323391437530518, 0.3554805815219879, -0.08490798622369766, -0.06940300017595291, 0.7411928772926331, 0.13455432653427124, 0.22963638603687286, 0.07088357210159302, 0.4245191812515259, -0.2555844187736511, 0.5975964069366455], [0.09056682884693146, -0.0839451253414154, -0.2017969787120819, 0.07187825441360474, -0.009296312928199768, 0.09793056547641754, -0.34801313281059265, 0.9351003170013428, 0.754516065120697, -0.6601791977882385, 0.5864892601966858, 0.4513358175754547, -0.0013093339512124658, 0.310730516910553, 0.16542629897594452, -0.04963551089167595, 0.13665010035037994, 0.27290838956832886, 0.14898528158664703, -0.4012426435947418, 0.10396236181259155, -0.3589792549610138, -0.2581031322479248, 0.45789530873298645, 0.02564849890768528, -0.7137905359268188, -0.17204460501670837, -0.0906299576163292, 0.03419554606080055, 0.20364394783973694, 0.26696187257766724, -0.6505187749862671], [-0.16857659816741943, 0.2505039572715759, 0.42730769515037537, -0.6250800490379333, -0.034352660179138184, 0.17536760866641998, -0.1142478659749031, -0.6990121006965637, -0.3139294683933258, 0.31081482768058777, -0.49951738119125366, 0.27569380402565, -0.32170265913009644, -0.30865275859832764, 0.06002889946103096, 0.2509705722332001, -0.6866631507873535, 0.1124444454908371, -0.08262178301811218, 0.020367441698908806, -0.32021647691726685, 0.5173134803771973, 0.04480605199933052, -0.9444013237953186, 0.4017409384250641, 0.2928312420845032, 0.2269575148820877, 0.11454696208238602, -0.1085599735379219, 0.3231310248374939, -0.5511705279350281, 0.10119850933551788], [-0.06912724673748016, -0.8118059039115906, -0.5350321531295776, -0.3688124120235443, 0.05309061333537102, 0.3701404333114624, 0.005212483927607536, -0.007193221244961023, -1.1045397520065308, 0.30512359738349915, -1.0030492544174194, 0.04544762521982193, -0.37413859367370605, 0.18230587244033813, -0.01610964722931385, -0.13316710293293, -0.5436491966247559, 0.2817690074443817, 0.16389480233192444, -0.0570758618414402, -0.17239154875278473, 0.01192418672144413, -0.019227374345064163, -0.28265058994293213, 0.5726685523986816, 0.7384240627288818, 0.5216352343559265, -0.47265151143074036, 0.40306487679481506, 0.044482193887233734, -0.5625522136688232, 0.19722770154476166], [-0.03566807508468628, 0.12105078995227814, 0.27975866198539734, -0.24253123998641968, 0.09031392633914948, 0.13152751326560974, -0.055829007178545, 0.5556843280792236, 0.09980364143848419, 0.8745225071907043, -1.007235050201416, 0.24577797949314117, -0.5705723166465759, 0.35250166058540344, -0.42491763830184937, -0.3020404875278473, -0.10558418184518814, 0.09320786595344543, 0.3800230324268341, 0.1946832686662674, -0.13360947370529175, 0.11929938197135925, 0.2283451110124588, -0.569785475730896, -0.07856649905443192, 0.5496830940246582, 0.1795659065246582, 0.21830596029758453, -0.45329704880714417, 0.10605870932340622, -0.25738078355789185, 0.4755403399467468], [-0.2500166594982147, -0.14751002192497253, 0.2097899317741394, 0.26747697591781616, 0.0702802836894989, -0.0260777547955513, 0.14846570789813995, -0.47543027997016907, -0.25112640857696533, 0.6621196866035461, -0.248066708445549, 0.05875641107559204, -0.40049904584884644, 0.04776914045214653, -0.17480933666229248, -0.05906137451529503, -0.41318807005882263, -0.22713488340377808, 0.20995019376277924, -0.06333961337804794, -0.05918954312801361, 0.11022019386291504, 0.014949996955692768, -0.8584612011909485, -0.11615590751171112, 1.0437151193618774, -0.02916792593896389, -0.19649510085582733, -0.4444643259048462, 0.04484586790204048, -0.37171587347984314, 0.8021179437637329], [0.09748654067516327, -0.1569739431142807, 0.3767276108264923, 0.33288830518722534, 0.07406862825155258, 0.04755533114075661, 0.4214618504047394, 0.11901874840259552, 0.5451775193214417, -0.0036333194002509117, 0.49030306935310364, -0.3985002040863037, -0.033108893781900406, 0.239782452583313, 0.07300039380788803, -0.0770348459482193, 0.4896814227104187, -0.12722501158714294, 0.059464436024427414, 0.08630993217229843, -0.13008858263492584, -0.412577360868454, 0.37555965781211853, 0.5564377903938293, -0.029910655692219734, -0.7984247207641602, -0.3767877221107483, -0.24899442493915558, 0.4885284900665283, -0.23395591974258423, 0.2464843988418579, -0.6593844890594482], [-0.24184364080429077, 0.03367508575320244, -0.12522859871387482, -0.16426214575767517, -0.1560072898864746, 0.30558615922927856, -0.10048229247331619, -0.2976556420326233, -0.12041861563920975, 0.6735196709632874, -0.7496493458747864, 0.07814526557922363, -0.6247130632400513, 0.3190936744213104, -0.09760761260986328, 0.3195551335811615, -0.6284604072570801, 0.5952782034873962, -0.07171361893415451, 0.21834366023540497, 0.21616001427173615, 0.1109137311577797, -0.005777935963124037, -0.124753437936306, 0.4767514169216156, 0.027217654511332512, 0.007362678647041321, -0.0938892811536789, 0.03374841809272766, 0.12255191057920456, -0.3338654637336731, 0.42855823040008545], [0.48637622594833374, 0.21315938234329224, -0.00023659091675654054, 0.31591781973838806, -0.15378427505493164, -0.001338823465630412, -0.3154110014438629, 0.2720373868942261, 0.0948246642947197, -0.36139407753944397, 0.3436257243156433, 0.11893849074840546, 0.6934489607810974, 0.31193792819976807, 0.34686994552612305, 0.2445179969072342, 0.28336602449417114, -0.07140663266181946, -0.07661916315555573, 0.03550736606121063, -0.41636592149734497, -0.10122745484113693, -0.14407271146774292, 0.1059216633439064, -0.3180186152458191, -0.3953774869441986, -0.4027654826641083, 0.30202317237854004, -0.23724351823329926, -0.12639378011226654, 1.0760202407836914, -0.25892069935798645], [0.335813045501709, -0.42195361852645874, -0.31287166476249695, -0.11472198367118835, 0.6711006164550781, 0.4642789959907532, -0.11269841343164444, 0.18613344430923462, 0.1161310076713562, -0.31455063819885254, 0.9688531160354614, -0.01757926307618618, -0.08629660308361053, 0.08122751861810684, -0.05568826198577881, 0.5378012657165527, 0.2519155740737915, -0.36068642139434814, -0.02046450972557068, 0.15624761581420898, -0.4469098448753357, -0.050351593643426895, 0.1466265171766281, 0.17979532480239868, -0.45983800292015076, -0.26128727197647095, -0.13377980887889862, 0.2774164080619812, 0.27765989303588867, -0.7059906721115112, 0.14837315678596497, -0.6507275104522705], [0.19398638606071472, 0.5230112671852112, -0.1377272605895996, 0.2680604159832001, -0.13957852125167847, -0.19569478929042816, 0.19181521236896515, 0.5958579182624817, 0.5315194129943848, -0.4378604292869568, 0.2583719789981842, -0.28105685114860535, 0.2708565294742584, -0.27742230892181396, 0.09046072512865067, -0.5419816374778748, 0.5831514596939087, -0.06507014483213425, 0.024952741339802742, 0.3352595865726471, -0.07686657458543777, 0.21454370021820068, -0.00587060023099184, 0.4822813868522644, -0.14558915793895721, -0.48614639043807983, 0.06841380149126053, 0.21217451989650726, 0.40732699632644653, -0.3506430685520172, 0.12565088272094727, -1.0095891952514648], [-0.7696722745895386, -0.18120920658111572, -0.016296692192554474, -0.055989544838666916, 0.07934170216321945, -0.1189214363694191, -0.034693021327257156, -0.4719241261482239, -0.12368839979171753, 0.1702200174331665, -0.7863775491714478, 0.004693854600191116, -0.16374042630195618, 0.0019405042985454202, -0.28151625394821167, -0.07432222366333008, -0.3164507746696472, -0.03378372639417648, 0.3941860795021057, -0.30527636408805847, -0.1575467586517334, 0.24734733998775482, 0.41002926230430603, -0.06382045149803162, 0.11937225610017776, 0.4818498194217682, 0.07957346737384796, -0.12699782848358154, 0.09509459137916565, 0.28017112612724304, -0.16931964457035065, 0.5219786763191223], [0.20675472915172577, 0.006738354451954365, 0.04865207150578499, 0.5883460640907288, -0.026067959144711494, 0.09078696370124817, 0.021910488605499268, 0.4636521637439728, 0.20395538210868835, -0.041079092770814896, 0.31578168272972107, -0.14382773637771606, -0.15762539207935333, -0.12173226475715637, -0.04713138937950134, -0.0575840063393116, 0.49040916562080383, 0.12216442823410034, 0.28781867027282715, -0.13136301934719086, 0.1376994103193283, -0.002747804159298539, -0.17192213237285614, 0.26574772596359253, -0.27902349829673767, -0.38110315799713135, -0.3315216302871704, -0.3924545347690582, -0.09353761374950409, -0.18923886120319366, 0.11092264205217361, -0.0061514838598668575], [0.5481166243553162, 0.10340794175863266, -0.13466094434261322, 0.6030548214912415, -0.13914377987384796, -0.09914951026439667, -0.014689456671476364, 0.6020806431770325, 0.02823656052350998, -0.5124250650405884, 0.33071088790893555, 0.37408939003944397, 0.7574413418769836, 0.42402756214141846, 0.29121991991996765, 0.08175751566886902, 0.005675528198480606, -0.2326272875070572, -0.07606920599937439, 0.162995845079422, -0.2461877465248108, -0.05478866025805473, -0.06599706411361694, 0.6211579442024231, -0.005417645908892155, -0.7174801826477051, -0.3472612500190735, 0.3562595844268799, -0.17894166707992554, -0.03621141240000725, -0.29418709874153137, 0.03613625094294548], [0.4028725326061249, 0.045459408313035965, 0.02336539886891842, 0.19326122105121613, -0.052340541034936905, 0.28401538729667664, -0.11601907014846802, 0.06124333292245865, 0.5005324482917786, -0.45065391063690186, 0.3552848696708679, -0.29196128249168396, -0.06956461817026138, -0.1481071412563324, 0.28692126274108887, -0.1193835511803627, 0.2579958438873291, 0.004833186510950327, 0.0538150854408741, 0.32405737042427063, -0.29660242795944214, 0.3367607891559601, -0.0844578742980957, 0.6001433730125427, -0.33893275260925293, -0.2939499318599701, -0.16193196177482605, 0.5853044986724854, 0.22618554532527924, -0.0010472023859620094, 0.20650950074195862, -0.56553053855896], [-0.41621679067611694, -0.2704838514328003, 0.17379775643348694, -0.42602166533470154, -0.07493168860673904, -0.2933603823184967, -0.2429390400648117, 0.016121767461299896, -0.527761697769165, 0.28954535722732544, -0.2800293564796448, -0.11634934693574905, -0.34530213475227356, -0.46077051758766174, 0.3675464987754822, 0.612632691860199, -0.569811999797821, -0.291059285402298, -0.046394020318984985, 0.16321884095668793, -0.25050464272499084, 0.21315625309944153, 0.35435736179351807, -0.1304115504026413, 0.386678546667099, 0.2145342379808426, 0.25415533781051636, -0.16877825558185577, 0.421621173620224, 0.041293948888778687, 0.027645079419016838, -0.06228950247168541], [0.4405535161495209, 0.14897221326828003, -0.16758424043655396, 0.2511671185493469, -0.2595268487930298, 0.07460857927799225, -0.39851564168930054, -0.3672184944152832, -0.1019991934299469, -0.8652063012123108, 0.5961625576019287, 0.12799832224845886, 0.3991658687591553, 0.11878127604722977, -0.28955602645874023, -0.21883736550807953, 0.23635728657245636, -0.21026389300823212, -0.6389046311378479, 0.023401694372296333, 0.393102765083313, -0.3481394648551941, 0.18484549224376678, 0.004564294591546059, -0.04633467644453049, -0.12996447086334229, -0.011961514130234718, -0.5374305844306946, 0.0786382406949997, 0.04416284337639809, -0.12745167315006256, -0.7773112654685974], [-0.18246057629585266, -0.059021420776844025, 0.03958294540643692, -0.3050448000431061, -0.11305513978004456, 0.038327407091856, -0.021567894145846367, -0.20201392471790314, -0.10339048504829407, 0.309331476688385, -0.2767477333545685, 0.025600489228963852, -0.14964093267917633, -0.2431398630142212, 0.13577064871788025, -0.017150508239865303, -0.6983855366706848, 0.1415877640247345, 0.021619196981191635, 0.20637758076190948, 0.0905834287405014, -0.2369791567325592, -0.028279604390263557, -0.21893872320652008, 0.3595212996006012, 0.5476202964782715, 0.23405468463897705, -0.427299827337265, -0.012556496076285839, -0.061306633055210114, -0.2034614086151123, 0.14734171330928802], [-0.268723726272583, -0.061491403728723526, -0.15236446261405945, -0.22899426519870758, -0.25895947217941284, 0.1023685410618782, 0.3955964744091034, -0.5958917140960693, -0.5053791403770447, 0.7766593098640442, -0.8537577390670776, -0.5585286021232605, -0.10904564708471298, 0.2116624265909195, -0.13545213639736176, 0.04453456774353981, -0.21252299845218658, 0.5123935341835022, 0.1810707300901413, -0.2060116082429886, 0.10298164933919907, 0.24213352799415588, -0.006168800871819258, -0.31498289108276367, -0.2674233019351959, 0.6977392435073853, 0.4455638527870178, 0.22835390269756317, 0.2028055191040039, 0.7347325086593628, -0.3182030916213989, 0.28108686208724976], [0.10959456861019135, -0.1395936906337738, 0.2685573399066925, 0.7259129285812378, 0.3271558880805969, -0.054761361330747604, 0.12920065224170685, 1.0098252296447754, -0.10781741142272949, -0.42382916808128357, 0.568203866481781, 0.2518587112426758, -0.030816858634352684, -0.03816359117627144, 0.0036865018773823977, 0.1163044348359108, 0.42076823115348816, -0.0649566501379013, 0.37770572304725647, -0.29201486706733704, 0.21977262198925018, 0.005378706380724907, -0.29714348912239075, 0.4306437075138092, 0.021408915519714355, -0.2686462700366974, -0.5480632781982422, 0.14583955705165863, 0.4052882790565491, 0.2677699625492096, 0.1960461437702179, -0.6469370722770691], [-0.0961458832025528, 0.34518110752105713, 0.2737274169921875, -0.2775944173336029, 0.14648571610450745, 0.19921734929084778, -0.048578936606645584, 0.31395620107650757, 0.4838526248931885, 0.1554495096206665, 0.16834716498851776, 0.019092127680778503, 0.06932194530963898, 0.3620590567588806, 0.043787017464637756, -0.3055008053779602, -0.13700918853282928, -0.1413886547088623, 0.14848436415195465, -0.14526383578777313, 0.03391485661268234, -0.14788201451301575, -0.0764450654387474, -0.008657099679112434, -0.049939122051000595, -0.12374112010002136, -0.33397427201271057, 0.4673612713813782, 0.07316244393587112, 0.6020734906196594, 0.00784741248935461, 0.21673275530338287], [-0.453287273645401, 0.30598947405815125, -0.20125533640384674, -0.161471426486969, -0.5050882697105408, -0.3026704788208008, 0.019913295283913612, 0.2567106783390045, 0.5629743337631226, -0.05066968500614166, 0.010400296188890934, -0.40144017338752747, 0.017627695575356483, -0.2921425700187683, 0.15340843796730042, -0.7855327129364014, 0.07012037932872772, 0.15025627613067627, 0.19264061748981476, -0.3362385928630829, -0.037380509078502655, -0.29729703068733215, -0.6330704689025879, -0.41968366503715515, -0.07659493386745453, 0.43153414130210876, -0.36604633927345276, -0.1120268777012825, 0.09138621389865875, 0.39638644456863403, -0.3718714714050293, -0.25742316246032715], [-0.40071189403533936, 0.13009929656982422, -0.05208050459623337, -0.41709229350090027, -0.15887856483459473, -0.27037304639816284, 0.12406808137893677, 0.5692234635353088, 0.09176655858755112, -0.347216933965683, 0.08854877203702927, 0.3513984978199005, 0.10267851501703262, -0.17043215036392212, 0.049465879797935486, -0.4450598359107971, -0.3762996196746826, 0.062178052961826324, -0.27785488963127136, 0.3397323787212372, 0.4870363473892212, 0.08227892220020294, -0.40958043932914734, -0.050779055804014206, -0.43754392862319946, -0.1938227415084839, -0.4314257502555847, -0.1211385428905487, 0.9325647354125977, 0.2332700788974762, 0.027183035388588905, -0.15137384831905365], [-0.4962396025657654, 0.5488605499267578, 0.19415251910686493, -0.04678099974989891, -0.6801624298095703, -0.21222467720508575, 0.20043642818927765, 1.1696288585662842, 0.6627004742622375, 0.4608032703399658, 0.2254011034965515, 0.3275236189365387, 0.12345906347036362, 0.016136791557073593, 0.044333621859550476, -0.48888087272644043, 0.14714162051677704, 0.6222968697547913, -0.17634403705596924, -0.1476038545370102, -0.211410790681839, -0.1238853931427002, -0.06564638018608093, -0.28959569334983826, 0.10189902037382126, -0.24657952785491943, -0.4759955108165741, 0.48022741079330444, 0.5468243360519409, 0.5919861197471619, -0.10668199509382248, 0.7353421449661255], [-0.09334956854581833, 0.4417386054992676, -0.02473575249314308, -0.03333291411399841, -0.2126391977071762, 0.4385332465171814, 0.013089044019579887, 0.7543994188308716, 0.38125938177108765, -0.30718299746513367, 0.024408290162682533, 0.029448671266436577, 0.4081752896308899, 0.3524007499217987, -0.28668153285980225, -0.013020681217312813, -0.4272829294204712, 0.12406285107135773, 0.012875735759735107, 0.007539780810475349, -0.25538119673728943, 0.041802436113357544, 0.2908153533935547, -0.02160920761525631, -0.06574612110853195, 0.6524822115898132, 0.14214059710502625, 0.035830650478601456, 0.5699393153190613, 0.08188541978597641, 0.14615248143672943, -0.021305080503225327], [-0.19929629564285278, 0.4999757409095764, -0.196645587682724, 0.10649821162223816, -0.4689634442329407, -0.20374329388141632, 0.33254721760749817, 0.2181159257888794, 0.0040617152117192745, -0.009860698133707047, -0.04248020052909851, 0.06982489675283432, -0.05333646014332771, -0.27344486117362976, 0.06528628617525101, -0.4112393260002136, -0.14863157272338867, 0.09533458203077316, 0.004349697846919298, -0.04731645807623863, 0.22093944251537323, -0.08945993334054947, -0.4354342222213745, 0.07502831518650055, -0.7434780597686768, 0.2037147432565689, -0.16194279491901398, -0.15710380673408508, 0.5301433801651001, 0.18933290243148804, -0.16584064066410065, 0.2579748034477234], [0.027743341401219368, 0.6728423237800598, 0.4957515597343445, -0.26005998253822327, -0.14902275800704956, -0.43365007638931274, 0.17015066742897034, 0.9006282687187195, 0.5264784097671509, 0.5713175535202026, 0.062150340527296066, 0.16407059133052826, 0.3922015428543091, 0.006791095249354839, 0.5895651578903198, -0.40514591336250305, 0.14633901417255402, -0.1780264675617218, 0.15163074433803558, 0.019577044993638992, -0.5203485488891602, -0.31580063700675964, -0.6346288323402405, 0.02963453158736229, -0.3645913004875183, 0.4129275381565094, 0.05744747817516327, -0.3712173402309418, 0.0928894430398941, 0.6286295652389526, 0.017816858366131783, -0.0700392872095108], [-0.26578372716903687, 0.39695361256599426, -0.4028327465057373, 0.19696487486362457, -0.3591322600841522, -0.014120856299996376, 0.4616100788116455, 0.38750824332237244, 0.06024482101202011, 0.5519759654998779, -0.4707457721233368, 0.10751758515834808, -0.0196964293718338, 0.19002050161361694, 0.03013298474252224, -0.37548398971557617, 0.034433458000421524, 0.13457712531089783, -0.11027123034000397, 0.17817457020282745, -0.007861082442104816, -0.4621736705303192, -0.38607168197631836, 0.03208092227578163, -0.6245689988136292, 0.11628687381744385, -0.662956178188324, 0.4404847025871277, 0.4649503529071808, 0.3644724488258362, 0.0463685616850853, 0.4900144636631012], [0.17131875455379486, 0.011226975359022617, 0.10105633735656738, -0.006247182842344046, 0.307155966758728, 0.09491045027971268, 0.1998065859079361, 0.8071240186691284, 0.5401012897491455, 0.18519775569438934, 0.04758840799331665, 0.3460004925727844, 0.3228118121623993, 0.19562822580337524, 0.13358937203884125, -0.47249945998191833, 0.07335835695266724, 0.2636226713657379, 0.41938185691833496, -0.18028904497623444, -0.38352128863334656, 0.4679243266582489, 0.12641382217407227, 0.08661460131406784, 0.08726999908685684, -0.2493114024400711, -0.08123406767845154, 0.16376477479934692, 0.07120425254106522, 0.7473883628845215, 0.3226398527622223, -0.23164045810699463], [-0.20465543866157532, 0.006828588433563709, 0.1932452917098999, -0.18501058220863342, -0.7131467461585999, 0.28632262349128723, -0.29954952001571655, 0.07427559792995453, 0.19400809705257416, 0.33273687958717346, -0.5514751076698303, -0.20250877737998962, -0.8132676482200623, -0.15228070318698883, 0.07887572795152664, -0.3288099765777588, -0.09407800436019897, -0.08486709743738174, 0.16300976276397705, 0.11072245985269547, 0.5186157822608948, -0.07817253470420837, -0.7193517684936523, -0.18714989721775055, -0.0936858206987381, -0.07308612018823624, -0.5039886236190796, -0.11899509280920029, 0.16875068843364716, 0.2348363995552063, 0.10992367565631866, 0.5438274145126343], [-0.7640607357025146, 0.08075559884309769, 0.21520991623401642, -0.23074889183044434, 0.28779736161231995, -0.4114457070827484, 0.04359479621052742, -0.3345195949077606, -1.1530510187149048, -0.001479806494899094, -1.7902660369873047, -0.18738482892513275, -1.5110121965408325, -0.43424755334854126, -0.6240590214729309, -0.11036919057369232, -0.9984308481216431, -0.2583913505077362, 0.3273845314979553, 0.3815317451953888, 0.32183218002319336, -0.33155784010887146, -0.13679321110248566, -0.7080038785934448, -0.0469229556620121, -0.3951705992221832, -0.3063875436782837, 0.11893808096647263, -0.1468794047832489, -0.30475327372550964, -0.14564920961856842, -0.4382268190383911], [-0.35920318961143494, 0.4416095018386841, 0.041063904762268066, -0.016269704326987267, -0.06106448546051979, -0.27376917004585266, 0.16110475361347198, 0.5641298294067383, 0.24669140577316284, 0.2688182294368744, 0.0877956822514534, 0.5687926411628723, -0.09503288567066193, -0.17115186154842377, -0.28227224946022034, 0.04381147772073746, 0.14835500717163086, 0.10450571775436401, -0.07442124933004379, 0.21099752187728882, -0.35650011897087097, -0.2406499981880188, -0.6122884154319763, 0.07182211428880692, -0.5326501727104187, 0.2962379455566406, -0.1252666711807251, -0.32053127884864807, 0.6800687909126282, 0.878881573677063, 0.17612586915493011, -0.24930481612682343], [-0.3959939777851105, -0.27523401379585266, 0.06049295887351036, 0.13489378988742828, -0.18219274282455444, -0.5260872840881348, -0.48285987973213196, 0.5620671510696411, -0.028780927881598473, 0.019873784855008125, 0.1647435873746872, -0.30531567335128784, -0.11497411131858826, -0.09367401897907257, 0.1951766014099121, -0.4569052457809448, 0.18090654909610748, 0.07126053422689438, 0.1680322140455246, -0.5300116539001465, -0.28821343183517456, 0.1766330748796463, -0.539558470249176, -0.49554765224456787, -0.1925840824842453, 0.08903423696756363, -0.43033409118652344, 0.3100425601005554, -0.13192741572856903, 0.6551918983459473, 0.09856968373060226, 0.17172306776046753], [0.5376211404800415, 0.17664870619773865, -0.04117443412542343, -0.24675363302230835, -0.4770622253417969, -0.19519123435020447, 0.2561492323875427, 0.487252414226532, -0.48356184363365173, 0.3249375522136688, -0.20201919972896576, 0.2722282409667969, -0.22191433608531952, 0.2953454554080963, 0.12202338129281998, -0.7393801212310791, -0.1550128310918808, -0.3988581597805023, 0.11180335283279419, -0.20447617769241333, -0.4555998146533966, -0.28339725732803345, -0.8986694812774658, -0.25711292028427124, 0.12159139662981033, -0.11319824308156967, -0.366930216550827, 0.26806142926216125, -0.0762571170926094, 0.14739550650119781, 0.10265680402517319, -0.02936241216957569], [-0.30525505542755127, -0.2387249618768692, -0.1453610360622406, -0.24658557772636414, 0.02458295226097107, 0.0036857775412499905, 0.012120130471885204, 0.7356534004211426, 0.13985678553581238, 0.003710349090397358, -0.1365799605846405, 0.04233221337199211, -0.21316656470298767, 0.5495822429656982, -0.387304425239563, -0.5878680944442749, -0.167105033993721, -0.24762561917304993, -0.3359171450138092, -0.5715861916542053, 0.3873417377471924, -0.08224663138389587, -0.6468656063079834, -0.7551833987236023, -0.30760157108306885, -0.5565060377120972, -0.5589877963066101, -0.12624119222164154, 0.13470296561717987, 0.4995689392089844, -0.2811225354671478, 0.14465995132923126], [-0.837017834186554, -0.37677332758903503, -0.11201257258653641, -0.4420549273490906, -0.09664998948574066, -0.66867595911026, 0.021108001470565796, 0.22511114180088043, -2.006246328353882, 0.35106581449508667, -1.6371718645095825, -0.3732156455516815, -0.8515017032623291, 0.18724751472473145, -0.43548426032066345, -0.33567002415657043, -0.8852606415748596, 0.49394381046295166, -0.301053524017334, 0.011710976250469685, 0.054160021245479584, -0.3612736463546753, -0.16489778459072113, -0.6168665289878845, 0.02842031605541706, 0.17729230225086212, -0.21743284165859222, -0.35938987135887146, -0.007095469627529383, 0.01732536219060421, -0.6854748129844666, 0.23616167902946472], [0.006451348774135113, 0.2529440224170685, 0.33005744218826294, 0.16733308136463165, 0.24164797365665436, 0.23991911113262177, 0.0145656643435359, 0.8733385801315308, 0.5817357301712036, 0.46723079681396484, -0.384827196598053, -0.12421644479036331, 0.5413382053375244, 0.0036438507959246635, -0.12129319459199905, -0.03929510340094566, 0.1441449075937271, 0.0865965187549591, -0.34433701634407043, -0.21965815126895905, -0.08110368996858597, 0.035905882716178894, -0.1127680093050003, -0.3041670322418213, -0.07792037725448608, 0.4850715696811676, -0.42748963832855225, -0.24146969616413116, 0.5398136377334595, 0.48373088240623474, 0.4570334255695343, 0.20647688210010529], [-0.43098804354667664, 0.49701592326164246, -0.05935462936758995, 0.16957694292068481, -0.16112586855888367, -0.43535804748535156, 0.14432284235954285, -0.05184464156627655, 0.47426748275756836, 0.2892836332321167, 0.5202104449272156, -0.19798371195793152, -0.19258564710617065, -0.10640112310647964, -0.20118606090545654, -0.47816210985183716, -0.8233747482299805, -0.12214828282594681, -0.04600474610924721, -0.16520516574382782, -0.052822504192590714, -0.36128151416778564, -0.4676070213317871, 0.236434668302536, 0.08367075771093369, -0.08223237097263336, -0.8568372130393982, -0.1233225166797638, -0.1358933001756668, 0.7071887254714966, -0.3486781120300293, 0.2426258623600006], [-0.21115483343601227, 0.28086259961128235, 0.42527031898498535, -0.34671589732170105, -0.3041273355484009, -0.48037272691726685, 0.07000837475061417, 0.707207202911377, 0.45129987597465515, -0.4967097043991089, -0.16441677510738373, 0.29854750633239746, -0.12785008549690247, 0.2160205990076065, 0.022566501051187515, -0.5467193722724915, 0.26940831542015076, 0.08820535242557526, 0.3372398018836975, 0.5824296474456787, -0.1415669471025467, -0.27946963906288147, -0.34235498309135437, -0.2220568209886551, -0.35769951343536377, -0.3380475342273712, -0.42304933071136475, 0.19838903844356537, 0.28652599453926086, 0.09795081615447998, 0.08433717489242554, 0.11008191108703613], [0.2082173228263855, -0.00279562477953732, 0.25029873847961426, -0.36846721172332764, -0.06152450293302536, -0.21332018077373505, 0.1687430888414383, 0.43497252464294434, 0.43412986397743225, 0.09234990924596786, -0.12858250737190247, -0.3496297597885132, 0.17461107671260834, 0.3033803701400757, -0.3671422600746155, -0.07774461805820465, -0.478611558675766, -0.10689597576856613, -0.10868250578641891, -0.14215421676635742, -0.04169275611639023, -0.0826316773891449, -0.3600218594074249, 0.08748019486665726, -0.3071989119052887, 0.15154092013835907, -0.7564452886581421, -0.04314761981368065, 0.03766893967986107, 0.21275191009044647, 0.0026845475658774376, 0.11199864745140076], [-0.030390232801437378, 0.30865246057510376, -0.42710328102111816, -0.5108466744422913, -0.43027907609939575, -0.2279168665409088, 0.0761931762099266, 0.05846081301569939, -0.26845428347587585, 0.1712333709001541, -0.4540556073188782, 0.15192514657974243, 0.06302142888307571, 0.2690671682357788, -0.1040767952799797, -0.7394384145736694, -0.07438629120588303, -0.005916613154113293, -0.17059198021888733, 0.21738038957118988, 0.08354398608207703, -0.23688353598117828, -0.44042620062828064, -0.41555389761924744, -0.3965911269187927, 0.27368810772895813, -0.3285738229751587, 0.11908699572086334, 0.2306341975927353, 0.18659481406211853, -0.3425942063331604, -0.2869933545589447], [-0.23583875596523285, -0.024833988398313522, 0.1893020123243332, 0.21093128621578217, -0.23161765933036804, -0.3300008177757263, 0.04376178979873657, 0.2927442789077759, -0.32408377528190613, -0.1391320675611496, 0.05477205663919449, -0.251077800989151, 0.39237821102142334, -0.3696598708629608, 0.11571606993675232, -0.22293822467327118, -0.2152995467185974, 0.1338508129119873, -0.40822866559028625, -0.05395062640309334, -0.20347987115383148, 0.2631942927837372, -0.47027549147605896, 0.2348886877298355, 0.05100960657000542, -0.24329349398612976, 0.007935271598398685, -0.10719666630029678, 0.835627019405365, 0.2697513997554779, 0.2537236511707306, 0.19343408942222595], [-0.24947339296340942, 0.2748472988605499, -0.28682833909988403, 0.158235564827919, -0.4347551465034485, -0.22384218871593475, -0.010389745235443115, 0.7025608420372009, 0.2342393547296524, 0.3784141540527344, 0.31997427344322205, -0.29005518555641174, 0.03253638744354248, 0.10152620077133179, -0.2450007051229477, -0.32429239153862, -0.3536004424095154, 0.20885352790355682, -0.22968405485153198, 0.11539480835199356, -0.11112784594297409, -0.20714999735355377, -0.47331932187080383, -0.4386739134788513, -0.36051836609840393, -0.14958076179027557, -0.815573513507843, 0.11524201184511185, 0.19087530672550201, 0.6320585608482361, -0.16174174845218658, -0.13070222735404968], [-0.6687350273132324, 0.18197044730186462, 0.08460000902414322, -0.10340626537799835, -0.09345433115959167, -0.245247945189476, -0.2537040114402771, 1.2178493738174438, 0.7837019562721252, -0.056814197450876236, -0.20140480995178223, -0.25699523091316223, -0.16384834051132202, -0.1475818157196045, -0.28974270820617676, -0.7375765442848206, -0.5939419865608215, -0.14027002453804016, 0.31242209672927856, 0.38244709372520447, -0.04736935719847679, -0.16528703272342682, -0.25133031606674194, -0.22823099792003632, 0.31273940205574036, -0.07498104870319366, -0.7603555917739868, 0.29324182868003845, -0.05799717456102371, 0.827845573425293, -0.28528669476509094, 0.33692383766174316], [-0.07132862508296967, 0.6928992867469788, 0.14271564781665802, 0.22732770442962646, 0.6668853163719177, 0.6156567335128784, -0.22496983408927917, 0.536720335483551, 0.46013352274894714, 0.5884386301040649, 0.13220761716365814, -0.05458468571305275, -0.11246353387832642, 0.607062816619873, -0.17163515090942383, -0.0644843652844429, 0.44631925225257874, -0.11590544879436493, -0.2540126144886017, 0.21523801982402802, 0.6220257878303528, 0.09019458293914795, 0.3437430262565613, 0.3958111107349396, -0.07972203940153122, 0.34129011631011963, 0.2853584289550781, -0.10110387206077576, 0.41004452109336853, 0.4497133493423462, 0.25046151876449585, 0.034098733216524124], [-0.275941401720047, 0.24150478839874268, 0.031767331063747406, -0.34419307112693787, -0.004472807515412569, -0.5828976631164551, 0.3445778489112854, 0.03147435933351517, 0.3384702205657959, 0.22055938839912415, -0.06817110627889633, -0.11650871485471725, 0.27760231494903564, -0.1322680115699768, -0.07450292259454727, -0.14122048020362854, 0.11356621235609055, -0.43852001428604126, 0.012853777036070824, -0.09430313855409622, -0.029224179685115814, -0.22813603281974792, -0.14853064715862274, -0.14689993858337402, -0.26307085156440735, 0.01696903258562088, 0.06650123745203018, 0.1264350712299347, 0.2016534060239792, 0.4524901807308197, 0.5205460786819458, 0.17560532689094543], [-0.17204704880714417, 0.35553863644599915, -0.11306102573871613, -0.38353899121284485, -0.6698534488677979, -0.37438806891441345, 0.024613451212644577, 0.22529113292694092, 0.3745758533477783, 0.12297119200229645, -0.052403442561626434, -0.0491299033164978, 0.02013712376356125, 0.15148693323135376, 0.1637200117111206, -0.027901727706193924, -0.3450523018836975, 0.16333165764808655, -0.1035674661397934, -0.037520118057727814, -0.13527147471904755, 0.19878050684928894, -0.26063472032546997, -0.29152926802635193, -0.5722818970680237, -0.5956875681877136, -0.5457926988601685, -0.4220166802406311, 0.40756210684776306, 0.13260024785995483, 0.24258163571357727, 0.0919000580906868], [-0.06459683179855347, 0.1795133650302887, -0.31739649176597595, -0.7498382925987244, 0.047436151653528214, 0.25068339705467224, -0.03982022404670715, 0.4178818166255951, 0.515020489692688, 0.5078698396682739, 0.007817458361387253, -0.23382863402366638, 0.10100399702787399, -0.21615199744701385, -0.09447671473026276, -0.5521543622016907, -0.23892909288406372, -0.013241753913462162, 0.13650193810462952, -0.025126367807388306, 0.048567745834589005, -0.18893291056156158, -0.8083699345588684, -0.11146357655525208, -0.459133505821228, 0.16680416464805603, -0.3477832078933716, -0.11094650626182556, -0.15089325606822968, 0.16189157962799072, 0.47146865725517273, 0.2512591481208801], [-0.015318230725824833, 0.04727035015821457, 0.18660005927085876, -0.1874256581068039, 0.19115498661994934, -0.6827731728553772, 0.18081822991371155, 0.5081624388694763, 0.19665473699569702, -0.011337030678987503, -0.25751468539237976, 0.06334895640611649, 0.4226924777030945, 0.36539027094841003, -0.16911770403385162, -0.4313325583934784, -0.16739870607852936, 0.30276554822921753, 0.04390130192041397, 0.45882225036621094, 0.19296227395534515, -0.17038770020008087, -0.1570374220609665, -0.2872687578201294, 0.03943171352148056, 0.02766813151538372, -0.4200180172920227, 0.466738760471344, -0.3690829277038574, 0.5051743984222412, -0.3311168849468231, -0.18681244552135468], [0.08610694110393524, 0.17287467420101166, -0.41318267583847046, -0.272932231426239, -0.4082726836204529, -0.15249739587306976, 0.2910531461238861, 0.5150456428527832, -0.22141961753368378, 0.2586684226989746, 0.12989912927150726, 0.08455021679401398, 0.3005724549293518, -0.2874724864959717, -0.06881840527057648, -0.8349066972732544, -0.17539075016975403, -0.27035805583000183, -0.517811119556427, 0.23555628955364227, 0.5786176323890686, 0.011941537261009216, -0.3715713620185852, -0.26716941595077515, -0.45037969946861267, -0.44436243176460266, -0.02580367401242256, 0.2630980908870697, 0.24936994910240173, 0.8621165752410889, -0.03143863379955292, 0.3492482304573059], [-0.0669110044836998, 0.4467276632785797, -0.060908835381269455, -0.020317476242780685, -0.4325089454650879, -0.3715241253376007, 0.2525508403778076, -0.07301734387874603, 0.09542036801576614, -0.2586135268211365, 0.05681588128209114, -0.43262073397636414, -0.5523407459259033, -0.03233284875750542, -0.1477077603340149, -1.018168330192566, -0.18143951892852783, 0.03728284314274788, 0.3625327944755554, 0.06128246709704399, -0.02034085802733898, -0.4651707410812378, -0.6691223978996277, -0.02563754841685295, 0.26802024245262146, -0.11376874148845673, -0.5221663117408752, -0.035724740475416183, -0.2062678337097168, 0.6397567987442017, -0.3052707016468048, -0.24414809048175812], [-0.06945928186178207, 0.1818121075630188, 0.0850738137960434, -0.7905892133712769, -0.004227431491017342, 0.04484935849905014, 0.06841062754392624, 0.025381211191415787, 0.2408163994550705, -0.34222713112831116, -0.2925931513309479, 0.07464718073606491, 0.219557523727417, -0.20731204748153687, -0.38707464933395386, 0.07138507068157196, -0.02273258939385414, -0.03955667093396187, 0.14076083898544312, -0.25959405303001404, 0.3352411687374115, -0.32853636145591736, -0.6349724531173706, 0.16771259903907776, -0.4719586670398712, -0.21556243300437927, -0.30075791478157043, 0.8035184741020203, 0.0009190009441226721, 0.1924041509628296, -0.24149742722511292, 0.5654510855674744]], "lstm.weight_hh_l0": [[-0.7995774745941162, -0.03563886135816574, -0.1317215859889984, -0.09934309124946594, -0.08832049369812012, 0.16972900927066803, 0.007517283316701651, -0.031949277967214584, 0.08772309124469757, 0.046444766223430634, 0.14751267433166504, -0.14721940457820892, 0.0335962250828743, -0.14793944358825684, -0.09690428525209427, -0.11644729971885681, -0.3325675129890442, -0.028645826503634453, -0.1044403687119484, 0.19960103929042816, -0.1238696351647377, -0.24239620566368103, 0.01679448038339615, 0.20762775838375092, 0.19366849958896637, -0.18788547813892365, -0.24405299127101898, 0.0016851488035172224, -0.3112639784812927, -0.3072153329849243, -0.10538527369499207, 0.07807862013578415], [0.1718222200870514, 0.5551480650901794, 0.1918615698814392, -0.15842868387699127, -0.09701653569936752, 0.37270328402519226, -0.0023985696025192738, -0.22769206762313843, 0.05516190826892853, -0.3717827796936035, 0.02225959300994873, -0.15009409189224243, -0.1613355129957199, 0.11754661798477173, -0.1273667961359024, -0.05308613181114197, -0.25700196623802185, -0.20168155431747437, 0.13421154022216797, -0.1623760163784027, -0.1266087293624878, 0.104512058198452, 0.22797775268554688, -0.19200679659843445, -0.1496310830116272, 0.03645811975002289, -0.044829875230789185, -0.12900897860527039, 0.22604496777057648, -0.07584937661886215, -0.1289716213941574, 0.1355976015329361], [0.32277271151542664, -0.03138403221964836, -0.37659984827041626, -0.28236123919487, 0.061577972024679184, 0.1591498702764511, -0.04122917354106903, -0.4384273588657379, 0.1258193701505661, -0.46696937084198, 0.07712851464748383, -0.22556085884571075, 0.006016397383064032, 0.29890695214271545, 0.11843640357255936, -0.0830029770731926, -0.44577556848526, -0.2588747441768646, 0.40942704677581787, -0.08207970857620239, -0.09056094288825989, 0.45682626962661743, 0.4155242443084717, -0.4595998227596283, 0.3439905047416687, 0.24975432455539703, -0.09677882492542267, -0.08364629745483398, 0.041184473782777786, -0.11215656995773315, -0.3948502242565155, 0.14858004450798035], [-0.2559582591056824, 0.2787327170372009, -0.08026522397994995, 0.2861534655094147, 0.008051232434809208, 0.1452876627445221, 0.16334165632724762, 0.3396270275115967, -0.026161018759012222, 0.21202495694160461, -0.05947127193212509, -0.0715058222413063, 0.04821636155247688, -0.0653853490948677, 0.16611187160015106, -0.20553436875343323, -0.06674336642026901, -0.042763274163007736, 0.03691389411687851, 0.02244666777551174, -0.3331751823425293, -0.026583392173051834, -0.11373399198055267, 0.2460777908563614, 0.16540148854255676, -0.027216793969273567, -0.08660498261451721, 0.12472832947969437, -0.2644299566745758, 0.11783797293901443, 0.02821425534784794, 0.07613210380077362], [0.2741442918777466, -0.14057369530200958, 0.04289699345827103, -0.049607619643211365, -0.2278454601764679, 0.3023745119571686, 0.2183031290769577, -0.007831922732293606, 0.08476733416318893, -0.18930208683013916, -0.04165928438305855, -0.07969990372657776, -0.14522266387939453, 0.2798635959625244, -0.3235303461551666, -0.0464375838637352, -0.33072710037231445, -0.06800559163093567, 0.024280069395899773, 0.002828812226653099, 0.23922906816005707, 0.5339967012405396, 0.21529771387577057, -0.1096569076180458, 0.47287848591804504, 0.09923066198825836, -0.11046373099088669, -0.006214199587702751, -0.2570030689239502, -0.26689857244491577, -0.2444269061088562, -0.043929122388362885], [-0.19809143245220184, 0.5445597171783447, 0.0029665823094546795, -0.0164345633238554, -0.005414091981947422, -0.3197266459465027, 0.17775681614875793, 0.07625758647918701, -0.09875089675188065, -0.17539478838443756, -0.005037006456404924, -0.05708375573158264, 0.3339973986148834, -0.024427594617009163, 0.2537428140640259, 0.0424722395837307, -0.00020385754760354757, -0.09992719441652298, 0.005446152295917273, -0.013690831139683723, -0.48511889576911926, -0.03573538735508919, 0.11505705118179321, -0.1899111568927765, 0.395088255405426, -0.30558761954307556, -0.08434657007455826, -0.12887975573539734, -0.18881259858608246, 0.09971069544553757, 0.16015052795410156, 0.0070808264426887035], [0.051003869622945786, 0.20446892082691193, -0.16001947224140167, 0.016543610021471977, -0.12551838159561157, -0.14965760707855225, 0.08451498299837112, 0.05533851310610771, -0.06657341122627258, 0.30659663677215576, -0.2184002846479416, 0.11296607553958893, 0.20704880356788635, -0.2546011209487915, 0.40540754795074463, -0.26826027035713196, 0.1640746295452118, -0.03517423942685127, 0.005595309194177389, 0.1415867954492569, -0.6027652621269226, 0.0785600021481514, -0.031471095979213715, 0.11114499717950821, -0.13101208209991455, -0.08120278269052505, -0.21420565247535706, 0.01935572735965252, -0.27554699778556824, 0.15161345899105072, 0.34990033507347107, -0.20607778429985046], [-0.029206974431872368, -0.15917658805847168, 0.05949298292398453, -0.23737040162086487, 0.09597685933113098, 0.40103480219841003, 0.26669707894325256, 0.4966159760951996, -0.23794013261795044, -0.21322739124298096, -0.019978901371359825, 0.023218756541609764, -0.0879112258553505, 0.005111019127070904, -0.13315585255622864, -0.031916599720716476, -0.32528620958328247, -0.0753474235534668, 0.28158438205718994, -0.022702326998114586, 0.10526838153600693, -0.019255802035331726, 0.15422223508358002, -0.07120569795370102, -0.002848302712664008, 0.08598609268665314, 0.014068704098463058, -0.15444698929786682, -0.17750456929206848, -0.16514642536640167, -0.3805411458015442, 0.21898557245731354], [-0.4902998208999634, 0.07215338945388794, -0.32199743390083313, 0.48042231798171997, -0.21079547703266144, -0.3037651777267456, -0.2924598753452301, 0.45185983180999756, 0.24808430671691895, 0.5695969462394714, -0.2161974310874939, 0.46125537157058716, 0.24556918442249298, -0.29199954867362976, 0.4938240647315979, -0.24433942139148712, 0.27773016691207886, 0.2877085506916046, -0.30923014879226685, 0.3449416756629944, -0.40371039509773254, -0.41864463686943054, -0.37317129969596863, 0.4805019795894623, -0.15104247629642487, -0.262605220079422, -0.3016389310359955, 0.3011128306388855, -0.3186846375465393, 0.5516414642333984, 0.3782634139060974, -0.3743649125099182], [0.17829805612564087, -0.3690223693847656, 0.10091955959796906, -0.18508487939834595, 0.42250239849090576, 0.2510364055633545, 0.3455039858818054, -0.10052921622991562, -0.5102217793464661, 0.2393890768289566, -0.14230218529701233, -0.3087109327316284, -0.16329282522201538, 0.4890236556529999, -0.44476863741874695, -0.11511045694351196, -0.26065385341644287, -0.2332358956336975, 0.5663490891456604, -0.2683561444282532, 0.2190503478050232, 0.35393550992012024, 0.5353898406028748, -0.23659290373325348, 0.5585825443267822, 0.545528769493103, -0.02449464425444603, -0.5489493608474731, 0.20966459810733795, -0.2385398894548416, -0.5313257575035095, 0.35991838574409485], [0.06979449093341827, 0.15671312808990479, -0.10194120556116104, -0.05781956762075424, 0.004577398765832186, -0.027792012318968773, -0.021851282566785812, -0.13522401452064514, 0.09423600137233734, -0.09029378741979599, -0.5744632482528687, 0.024427615106105804, 0.19573615491390228, 0.07104387879371643, 0.08974485099315643, -0.00939309224486351, 0.06697734445333481, -0.0003549348912201822, -0.26903578639030457, 0.03790837898850441, -0.01812715083360672, 0.14041903614997864, -0.052697524428367615, -0.20495453476905823, -0.12885890901088715, 0.22848251461982727, -0.07379459589719772, -0.14006945490837097, -0.037979546934366226, -0.045754291117191315, 0.08765000104904175, -0.17505894601345062], [-0.3294167220592499, 0.2670121192932129, -0.2998180091381073, 0.031013181433081627, -0.26564347743988037, -0.028455013409256935, 0.04825139418244362, -0.09786371886730194, 0.10801098495721817, -0.030922772362828255, 0.009586948901414871, 0.45085886120796204, -0.1597518026828766, -0.061664607375860214, 0.29449063539505005, -0.17467956244945526, 0.03283216431736946, 0.0927107110619545, 0.16383475065231323, -0.03732338920235634, -0.10390707105398178, 0.030631400644779205, -0.05177512764930725, -0.0434749498963356, 0.12516042590141296, -0.06077967584133148, -0.3003489375114441, 0.18284599483013153, -0.1529301404953003, 0.13924525678157806, 0.31351983547210693, -0.028545502573251724], [-0.15967553853988647, -0.015176575630903244, 0.0937904417514801, -0.03633127734065056, 0.1518496870994568, 0.3355046510696411, 0.013256522826850414, 0.12064920365810394, -0.24471138417720795, -0.19647911190986633, -0.364801287651062, -0.0909852683544159, 0.4561637043952942, 0.048078909516334534, -0.10182027518749237, 0.0017603547312319279, -0.19941285252571106, -0.06491989642381668, 0.09157035499811172, -0.17813022434711456, 0.26762667298316956, 0.2479984611272812, 0.15055310726165771, -0.2959457337856293, 0.41272276639938354, -0.07091927528381348, 0.018465112894773483, -0.15570665895938873, 0.23707209527492523, -0.23847472667694092, -0.11382019519805908, -0.11507527530193329], [0.014566216617822647, 0.0696113258600235, 0.13560067117214203, -0.20818470418453217, 0.2927124798297882, 0.08509175479412079, 0.5208768844604492, -0.27229011058807373, -0.2556457221508026, -0.2696986198425293, -0.16579191386699677, -0.3733363151550293, -0.17145706713199615, -0.19149374961853027, -0.14798632264137268, -0.19392329454421997, -0.3818379044532776, -0.3283954858779907, 0.12340053915977478, -0.32812145352363586, -0.04488192871212959, 0.48972320556640625, 0.17145578563213348, -0.14079318940639496, 0.3752434551715851, 0.14469125866889954, -0.06917749345302582, -0.05903114378452301, 0.24160534143447876, -0.23943014442920685, -0.19184893369674683, 0.082556813955307], [0.0881056860089302, -0.12282145023345947, 0.13600660860538483, -0.4446595013141632, 0.35733169317245483, 0.6604310870170593, 0.19316740334033966, -0.17229628562927246, -0.2007671743631363, -0.06751363724470139, 0.02329215593636036, -0.19062542915344238, -0.5157724022865295, 0.3249415159225464, 0.4689907729625702, -0.2781910002231598, -0.5340094566345215, -0.31851935386657715, 0.21134738624095917, -0.4989593029022217, 0.39843982458114624, 0.2937050759792328, 0.27220144867897034, -0.06332073360681534, 0.41530561447143555, 0.2518414855003357, -0.14368051290512085, -0.2808855473995209, 0.15207074582576752, -0.4742352366447449, -0.26188594102859497, 0.23245005309581757], [0.2592165768146515, -0.3785664439201355, 0.24040557444095612, -0.5119547843933105, 0.21558819711208344, 0.3951663374900818, 0.25748953223228455, -0.4308110475540161, -0.22470273077487946, -0.2973899245262146, -0.22986960411071777, -0.30927443504333496, -0.3139900267124176, 0.3399248719215393, -0.21419847011566162, -0.5094380974769592, -0.28168439865112305, -0.3628479540348053, 0.3128569424152374, -0.4773114323616028, 0.26755908131599426, 0.45908844470977783, 0.30150270462036133, -0.26740825176239014, -0.03912694379687309, 0.3603895306587219, 0.3818337619304657, -0.5292356610298157, 0.13247546553611755, -0.5732753276824951, -0.4266831576824188, 0.25621283054351807], [-0.6885629892349243, 0.3239803612232208, -0.26787328720092773, -0.0472564660012722, -0.15011438727378845, 0.00046445790212601423, 0.2688996493816376, 0.03392219543457031, -0.14354242384433746, -0.3254118263721466, -0.057849474251270294, -0.04767867177724838, -0.044789914041757584, -0.02470059134066105, 0.29523271322250366, -0.14952684938907623, 0.6383671164512634, -0.12605291604995728, 0.224455788731575, -0.23918798565864563, -0.02167997881770134, 0.008842735551297665, -0.03672922030091286, -0.09414318203926086, 0.6105750203132629, 0.1480855792760849, -0.22336214780807495, 