{"linear_1.weight": [[-0.007486820220947266], [0.4791099429130554], [-0.7604085803031921], [-0.7359390258789062], [-0.3851543664932251], [0.1621149182319641], [0.19249854981899261], [0.8360315561294556], [0.023071756586432457], [0.2646125555038452], [-0.2799965441226959], [-0.1965653896331787], [-1.1258337497711182], [-0.5836732387542725], [-0.3692435026168823], [0.01385066844522953], [0.39533519744873047], [0.37246787548065186], [-0.007336807902902365], [-0.5360009670257568], [0.01841496117413044], [0.8609593510627747], [0.06216799095273018], [0.922888457775116], [0.005684844683855772], [0.10581409931182861], [0.8355699181556702], [-1.1477864980697632], [-0.23833288252353668], [-0.39803630113601685], [-0.38979995250701904], [0.8729221224784851]], "linear_1.bias": [-0.6481796503067017, -0.4764016568660736, -0.7612771391868591, -0.9365609884262085, -0.5837404727935791, -0.187769815325737, 0.09331726282835007, 0.7026873826980591, -0.03339715674519539, -0.5126835107803345, -0.018270418047904968, -0.9336947202682495, -0.6064534783363342, -0.593841016292572, 0.4596630930900574, -0.08395693451166153, -0.4434950351715088, -0.36307674646377563, -0.027124708518385887, 0.7188717722892761, -0.02539624087512493, 0.2501925826072693, -0.07401072978973389, -0.48187199234962463, -0.018388815224170685, -0.7753055095672607, -0.835297167301178, -0.3417395055294037, -0.0952729880809784, 0.35028544068336487, -0.5923525094985962, 0.46132054924964905], "lstm.weight_ih_l0": [[0.38476428389549255, 0.40076205134391785, 0.07287771999835968, 0.22559703886508942, -0.02812887355685234, -0.27792641520500183, 0.3940497934818268, -0.4417923092842102, -0.5323257446289062, -0.18520912528038025, 0.249331533908844, -0.2725068926811218, 0.7637650370597839, -0.2754443883895874, -0.18932418525218964, 0.007338928524404764, 0.1292901188135147, 0.33669161796569824, -0.2332221120595932, -0.5436098575592041, 0.2463226169347763, 0.10456746816635132, -0.12473993748426437, 0.15530060231685638, -0.17503094673156738, 0.08906746655702591, -0.011518980376422405, 0.08115493506193161, 0.08062484860420227, -0.26214709877967834, -0.06689272820949554, 0.15960291028022766], [0.07896555215120316, 0.33643612265586853, -0.4068753719329834, -0.13400083780288696, 0.10050555318593979, -0.015151132829487324, 0.04656399413943291, 0.2913680076599121, 0.29051902890205383, 0.22966383397579193, 0.04984603822231293, -0.030906952917575836, 0.3727576434612274, 0.16286417841911316, 0.10549464076757431, -0.014306755736470222, 0.2854308485984802, 0.16787943243980408, -0.05412236973643303, -0.07504650950431824, 0.0868028774857521, -0.28067106008529663, -0.11385365575551987, 0.5494018793106079, 0.045098353177309036, 0.5570672750473022, 0.09024880081415176, 0.4322177469730377, -0.6333950757980347, -0.30667927861213684, 0.08580487221479416, 0.2617189288139343], [0.20960508286952972, 0.2794977128505707, 0.14266330003738403, -0.020888552069664, 0.06712480634450912, -0.4360685646533966, -0.22727780044078827, -0.5999496579170227, -0.5453572869300842, 0.10277889668941498, -0.3969770669937134, -0.1580391824245453, -0.07547260820865631, 0.05610844865441322, -0.07900789380073547, -0.11101032048463821, -0.4805026054382324, 0.04760739579796791, -0.267864465713501, -0.5803992748260498, -0.3125793933868408, 0.011213468387722969, -0.36436188220977783, -0.3389985263347626, 0.3136308789253235, 0.08020764589309692, -0.13039909303188324, 0.4322499632835388, -0.49389412999153137, -0.3337681293487549, -0.17077766358852386, -0.03714452683925629], [0.07925881445407867, 0.7278777360916138, 0.2498631626367569, 0.2604801654815674, 0.1600034087896347, 0.08472447842359543, 0.24741323292255402, -0.14792397618293762, -0.3807445466518402, 0.06394393742084503, -0.3268640637397766, 0.12681834399700165, 0.39171102643013, 0.13030511140823364, -0.04188910126686096, -0.01692105643451214, 0.0023303597699850798, 0.982035219669342, -0.09077591449022293, -0.30833303928375244, -0.06393234431743622, 0.2487616240978241, 0.2895875871181488, 1.050023078918457, 0.04091200232505798, 0.053161121904850006, 1.0490529537200928, 0.16245701909065247, -0.085673488676548, 0.3051122725009918, 0.23699532449245453, -0.021231919527053833], [0.12083785235881805, 0.5373373627662659, 0.37552088499069214, -0.04069359600543976, -0.005657310597598553, 0.05545872822403908, -0.2625562250614166, -0.12600131332874298, -0.2504027783870697, -0.27923741936683655, -0.07715854048728943, -0.2885860800743103, 0.25164473056793213, -0.09392709285020828, 0.1338403820991516, -0.49616435170173645, -0.09886334091424942, -0.017118971794843674, -0.45902302861213684, -0.2678058445453644, -0.26861271262168884, -0.2257530242204666, 0.07702136784791946, 0.7143549919128418, 0.16451598703861237, -0.2114366590976715, 0.3331752121448517, 0.19221843779087067, 0.345192015171051, -0.18776097893714905, -0.14294910430908203, 0.011578812263906002], [0.2451396882534027, 0.11696561425924301, 0.15181568264961243, 0.35645791888237, -0.2893359959125519, -0.07938772439956665, -0.3106815218925476, -0.17341791093349457, -0.191693514585495, -0.42096829414367676, -0.39655548334121704, -0.07085137069225311, 1.072882890701294, -0.04098119959235191, -0.4027315378189087, -0.19368650019168854, 0.23571816086769104, -0.11986667662858963, -0.3241793215274811, -0.7424250841140747, -0.5436581373214722, 0.06272492557764053, 0.022083386778831482, -0.09793629497289658, -0.022453710436820984, 0.10839804261922836, -0.4432026743888855, 0.4054349660873413, -0.16466934978961945, -0.543592631816864, 0.16095882654190063, 0.17200252413749695], [0.06818726658821106, 0.44263362884521484, -0.021718159317970276, -0.07546599209308624, -0.04060041531920433, -0.1227324977517128, -0.19274218380451202, -0.253924697637558, 0.20542550086975098, -0.23559246957302094, 0.15056315064430237, 0.054886799305677414, 0.10910557955503464, -0.1590542197227478, -0.32344430685043335, -0.0637381300330162, -0.021203041076660156, 0.009877199307084084, -0.11162310838699341, -0.08485636115074158, -0.1341141164302826, 0.7178529500961304, 0.08897615969181061, -0.0054548438638448715, 0.27441802620887756, 0.0027398953679949045, 0.6075129508972168, 0.5760258436203003, -0.2200057953596115, -0.09630776941776276, 0.3252266049385071, 0.11775104701519012], [0.26339104771614075, 0.4305034875869751, 0.2824791669845581, -0.3627651035785675, -0.04406362399458885, 0.14019012451171875, -0.15133430063724518, 0.16906742751598358, 0.08728987723588943, -0.22640299797058105, -0.5712260603904724, 0.28699246048927307, 0.4749649167060852, -0.1960255205631256, -0.6159100532531738, -0.19601771235466003, -0.16773460805416107, -0.12981152534484863, -0.21323485672473907, -0.50154048204422, 0.09139035642147064, 0.5187644362449646, 0.06506827473640442, 0.16002298891544342, -0.03478790819644928, -0.07463707029819489, -0.08636701107025146, 0.4311048984527588, -0.025822000578045845, -0.2731930911540985, -0.0038621125277131796, -0.06164860725402832], [-0.040109582245349884, 0.159964919090271, -0.12352035939693451, 0.02473328448832035, 0.012628492899239063, 0.22564207017421722, -0.3474152088165283, -0.29335060715675354, 0.24382483959197998, -0.09791132807731628, -0.04892048239707947, -0.06904859095811844, 0.6386433839797974, -0.1310257464647293, 0.029489576816558838, -0.4162251651287079, 0.04071648791432381, 0.11307398974895477, -0.33113065361976624, -0.23608608543872833, 0.006735296919941902, -0.09070365875959396, -0.08129565417766571, 1.1476473808288574, 0.1777542680501938, 0.06796327978372574, 0.422613263130188, 0.5785970687866211, 0.06605253368616104, -0.46823397278785706, 0.7299207448959351, 0.37185633182525635], [-0.29470378160476685, 0.20563232898712158, 0.20704106986522675, -0.5997375249862671, -0.1575639396905899, -0.5281383991241455, -0.06227067485451698, -0.4237526059150696, -0.1066565066576004, -0.48632529377937317, 0.005517653189599514, 0.38737767934799194, 0.6438375115394592, 0.33963122963905334, -0.5353526473045349, 0.34805190563201904, 0.0861850157380104, 0.4051026999950409, 0.14976166188716888, 0.21151690185070038, 0.0600508488714695, 0.27954989671707153, -0.2935653626918793, 1.575139045715332, -0.18613499402999878, 0.00038197022513486445, 0.7681613564491272, 0.032883770763874054, 0.1872768998146057, -0.3965725302696228, 0.33390194177627563, 0.033856552094221115], [-0.22929884493350983, 0.6645882725715637, -0.13165049254894257, 0.5606169700622559, 0.16529053449630737, -0.12157290428876877, 0.16186709702014923, -0.32293686270713806, -0.519188642501831, 0.17957070469856262, 0.405288964509964, 0.29422083497047424, 0.8220406770706177, 0.4248659610748291, -0.4092698097229004, -0.1971987634897232, -0.28085848689079285, 1.001097559928894, -0.39684924483299255, -0.45210951566696167, 0.2112082540988922, -0.17493978142738342, -0.01910681463778019, 0.6802703738212585, 0.07651948928833008, 0.29789841175079346, 0.5207912921905518, 0.13258230686187744, -0.18866421282291412, -0.30745527148246765, 0.04640331119298935, 0.38310059905052185], [0.07733675837516785, 0.7404820919036865, 0.2214842140674591, 0.11180838197469711, 0.3351840078830719, 0.09318868815898895, 0.21624450385570526, 0.2965377867221832, 0.19093120098114014, -0.19970889389514923, 0.15564626455307007, 0.05850180611014366, 0.5050681233406067, 0.22087088227272034, -0.16517797112464905, -0.11084716022014618, -0.004105365369468927, 0.5453856587409973, -0.18320007622241974, 0.23140643537044525, -0.24370145797729492, 0.2791474461555481, -0.07348470389842987, 0.4860656261444092, -0.172431081533432, 0.17489370703697205, 0.9241374135017395, 0.21726053953170776, 0.13018715381622314, -0.3564802408218384, 0.7564505338668823, -0.07996423542499542], [-0.11812929064035416, -0.0832740068435669, 0.22307881712913513, 0.21514537930488586, -0.3887970447540283, -0.5754846334457397, -0.6442357897758484, -0.4266006350517273, 0.02261848747730255, -0.3150641620159149, -0.37997764348983765, 0.17384743690490723, 0.45719581842422485, 0.13993607461452484, -0.07437090575695038, -0.2475571185350418, 0.31557607650756836, 0.05886363983154297, -0.19372545182704926, -0.21234065294265747, -0.2986389100551605, -0.37503495812416077, -0.11847610026597977, 0.27698567509651184, -0.26430046558380127, 0.03909367695450783, -0.6390760540962219, 0.19792954623699188, 0.26750996708869934, -0.5254030227661133, 0.33234673738479614, -0.04363041743636131], [-0.17763999104499817, 0.4385479986667633, 0.062462057918310165, 0.12327311187982559, 0.12303289771080017, 0.10139039903879166, -0.2666284441947937, 0.08496829122304916, 0.08461892604827881, 0.38131576776504517, -0.5549005270004272, 0.2364935427904129, 0.3503270149230957, 0.1518697589635849, -0.6549198627471924, 0.25392279028892517, 0.23007208108901978, 0.48766303062438965, 0.1623632311820984, -0.17574454843997955, -0.17679521441459656, -0.10466702282428741, -0.1519850343465805, 0.37889382243156433, -0.16320571303367615, 0.5088669061660767, 0.27660441398620605, 0.3796268701553345, -0.06052699312567711, -0.10630746185779572, -0.16397301852703094, 0.2962668240070343], [0.04831754416227341, 0.483943909406662, -0.07333958894014359, 0.0842272937297821, -0.0909641832113266, 0.44627097249031067, -0.03504909202456474, -0.14693492650985718, 0.14383748173713684, -0.12876670062541962, 0.3564187288284302, -0.7081202864646912, 0.6105122566223145, 0.08017431199550629, -0.6046797037124634, -0.050348762422800064, 0.07593110203742981, 0.14195802807807922, 0.016971208155155182, -0.3381407558917999, 0.20978081226348877, 0.33193060755729675, -0.0033236215822398663, 0.06582456827163696, 0.21512649953365326, -0.2916964292526245, 0.06402337551116943, 0.3886323869228363, 0.06772198528051376, -0.1139451265335083, -0.06694334745407104, 0.04754660651087761], [0.09177885204553604, 0.2629489302635193, -0.2937737703323364, -0.19152803719043732, -0.39412131905555725, -0.27316299080848694, -0.36416539549827576, 0.0813496857881546, -0.07593820989131927, -0.05309687554836273, -0.01869986578822136, 0.2460727095603943, 0.5179766416549683, 0.5806988477706909, -0.32722413539886475, -0.21217362582683563, 0.28319594264030457, -0.15452586114406586, -0.021937686949968338, -0.7303217649459839, -0.6952491402626038, 0.07593214511871338, 0.1549750119447708, 0.6520306468009949, -0.23241257667541504, -0.25576621294021606, 0.005675370804965496, 0.2140292078256607, -0.7351230382919312, -0.37189552187919617, -0.03605863079428673, 0.5149120092391968], [-0.011434937827289104, 0.4615585505962372, 0.15056732296943665, -0.07503249496221542, 0.38237106800079346, 0.10895145684480667, -0.33294472098350525, -0.2369237095117569, -0.33816155791282654, 0.3852253258228302, -0.09797417372465134, -0.1913132518529892, 0.6642099618911743, 0.09546497464179993, -0.8052273988723755, -0.521590530872345, -0.07997514307498932, -0.27985432744026184, -0.5022476315498352, -0.6976193785667419, 0.10340030491352081, -0.03594124689698219, -0.2969971001148224, 0.32274970412254333, -0.5309587717056274, -0.31487372517585754, -0.03872394561767578, 0.30410394072532654, 0.1144668459892273, -0.237416610121727, 0.20080313086509705, -0.3412390947341919], [-0.11821376532316208, 0.12686027586460114, -0.1658397912979126, 0.20289427042007446, -0.5418668985366821, -0.2771565616130829, 0.003285997314378619, -0.22132107615470886, -0.33763587474823, 0.1551128476858139, -0.057482119649648666, 0.13372287154197693, 0.5459951162338257, -0.34103822708129883, -0.3491500914096832, -0.061129968613386154, -0.11168677359819412, 0.6293995976448059, -0.3674919307231903, -0.007016201503574848, 0.03854656219482422, 0.2863071858882904, 0.07078956067562103, 0.3779098391532898, 0.08841578662395477, 0.08173365145921707, -0.05292833596467972, 0.23063652217388153, -0.2864202558994293, 0.208909809589386, 0.08391964435577393, 0.35825103521347046], [-0.10984856635332108, 0.1869855523109436, 0.017946794629096985, 0.16010765731334686, 0.5078794956207275, 0.28576934337615967, 0.258114218711853, 0.1450372338294983, 0.3643024265766144, -0.10631632804870605, -0.1360287368297577, 0.1398264467716217, 0.4613579213619232, 0.12073531001806259, -0.10488959401845932, -0.011051635257899761, -0.362541139125824, -0.02267918922007084, -0.29495376348495483, -0.28717052936553955, 0.19411301612854004, 0.21403253078460693, -0.23763996362686157, 0.6671507358551025, -0.0654398575425148, 0.06276454776525497, 0.41167861223220825, 0.3229142129421234, 0.05736880749464035, -0.6101312637329102, 0.46335718035697937, 0.004220412578433752], [0.22924719750881195, -0.15392717719078064, 0.2084602266550064, 0.028212379664182663, 0.28989532589912415, -0.27794647216796875, -0.12175175547599792, -0.3971281945705414, -0.055696919560432434, -0.2985997200012207, -0.08653539419174194, 0.0713917687535286, -0.08517181873321533, -0.11837571859359741, -0.6774552464485168, 0.352674275636673, 0.0675523430109024, 0.26958146691322327, -0.4327490031719208, -0.9134445786476135, 0.023825258016586304, -0.09909751266241074, 0.48954707384109497, 0.4518701732158661, 0.02181198075413704, -0.2043263018131256, -0.32540273666381836, 0.3879692554473877, -0.0356387160718441, -0.21719904243946075, 0.03514735773205757, -0.5920384526252747], [0.292193204164505, -0.1624891757965088, -0.17327377200126648, 0.09531216323375702, -0.23056329786777496, -0.3303006589412689, 0.0409267283976078, 0.013511056080460548, 0.30124586820602417, -0.1366577297449112, 0.06671248376369476, -0.030186673626303673, 0.3566342890262604, -0.36442846059799194, -0.5357333421707153, 0.13068994879722595, -0.24314194917678833, -0.09969494491815567, -0.11868765950202942, -0.35687512159347534, 0.0038671449292451143, -0.2794877588748932, 0.23640261590480804, 0.3957913815975189, 0.31787025928497314, -0.14930084347724915, 0.15424107015132904, -0.15920527279376984, -0.19088080525398254, -0.2508263885974884, 0.3632056415081024, -0.16776688396930695], [0.2263394445180893, 0.0029366447124630213, -0.6028276085853577, -0.23079587519168854, -0.3343258500099182, -0.20772980153560638, 0.0062092081643640995, -0.23591814935207367, -0.2425554245710373, 0.3229900896549225, -0.6207584738731384, -0.08716660737991333, 0.022142646834254265, 0.015821268782019615, -0.36924120783805847, -0.4934048056602478, 0.02840258553624153, 0.09825470298528671, -0.3453485369682312, -0.0876135304570198, 0.2144102156162262, 0.31155726313591003, 0.4583175778388977, 0.17761999368667603, -0.061860669404268265, -0.1424640417098999, 0.02116347849369049, -0.07146692276000977, -0.572816789150238, -0.4879510998725891, 0.3376205265522003, 0.22265326976776123], [0.1344752311706543, 0.3411450684070587, 0.23411540687084198, -0.1672143042087555, 0.1345200091600418, 0.38268810510635376, -0.3888176679611206, -0.06768938153982162, 0.12419590353965759, 0.530705451965332, -0.2972220182418823, -0.08664680272340775, 0.46599680185317993, -0.1807274967432022, 0.33569958806037903, -0.3311581611633301, -0.23636069893836975, 0.1349070817232132, -0.0835096538066864, -0.2880755364894867, 0.25090622901916504, 0.3839800953865051, 0.3667985796928406, 0.6352747678756714, 0.2113051563501358, 0.1642954796552658, 0.04975440353155136, -0.017125612124800682, -0.14236637949943542, -0.646909236907959, -0.6452953219413757, 0.0879678800702095], [0.05751268193125725, 0.1576082706451416, 0.06249096989631653, -0.16651290655136108, 0.24022269248962402, -0.01499372161924839, 0.21190519630908966, 0.05355135351419449, -0.19023430347442627, -0.11016786843538284, -0.23376835882663727, -0.09421701729297638, 1.1873220205307007, -0.20742015540599823, -0.708342432975769, -0.6698768734931946, -0.11068994551897049, 0.4787769913673401, 0.032931506633758545, -0.29726719856262207, -0.3500538766384125, 0.1174183115363121, -0.4996004104614258, 0.9681442379951477, 0.012373768724501133, -0.19645361602306366, 0.5649028420448303, 0.010115870274603367, -0.03792647644877434, -0.11208520829677582, -0.19459275901317596, 0.1531684696674347], [-0.4132906198501587, 0.560343861579895, -0.024722889065742493, 0.3154977858066559, -0.3766331672668457, 0.6502236127853394, -0.19111965596675873, 0.016318926587700844, -0.35212716460227966, -0.06385041773319244, -0.2432268261909485, -0.0035924825351685286, 0.20569323003292084, 4.1350023820996284e-05, -0.5279051661491394, 0.2257576584815979, -0.2187708169221878, -0.009271218441426754, 0.3560457229614258, 0.034667693078517914, 0.34831899404525757, -0.23720256984233856, -0.16312550008296967, 0.27162060141563416, -0.17090636491775513, 0.20579823851585388, 0.39588719606399536, 0.23802883923053741, -0.07888288795948029, -0.1345181167125702, 0.2569763958454132, -0.12139001488685608], [-0.03453419357538223, 0.18869130313396454, -0.6287432312965393, -0.23589976131916046, 0.05461626127362251, 0.30237385630607605, -0.5161712169647217, -0.33270299434661865, -0.13852255046367645, 0.0858253762125969, -0.09006278216838837, 0.0453840047121048, 0.06263855844736099, -0.1649710088968277, -0.36624932289123535, -0.29248595237731934, 0.13131366670131683, 0.04448571801185608, -0.1993120163679123, -0.2820624113082886, -0.5467700958251953, 0.38848116993904114, -0.06471248716115952, 0.46143507957458496, -0.04249758645892143, -0.17905347049236298, -0.30320900678634644, 0.2766566574573517, -0.004540400113910437, -0.5098721385002136, -0.10968071222305298, -0.21204398572444916], [-0.08626538515090942, 0.04746292531490326, -0.20016701519489288, 0.5962604880332947, -0.17660002410411835, -0.009228857234120369, -0.14555734395980835, 0.20756489038467407, -0.06438207626342773, 0.13326561450958252, -0.24434031546115875, 0.10959029197692871, 0.9487390518188477, -0.08115357160568237, -0.606567919254303, -0.09270024299621582, 0.22015301883220673, -0.0339227095246315, -0.16297346353530884, 0.21397022902965546, -0.39205875992774963, -0.15048016607761383, -0.14926941692829132, 0.39337193965911865, 0.5058400630950928, -0.40169385075569153, 0.01942649856209755, 0.09672413021326065, -0.5226708054542542, -0.38419264554977417, -0.16507165133953094, -0.19533713161945343], [0.2381725162267685, 0.2366805523633957, -0.02194935828447342, -0.1334073543548584, -0.28646743297576904, -0.035005759447813034, -0.7326710820198059, -0.36610811948776245, 0.04778754711151123, 0.05704689398407936, -0.1290111094713211, -0.6333046555519104, -0.10314183682203293, -0.2782503664493561, -0.33637094497680664, -0.2257918268442154, 0.01231951080262661, 0.29745519161224365, -0.022078467532992363, -0.6730707287788391, -0.2321568727493286, 0.2252306491136551, 0.03637805953621864, 0.6932428479194641, 0.14949192106723785, 0.06390784680843353, 0.15185195207595825, 0.4964342415332794, -0.10995068401098251, -0.15079256892204285, 0.16914266347885132, 0.10361114889383316], [0.11849838495254517, 0.15881770849227905, -0.305133193731308, 0.11902931332588196, 0.010635966435074806, -0.027031904086470604, 0.015804918482899666, -0.5194932222366333, 0.13580694794654846, -0.1264198273420334, -0.09580878913402557, 0.0836719498038292, 0.5691092014312744, 0.511661171913147, -0.128130704164505, -0.14679023623466492, 0.06431799381971359, 0.36568331718444824, 0.15200112760066986, -0.22346481680870056, 0.18802277743816376, 0.44263190031051636, 0.1895194947719574, 0.7771144509315491, -0.024691330268979073, 0.6487694978713989, -0.16287541389465332, 0.31044167280197144, -0.034885331988334656, -0.769966721534729, 0.19558311998844147, 0.42828765511512756], [-0.12298255413770676, 0.30419760942459106, 0.1363646388053894, -0.22086527943611145, -0.1742112934589386, -0.07770778983831406, 0.015352101996541023, 0.03163444995880127, -0.04610179737210274, 0.34076645970344543, -0.23929466307163239, -0.5336467623710632, 0.5922119617462158, 0.23117861151695251, -0.6011433005332947, 0.028910120949149132, -0.3511626124382019, -0.002209847327321768, 0.06625504791736603, -0.7018985748291016, -0.28553223609924316, -0.22159452736377716, -0.023393256589770317, 0.03925500065088272, 0.09531425684690475, -0.45491111278533936, -0.05149658024311066, 0.33434441685676575, -0.2738625705242157, -0.5136346220970154, 0.20290453732013702, 0.1227240264415741], [0.44061043858528137, 0.33056432008743286, -0.4949604570865631, 0.2020624727010727, -0.43074238300323486, -0.2851581573486328, 0.07550245523452759, -0.021355045959353447, 0.14859920740127563, -0.3310765326023102, -0.60740065574646, 0.08650464564561844, 0.8315302729606628, -0.07329366356134415, -0.4552925229072571, -0.08436808735132217, 0.24998576939105988, 0.381528377532959, -0.4749039113521576, -0.40092408657073975, 0.2503742277622223, 0.6745365858078003, 0.4124947190284729, 0.7045801877975464, 0.10148721188306808, 0.2293344885110855, 0.4795432984828949, 0.4831489324569702, 0.08337458223104477, 0.02934628166258335, 0.3508237898349762, -0.0963270291686058], [-0.26631686091423035, 0.040561944246292114, 0.009017772041261196, -0.33605465292930603, 0.16338151693344116, 0.1672685146331787, -0.07318153977394104, -0.0615290142595768, 0.19334471225738525, -0.6751224994659424, -0.007998713292181492, 0.3035309612751007, 0.9017950296401978, -0.7006123661994934, -0.21452324092388153, 0.024565111845731735, 0.08456917852163315, 0.03868132084608078, 0.4627882242202759, -0.6335593461990356, -0.09141669422388077, -0.06636612862348557, 0.24104230105876923, 0.6692847013473511, -0.009357718750834465, 0.31556347012519836, 0.08359271287918091, 0.2836887240409851, -0.45501014590263367, -0.7628912925720215, -0.20233933627605438, -0.07873418182134628], [-0.2930586040019989, -0.6622496247291565, -0.12844297289848328, -0.3171883225440979, 0.1384037733078003, -0.07769066840410233, -0.7593984603881836, -0.2369777411222458, -0.04272111877799034, -0.13995155692100525, -0.6211644411087036, -0.015127274207770824, 0.3458872139453888, -0.10490067303180695, -1.1140908002853394, 0.1538272202014923, -0.1245671957731247, -0.5001583099365234, -1.4237645864486694, -0.8789164423942566, -0.5579057335853577, -0.4553670883178711, -0.5846143960952759, -0.2933303713798523, -0.20618289709091187, -0.1626386046409607, -0.3656027615070343, -0.5954311490058899, -1.2447712421417236, -1.3220597505569458, -0.07358997315168381, -0.1987265944480896], [0.04928978905081749, 0.05948907136917114, 0.10698454827070236, 0.09167834371328354, 0.24233128130435944, 0.05715122073888779, -0.5353655219078064, -0.5744031071662903, 0.11509819328784943, 0.060066964477300644, -0.0834273248910904, 0.149494007229805, 0.4027273952960968, -0.3123597800731659, -0.3142322897911072, 0.26395776867866516, 0.028390344232320786, -0.062384020537137985, -0.12190978974103928, -0.3567682206630707, -0.3414669632911682, -0.2308294028043747, 0.0034003411419689655, 0.6614004373550415, -0.039832450449466705, -0.2073443979024887, -0.6895692348480225, 0.6237726211547852, -0.0819031223654747, -0.07381097227334976, -0.262728750705719, -0.35954320430755615], [-0.07106441259384155, -0.06105594336986542, -0.007015606854110956, -0.2350447177886963, -0.23091697692871094, -0.5755491256713867, -1.3769457340240479, -1.1590070724487305, 0.27894407510757446, -0.4816536009311676, -0.4451616704463959, 0.1180104911327362, -0.28526103496551514, 0.1794271320104599, -0.35231754183769226, -0.08793212473392487, 0.06147998571395874, -0.427193820476532, -0.6169769167900085, -0.6006408929824829, -0.9991112351417542, -0.499807745218277, -0.6632925271987915, -0.6409239768981934, -0.2254277765750885, -0.041096169501543045, -0.7884237170219421, -0.13964281976222992, -0.31490328907966614, -0.7417364120483398, -0.012384423054754734, -0.7795546054840088], [0.0016108605777844787, -0.30784934759140015, 0.3348582088947296, -0.24281960725784302, -0.06458912789821625, -0.2750818133354187, -0.29671940207481384, -0.476887971162796, -0.061930786818265915, -0.2063075304031372, -0.46809229254722595, 0.026280028745532036, 0.21824032068252563, 0.19710806012153625, -0.015912339091300964, -0.3607785105705261, -0.11258047074079514, -0.047937966883182526, -0.33156678080558777, -0.6283543109893799, -0.7567443251609802, -0.71161288022995, 0.267826646566391, 0.39726537466049194, 0.029122894629836082, -0.29269886016845703, -0.19602973759174347, -0.17484518885612488, -0.4405739903450012, -0.33672383427619934, -0.08903621882200241, -0.7599732279777527], [-0.2559668719768524, 0.06527752429246902, -0.08865326642990112, -0.19535358250141144, -0.07588262110948563, -0.49352213740348816, -0.5093158483505249, -0.7951219081878662, -0.17578089237213135, 0.031876929104328156, -0.1651848405599594, -0.26936012506484985, -0.6222076416015625, -0.023466741666197777, -0.7687585353851318, 0.2613999843597412, 0.08306735754013062, -0.6088666915893555, -0.60043865442276, -1.0910980701446533, -0.4611549377441406, -0.3615930676460266, -0.2048920840024948, -0.25563859939575195, -0.56162029504776, 0.29028722643852234, -0.2096187025308609, -0.6394920349121094, -0.3323746919631958, -0.740379273891449, 0.06342515349388123, -1.162460207939148], [-0.3741135597229004, -0.17649900913238525, 0.12020517140626907, -0.09421847015619278, 0.44131985306739807, -0.35040974617004395, -0.771110475063324, -0.5744199156761169, -0.2609494924545288, -0.18676720559597015, -0.33407941460609436, -0.03844032064080238, 0.33795228600502014, 0.10842090845108032, -0.5309658646583557, -0.49302107095718384, 0.25279903411865234, -0.2752580940723419, -0.9553060531616211, -0.7835466861724854, -0.9916953444480896, -0.7322115302085876, -0.07766927778720856, -0.7086503505706787, -0.2620667815208435, -0.31708618998527527, -0.24312177300453186, -0.4703598618507385, -0.1485690027475357, -0.8324891924858093, 0.2375476062297821, -0.23817598819732666], [-0.12397902458906174, -0.22103948891162872, 0.25735029578208923, -0.5713914036750793, 0.12822997570037842, -0.8168501257896423, -0.429381787776947, -0.34199291467666626, 0.06462734192609787, -0.10958876460790634, -0.5936201214790344, 0.30935177206993103, -0.35624417662620544, 0.5932679176330566, -1.1156995296478271, -0.24927470088005066, 0.25535696744918823, -0.2274738848209381, -0.46386459469795227, -0.9383983016014099, -0.25145605206489563, -0.1401951014995575, -0.4497896730899811, -0.177510604262352, -0.24236682057380676, -0.1684608906507492, -0.7933475971221924, -0.5606313347816467, -0.8545931577682495, -0.7473225593566895, 0.28021174669265747, -0.29445868730545044], [0.07476761192083359, -0.5204023122787476, 0.290552020072937, -0.38676294684410095, 0.31419244408607483, -0.234058678150177, -0.5281125903129578, -0.710651695728302, -0.437318354845047, -0.03574998304247856, -0.4095691740512848, 0.06991074979305267, -0.19264405965805054, -0.8464727401733398, -0.8887859582901001, -0.37379205226898193, 0.7462651133537292, -0.5247417092323303, -0.47538042068481445, -1.2059502601623535, -0.7260981798171997, -0.8674171566963196, 0.152406245470047, -0.12027941644191742, -0.016696352511644363, -0.10341977328062057, -0.721483588218689, -0.4436512291431427, -0.38887861371040344, -1.2216620445251465, 0.10568933188915253, -0.7177491188049316], [-0.29318511486053467, 0.6012417674064636, -0.484036386013031, -0.14209139347076416, 0.03297322615981102, -0.4565247893333435, -0.07931535691022873, 0.15236614644527435, 0.11937762796878815, -0.5403541326522827, -0.0921352356672287, -0.41476893424987793, 0.366192102432251, 0.06050275266170502, -0.8004592061042786, 0.2250898778438568, 0.11309503763914108, -0.002565031871199608, -0.47439998388290405, -0.7769343852996826, -0.5560165047645569, 0.023910759016871452, 0.053715795278549194, 0.155770942568779, -0.21408501267433167, -0.2512350380420685, -0.034958794713020325, 0.0869213119149208, -0.4545764923095703, -0.5601797699928284, -0.45548442006111145, -0.5889436602592468], [0.11727443337440491, 0.5398313999176025, 0.36582815647125244, -0.026468174532055855, 0.38050955533981323, -0.24786752462387085, 0.11673480272293091, 0.3300122022628784, 0.32471463084220886, -0.07948274165391922, -0.6527290344238281, 0.10324864089488983, 0.0799085795879364, 0.6500387191772461, -0.17173336446285248, -0.3074391782283783, -0.3572643995285034, 0.0704040452837944, -0.00788746029138565, -0.28079524636268616, -0.22418034076690674, 0.2770683765411377, -0.09990997612476349, 0.2428794801235199, -0.18092481791973114, -0.4252699315547943, 0.5371541380882263, 0.3287343680858612, 0.15275263786315918, -0.1531859040260315, -0.09623609483242035, -0.3295578062534332], [0.1275051236152649, -0.12802498042583466, 0.0834425613284111, -0.4572865664958954, 0.19319835305213928, -0.8069257736206055, -1.0684622526168823, -0.8497801423072815, 0.015073462389409542, -0.1272551417350769, -0.4936332702636719, 0.33021309971809387, 0.5105786919593811, -0.622444748878479, -0.20549623668193817, -0.21790803968906403, 0.3097441494464874, 0.10900875180959702, -0.548088550567627, -0.9467771053314209, -0.8813828229904175, -0.41705194115638733, -0.7193804979324341, -0.012483425438404083, -0.2897872030735016, 0.4003443717956543, -0.23930473625659943, 0.3085497319698334, -0.5050820708274841, -0.5538967847824097, -0.4509026110172272, -0.35843852162361145], [0.3690779209136963, 0.4181246757507324, 0.2241533100605011, -0.040112778544425964, 0.028822006657719612, 0.5246953964233398, -0.12023600935935974, 0.042275238782167435, 0.21355724334716797, 0.17626601457595825, -0.159329354763031, -0.11570890992879868, 0.22000522911548615, -0.054632969200611115, 0.5601003766059875, 0.40725910663604736, -0.3116128742694855, 0.5521482229232788, 0.23069024085998535, 0.7734424471855164, 0.36076483130455017, 0.7431450486183167, 0.036939963698387146, 0.4222913086414337, 0.0635022222995758, 0.02834520861506462, 0.3072882294654846, 0.38697466254234314, 0.3097182810306549, 0.19511854648590088, 0.20616330206394196, 0.24090419709682465], [-0.07754845172166824, -0.6846036911010742, -0.07427990436553955, 0.21758952736854553, 0.3634662330150604, -0.1212901920080185, -0.29027682542800903, -1.0419151782989502, 0.15070873498916626, -0.21045754849910736, -0.029110752046108246, -0.18379025161266327, 0.8650628328323364, 0.12220191955566406, 0.1121874675154686, -0.06948845833539963, 0.21138378977775574, -0.5983962416648865, -0.36237403750419617, -0.0016216444782912731, -0.32485443353652954, -0.8273095488548279, -0.4166170358657837, -0.36609163880348206, 0.38439255952835083, 0.18082089722156525, -0.45524862408638, 0.24177730083465576, -0.3812182545661926, -0.20177088677883148, -0.027691904455423355, -0.869044303894043], [0.3151818513870239, -0.3916879892349243, 0.12300858646631241, -0.27806875109672546, -0.0705437883734703, -0.2981186509132385, -0.5771245360374451, -0.4491353929042816, 0.12740597128868103, -0.6146030426025391, 0.011502130888402462, -0.11711452901363373, -0.0663657933473587, 0.2166835069656372, -0.4702012538909912, -0.07639878988265991, 0.0744323581457138, -0.47213974595069885, -0.25264886021614075, -0.2036588191986084, -0.5392515659332275, -0.45055797696113586, -0.08241856098175049, -0.11051615327596664, -0.33564209938049316, 0.5434777140617371, -0.7127145528793335, 0.30200666189193726, -0.43845799565315247, -0.5159888863563538, -0.1694580465555191, -0.6586474776268005], [-0.007751799654215574, -0.049156878143548965, -0.29275381565093994, 0.5807027220726013, -0.33926934003829956, 0.0052924430929124355, -0.32043784856796265, 0.2741452157497406, -0.22370603680610657, 0.5685787200927734, -0.22065308690071106, 0.42628714442253113, 0.5024945139884949, 0.03293902426958084, -0.6012978553771973, 0.06274870038032532, -0.048549968749284744, 0.12713107466697693, -0.39826008677482605, -0.534643828868866, -0.03947732597589493, 0.5437113642692566, -0.12359920889139175, -0.0031527127139270306, 0.22370876371860504, 0.3201407194137573, -0.17933738231658936, 0.7107322216033936, -0.22600820660591125, -0.6232396364212036, -0.012943430803716183, -0.061508908867836], [0.09448825567960739, -0.20074008405208588, -0.12606503069400787, 0.12161938846111298, 0.020542774349451065, -0.3939315676689148, -0.7187206149101257, -0.11777584254741669, -0.37274646759033203, 0.3569572865962982, -0.34792855381965637, 0.3270321190357208, 0.005014968570321798, -0.06631916016340256, -0.29181063175201416, -0.6281473636627197, -0.5146386027336121, -0.5525702834129333, -0.41832515597343445, -0.8762198090553284, -0.25028762221336365, 0.19617733359336853, -0.24894128739833832, -0.3473280072212219, -0.016903966665267944, -0.3487096428871155, -0.34496086835861206, -0.1524554044008255, -0.26675257086753845, -0.6643377542495728, 0.03304334729909897, -0.034191325306892395], [0.06436336040496826, -0.24214720726013184, -0.419464111328125, 0.034263622015714645, -0.22727800905704498, -0.4680410325527191, -1.561301827430725, -0.5756479501724243, -0.1711200326681137, -0.39866021275520325, -0.7530015707015991, -0.4295283257961273, 0.23105432093143463, 0.08780795335769653, -0.728469967842102, 0.03381192684173584, 0.42543211579322815, -0.5392637848854065, -0.6803040504455566, -1.2442185878753662, -1.2133491039276123, -1.7287590503692627, -0.899265468120575, 0.04359837993979454, -0.5662037134170532, -0.01302256342023611, 0.0333305262029171, -0.2871110141277313, -0.7329549789428711, -0.814254105091095, 0.07239383459091187, -0.5013237595558167], [0.0783417597413063, -0.3609696328639984, -0.4105139672756195, -0.15928956866264343, -0.16475810110569, -0.14119726419448853, -0.9685064554214478, -1.122722864151001, -0.44078969955444336, 0.37276309728622437, -0.7490889430046082, 0.14746446907520294, 0.28639742732048035, 0.15754348039627075, -0.8826166987419128, -0.37113118171691895, 0.05820319429039955, -0.22582291066646576, -0.6833591461181641, -0.8261620402336121, -0.606293261051178, -0.701518714427948, -0.9055873155593872, -0.40127894282341003, -0.19911979138851166, -0.23955422639846802, -0.2520286738872528, 0.11227187514305115, -0.41564592719078064, -0.9029579162597656, -0.14907115697860718, -0.6405548453330994], [0.15718036890029907, -0.2107512205839157, 0.040537554770708084, 0.2679116725921631, 0.008798916824162006, -0.5005970001220703, -0.2640863358974457, -0.6327452659606934, 0.25552359223365784, 0.35718077421188354, -0.2672664523124695, 0.14259590208530426, 0.6194848418235779, -0.000493116385769099, -0.05657406896352768, 0.071030393242836, 0.047741975635290146, -0.4541108012199402, -0.6668378710746765, -0.20488983392715454, -0.22697585821151733, -0.5738051533699036, -0.3815624713897705, -0.09185323864221573, -0.6312580704689026, 0.01034090481698513, -0.25686103105545044, 0.695685625076294, 0.04886690899729729, -0.19405202567577362, -0.12429482489824295, -0.5397570729255676], [-0.24231573939323425, -0.6331104040145874, 0.09067019075155258, 0.16034984588623047, -0.19412542879581451, -1.0051167011260986, -0.572297990322113, -1.2773387432098389, 0.44936802983283997, 0.13981635868549347, -0.2057994306087494, 0.45853862166404724, 0.48068132996559143, -0.20940479636192322, -0.3766578733921051, -0.47482818365097046, -0.00021884737361688167, -0.3325658440589905, 0.05117033049464226, -0.22440069913864136, -0.582010805606842, -0.9077490568161011, -0.34176790714263916, -0.49357208609580994, -0.5901854038238525, 0.2710328996181488, -0.19457393884658813, 0.1349015086889267, -0.11535564810037613, 0.031145118176937103, 0.4027537405490875, -1.252946138381958], [0.25007468461990356, -0.19646479189395905, -0.17091569304466248, 0.26917508244514465, -0.04561647027730942, -1.3862885236740112, -0.7701466679573059, -1.1282999515533447, 0.31868281960487366, 0.2641632854938507, -0.2017831653356552, -0.09056135267019272, 0.47510379552841187, -0.3275308310985565, -0.9977153539657593, -0.331428587436676, 0.13543912768363953, -0.09373975545167923, -0.21685495972633362, -0.48483893275260925, -0.9942513108253479, -0.8120719790458679, -0.4990280568599701, 0.18200671672821045, 0.05752287432551384, -0.0569726824760437, -0.21063494682312012, -0.42044758796691895, -0.8423883318901062, -0.17007695138454437, -0.1306566447019577, -0.41808241605758667], [-0.10381890088319778, -0.25002825260162354, 0.05781823769211769, 0.0009422628791071475, -0.13945229351520538, 0.09978124499320984, -0.5867007374763489, -0.4841187000274658, 0.1865265965461731, -0.16341005265712738, -0.6701163053512573, -0.010357690043747425, 0.34635376930236816, -0.1749243587255478, -1.018075704574585, -0.2601940929889679, -0.2915298342704773, -0.10819300264120102, -0.3498677909374237, -1.17721426486969, -0.5084001421928406, -0.6084606051445007, -0.4050043225288391, -0.5055273175239563, -0.5735382437705994, 0.13556179404258728, -0.44955289363861084, -0.33757197856903076, -0.3539019823074341, -1.1266988515853882, 0.40774479508399963, -0.4414171576499939], [-0.15170666575431824, 0.22472932934761047, 0.24845896661281586, -0.4622519910335541, 0.45816701650619507, -0.22522573173046112, -0.652573823928833, -0.6435282230377197, 0.2970820367336273, 0.01993144117295742, -0.9945747256278992, 0.03221339359879494, -0.2975514531135559, 0.05146047845482826, -1.2076325416564941, -0.010546394623816013, -0.560573160648346, -0.6592423915863037, -1.040652871131897, -1.1356379985809326, -0.8316748142242432, -0.26832953095436096, -0.7928312420845032, -0.35754290223121643, 0.09835676848888397, 0.07147148996591568, -0.1876649260520935, -0.47511953115463257, -0.6622005701065063, -0.9376774430274963, 0.18742647767066956, 0.07678290456533432], [0.4405754804611206, -0.5452019572257996, -0.17040307819843292, -0.185280442237854, -0.09277068078517914, -0.5760883688926697, -0.5290829539299011, -0.73610520362854, 0.04151631519198418, -0.015957439318299294, -0.3769192695617676, -0.4986181855201721, 0.1446719914674759, 0.33777961134910583, -0.8013770580291748, -0.33702149987220764, -0.09531445801258087, -0.021618817001581192, -0.7920953035354614, -0.6470328569412231, -0.62651526927948, -0.5046870112419128, -0.27636900544166565, -0.2933526635169983, -0.5800411701202393, 0.007756803184747696, -0.43272507190704346, -0.09376855194568634, -0.2565511167049408, -0.6969649791717529, -0.40145209431648254, -0.05605664476752281], [-0.2414175122976303, 0.42533010244369507, 0.13183295726776123, -0.07947581261396408, -0.07687195390462875, 0.02638893574476242, -0.2877463400363922, -0.184522345662117, -0.4444853961467743, 0.007434157654643059, -0.8626611232757568, -0.8155596852302551, 0.022698746994137764, 0.24986696243286133, -0.45299407839775085, -0.4367714822292328, 0.02429519221186638, 0.18204034864902496, -0.4133366346359253, -1.0370861291885376, 0.2233315408229828, 0.03338035196065903, -0.04393094405531883, 0.03643129765987396, -0.1391548216342926, -0.14514996111392975, -0.07864230126142502, -0.7167944312095642, -0.32985156774520874, -0.6892493367195129, -0.03972882032394409, 0.151450976729393], [-0.23481053113937378, 0.32160481810569763, -0.05508190020918846, -0.11005757749080658, 0.0919073298573494, -0.37165048718452454, -0.8385152816772461, -0.349235862493515, -0.06998538970947266, -0.4319266676902771, -0.17478016018867493, 0.1347631812095642, -0.08572077006101608, -0.07364583760499954, -0.5853890776634216, -0.23049061000347137, -0.3765547573566437, -0.30943822860717773, -0.7841991782188416, -0.05053853243589401, -0.7646021246910095, -0.32360148429870605, -0.565975546836853, -0.1841949075460434, -0.062479548156261444, -0.1900857388973236, 0.33546873927116394, -0.907048225402832, -0.6758177876472473, -0.9008945226669312, -0.45263227820396423, -0.8135370016098022], [0.19937199354171753, -0.4213062822818756, 0.1669003665447235, -0.1008727103471756, 0.07213196903467178, -0.7475371360778809, -1.3985294103622437, -0.9013206362724304, 0.2597055435180664, -0.1366155594587326, -0.29209619760513306, -0.3724646270275116, 0.06056908890604973, -0.7279868721961975, -0.8189445734024048, -0.16777268052101135, 0.06773645430803299, -0.8256510496139526, -0.804465651512146, -0.7897552847862244, -0.44575947523117065, -0.7872784733772278, -0.6368598937988281, -0.08341338485479355, -0.22308306396007538, -0.08454851806163788, -0.04972377046942711, 0.14748325943946838, -0.40813779830932617, -0.5294064879417419, -0.09585930407047272, -0.6019318699836731], [-0.31785449385643005, 0.29571592807769775, 0.2564990222454071, 0.0983998030424118, 0.001794555690139532, -0.2805434763431549, -0.25810572504997253, -0.2545989751815796, -0.1807771474123001, 0.04009818285703659, -0.0736856460571289, -0.3820692002773285, 0.42076733708381653, -0.10097186267375946, -0.7289348840713501, -0.1061476618051529, 0.07707205414772034, 0.050832103937864304, -0.08795721083879471, -0.12126599997282028, 0.009363476186990738, -0.19774727523326874, -0.3058338165283203, 0.32211366295814514, -0.12059005349874496, -0.11682677268981934, -0.32418426871299744, -0.3742235600948334, -0.2896172106266022, -0.693320095539093, 0.1008521020412445, -0.2039775401353836], [0.39351823925971985, 0.27031105756759644, 0.21873368322849274, 0.0033958491403609514, 0.05521257594227791, 0.11854612827301025, 0.018991969525814056, -0.0802125334739685, -0.24254551529884338, 0.4103052616119385, -0.19738416373729706, -0.3069663643836975, 0.2182951271533966, 0.33860713243484497, -0.17144775390625, -0.40383100509643555, 0.1513786017894745, 0.37115204334259033, 0.22932198643684387, -0.07088123261928558, 0.2085798978805542, 0.027041466906666756, -0.30301886796951294, 0.28674250841140747, 0.24045270681381226, 0.07182334363460541, -0.5343970060348511, -0.07655326277017593, -0.25605931878089905, -0.6004331111907959, 0.18096548318862915, 0.10883692651987076], [-0.023834319785237312, -0.496722936630249, 0.17657826840877533, 0.03812283277511597, -0.03079647570848465, -0.40387406945228577, -0.9979376792907715, -1.099448800086975, -0.08040966093540192, 0.021984584629535675, -0.2734591066837311, -0.23403823375701904, 0.021729901432991028, 0.0550353117287159, -0.5251829028129578, -0.07313904166221619, 0.41306638717651367, -0.0622343011200428, -0.38940101861953735, -0.4588283896446228, -0.6127408146858215, -0.8727070093154907, -0.30912959575653076, -0.3688849210739136, -0.04698648303747177, 0.5953163504600525, -0.44321921467781067, 0.5382187962532043, -0.30760782957077026, -0.29384922981262207, -0.16386686265468597, -1.0589909553527832], [0.15231776237487793, -0.7446554899215698, -0.03572402894496918, 0.2634875774383545, 0.039417535066604614, -1.2096234560012817, -0.7870582342147827, -1.608238697052002, 0.004955610726028681, 0.027306819334626198, -0.5906583070755005, 0.2706179618835449, 0.5070319771766663, -0.09366525709629059, -0.36878833174705505, 0.038527827709913254, -0.0005341873038560152, -0.3475181758403778, -0.5917599201202393, -0.36842280626296997, -0.3322731554508209, -0.8867331743240356, -0.36578744649887085, -0.039907392114400864, 0.43073034286499023, 0.11577919125556946, -0.20037902891635895, 0.5335570573806763, -0.1566365659236908, -0.4031074345111847, 0.2722472846508026, -1.011997938156128], [0.14568309485912323, -0.5479171276092529, 0.31453755497932434, 0.26203760504722595, 0.2704809308052063, -0.7291339039802551, -0.8859571814537048, -0.6831642985343933, -0.18959514796733856, 0.1887938380241394, -0.2028569132089615, -0.2852388322353363, 0.16914227604866028, 0.2869562804698944, -0.3793257176876068, -0.2469080537557602, -0.18203037977218628, -0.45381346344947815, -0.7604291439056396, -0.08122050762176514, -1.0356934070587158, -0.47703975439071655, -0.3144724667072296, -0.1358594000339508, -0.6756458282470703, -0.07764767110347748, -0.7284645438194275, 0.020890062674880028, -0.6917943954467773, -0.18364767730236053, 0.2790483832359314, -0.909786581993103], [0.19700150191783905, 0.3422095775604248, 0.0006065174238756299, 0.06974253803491592, 0.5203158855438232, 0.08908507972955704, 0.3790450394153595, 0.6344400644302368, -0.5995014309883118, 0.009170923382043839, 0.1357840895652771, -0.09141837060451508, -0.377890944480896, 0.09252174198627472, -0.28036826848983765, 0.14994773268699646, 0.12573876976966858, 0.4891972839832306, 0.41791701316833496, -0.14709684252738953, -0.29916173219680786, -0.06627678871154785, 0.4515973627567291, 0.7178865075111389, 0.05590701103210449, 0.20101338624954224, 0.7674127221107483, -0.6679073572158813, -0.2290419638156891, -0.13621994853019714, 0.08423732966184616, 0.23598183691501617], [-0.16750310361385345, 0.04699263349175453, 0.25101572275161743, -0.07780525833368301, -0.04980805888772011, 0.15997329354286194, 0.23088133335113525, 0.3620452284812927, -0.053150635212659836, -0.02783876843750477, -0.33271604776382446, 0.2736125588417053, -0.520911455154419, 0.23145148158073425, 0.14866574108600616, 0.07232420146465302, -0.40069806575775146, 0.4666684567928314, -0.42161622643470764, -0.09090430289506912, -0.0318526066839695, 0.4356478452682495, -0.43829965591430664, -0.029949204996228218, 0.14699266850948334, 0.2901574969291687, 0.07568352669477463, -0.39792418479919434, -0.4098268151283264, -0.16974326968193054, -0.035171058028936386, 0.6002846956253052], [-0.25933948159217834, 0.018863199278712273, -0.06915298849344254, -0.05508379638195038, -0.07516353577375412, -0.07362458854913712, 0.24686715006828308, 0.632724404335022, 0.07722561061382294, 0.05261226370930672, -0.4778802990913391, 0.2859777808189392, -0.8930198550224304, 0.6254311800003052, 0.11750556528568268, -0.5742486715316772, -0.5006166696548462, 0.38659876585006714, 0.4285898208618164, -0.37150120735168457, 0.1438370645046234, 0.5930547118186951, -0.3254888951778412, 0.4384518563747406, 0.030211007222533226, -0.2902740240097046, 0.47307342290878296, -0.8459683060646057, 0.4850344657897949, -0.027206575497984886, 0.1878076195716858, 0.10072190314531326], [-0.3783789575099945, 0.02340651862323284, -0.26893743872642517, -0.26318058371543884, 0.40210244059562683, -0.3482041358947754, -0.22515936195850372, -0.4842511713504791, -0.2600506544113159, -0.34829264879226685, 0.06524818390607834, -0.14299531280994415, 0.31649401783943176, 0.05048410966992378, 0.3246710002422333, -0.13118284940719604, 0.07017406821250916, -0.39674562215805054, -0.2421671599149704, 0.2823934555053711, -0.16263601183891296, -0.714560329914093, 0.3071161210536957, -0.12616410851478577, -0.0502256341278553, -0.38484594225883484, -0.33826518058776855, 0.5212163329124451, 0.15845540165901184, -0.16390074789524078, 0.32273563742637634, -0.6897713541984558], [-0.31260913610458374, -0.09711859375238419, 0.053687579929828644, -0.560026228427887, -0.4287618398666382, -0.680441677570343, -0.3215106427669525, -0.47391292452812195, 0.1483628749847412, -0.36639416217803955, 0.07232804596424103, 0.16797734797000885, 0.4110565483570099, 0.09839800000190735, 0.08877202868461609, -0.10435973107814789, -0.03634144365787506, -0.24814368784427643, 0.1319418102502823, 0.26895272731781006, -0.20553848147392273, -0.35051554441452026, 0.14176447689533234, -0.06939316540956497, -0.3452011048793793, -0.24593481421470642, -0.29235759377479553, 0.43479201197624207, 0.4877384603023529, -0.0512426421046257, -0.6243481040000916, -0.38901010155677795], [-0.019694365561008453, 0.18207241594791412, 0.010594189167022705, -0.17012690007686615, -0.07239219546318054, 0.08053167909383774, -0.29653307795524597, 0.33675432205200195, 0.5594971776008606, 0.010067963972687721, 0.08831652998924255, 0.001988152740523219, -0.8228735327720642, 0.14652270078659058, -0.23302946984767914, 0.010526076890528202, -0.41746386885643005, 0.1527886837720871, -0.05298115313053131, -0.0688718780875206, 0.30024275183677673, -0.05297764018177986, -0.026338059455156326, 0.5198251605033875, -0.3190300464630127, -0.17376834154129028, 0.09716661274433136, -0.4732031524181366, -0.15053975582122803, -0.05299605429172516, -0.1556721031665802, 0.5708102583885193], [-0.2533077001571655, -0.38618791103363037, -0.16452668607234955, -0.3696926534175873, -0.20169970393180847, -0.27814871072769165, -0.45051872730255127, -0.26234546303749084, 0.13497066497802734, 0.08864467591047287, 0.06502243876457214, 0.13732178509235382, 0.39154475927352905, 0.0004315832338761538, 0.3836653530597687, -0.19791348278522491, 0.01272002886980772, -0.1805078089237213, -0.38595330715179443, -0.17227409780025482, -0.3085584044456482, -0.42038896679878235, 0.04724796116352081, 0.09363587200641632, 0.25825056433677673, -0.036120831966400146, -0.2675696611404419, 0.6523192524909973, 0.16355536878108978, 0.48893195390701294, -0.06122695282101631, -0.7369157075881958], [-0.2980763018131256, 0.13953162729740143, 0.2207242101430893, -0.16108548641204834, -0.19762037694454193, 0.20718546211719513, -0.09172531962394714, 0.33864423632621765, 0.11492186784744263, -0.2520075738430023, -0.031092332676053047, -0.1866157501935959, -0.4696166515350342, 0.6228759288787842, -0.18436139822006226, 0.046852223575115204, -0.02047974057495594, 0.09352477639913559, -0.5349605083465576, -0.030847052112221718, 0.23438093066215515, 0.32547006011009216, 0.04453612491488457, 0.26652154326438904, -0.036164652556180954, -0.34602072834968567, 0.2351977676153183, -0.40985116362571716, -0.5712919235229492, -0.2176375389099121, 0.5036301612854004, 0.6062033772468567], [0.36321941018104553, -0.3179144561290741, 0.14267440140247345, 0.321418434381485, 0.004274066537618637, -0.15942257642745972, 0.01405103038996458, -0.2817387282848358, -0.1474146693944931, -0.100799061357975, -0.0864311009645462, -0.11499752104282379, 0.6042012572288513, 0.24577508866786957, 0.10538541525602341, -0.061912935227155685, 0.17709943652153015, -0.10469371825456619, 0.6444799900054932, 0.13240915536880493, 0.25427836179733276, -0.0433194674551487, -0.15195494890213013, -0.6328707933425903, -0.19920293986797333, 0.1600486785173416, 0.45976394414901733, 0.5039530396461487, -0.08341339230537415, -0.27032673358917236, -0.07309675216674805, -0.7052038311958313], [0.25979939103126526, 0.5824305415153503, 0.11226702481508255, -0.1163865178823471, 0.33337345719337463, -0.026102837175130844, 0.19968542456626892, 0.3820417821407318, 0.223284512758255, -0.18233507871627808, 0.0032065310515463352, -0.16670265793800354, -0.4648619592189789, -0.10444094985723495, -0.4134426414966583, 0.23002520203590393, -0.04648282378911972, 0.49650681018829346, -0.3063258230686188, -0.08822192251682281, 0.3560686707496643, 0.37224945425987244, 0.22192399203777313, 1.283535122871399, -0.13852040469646454, 0.11678217351436615, 0.9053189754486084, -0.6163901090621948, -0.1858568787574768, 0.34794625639915466, -0.6170807480812073, 0.11396459490060806], [-0.2397567331790924, 0.7133707404136658, -0.348114937543869, 0.31835633516311646, 0.013791253790259361, 0.3589819073677063, 0.11313631385564804, 0.5026859641075134, -0.012887355871498585, -0.07155796885490417, -0.2466219961643219, 0.27348703145980835, -0.7593111991882324, -0.45151278376579285, -0.27113819122314453, 0.007441915106028318, 0.277479350566864, 0.22648465633392334, 0.12662461400032043, -0.3014480471611023, 0.43350809812545776, 0.03685300797224045, -0.46800974011421204, 0.9665653109550476, -0.25578972697257996, 0.4389304518699646, 0.12627191841602325, -0.7143739461898804, -0.41495901346206665, 0.2838231921195984, -0.1536235511302948, 0.3440796732902527], [0.09081274271011353, 0.14126937091350555, 0.08004888892173767, -0.18538548052310944, 0.19908484816551208, 0.08878365904092789, -0.1599346250295639, -0.862480103969574, -0.1944105178117752, -0.15546664595603943, 0.16021622717380524, 0.4581983685493469, 0.2756778299808502, 0.24571144580841064, 0.08254537731409073, 0.03239421546459198, -0.012762892991304398, 0.15303805470466614, -0.09670833498239517, 0.18634101748466492, 0.0456775426864624, -0.3099614679813385, 0.11206866800785065, -0.2761714458465576, -0.10980257391929626, 0.05898245796561241, 0.06936554610729218, 0.34949755668640137, -0.04447762295603752, 0.5189940929412842, -0.1886843591928482, -0.3466249406337738], [0.2056424915790558, -0.41083982586860657, 0.0731092020869255, 0.10330650210380554, -0.2159239649772644, 0.4010602831840515, -0.022963745519518852, -0.3091658055782318, 0.013003917410969734, 0.2445758730173111, 0.2725650370121002, 0.19283542037010193, 0.5849573612213135, -0.3291117548942566, 0.14952899515628815, -0.15505729615688324, -0.05852722376585007, 0.11279862374067307, 0.3765730857849121, 0.20392398536205292, -0.37119370698928833, -0.24545983970165253, -0.24585497379302979, -0.8761446475982666, 0.127837672829628, -0.4075389802455902, -0.061229538172483444, 0.4712636172771454, 0.09572143852710724, -0.13091520965099335, 0.05585648864507675, -0.6228310465812683], [0.054603543132543564, 0.5363826751708984, -0.3750056028366089, -0.050987474620342255, -0.9497635364532471, 0.588017463684082, 0.14812900125980377, 0.7467188239097595, 0.34644612669944763, -0.23359160125255585, -0.1337491124868393, -0.4084114134311676, -0.7310199737548828, -0.21968960762023926, -0.10937581956386566, -0.25387874245643616, -0.06027970090508461, 0.24085372686386108, 0.29977378249168396, -0.37558579444885254, 0.1155659481883049, 0.34218698740005493, 0.14781558513641357, -0.40097716450691223, 0.1505495309829712, 0.2759227752685547, -0.5306817889213562, -0.39187440276145935, 0.16491295397281647, -0.40830346941947937, -0.059200678020715714, 0.27434244751930237], [0.13235051929950714, -0.011318000964820385, -0.10754812508821487, -0.04481208324432373, 0.026404086500406265, -0.09287968277931213, -0.052518330514431, 0.6196227073669434, -0.1377427726984024, -0.1700611710548401, -0.15327560901641846, -0.37377849221229553, -0.2535415589809418, 0.05019563436508179, -0.13980409502983093, 0.10679949820041656, 0.021018564701080322, 0.08480142802000046, -0.3296075761318207, 0.14222919940948486, 0.3758000433444977, 0.3962671160697937, 0.060363635420799255, 0.2898605167865753, -0.09883499890565872, 0.22598731517791748, -0.0728142261505127, -0.4899226725101471, 0.22286167740821838, -0.3443354070186615, 0.331188827753067, 0.4884592592716217], [-0.22652018070220947, -0.3245311379432678, -0.38199350237846375, 0.4308241903781891, 0.20832128822803497, 0.42790696024894714, -0.021348223090171814, 0.6856484413146973, 0.25954318046569824, -0.3277631998062134, -0.047441933304071426, 0.13714680075645447, -0.4603886306285858, 0.12640699744224548, -0.2459588497877121, 0.3468620777130127, 0.06290634721517563, 0.09752277284860611, -0.3932790756225586, -0.3646814525127411, 0.09767436236143112, 0.2234271764755249, 0.3789328932762146, 0.08639153093099594, 0.3006027340888977, -0.4034382998943329, -0.29055503010749817, -0.14482751488685608, 0.13282741606235504, -0.27998170256614685, -0.3225947618484497, 0.36857306957244873], [-0.434707373380661, 0.4754289984703064, -0.05917100980877876, -0.009595882147550583, 0.19878806173801422, -0.08792634308338165, 0.143324613571167, 0.7640986442565918, 0.010834567248821259, -0.27258235216140747, -0.18073362112045288, -0.4401366114616394, -0.4171249568462372, -0.43149706721305847, -0.014338336884975433, 0.19652089476585388, 0.02045377343893051, 0.1376880258321762, -0.2158953696489334, -0.3327205777168274, 0.04358755052089691, 0.09339812397956848, -0.2787536382675171, 0.4067748188972473, -0.03993971273303032, 0.13612161576747894, 0.4922441244125366, -0.6262054443359375, 0.14703942835330963, -0.22156405448913574, 0.11678999662399292, 0.3425530791282654], [-0.1796083301305771, -0.21760296821594238, 0.2943331301212311, 0.3452807366847992, 0.23317252099514008, -0.22982214391231537, 0.05340376868844032, -0.3425566852092743, 0.22000569105148315, 0.003118682187050581, 0.3164218068122864, 0.16618436574935913, 0.5375550389289856, -0.32664573192596436, 0.49342474341392517, -0.031896404922008514, 0.041685670614242554, -0.38544782996177673, -0.2597990334033966, -0.07731179893016815, -0.5371040105819702, -0.794761598110199, -0.26651421189308167, -0.16357485949993134, -0.010624026879668236, -0.1056794598698616, 0.09752043336629868, 0.6437172293663025, -0.13454444706439972, 0.008469928056001663, -0.4923909306526184, -0.5408202409744263], [-0.2099330574274063, -0.24899841845035553, -0.10012402385473251, -0.07263895869255066, 0.35540369153022766, 0.0014590995851904154, 0.294478178024292, -0.449613094329834, -0.016546038910746574, 0.14612731337547302, 0.016967371106147766, 0.11919818818569183, 0.62702876329422, 0.11501312255859375, 0.3042847812175751, 0.4915432631969452, -0.256689190864563, 0.17831197381019592, 0.04216684028506279, 0.06786981225013733, -0.6436448097229004, -0.18455994129180908, -0.1825067400932312, -0.514664351940155, 0.09714287519454956, 0.1272924840450287, 0.005991246551275253, 0.37938302755355835, 0.0602225586771965, 0.12256219238042831, -0.28128114342689514, -0.31920069456100464], [-0.11759687960147858, -0.6127867102622986, -0.2142639458179474, -0.40369224548339844, 0.16009850800037384, 0.25646546483039856, -0.1250489056110382, -0.35855624079704285, 0.2912973463535309, 0.022772956639528275, -0.09087160229682922, 0.049650877714157104, 0.5931614637374878, 0.3345864713191986, 0.3212133049964905, 0.28544002771377563, -0.05690660700201988, -0.3508143424987793, 0.18289707601070404, 0.053936492651700974, 0.17826424539089203, -0.5423335433006287, 0.0036080405116081238, -0.7744948863983154, 0.09224733710289001, -0.004404377657920122, -0.28267011046409607, 0.7235013246536255, 0.23881521821022034, -0.24916626513004303, 0.003565950086340308, -0.7080107927322388], [0.11625886708498001, 0.5843344330787659, 0.07690330594778061, -0.2547760009765625, -0.2487482726573944, 0.11444640904664993, 0.0983489602804184, 0.5154462456703186, -0.44467318058013916, 0.0442274771630764, -0.6514683961868286, -0.10846357047557831, -0.4634101986885071, -0.19482770562171936, -0.5300429463386536, -0.6856460571289062, 0.031055381521582603, 0.1303340196609497, -0.35042890906333923, 0.3268381953239441, 0.2171729952096939, 0.1608116626739502, 0.23207403719425201, 0.2995489835739136, 0.030389586463570595, -0.12953150272369385, 0.10319434106349945, -0.5162844061851501, -0.402667760848999, 0.23140372335910797, 0.09868014603853226, 0.40659019351005554], [0.17304208874702454, -0.6255508065223694, 0.08130467683076859, 0.17452338337898254, 0.37447673082351685, 0.015679510310292244, -0.13951276242733002, -0.4018513560295105, 0.5678004026412964, 0.2324981987476349, 0.4149491488933563, -0.3059735894203186, 0.4134241044521332, -0.31094783544540405, 0.28045523166656494, -0.08370956778526306, -0.008541707880795002, 0.1507500857114792, 0.3164192736148834, 0.09697090834379196, -0.641461193561554, -0.5823689699172974, -0.223494753241539, -0.3705146610736847, 0.14579397439956665, 0.09416752308607101, 0.015191244892776012, 0.4696853458881378, 0.327823281288147, -0.4098092019557953, 0.017687464132905006, -0.34843507409095764], [0.10487274080514908, 0.30419212579727173, -0.06879454106092453, -0.05312876030802727, 0.31225740909576416, 0.18626785278320312, 0.16138212382793427, 0.29363778233528137, 0.07981997728347778, -0.12029560655355453, -0.4917246699333191, -0.3872002363204956, -0.292672336101532, -0.1702854484319687, -0.08270697295665741, 0.3371913731098175, -0.22299052774906158, -0.024532319977879524, 0.03449109196662903, -0.31383711099624634, 0.2318306863307953, 0.4003623127937317, -0.039893899112939835, 0.34507107734680176, -0.5819990038871765, 0.17190638184547424, 0.3726789653301239, -0.6064064502716064, -0.6225417852401733, 0.16150814294815063, -0.33447301387786865, 0.5007778406143188], [-0.18550007045269012, -0.3792407214641571, -0.0429471880197525, 0.4506077468395233, -0.03840211406350136, 0.09763842076063156, 0.37286537885665894, -0.520348846912384, 0.045404668897390366, 0.011191483587026596, -0.004547568503767252, 0.13091754913330078, 0.9552827477455139, -0.2938660681247711, 0.25433269143104553, -0.057403549551963806, 0.37243303656578064, 0.00215070229023695, -0.24965162575244904, -0.24274440109729767, -0.300422728061676, 0.12419100850820541, -0.3904138207435608, -0.49340641498565674, -0.07158350944519043, 0.39270326495170593, -0.16774480044841766, 0.7331796884536743, 0.1583348661661148, 0.1190011203289032, -0.005523176398128271, -0.4141666293144226], [0.11462219059467316, 0.05077872425317764, -0.09527488052845001, 0.17108619213104248, -0.46570536494255066, 0.23522497713565826, -0.34809282422065735, 0.5446574687957764, -0.14509721100330353, 0.08103187382221222, -0.07069849222898483, -0.03705416992306709, -0.07930164039134979, -0.19625456631183624, -0.36330848932266235, -0.10831395536661148, -0.09223245084285736, 0.09940274059772491, -0.40839844942092896, 0.010955162346363068, 0.25864240527153015, 0.2108854055404663, 0.5898352861404419, 0.4073539674282074, -0.27269792556762695, 0.18152549862861633, 0.3338660001754761, -0.5546111464500427, -0.10284880548715591, -0.081379733979702, 0.48449718952178955, 0.7581466436386108], [-0.4173501133918762, 0.2249264270067215, -0.226894348859787, -0.06668920814990997, 0.24979209899902344, -0.11776934564113617, 0.01944776065647602, 0.4258277118206024, 0.18192839622497559, -0.20078997313976288, -0.12591996788978577, 0.38427016139030457, -0.16421549022197723, 0.05162152275443077, 0.28152820467948914, 0.06743796169757843, 0.35578814148902893, 0.29058974981307983, -0.28811272978782654, -0.21594607830047607, 0.17808569967746735, 0.035490527749061584, 0.1996532678604126, 0.36398327350616455, -0.15110477805137634, -0.294503390789032, 0.07258396595716476, -0.7650467753410339, -0.03461308032274246, -0.08611896634101868, 0.1281406581401825, 0.5396888852119446], [-0.1060103178024292, -0.34333258867263794, -0.07867106050252914, -0.28249505162239075, -0.07967118173837662, 0.22539788484573364, 0.25908470153808594, -0.5374044179916382, -0.3372044861316681, 0.11616072058677673, 0.8199983835220337, 0.2740202844142914, 0.7986475825309753, 0.2662320137023926, 0.34582093358039856, 0.25102248787879944, -0.006292931269854307, -0.46435052156448364, 0.4027248024940491, -0.1977889984846115, -0.028614604845643044, -0.11591710150241852, -0.37539416551589966, -0.8385926485061646, 0.5261215567588806, -0.3048636019229889, 0.1567324995994568, 0.10124585032463074, 0.3941219747066498, -0.03935634717345238, 0.53773432970047, -0.4217289388179779], [-0.06011394411325455, -0.3237104117870331, 0.6274687051773071, -0.27047044038772583, -0.49196821451187134, -0.6064311265945435, -0.6150678396224976, -0.6325584650039673, -0.15768560767173767, -0.05862532556056976, 0.25718677043914795, -0.34498000144958496, 0.11743789911270142, 0.30764976143836975, -0.07137443125247955, 0.5487268567085266, 0.6435997486114502, -0.39097994565963745, 0.3141736686229706, -0.05389738455414772, -0.318861722946167, -0.22542035579681396, 0.3243270814418793, -0.7077672481536865, 0.3009333610534668, -0.2366413176059723, -0.05104672536253929, 0.5877600908279419, 0.7095316052436829, 0.021502166986465454, 0.07225294411182404, -0.4642487168312073], [0.14934764802455902, -0.07096441835165024, -0.22974909842014313, 0.2935115694999695, 0.3564733564853668, 0.019105147570371628, -0.4218030869960785, -0.36960381269454956, 0.463739275932312, -0.38487115502357483, -0.025365764275193214, -0.17176519334316254, 0.09332972019910812, -0.5679906606674194, -0.15187563002109528, 0.18727636337280273, 0.5323278903961182, -0.024565160274505615, 0.058472342789173126, 0.14462514221668243, -0.457876980304718, -0.4097186028957367, 0.02089846134185791, -0.46178138256073, -0.3625023066997528, 0.09692501276731491, 0.6693788170814514, 0.5239459872245789, 0.49301305413246155, 0.5266206860542297, -0.1217801496386528, -0.6310988068580627], [0.0608050711452961, 0.6815361976623535, 0.19086292386054993, 0.3307208716869354, 0.15766541659832, 0.3439796566963196, -0.0620754100382328, 0.39727622270584106, 0.09902538359165192, 0.03675541654229164, -0.46519821882247925, -0.04527989774942398, -0.7924312949180603, 0.2845956087112427, -0.13662895560264587, 0.012618975713849068, 0.18887141346931458, 0.045900799334049225, 0.31025660037994385, 0.1183881163597107, -0.10799774527549744, 0.34472501277923584, -0.14296135306358337, 0.40068623423576355, 0.013359139673411846, -0.08810938894748688, 0.12899358570575714, -1.1094579696655273, -0.0715259462594986, 0.09044044464826584, 0.37139707803726196, 0.449421226978302], [0.14680054783821106, -0.2127189040184021, -0.35898324847221375, 0.07538273185491562, -0.27015796303749084, 0.3077448904514313, 0.1313028633594513, -0.2929844260215759, -0.18509358167648315, 0.19418001174926758, -0.01279379427433014, -0.0033506741747260094, 0.7216935753822327, 0.1896984875202179, 0.28220194578170776, -0.03125816956162453, 0.16195601224899292, -0.21772561967372894, 0.2527652382850647, 0.06913507729768753, -0.07668387144804001, -0.3559562563896179, -0.10939008742570877, -0.22466760873794556, -0.08392438292503357, -0.3648702800273895, -0.08694877475500107, 0.45540139079093933, 0.15609891712665558, 0.13919483125209808, -0.38473182916641235, -0.7187535762786865], [-0.22004680335521698, -0.16935980319976807, 0.045294541865587234, 0.2987389862537384, -0.4749313294887543, -0.36291614174842834, 0.19004927575588226, -0.4476955831050873, 0.2958035469055176, -0.3297237753868103, -0.2691565155982971, -0.7251017093658447, 0.3418388366699219, 0.18111175298690796, -0.2314840406179428, -0.08188124746084213, -0.17335380613803864, -0.11829471588134766, 0.06619617342948914, 0.40900281071662903, -0.13052327930927277, -0.3462633490562439, -0.117703877389431, -0.769803524017334, -0.0785767138004303, -0.2795485258102417, 0.033217400312423706, 0.6930633187294006, 0.3798389732837677, 0.05884081497788429, -0.24211198091506958, -0.6817241907119751], [-0.517676055431366, 0.188337042927742, 0.21706806123256683, -0.08102244883775711, -0.24011941254138947, -0.042431630194187164, -0.37215444445610046, 0.08920542150735855, -0.1827130764722824, 0.022729650139808655, -0.043788228183984756, -0.13229809701442719, 0.45274120569229126, 0.4292445182800293, -0.5568839311599731, -0.7956737875938416, -0.29664161801338196, 0.46229320764541626, -0.5940570831298828, -0.35488250851631165, -0.2316276729106903, -0.04809563606977463, 0.0009248345158994198, 0.4506148099899292, -0.5409189462661743, -0.16809365153312683, -0.007803135085850954, 0.6040948033332825, -0.10020921379327774, -0.46071580052375793, -0.053660351783037186, -0.33766797184944153], [0.016968153417110443, 0.43408071994781494, 0.4589138627052307, -0.19583764672279358, -0.40520215034484863, 0.037270184606313705, -0.01661219820380211, -0.30024340748786926, -0.09515171498060226, -0.17175284028053284, -0.3705260753631592, -0.10982639342546463, 0.6193028688430786, -0.18862229585647583, -0.6718399524688721, -0.06845732778310776, 0.06967444717884064, -0.0765763372182846, -0.4289838373661041, -0.6604932546615601, 0.04201259836554527, 0.08130694925785065, 0.25539258122444153, 0.4577890932559967, 0.19323432445526123, 0.06956733018159866, 0.3369269371032715, 0.3619711995124817, 0.13904722034931183, -0.47124210000038147, 0.5729039311408997, 0.05363636463880539], [0.04868335276842117, 0.5378447771072388, -0.024627549573779106, -0.4239782392978668, 0.13826802372932434, -0.059016305953264236, -0.04647807031869888, -0.10035234689712524, -0.22037044167518616, -0.47606179118156433, 0.1806408017873764, -0.45216381549835205, 0.19066840410232544, 0.1629754900932312, 0.03510880470275879, -0.08146139979362488, 0.029096657410264015, 0.3857914209365845, -0.19962090253829956, -0.5263063907623291, 0.3520352840423584, 0.24143844842910767, 0.06608447432518005, 0.24635910987854004, -0.18636967241764069, 0.6911393404006958, -0.32757633924484253, 0.2630904018878937, -0.0423448383808136, -0.3016898036003113, -0.4938969910144806, 0.00838308222591877], [0.27629396319389343, 0.38396957516670227, 0.28050515055656433, -0.3031177818775177, -0.3744123876094818, 0.010630619712173939, -0.394487202167511, -0.6057988405227661, 0.34805771708488464, 0.060505207628011703, -0.253834992647171, -0.2372441440820694, 0.9168838858604431, 0.10973181575536728, -0.5628572106361389, -0.28206247091293335, 0.28657597303390503, 0.30012276768684387, -0.5321142673492432, -0.7768439650535583, -0.3872247636318207, 0.34709253907203674, -0.053452301770448685, 0.41564637422561646, 0.5243014097213745, 0.22715908288955688, 0.4356822669506073, 0.514676034450531, -0.11564167588949203, -0.5384887456893921, -0.37640824913978577, -0.19448377192020416], [-0.18941278755664825, -0.005891482811421156, -0.07578378170728683, 0.12838122248649597, -0.09545610100030899, 0.08226537704467773, 0.04998528212308884, -0.7557122707366943, -0.41020599007606506, 0.3861646056175232, 0.03849469870328903, 0.21935635805130005, 0.24152551591396332, 0.04520726203918457, -0.47534075379371643, -0.10333878546953201, 0.3035752773284912, -0.06560902297496796, 0.05945061147212982, -0.24851760268211365, -0.06624000519514084, 0.29798173904418945, -0.18887721002101898, 0.30813753604888916, -0.17906907200813293, -0.03476543724536896, 0.1819377839565277, -0.15681707859039307, 0.2523873746395111, -0.5215785503387451, 0.4664779603481293, 0.05223776027560234], [0.1314588338136673, -0.3435237407684326, 0.05641902983188629, 0.06002866104245186, 0.06591728329658508, 0.21371705830097198, -0.3777116537094116, 0.2682564854621887, 0.28128865361213684, -0.5577043890953064, -0.08003175258636475, -0.3893682062625885, 0.7129771709442139, -0.4788717031478882, -0.1338873654603958, 0.070069320499897, 0.2191588133573532, -0.017720473930239677, -0.12321343272924423, -0.6526038646697998, 0.19228492677211761, -0.30306074023246765, -0.08483543992042542, 0.37575429677963257, -0.2996257245540619, -0.04946134611964226, -0.2887718379497528, 0.6328103542327881, 0.39268893003463745, -0.404052197933197, 0.09441377967596054, 0.021249769255518913], [-0.008930779062211514, 0.22135724127292633, -0.12651820480823517, 0.5946087837219238, 0.23733487725257874, -0.16135618090629578, -0.458941787481308, 0.14148293435573578, 0.3260209560394287, 0.10919222235679626, -0.16091355681419373, -0.04952984303236008, 0.4186648428440094, -0.15300576388835907, -0.02051001787185669, -0.6201127767562866, -0.30403971672058105, -0.17209887504577637, -0.0142854955047369, -0.5031921863555908, -0.048901330679655075, -0.008587709628045559, 0.047123707830905914, -0.04045722633600235, -0.0237308070063591, -0.19771555066108704, -0.3019973933696747, 0.06546641141176224, -0.4085538387298584, -0.19679780304431915, 0.171418696641922, -0.26488927006721497], [-0.6953768134117126, 0.0662546381354332, 0.16711851954460144, 0.1051521822810173, 0.07219251990318298, 0.45695558190345764, -0.09488546848297119, -0.07336335629224777, 0.2336200326681137, -0.4424775540828705, 0.1724039614200592, -0.2335200160741806, 0.3757309019565582, -0.06177474558353424, 0.09894353151321411, 0.2258143275976181, -0.31616824865341187, -0.15586727857589722, -0.07557478547096252, -0.34925028681755066, 0.0028749036137014627, 0.026388779282569885, 0.035692743957042694, 0.12626676261425018, 0.042083267122507095, -0.14903491735458374, -0.36420467495918274, 0.06221696734428406, -0.4217715561389923, -0.09974502772092819, 0.2032092809677124, 0.1878054141998291], [-0.06944932788610458, 0.06685105711221695, 0.3143080472946167, -0.04687904566526413, 0.05434105172753334, -0.1753104329109192, -0.2928524911403656, -0.6472179889678955, 0.036363761872053146, 0.08881742507219315, -0.41020816564559937, 0.15953108668327332, 0.29533931612968445, -0.36188414692878723, 0.11406263709068298, -0.09335194528102875, -0.05502062290906906, 0.04026547446846962, -0.772240400314331, -0.8667231798171997, -0.21468684077262878, 0.49136918783187866, -0.551192045211792, 0.40528133511543274, -0.37589532136917114, -0.10396572202444077, -0.179364874958992, 0.22937428951263428, -0.11903264373540878, -0.16389694809913635, 0.3350992202758789, -0.6058556437492371], [-0.1436682939529419, 0.18717527389526367, -0.10864350944757462, 0.2233005315065384, -0.09798456728458405, -0.500495970249176, -0.03809993714094162, -0.6204184889793396, -0.19380491971969604, 0.028742028400301933, 0.29204806685447693, -0.2853752076625824, 0.20522014796733856, 0.19862598180770874, -0.628407895565033, 0.22457514703273773, 0.07904975861310959, -0.09007874876260757, -0.06979124248027802, -0.25057241320610046, 0.032216627150774, -0.08845054358243942, -0.30647799372673035, 0.21461714804172516, -0.20264415442943573, -0.2112535685300827, -0.37709757685661316, 0.158146932721138, 0.17804570496082306, -0.5794433951377869, -0.12882481515407562, -0.15064673125743866], [-0.05395538732409477, 0.045911066234111786, 0.1305294781923294, 0.21676954627037048, -0.23650819063186646, -0.3714727461338043, -0.0400506928563118, 0.055030982941389084, 0.15467292070388794, 0.34592530131340027, 0.2974995970726013, -0.4038577973842621, 0.8936076760292053, -0.1835561990737915, -0.8547061085700989, -0.001999293453991413, 0.05339895188808441, 0.20274385809898376, -0.49591749906539917, -0.6224298477172852, -0.4665997326374054, -0.4251474440097809, 0.09257133305072784, 0.031157253310084343, 0.10499781370162964, -0.09016206115484238, -0.08670202642679214, 0.36460161209106445, -0.24168194830417633, -0.3647158145904541, 0.07320722937583923, 0.039719369262456894], [-0.3137374818325043, 0.6823664307594299, 0.6429038047790527, 0.11477980017662048, -0.23564617335796356, 0.4313880205154419, 0.3961730897426605, 0.3708893060684204, 0.32487842440605164, 0.08010097593069077, -0.10845058411359787, -0.2883892357349396, 0.5684303641319275, 0.2439815253019333, 0.141781747341156, 0.22775676846504211, -0.23468758165836334, 0.7318091988563538, 0.49722301959991455, 0.1524360328912735, -0.008915379643440247, 0.7343968749046326, 0.5544865131378174, 1.1260006427764893, 0.11349964141845703, -0.042569492012262344, 0.3941403925418854, 0.4111388623714447, -0.11150876432657242, 0.584540069103241, -0.19561134278774261, -0.06245608627796173], [-0.14562921226024628, 0.0887133777141571, 0.055852919816970825, -0.0185185968875885, -0.0443766824901104, -0.011476695537567139, -0.21156711876392365, -0.36828675866127014, -0.04057438299059868, 0.03358341380953789, 0.2343543916940689, -0.2439979761838913, 0.39638879895210266, 0.2236059457063675, 0.1193099170923233, 0.11058780550956726, 0.010939883068203926, 0.15607808530330658, 0.07640253007411957, -0.2618885636329651, 0.32212722301483154, -0.18191586434841156, -0.0107400668784976, 0.4333956241607666, -0.5905227661132812, 0.004635545425117016, 0.038688674569129944, 0.5281700491905212, 0.02503143809735775, -0.6786634922027588, -0.04819345474243164, -0.17797549068927765], [-0.13431793451309204, 0.20655909180641174, 0.20651310682296753, 0.11070096492767334, -0.3268801271915436, -0.08931418508291245, 0.17920733988285065, -0.36200466752052307, -0.18967080116271973, 0.12342829257249832, -0.020621679723262787, 0.30432775616645813, 0.5759611129760742, 0.060022786259651184, -0.4225236475467682, 0.1393134891986847, 0.25517913699150085, -0.1349915713071823, -0.12545855343341827, -0.5523675680160522, -0.28794705867767334, 0.0018807098967954516, -0.6424885392189026, -0.11243583261966705, 0.03477519005537033, -0.06067310646176338, -0.2830184996128082, -0.013656586408615112, -0.044523682445287704, -0.23802338540554047, -0.2813108563423157, -0.14340516924858093], [-0.19124338030815125, -0.10126927495002747, -0.12983131408691406, -0.03140877187252045, 0.2793704867362976, -0.036071568727493286, -0.41616538166999817, 0.3867180645465851, -0.04543457552790642, 0.48235997557640076, -0.028333324939012527, 0.0479680672287941, 0.49630773067474365, -0.324991375207901, -0.46511590480804443, 0.33457663655281067, -0.47283807396888733, 0.3727724254131317, 0.2754916846752167, 0.13989253342151642, 0.011449240148067474, 0.41036608815193176, 0.2202056646347046, 0.4426037669181824, -0.5143103003501892, 0.09935542196035385, -0.2546881139278412, 0.3111099898815155, 0.6591483950614929, -0.22341100871562958, -0.2199491262435913, 0.05214778333902359], [-0.029782583937048912, 0.032097820192575455, 0.040770675987005234, -0.3377639353275299, 0.16323597729206085, 0.017664959654211998, 0.23674376308918, 0.12968072295188904, -0.07257528603076935, -0.10397034138441086, -0.020925233140587807, -0.09981811046600342, 0.6292204260826111, 0.2519446313381195, -0.5126047134399414, 0.35194146633148193, 0.4005853533744812, 0.23731312155723572, -0.4804973304271698, -0.08828496187925339, 0.2828799784183502, 0.04868985339999199, 0.10271651297807693, 0.3843457102775574, 0.437753826379776, 0.41362830996513367, 0.07724405080080032, -0.06758364289999008, 0.4129701852798462, -0.04870961233973503, 0.1633571833372116, -0.14909954369068146], [-0.09328331798315048, 0.7819377779960632, 0.3710269033908844, -0.10350507497787476, 0.046878382563591, 0.08463314920663834, -0.09751974791288376, 0.3941006362438202, 0.10803093761205673, -0.19430036842823029, -0.2898266613483429, -0.5766698718070984, 0.9600254893302917, 0.20397374033927917, 0.039884213358163834, 0.20928239822387695, -0.01625242456793785, 0.44266656041145325, -0.16865955293178558, 0.008612302131950855, -0.07423771172761917, -0.05816340446472168, 0.02173410728573799, 0.9101815223693848, 0.1524067223072052, 0.3482634425163269, 0.3648015558719635, 0.4112893044948578, -0.3266398012638092, -0.5870729088783264, 0.5467091202735901, -0.03232894092798233], [0.03560568019747734, 0.5083850026130676, 0.5969318747520447, 0.0058140563778579235, 0.6169735193252563, -0.24000920355319977, -0.4134100377559662, -0.32783839106559753, 0.17102546989917755, -0.214715376496315, -0.5117362141609192, -0.14209938049316406, 0.09768639504909515, 0.5787350535392761, -0.5925907492637634, -0.13839592039585114, -0.18626248836517334, -0.0334104560315609, -0.2992970943450928, -0.4255405366420746, -0.31258073449134827, -0.043045997619628906, -0.22960315644741058, 0.2434915453195572, -0.2568925619125366, -0.3600805103778839, -0.38459041714668274, 0.5095109343528748, 0.004551251884549856, -0.5820462107658386, -0.21520450711250305, -0.17534714937210083], [0.14712783694267273, -0.3055989742279053, -0.0707303136587143, 0.2895260453224182, 0.04065859317779541, -0.1948690414428711, -0.2281155288219452, -0.4523989260196686, -0.4392748773097992, -0.010094383731484413, -0.5786460638046265, 0.5543133020401001, 0.49004217982292175, 0.5454303026199341, -0.19374197721481323, 0.3869677186012268, 0.4887283146381378, -0.08294940739870071, -0.08260820806026459, -0.8035221099853516, -0.04149715229868889, -0.006589452736079693, -0.37611809372901917, 0.2323923110961914, -0.19330994784832, -0.02645108662545681, -0.5244070291519165, 0.03170841187238693, 0.37846988439559937, -0.21995748579502106, 0.14424125850200653, -0.06372605264186859], [-0.08644204586744308, 0.6550756096839905, 0.3187779188156128, -0.121979258954525, 0.21247528493404388, 0.22991259396076202, 0.1759943664073944, 0.06367466598749161, -0.29541829228401184, 0.16646668314933777, -0.3372783064842224, -0.2465224266052246, 0.7960867881774902, -0.08087626844644547, -0.7722578048706055, -0.14857475459575653, -0.2795542776584625, 0.4340028762817383, 0.27025941014289856, 0.1505153477191925, -0.25267893075942993, -0.25295165181159973, 0.01644238643348217, 0.6332231760025024, 0.2121981829404831, 0.0005277806194499135, 0.07325612008571625, 0.3852410316467285, -0.1929931789636612, -0.35930660367012024, 0.21812757849693298, 0.2904893159866333], [-0.1506035476922989, -0.20325523614883423, 0.354020893573761, 0.03883151337504387, 0.1300826519727707, -0.2298751324415207, -0.3036099374294281, -0.23335714638233185, 0.3789173364639282, -0.08284402638673782, -0.1518128216266632, 0.360904335975647, 1.0263659954071045, 0.35629040002822876, -0.34205901622772217, -0.18019013106822968, 0.014669300988316536, 0.3031632602214813, -0.47045841813087463, -0.31583526730537415, -0.03946195915341377, 0.14987054467201233, -0.15498967468738556, 0.2744331657886505, -0.3029043972492218, -0.18477755784988403, 0.15018603205680847, 0.2040424942970276, -0.33348220586776733, -0.3800418972969055, 0.018296118825674057, 0.5042113661766052], [-0.14832803606987, 0.23304495215415955, -0.20532368123531342, -0.2169220745563507, 0.25561609864234924, -0.0732017308473587, -0.24862581491470337, 0.10813594609498978, -0.22025996446609497, -0.17912165820598602, 0.08767605572938919, 0.05004136264324188, 0.5672949552536011, -0.5061224699020386, -0.821337878704071, -0.2430197298526764, 0.15733440220355988, -0.07560183107852936, -0.282214492559433, 0.0388648696243763, -0.2630789875984192, 0.20614969730377197, -0.12880855798721313, 0.55767422914505, -0.7218224406242371, 0.4054461419582367, 0.6732308864593506, 0.055186133831739426, -0.31688016653060913, -0.2287880927324295, -0.04688207805156708, 0.05810554698109627], [-0.02930065616965294, 0.2242395579814911, 0.03750066086649895, 0.1696789711713791, 0.06444358825683594, 0.0030523743480443954, 0.027028976008296013, -0.3683124780654907, 0.01715470850467682, -0.17161910235881805, -0.18946918845176697, 0.08041848987340927, 0.23199516534805298, 0.5067620277404785, -0.5283621549606323, -0.0107759153470397, 0.04852830991148949, -0.16687801480293274, -0.2758847177028656, -0.5711613297462463, -0.05113069340586662, -0.09115170687437057, -0.04096922278404236, 0.5514466166496277, -0.34569740295410156, 0.13085608184337616, 0.36299756169319153, 0.43065690994262695, -0.2873680293560028, 0.07297727465629578, 0.16563881933689117, 0.14813102781772614], [0.19896653294563293, -0.23758305609226227, 0.040362004190683365, -0.2860453724861145, -0.21738801896572113, -0.30511727929115295, -0.5572869777679443, -0.1325322687625885, -0.10069753229618073, -0.01795653998851776, 0.21492072939872742, 0.317334920167923, 0.8798457384109497, 0.2607911229133606, -0.40742483735084534, 0.25319424271583557, -0.02728363126516342, 0.028015539050102234, 0.1961217224597931, -0.4820092022418976, -0.005242775660008192, -0.27840471267700195, -0.1041446402668953, -0.4658389389514923, -0.4766947329044342, -0.10589247941970825, 0.18642525374889374, 0.03259047865867615, -0.0500824972987175, -0.39830121397972107, -0.0389372743666172, -0.18423013389110565], [0.07727129757404327, 0.2979799211025238, -0.030680030584335327, -0.22464442253112793, 0.03958321735262871, -0.3362714648246765, 0.2697674632072449, 0.00781690888106823, 0.04662756621837616, -0.23418442904949188, -0.16454929113388062, 0.1584434062242508, 0.29034706950187683, 0.1794240027666092, -0.6908606886863708, 0.07471522688865662, -0.20072002708911896, 0.566207230091095, -0.3384604752063751, -0.4866282343864441, 0.17609278857707977, 0.07018308341503143, 0.18425630033016205, 0.14706237614154816, -0.17740081250667572, 0.06386619806289673, 0.005733424331992865, -0.4349999725818634, -0.5312550663948059, -0.12382878363132477, 0.41343405842781067, 0.1841019243001938], [-0.4190673232078552, 0.5033674836158752, 0.21438898146152496, -0.33684059977531433, 0.030648713931441307, 0.3557519316673279, -0.10601864755153656, 0.3023831844329834, 0.185856893658638, 0.26284921169281006, -0.5355040431022644, 0.004799162968993187, 0.3702266812324524, -0.169917494058609, -0.23703056573867798, -0.11060266941785812, -0.36712589859962463, 0.23128089308738708, -0.10115446150302887, -0.3134603798389435, -0.23654665052890778, 0.005725671537220478, -0.5448579788208008, 0.16048187017440796, -0.04892861098051071, -0.12464205175638199, -0.010847104713320732, 0.33943429589271545, -0.05296840891242027, -0.10807394236326218, -0.3639873266220093, -0.054589129984378815], [-0.7620234489440918, -0.02968430705368519, 0.0017726077931001782, 0.06365220248699188, -0.43509507179260254, -0.01419071201235056, -0.4893295466899872, -0.3321778476238251, -0.03558756038546562, 0.014456362463533878, -0.28768080472946167, -0.4214037358760834, 0.7192900776863098, -0.2101767510175705, -0.41756024956703186, 0.3350619077682495, -0.14509819447994232, 0.39950326085090637, -0.6376089453697205, -0.3454040288925171, -0.038395531475543976, -0.005558094009757042, -0.25973162055015564, 0.13703933358192444, 0.44604435563087463, 0.3049481213092804, -0.19842346012592316, 0.0487980917096138, 0.10516209900379181, -0.5222175717353821, 0.3069242238998413, 0.18485099077224731], [0.37813395261764526, 0.5256168246269226, -0.20038510859012604, 0.36717554926872253, 0.08610770106315613, -0.18596185743808746, -0.3947029709815979, 0.22102902829647064, 0.4166637361049652, -0.03202134370803833, -0.5527282357215881, 0.3045431673526764, 0.23625701665878296, -0.2324296236038208, -0.14130650460720062, 0.29915034770965576, -0.6371582746505737, 0.25820934772491455, -0.2808001637458801, -0.017019741237163544, 0.12751345336437225, 0.0991208627820015, 0.4011805057525635, 0.7038547396659851, -0.41520920395851135, 0.0901067927479744, 0.26715078949928284, 0.35313379764556885, -0.24831296503543854, -0.4018280506134033, -0.13339900970458984, 0.21569518744945526], [0.33079493045806885, 0.06041034683585167, -0.16290150582790375, 0.2752479910850525, 0.057896316051483154, -0.5236663818359375, -0.28581851720809937, -0.11608017235994339, -0.03167371451854706, -0.18400391936302185, 0.030198024585843086, -0.06177715212106705, 0.7372100949287415, 0.002024041023105383, -0.39603742957115173, -0.01744484156370163, -0.5019345283508301, -0.34334084391593933, -0.09781359881162643, -0.11132678389549255, -0.45189931988716125, 0.27870702743530273, -0.26539817452430725, 0.1374206244945526, -0.12191569060087204, -0.3877774477005005, -0.17714379727840424, -0.032500144094228745, -0.004373440984636545, -0.4487437307834625, 0.07145276665687561, -0.016332725062966347], [-0.16227231919765472, 0.38649800419807434, -0.05584624782204628, -0.5042364597320557, 0.47034013271331787, 0.08097835630178452, -0.6274124979972839, -0.0973142609000206, -0.3103259801864624, 0.4145950376987457, -0.2768080532550812, 0.25866270065307617, 0.420914888381958, -0.06881125271320343, -0.48139533400535583, 0.05869968235492706, -0.1544291079044342, 0.24637894332408905, -0.2940569519996643, -0.08656661957502365, -0.10772983729839325, -0.13327480852603912, 0.07826603204011917, 0.20942918956279755, -0.293148398399353, -0.2825521230697632, -0.3011281192302704, 0.5031381845474243, 0.04119599610567093, -0.7348189353942871, -0.08680213242769241, -0.046623580157756805], [0.1566402167081833, 0.4866076111793518, 0.5806567072868347, -0.1003132313489914, 0.5295431017875671, -0.04128769785165787, -0.2592182159423828, -0.3009539842605591, 0.15994450449943542, -0.070872962474823, 0.08826621621847153, 0.09178933501243591, 0.5815003514289856, 0.36978569626808167, -0.12089253216981888, 0.21070365607738495, 0.41767749190330505, 0.018575355410575867, -0.5014052391052246, -0.9498023986816406, -0.06810014694929123, -0.22812364995479584, -0.43062078952789307, 0.5906078815460205, -0.22263985872268677, -0.11891138553619385, -0.027843760326504707, 0.44494399428367615, -0.16561748087406158, -0.37520331144332886, 0.16569657623767853, 0.14475008845329285], [-0.23945435881614685, 0.47784140706062317, -0.346841961145401, 0.5029695630073547, -0.19199274480342865, -0.33395928144454956, -0.4437963664531708, -0.08338680863380432, 0.2775321304798126, -0.43069493770599365, -0.47235044836997986, -0.4326570928096771, 0.506190836429596, -0.15777510404586792, -0.25919148325920105, -0.0006840607384219766, 0.2511351704597473, -0.019487004727125168, -0.28312593698501587, -0.427712619304657, 0.30701181292533875, 0.2322365939617157, 0.24370919167995453, 0.69341641664505, 0.24712762236595154, -0.12845014035701752, 0.06444229930639267, 0.6152748465538025, 0.2827494442462921, -0.5148024559020996, -0.04023411497473717, -0.06674578040838242]], "lstm.weight_hh_l0": [[-0.1593639999628067, 0.06678620725870132, 0.12781822681427002, -0.2863695025444031, -0.2909630537033081, 0.004898800980299711, -0.13859935104846954, 0.07568906992673874, -0.39348548650741577, -0.15643008053302765, 0.31771120429039, -0.316318541765213, -0.3321723937988281, 0.07101236283779144, 0.29114678502082825, 0.2925918400287628, 0.38516080379486084, -0.23683080077171326, -0.3965111970901489, -0.18433944880962372, 0.16528967022895813, -0.12946811318397522, 0.22710025310516357, -0.3432618975639343, 0.28179511427879333, 0.33040615916252136, -0.07411131262779236, -0.39503613114356995, -0.18769900500774384, 0.29744753241539, -0.05062985420227051, -0.15743328630924225], [-0.17323803901672363, -0.2509615123271942, -0.2620302438735962, -0.08590923249721527, 0.15432387590408325, 0.05971076712012291, -0.1863785833120346, -0.013272848911583424, -0.04468350484967232, 0.02955772913992405, -0.12808319926261902, -0.2700177729129791, 0.07624717801809311, -0.07788877189159393, 0.2088322937488556, 0.08017893135547638, 0.1812984049320221, 0.03687891736626625, -0.05552968755364418, 0.3346960246562958, 0.2031228393316269, -0.2501814067363739, 0.1828077882528305, 0.19117316603660583, 0.15914973616600037, 0.2393065094947815, 0.11074936389923096, -0.2133641541004181, -0.03224482759833336, -0.06840766221284866, 0.028304550796747208, -0.16707837581634521], [0.1615528017282486, 0.05889414623379707, -0.7397246360778809, -0.2989494204521179, 0.19026508927345276, -0.09740594774484634, -0.11724421381950378, 0.2681991755962372, 0.6030452847480774, 0.16256198287010193, -0.18975582718849182, -0.11676136404275894, 0.11121035367250443, 0.018458927050232887, -0.22385762631893158, -0.10628999769687653, 0.2696335017681122, 0.03406877815723419, -0.2890052795410156, 0.080078125, -0.18248964846134186, -0.06103479489684105, 0.10306975245475769, 0.05599092319607735, 0.10431361198425293, -0.0341162234544754, 0.13944236934185028, 0.08048109710216522, -0.2420668601989746, -0.1649903506040573, -0.1644374579191208, 0.005585851613432169], [0.21912303566932678, 0.08742555975914001, -0.10585837066173553, -0.05649614706635475, -0.059785325080156326, 0.15653687715530396, -0.3705236613750458, 0.42221567034721375, -0.10044233500957489, 0.003727563191205263, 0.29919150471687317, -0.2209489345550537, -0.11998342722654343, 0.13414396345615387, 0.4671599864959717, 0.27547192573547363, 0.20594990253448486, -0.048833683133125305, -0.1927289068698883, 0.20119911432266235, 0.29483336210250854, -0.3856147825717926, 0.2763496935367584, -0.050809621810913086, 0.3273721933364868, 0.14519663155078888, -0.2562459707260132, -0.25865668058395386, -0.2008490264415741, -0.04485464096069336, -0.0744854137301445, -0.4258037805557251], [0.3619973063468933, 0.37748265266418457, 0.4058906137943268, -0.3416789174079895, 0.4355470836162567, 0.43733176589012146, -0.016117140650749207, 0.19673684239387512, -0.09021550416946411, 0.12333637475967407, 0.04271843656897545, -0.2165932059288025, -0.32004427909851074, 0.21081292629241943, 0.24160552024841309, 0.35325926542282104, 0.11308255046606064, 0.12195709347724915, -0.1258363425731659, -0.04087948054075241, -0.2426283359527588, -0.11249319463968277, 0.04758000001311302, -0.037746965885162354, -0.030073603615164757, 0.1501760333776474, -0.1276860535144806, -0.18589328229427338, -0.09326102584600449, 0.2582157552242279, -0.39429134130477905, -0.5125070214271545], [0.13153934478759766, 0.27391958236694336, -0.0652179941534996, 0.10103632509708405, 0.23137907683849335, -0.20692993700504303, 0.17405982315540314, -0.026723649352788925, 0.007311720866709948, -0.16481517255306244, 0.007356374524533749, -0.15168072283267975, -0.1328987181186676, -0.011503886431455612, -0.03028162382543087, -0.007455877959728241, -0.08828965574502945, 0.35223668813705444, -0.007137758657336235, 0.010515859350562096, -0.06556480377912521, -0.03543020784854889, -0.12082519382238388, 0.0025208895094692707, -0.06909812986850739, -0.2837904989719391, 0.016346028074622154, -0.1466655284166336, -0.16606885194778442, 0.11346858739852905, 0.1110556423664093, -0.03850322961807251], [-0.05215425416827202, 0.024940000846982002, 0.02832608111202717, 0.08254615217447281, -0.11809244006872177, 0.35899999737739563, 0.32854288816452026, 0.05530238524079323, -0.18294532597064972, 0.019335538148880005, 0.012076439335942268, -0.21038657426834106, -0.050346411764621735, 0.045648928731679916, 0.13147272169589996, 0.09655585139989853, 0.09296993911266327, -0.00963230524212122, -0.04081562161445618, 0.28710317611694336, -0.0687103420495987, -0.07165493816137314, 0.034268591552972794, 0.06953392177820206, -0.13101661205291748, 0.13378863036632538, -0.020898105576634407, -0.030781760811805725, -0.017839420586824417, 0.05386171489953995, -0.04732310026884079, -0.17707791924476624], [-0.013415414839982986, -0.07776228338479996, -0.1537850797176361, 0.04445954039692879, 0.6061285138130188, 0.027905460447072983, 0.09825786203145981, -0.35841792821884155, 0.239782452583313, -0.07803243398666382, 0.02772904373705387, -0.1210208311676979, 0.11999332159757614, -0.05733702331781387, -0.1694045066833496, 0.14256002008914948, -0.15785719454288483, 0.07923715561628342, -0.02427438646554947, 0.33421429991722107, -0.2354937642812729, 0.16699066758155823, -0.20101726055145264, 0.2885441482067108, -0.20150557160377502, -0.31821563839912415, 0.0854346752166748, 0.3819381892681122, 0.10911509394645691, -0.43792974948883057, 0.02617327868938446, -0.048998527228832245], [0.2838277816772461, 0.2832960784435272, 0.5872592329978943, -0.47470641136169434, -0.3100007474422455, 0.3015007972717285, -0.35312995314598083, 0.2440277636051178, 0.1371747851371765, 0.6179702877998352, 0.571453332901001, 0.01732896827161312, -0.21980790793895721, 0.3946074843406677, 0.3057141602039337, 0.4419584572315216, 0.4104495346546173, -0.28961703181266785, -0.44330134987831116, -0.5796558260917664, 0.3162189722061157, -0.1659347116947174, 0.505849301815033, -0.47908279299736023, 0.34949252009391785, 0.38017335534095764, -0.43651288747787476, -0.44384339451789856, -0.5181136727333069, 0.5439565777778625, -0.35742512345314026, -0.44993793964385986], [0.5421107411384583, 0.4176730513572693, 0.25848132371902466, -0.6418548822402954, -0.24291633069515228, 0.3348105549812317, -0.5107029676437378, 0.21884319186210632, -0.4936107397079468, -0.09056906402111053, 0.274229496717453, -0.15065762400627136, -0.2702060341835022, 0.5076608657836914, 0.20937183499336243, 0.09681249409914017, 0.606441855430603, -0.3201698958873749, -0.5230593085289001, -0.32245129346847534, 0.3118651807308197, -0.610141932964325, 0.3196803331375122, -0.40069568157196045, 0.41374653577804565, 0.581969141960144, -0.23070751130580902, -0.4370517432689667, -0.49157005548477173, 0.5447528958320618, -0.13092508912086487, -0.6147145628929138], [-0.09746644645929337, 0.26631951332092285, 0.021018479019403458, 0.011765577830374241, -0.1778327375650406, 0.023259848356246948, 0.08777139335870743, 0.19213590025901794, 0.088457852602005, 0.28749901056289673, -0.3097468912601471, -0.09985551238059998, -0.11371553689241409, 0.21618826687335968, 0.20924364030361176, 0.13479192554950714, 0.16102509200572968, -0.06721844524145126, 0.012840593233704567, -0.08951658755540848, 0.01642213948071003, 3.7922291085124016e-07, 0.38310855627059937, -0.163188636302948, 0.12928427755832672, 0.2532510459423065, -0.08899542689323425, -0.2880421280860901, -0.14411860704421997, 0.1984083354473114, -0.22620315849781036, -0.3300950527191162], [-0.1028248518705368, 0.14483489096164703, -0.10016345232725143, -0.11496467888355255, -0.006875327788293362, -0.09590426832437515, 0.06571726500988007, 0.0706479474902153, -0.14006954431533813, -0.15438300371170044, -0.14720822870731354, 0.06588724255561829, 0.24044518172740936, -0.020080193877220154, 0.1484205722808838, -0.11121191829442978, 0.07225172221660614, -0.2711978852748871, 0.07261242717504501, 0.11360032111406326, 0.15566526353359222, 0.0031349356286227703, -0.024313975125551224, 0.019509602338075638, -0.048734523355960846, 0.057755593210458755, 0.012807512655854225, -0.019126662984490395, 0.19983157515525818, 0.04416578263044357, 0.10757643729448318, -0.020633818581700325], [0.29128214716911316, 0.3251659572124481, 0.24219535291194916, -0.4469401240348816, -0.10666312277317047, 0.3498280942440033, -0.1639460176229477, 0.05422612652182579, -0.23488320410251617, 0.24378374218940735, 0.30206751823425293, -0.4325435161590576, 0.020076533779501915, 0.3326844274997711, 0.4049215316772461, 0.42337802052497864, 0.3100651800632477, -0.3705587685108185, -0.20804063975811005, -0.31623509526252747, 0.37327319383621216, -0.5606196522712708, 0.3903224766254425, -0.3477484881877899, 0.377086341381073, 0.34572818875312805, -0.24129565060138702, -0.47386908531188965, -0.25505736470222473, 0.6138281226158142, -0.41874566674232483, -0.5166006684303284], [0.17977353930473328, 0.21050617098808289, 0.06542544811964035, -0.24686457216739655, -0.036629240959882736, 0.19994068145751953, -0.1922934651374817, 0.07821501791477203, -0.041635069996118546, 0.012854553759098053, 0.11086446791887283, -0.06274718791246414, -0.13878238201141357, -0.12626506388187408, 0.1541111022233963, 0.04978069290518761, 0.05792675539851189, 0.12960118055343628, -0.2299647480249405, -0.06268486380577087, 0.31421715021133423, -0.26804015040397644, 0.2742631435394287, -0.12674562633037567, 0.09328831732273102, 0.40257030725479126, -0.15433980524539948, -0.07490907609462738, -0.25949162244796753, 0.2038532942533493, -7.249208283610642e-05, -0.139022558927536], [-0.2878349721431732, 0.06542287766933441, -0.10556883364915848, 0.10992354899644852, 0.08966570347547531, -0.07163554430007935, 0.13780449330806732, -0.001527166459709406, 0.08466093987226486, -0.2746831476688385, -0.10802644491195679, -0.09164411574602127, 0.010144629515707493, -0.059597376734018326, -0.21375040709972382, -0.06677189469337463, -0.10161184519529343, 0.04812832921743393, 0.14432907104492188, 0.34857985377311707, -0.19259746372699738, 0.2686665654182434, -0.10975297540426254, 0.1174669936299324, -0.11939238011837006, 0.008216324262320995, 0.21014225482940674, 0.045929934829473495, -0.06557226926088333, -0.012977620586752892, 0.15936145186424255, 0.4372119605541229], [-0.22298134863376617, -0.05912279337644577, -0.31499534845352173, 0.23328609764575958, 0.237720787525177, -0.4241427481174469, 0.41842979192733765, -0.17051734030246735, 0.3160066604614258, 0.04495301842689514, -0.3584763705730438, -0.07006581127643585, 0.29908499121665955, -0.27472373843193054, -0.15038073062896729, -0.3111427128314972, -0.13136577606201172, 0.35514986515045166, 0.08399919420480728, 0.29329022765159607, -0.33477678894996643, 0.3024516999721527, -0.042484596371650696, 0.30043238401412964, -0.17780256271362305, -0.26413610577583313, 0.3284575939178467, 0.2581144869327545, 0.2964925765991211, -0.24929076433181763, 0.25641757249832153, 0.08016248792409897], [-0.10195624828338623, -0.19288788735866547, -0.18131236732006073, -0.06127580627799034, 0.39202451705932617, -0.021707862615585327, -0.06342580914497375, 0.09012866765260696, 0.4347272515296936, -0.34205886721611023, 0.11179690062999725, -0.3288370668888092, 0.10505508631467819, -0.18421879410743713, 0.12351857125759125, 0.1274966150522232, -0.5266926288604736, 0.02399277128279209, 0.1104961484670639, 0.2342625856399536, 0.0524565763771534, -0.19888317584991455, -0.009397509507834911, 0.2345268428325653, 0.028714869171380997, -0.01765802875161171, 0.030930768698453903, 