{"linear_1.weight": [[-0.007486820220947266], [0.7563474774360657], [-0.8954424858093262], [-0.8803619146347046], [-0.3823167383670807], [0.25470876693725586], [0.11423727124929428], [0.8473891019821167], [-0.09545449912548065], [0.2646125555038452], [-0.3287044167518616], [-0.1965653896331787], [-0.9279342889785767], [-0.5595428943634033], [-0.49821439385414124], [-0.11995197832584381], [0.2894189655780792], [0.6140338182449341], [-0.6607577800750732], [-0.42199426889419556], [0.45145660638809204], [0.8953726887702942], [-0.2526974081993103], [0.9172384738922119], [-0.15135061740875244], [0.10581409931182861], [1.0753031969070435], [-0.9845728278160095], [-0.7988021969795227], [-0.31944090127944946], [-0.4963884651660919], [0.7791605591773987]], "linear_1.bias": [-0.6481796503067017, -0.2273457944393158, -0.6273535490036011, -0.81638103723526, -0.6075140833854675, 0.7813240885734558, 0.38235870003700256, 0.5804509520530701, -0.041441336274147034, -0.5126835107803345, 0.14839643239974976, -0.9336947202682495, -0.7587333917617798, -0.6254359483718872, 0.5875815749168396, 0.47439682483673096, -0.5488703846931458, -0.023063797503709793, 0.5262889862060547, 0.8052613735198975, 0.41679543256759644, 0.1481781154870987, 0.5123057961463928, -0.43300706148147583, 0.1791994422674179, -0.7753055095672607, -0.5064803957939148, -0.46390923857688904, 0.4173416793346405, 0.36612972617149353, -0.48976051807403564, 0.3941846489906311], "lstm.weight_ih_l0": [[0.38476428389549255, 0.028449436649680138, 0.24561487138271332, 0.39358046650886536, 0.1917056292295456, -0.3824191987514496, 0.40008580684661865, -0.5236709117889404, -0.5311413407325745, -0.18520912528038025, 0.3474730849266052, -0.2725068926811218, 0.2226613163948059, -0.21032263338565826, 0.17019866406917572, 0.10930660367012024, 0.06044972687959671, -0.21342973411083221, 0.05998949706554413, -0.2179751694202423, -0.00641524326056242, -0.1896890252828598, -0.05931403860449791, -0.5215346217155457, -0.11415784060955048, 0.08906746655702591, -0.19126467406749725, -0.08253801614046097, 0.18697841465473175, 0.10765683650970459, 0.11097453534603119, -0.05779324471950531], [0.07896555215120316, 0.27382490038871765, -0.3277272880077362, 0.0334271565079689, 0.23163115978240967, -0.09827575087547302, 0.04365367442369461, 0.297923743724823, 0.3298899829387665, 0.22966383397579193, 0.2407802939414978, -0.030906952917575836, -0.18334130942821503, 0.13222923874855042, 0.5089501142501831, 0.07919803261756897, 0.37101292610168457, 0.027265116572380066, 0.040563471615314484, 0.29984110593795776, -0.056062690913677216, -0.5433005690574646, -0.08413432538509369, 0.14194843173027039, 0.06744252890348434, 0.5570672750473022, 0.09470157325267792, 0.15534961223602295, -0.4300490617752075, 0.08942262828350067, 0.24939677119255066, 0.128905788064003], [0.20960508286952972, 0.0979871079325676, 0.14243590831756592, 0.04832987114787102, 0.16215693950653076, -0.39259254932403564, -0.038898881524801254, -0.45028144121170044, -0.42772412300109863, 0.10277889668941498, -0.24298906326293945, -0.1580391824245453, -0.4999403953552246, 0.11706704646348953, 0.157986581325531, -0.034878090023994446, -0.5654191374778748, 0.017153173685073853, -0.12565898895263672, -0.2553972899913788, -0.2693665623664856, -0.007560683414340019, -0.31857430934906006, -0.4193960130214691, 0.44656485319137573, 0.08020764589309692, -0.015150852501392365, 0.20691825449466705, -0.43783217668533325, -0.0865238755941391, -0.11698003858327866, 0.004198485054075718], [0.07925881445407867, 0.49253976345062256, 0.4495607018470764, 0.38233405351638794, 0.19944994151592255, 0.0892101377248764, 0.3687869906425476, -0.09776533395051956, -0.3751204013824463, 0.06394393742084503, -0.14592330157756805, 0.12681834399700165, -0.19431380927562714, 0.13781747221946716, 0.26099783182144165, 0.09741723537445068, 0.07699570059776306, 0.4427008032798767, 0.1317519247531891, 0.011066876351833344, -0.1042213961482048, -0.09164905548095703, 0.35417214035987854, 0.5050475001335144, 0.05064484477043152, 0.053161121904850006, 0.9932189583778381, -0.047706328332424164, 0.13104566931724548, 0.6302613615989685, 0.33594489097595215, -0.16695402562618256], [0.12083785235881805, -0.19651249051094055, 0.28802189230918884, -0.22999201714992523, -0.17283302545547485, -0.04535280913114548, -0.19702725112438202, -0.10639605671167374, -0.32042810320854187, -0.27923741936683655, -0.14626790583133698, -0.2885860800743103, -0.23804441094398499, -0.12661978602409363, 0.17892606556415558, -0.46121805906295776, -0.16933979094028473, -0.3827539086341858, -0.5233240127563477, -0.16539375483989716, -0.33947309851646423, -0.4641134738922119, 0.06695517897605896, 7.198422827059403e-05, 0.09328484535217285, -0.2114366590976715, -0.05861302837729454, -0.1909826099872589, 0.24587084352970123, -0.13639026880264282, -0.3252776861190796, -0.1168222576379776], [0.2451396882534027, 0.07467275857925415, 0.3741133511066437, 0.5040723085403442, -0.12278516590595245, 0.033832937479019165, -0.10105329006910324, -0.09169061481952667, -0.0673164650797844, -0.42096829414367676, -0.2208082228899002, -0.07085137069225311, 0.5332072973251343, 0.10778551548719406, 0.02226458117365837, -0.03732066601514816, 0.28289109468460083, -0.23077170550823212, -0.0402073934674263, -0.3068418502807617, -0.4846554696559906, 0.01928277313709259, 0.13288646936416626, -0.1264490932226181, 0.09369554370641708, 0.10839804261922836, -0.07793975621461868, 0.25315478444099426, 0.0028189606964588165, -0.10279391705989838, 0.2621302604675293, 0.18166856467723846], [0.06818726658821106, 0.5637809634208679, 0.20599013566970825, 0.09592115134000778, 0.06089812144637108, -0.11054255068302155, -0.13694408535957336, -0.33241549134254456, 0.2338162511587143, -0.23559246957302094, 0.4072645902633667, 0.054886799305677414, -0.10447477549314499, -0.0057622939348220825, -0.06379890441894531, 0.0008939001127146184, 0.08242528885602951, -0.14445576071739197, 0.20631225407123566, 0.1773088574409485, -0.22222931683063507, 0.43113192915916443, 0.15266263484954834, 0.14492890238761902, 0.25914764404296875, 0.0027398953679949045, 0.9943214654922485, 0.6306016445159912, 0.04194656014442444, 0.18134164810180664, 0.43086549639701843, -0.06833455711603165], [0.26339104771614075, 0.42345961928367615, 0.4268389940261841, -0.1617654412984848, 0.09300193190574646, 0.1654149293899536, -0.03521086275577545, 0.21841596066951752, 0.1498837172985077, -0.22640299797058105, -0.3381565809249878, 0.28699246048927307, 0.39625659584999084, -0.0009714888292364776, -0.1848398745059967, -0.08512632548809052, -0.2553291916847229, -0.2072334736585617, 0.015052231959998608, -0.08137432485818863, 0.08674517273902893, 0.4374448359012604, 0.17466828227043152, 0.007732179947197437, 0.024654202163219452, -0.07463707029819489, 0.00741026783362031, 0.43178462982177734, 0.2630974352359772, 0.15654052793979645, 0.1755199432373047, -0.05080205202102661], [-0.040109582245349884, -0.2661904990673065, -0.24971596896648407, -0.06381355971097946, -0.15984167158603668, 0.16644395887851715, -0.30039432644844055, -0.06621725857257843, 0.2586498260498047, -0.09791132807731628, -0.06025847792625427, -0.06904859095811844, -0.00030809169402346015, -0.24985046684741974, 0.20623311400413513, -0.43642643094062805, 0.10509281605482101, -0.17888198792934418, -0.16001388430595398, -0.06048397347331047, -0.00948450155556202, -0.2186623513698578, -0.18065974116325378, 0.46486330032348633, 0.06946592777967453, 0.06796327978372574, 0.32349252700805664, 0.13517434895038605, 0.07561363279819489, -0.2871212363243103, 0.6417762637138367, 0.4275328814983368], [-0.29470378160476685, -0.3375890552997589, 0.34501925110816956, -0.49061378836631775, 0.025815701112151146, -0.5634859204292297, 0.06851557642221451, -0.18572774529457092, -0.13926935195922852, -0.48632529377937317, 0.16065001487731934, 0.38737767934799194, 0.1049056127667427, 0.38492512702941895, -0.29843491315841675, 0.3719245493412018, 0.01022126991301775, -0.13547426462173462, 0.3518069088459015, 0.4322076141834259, 0.13164477050304413, 0.11763202399015427, -0.2574414014816284, 0.4246569275856018, -0.2126673460006714, 0.00038197022513486445, 0.02218148484826088, -0.16091763973236084, 0.3116115629673004, -0.15254545211791992, 0.4354778230190277, 0.02329135127365589], [-0.22929884493350983, -0.023759005591273308, 0.13906005024909973, 0.7672982215881348, 0.2577839195728302, -0.12100982666015625, 0.30223819613456726, -0.3252541422843933, -0.5135635137557983, 0.17957070469856262, 0.49518364667892456, 0.29422083497047424, 0.11376555263996124, 0.6393317580223083, -0.0781344324350357, -0.06391097605228424, -0.35165590047836304, 0.4568193554878235, -0.20086663961410522, -0.09512026607990265, 0.07465925812721252, -0.43143731355667114, 0.0841771811246872, -0.053781989961862564, 0.15330928564071655, 0.29789841175079346, 0.17371679842472076, -0.1655355840921402, -0.07042787969112396, 0.036586519330739975, 0.2289486825466156, 0.23256072402000427], [0.07733675837516785, 0.13050614297389984, 0.1521848738193512, 0.1097206398844719, 0.3162503242492676, 0.06399156898260117, 0.32000601291656494, 0.5445735454559326, 0.16368770599365234, -0.19970889389514923, 0.11672687530517578, 0.05850180611014366, -0.03985210880637169, 0.15107499063014984, -0.09366359561681747, -0.09277033060789108, 0.08553750813007355, 0.004075223580002785, -0.1593852937221527, 0.3410314619541168, -0.2532122731208801, -0.009146612137556076, -0.09073171019554138, -0.17652833461761475, -0.3265779912471771, 0.17489370703697205, 0.3907310664653778, -0.18575020134449005, 0.10130123794078827, -0.27377820014953613, 0.7661079168319702, -0.11048618704080582], [-0.11812929064035416, -0.3193688988685608, 0.3873596787452698, 0.42975714802742004, -0.3225690722465515, -0.5967645049095154, -0.5490316152572632, -0.29382339119911194, 0.09228112548589706, -0.3150641620159149, -0.19889137148857117, 0.17384743690490723, 0.20847810804843903, 0.1726563423871994, 0.24696654081344604, -0.18832504749298096, 0.22151753306388855, -0.21962355077266693, -0.01986609399318695, 0.1422116458415985, -0.404873788356781, -0.4475703835487366, -0.06490103900432587, -0.3300134539604187, -0.23651474714279175, 0.03909367695450783, -0.649003267288208, 0.1968144178390503, 0.4727917015552521, -0.20739313960075378, 0.5038400888442993, 0.0051314677111804485], [-0.17763999104499817, 0.37517714500427246, 0.08485838025808334, 0.2005302459001541, 0.23744317889213562, 0.1336635798215866, -0.14380070567131042, 0.19367556273937225, 0.06054486334323883, 0.38131576776504517, -0.3886297643184662, 0.2364935427904129, -0.1499042510986328, 0.15359634160995483, -0.3118381202220917, 0.3935282230377197, 0.17980846762657166, 0.5234909057617188, 0.46033841371536255, 0.17519456148147583, -0.2744411826133728, -0.2887795567512512, -0.08546048402786255, 0.23407961428165436, -0.12807303667068481, 0.5088669061660767, 0.4809483587741852, 0.15506112575531006, 0.08851180970668793, 0.24210719764232635, -0.1062043234705925, 0.23823288083076477], [0.04831754416227341, 0.29084980487823486, -0.04742639884352684, 0.19724255800247192, 0.06463219970464706, 0.420341819524765, 0.05517186224460602, -0.1243899017572403, 0.1684395968914032, -0.12876670062541962, 0.37679368257522583, -0.7081202864646912, 0.05711554363369942, 0.20646099746227264, -0.45622193813323975, -0.004488807637244463, 0.14643709361553192, -0.09992889314889908, 0.12468931078910828, -0.1546720564365387, 0.19496405124664307, 0.14204135537147522, 0.021839898079633713, -0.13565263152122498, 0.15922541916370392, -0.2916964292526245, -0.05854690074920654, 0.12498946487903595, 0.12041961401700974, 0.04373721033334732, 0.05200989916920662, -0.03594980016350746], [0.09177885204553604, 0.20873205363750458, -0.4102715849876404, -0.2380843460559845, -0.57899010181427, -0.11913687735795975, -0.20783066749572754, 0.24614134430885315, -0.058893248438835144, -0.05309687554836273, 0.03148439899086952, 0.2460727095603943, 0.06257851421833038, 0.5940340757369995, -0.12064535170793533, -0.17559847235679626, 0.3376323878765106, -0.17532101273536682, 0.1305752545595169, -0.4677700698375702, -0.5778219699859619, 0.057247355580329895, 0.1391110122203827, 0.523193359375, -0.2918834984302521, -0.25576621294021606, -0.051058296114206314, -0.051218099892139435, -0.6542827486991882, -0.14513203501701355, -0.07913020998239517, 0.5907984375953674], [-0.011434937827289104, 0.3160642087459564, 0.3563981354236603, 0.07723581790924072, 0.5584999322891235, 0.2212088704109192, -0.03717580810189247, -0.050156719982624054, -0.29776525497436523, 0.3852253258228302, 0.09169197827577591, -0.1913132518529892, 0.17956510186195374, 0.16814233362674713, -0.2699989676475525, -0.34523484110832214, -0.13692498207092285, -0.340451717376709, -0.24825666844844818, -0.10882898420095444, 0.20212002098560333, 0.01355771068483591, -0.100918248295784, 0.03642108291387558, -0.4562550187110901, -0.31487372517585754, 0.017714904621243477, 0.14667055010795593, 0.2971247136592865, 0.2743881344795227, 0.34499385952949524, -0.23041963577270508], [-0.11821376532316208, -0.17153824865818024, -0.16139346361160278, 0.13404594361782074, -0.7454538345336914, -0.22817933559417725, 0.08105486631393433, -0.12877731025218964, -0.26966193318367004, 0.1551128476858139, 0.17112120985984802, 0.13372287154197693, 0.1270894557237625, -0.4857617914676666, -0.03153179958462715, 0.14046768844127655, -0.010309322737157345, 0.33343270421028137, -0.15885096788406372, 0.3118482530117035, -0.008655098266899586, 0.036222487688064575, 0.2762666940689087, 0.003368536476045847, 0.17918379604816437, 0.08173365145921707, 0.26224803924560547, 0.04568018391728401, -0.06406223773956299, 0.5267547965049744, 0.02553430385887623, 0.2693662941455841], [-0.10984856635332108, 0.14313264191150665, 0.2544563114643097, 0.32602840662002563, 0.6554125547409058, 0.5251805186271667, 0.44316157698631287, 0.30405551195144653, 0.4707777500152588, -0.10631632804870605, 0.03310621902346611, 0.1398264467716217, -0.25035154819488525, 0.17863452434539795, 0.21960881352424622, 0.13985507190227509, -0.3529669940471649, -0.14292959868907928, -0.12494848668575287, 0.05403853952884674, 0.1448270082473755, 0.12346728891134262, -0.05470971763134003, 0.30429136753082275, 0.052791763097047806, 0.06276454776525497, 0.4880310297012329, 0.050659630447626114, 0.23405833542346954, -0.27765223383903503, 0.5876064896583557, 0.019943445920944214], [0.22924719750881195, -0.706326425075531, 0.40841546654701233, 0.2993156611919403, 0.5497424006462097, -0.22123993933200836, -0.020473578944802284, -0.36510974168777466, -0.03824222460389137, -0.2985997200012207, 0.16813112795352936, 0.0713917687535286, -0.46365055441856384, 0.0010976187186315656, -0.23968595266342163, 0.424160361289978, -0.004541437141597271, -0.048564083874225616, -0.16456842422485352, -0.46526384353637695, -0.06705818325281143, -0.24947001039981842, 0.5599650144577026, 0.027989011257886887, 0.04426746815443039, -0.2043263018131256, -0.48267775774002075, 0.2432481199502945, 0.2283078134059906, 0.2265014499425888, 0.2870725095272064, -0.6555191874504089], [0.292193204164505, 0.010220938362181187, -0.14115630090236664, 0.23010176420211792, -0.20139837265014648, -0.1640946865081787, 0.20077520608901978, 0.1501021832227707, 0.30130088329315186, -0.1366577297449112, 0.15507173538208008, -0.030186673626303673, -0.468238890171051, -0.2944648861885071, -0.2442159205675125, 0.2453765720129013, -0.2981081008911133, -0.02476215548813343, 0.09448409080505371, 0.0014768908731639385, 0.21347090601921082, -0.28099918365478516, 0.36818668246269226, 0.3179078698158264, 0.43077075481414795, -0.14930084347724915, 0.3130916655063629, -0.39837199449539185, -0.07753638178110123, 0.059550654143095016, 0.5079441070556641, -0.12753216922283173], [0.2263394445180893, 0.1307230144739151, -0.6354604959487915, -0.28702810406684875, -0.29540371894836426, -0.14842817187309265, 0.13930967450141907, -0.16738581657409668, -0.3198479115962982, 0.3229900896549225, -0.5114324688911438, -0.08716660737991333, -0.6191765069961548, 0.03689119219779968, -0.10903904587030411, -0.4359489679336548, 0.11289757490158081, 0.10074029862880707, -0.2342611849308014, 0.2161668837070465, 0.3213788568973541, 0.23080669343471527, 0.4264313280582428, 0.19104279577732086, -0.14884386956691742, -0.1424640417098999, 0.3257328271865845, -0.3566831052303314, -0.46473047137260437, -0.21089617908000946, 0.3081873059272766, 0.2060403823852539], [0.1344752311706543, -0.12179890275001526, 0.25291934609413147, -0.121489979326725, 0.3151433765888214, 0.39917683601379395, -0.29501333832740784, 0.0644741952419281, 0.016078608110547066, 0.530705451965332, -0.2668168842792511, -0.08664680272340775, -0.15689483284950256, -0.15012887120246887, 0.5820655226707458, -0.3021664321422577, -0.31399106979370117, -0.14105838537216187, 0.021426988765597343, -0.0005046245059929788, 0.3070909380912781, 0.23144948482513428, 0.41084980964660645, 0.0072667780332267284, 0.15623699128627777, 0.1642954796552658, -0.22737012803554535, -0.3016614019870758, -0.09679027646780014, -0.38060861825942993, -0.5970681309700012, 0.06196688488125801], [0.05751268193125725, -0.03884345293045044, 0.015718381851911545, -0.30420219898223877, 0.10646756738424301, -0.019825709983706474, 0.25467559695243835, 0.18305759131908417, -0.2349916696548462, -0.11016786843538284, -0.24364930391311646, -0.09421701729297638, 0.32996615767478943, -0.22063957154750824, -0.5347664952278137, -0.6028074026107788, -0.06386826187372208, 0.06222023814916611, 0.031041383743286133, -0.08669723570346832, -0.41836437582969666, -0.18635264039039612, -0.4791712760925293, 0.30618205666542053, -0.006758228875696659, -0.19645361602306366, 0.39576342701911926, -0.3835480511188507, -0.05954471603035927, 0.0729636400938034, -0.3926013112068176, 0.03647862374782562], [-0.4132906198501587, 0.42292138934135437, -0.12108844518661499, 0.1780434101819992, -0.5210567116737366, 0.5930739045143127, -0.1980351060628891, -0.07431790977716446, -0.372096449136734, -0.06385041773319244, -0.208844393491745, -0.0035924825351685286, -0.3720565140247345, -0.05068334564566612, -0.3350292146205902, 0.2624369263648987, -0.12076551467180252, -0.20827218890190125, 0.4243146479129791, 0.2463301420211792, 0.2313772290945053, -0.5282837152481079, -0.17634829878807068, 0.1129450649023056, -0.2123558074235916, 0.20579823851585388, 0.3143337666988373, -0.214326411485672, -0.042193178087472916, 0.09096597135066986, 0.13431385159492493, -0.30385762453079224], [-0.03453419357538223, -0.1551113724708557, -0.709868848323822, -0.3791225254535675, -0.03437065705657005, 0.40096333622932434, -0.3319328725337982, -0.13763554394245148, -0.1691615879535675, 0.0858253762125969, -0.13075928390026093, 0.0453840047121048, -0.39368924498558044, -0.18750163912773132, -0.2058909833431244, -0.2037513256072998, 0.10849108546972275, -0.24949225783348083, -0.11983217298984528, -0.03803357109427452, -0.31710025668144226, 0.40234366059303284, 0.010279908776283264, 0.3058508038520813, -0.0704813301563263, -0.17905347049236298, -0.2350829690694809, -0.03361350670456886, -0.04570411890745163, -0.3472205698490143, -0.2509031593799591, -0.11374906450510025], [-0.08626538515090942, 0.18410532176494598, -0.18496963381767273, 0.5516425371170044, -0.08900821208953857, -0.09535989165306091, -0.12049572914838791, 0.3776697814464569, -0.23740294575691223, 0.13326561450958252, -0.15991072356700897, 0.10959029197692871, 0.251024067401886, -0.1072019562125206, -0.343451589345932, -0.12518210709095, 0.15278829634189606, 0.00982998963445425, -0.03519608825445175, 0.5014183521270752, -0.33000311255455017, -0.1029888242483139, -0.18547752499580383, 0.4063754379749298, 0.41804376244544983, -0.40169385075569153, 0.5520617961883545, -0.23406244814395905, -0.4129793643951416, -0.10235576331615448, -0.20296673476696014, -0.09747039526700974], [0.2381725162267685, -0.05917274206876755, 0.19517888128757477, -0.00914684496819973, -0.17682887613773346, 0.05196567624807358, -0.5187186598777771, -0.2929653525352478, 0.19180859625339508, 0.05704689398407936, 0.20595495402812958, -0.6333046555519104, -0.4665548503398895, -0.13462673127651215, 0.20643112063407898, -0.08014418929815292, 0.08603548258543015, -0.03248095139861107, 0.37430647015571594, -0.16007930040359497, -0.1838400512933731, 0.07121104747056961, 0.15858638286590576, 0.26143842935562134, 0.32169246673583984, 0.06390784680843353, 0.024917062371969223, 0.4768962562084198, 0.2961507737636566, 0.39147624373435974, 0.2917165458202362, 0.06649560481309891], [0.11849838495254517, 0.009684824384748936, -0.1632370501756668, 0.22955919802188873, 0.20065684616565704, -0.04199512302875519, 0.08633510768413544, -0.4151265323162079, 0.10287769883871078, -0.1264198273420334, 0.004019135609269142, 0.0836719498038292, 0.36497941613197327, 0.6262220144271851, 0.08961822837591171, -0.09347646683454514, 0.12198465317487717, 0.10781361162662506, 0.2905106544494629, 0.014758155681192875, 0.20119738578796387, 0.253570020198822, 0.2219787985086441, 0.42131307721138, -0.07613569498062134, 0.6487694978713989, 0.07603679597377777, 0.19808194041252136, 0.11419686675071716, -0.5447300672531128, 0.3188406229019165, 0.3850992023944855], [-0.12298255413770676, 0.24845214188098907, 0.0030297827906906605, -0.29550907015800476, -0.2517862617969513, -0.18161532282829285, 0.11536895483732224, 0.17135712504386902, -0.07074414938688278, 0.34076645970344543, -0.35262101888656616, -0.5336467623710632, 0.02692750282585621, 0.2194831222295761, -0.4674852192401886, -0.011777713894844055, -0.41801878809928894, -0.20635049045085907, 0.13988573849201202, -0.47875314950942993, -0.2754158675670624, -0.2492416352033615, -0.07683716714382172, -0.026212750002741814, 0.0778748169541359, -0.45491111278533936, 0.1002102941274643, -0.018738187849521637, -0.37983641028404236, -0.3625886142253876, 0.13070686161518097, 0.172154039144516], [0.44061043858528137, 0.14757980406284332, -0.36881309747695923, 0.4294544458389282, -0.2876257300376892, -0.1587640941143036, 0.37977492809295654, 0.13935595750808716, 0.19574783742427826, -0.3310765326023102, -0.5019198656082153, 0.08650464564561844, 0.21196916699409485, -0.01852751336991787, -0.047689858824014664, 0.09943757951259613, 0.16996915638446808, 0.11891140788793564, -0.062285710126161575, 0.04068395122885704, 0.22708511352539062, 0.6421627402305603, 0.5842930674552917, 0.16060973703861237, 0.20823413133621216, 0.2293344885110855, 0.33568745851516724, 0.29377055168151855, 0.2206336110830307, 0.43973109126091003, 0.5983323454856873, -0.02631554752588272], [-0.26631686091423035, 0.06440113484859467, 0.2637174725532532, -0.13249561190605164, 0.35502028465270996, 0.19626063108444214, 0.0246358010917902, -0.009410771541297436, 0.22668224573135376, -0.6751224994659424, 0.17191927134990692, 0.3035309612751007, 0.3483414351940155, -0.6255267858505249, 0.17297792434692383, 0.11552412062883377, 0.12829525768756866, -0.08023636043071747, 0.7257169485092163, -0.2697563171386719, -0.10133905708789825, -0.22207848727703094, 0.23884247243404388, 0.5565841794013977, 0.03685440868139267, 0.31556347012519836, 0.4809158742427826, 0.06714031845331192, -0.2505505084991455, -0.3757132291793823, -0.02241664007306099, -0.12338625639677048], [-0.2930586040019989, -0.4324388802051544, -0.07805288583040237, -0.2688486874103546, 0.24166375398635864, 0.2988710403442383, -0.14694969356060028, 0.29256752133369446, -0.034167952835559845, -0.13995155692100525, -0.05616983771324158, -0.015127274207770824, 0.46058762073516846, -0.12271381169557571, -0.15443460643291473, 0.34251686930656433, -0.19292418658733368, -0.46491655707359314, -0.5473973155021667, 0.12297254800796509, -0.1273721307516098, -0.035291701555252075, -0.3285903036594391, -0.3040767312049866, -0.04069900885224342, -0.1626386046409607, -0.20166414976119995, -0.23942722380161285, -0.6331818699836731, -0.3820655941963196, -0.005905222147703171, 0.26280900835990906], [0.04928978905081749, 0.3445499837398529, 0.18616415560245514, 0.2726944088935852, 0.41648069024086, 0.18612487614154816, -0.12410657107830048, -0.05414937436580658, 0.1210988461971283, 0.060066964477300644, 0.058505792170763016, 0.149494007229805, 0.09496933966875076, -0.31624239683151245, -0.128907710313797, 0.30099770426750183, 0.11080209165811539, 0.10038972645998001, 0.05024978891015053, -0.09588456153869629, -0.044467322528362274, 0.00934144388884306, -0.006033865734934807, 0.806061863899231, -0.08078167587518692, -0.2073443979024887, -0.40576860308647156, 0.541243851184845, 0.027372917160391808, 0.10770504176616669, -0.09355653077363968, -0.022295832633972168], [-0.07106441259384155, 0.39580070972442627, -0.09095922857522964, -0.23984505236148834, -0.2029445767402649, -0.09242387861013412, -0.44548794627189636, -0.01071067526936531, 0.35662686824798584, -0.4816536009311676, -0.1780114769935608, 0.1180104911327362, -0.44713374972343445, 0.2024179846048355, 0.08342999964952469, 0.1583407074213028, -0.025220170617103577, 0.083360955119133, -0.2429879754781723, -0.013175946660339832, -0.3693307340145111, 0.06375258415937424, -0.3773569166660309, -0.2260054051876068, 0.019720228388905525, -0.041096169501543045, -0.28337618708610535, -0.13515423238277435, -0.10475306957960129, -0.30728352069854736, -0.014082741923630238, -0.10851823538541794], [0.0016108605777844787, -0.36499136686325073, 0.5112468600273132, -0.1490626335144043, -0.02695639804005623, -0.022325683385133743, 0.16919966042041779, -0.03502886742353439, -0.022304106503725052, -0.2063075304031372, -0.1002323254942894, 0.026280028745532036, 0.06050057336688042, 0.19383560121059418, 0.4121227562427521, -0.22998927533626556, -0.038566600531339645, -0.1834033727645874, 0.0010125783737748861, -0.13132348656654358, -0.432323694229126, -0.5743190050125122, 0.41465482115745544, 0.18799985945224762, 0.09772089868783951, -0.29269886016845703, 0.03203333914279938, -0.02080158330500126, -0.05233035609126091, 0.09246505796909332, -0.032338399440050125, -0.4709218144416809], [-0.2559668719768524, -0.11723501235246658, -0.11450468748807907, -0.29344406723976135, -0.16510672867298126, -0.044954899698495865, 0.22844234108924866, -0.04566473886370659, -0.2039877027273178, 0.031876929104328156, 0.25825944542884827, -0.26936012506484985, -0.47971177101135254, -0.03345566615462303, -0.2029200941324234, 0.47105735540390015, 0.013408446684479713, -0.46124663949012756, -0.18506009876728058, -0.40881070494651794, 0.15271267294883728, 0.11546023935079575, 0.054666128009557724, -0.3480129837989807, -0.4184177815914154, 0.29028722643852234, -0.22884908318519592, -0.4573855698108673, 0.08012107014656067, -0.17035363614559174, -0.04382512345910072, -0.5882816910743713], [-0.3741135597229004, 0.14182011783123016, 0.25848907232284546, -0.0327574647963047, 0.5324575304985046, 0.13816116750240326, -0.011855765245854855, 0.023055927827954292, -0.1345638930797577, -0.18676720559597015, 0.08081255108118057, -0.03844032064080238, 0.24602384865283966, 0.22479696571826935, 0.14759892225265503, -0.2561280429363251, 0.30620208382606506, -0.06096647307276726, -0.2939227223396301, 0.013407946564257145, -0.41092097759246826, -0.24885131418704987, 0.19180580973625183, -0.3951365351676941, -0.034083057194948196, -0.31708618998527527, 0.23532932996749878, -0.24047642946243286, 0.26117005944252014, -0.17369984090328217, 0.270709753036499, 0.27605023980140686], [-0.12397902458906174, 0.26940762996673584, 0.38753777742385864, -0.4741150140762329, 0.2703118920326233, -0.5501783490180969, -0.002302871784195304, -0.08645104616880417, 0.1328236311674118, -0.10958876460790634, 0.13531740009784698, 0.30935177206993103, 0.05913277342915535, 0.7471388578414917, -0.3880528509616852, -0.0769573524594307, 0.36148539185523987, -0.04145874083042145, 0.1528121680021286, -0.1744012087583542, 0.06747330725193024, -0.015429127030074596, -0.2557315230369568, 0.3906683623790741, -0.15260125696659088, -0.1684608906507492, -0.17922092974185944, 0.019703635945916176, -0.12774430215358734, 0.002484935102984309, 0.36493492126464844, -0.11067629605531693], [0.07476761192083359, -0.22438311576843262, 0.3545016646385193, -0.24625957012176514, 0.42930275201797485, 0.0037384135648608208, -0.021716149523854256, -0.2133907824754715, -0.42097970843315125, -0.03574998304247856, 0.11568241566419601, 0.06991074979305267, 0.2253836989402771, -0.6961200833320618, -0.20008344948291779, -0.2453698217868805, 0.6642056703567505, -0.26834022998809814, -0.002587831113487482, -0.48367178440093994, -0.3221919536590576, -0.5013163089752197, 0.32964202761650085, 0.09031978994607925, 0.07246781140565872, -0.10341977328062057, -0.36105942726135254, -0.03532227501273155, 0.1808655560016632, -0.5500287413597107, 0.2383831888437271, -0.28751039505004883], [-0.29318511486053467, 0.6533784866333008, -0.5786152482032776, -0.2171257585287094, -0.09394893795251846, -0.22343766689300537, 0.24958766996860504, 0.561147928237915, 0.14064952731132507, -0.5403541326522827, 0.15253694355487823, -0.41476893424987793, 0.1885962039232254, -0.02574934996664524, -0.1623019129037857, 0.3195177912712097, 0.17861634492874146, 0.07152474671602249, 0.013411123305559158, -0.10076871514320374, -0.2765214741230011, 0.2474364936351776, 0.08176050335168839, 0.1107095256447792, -0.18685826659202576, -0.2512350380420685, 0.1691775619983673, 0.014169827103614807, -0.1495770812034607, 0.07249658554792404, -0.5338042974472046, -0.26296401023864746], [0.11727443337440491, 0.23195289075374603, 0.4082094728946686, -0.002867301693186164, 0.5306013226509094, -0.284640908241272, 0.1566503345966339, 0.44838961958885193, 0.2717249095439911, -0.07948274165391922, -0.5284427404403687, 0.10324864089488983, -0.18164104223251343, 0.6339482665061951, 0.054242171347141266, -0.2939969599246979, -0.433040052652359, -0.15748806297779083, 0.23205015063285828, -0.01859709806740284, -0.1704675853252411, 0.2411985993385315, -0.030408456921577454, -0.4205482006072998, -0.1851678043603897, -0.4252699315547943, 0.1402297168970108, 0.26879897713661194, 0.28568220138549805, 0.08247450739145279, -0.05345248058438301, -0.30430540442466736], [0.1275051236152649, -0.11011374741792679, 0.2546205222606659, -0.3202131986618042, 0.3271634876728058, -0.3321203887462616, -0.2891421914100647, -0.07989289611577988, 0.07544023543596268, -0.1272551417350769, -0.14996348321437836, 0.33021309971809387, 0.2105332911014557, -0.4315188229084015, 0.3786713182926178, 0.05962641164660454, 0.23967823386192322, 0.2600952088832855, -0.05566244572401047, -0.26746371388435364, -0.3000326454639435, 0.0856223925948143, -0.3876577615737915, -0.01690077967941761, -0.03446292504668236, 0.4003443717956543, -0.07034844905138016, 0.3563849627971649, -0.14002160727977753, 0.023071011528372765, -0.31717410683631897, 0.1956893801689148], [0.3690779209136963, -0.08568029850721359, 0.15302324295043945, -0.045686013996601105, 0.010266171768307686, 0.4412251114845276, -0.35281381011009216, -0.2104663848876953, 0.2367144376039505, 0.17626601457595825, -0.25234872102737427, -0.11570890992879868, -0.15160620212554932, -0.11783591657876968, 0.4737035930156708, 0.5295432806015015, -0.21769146621227264, 0.14219962060451508, 0.18420879542827606, 0.6970415115356445, 0.0533946268260479, 0.24990646541118622, 0.08671946078538895, -0.07113324105739594, 0.012563006021082401, 0.02834520861506462, -0.09446317702531815, 0.053072940558195114, 0.271863728761673, 0.13331343233585358, 0.19889017939567566, -0.13881109654903412], [-0.07754845172166824, -0.4101863503456116, 0.00873833242803812, 0.35794803500175476, 0.44705313444137573, 0.21054451167583466, 0.21909740567207336, -0.25654006004333496, 0.19054260849952698, -0.21045754849910736, 0.0855817049741745, -0.18379025161266327, 0.6279628872871399, 0.16309750080108643, 0.27163442969322205, -0.0054017724469304085, 0.11724282056093216, -0.3690826892852783, -0.16908316314220428, 0.21600912511348724, 0.08271563798189163, -0.23318341374397278, -0.3158027231693268, -0.5174815654754639, 0.41421446204185486, 0.18082089722156525, -0.2560428977012634, 0.23285092413425446, -0.24013732373714447, -0.038807209581136703, 0.08560871332883835, -0.23436863720417023], [0.3151818513870239, -0.05875205621123314, 0.0789204016327858, -0.23897193372249603, 0.03483958542346954, -0.12275655567646027, -0.13045236468315125, 0.0902983695268631, 0.06375188380479813, -0.6146030426025391, 0.28634724020957947, -0.11711452901363373, -0.24544459581375122, 0.20527048408985138, -0.04773847013711929, 0.03813108429312706, 0.013107944279909134, -0.05455375835299492, 0.11676795780658722, 0.2810998260974884, -0.25621896982192993, -0.18171466886997223, 0.021973809227347374, 0.18473872542381287, -0.303907573223114, 0.5434777140617371, -0.2939639389514923, 0.31679022312164307, -0.18962997198104858, -0.10227872431278229, -0.11495116353034973, -0.29676204919815063], [-0.007751799654215574, -0.04690167307853699, -0.3149370849132538, 0.6510941386222839, -0.1993342936038971, -0.05576574429869652, -0.2705433964729309, 0.19834385812282562, -0.18266335129737854, 0.5685787200927734, -0.037618331611156464, 0.42628714442253113, 0.23182380199432373, 0.14151616394519806, -0.357168585062027, 0.11168462783098221, 0.023594912141561508, 0.051657699048519135, -0.23511220514774323, -0.27698642015457153, -0.09852949529886246, 0.38749247789382935, -0.08560208231210709, 0.042573340237140656, 0.21193815767765045, 0.3201407194137573, -0.08067648857831955, 0.7119773030281067, 0.0068900976330041885, -0.36057746410369873, 0.07751134783029556, -0.18216702342033386], [0.09448825567960739, -0.08003724366426468, -0.2461642473936081, 0.0744030624628067, -0.1266956776380539, -0.14083331823349, -0.4190889298915863, 0.12193722277879715, -0.29811346530914307, 0.3569572865962982, -0.0013210511533543468, 0.3270321190357208, 0.039454832673072815, -0.03972094506025314, 0.14547376334667206, -0.47982117533683777, -0.4600416421890259, -0.4191396236419678, -0.08727358281612396, -0.3730047941207886, -0.017167916521430016, 0.30836135149002075, -0.1214638203382492, -0.23426273465156555, 0.05975957587361336, -0.3487096428871155, -0.23883795738220215, -0.008181808516383171, 0.11501041799783707, -0.20136485993862152, 0.004028242081403732, 0.13809670507907867], [0.06436336040496826, 0.21362018585205078, -0.29543811082839966, 0.13404075801372528, -0.10037458688020706, -0.026996133849024773, -0.7152379155158997, 0.1903543919324875, -0.11080742627382278, -0.39866021275520325, -0.19592784345149994, -0.4295283257961273, 0.3329249620437622, 0.13624508678913116, 0.023370997980237007, 0.2149883657693863, 0.36464399099349976, -0.0366748683154583, -0.02886604331433773, -0.3785986006259918, -0.5514736771583557, -1.005982756614685, -0.5789300799369812, 0.37224864959716797, -0.3483745753765106, -0.01302256342023611, 0.49417322874069214, 0.049675896763801575, -0.171441912651062, -0.07782779633998871, 0.1762208491563797, 0.23859575390815735], [0.0783417597413063, 0.011926350183784962, -0.4274521768093109, -0.2447431981563568, -0.3188205361366272, 0.4238508641719818, -0.13604533672332764, -0.23528191447257996, -0.4034630358219147, 0.37276309728622437, -0.25296321511268616, 0.14746446907520294, 0.23632556200027466, 0.003712615929543972, -0.2153140753507614, -0.06285978853702545, 0.1590285301208496, 0.11525008827447891, -0.13072088360786438, -0.056293364614248276, 0.04008036479353905, -0.18561360239982605, -0.5309655070304871, -0.07283376157283783, 0.029986383393406868, -0.23955422639846802, 0.30105307698249817, 0.2736576795578003, 0.06402168422937393, -0.24204736948013306, -0.2194148302078247, -0.004604032728821039], [0.15718036890029907, 0.2366638332605362, 0.20852486789226532, 0.3803269565105438, 0.18172739446163177, -0.14064143598079681, 0.1594252735376358, -0.2215682417154312, 0.3070378005504608, 0.35718077421188354, -0.1348426640033722, 0.14259590208530426, 0.1423092931509018, 0.03444209694862366, 0.17523176968097687, 0.1481184959411621, 0.04060909524559975, -0.32962748408317566, -0.383722722530365, 0.08406153321266174, -0.0656583160161972, -0.3970389664173126, -0.2102731168270111, 0.21595074236392975, -0.5057237148284912, 0.01034090481698513, 0.23991213738918304, 0.5791310667991638, 0.1878172606229782, 0.033894121646881104, -0.020879259333014488, -0.33220329880714417], [-0.24231573939323425, -0.5824910402297974, 0.23493345081806183, 0.3956640064716339, 0.07459981739521027, -0.28847190737724304, 0.15015019476413727, -0.10505441576242447, 0.4275272488594055, 0.13981635868549347, 0.07195735722780228, 0.45853862166404724, 0.2869071662425995, -0.11621946841478348, -0.027479376643896103, -0.2515987157821655, -0.07257021218538284, -0.08891598880290985, 0.33922067284584045, 0.1781679391860962, -0.09005250781774521, -0.4786379337310791, -0.011071654967963696, -0.5129561424255371, -0.4972546100616455, 0.2710328996181488, -0.20310649275779724, 0.16330458223819733, 0.14535202085971832, 0.3836798667907715, 0.631397008895874, -0.7065967917442322], [0.25007468461990356, 0.4085495173931122, -0.2254280149936676, 0.31829819083213806, -0.08605171740055084, -0.7942872643470764, -0.006471356377005577, -0.20829364657402039, 0.3279132843017578, 0.2641632854938507, 0.1989363133907318, -0.09056135267019272, 0.17963656783103943, -0.3027297854423523, -0.5309032797813416, -0.14768245816230774, 0.10428410768508911, 0.34088313579559326, 0.21503742039203644, 0.08281025290489197, -0.2001754194498062, -0.25420424342155457, -0.23201824724674225, 0.6150292158126831, 0.2713833749294281, -0.0569726824760437, 0.29735761880874634, -0.22927823662757874, -0.44189077615737915, 0.3106207549571991, -0.06474650651216507, 0.1841636747121811], [-0.10381890088319778, 0.18117885291576385, 0.03346702829003334, -0.039605896919965744, -0.11032354831695557, 0.4370562732219696, -0.00705755315721035, -0.05212748795747757, 0.15892986953258514, -0.16341005265712738, -0.209584042429924, -0.010357690043747425, 0.2768724858760834, -0.1623391956090927, -0.36701998114585876, -0.07118037343025208, -0.20322482287883759, 0.15419694781303406, 0.07768142223358154, -0.4284389913082123, -0.03084196336567402, -0.30138731002807617, -0.24155765771865845, -0.08974987268447876, -0.5122352838516235, 0.13556179404258728, 0.02775663509964943, -0.11803080886602402, 0.1135634034872055, -0.4851672649383545, 0.3934606909751892, -0.09107627719640732], [-0.15170666575431824, 0.2007252722978592, 0.22662638127803802, -0.49740567803382874, 0.4618600904941559, -0.017890574410557747, -0.2700040936470032, -0.25425899028778076, 0.2183970808982849, 0.01993144117295742, -0.451885461807251, 0.03221339359879494, -0.24885736405849457, 0.008602202869951725, -0.2977854609489441, 0.039544347673654556, -0.6362919807434082, -0.5380111336708069, -0.46309417486190796, -0.21523208916187286, -0.4620124101638794, -0.01384393684566021, -0.6465722918510437, -0.3887418508529663, 0.19390511512756348, 0.07147148996591568, -0.07379360496997833, -0.22565589845180511, -0.11246445029973984, -0.00794295035302639, 0.13902874290943146, 0.3999004364013672], [0.4405754804611206, -0.2500852048397064, -0.19828355312347412, -0.2701684236526489, -0.17659863829612732, -0.153738871216774, 0.11484848707914352, -0.16011831164360046, 0.01617048867046833, -0.015957439318299294, -0.05204023793339729, -0.4986181855201721, -0.13618798553943634, 0.3293609619140625, -0.20647165179252625, -0.10820747911930084, -0.0430811308324337, 0.1262521892786026, -0.3276989758014679, 0.07701509445905685, -0.17516325414180756, -0.23663200438022614, -0.03369295597076416, -0.23446521162986755, -0.4131363332271576, 0.007756803184747696, -0.12851907312870026, -0.04902368411421776, 0.07260731607675552, -0.10469021648168564, -0.4926696717739105, 0.3245914876461029], [-0.2414175122976303, 0.5183441042900085, 0.041397642344236374, -0.20724152028560638, -0.22347328066825867, 0.18447858095169067, 0.006060883402824402, -0.01190485991537571, -0.40924587845802307, 0.007434157654643059, -0.29374584555625916, -0.8155596852302551, 0.0953296646475792, 0.20676296949386597, 0.1970333606004715, -0.2603224813938141, 0.12336061894893646, 0.20866601169109344, -0.02687913365662098, -0.37786197662353516, 0.39943206310272217, 0.032738640904426575, 0.10195660591125488, 0.22150158882141113, -0.038325026631355286, -0.14514996111392975, 0.040924474596977234, -0.6163754463195801, 0.22446011006832123, 0.009734885767102242, -0.15087419748306274, 0.2422177642583847], [-0.23481053113937378, 0.34973815083503723, -0.10840894281864166, -0.23085950314998627, 0.007002467755228281, 0.11869332939386368, -0.1815250962972641, 0.32231831550598145, -0.09086088836193085, -0.4319266676902771, 0.12272815406322479, 0.1347631812095642, 0.02908705733716488, -0.09030114859342575, -0.1455925703048706, -0.07686983048915863, -0.2896297574043274, -0.29125604033470154, -0.3583018481731415, 0.5056936144828796, -0.043274637311697006, 0.19129939377307892, -0.3845154047012329, 0.004192572087049484, 0.021782057359814644, -0.1900857388973236, 0.5931478142738342, -0.7566897869110107, -0.3663692772388458, -0.4554250240325928, -0.5723444223403931, -0.22879505157470703], [0.19937199354171753, 0.1325760781764984, 0.21115070581436157, -0.0787481963634491, 0.16787995398044586, -0.4302782118320465, -0.6704741716384888, -0.11753722280263901, 0.15500405430793762, -0.1366155594587326, 0.13872291147708893, -0.3724646270275116, -0.11693082749843597, -0.7455230355262756, -0.26222285628318787, -0.025214310735464096, -0.005222192034125328, -0.4032157063484192, -0.2766006290912628, -0.133226215839386, 0.09282351285219193, -0.20833683013916016, -0.46526995301246643, 0.38476115465164185, -0.0745978131890297, -0.08454851806163788, 0.6431403756141663, 0.28210535645484924, 0.04425995424389839, 0.03204795718193054, -0.060470856726169586, 0.020898597314953804], [-0.31785449385643005, 0.25154221057891846, 0.4535274803638458, 0.2521653473377228, 0.24791614711284637, -0.06978894025087357, 0.18463200330734253, 0.0584140308201313, -0.03249520808458328, 0.04009818285703659, 0.23373080790042877, -0.3820692002773285, 0.3959480822086334, 0.0718739777803421, -0.13436688482761383, 0.048000581562519073, 0.15203694999217987, -0.019045891240239143, 0.2773556709289551, 0.5169652104377747, 0.2925322651863098, -0.04180935397744179, -0.16595029830932617, 0.2574491500854492, -0.006703621242195368, -0.11682677268981934, -0.2386673539876938, -0.1605301946401596, 0.08822803199291229, -0.13042941689491272, 0.2700663208961487, 0.031895045191049576], [0.39351823925971985, 0.23244330286979675, 0.30905839800834656, 0.07171253859996796, 0.21451124548912048, 0.0680367574095726, 0.04180394858121872, -0.009877225384116173, -0.27640315890312195, 0.4103052616119385, -0.10970660299062729, -0.3069663643836975, 0.1839066594839096, 0.4220360219478607, -0.02226807363331318, -0.4229658246040344, 0.15810860693454742, 0.21926210820674896, 0.3030771017074585, 0.10003139823675156, 0.25572019815444946, -0.08628029376268387, -0.3488152027130127, 0.1827186793088913, 0.14465029537677765, 0.07182334363460541, -0.19425444304943085, -0.05817631259560585, -0.09803950041532516, -0.4519098997116089, 0.2729775607585907, 0.0768488198518753], [-0.023834319785237312, -0.24840980768203735, 0.04976176843047142, -0.03580557927489281, -0.10440822690725327, -0.07507182657718658, -0.35090371966362, -0.08557569235563278, -0.0968795046210289, 0.021984584629535675, -0.14609481394290924, -0.23403823375701904, -0.2124057412147522, 0.04516896605491638, -0.27159494161605835, 0.01437259279191494, 0.3487851917743683, 0.10899405181407928, -0.18263359367847443, -0.12019485980272293, 0.004855053499341011, -0.3206007778644562, -0.17103837430477142, -0.12136588245630264, 0.07620561867952347, 0.5953163504600525, -0.08600518107414246, 0.5020405650138855, -0.16752788424491882, -0.03576201573014259, -0.236373633146286, -0.47593042254447937], [0.15231776237487793, -0.5112592577934265, 0.20232893526554108, 0.6176584959030151, 0.26116207242012024, -0.8473421335220337, -0.1549539715051651, -0.9669574499130249, 0.10690934956073761, 0.027306819334626198, -0.2889956831932068, 0.2706179618835449, 0.21973881125450134, 0.033892784267663956, 0.019809413701295853, 0.2364303320646286, -0.08314193785190582, -0.18215884268283844, -0.17097894847393036, 0.052562177181243896, -0.01658017188310623, -0.3929627239704132, -0.09572455286979675, -0.3498731255531311, 0.603550374507904, 0.11577919125556946, -0.22574672102928162, 0.6723737716674805, 0.15779277682304382, -0.009403808042407036, 0.6418026685714722, -0.6119673252105713], [0.14568309485912323, -0.12010028958320618, 0.45634210109710693, 0.36609935760498047, 0.3976233899593353, -0.3232572376728058, -0.27829834818840027, -0.12687361240386963, -0.1138075441122055, 0.1887938380241394, 0.0697648823261261, -0.2852388322353363, -0.07765882462263107, 0.30401256680488586, -0.022567028179764748, 0.0037390580400824547, -0.13027764856815338, -0.1863677054643631, -0.3746691644191742, 0.3413768708705902, -0.5778737664222717, -0.08204483985900879, -0.060959987342357635, 0.1920807659626007, -0.44128549098968506, -0.07764767110347748, -0.14844657480716705, 0.08277392387390137, -0.3827553987503052, 0.16540540754795074, 0.375661700963974, -0.43674972653388977], [0.19700150191783905, 0.13921310007572174, -0.30297014117240906, -0.22978277504444122, 0.2904393672943115, 0.11696791648864746, 0.32606497406959534, 0.3928343653678894, -0.6535115838050842, 0.009170923382043839, -0.03359491005539894, -0.09141837060451508, -0.2853384017944336, 0.012517943046987057, -0.4124288558959961, 0.11881555616855621, 0.19573760032653809, 0.4033374786376953, 0.3809574544429779, -0.2848915457725525, -0.23331613838672638, -0.2112770825624466, 0.407236248254776, -0.13141803443431854, -0.07299554347991943, 0.20101338624954224, 0.38316869735717773, -0.4047304689884186, -0.3591568171977997, -0.27394771575927734, -0.2084576040506363, -0.08167187124490738], [-0.16750310361385345, 0.14503039419651031, 0.1539597511291504, -0.2839655876159668, -0.22689993679523468, 0.045703522861003876, 0.27371612191200256, 0.08200640231370926, -0.058145444840192795, -0.02783876843750477, -0.27248653769493103, 0.2736125588417053, -0.023414039984345436, 0.19639067351818085, 0.18530720472335815, 0.040046576410532, -0.31321150064468384, 0.48123544454574585, -0.3298763036727905, -0.07083029299974442, -0.043838419020175934, 0.32696351408958435, -0.5081045627593994, -0.310091495513916, 0.1613772064447403, 0.2901574969291687, 0.0653107613325119, 0.15910373628139496, -0.23760952055454254, -0.15143711864948273, -0.2660817503929138, 0.3366577923297882], [-0.25933948159217834, -0.5084049105644226, 0.12488605082035065, -0.02101462334394455, -0.08523222804069519, -0.22925643622875214, 0.12636278569698334, 0.28431448340415955, 0.1054721400141716, 0.05261226370930672, -0.27163103222846985, 0.2859777808189392, 0.10691846907138824, 0.5301666259765625, 0.19696488976478577, -0.656614363193512, -0.416695237159729, 0.2529526352882385, 0.6479882597923279, -0.3686983585357666, -0.08212550729513168, 0.24310338497161865, -0.43141743540763855, -0.36146700382232666, 0.04555651172995567, -0.2902740240097046, 0.25779950618743896, 0.23465271294116974, 0.645536482334137, 0.0460030771791935, 0.14473414421081543, -0.3168904185295105], [-0.3783789575099945, -0.09695916622877121, -0.07102633267641068, -0.11081692576408386, 0.517171323299408, -0.23361754417419434, -0.11204739660024643, -0.06909910589456558, -0.19473375380039215, -0.34829264879226685, 0.13392746448516846, -0.14299531280994415, -0.09164872020483017, 0.08704421669244766, 0.3889242708683014, -0.06815603375434875, -0.009952920489013195, -0.37989377975463867, -0.22548802196979523, 0.3479115664958954, -0.14791670441627502, -0.5417808294296265, 0.3800365626811981, -0.0013197144726291299, -0.03294237703084946, -0.38484594225883484, -0.5426585674285889, 0.08418242633342743, 0.22675184905529022, -0.09443065524101257, 0.48036256432533264, -0.28076082468032837], [-0.31260913610458374, 0.38708773255348206, 0.08227615058422089, -0.5667173266410828, -0.504562258720398, -0.5319856405258179, -0.22129885852336884, -0.04784764349460602, 0.16104668378829956, -0.36639416217803955, -0.03975941613316536, 0.16797734797000885, -0.21021105349063873, 0.08424178510904312, 0.027959216386079788, -0.05221829563379288, 0.034273333847522736, 0.012777536176145077, 0.04290320351719856, 0.23875541985034943, -0.02675807662308216, -0.02361026406288147, 0.18679460883140564, 0.3277229964733124, -0.43955010175704956, -0.24593481421470642, -0.12165091186761856, -0.13389459252357483, 0.4046531915664673, -0.10551238805055618, -0.617793619632721, 0.06459905952215195], [-0.019694365561008453, 0.2477443516254425, -0.2356346845626831, -0.34272998571395874, -0.26406997442245483, 0.07670628279447556, -0.3295174539089203, 0.11277612298727036, 0.3722594678401947, 0.010067963972687721, -0.028115419670939445, 0.001988152740523219, -0.29953014850616455, 0.01768437959253788, -0.3002902865409851, -0.06330354511737823, -0.3818940818309784, 0.32625657320022583, -0.056210774928331375, -0.12356588244438171, 0.2914450764656067, 0.10253417491912842, -0.15123672783374786, 0.34025517106056213, -0.39296627044677734, -0.17376834154129028, 0.021810799837112427, 0.25241219997406006, -0.29387012124061584, -0.11205963045358658, -0.2899177670478821, 0.3137575089931488], [-0.2533077001571655, -0.5071071982383728, -0.08474382758140564, -0.21913333237171173, -0.09689759463071823, -0.1359742432832718, -0.3358238637447357, 0.19124537706375122, 0.14798212051391602, 0.08864467591047287, 0.15874260663986206, 0.13732178509235382, 0.48944032192230225, 0.03958035260438919, 0.47487813234329224, -0.1608806699514389, -0.09056676924228668, -0.1494981050491333, -0.44990959763526917, -0.06841079145669937, -0.12984049320220947, -0.0022127069532871246, 0.11721315234899521, -0.13827644288539886, 0.2801930904388428, -0.036120831966400146, -0.7490565180778503, 0.5708023905754089, 0.22821727395057678, 0.5944578647613525, 0.04524724557995796, -0.25352680683135986], [-0.2980763018131256, 0.1453477144241333, 0.0726601704955101, -0.395332396030426, -0.39508625864982605, 0.0793856531381607, -0.09907834976911545, 0.04600092023611069, 0.012953518889844418, -0.2520075738430023, 0.010346954688429832, -0.1866157501935959, -0.17854759097099304, 0.4275760352611542, -0.1139773279428482, 0.03379698097705841, 0.06858381628990173, -0.01557877380400896, -0.44604000449180603, 0.03737263381481171, 0.16843567788600922, 0.05715487524867058, -0.02360476180911064, 0.05208447575569153, -0.07159300148487091, -0.34602072834968567, 0.2471364587545395, -0.025331661105155945, -0.4752538502216339, -0.16569970548152924, 0.2736743092536926, 0.26989591121673584], [0.36321941018104553, -0.2387932389974594, 0.18314522504806519, 0.3228054344654083, 0.0665280744433403, -0.1549219936132431, -0.2007727175951004, -0.07078220695257187, -0.19383317232131958, -0.100799061357975, -0.27974116802215576, -0.11499752104282379, -0.001160906278528273, 0.260005384683609, -0.029180044308304787, -0.1383996605873108, 0.11268862336874008, -0.30507588386535645, 0.4986768066883087, 0.019116265699267387, 0.2422487586736679, -0.20151112973690033, -0.22751271724700928, -0.286479115486145, -0.3052782118320465, 0.1600486785173416, 0.5392844676971436, -0.19213871657848358, -0.29632413387298584, -0.39224934577941895, -0.05647861585021019, -0.482004851102829], [0.25979939103126526, 0.501472532749176, -0.039090100675821304, -0.21671514213085175, 0.19767454266548157, -0.13795292377471924, 0.17446106672286987, 0.07527536153793335, 0.21710091829299927, -0.18233507871627808, 0.06897787749767303, -0.16670265793800354, -0.26845377683639526, -0.1190892681479454, -0.36975306272506714, 0.17901521921157837, 0.03849082067608833, 0.3899812698364258, -0.2421410232782364, -0.0702589750289917, 0.332378089427948, 0.18284077942371368, 0.1842195987701416, 0.35696151852607727, -0.11375147104263306, 0.11678217351436615, 0.34342917799949646, -0.23221147060394287, -0.11624056100845337, 0.38275912404060364, -0.6983498930931091, -0.2529917359352112], [-0.2397567331790924, 0.17799846827983856, -0.7897331118583679, -0.08963795006275177, -0.148199200630188, 0.28376439213752747, 0.06714075058698654, 0.21458134055137634, -0.06937552243471146, -0.07155796885490417, -0.1292314976453781, 0.27348703145980835, -0.3048032522201538, -0.8104186058044434, -0.2395973652601242, -0.022588830441236496, 0.3526581823825836, -0.00404804153367877, 0.21201889216899872, -0.28972771763801575, 0.4188942313194275, -0.02533399686217308, -0.5104550123214722, 0.2784944772720337, -0.2293083220720291, 0.4389304518699646, -0.09528493136167526, -0.1042383685708046, -0.29786255955696106, 0.31708580255508423, -0.5523275136947632, 0.06916406750679016], [0.09081274271011353, 0.15988050401210785, 0.009614553302526474, -0.18813538551330566, 0.2181735783815384, 0.06373690813779831, -0.32627350091934204, -0.6906203031539917, -0.2993442118167877, -0.15546664595603943, 0.18002240359783173, 0.4581983685493469, 0.36810141801834106, 0.1773676723241806, 0.02000448852777481, -0.028378291055560112, -0.09130784124135971, 0.13222338259220123, -0.3305707275867462, 0.11844702064990997, 0.021433498710393906, -0.1616038680076599, 0.047187093645334244, -0.42255401611328125, -0.23942254483699799, 0.05898245796561241, 0.028782164677977562, 0.163631409406662, -0.08124920725822449, 0.4827844500541687, -0.17941541969776154, -0.15491871535778046], [0.2056424915790558, -0.6361339688301086, 0.1526397168636322, 0.28091850876808167, -0.12440638989210129, 0.5536908507347107, 0.045180853456258774, 0.16873764991760254, 0.09492958337068558, 0.2445758730173111, 0.24087204039096832, 0.19283542037010193, 0.28177857398986816, -0.31558850407600403, 0.17407752573490143, -0.03596264123916626, -0.15433956682682037, 0.11450771987438202, 0.3981076776981354, 0.2510785162448883, -0.25982967019081116, -0.1746087521314621, -0.09387928992509842, -0.29906171560287476, 0.18592217564582825, -0.4075389802455902, -0.20706526935100555, 0.005426276009529829, 0.04991840943694115, -0.0970197543501854, 0.25604045391082764, -0.1188841164112091], [0.054603543132543564, 0.64787757396698, -0.3644087016582489, -0.09415587037801743, -1.0154143571853638, 0.359828382730484, 0.06641338765621185, 0.35427892208099365, 0.3752005398273468, -0.23359160125255585, -0.2106482833623886, -0.4084114134311676, -0.5556715726852417, -0.17973825335502625, -0.20152194797992706, -0.3033057451248169, 0.024723904207348824, 0.31973540782928467, 0.3830285966396332, -0.48188015818595886, 0.03244593366980553, 0.15416254103183746, 0.05662249028682709, -0.3420054614543915, 0.15694616734981537, 0.2759227752685547, -0.12524192035198212, -0.031800881028175354, 0.17077714204788208, -0.5200967788696289, -0.08715001493692398, -0.07405150681734085], [0.13235051929950714, 0.03131340071558952, -0.33008643984794617, -0.2025548815727234, -0.15577146410942078, -0.1636713594198227, -0.039509791880846024, 0.31270739436149597, -0.1401345431804657, -0.1700611710548401, -0.19284583628177643, -0.37377849221229553, -0.09926148504018784, -0.0030373241752386093, -0.14497780799865723, 0.073366679251194, 0.09129975736141205, 0.09161418676376343, -0.20477859675884247, 0.12820382416248322, 0.36241617798805237, 0.1933434009552002, 0.024556277319788933, 0.40329375863075256, -0.07185257226228714, 0.22598731517791748, 0.03471119701862335, -0.2567368447780609, 0.20910486578941345, -0.36800241470336914, 0.19726911187171936, 0.18646296858787537], [-0.22652018070220947, -0.3755195736885071, -0.3820868134498596, 0.3957231044769287, 0.12372060865163803, 0.3211756944656372, -0.13209883868694305, 0.33817917108535767, 0.2562374174594879, -0.3277631998062134, -0.05110670253634453, 0.13714680075645447, -0.26874953508377075, 0.0821990817785263, -0.25575634837150574, 0.28116607666015625, 0.12345138192176819, 0.05845405161380768, -0.3077080547809601, -0.3992028534412384, -0.07691255956888199, -0.0889592170715332, 0.28536930680274963, 0.0630837231874466, 0.2930435538291931, -0.4034382998943329, -0.1792159378528595, 0.17468875646591187, 0.16634675860404968, -0.30357158184051514, -0.3345184028148651, -0.0023267229553312063], [-0.434707373380661, 0.47701016068458557, -0.30897706747055054, -0.22155074775218964, 0.019119346514344215, -0.13112664222717285, 0.23220409452915192, 0.5551281571388245, -0.056521736085414886, -0.27258235216140747, -0.19626151025295258, -0.4401366114616394, -0.1622103601694107, -0.549477756023407, -0.08852174878120422, 0.1739118993282318, 0.08785362541675568, 0.26366156339645386, -0.17964443564414978, -0.4069276452064514, 0.06588062644004822, 0.12181811779737473, -0.32796329259872437, 0.16466180980205536, -0.09416380524635315, 0.13612161576747894, 0.3236924409866333, -0.2271704077720642, 0.15431253612041473, -0.309215784072876, -0.08230358362197876, 0.13341307640075684], [-0.1796083301305771, 0.3930414915084839, 0.2868615686893463, 0.43587595224380493, 0.469541072845459, -0.12996651232242584, 0.1365385800600052, 0.28383171558380127, 0.19290746748447418, 0.003118682187050581, 0.20959745347499847, 0.16618436574935913, 0.42015549540519714, -0.16691763699054718, 0.4207283556461334, -0.003197490470483899, -0.06100165471434593, 0.09499489516019821, -0.36483830213546753, -0.09946148842573166, -0.11104747653007507, -0.2780038118362427, -0.24603690207004547, 0.25757360458374023, -0.06260332465171814, -0.1056794598698616, 0.11830605566501617, 0.23115651309490204, -0.2523542046546936, -0.050281256437301636, -0.38979095220565796, 0.18460500240325928], [-0.2099330574274063, -0.41454362869262695, 0.15863917768001556, 0.1335606575012207, 0.5183541178703308, -0.02813219279050827, 0.2883515954017639, -0.2380918562412262, 0.09557625651359558, 0.14612731337547302, 0.1279475837945938, 0.11919818818569183, 0.1619327813386917, 0.2347293645143509, 0.3384789228439331, 0.5978212952613831, -0.27209198474884033, 0.01502999383956194, -0.025127656757831573, 0.11931411921977997, -0.6142994165420532, -0.224784716963768, -0.13126960396766663, -0.3942587375640869, 0.11163336783647537, 0.1272924840450287, -0.3076714277267456, -0.024556510150432587, 0.14461952447891235, 0.17089201509952545, -0.10048376023769379, -0.10374055802822113], [-0.11759687960147858, -0.668960452079773, -0.12219409644603729, -0.22553260624408722, 0.2874557375907898, 0.19250397384166718, -0.11680217832326889, -0.038436196744441986, 0.3272826075553894, 0.022772956639528275, -0.1854831576347351, 0.049650877714157104, 0.22474712133407593, 0.35717734694480896, 0.25965580344200134, 0.33855512738227844, -0.1303899586200714, -0.32394707202911377, 0.10610192269086838, 0.01596865989267826, 0.2730870842933655, -0.0938693955540657, 0.09858430922031403, -0.47294366359710693, 0.10113516449928284, -0.004404377657920122, -0.44579562544822693, 0.30486419796943665, 0.12364932894706726, -0.29747962951660156, 0.17480424046516418, -0.29729053378105164], [0.11625886708498001, 0.619192898273468, -0.08945757150650024, -0.412140816450119, -0.34678032994270325, 0.006544267758727074, 0.01824292168021202, 0.12067870795726776, -0.48403894901275635, 0.0442274771630764, -0.516928493976593, -0.10846357047557831, 0.24042491614818573, -0.2153405249118805, -0.44059544801712036, -0.7789592146873474, 0.11183696985244751, 0.1764618307352066, -0.26738041639328003, 0.3808732032775879, 0.13561341166496277, -0.04068103805184364, 0.13969816267490387, -0.0033939918503165245, 0.012026447802782059, -0.12953150272369385, -0.09965713322162628, 0.11546649038791656, -0.3418346643447876, 0.3167499005794525, -0.09122729301452637, 0.00377308065071702], [0.17304208874702454, -0.7123503088951111, 0.09352081269025803, 0.25876253843307495, 0.4850344657897949, 0.10668977349996567, -0.13843782246112823, -0.017535988241434097, 0.5293575525283813, 0.2324981987476349, 0.2341916263103485, -0.3059735894203186, 0.1496659815311432, -0.29592999815940857, 0.13570484519004822, -0.13030816614627838, -0.08353565633296967, 0.15055279433727264, 0.1432405412197113, -0.033322617411613464, -0.45286571979522705, -0.19448578357696533, -0.23038871586322784, -0.2468445599079132, 0.0970349833369255, 0.09416752308607101, -0.21979199349880219, 0.06501653045415878, 0.15925824642181396, -0.551038384437561, 0.10887464135885239, 0.09540658444166183], [0.10487274080514908, -0.2108805775642395, -0.12617985904216766, -0.10470490902662277, 0.1761457622051239, 0.024890054017305374, 0.14632649719715118, 0.024242617189884186, 0.06472361087799072, -0.12029560655355453, -0.4422939419746399, -0.3872002363204956, 0.18426141142845154, -0.1513407677412033, -0.026061560958623886, 0.2931016683578491, -0.1409400999546051, -0.24873416125774384, 0.10853420943021774, -0.2311481535434723, 0.22431930899620056, 0.04649908095598221, -0.07727251946926117, -0.35968226194381714, -0.6108412146568298, 0.17190638184547424, 0.07397348433732986, -0.2226286083459854, -0.577299177646637, 0.23673883080482483, -0.3698112368583679, 0.16872777044773102], [-0.18550007045269012, -0.27299314737319946, -0.027695652097463608, 0.4954272508621216, 0.032162584364414215, 0.21236246824264526, 0.4267784059047699, -0.15548408031463623, 0.1215064749121666, 0.011191483587026596, -0.06497476994991302, 0.13091754913330078, 0.37821680307388306, -0.28557080030441284, 0.2648319900035858, 0.009446175768971443, 0.31633296608924866, -0.036202505230903625, -0.26610854268074036, -0.1893967092037201, -0.1859452873468399, 0.3082466125488281, -0.2566021978855133, -0.022641079500317574, -0.08072636276483536, 0.39270326495170593, -0.16410604119300842, 0.22268904745578766, 0.11401188373565674, 0.14905869960784912, 0.003071706974878907, -0.09103227406740189], [0.11462219059467316, -0.09800742566585541, -0.1645701825618744, 0.03257625177502632, -0.6066865921020508, 0.22654804587364197, -0.2733944058418274, 0.2643628418445587, -0.08668674528598785, 0.08103187382221222, -0.007304506376385689, -0.03705416992306709, 0.1298859566450119, -0.235519140958786, -0.20720677077770233, -0.03449436277151108, 0.00015520591114182025, -0.08207536488771439, -0.20553021132946014, 0.15875960886478424, 0.21767637133598328, -0.15731358528137207, 0.6487087607383728, 0.2062601000070572, -0.1783391684293747, 0.18152549862861633, 0.23050585389137268, -0.26348400115966797, 0.0018495450494810939, 0.06184843182563782, 0.3479197025299072, 0.4346292018890381], [-0.4173501133918762, -0.2257189303636551, -0.3235977292060852, -0.25714924931526184, 0.1368626356124878, -0.016377249732613564, 0.13724085688591003, 0.17379169166088104, 0.17784717679023743, -0.20078997313976288, -0.08529674261808395, 0.38427016139030457, 0.24527767300605774, 0.03143147751688957, 0.29697906970977783, 0.1717955619096756, 0.4274439811706543, -0.10647982358932495, -0.14897450804710388, -0.19902409613132477, 0.20124034583568573, -0.09511309117078781, 0.25006699562072754, 0.13343802094459534, -0.1301082968711853, -0.294503390789032, -0.00954984687268734, -0.31061187386512756, 0.01792915351688862, -0.08573312312364578, -0.06264524161815643, 0.27732589840888977], [-0.1060103178024292, -0.3436634838581085, 0.06402390450239182, -0.19253502786159515, 0.0848103016614914, 0.14631937444210052, 0.12782078981399536, -0.2855444848537445, -0.34137481451034546, 0.11616072058677673, 0.6879034638404846, 0.2740202844142914, 0.3834007680416107, 0.28330346941947937, 0.224840447306633, 0.26115819811820984, -0.0883616954088211, -0.5577622056007385, 0.26366356015205383, -0.30166274309158325, 0.035023704171180725, 0.053825896233320236, -0.3419311046600342, -0.5269277691841125, 0.5536230802536011, -0.3048636019229889, -0.0734010636806488, -0.49183061718940735, 0.2318628430366516, -0.14185382425785065, 0.640936017036438, -0.09397323429584503], [-0.06011394411325455, -0.12748654186725616, 0.7358353137969971, -0.15135899186134338, -0.3799571096897125, -0.5804173350334167, -0.6363039016723633, -0.7258038520812988, -0.14970651268959045, -0.05862532556056976, 0.2288924902677536, -0.34498000144958496, 0.07773307710886002, 0.3269053101539612, -0.20376095175743103, 0.5164408683776855, 0.5690317153930664, -0.2542877197265625, 0.11593317985534668, -0.18318380415439606, -0.5586415529251099, -0.09388667345046997, 0.30233529210090637, -0.2955237925052643, 0.20173802971839905, -0.2366413176059723, -0.001661496702581644, 0.4951398968696594, 0.6351639032363892, -0.09280692785978317, 0.18024051189422607, -0.4356422424316406], [0.14934764802455902, -0.29754647612571716, -0.06636609137058258, 0.40710389614105225, 0.506004273891449, 0.1830219179391861, -0.3839170038700104, -0.026213649660348892, 0.4348141551017761, -0.38487115502357483, -0.02508837915956974, -0.17176519334316254, -0.009446566924452782, -0.43746697902679443, -0.1246376633644104, 0.2669422924518585, 0.44223347306251526, -0.06206873431801796, 0.00960828922688961, 0.1845497190952301, -0.34567776322364807, -0.19335435330867767, 0.09197209030389786, -0.48291730880737305, -0.3772846758365631, 0.09692501276731491, 0.1731383353471756, 0.22282560169696808, 0.46599599719047546, 0.5735710859298706, 0.008681577630341053, -0.2448735535144806], [0.0608050711452961, 0.2695111930370331, 0.05925622209906578, 0.24097228050231934, 0.07349595427513123, 0.07551911473274231, -0.1071135401725769, 0.06665481626987457, 0.05302231013774872, 0.03675541654229164, -0.4106906056404114, -0.04527989774942398, -0.16612736880779266, 0.27115413546562195, -0.048572368919849396, 0.08786704391241074, 0.25803884863853455, -0.2773219645023346, 0.35084474086761475, 0.22611387073993683, -0.2540738582611084, 0.1696176528930664, -0.11970209330320358, -0.15232962369918823, -0.06527957320213318, -0.08810938894748688, -0.15009470283985138, -0.3850211501121521, -0.059575147926807404, 0.1953956037759781, 0.26647117733955383, 0.09333585202693939], [0.14680054783821106, -0.23301662504673004, -0.14948143064975739, 0.3739319443702698, -0.060944899916648865, 0.3560817241668701, 0.18529294431209564, -0.014961455017328262, -0.057429634034633636, 0.19418001174926758, 0.103334940969944, -0.0033506741747260094, 0.20854419469833374, 0.27163854241371155, 0.3777289092540741, 0.04358130693435669, 0.07689149677753448, -0.31879815459251404, 0.3071831464767456, 0.1510000228881836, -0.24053730070590973, -0.454103022813797, 0.03640124574303627, 0.10213743150234222, 0.026414796710014343, -0.3648702800273895, -0.04729314148426056, 0.01701159030199051, 0.24739427864551544, 0.2423335611820221, -0.07356248795986176, -0.4619681239128113], [-0.22004680335521698, -0.343807578086853, 0.33151975274086, 0.49083277583122253, -0.22671419382095337, -0.20401117205619812, 0.259856253862381, -0.056624509394168854, 0.3228500187397003, -0.3297237753868103, -0.23592546582221985, -0.7251017093658447, 0.026101822033524513, 0.24732810258865356, -0.18273703753948212, -0.026361186057329178, -0.2119423747062683, -0.2902315855026245, 0.0358257032930851, 0.4747227728366852, -0.11026987433433533, -0.2661762535572052, -0.019157053902745247, -0.6466099619865417, -0.05147399753332138, -0.2795485258102417, -0.33820486068725586, 0.17793424427509308, 0.32133615016937256, 0.1231696680188179, -0.09407158941030502, -0.26067763566970825], [-0.517676055431366, 0.09641595184803009, 0.38164418935775757, 0.07500439137220383, -0.03664705157279968, 0.08263101428747177, -0.1299552172422409, 0.22860191762447357, -0.14096170663833618, 0.022729650139808655, 0.07745035737752914, -0.13229809701442719, -0.10419153422117233, 0.49450165033340454, -0.11428355425596237, -0.5775979161262512, -0.37411394715309143, 0.17537258565425873, -0.16037321090698242, 0.18157139420509338, -0.23155194520950317, -0.07929408550262451, 0.2228849083185196, 0.11867067962884903, -0.3724313974380493, -0.16809365153312683, 0.031007224693894386, 0.4466014504432678, 0.031039956957101822, -0.015606408938765526, 0.11081590503454208, -0.3101946711540222], [0.016968153417110443, 0.5349037051200867, 0.5363678336143494, -0.02464570850133896, -0.23543693125247955, 0.02052912302315235, 0.10906008630990982, -0.1975904107093811, -0.06349635124206543, -0.17175284028053284, -0.15068663656711578, -0.10982639342546463, 0.18603676557540894, -0.12769749760627747, -0.15252073109149933, 0.008611352182924747, 0.15685248374938965, -0.024967962875962257, -0.2880069315433502, -0.09806488454341888, 0.015548248775303364, -0.021564148366451263, 0.31597965955734253, 0.2836928069591522, 0.20041923224925995, 0.06956733018159866, 0.5169911980628967, 0.1529124528169632, 0.3655669093132019, 0.02780391089618206, 0.7374586462974548, 0.0453878752887249], [0.04868335276842117, 0.1870531141757965, 0.005291274283081293, -0.3178982734680176, 0.25032326579093933, -0.14290384948253632, -0.029154393821954727, -0.0938716009259224, -0.09697593748569489, -0.47606179118156433, 0.2896020710468292, -0.45216381549835205, -0.21544243395328522, 0.24800069630146027, 0.16814574599266052, -0.05089351162314415, 0.0659414753317833, 0.1741117537021637, -0.13168485462665558, -0.36084944009780884, 0.1860111951828003, -0.012336097657680511, 0.04965667799115181, -0.11165394634008408, -0.10008697211742401, 0.6911393404006958, -0.38425424695014954, 0.04920075088739395, -0.027103176340460777, -0.14389200508594513, -0.404620885848999, -0.1547248363494873], [0.27629396319389343, 0.4031294882297516, 0.45511698722839355, -0.1767827421426773, -0.2532360851764679, 0.006920225918292999, -0.2262449711561203, -0.4894161522388458, 0.33855751156806946, 0.060505207628011703, -0.03724934533238411, -0.2372441440820694, 0.4151628017425537, 0.14068354666233063, -0.08752971887588501, -0.20019249618053436, 0.3679236173629761, -0.02326069213449955, -0.20377106964588165, -0.3049216568470001, -0.38864079117774963, 0.16590751707553864, -0.006113684736192226, 0.2643565833568573, 0.524298369884491, 0.22715908288955688, 0.7530786395072937, 0.34345126152038574, 0.1457975059747696, -0.03482072427868843, -0.261314332485199, -0.2084764987230301], [-0.18941278755664825, -0.6583088636398315, -0.16393634676933289, -0.06607484817504883, -0.2582530379295349, 0.04032260552048683, 0.20686621963977814, -0.6536158323287964, -0.4847167432308197, 0.3861646056175232, 0.012756026349961758, 0.21935635805130005, -0.21166443824768066, 0.01397782377898693, -0.35304024815559387, -0.03771084174513817, 0.23147934675216675, -0.32272249460220337, 0.0536055788397789, -0.03883136436343193, -0.03906678780913353, 0.17961426079273224, -0.14941832423210144, -0.2609057128429413, -0.21158194541931152, -0.03476543724536896, -0.12193741649389267, -0.5046516060829163, 0.1923166960477829, -0.40099892020225525, 0.28010615706443787, 0.02920946106314659], [0.1314588338136673, -0.42003333568573, 0.27368757128715515, 0.2293570339679718, 0.26232436299324036, 0.2549404799938202, -0.25245586037635803, 0.2913872301578522, 0.3871080279350281, -0.5577043890953064, 0.0005984466406516731, -0.3893682062625885, 0.07361497730016708, -0.29755204916000366, 0.19626104831695557, 0.17118686437606812, 0.25639110803604126, -0.17813993990421295, 0.07784450799226761, -0.3281591534614563, 0.19268178939819336, -0.40714144706726074, -0.033710550516843796, 0.335805743932724, -0.23205150663852692, -0.04946134611964226, 0.09052985161542892, 0.3764022886753082, 0.4721161127090454, -0.0576176717877388, 0.25078892707824707, -0.027140852063894272], [-0.008930779062211514, 0.5866460800170898, 0.10038156062364578, 0.7847632169723511, 0.41816261410713196, -0.024449586868286133, -0.2647196054458618, 0.2292032390832901, 0.3808383345603943, 0.10919222235679626, 0.08372286707162857, -0.04952984303236008, 0.16481861472129822, 0.03761645033955574, 0.2817445397377014, -0.5147961974143982, -0.23744168877601624, -0.08324717730283737, 0.3670717477798462, -0.16873595118522644, 0.06320013850927353, -0.056234873831272125, 0.1715158224105835, 0.38414421677589417, -0.009189060889184475, -0.19771555066108704, 0.28856486082077026, 0.09578286111354828, -0.1530304104089737, 0.1172068864107132, 0.3209286332130432, -0.25662124156951904], [-0.6953768134117126, 0.05265738070011139, 0.3202784061431885, 0.3377229571342468, 0.22964075207710266, 0.38047128915786743, -0.11363022774457932, -0.09853845834732056, 0.24013325572013855, -0.4424775540828705, 0.34706956148147583, -0.2335200160741806, 0.26874738931655884, 0.16155566275119781, 0.46466606855392456, 0.2235098034143448, -0.4015404284000397, -0.24359148740768433, 0.05262584984302521, -0.030656034126877785, -0.07298658788204193, -0.103755421936512, 0.018543921411037445, 0.002300536958500743, -0.003980226814746857, -0.14903491735458374, -0.24963878095149994, 0.024922499433159828, -0.1882455199956894, 0.2760496139526367, 0.41500505805015564, 0.11961566656827927], [-0.06944932788610458, 0.22152076661586761, 0.14010761678218842, -0.18851926922798157, -0.14972877502441406, -0.04811489209532738, -0.15119338035583496, -0.33607789874076843, 0.021586155518889427, 0.08881742507219315, -0.3991594910621643, 0.15953108668327332, -0.3718916177749634, -0.5109571814537048, 0.45258837938308716, -0.08343123644590378, 0.007536324206739664, 0.12997154891490936, -0.49489691853523254, -0.4665394127368927, -0.07759040594100952, 0.5892689228057861, -0.5993735194206238, 0.41267141699790955, -0.44977080821990967, -0.10396572202444077, 0.24216747283935547, -0.18749965727329254, -0.08176134526729584, 0.17378965020179749, 0.18687202036380768, -0.39786985516548157], [-0.1436682939529419, 0.13183940947055817, 0.09800349920988083, 0.3830975592136383, 0.06817004084587097, -0.26652178168296814, 0.37115103006362915, -0.28496041893959045, -0.15312105417251587, 0.028742028400301933, 0.47918128967285156, -0.2853752076625824, -0.22364726662635803, 0.2652489244937897, -0.2269739955663681, 0.42724189162254333, -0.013532104901969433, -0.08244907110929489, 0.2815476059913635, 0.2378581315279007, 0.28165242075920105, 0.07134540379047394, -0.0774233266711235, 0.03538219630718231, -0.08760684728622437, -0.2112535685300827, -0.4150359332561493, 0.04255900904536247, 0.3511248528957367, -0.16768644750118256, 0.018448054790496826, 0.07439932972192764], [-0.05395538732409477, -0.3508022725582123, 0.3654515743255615, 0.40730324387550354, -0.17833799123764038, -0.3048720061779022, 0.13287408649921417, 0.12495209276676178, 0.1723448634147644, 0.34592530131340027, 0.3758402466773987, -0.4038577973842621, 0.150284543633461, 0.02421071194112301, -0.4209520220756531, 0.1079665869474411, -0.03164425864815712, -0.0962553545832634, -0.25528305768966675, -0.1424282193183899, -0.5091089606285095, -0.5316227078437805, 0.1611969769001007, -0.35292401909828186, 0.16742505133152008, -0.09016206115484238, -0.17646566033363342, 0.037617988884449005, -0.13203975558280945, 0.069597028195858, 0.24372056126594543, 0.007520661689341068], [-0.3137374818325043, -0.14215894043445587, 0.6866569519042969, 0.09968934953212738, -0.2930185794830322, 0.2543290853500366, 0.20950061082839966, 0.2823014259338379, 0.28892984986305237, 0.08010097593069077, -0.18330371379852295, -0.2883892357349396, 0.029166121035814285, 0.23461273312568665, 0.10252135992050171, 0.201160728931427, -0.1298370212316513, -0.0037937306333333254, 0.4189635217189789, 0.12397205829620361, -0.2551838159561157, 0.17458505928516388, 0.49216416478157043, 0.033810023218393326, -0.059696488082408905, -0.042569492012262344, -0.2223566323518753, -0.00427594967186451, -0.15377812087535858, 0.5665974617004395, -0.20085765421390533, -0.38264337182044983], [-0.14562921226024628, -0.26648300886154175, 0.34500831365585327, 0.2650865316390991, 0.18029288947582245, -0.07813582569360733, -0.13630442321300507, -0.2845953106880188, 0.014300583861768246, 0.03358341380953789, 0.3995153307914734, -0.2439979761838913, 0.16832415759563446, 0.35277971625328064, 0.4179374873638153, 0.14628995954990387, -0.07773718237876892, -0.21905416250228882, 0.22988085448741913, 0.06514547765254974, 0.1534706950187683, -0.32888874411582947, 0.011618180200457573, -0.3019920587539673, -0.5692352056503296, 0.004635545425117016, -0.046506769955158234, 0.506723165512085, 0.21871306002140045, -0.38258975744247437, 0.22992075979709625, -0.20796354115009308], [-0.13431793451309204, 0.45986077189445496, 0.40769413113594055, 0.2682015895843506, -0.14233867824077606, 0.1432403326034546, 0.4364455044269562, -0.11226246505975723, -0.15980678796768188, 0.12342829257249832, 0.21736256778240204, 0.30432775616645813, 0.09411147981882095, 0.12533454596996307, 0.056340593844652176, 0.30835890769958496, 0.21615691483020782, 0.21772220730781555, 0.2969916760921478, -0.05067506432533264, -0.17720921337604523, 0.08475671708583832, -0.5421248078346252, 0.10967489331960678, 0.10833130776882172, -0.06067310646176338, 0.17813041806221008, -0.19155928492546082, 0.16670605540275574, 0.24484814703464508, -0.13097979128360748, 0.009695028886198997], [-0.19124338030815125, -0.10134661197662354, -0.10273338109254837, 0.0831453874707222, 0.41068628430366516, -0.11571814119815826, -0.35242924094200134, 0.38353127241134644, -0.03326737880706787, 0.48235997557640076, -0.07539904862642288, 0.0479680672287941, -0.10438751429319382, -0.2002798467874527, -0.36712130904197693, 0.3169063329696655, -0.393449068069458, 0.31646817922592163, 0.356131374835968, 0.2747420072555542, 0.0023349481634795666, 0.3133927881717682, 0.22724615037441254, 0.4596073627471924, -0.5868412256240845, 0.09935542196035385, -0.04015600308775902, -0.014841606840491295, 0.6635990738868713, -0.11312234401702881, -0.10107413679361343, 0.005594340618699789], [-0.029782583937048912, 0.007130099926143885, -0.07811431586742401, -0.39874696731567383, -0.04222685843706131, 0.11707667261362076, 0.3262343108654022, 0.23061537742614746, -0.06275486946105957, -0.10397034138441086, -0.05033263564109802, -0.09981811046600342, 0.07683626562356949, 0.25433099269866943, -0.3856385052204132, 0.3537328541278839, 0.4425763189792633, 0.21771393716335297, -0.4019309878349304, 0.09398417919874191, 0.3532865345478058, 0.0058725569397211075, 0.03734424337744713, 0.2986818253993988, 0.3444712460041046, 0.41362830996513367, 0.07089568674564362, -0.41554591059684753, 0.4210885763168335, 0.10483676195144653, 0.1041475385427475, -0.11406577378511429], [-0.09328331798315048, 0.42563071846961975, 0.5708904266357422, 0.0692170262336731, 0.22038577497005463, 0.01569642499089241, 0.013679352588951588, 0.4547848701477051, 0.08572968095541, -0.19430036842823029, -0.24164119362831116, -0.5766698718070984, 0.4220717251300812, 0.28578153252601624, 0.2949312925338745, 0.24812158942222595, -0.0708327442407608, 0.17346328496932983, -0.04221365973353386, 0.3029947876930237, -0.16917183995246887, -0.1977062225341797, 0.09103093296289444, 0.2889220714569092, 0.13422897458076477, 0.3482634425163269, 0.13366620242595673, 0.1887286901473999, -0.2800213396549225, -0.33935871720314026, 0.7159003019332886, -0.08215969800949097], [0.03560568019747734, 0.5973928570747375, 0.6146445274353027, -0.04409070685505867, 0.4351274371147156, 0.06427786499261856, -0.11624054610729218, -0.0028355754911899567, 0.2331259548664093, -0.214715376496315, -0.21310676634311676, -0.14209938049316406, -0.2870699465274811, 0.4566456973552704, -0.11841737478971481, 0.10242819041013718, -0.08050820976495743, -0.03361595422029495, 0.039144497364759445, 0.10318157821893692, -0.06965802609920502, 0.008036984130740166, 0.05109754204750061, 0.2537498474121094, -0.1068854108452797, -0.3600805103778839, 0.1654067188501358, 0.3712433874607086, 0.28128573298454285, -0.12151245027780533, -0.23857322335243225, 0.010201770812273026], [0.14712783694267273, -0.027327340096235275, 0.1931602954864502, 0.5246729850769043, 0.24044585227966309, 0.12365845590829849, 0.06842505931854248, -0.11373598873615265, -0.31378617882728577, -0.010094383731484413, -0.3099501132965088, 0.5543133020401001, -0.02263735793530941, 0.6514875292778015, 0.30128300189971924, 0.5038208961486816, 0.4928881525993347, 0.10950078070163727, 0.16393159329891205, -0.27239692211151123, 0.1759975701570511, 0.22468607127666473, -0.23702839016914368, 0.36136865615844727, -0.07480645179748535, -0.02645108662545681, -0.10814736783504486, -0.11391497403383255, 0.6520057916641235, 0.2791611850261688, 0.367236852645874, 0.2120528221130371], [-0.08644204586744308, -0.13867831230163574, 0.5540974736213684, 0.1881818026304245, 0.48431041836738586, 0.13620245456695557, 0.06281646341085434, -0.09992744773626328, -0.24351097643375397, 0.16646668314933777, -0.14395634829998016, -0.2465224266052246, 0.42882251739501953, 0.07437337934970856, -0.47086551785469055, -0.1341385543346405, -0.3494079113006592, -0.151372030377388, 0.4280661344528198, 0.40590256452560425, -0.5901621580123901, -0.6789590716362, 0.026818325743079185, -0.1286771297454834, 0.19330237805843353, 0.0005277806194499135, -0.2982044517993927, 0.2273663729429245, 0.010142012499272823, -0.042991235852241516, 0.4943709075450897, -0.0248638316988945], [-0.1506035476922989, -0.06455428898334503, 0.39909225702285767, 0.2102930098772049, 0.15779264271259308, -0.062329791486263275, -0.12832242250442505, -0.02170754037797451, 0.38039761781692505, -0.08284402638673782, 0.008962319232523441, 0.360904335975647, 0.32333672046661377, 0.43107083439826965, 0.007173909805715084, -0.04415777698159218, 0.09756621718406677, 0.3421885371208191, -0.19885693490505219, 0.08632800728082657, 0.1646859496831894, 0.11155343800783157, 0.017736544832587242, 0.1289403885602951, -0.11293749511241913, -0.18477755784988403, 0.25765299797058105, 0.06610936671495438, -0.15143395960330963, -0.0031296899542212486, 0.19872123003005981, 0.527860701084137], [-0.14832803606987, 0.40458184480667114, -0.2501718997955322, -0.284274697303772, 0.3225677013397217, 0.01326029747724533, -0.0699877142906189, 0.2154822051525116, -0.2910202145576477, -0.17912165820598602, 0.1664944291114807, 0.05004136264324188, -0.10097752511501312, -0.48274433612823486, -0.5317979454994202, -0.1746448278427124, 0.25148099660873413, -0.03283948451280594, -0.16571128368377686, 0.3732764422893524, -0.11048046499490738, 0.18262211978435516, -0.14833983778953552, 0.6003693342208862, -0.7819308638572693, 0.4054461419582367, 0.9732767343521118, -0.2650865912437439, -0.23099227249622345, 0.07384218275547028, -0.08450104296207428, 0.09269452095031738], [-0.02930065616965294, -0.05836796388030052, 0.043704789131879807, 0.1902383267879486, 0.21869021654129028, 0.048713937401771545, 0.19470390677452087, -0.2003835141658783, -0.08450278639793396, -0.17161910235881805, -0.09585623443126678, 0.08041848987340927, -0.35165858268737793, 0.5158975720405579, -0.11275968700647354, 0.03956135734915733, -0.03153647109866142, -0.28975364565849304, -0.10197747498750687, -0.117149718105793, 0.07204362004995346, -0.1153545081615448, 0.03255436196923256, 0.179426908493042, -0.35750794410705566, 0.13085608184337616, 0.2669712007045746, 0.17328493297100067, -0.17835988104343414, 0.5121638774871826, 0.1853410005569458, 0.2148454785346985], [0.19896653294563293, -0.017095742747187614, -0.07575640827417374, -0.42294853925704956, -0.34611421823501587, -0.3174917697906494, -0.46950823068618774, -0.0696520209312439, -0.13955846428871155, -0.01795653998851776, 0.2384863644838333, 0.317334920167923, 0.02832615189254284, 0.2488074153661728, -0.15045759081840515, 0.30563291907310486, -0.08315618336200714, -0.11477059125900269, 0.1935049146413803, -0.16768471896648407, -0.009202434681355953, -0.44266489148139954, -0.09918097406625748, -0.4968356192111969, -0.5051466226577759, -0.10589247941970825, 0.5269572734832764, -0.3460814952850342, -0.04315652325749397, -0.11856850981712341, -0.24129118025302887, -0.2567271292209625], [0.07727129757404327, 0.3166102170944214, -0.1301865130662918, -0.38031062483787537, -0.14834658801555634, -0.26223501563072205, 0.40494152903556824, 0.15586957335472107, 0.038090780377388, -0.23418442904949188, -0.17732784152030945, 0.1584434062242508, -0.24832232296466827, 0.11413939297199249, -0.5413445234298706, 0.12980802357196808, -0.09810283780097961, 0.47721296548843384, -0.2831032872200012, -0.27781063318252563, 0.2926464080810547, -0.05794011428952217, 0.17897027730941772, 0.13306912779808044, -0.2333642989397049, 0.06386619806289673, 0.04801315441727638, -0.8307705521583557, -0.5477960109710693, 0.04522421956062317, 0.26919686794281006, 0.2031000703573227], [-0.4190673232078552, 0.17095604538917542, 0.11245057731866837, -0.5024051070213318, -0.06462827324867249, 0.3955928087234497, 0.05130705609917641, 0.5417128801345825, 0.14728963375091553, 0.26284921169281006, -0.6351891160011292, 0.004799162968993187, -0.11618051677942276, -0.19662737846374512, -0.1703898161649704, -0.06528129428625107, -0.29733869433403015, -0.09315120428800583, -0.07444573938846588, -0.17163509130477905, 0.02216080017387867, 0.03311306610703468, -0.48680341243743896, -0.016476480290293694, -0.09634654968976974, -0.12464205175638199, 0.02310986816883087, 0.009422946721315384, -0.15933547914028168, -0.03393881395459175, -0.5244857668876648, 0.06498939543962479], [-0.7620234489440918, 0.11495483666658401, 0.09227124601602554, 0.11294304579496384, -0.3036380112171173, 0.04728758707642555, -0.30266937613487244, -0.07528600096702576, -0.13855180144309998, 0.014456362463533878, -0.11859916895627975, -0.4214037358760834, 0.06614983826875687, -0.18239043653011322, -0.05445486679673195, 0.3976283073425293, -0.21594585478305817, 0.45847102999687195, -0.3616766333580017, 0.07028543949127197, 0.08053314685821533, 0.10470429062843323, -0.21057039499282837, 0.1860419511795044, 0.4690815508365631, 0.3049481213092804, 0.33347854018211365, -0.20205435156822205, 0.30259525775909424, -0.13868433237075806, 0.36408501863479614, 0.3565128743648529], [0.37813395261764526, 0.32722941040992737, -0.04944862425327301, 0.5882319211959839, 0.34459155797958374, -0.1963108777999878, -0.28263333439826965, 0.25941312313079834, 0.5183108448982239, -0.03202134370803833, -0.41410255432128906, 0.3045431673526764, -0.10630767792463303, 0.01889369823038578, 0.15552280843257904, 0.3409542441368103, -0.5574415922164917, -0.08473099768161774, -0.05169903486967087, 0.2854069769382477, 0.15627087652683258, -0.10321435332298279, 0.43588685989379883, 0.3357084393501282, -0.36210134625434875, 0.0901067927479744, 0.3112550675868988, 0.2761307954788208, -0.06090562418103218, -0.10707081854343414, 0.08303270488977432, 0.12511655688285828], [0.33079493045806885, 0.2622819244861603, -0.010631788522005081, 0.4044644236564636, 0.24475055932998657, -0.4393799602985382, -0.10880645364522934, 0.13610464334487915, -0.0677872747182846, -0.18400391936302185, 0.09069846570491791, -0.06177715212106705, 0.49373695254325867, 0.12713871896266937, -0.16342739760875702, 0.004457073286175728, -0.5111426115036011, -0.2673015594482422, 0.028073517605662346, 0.16720063984394073, -0.27336585521698, 0.35860109329223633, -0.24649660289287567, 0.25746676325798035, -0.15547215938568115, -0.3877774477005005, 0.5095266699790955, -0.14564619958400726, 0.111564040184021, -0.21793918311595917, 0.21754364669322968, 0.1355055272579193], [-0.16227231919765472, 0.3302512466907501, -0.1836831271648407, -0.5764861106872559, 0.39673545956611633, -3.3628111850703135e-06, -0.4904341995716095, 0.07194485515356064, -0.33070340752601624, 0.4145950376987457, -0.4059723913669586, 0.25866270065307617, -0.1642664223909378, -0.0799027532339096, -0.3262448310852051, 0.024658257141709328, -0.2237914800643921, 0.052804045379161835, -0.2022852599620819, 0.1687227338552475, -0.06794071942567825, -0.12640316784381866, 0.03495535999536514, 0.17625099420547485, -0.2956700623035431, -0.2825521230697632, -0.13536880910396576, 0.13142213225364685, -0.07769244909286499, -0.562336802482605, -0.15418656170368195, 0.036247819662094116], [0.1566402167081833, 0.3525029718875885, 0.7463396191596985, 0.1878720223903656, 0.7003594636917114, -0.18146103620529175, -0.1688905507326126, -0.3075098693370819, 0.15526854991912842, -0.070872962474823, 0.21985267102718353, 0.09178933501243591, 0.05046972259879112, 0.489525705575943, 0.38425979018211365, 0.19427229464054108, 0.3283688426017761, -0.23439164459705353, 0.004156488925218582, -0.4652285873889923, -0.20872889459133148, -0.3430299460887909, -0.3889727294445038, 0.2013387382030487, -0.207062229514122, -0.11891138553619385, -0.07454921305179596, 0.3182922303676605, -0.011677762493491173, 0.14122001826763153, 0.45077836513519287, 0.09150256216526031], [-0.23945435881614685, 0.50966477394104, -0.1536809653043747, 0.6648274064064026, -0.04041547328233719, -0.3100445866584778, -0.3229556381702423, -0.028647039085626602, 0.303648442029953, -0.43069493770599365, -0.35203802585601807, -0.4326570928096771, -0.1271810382604599, -0.11034174263477325, 0.11500309407711029, 0.09665389358997345, 0.2589556574821472, -0.20347332954406738, -0.046028219163417816, -0.056301504373550415, 0.24823419749736786, 0.0533326081931591, 0.25513336062431335, 0.5586467981338501, 0.29535239934921265, -0.12845014035701752, 0.431779146194458, 0.33158886432647705, 0.43468475341796875, -0.15368707478046417, 0.11417561769485474, -0.1067313626408577]], "lstm.weight_hh_l0": [[0.3030625581741333, -0.07682635635137558, 0.12058335542678833, 0.1495007425546646, -0.05753597617149353, -0.12460095435380936, 0.05632319301366806, -0.008104594424366951, 0.06861055642366409, -0.1729346662759781, 0.003974589519202709, 0.0591474249958992, -0.0036520063877105713, -0.22843694686889648, -0.12425792217254639, -0.01120417658239603, -0.05589265003800392, 0.062408316880464554, -0.032233066856861115, 0.057000719010829926, -0.06320590525865555, 0.22895726561546326, 0.003884002799168229, -0.10472094267606735, -0.09380067139863968, -0.09422526508569717, 0.06776522099971771, 0.07824131101369858, 0.2379567176103592, -0.00740654906257987, 0.08211813867092133, -0.049897052347660065], [-0.15457265079021454, -0.16108235716819763, 0.006539857015013695, 0.12400136888027191, -0.0479920357465744, -0.10192862153053284, 0.04808037728071213, -0.1457631140947342, -0.19111871719360352, -0.02726619504392147, -0.11103576421737671, 0.004788053687661886, -0.000376353767933324, -0.18395313620567322, -0.08776083588600159, 0.09491302818059921, -0.005226966924965382, -0.06364531815052032, 0.04505790024995804, 0.27386245131492615, -0.034663666039705276, -0.03365122526884079, -0.0066725281067192554, 0.026640689000487328, -0.011948914267122746, -0.016630563884973526, 0.2094549536705017, -0.0042962683364748955, 0.07808458060026169, -0.21814283728599548, 0.03017919696867466, 0.03619784116744995], [0.13994476199150085, -0.13911029696464539, 0.06949784606695175, -0.0017005933914333582, 0.17618407309055328, 0.08632276952266693, 0.03333796560764313, 0.05758292227983475, 0.13298246264457703, 0.2160467803478241, -0.009987613186240196, 0.13245242834091187, -0.08051622658967972, 0.018386363983154297, -0.24793927371501923, -0.16706301271915436, 0.1754428744316101, 0.09588053822517395, -0.22754345834255219, 0.040295347571372986, -0.16291922330856323, 0.14572563767433167, 0.2120063304901123, 0.15161970257759094, -0.17773115634918213, -0.16143420338630676, 0.2013913094997406, 0.029426155611872673, 0.05617837235331535, -0.24110759794712067, -0.14361707866191864, 0.0056960321962833405], [-0.016209397464990616, 0.009654561057686806, -0.13975706696510315, 0.003255277406424284, -0.05917898938059807, 0.005797593388706446, -0.21046097576618195, 0.2530616223812103, -0.25296345353126526, -0.10211233794689178, -0.016002347692847252, 0.0083486158400774, 0.10434955358505249, 0.09436792880296707, 0.16192534565925598, 0.08182377368211746, 0.024567103013396263, -0.05249828100204468, -0.08635488897562027, 0.2192896455526352, -0.005209650844335556, -0.21643711626529694, -0.005987650249153376, 0.07526278495788574, 0.1804865002632141, 0.03862756863236427, -0.06892485171556473, -0.06462543457746506, -0.11169785261154175, -0.14029859006404877, 0.11314713209867477, -0.2543335258960724], [0.19923262298107147, -0.04608142748475075, 0.37336570024490356, -0.06336639821529388, -0.0827644020318985, 0.3036145567893982, 0.050774719566106796, 0.15429753065109253, 0.08646197617053986, 0.07046159356832504, 0.05037521943449974, -0.018813394010066986, -0.33630266785621643, 0.06108180433511734, 0.049283888190984726, 0.08901751786470413, 0.03796444088220596, 0.11982600390911102, -0.1444799154996872, -0.11661199480295181, -0.009055530652403831, 0.15293045341968536, 0.18622274696826935, 0.06301962584257126, -0.22321854531764984, -0.13248281180858612, -0.05781310796737671, 0.050259459763765335, -0.05328802019357681, 0.01453368179500103, -0.3032991290092468, -0.1690504252910614], [0.08201200515031815, 0.18272905051708221, -0.06135453283786774, 0.06729774922132492, 0.14484964311122894, 0.11288062483072281, -0.03385748341679573, 0.011853300034999847, -0.09010584652423859, -0.08090011775493622, 0.0503598228096962, 0.1375223994255066, -0.1849990338087082, -0.011522311717271805, -0.017446670681238174, -0.07148002833127975, 0.08632344007492065, 0.21881511807441711, 0.03891818970441818, -0.10649622976779938, 0.04254946485161781, -0.07674181461334229, -0.04198373109102249, -0.06615918129682541, -0.0590316466987133, -0.07488427311182022, -0.1697249561548233, 0.008604606613516808, 0.012834364548325539, 0.13013634085655212, 0.1450655460357666, -0.08787066489458084], [-0.03621850535273552, -0.0780227780342102, 0.019791293889284134, 0.10970722883939743, -0.20516903698444366, 0.15900400280952454, -0.0014903353294357657, 0.07323044538497925, -0.05582153797149658, 0.050100475549697876, 0.0493045374751091, -0.05406438931822777, 0.030625231564044952, -0.03681952878832817, 0.0544939860701561, 0.0662091076374054, 0.04966656491160393, -0.15955883264541626, -0.05503945052623749, 0.04728253185749054, -0.22455023229122162, 0.027995752170681953, -0.07455328851938248, -0.020179258659482002, -0.09287495166063309, 0.0960509181022644, 0.08527719974517822, -0.0853838175535202, 0.1316688507795334, -0.025604942813515663, -0.009765079244971275, -0.2300509661436081], [0.04632077366113663, -0.21587805449962616, 0.026365237310528755, 0.02099279686808586, 0.17158430814743042, -0.012714391574263573, 0.025326251983642578, 0.08089763671159744, -0.0899389237165451, -0.04507153481245041, 0.05886295810341835, 0.06338286399841309, -0.08189204335212708, -0.0740940123796463, -0.13884390890598297, 0.15050549805164337, -0.11393482238054276, -0.01952117308974266, -0.05193345248699188, 0.10642798244953156, -0.2272968739271164, 0.14740684628486633, -0.16023625433444977, 0.15637898445129395, -0.07090725004673004, -0.25857609510421753, 0.10568113625049591, 0.14303438365459442, 0.14505153894424438, -0.3046638071537018, -0.02264183573424816, 0.005143157206475735], [-0.07886671274900436, -0.06650149077177048, 0.1471269428730011, 0.0335257314145565, 0.22401626408100128, 0.028386160731315613, -0.0696418359875679, -0.16003644466400146, -0.012208791449666023, 0.02405266836285591, 0.13723549246788025, 0.25814321637153625, 0.12237588316202164, -0.09978219121694565, -0.029162168502807617, 0.053014229983091354, -0.16975116729736328, 0.04812990128993988, 0.046585943549871445, -0.05140237510204315, -0.13179343938827515, 0.1582254320383072, -0.08811908215284348, -0.28322431445121765, 0.03222040832042694, -0.0838581770658493, 0.20936830341815948, -0.05452926829457283, 0.08731140196323395, -0.00013853584823664278, 0.11691940575838089, 0.1507882922887802], [0.18196254968643188, 0.03652364760637283, -0.03929072991013527, -0.16439874470233917, 0.027723491191864014, 0.10667302459478378, -0.05523223429918289, 0.044801656156778336, -0.01664794236421585, 0.1862967163324356, 0.18627400696277618, 0.0834597647190094, -0.12570762634277344, 0.08876717835664749, -0.10192857682704926, -0.19067446887493134, 0.089989073574543, 0.15035130083560944, -0.07756471633911133, -0.09208815544843674, 0.004224387463182211, -0.17881585657596588, -0.013785922899842262, 0.18908551335334778, -0.0036035969387739897, 0.037181638181209564, -0.042601387947797775, 0.07984413206577301, -0.12786486744880676, -0.11073537170886993, 0.08363086730241776, -0.1295413076877594], [-0.15192250907421112, -0.07831697165966034, -0.0003332551568746567, 0.28579607605934143, 0.01252421922981739, -0.003608860308304429, 0.24407438933849335, -0.05734250321984291, -0.016128085553646088, -0.14663775265216827, 0.027415115386247635, 0.0852532610297203, 0.008723213337361813, -0.11605421453714371, -0.15885040163993835, -0.20618513226509094, -0.13338670134544373, -0.12698400020599365, 0.24345746636390686, 0.015088468790054321, -0.031122110784053802, 0.13789989054203033, 0.0397389754652977, -0.1441834568977356, -0.018939463421702385, -0.0433308407664299, 0.2582800090312958, 0.022208048030734062, 0.23725490272045135, 0.07054343074560165, 0.15502376854419708, 0.07229900360107422], [-0.15519802272319794, 0.1297401487827301, -0.06394187361001968, -0.11062858253717422, -0.14474795758724213, -0.13596247136592865, -0.10915415734052658, 0.020607972517609596, -0.15923666954040527, -0.1515229493379593, -0.17497390508651733, -0.11132592707872391, 0.16309718787670135, -0.0679667592048645, 0.13008977472782135, -0.07001087069511414, -0.026923280209302902, -0.34304705262184143, 0.14432944357395172, 0.01117964368313551, 0.15511572360992432, 0.008237005211412907, -0.04816104844212532, -0.03098858892917633, 0.03414090722799301, 0.022693319246172905, 0.03313768655061722, -0.12330903857946396, 0.23552565276622772, 0.05808533355593681, 0.12463552504777908, 0.0015068619977682829], [0.115184485912323, -0.04611729457974434, 0.08780917525291443, -0.23219099640846252, 0.12752969563007355, 0.19318100810050964, 0.06466402113437653, -0.030184444040060043, -0.031744446605443954, -0.049102164804935455, 0.05489116907119751, 0.07776784896850586, -0.09815900027751923, -0.005843135062605143, 0.0008421923266723752, -0.13430045545101166, 0.12880682945251465, -0.12542621791362762, -0.03727354854345322, -0.10994042456150055, 0.09441900998353958, -0.06274367868900299, 0.0038912089075893164, 0.006090679205954075, -0.11273562908172607, 0.05222757160663605, -0.08632708340883255, 0.06501861661672592, -0.002178189344704151, 0.10740096867084503, -0.15408696234226227, -0.2173754870891571], [0.13671860098838806, -0.06853257119655609, 0.2073516547679901, 0.03352702036499977, 0.0014951042830944061, -0.02673698589205742, -0.041148070245981216, -0.03945348039269447, 0.07624149322509766, 0.011192340403795242, 0.046323828399181366, 0.12438378483057022, 0.0470399372279644, 0.03451533615589142, -0.1982484757900238, -0.0490337535738945, -0.20434772968292236, 0.09492391347885132, -0.03818229213356972, -0.027544280514121056, -0.03454998508095741, 0.005302781239151955, 0.10969746112823486, 0.026589082553982735, -0.03975994884967804, 0.08842086046934128, 0.024569271132349968, 0.07329892367124557, 0.09857258945703506, 0.05229352042078972, 0.12878377735614777, 0.09651219099760056], [-0.11422336846590042, 0.10347041487693787, 0.019381623715162277, -0.017867861315608025, -0.11754371970891953, -0.02117474004626274, -0.11809664219617844, 0.028674475848674774, -0.06794421374797821, -0.09713710844516754, 0.029736505821347237, -0.15736816823482513, -0.20614096522331238, 0.07746981084346771, -0.04433124512434006, 0.016097556799650192, -0.039949510246515274, -0.176553875207901, 0.06029778718948364, 0.1270114928483963, -0.1954987347126007, 0.09062636643648148, -0.08943842351436615, -0.029636600986123085, -0.013144230470061302, 0.06442953646183014, 0.10008452087640762, -0.13561218976974487, -0.13662853837013245, -0.025046663358807564, 0.013853362761437893, 0.2756671905517578], [0.016341516748070717, -0.07693785429000854, 0.0028154191095381975, 0.07916935533285141, -0.03139282763004303, -0.3088957965373993, 0.12358561903238297, 0.028563089668750763, 0.05772746354341507, 0.15403403341770172, -0.0842672735452652, -0.15438507497310638, -0.0009387372410856187, -0.07963933795690536, -0.05190350487828255, -0.03668086230754852, 0.10539267212152481, 0.0762997418642044, -0.06359914690256119, -0.025913430377840996, -0.13788336515426636, -0.017437763512134552, 0.2315150648355484, 0.028166044503450394, 0.0989399179816246, 0.03230467066168785, 0.1657952070236206, -0.04326542094349861, 0.10104382783174515, -0.03115224279463291, 0.07511364668607712, -0.10424820333719254], [0.05104747787117958, -0.1128895953297615, 0.11412809044122696, 0.07225708663463593, 0.0930509865283966, -0.11599709838628769, -0.01382843591272831, 0.021736932918429375, 0.09483405947685242, -0.15060777962207794, 0.14592589437961578, 