{"linear_1.weight": [[0.6652581095695496], [0.9345157146453857], [-0.3457495868206024], [0.7466748356819153], [-0.3089160919189453], [0.3180687725543976], [-0.3097224235534668], [0.7061394453048706], [1.0287400484085083], [-0.8062312602996826], [0.9084182977676392], [0.29219791293144226], [0.7670965790748596], [0.13543057441711426], [0.46436768770217896], [-0.11688420921564102], [0.7958292365074158], [0.14780890941619873], [-0.6961528062820435], [0.2548983097076416], [-0.6418631672859192], [-0.16402766108512878], [-0.43745529651641846], [0.677369236946106], [-0.6611915230751038], [-0.5077418088912964], [-0.3239971399307251], [-0.7315835356712341], [0.06071685627102852], [-1.0648480653762817], [0.7386512756347656], [-0.8931704759597778]], "linear_1.bias": [0.7439752221107483, 0.1106264740228653, -0.2795359492301941, 0.5299367308616638, 0.16548728942871094, 0.6876141428947449, -0.08706410229206085, -0.29943233728408813, 0.18321162462234497, -0.24982212483882904, 0.45290783047676086, 0.6611813306808472, 0.4935395419597626, -0.437172532081604, 0.5304515361785889, 0.1543169915676117, 0.49680548906326294, -0.6095050573348999, -0.8022763133049011, -0.3863605260848999, -0.6239593625068665, 0.7034178972244263, 0.24010096490383148, 0.3263797461986542, 0.18072351813316345, -0.02622614987194538, 0.7281369566917419, -0.609756588935852, -0.1395595371723175, -0.6583104133605957, 0.12872081995010376, -0.32211577892303467], "lstm.weight_ih_l0": [[-0.005709483288228512, -0.040822356939315796, -0.02825961448252201, 0.3907644748687744, 0.024476995691657066, -0.32156240940093994, -0.2616543769836426, 0.4374499022960663, -0.22786739468574524, 0.21073919534683228, 0.09016849845647812, 0.08661772310733795, 0.06768970191478729, -0.2286173403263092, -0.5992037653923035, -0.3979640305042267, 0.094846710562706, 0.025041794404387474, 0.22263000905513763, -0.04655490443110466, 0.16914646327495575, 0.0739135667681694, -0.019498078152537346, 0.2988763749599457, -0.09862211346626282, -0.267531156539917, -0.1681259125471115, 0.09318949282169342, -0.11021412163972855, 0.18416659533977509, 0.37613922357559204, 0.29291364550590515], [0.1514103263616562, -0.3143189251422882, -0.37766727805137634, -0.4137533903121948, 0.11246286332607269, 0.2712092697620392, -0.004171919543296099, 0.34194493293762207, 0.09555226564407349, -0.2661892771720886, -0.619232177734375, -0.2739993631839752, -0.04626547172665596, -0.17186829447746277, 0.48440903425216675, -0.30955344438552856, 0.06527619808912277, -0.14541538059711456, -0.45807772874832153, 0.23281654715538025, 0.28257471323013306, -0.09071502834558487, -0.13214810192584991, 0.58172607421875, -0.03203173354268074, -0.20557431876659393, -0.41048604249954224, -0.46726420521736145, -0.019897108897566795, -0.6286636590957642, 0.24759778380393982, -0.545783281326294], [-0.4501793384552002, -0.18463368713855743, 0.5244584083557129, 0.24840989708900452, -0.1924624741077423, -0.2004449963569641, -0.283599317073822, 0.5270810127258301, -0.11988586187362671, 0.0767759382724762, 0.4667750298976898, 0.16360674798488617, -0.21472854912281036, 0.3426893949508667, -0.046882882714271545, -0.14324027299880981, -0.10920579731464386, 0.4325111210346222, 0.4720785915851593, -0.3040158450603485, 0.3706524670124054, 0.559475839138031, 0.09008387476205826, -0.05015626177191734, 0.47540655732154846, -0.005844827275723219, -0.4976881146430969, -0.08918467164039612, -0.05323527008295059, 0.245642751455307, 0.1023348793387413, -0.04395288601517677], [0.2342204600572586, 0.12945063412189484, 0.2603941261768341, -0.04728742688894272, 0.12120386958122253, -0.3219853937625885, -0.3218790590763092, 0.3211219608783722, 0.005744090769439936, -0.2505609095096588, 0.20241093635559082, 0.6404332518577576, -0.01134520024061203, 0.2929641604423523, -0.078009232878685, -0.16345731914043427, 0.300557017326355, 0.007591139990836382, 0.7008638381958008, -0.3305259346961975, 0.55054771900177, 0.16020452976226807, -0.25747254490852356, -0.20849844813346863, -0.2329220473766327, -0.06938987970352173, -0.37738609313964844, 0.4707464277744293, -0.2986367344856262, 0.09212543815374374, -0.16626499593257904, 0.21968670189380646], [-0.17074307799339294, -0.020719045773148537, 0.5075337290763855, -0.1733132004737854, 0.17575609683990479, -0.12940190732479095, 0.08234000951051712, 0.1213238462805748, -0.08553380519151688, -0.10897405445575714, 0.12241079658269882, -0.09289293736219406, 0.10347971320152283, -0.4067537188529968, -0.24105851352214813, -0.0717485323548317, -0.21351739764213562, -0.061159636825323105, -0.08981694281101227, 0.3142131567001343, 0.29746443033218384, -0.20511111617088318, -0.07267893105745316, 0.13627836108207703, -0.6642323732376099, -0.19125162065029144, 0.19550980627536774, -0.08530114591121674, 0.27680647373199463, 0.16819070279598236, -0.10377269983291626, 0.2565854787826538], [0.7452113628387451, 0.29110053181648254, 0.14494718611240387, 0.1186676099896431, 0.061404548585414886, 0.16751018166542053, -0.25787538290023804, 0.3492601811885834, 0.0010262224823236465, -0.14817149937152863, -0.03138146549463272, 0.3460128903388977, 0.2348521649837494, -0.6439707279205322, 0.35051682591438293, 0.1428891122341156, 0.2840196490287781, -0.44537514448165894, -0.7004472613334656, 0.28353768587112427, -0.5596151947975159, 0.3057909309864044, 0.035264093428850174, 0.47964176535606384, -0.25301602482795715, 0.005368301644921303, 0.09980633109807968, -0.32336342334747314, 0.44369691610336304, -0.3168022632598877, 0.061157409101724625, -0.38650837540626526], [-0.17629070580005646, 0.274421751499176, 0.38248375058174133, -0.004342127125710249, 0.25989896059036255, -0.05241475999355316, 0.2152940183877945, 0.3454994857311249, 0.3720412254333496, 0.42745092511177063, 0.31072771549224854, -0.06680628657341003, 0.0121005242690444, 0.16854225099086761, 0.24139820039272308, 0.20695693790912628, 0.10091550648212433, 0.035539209842681885, 0.7499216794967651, -0.27579542994499207, -0.2751348912715912, 0.055677689611911774, 0.18894663453102112, 0.15355101227760315, 0.31204313039779663, 0.12115467339754105, 0.28957343101501465, -0.19838707149028778, 0.24849963188171387, 0.3407420814037323, 0.0071692923083901405, 0.8229002952575684], [0.1627475768327713, 0.28755030035972595, -0.15243491530418396, -0.35515111684799194, -0.2243596464395523, -0.07191632688045502, 0.35597002506256104, 0.5561942458152771, 0.4246952533721924, -0.24794627726078033, -0.16177357733249664, -0.27941837906837463, 0.15793317556381226, -0.4022441804409027, 0.1107368916273117, -0.11749080568552017, -0.3966519832611084, 0.42725086212158203, 0.22834695875644684, -0.007004543673247099, 0.3989550471305847, 0.0029607992619276047, -0.03060152381658554, 0.10774943232536316, 0.2669385075569153, 0.08874604105949402, 0.3268876373767853, 0.2716854214668274, 0.2068093717098236, 0.06219511106610298, -0.05535423383116722, -0.3826926052570343], [0.5406004786491394, 0.5124843716621399, 0.15618853271007538, -0.10359561443328857, -0.3328951299190521, -0.23657584190368652, -0.0599977932870388, 0.4953247606754303, 0.3335340917110443, 0.0803491622209549, 0.10720303654670715, -0.26877981424331665, 0.4778255522251129, 0.4242264926433563, -0.3112926483154297, -0.0092183081433177, 0.22190484404563904, -0.38885992765426636, 0.16233837604522705, 0.21621929109096527, 0.4412941336631775, 0.3271535634994507, -0.4004558324813843, -0.1714477837085724, -0.061145614832639694, 0.20796817541122437, -0.36698052287101746, 0.352200984954834, -0.2364135980606079, -0.013606056571006775, -0.34054839611053467, 0.10837747156620026], [-0.15889227390289307, -0.15491822361946106, 0.0021696577314287424, 0.31617048382759094, -0.0180821493268013, -0.33598795533180237, -0.1961502879858017, -0.010827693156898022, 0.3078385591506958, -0.07549192011356354, 0.007358902134001255, 0.2510830760002136, -0.016940295696258545, 0.028063874691724777, 0.036937955766916275, -0.13295233249664307, -0.10904727876186371, -0.08647090196609497, -0.009454597719013691, -1.147621750831604, -0.5828937888145447, -0.004364950116723776, 0.010010085999965668, -0.31470248103141785, -0.09018018841743469, -0.10680031031370163, 0.14190919697284698, 0.10096768289804459, -0.4185073971748352, -0.3337342441082001, 0.17771930992603302, 0.1153053566813469], [0.17627984285354614, -0.21339623630046844, 0.6044636368751526, -0.3535814583301544, 0.3566734790802002, 0.023180224001407623, -0.46204808354377747, -0.5340223908424377, -0.06598793715238571, -0.3564252555370331, -0.22465664148330688, -0.23288100957870483, 0.00728605967015028, -0.2010340392589569, -0.33486223220825195, 0.39549753069877625, -0.16864559054374695, 0.39125752449035645, -0.2142578810453415, 0.04166434332728386, 0.5534723401069641, 0.021640561521053314, 0.0962105318903923, -0.024976175278425217, -0.3029739558696747, -0.24816206097602844, -0.2740214467048645, 0.04409462958574295, -0.05103638023138046, 0.2931574881076813, -0.10681615769863129, 0.20264747738838196], [0.14539949595928192, 0.22217312455177307, 0.3884759545326233, 0.21771784126758575, -0.15319103002548218, 0.22694596648216248, 0.00908510759472847, 0.055306609719991684, 0.13504444062709808, 0.23728549480438232, 0.08072295039892197, -0.3132864236831665, 0.004813189152628183, 0.13666924834251404, 0.23436444997787476, -0.04124920442700386, -0.11033304780721664, 0.49755701422691345, -0.054153744131326675, -0.1430370807647705, 0.40752485394477844, -0.08375249803066254, 0.3546569347381592, 0.06984523683786392, 0.04347627982497215, 0.3462657630443573, -0.4378645420074463, -0.041392531245946884, -0.16486145555973053, -0.2222527265548706, -0.0686865970492363, 0.48747333884239197], [0.2508041560649872, -0.026874598115682602, 0.0715692862868309, -0.16328023374080658, -0.1150050237774849, 0.337490439414978, -0.25057294964790344, 0.17622816562652588, -0.13577593863010406, 0.15360194444656372, 0.5443634986877441, 0.2266084849834442, -0.062048446387052536, 0.300366073846817, -0.24705475568771362, 0.007582663092762232, 0.12124226987361908, 0.16834208369255066, 0.43625855445861816, 0.22415903210639954, -0.15398724377155304, 0.15264683961868286, 0.12459387630224228, 0.07537788897752762, 0.09459022432565689, 0.014608905650675297, 0.0811874270439148, 0.41283971071243286, -0.22361616790294647, -0.07752060890197754, -0.21960163116455078, 0.30624696612358093], [0.3754681646823883, -0.5148895382881165, -0.033180102705955505, -0.17735645174980164, -0.08823322504758835, 0.1869416981935501, -0.006958893034607172, 0.5079517364501953, 0.15011952817440033, 0.2514519691467285, -0.12664927542209625, 0.0587395541369915, 0.019249580800533295, -0.044379014521837234, -0.24343247711658478, 0.17787891626358032, -0.14713872969150543, -0.042847879230976105, 0.4864007830619812, 0.018998688086867332, 0.46439725160598755, -0.3349955976009369, 0.22881516814231873, 0.22729086875915527, -0.1141057014465332, 0.43390727043151855, 0.22415122389793396, 0.2381914108991623, 0.14547500014305115, 0.25286775827407837, 0.10205262154340744, 0.29444295167922974], [0.41925594210624695, 0.19173428416252136, 0.18058493733406067, -0.6964514255523682, -0.09675281494855881, 0.03884700685739517, 0.3011798858642578, 0.2159319370985031, 0.20165376365184784, 0.2884600758552551, 0.6532763838768005, -0.3032982051372528, -0.025240467861294746, -0.1706254929304123, -0.10994359105825424, 0.20282341539859772, -0.42623698711395264, 0.11307138204574585, 0.3631444573402405, 0.1759289652109146, -0.22096017003059387, -0.17000140249729156, -0.15157152712345123, -0.15120090544223785, 0.029676245525479317, -0.12931948900222778, 0.016273854300379753, 0.2834970951080322, 0.07981237769126892, 0.40979450941085815, 0.13861297070980072, 0.2838403880596161], [-0.7993009686470032, 0.060785017907619476, 0.16143882274627686, -0.15125775337219238, 0.33694812655448914, 0.3585047125816345, -0.19515785574913025, -0.20790481567382812, -0.4281059205532074, -0.055591944605112076, -0.08988340944051743, -0.1789829432964325, -0.2840280532836914, -0.20964978635311127, -0.31120970845222473, 0.07025884091854095, -0.07421079277992249, 0.30198198556900024, 0.49843016266822815, -0.028780654072761536, 0.20480626821517944, -0.03367939218878746, 0.2671174705028534, -0.029085373505949974, 0.17784219980239868, -0.28564536571502686, -0.01412421464920044, -0.33111268281936646, -0.5024793148040771, 0.1502131074666977, -0.45799288153648376, 0.18045227229595184], [-0.4144037365913391, -0.08673080056905746, 0.3904765844345093, -0.11268891394138336, -0.3205888569355011, -0.1825542151927948, 0.20363642275333405, 0.1199481189250946, 0.08456145972013474, 0.37817883491516113, 0.06578296422958374, -0.16985644400119781, 0.1837100237607956, 0.20073926448822021, -0.2851381301879883, 0.254950612783432, 0.19994710385799408, -0.05446513742208481, 0.35600435733795166, 0.44721558690071106, 0.3953012526035309, -0.290556937456131, -0.4694952070713043, 0.3733968734741211, -0.1497713178396225, 0.012720165774226189, -0.2637254595756531, 0.36557042598724365, -0.2681824862957001, -0.2414914071559906, -0.2367483228445053, 0.11844263970851898], [0.3698035478591919, 0.421156644821167, -0.09397409111261368, -0.2660631537437439, 0.5586550831794739, 0.01713947206735611, -0.20192626118659973, 0.3664175271987915, 0.22189897298812866, 0.1069677546620369, 0.07496589422225952, 0.4446725845336914, -0.2159702032804489, -0.2642534077167511, 0.15554745495319366, -0.038143668323755264, 0.3272862434387207, -0.029263807460665703, 0.03854294866323471, -0.4758239686489105, -0.34530577063560486, 0.1601828783750534, -0.3278268873691559, -0.07725971937179565, 0.1344490945339203, -0.32224297523498535, -0.2256234884262085, 0.38927918672561646, 0.23177699744701385, 0.001531301881186664, -0.4899892807006836, -0.025332432240247726], [0.026411468163132668, 0.018132751807570457, 0.3678191006183624, 0.10059119760990143, 0.4086623787879944, -0.5476542711257935, -0.07026854902505875, -0.0016065320232883096, -0.024524427950382233, 0.24895498156547546, 0.48533421754837036, 0.10852298885583878, 0.08916161954402924, -0.2746187448501587, -0.10391096025705338, 0.37256327271461487, -0.18226459622383118, -0.1726822704076767, 0.4281676113605499, -0.6336913704872131, -0.07816717028617859, -0.4270265996456146, 0.2076835185289383, 0.34784379601478577, 0.4634160101413727, -0.07413829118013382, -0.31740501523017883, -0.10968507081270218, 0.5998426675796509, -0.08220525830984116, 0.2583288550376892, 0.28370845317840576], [-0.13289791345596313, 0.3426458537578583, 0.2383342832326889, -0.25799107551574707, 0.09829298406839371, -0.304789662361145, 0.3584829568862915, 0.6055521368980408, 0.033973224461078644, 0.30192890763282776, 0.3662180006504059, -0.11221685260534286, -0.22635792195796967, -0.04615585133433342, -0.017629824578762054, -0.19925566017627716, 0.10652156919240952, 0.15967048704624176, 0.11895602941513062, 0.11983557045459747, 0.24414481222629547, 0.09550362825393677, 0.05810530111193657, -0.0315256267786026, 0.0032222375739365816, 0.1425391435623169, 0.25493600964546204, -0.05553480237722397, -0.26134198904037476, 0.27365535497665405, -0.2425740510225296, 0.16354681551456451], [0.09304638206958771, -0.4750629663467407, -0.3301433324813843, -0.23118478059768677, -0.5687143802642822, -0.43828484416007996, -0.11114971339702606, 0.32977914810180664, 0.00212076841853559, -0.40581414103507996, 0.36087942123413086, -0.23222516477108002, -0.03205496072769165, -0.20254667103290558, 0.06559839099645615, -0.5818246603012085, -0.03982080519199371, -0.30646389722824097, -0.3578381836414337, 0.4166947603225708, -0.039402782917022705, -0.1187940463423729, -0.04447630047798157, -0.3356849253177643, 0.10811149328947067, -0.2031317502260208, -0.09747068583965302, -0.5186654329299927, 0.12472455948591232, 0.08575514703989029, 0.10702109336853027, 0.15751531720161438], [0.13041850924491882, -0.18013106286525726, -0.29859280586242676, -0.1307978332042694, 0.09758640825748444, 0.14784400165081024, -0.17848888039588928, 0.32874658703804016, 0.0064280591905117035, -0.2012336105108261, -0.14982478320598602, 0.27349093556404114, -0.2191060334444046, -0.2180822193622589, -0.03885812684893608, -0.2735934555530548, 0.27459287643432617, 0.13020949065685272, 0.4694817066192627, -0.0428168959915638, -0.09498181939125061, -0.2277049422264099, 0.1386028230190277, 0.022565403953194618, 0.16411158442497253, 0.21741345524787903, -0.285234659910202, 0.026270408183336258, -0.36913588643074036, -0.13632991909980774, 0.045417506247758865, 0.24261721968650818], [0.1502556949853897, -0.31567463278770447, 0.148324117064476, 0.03547811880707741, -0.2674557864665985, -0.22919820249080658, -0.3776967227458954, 0.5442306995391846, 0.17409466207027435, -0.5989086031913757, 0.17026478052139282, -0.1374490112066269, 0.19718429446220398, 0.41746312379837036, 0.21738044917583466, -0.18885135650634766, 0.15312662720680237, 3.677962740766816e-05, 0.40052616596221924, -0.2641274631023407, -0.06448682397603989, 0.16379594802856445, -0.08685377985239029, 0.08987072855234146, 0.09248533844947815, 0.10877291858196259, 0.25385692715644836, -0.26747941970825195, 0.17696426808834076, -0.34210333228111267, 0.29894155263900757, -0.2088281661272049], [0.3106961250305176, -0.14735648036003113, 0.2054990530014038, -0.27285587787628174, 0.07620963454246521, 0.0240501556545496, 0.20272064208984375, -0.09005385637283325, 0.584183931350708, 0.02135518565773964, -0.039732448756694794, -0.051279544830322266, 0.0660218894481659, -0.4618234932422638, -0.4071485698223114, -0.046737562865018845, 0.050501544028520584, -0.26743587851524353, -0.002292384160682559, -0.4149417579174042, 0.14533115923404694, 0.4761194884777069, 0.066911481320858, 0.0793275460600853, 0.2929910719394684, 0.25131794810295105, 0.3036925196647644, 0.18066656589508057, 0.21785694360733032, -0.3520250916481018, -0.3087717294692993, 0.12166612595319748], [-0.18621033430099487, -0.008833153173327446, 0.004727441817522049, 0.10617974400520325, 0.04760897159576416, -0.18487147986888885, 0.23439432680606842, 0.21539923548698425, 0.09705409407615662, 0.004111195914447308, -0.09925972670316696, -0.12151630967855453, 0.691268265247345, 0.18470418453216553, 0.09022436290979385, 0.30927926301956177, 0.0708431825041771, -0.27350589632987976, 0.0026754094287753105, -0.21829067170619965, 0.6378981471061707, 0.5332841873168945, 0.2786881923675537, -0.21313832700252533, -0.0012021472211927176, 0.03855006769299507, -0.056493084877729416, 0.14317497611045837, 0.39974987506866455, -0.25957590341567993, 0.3122325539588928, 0.4331074059009552], [-0.04873330146074295, 0.05664544180035591, -0.593234658241272, -0.12785132229328156, 0.24087637662887573, 0.2683570981025696, -0.06780105829238892, 0.5126459002494812, 0.06855189055204391, 0.23883096873760223, -0.39154037833213806, -0.1287781000137329, 0.3850950598716736, 0.26604244112968445, 0.5710606575012207, -0.10860612243413925, -0.03306814283132553, 0.2580523192882538, -0.29566043615341187, 0.28491607308387756, 0.10325745493173599, 0.722498893737793, 0.3422882854938507, -0.08723025023937225, -0.3211534321308136, 0.40517839789390564, -0.01802470162510872, 0.08985002338886261, -0.02833939902484417, 0.2665422260761261, -0.0470610186457634, -0.054702602326869965], [-0.2769281566143036, 0.3838281035423279, -0.09589622169733047, 0.3954378664493561, -0.028070541098713875, -0.06685248017311096, 0.046873293817043304, -0.4715692400932312, -0.012320293113589287, -0.41838836669921875, -0.4338453710079193, -0.01910475455224514, -0.44739675521850586, -0.17621278762817383, -0.019450439140200615, -0.17176826298236847, 0.04980042204260826, 0.2571658492088318, -0.37738293409347534, 0.3229956328868866, -0.580722451210022, 0.05266636237502098, -0.31393346190452576, -0.12561604380607605, -0.17231091856956482, -0.42741096019744873, 0.2939099371433258, 0.033890705555677414, 0.04133867844939232, -0.23694182932376862, 0.12690015137195587, -0.3422967195510864], [-0.08303850144147873, 0.1039278581738472, 0.21488922834396362, 0.06470811367034912, 0.24437406659126282, 0.21480803191661835, -0.2753196358680725, 0.003001781413331628, 0.08683551847934723, -0.01785844750702381, 0.18554538488388062, 0.10184594988822937, 0.12045323103666306, -0.0408049076795578, -0.08633065223693848, 0.4395953118801117, 0.13151498138904572, 0.33289510011672974, 0.3819723129272461, 0.45573869347572327, 0.25188490748405457, -0.2792801558971405, 0.4753686189651489, 0.07763126492500305, 0.02130214311182499, 0.04528180882334709, -0.015354994684457779, 0.11680101603269577, 0.1585872918367386, 0.3506503403186798, -0.005459970328956842, 0.023354914039373398], [-0.31017640233039856, -0.6380686163902283, 0.08765827119350433, -0.3928692638874054, 0.31027737259864807, -0.7234764695167542, 0.13034963607788086, -0.3641074597835541, -0.12753087282180786, 0.7140821218490601, -0.46691372990608215, -0.05327533930540085, -0.0007072030566632748, 0.05457443371415138, -0.3421764075756073, 0.34539133310317993, 0.19228896498680115, -0.08234719932079315, 0.49890056252479553, 0.4514332711696625, 0.5339986085891724, 0.3355623483657837, -0.19104759395122528, -0.06192752346396446, -0.4125937223434448, 0.128823384642601, -0.15748904645442963, 0.0954570472240448, 0.05353420972824097, -0.1055864542722702, -0.40553194284439087, 0.2979529798030853], [-0.3395088315010071, 0.15817677974700928, 0.8191972970962524, 0.08270332962274551, -0.1608852595090866, -0.2507926821708679, -0.05798043683171272, -0.048859596252441406, -0.06635472178459167, 0.21513250470161438, 0.14167290925979614, 0.2601996064186096, -0.28371113538742065, -0.15060701966285706, -0.3154413104057312, -0.11887937039136887, -0.026952434331178665, -0.2030704915523529, 0.05970102176070213, -0.1837216317653656, -0.26514798402786255, 0.06713248044252396, 0.15434573590755463, 0.07928721606731415, 0.35771918296813965, 0.12379604578018188, 0.152025043964386, 0.19730104506015778, 0.1976577341556549, 0.36735185980796814, -0.04591434448957443, 0.3205360472202301], [-0.1495671272277832, 0.05249269679188728, 0.08208750188350677, -0.3427535593509674, 0.3750743269920349, -0.4664251208305359, 0.3107105791568756, 0.3526509702205658, 0.06728324294090271, 0.11897046118974686, -0.7456129789352417, -0.3694932758808136, 0.15050984919071198, -0.21784727275371552, 0.14390775561332703, -0.15948183834552765, 0.1441621333360672, 0.11149396747350693, 0.3159877061843872, 0.2692527174949646, 0.5722364783287048, 0.336758017539978, -0.07721267640590668, -0.24457450211048126, 0.2937812805175781, 0.32487884163856506, 0.1617184281349182, 0.4598676860332489, -0.006051171571016312, 0.2399279922246933, 0.14213432371616364, 0.09132476896047592], [0.04081899672746658, -0.14673379063606262, 0.4220466911792755, 0.17975781857967377, 0.13442327082157135, 0.4779050052165985, -0.05521248281002045, -0.11003851890563965, -0.16743198037147522, 0.13795295357704163, 0.24465031921863556, -0.2786121964454651, 0.0984722226858139, 0.026900405064225197, 0.15956586599349976, -0.23888306319713593, -0.5405423641204834, 0.0900401845574379, 0.5312598347663879, 0.33616384863853455, -0.2551560699939728, -0.0735960453748703, -0.021420307457447052, -0.4324534237384796, 0.031817249953746796, 0.023521028459072113, -0.25179991126060486, 0.6434749960899353, -0.1603953242301941, 0.4211483895778656, -0.01881294697523117, -0.052476804703474045], [0.19084706902503967, 0.4284408986568451, -0.42764484882354736, 0.1419244259595871, 0.1884078085422516, -0.02613501064479351, -0.286334753036499, 0.3961825668811798, 0.04067010432481766, -0.25024881958961487, -0.45292210578918457, 0.09979193657636642, 0.1638554036617279, -0.20235784351825714, -0.07642099261283875, -0.13047245144844055, -0.03851810842752457, -0.17161931097507477, 0.3919343054294586, -0.11579181253910065, 0.013445153832435608, -0.19803814589977264, -0.05541599914431572, 0.08207651972770691, -0.42649000883102417, -0.2527146339416504, -0.577559769153595, 0.19505523145198822, 0.17183272540569305, 0.11936357617378235, 0.09825106710195541, 0.19040606915950775], [0.196176677942276, -0.3015602231025696, -0.20276817679405212, -0.21493078768253326, -0.5040469169616699, -0.07883726060390472, -0.25853782892227173, 0.4954923987388611, -0.1390267312526703, -0.7442552447319031, 0.003924572374671698, -0.5360820293426514, 0.0718589499592781, 0.41509196162223816, -0.41786184906959534, -0.08639318495988846, 0.4825668931007385, -0.12826620042324066, -0.17967717349529266, -0.20680567622184753, 0.11283079534769058, -0.14430302381515503, -0.3650646507740021, 0.22880353033542633, -0.15820783376693726, -0.26548635959625244, 0.17507655918598175, 0.09323110431432724, -0.24537311494350433, -0.08731400221586227, -0.21479876339435577, -0.24071329832077026], [-0.18416373431682587, -0.10507640242576599, 0.1419154405593872, -0.3011138141155243, 0.2301427274942398, -0.4344464838504791, -0.24417144060134888, 0.3107093870639801, -0.15702404081821442, 0.2511194348335266, -0.19109009206295013, 0.020587177947163582, -0.3506416976451874, -0.07357151061296463, -0.5293665528297424, 0.010421473532915115, -0.32701927423477173, -0.0207213144749403, 0.22612270712852478, 0.4940650761127472, 0.4410650432109833, -0.30391088128089905, -0.11126472800970078, -0.14604069292545319, 0.20092013478279114, -0.5555095672607422, -0.15529510378837585, 0.06440974771976471, 0.24535559117794037, 0.12873440980911255, -0.233139768242836, 0.4427330493927002], [0.12192923575639725, -0.24156582355499268, -0.6113815903663635, 0.3181098997592926, -0.15853773057460785, -0.35653257369995117, -0.5612967014312744, -0.26075857877731323, -0.11769509315490723, 0.08380455523729324, -0.3070063889026642, -0.17514358460903168, -0.1008698046207428, 0.2848125398159027, -0.45736438035964966, -0.2895779311656952, 0.12723422050476074, -0.15415751934051514, 0.5421280860900879, 0.2142745405435562, 0.0696769505739212, -0.06738036125898361, -0.743996262550354, 0.020617416128516197, -0.7204066514968872, 0.024134546518325806, -0.21713703870773315, 0.48806294798851013, -0.21988624334335327, -0.12284637242555618, 0.19850020110607147, -0.24330106377601624], [0.11396792531013489, -0.11414457857608795, -0.22947415709495544, -0.5195319652557373, -0.2752574384212494, -0.1477186381816864, -0.13125336170196533, 0.4654851257801056, -0.2098386436700821, -0.38824161887168884, -0.9201741218566895, 0.18543687462806702, -0.6337429285049438, 0.158344104886055, -0.1951448768377304, -0.1410042941570282, -0.10261799395084381, 0.001794532872736454, -0.3190229833126068, 0.41793546080589294, 0.07339583337306976, -0.3379812240600586, 0.02029520645737648, -0.31317371129989624, -0.16213151812553406, -0.11439663171768188, -0.013823150657117367, 0.10233430564403534, -0.11887043714523315, 0.4297623336315155, 0.1732349842786789, -0.26458194851875305], [0.18305830657482147, -0.10174594819545746, -0.03343942388892174, 0.05361068621277809, -0.1998715102672577, 0.35987722873687744, -0.5051886439323425, 0.09839963167905807, 0.5604733824729919, -0.42651742696762085, 0.16836217045783997, 0.07125308364629745, 0.5046828985214233, 0.23835666477680206, 0.08996858447790146, 0.8983168601989746, 0.2907489836215973, -0.04781368002295494, -0.027902938425540924, 0.24063463509082794, 0.11304004490375519, -0.08049208670854568, -0.029211943969130516, 5.087237514089793e-05, -0.10971562564373016, -0.06404242664575577, -0.3190135061740875, -0.18156518042087555, -0.008571353740990162, -0.6315311789512634, 0.10350032895803452, -0.3170662224292755], [-0.40361446142196655, 0.1887718141078949, 0.3921246826648712, -0.20330266654491425, -0.040572501718997955, -0.00677155377343297, -0.704939603805542, 0.3967876732349396, -0.22495166957378387, 0.488620787858963, 0.23295094072818756, -0.03401004150509834, -0.23805777728557587, -0.09467943757772446, 0.1868484616279602, -0.40685105323791504, 0.19243411719799042, 0.0009191775461658835, -0.49874183535575867, 0.13107869029045105, 0.4506661593914032, -0.15248636901378632, -0.04061409458518028, 0.06123407557606697, -0.16095390915870667, -0.20102760195732117, -0.6230198740959167, -0.1033458337187767, 0.7325485944747925, 0.15689976513385773, -0.24606576561927795, 0.30207133293151855], [-0.20656968653202057, 0.08381468057632446, -0.007587038911879063, 0.0303833968937397, 0.05316927656531334, -0.05276801064610481, -0.20290754735469818, 0.419996052980423, -0.32412198185920715, -0.3338436484336853, -0.07201534509658813, 0.03232176974415779, -0.02356874756515026, -0.029033105820417404, -0.18638212978839874, -0.33873000741004944, -0.10412106662988663, -0.06633467227220535, 0.36396628618240356, 0.38317006826400757, 0.0558360330760479, -0.13908137381076813, -0.16622230410575867, -0.45756980776786804, -0.04901522397994995, 0.15786100924015045, -0.3570537269115448, 0.5561352968215942, 0.00532169034704566, 0.2726396918296814, 0.07386347651481628, 0.02291278727352619], [0.17621716856956482, 0.5840351581573486, -0.026369178667664528, 0.08821490406990051, -0.5200560688972473, 0.036200590431690216, -0.6426753401756287, 0.1378084421157837, -0.17615392804145813, -0.6611357927322388, 0.014143034815788269, -0.2868451476097107, 0.05905817449092865, -0.16035474836826324, -0.31445467472076416, -0.6436795592308044, 0.27920207381248474, 0.20931172370910645, 0.7501926422119141, -0.41853395104408264, 0.4171103537082672, 0.02503104880452156, -0.24233922362327576, -0.28747907280921936, 0.12670914828777313, -0.014580179005861282, -0.5148288011550903, -0.23569174110889435, -0.08798283338546753, 0.11647305637598038, 0.10909603536128998, 0.2643496096134186], [-0.1530466228723526, -0.1611756533384323, -0.05236249044537544, 0.12636038661003113, 0.0847884938120842, 0.2776128053665161, 0.008570228703320026, -0.16594554483890533, 0.41147664189338684, -0.07554592192173004, 0.0549146793782711, 0.08157168328762054, -0.10167247802019119, 0.6268057823181152, -0.47016581892967224, 0.02879980020225048, 0.08884398639202118, -0.17422349750995636, 0.04259995371103287, 0.07122793048620224, -0.2071058601140976, 0.1539093405008316, 0.09152589738368988, -0.07996728271245956, -0.07320517301559448, 0.007103691343218088, -0.25976550579071045, 0.044007398188114166, 0.043267469853162766, 0.06518688052892685, -0.019828204065561295, -0.6321499943733215], [0.18466173112392426, -0.41814926266670227, 0.6584364175796509, -0.39059948921203613, 0.061166729778051376, -0.08763060718774796, 0.4162042438983917, 0.012567608617246151, -0.2036765217781067, 0.23479649424552917, -0.36735278367996216, 0.028343498706817627, -0.04024874046444893, 0.0012136375298723578, -0.21431836485862732, 0.1315084844827652, -0.3802943825721741, -0.015190263278782368, 0.06395919620990753, -0.05799388885498047, -0.21953539550304413, 0.48158225417137146, 0.09308260679244995, -0.02380486950278282, -0.34090712666511536, -0.11696674674749374, 0.15408733487129211, -0.052689261734485626, 0.08407445251941681, 0.33728113770484924, -0.21738092601299286, 0.18147136270999908], [-0.3319573402404785, -0.1744588166475296, 0.018376370891928673, -0.07432369142770767, -0.1548958271741867, 0.28048017621040344, -0.021897200495004654, 0.3021646738052368, 0.023022610694169998, 0.09022273123264313, 0.054439038038253784, 0.14628347754478455, 0.026892777532339096, -0.46093854308128357, 0.07573690265417099, -0.6409801244735718, 0.09778383374214172, 0.1906721591949463, -0.0905364453792572, 0.37869730591773987, 0.24552780389785767, -0.23195531964302063, -0.524401843547821, -0.2612832486629486, -0.05223756283521652, 0.008684469386935234, -0.5410473346710205, 0.22555194795131683, -0.06742127984762192, 0.22362330555915833, 0.20187656581401825, 0.17762930691242218], [-0.3236426115036011, -0.004147409927099943, -0.19824305176734924, -0.015587623231112957, -0.2656419575214386, 0.03552767261862755, -0.2650432288646698, -0.16998416185379028, 0.13738562166690826, -0.1923399120569229, -0.07290395349264145, 0.2933396100997925, -0.18097348511219025, 0.3343980312347412, -0.2852669060230255, 0.34143367409706116, -0.38383007049560547, -0.180247500538826, 0.3788636028766632, 0.05107710510492325, 0.16704431176185608, -0.5686882734298706, 0.2594122886657715, -0.2828037142753601, -0.2107284963130951, -0.28446367383003235, -0.3783750534057617, -0.02198726125061512, 0.1481751650571823, 0.3446246385574341, -0.3240438401699066, -0.13285963237285614], [-0.0122938621789217, -0.11625927686691284, 0.17530031502246857, -0.07656882703304291, -0.09659402817487717, -0.8606564998626709, 0.29405608773231506, -0.20051515102386475, -0.06452051550149918, -0.05407194048166275, -0.30757936835289, -0.2738223075866699, -0.03421049192547798, -0.6159943342208862, -0.02437877655029297, -0.45671364665031433, -0.35574302077293396, 0.018481390550732613, 0.37506136298179626, 0.047989655286073685, 0.23308949172496796, -0.1980794072151184, 0.041580554097890854, -0.028266387060284615, -0.3270244598388672, 0.1570897400379181, -0.3187952935695648, 0.8610002398490906, 0.14892776310443878, 0.37945717573165894, -0.4607270061969757, 0.17335283756256104], [-0.46700090169906616, 0.2954842150211334, -0.126297265291214, -0.2291393280029297, -0.5606552958488464, -0.1530454009771347, 0.07727381587028503, 0.4389225244522095, 0.20273898541927338, -0.49329566955566406, 0.10938134789466858, 0.23432156443595886, -0.39815986156463623, -0.15883247554302216, -0.2583441138267517, -0.24469561874866486, -0.07829819619655609, 0.030501142144203186, 0.12939918041229248, 0.23402346670627594, -0.06944028288125992, -0.11769046634435654, -0.24761120975017548, -0.14105156064033508, -0.4370061159133911, -0.38253253698349, -0.03257875517010689, -0.02245580404996872, -0.19588707387447357, 0.020839309319853783, -0.17058409750461578, -0.20968106389045715], [-0.7392884492874146, 0.1244417130947113, 0.1472398191690445, -0.3688884377479553, -0.03904483839869499, -0.3853338062763214, 0.11546056717634201, -0.04737619683146477, 0.027733899652957916, 0.1474602371454239, -0.005606893450021744, 0.44230347871780396, -0.1823800802230835, -0.23745769262313843, -0.1163974180817604, -0.1203225776553154, 0.10275992006063461, -0.3088439404964447, 0.4832874536514282, 0.14382211863994598, 0.35488149523735046, -0.08939984440803528, -0.29354897141456604, 0.007301014382392168, 0.12232151627540588, -0.024940356612205505, 0.25608399510383606, 0.24228566884994507, 0.15604829788208008, 0.17120438814163208, -0.7901403307914734, 0.10553671419620514], [-0.1385282576084137, -0.2955165505409241, 0.12902185320854187, -0.39782583713531494, 0.4306034445762634, 0.17197221517562866, -0.1336267739534378, -0.3660180866718292, 0.20246084034442902, 0.06660149991512299, -0.2678815722465515, 0.06502192467451096, -0.13331496715545654, -0.010072636418044567, -0.2668447196483612, 0.01247933879494667, 0.0757807269692421, -0.2113921344280243, 0.49328720569610596, 0.06824979186058044, 0.19087713956832886, 0.1279856115579605, -0.06899315118789673, 0.11152613908052444, -0.2142476588487625, -0.336227148771286, -0.38140490651130676, 0.032413750886917114, -0.003447053488343954, 0.018554434180259705, 0.2824647128582001, 0.4448270797729492], [-0.40749460458755493, -0.12425339967012405, 0.033884353935718536, -0.16753405332565308, 0.040347032248973846, -0.17752951383590698, -0.43542104959487915, -0.6073173880577087, -0.20152588188648224, -0.24626976251602173, 0.20405016839504242, -0.39637479186058044, 0.25220584869384766, 0.15609723329544067, 0.1360408514738083, -0.07623051106929779, -0.3100767135620117, 0.3086211383342743, 0.20469476282596588, 0.11903805285692215, 0.2505928874015808, -0.3092655837535858, -0.3099735379219055, -0.17473039031028748, -0.6685923337936401, -0.2081318348646164, -0.8892690539360046, -0.36108890175819397, -0.08637029677629471, -0.17006836831569672, -0.05652822181582451, 0.04098797217011452], [-0.0019514503655955195, -0.027083756402134895, -0.07513859122991562, 0.10913288593292236, 0.07154884189367294, -0.21771617233753204, 0.20487703382968903, 0.1748463660478592, 0.09873685240745544, -0.040801040828228, -0.138813778758049, -0.09618332982063293, 0.04759981855750084, -0.31411582231521606, -0.09208683669567108, -0.17498371005058289, 0.37783342599868774, 0.03736817091703415, 0.4609600007534027, -0.12290338426828384, 0.45840269327163696, -0.12247896194458008, -0.2105444371700287, -0.3855886161327362, 0.0976540818810463, 0.3508531451225281, 0.265418142080307, 0.6544473171234131, -0.04607846215367317, 0.5569596886634827, -0.1562182605266571, 0.21111410856246948], [-0.13284426927566528, -0.0830569788813591, 0.11776206642389297, 0.09279827773571014, -0.3658006489276886, -0.02781093306839466, 0.055353790521621704, 0.8912997245788574, -0.24975833296775818, 0.16341035068035126, 0.18514227867126465, -0.13349215686321259, 0.024950318038463593, 0.036058854311704636, -0.10189059376716614, -0.20339198410511017, -0.23426251113414764, -0.3489275872707367, 0.3243207633495331, 0.26082760095596313, 0.7343786954879761, -0.07087888568639755, 0.0051038432866334915, 0.2778080999851227, -0.26045796275138855, -0.33841589093208313, -0.012190018780529499, 0.07456877827644348, -0.5351582765579224, 0.13513362407684326, 0.07595086842775345, -0.06388294696807861], [-0.1614072024822235, 0.1707170605659485, 0.21144253015518188, 0.1018008217215538, -0.3617003858089447, 0.05580651015043259, -0.23097394406795502, -0.08858175575733185, 0.16471147537231445, 0.20946864783763885, 0.27974894642829895, -0.43536463379859924, -0.022006064653396606, 0.019269084557890892, 0.035812173038721085, 0.12057246267795563, 0.34686458110809326, -0.22455015778541565, 0.19038192927837372, -0.014372437261044979, 0.021554186940193176, 0.0321672186255455, -0.23288486897945404, 0.39202407002449036, -0.15670865774154663, -0.4059768319129944, -0.1913069635629654, -0.14385110139846802, 0.38062819838523865, -0.4828576147556305, 0.3228500783443451, 0.2944410741329193], [0.001953788800165057, -0.11348021775484085, -0.6471912264823914, 0.2274005115032196, 0.1327957957983017, -0.03581491857767105, 0.05076814070343971, -0.3624390959739685, -0.06071525067090988, 0.2124307006597519, 0.06054781749844551, -0.06890980154275894, 0.21339580416679382, 0.36515453457832336, -0.44792836904525757, -0.422722190618515, -0.27292555570602417, -0.2759399712085724, 0.18181492388248444, -0.28175610303878784, 0.14309628307819366, -0.1408417820930481, -0.5748186707496643, 0.4619658887386322, 0.016907544806599617, -0.45543307065963745, 0.05474912002682686, 0.37955808639526367, 0.6907156109809875, 0.023367617279291153, 0.28964516520500183, -0.06354648619890213], [-0.22420887649059296, 0.48141148686408997, -0.20694532990455627, 0.1966543048620224, 0.06694939732551575, -0.1622224897146225, -0.26872342824935913, 0.46610260009765625, -0.17517226934432983, -0.17491932213306427, -0.0472370944917202, -0.19981300830841064, 0.07885255664587021, 0.20346558094024658, 0.19928357005119324, -0.2575250566005707, 0.001576801179908216, -0.22405287623405457, 0.2670157253742218, 0.33176034688949585, -0.08655544370412827, -0.2942363917827606, -0.19760273396968842, -0.04093771055340767, -0.17426541447639465, -0.2145804911851883, -0.2174091637134552, -0.10882478207349777, -0.020070292055606842, -0.15056371688842773, 0.1798090785741806, 0.13665758073329926], [0.04945432022213936, 0.10552273690700531, 0.23310190439224243, 0.4032353460788727, 0.1019168496131897, 0.024943910539150238, -0.06087733060121536, 0.2544364333152771, 0.09485887736082077, 0.023273995146155357, -0.001407660893164575, 0.050093796104192734, -0.251504123210907, -0.09768077731132507, 0.3000508248806, -0.1296810358762741, -0.02133984863758087, 0.01664237305521965, -0.12071376293897629, -0.21845446527004242, 0.5296652317047119, 0.08864597976207733, 0.4802515208721161, 0.3073529601097107, 0.22336043417453766, 0.26932257413864136, -0.0824461281299591, 0.17185130715370178, 0.1353137195110321, 0.06087638810276985, -0.33146220445632935, -0.16444437205791473], [0.07732250541448593, -0.018034225329756737, 0.18345379829406738, -0.06101129949092865, -0.39639341831207275, 0.18738892674446106, 0.12272214144468307, 0.3026677668094635, 0.3484250605106354, 0.19249582290649414, 0.09646793454885483, -0.28804507851600647, -0.12356245517730713, 0.335369735956192, 0.1822555512189865, -0.018439944833517075, -0.21334205567836761, -0.3496552109718323, 0.20172405242919922, 0.001448645256459713, 0.43802306056022644, 0.042184870690107346, 0.06784629821777344, 0.27544158697128296, -0.0346028096973896, -0.14060835540294647, -0.2539871335029602, 0.23893629014492035, 0.047765906900167465, -0.1569734662771225, -0.04724900797009468, -0.017695773392915726], [-0.06426922231912613, 0.3986331820487976, 0.406602144241333, -0.11051850765943527, -0.18355855345726013, -0.19333826005458832, -0.08461511880159378, -0.21572817862033844, 0.40219220519065857, 0.45960915088653564, -0.11878928542137146, -0.19529888033866882, -0.4240395426750183, 0.10084076225757599, -0.1554735004901886, -0.08766607940196991, -0.12731453776359558, 0.1302386075258255, 0.4507828950881958, 0.016650229692459106, 0.3295119106769562, 0.27814167737960815, 0.015473555773496628, 0.1189161092042923, 0.16415339708328247, -0.2814982235431671, 0.27583199739456177, 0.2377014011144638, 0.07351402938365936, 0.3384905755519867, -0.2740400433540344, -0.3823053538799286], [-0.3316442668437958, -0.4711269736289978, 0.308415949344635, -0.5316470861434937, 0.2949675917625427, -0.18912754952907562, -0.6245593428611755, -0.0687459409236908, -0.47268441319465637, 0.06801851093769073, -0.25085726380348206, -0.02511490136384964, 0.016159310936927795, 0.17719754576683044, -0.04343816265463829, -0.596531093120575, 0.18885351717472076, -0.22133055329322815, 0.2603381872177124, 0.4660702347755432, -0.3027525842189789, -0.3110339939594269, -0.28332647681236267, -0.19529014825820923, 0.10726458579301834, 0.10161324590444565, -0.5287314653396606, -0.09227944165468216, -0.11841599643230438, -0.2781166136264801, 0.11976884305477142, 0.09611620754003525], [-0.31092482805252075, 0.05595899745821953, 0.13750499486923218, -0.2997865378856659, -0.17222465574741364, -0.27614590525627136, 0.19026894867420197, 0.3156067430973053, 0.054937247186899185, 0.10474543273448944, -0.17189350724220276, 0.2312326580286026, 0.13913989067077637, -0.25497719645500183, 0.07395447045564651, -0.01529186312109232, -0.016265176236629486, 0.08178986608982086, 0.47383201122283936, 0.014569186605513096, -0.05348822474479675, -0.44163239002227783, 0.17642390727996826, -0.14165228605270386, -0.1317962259054184, 0.2739613354206085, 0.0004207660967949778, 0.232908695936203, -0.3023686707019806, -0.14024855196475983, -0.0657905712723732, 0.21489150822162628], [-0.23449434340000153, -0.5930928587913513, 0.519577145576477, -0.15434344112873077, -0.04694557189941406, 0.22675971686840057, -0.05925688147544861, -0.30118614435195923, -0.16682970523834229, 0.6701064109802246, -0.413603812456131, -0.10889726877212524, -0.16831998527050018, 0.26863330602645874, 0.10106492787599564, -0.3341312110424042, -0.08125811070203781, -0.13354472815990448, 0.23848363757133484, -0.16915765404701233, -0.11356135457754135, -0.20257528126239777, -0.013280066661536694, -0.3257717788219452, 0.44452103972435, -0.265427827835083, -0.0010568537982180715, 0.21936555206775665, -0.8374963402748108, -0.4237120747566223, -0.623137891292572, 0.027500730007886887], [-0.4466288983821869, -0.030315449461340904, 0.33456018567085266, -0.2092248648405075, -0.422505646944046, -0.1225728690624237, -0.5245566964149475, -0.08292517811059952, 0.33547767996788025, -0.011062596924602985, -0.062379077076911926, -0.3664948344230652, 0.19252851605415344, -0.09580599516630173, -0.12066876143217087, -0.25233328342437744, -0.2613978683948517, -0.2542875409126282, 0.08743608742952347, -0.3890790343284607, 0.9326303601264954, 0.20531065762043, -0.29044684767723083, -0.05257389694452286, 0.2867252230644226, 0.10668130218982697, 0.4671323895454407, 0.1168820858001709, -0.10823454707860947, -0.46257224678993225, -0.3055241107940674, -0.16272762417793274], [-0.34459373354911804, 0.3247319757938385, 0.2427148073911667, -0.4331130385398865, -0.2744729220867157, -0.21185559034347534, -0.07278485596179962, -0.4688064157962799, 0.004995874594897032, 0.1313515305519104, -0.7388941645622253, 0.08740667253732681, 0.05465981736779213, 0.5360584855079651, -0.10267121344804764, 0.13891594111919403, -0.17151007056236267, -0.3374919295310974, 0.1654728353023529, -0.37090396881103516, -0.2169954925775528, -0.07225894927978516, 0.10381022840738297, -0.2975635230541229, -0.01622037962079048, 0.22877740859985352, -0.36337628960609436, 0.13242875039577484, -0.822555661201477, 0.36015376448631287, -0.025335032492876053, 0.031596794724464417], [0.27502965927124023, 0.1876564621925354, 0.13444195687770844, 0.21867765486240387, -0.22905343770980835, 0.09701919555664062, 0.24798016250133514, 0.20549345016479492, 0.05403514206409454, -0.16359765827655792, -0.1310766637325287, -0.09329773485660553, -0.08697197586297989, 0.5941036343574524, 0.28939196467399597, -0.05919545143842697, 0.04631689563393593, 0.01787140965461731, 0.3279888331890106, 0.05487551540136337, -0.21296583116054535, 0.19584232568740845, -0.4315338432788849, -0.4512979984283447, 0.18525496125221252, 0.5367412567138672, -0.5944156646728516, 0.00500961160287261, 0.4289747178554535, -0.5424973964691162, -0.39543449878692627, 0.39558055996894836], [0.3258998692035675, -0.11461344361305237, -0.2948753833770752, 0.3853677809238434, -0.2226056009531021, 0.3899138271808624, 0.014920729212462902, -0.09408506006002426, -0.2304752916097641, -0.23181496560573578, 0.2427477240562439, 0.1284339278936386, 0.2211940586566925, 0.232275128364563, -0.2962356507778168, -0.20856955647468567, -0.010878806002438068, -0.1520698517560959, 0.03166693449020386, -0.1541045904159546, -0.22037291526794434, -0.06904592365026474, -0.36957743763923645, 0.05769534781575203, -0.30194005370140076, 0.11768770962953568, 0.1702539473772049, -0.3879035711288452, 0.4319637417793274, 0.12431462109088898, 0.04526936635375023, -0.40561941266059875], [-0.2581496238708496, -0.0005142897716723382, 0.3262442648410797, -0.1936919242143631, -0.08754110336303711, -0.04365784302353859, -0.07321187108755112, -0.05784623697400093, 0.0649869367480278, 0.21229591965675354, -0.39687395095825195, -0.04603371024131775, 0.2883937358856201, 0.35441234707832336, -0.3351321816444397, 0.18715210258960724, -0.07740213721990585, 0.22684341669082642, 0.249002605676651, 0.4223748743534088, -0.09035448729991913, 0.28148043155670166, 0.137250617146492, 0.048163607716560364, -0.39568233489990234, 0.19602733850479126, -0.10101701319217682, 0.007303521502763033, 0.1427377462387085, 0.31443771719932556, -0.1716277301311493, 0.06622758507728577], [0.20500193536281586, 0.06876770406961441, 0.13237185776233673, -0.23290206491947174, -0.07568026334047318, -0.08722319453954697, -0.6083933711051941, 0.3179017901420593, -0.16095781326293945, -0.06640644371509552, -0.05833554267883301, 0.5522246360778809, 0.19433079659938812, 0.15009969472885132, -0.04519372805953026, -0.471383273601532, 0.0751890242099762, 0.05592842027544975, -0.42330801486968994, 0.04845002293586731, -0.3472962975502014, -0.13422437012195587, -0.1855955719947815, -0.10751636326313019, -0.3385070264339447, 0.009048630483448505, 0.2288612425327301, -0.23802107572555542, -0.023347198963165283, 0.12202753126621246, 0.6025189757347107, -0.2863690257072449], [-0.414594829082489, -0.5844879746437073, 0.6010944843292236, -0.1951589286327362, 0.3453226387500763, 0.03573871776461601, -0.18195855617523193, -0.19106730818748474, 0.21043138206005096, 0.15607240796089172, -0.22440585494041443, -0.07011548429727554, 0.30235204100608826, -0.10214230418205261, -0.07947766035795212, 0.1443617343902588, -0.15145231783390045, 0.17776775360107422, 0.5996159315109253, 0.19310389459133148, 0.6595301628112793, 0.20799288153648376, 0.18526238203048706, 0.16494253277778625, 0.12393040955066681, -0.17624662816524506, 0.18012824654579163, 0.2853769063949585, -0.07166168838739395, 0.22700808942317963, -0.21056705713272095, 0.008480590768158436], [0.17062830924987793, 0.42748644948005676, 0.1656561940908432, -0.05781243368983269, -0.023472517728805542, -0.017641879618167877, -0.35618871450424194, -0.07575686275959015, 0.013401771895587444, 0.17058482766151428, -0.0188458114862442, 0.4231097400188446, -0.03994027152657509, 0.15724340081214905, 0.3390619456768036, -0.1635540872812271, 0.2531896233558655, -0.07810384035110474, 0.17176149785518646, -0.11829470843076706, -0.35076117515563965, -0.0007928035338409245, 0.0680384486913681, 0.32740679383277893, -0.055687759071588516, -0.5037572979927063, -0.6035199165344238, -0.2177414745092392, -0.2139047235250473, -0.07703553885221481, -0.12303537875413895, -0.016948102042078972], [-0.04190051183104515, 0.007513703312724829, -0.3491470217704773, 0.10889113694429398, 0.569643497467041, 0.36130326986312866, 0.20848360657691956, 0.22170259058475494, 0.2659723162651062, 0.165347620844841, 0.034693919122219086, -0.4385007917881012, 0.006351109594106674, -0.3396226465702057, 0.2285567969083786, 0.016345374286174774, 0.05323602631688118, -0.1347343623638153, 0.058856651186943054, -0.2567838728427887, 0.035929083824157715, 0.30808594822883606, 0.12894773483276367, 0.25356003642082214, -0.005347683094441891, -0.27474695444107056, -0.1170128807425499, -0.1643269956111908, 0.007947620935738087, -0.07573604583740234, 0.5166312456130981, 0.00813111662864685], [0.3111693263053894, 0.03499593958258629, -0.4958063066005707, 0.21200087666511536, -0.326393723487854, -0.4999343156814575, -0.07923135161399841, 0.43572020530700684, 0.16836607456207275, -0.28759849071502686, 0.38408657908439636, 0.12721504271030426, -0.11683615297079086, -0.12863358855247498, 0.032177262008190155, -0.4135899245738983, -0.23095278441905975, 0.1603061705827713, -0.97642582654953, -0.06190277636051178, -0.24650812149047852, 0.3255710005760193, -0.0642121210694313, 0.27307140827178955, -0.12103687971830368, 0.04055240750312805, -0.4020218849182129, -0.05021209642291069, 0.6088849902153015, -0.5247601866722107, 0.008374364115297794, -0.14232710003852844], [-0.31356653571128845, -0.2852703034877777, 0.28737562894821167, 0.24869142472743988, 0.6293497681617737, 0.30357012152671814, -0.09418729692697525, 0.09336908906698227, -0.09690024703741074, 0.028648754581809044, -0.09836583584547043, 0.01143202930688858, -0.14138656854629517, 0.08114293217658997, -0.13423572480678558, -0.16042548418045044, -0.6677035689353943, -0.017855262383818626, 0.43238842487335205, 0.04576383903622627, 0.3806104362010956, 0.24874883890151978, 0.012576164677739143, 0.018930280581116676, 0.1459357887506485, 0.1995399445295334, -0.36302921175956726, 0.37899473309516907, -0.12445048242807388, 0.19266165792942047, -0.22296388447284698, 0.37676697969436646], [-0.20609840750694275, -0.25468137860298157, 0.3702555000782013, -0.1656661182641983, 0.22738398611545563, -0.06581343710422516, -0.11125209927558899, -0.4469963014125824, -0.06634043157100677, 0.37000587582588196, -0.17911918461322784, -0.07796730101108551, -0.24393780529499054, -0.13212384283542633, -0.08609689772129059, 0.41887038946151733, -0.1827080100774765, -0.4761413335800171, 0.1882563680410385, 0.4464103877544403, 0.7058988809585571, 0.09204889088869095, -0.0049278028309345245, 0.23749734461307526, 0.1802394688129425, -0.28396791219711304, 0.3301551938056946, -0.13531680405139923, -0.053680047392845154, 0.42137911915779114, 0.01223671343177557, 0.3857627213001251], [-0.34254345297813416, -0.19051192700862885, 0.06146397069096565, 0.02458503097295761, 0.06291953474283218, -0.08957426249980927, -0.018328530713915825, 0.26346659660339355, 0.2044680118560791, 0.22046881914138794, -0.0015816920204088092, 0.17231670022010803, -0.17687129974365234, 0.4968661665916443, -0.2377082109451294, 0.3330879509449005, -0.22385108470916748, -0.11194953322410583, 0.014301885850727558, -0.0802658423781395, 0.16274018585681915, 0.042773935943841934, -0.40926608443260193, 0.1856403350830078, -0.1820637732744217, -0.4152693748474121, 0.26689258217811584, 0.44259706139564514, -0.10231512039899826, 0.30033135414123535, 0.03246167302131653, 0.3751322329044342], [0.1488102674484253, 0.005321999080479145, -0.009858869016170502, -0.152700275182724, 0.4297913908958435, 0.09246635437011719, -0.31461694836616516, -0.7807894945144653, 0.14458531141281128, 0.15389256179332733, -0.3662928342819214, 0.20491749048233032, -0.20891936123371124, -0.11260247230529785, 0.301778644323349, -0.23014482855796814, 0.10891619324684143, 0.15110521018505096, 0.3178102672100067, 0.2412087321281433, 0.16325312852859497, 0.3017498850822449, 0.175094872713089, -0.025903131812810898, 0.0765625461935997, 0.14627529680728912, 0.15241824090480804, 0.40167295932769775, -0.2182275801897049, 0.2224138379096985, -0.4483790695667267, 0.08001254498958588], [0.4124908447265625, -0.6197149157524109, 0.5298573970794678, -0.14314064383506775, 0.4025770425796509, 0.314362108707428, 0.3612176179885864, -0.21763908863067627, -0.5381007194519043, -0.24499402940273285, -0.34476909041404724, 0.004586934112012386, 0.05697747692465782, -0.1757938265800476, -0.046058811247348785, 0.14255346357822418, -0.22529537975788116, -0.12764596939086914, 0.39828792214393616, 0.18203169107437134, 0.690392017364502, -0.06712878495454788, 0.021432409062981606, -0.19661471247673035, -0.5270403623580933, 0.28135883808135986, 0.5209572315216064, 0.7272410988807678, -0.03866863250732422, 0.398100882768631, 0.31225883960723877, -0.0779334083199501], [-0.1833040714263916, -0.262786865234375, 0.1817941814661026, 0.1413373500108719, -0.06114489212632179, -0.05389581620693207, 0.37953615188598633, -0.2934783697128296, 0.17096851766109467, 0.17314636707305908, -0.25518015027046204, -0.03400813788175583, -0.4858422577381134, -0.30120813846588135, -0.1322638839483261, -0.16920706629753113, 0.06954293698072433, -0.36207759380340576, 0.6339065432548523, 0.3978004455566406, 0.1855613738298416, 0.12274131923913956, 0.37457549571990967, 0.11171739548444748, -0.21077947318553925, 0.20443719625473022, 0.10437715798616409, 0.5190236568450928, -0.041081275790929794, 0.2866682708263397, -0.222289577126503, 0.015700696036219597], [-0.09779471904039383, 0.18758255243301392, -0.3706374168395996, -0.1959141492843628, -0.08459072560071945, 0.11920158565044403, -0.3328714668750763, 0.33471789956092834, 0.5295324325561523, -0.22754628956317902, 0.2909993529319763, 0.506547212600708, -0.1975359171628952, 0.310730516910553, 0.2752496004104614, -0.13220414519309998, -0.11024285107851028, 0.27290838956832886, -0.21143844723701477, -0.4012426435947418, -0.21622607111930847, -0.40030595660209656, -0.2929234504699707, 0.23544156551361084, 0.10602904856204987, -0.3819299340248108, -0.15857291221618652, -0.3581586480140686, -0.071620412170887, 0.5224032402038574, 0.21387161314487457, -0.2051474153995514], [0.39091989398002625, 0.4521367847919464, 0.2897034287452698, 0.008248990401625633, -0.24927948415279388, 0.05104539543390274, -0.3077870011329651, -0.03454730659723282, 0.11536404490470886, -0.28047555685043335, 0.28115376830101013, 0.2497122883796692, 0.19934433698654175, -0.30865275859832764, 0.26822182536125183, 0.0433536134660244, -0.06255246698856354, 0.1124444454908371, -0.31573542952537537, 0.020367441698908806, -0.5139564871788025, 0.33709293603897095, -0.19659431278705597, -0.34892088174819946, 0.026601867750287056, -0.22124485671520233, -0.029693670570850372, -0.08152502030134201, -0.03875041380524635, -0.15280181169509888, -0.1303347796201706, -0.5260159373283386], [0.2944161891937256, -0.45573940873146057, -0.38435447216033936, 0.06614513695240021, 0.055667098611593246, 0.31439968943595886, -0.03738505765795708, -0.044082898646593094, -0.21622136235237122, -0.00625105993822217, -0.27164220809936523, 0.14657796919345856, -0.07266135513782501, 0.18230587244033813, 0.09034527093172073, -0.14560434222221375, -0.1363992542028427, 0.2817690074443817, 0.4105762541294098, -0.0570758618414402, 0.024925637990236282, 0.015959743410348892, -0.04952862486243248, 0.0862107127904892, 0.3806639015674591, 0.3976873457431793, 0.43670472502708435, -0.32287657260894775, 0.30361244082450867, 0.1593569666147232, -0.27758392691612244, -0.14175540208816528], [0.20271655917167664, -0.026845229789614677, 0.4551440179347992, 0.04511426016688347, 0.15241196751594543, 0.07421596348285675, -0.0564667209982872, 0.5326664447784424, 0.14671243727207184, 0.5178115963935852, -0.6751848459243774, 0.18487700819969177, -0.3188284635543823, 0.35250166058540344, -0.3469274342060089, -0.2301310896873474, 0.15012946724891663, 0.09320786595344543, 0.6208695769309998, 0.1946832686662674, 0.05075856298208237, 0.07504809647798538, 0.2696431279182434, -0.344428688287735, -0.15902329981327057, 0.2619689106941223, 0.15707558393478394, 0.33608153462409973, -0.3159835636615753, 0.14384257793426514, -0.11002502590417862, 0.10914745926856995], [-0.07333606481552124, 0.2719338536262512, 0.3127610683441162, 0.5574037432670593, 0.0891236886382103, -0.010933050885796547, 0.16660046577453613, -0.3213042914867401, -0.007538266945630312, 0.08049699664115906, 0.11175427585840225, 0.13269026577472687, -0.2688211500644684, 0.04776914045214653, -0.20787303149700165, -0.05742423236370087, -0.13262833654880524, -0.22713488340377808, 0.32398301362991333, -0.06333961337804794, 0.06387663632631302, 0.17749997973442078, 0.0476665236055851, -0.5883845686912537, -0.24915145337581635, 0.5533195734024048, -0.06223189830780029, -0.0957457572221756, -0.28588902950286865, -0.1324993371963501, -0.10449400544166565, 0.2358226776123047], [0.028225841000676155, -0.008830229751765728, 0.15008491277694702, 0.23864153027534485, -0.03970623016357422, 0.1545620709657669, 0.4124484956264496, 0.08044946938753128, 0.5723602175712585, 0.15777555108070374, 0.41220417618751526, -0.31426945328712463, -0.019825473427772522, 0.239782452583313, 0.1859719604253769, -0.18652968108654022, 0.42080673575401306, -0.12722501158714294, -0.23023450374603271, 0.08630993217229843, -0.40217259526252747, -0.32122907042503357, 0.2758576273918152, 0.5101066827774048, -0.01501299999654293, -0.6129305958747864, -0.33388015627861023, -0.5163058042526245, 0.46011975407600403, -0.5190637707710266, 0.2987167239189148, -0.47853443026542664], [-0.08359286189079285, 0.15514537692070007, 0.007483594119548798, 0.0513366274535656, -0.09551786631345749, 0.3284788131713867, -0.11324281245470047, -0.46589621901512146, 0.16842976212501526, 0.5047699213027954, -0.4674592912197113, 0.09874355792999268, -0.5266337990760803, 0.3190936744213104, -0.0971091166138649, 0.3300074338912964, -0.4418637454509735, 0.5952782034873962, 0.21625427901744843, 0.21834366023540497, 0.41539689898490906, 0.04289661720395088, -0.01781361736357212, 0.027690716087818146, 0.329614520072937, -0.18491904437541962, -0.06305920332670212, 0.08733999729156494, 0.014650105498731136, 0.24209913611412048, -0.16380901634693146, 0.2510892450809479], [0.11178741604089737, -0.39326342940330505, 0.17894917726516724, -0.048194341361522675, 0.033133674412965775, -0.23773455619812012, -0.09697641432285309, -0.3320952355861664, -0.46454906463623047, 0.1551288515329361, -0.054102491587400436, -0.056060995906591415, 0.14921239018440247, 0.31193792819976807, 0.025813322514295578, 0.23544251918792725, -0.06408563256263733, -0.07140663266181946, 0.11277640610933304, 0.03550736606121063, -0.1847192943096161, -0.10858961194753647, 0.038049839437007904, -0.21911729872226715, -0.03957570716738701, 0.03259875252842903, -0.40556493401527405, 0.5465809106826782, -0.21964700520038605, 0.5039075016975403, 0.32755881547927856, 0.27545979619026184], [0.16295866668224335, 0.001558457501232624, -0.4224570691585541, -0.2159421145915985, 0.4761168956756592, 0.23989015817642212, -0.06811535358428955, 0.3481428623199463, 0.2593211531639099, 0.22776564955711365, 0.8122660517692566, -0.16492204368114471, 0.044138893485069275, 0.08122751861810684, -0.019253471866250038, 0.33340713381767273, 0.14739319682121277, -0.36068642139434814, -0.05108395963907242, 0.15624761581420898, -0.6103574633598328, -0.09530893713235855, -0.04649633169174194, 0.09289015829563141, -0.4492017924785614, 0.13000527024269104, -0.2707849144935608, 0.16661648452281952, 0.21724459528923035, -0.4730394780635834, 0.4001798927783966, -0.09261482208967209], [-0.008473170921206474, 0.3275945484638214, -0.38946789503097534, 0.11096436530351639, -0.14922800660133362, -0.21971629559993744, 0.20350244641304016, 0.26044967770576477, 0.2553848624229431, -0.06607463955879211, -0.013266436755657196, -0.3692823350429535, 0.2575017213821411, -0.27742230892181396, 0.07616811245679855, -0.5717130899429321, 0.442754328250885, -0.06507014483213425, -0.4082023501396179, 0.3352595865726471, -0.41175517439842224, 0.2621862590312958, 0.018239887431263924, 0.3559722900390625, 0.045037396252155304, -0.13722415268421173, 0.15456631779670715, -0.014088223688304424, 0.45949485898017883, -0.3037128746509552, 0.04037174955010414, -0.6384491920471191], [-0.7070699334144592, -0.06538308411836624, 0.08971136063337326, -0.017015092074871063, 0.0627572163939476, -0.0521317757666111, -0.02707143872976303, -0.04042205214500427, 0.1089751198887825, -0.05554015189409256, -0.6393877267837524, 0.05106358975172043, -0.2878260016441345, 0.0019405042985454202, -0.31099918484687805, -0.04430926963686943, -0.3094750940799713, -0.03378372639417648, 0.39585113525390625, -0.30527636408805847, -0.033078230917453766, 0.22489815950393677, 0.4093376100063324, -0.07169413566589355, 0.00932304747402668, 0.28516972064971924, 0.03662894293665886, -0.0264205951243639, 0.07239451259374619, 0.20123125612735748, -0.1554519385099411, 0.2816498875617981], [0.14289748668670654, -0.34084615111351013, -0.0378209613263607, 0.49110788106918335, -0.17235594987869263, 0.16025875508785248, 0.017915597185492516, 0.36432817578315735, 0.03386557102203369, -0.0950160026550293, 0.22976897656917572, -0.19026201963424683, -0.2511061429977417, -0.12173226475715637, -0.014742609113454819, -0.1571740359067917, 0.4254864752292633, 0.12216442823410034, 0.09015229344367981, -0.13136301934719086, -0.00532935094088316, 0.08036628365516663, -0.22003646194934845, 0.22878804802894592, -0.2176782637834549, -0.40782812237739563, -0.2884722352027893, -0.5270692110061646, -0.11899355053901672, -0.3317260146141052, 0.10912145674228668, -0.034729525446891785], [0.3434661626815796, 0.06498828530311584, -0.26721078157424927, 0.44631853699684143, -0.1768481731414795, -0.18525411188602448, -0.011181000620126724, 0.201536163687706, -0.13086017966270447, -0.3376207649707794, 0.18122215569019318, 0.2992554008960724, 0.6573925018310547, 0.42402756214141846, 0.21432556211948395, 0.018041890114545822, -0.1106581836938858, -0.2326272875070572, -0.2071445733308792, 0.162995845079422, -0.4163999557495117, -0.03809706121683121, -0.08484291285276413, 0.5444815754890442, 0.06827668100595474, -0.5767078995704651, -0.312883585691452, 0.2309921830892563, -0.06695768237113953, -0.02843751758337021, -0.48234760761260986, 0.23546667397022247], [0.17920270562171936, -0.1943034827709198, -0.04332542419433594, -0.09975621849298477, -0.07831500470638275, 0.28092828392982483, -0.04110534489154816, -0.7029060125350952, 0.10342694073915482, -0.23514999449253082, 0.04947930946946144, -0.2691320776939392, -0.25659337639808655, -0.1481071412563324, 0.3238283097743988, -0.12444354593753815, 0.01148761436343193, 0.004833186510950327, -0.13294224441051483, 0.32405737042427063, -0.43299660086631775, 0.43884360790252686, -0.051103897392749786, 0.41129669547080994, -0.22249475121498108, -0.10592728853225708, -0.07246016710996628, 0.4961259663105011, -0.05782013759016991, 0.13023421168327332, -0.10694833099842072, -0.32113325595855713], [-0.12186504155397415, -0.46522098779678345, 0.3444976210594177, -0.11304676532745361, 0.11475688219070435, -0.26026007533073425, -0.23068684339523315, -0.2733495831489563, -0.43970155715942383, 0.1956275850534439, -0.00015300061204470694, -0.01983814686536789, -0.257276326417923, -0.46077051758766174, 0.3873705267906189, 0.7591619491577148, -0.2841157019138336, -0.291059285402298, 0.32470688223838806, 0.16321884095668793, 0.008113804273307323, 0.20436489582061768, 0.5038847327232361, 0.11954066157341003, 0.4060724973678589, 0.14962425827980042, 0.3194608688354492, 0.09475827217102051, 0.24206329882144928, 0.05420758202672005, -0.005172009114176035, -0.1732456237077713], [0.2808173596858978, 0.3979088366031647, -0.25649169087409973, 0.056502845138311386, -0.30049654841423035, -0.016595248132944107, -0.36986243724823, 0.036983296275138855, -0.23922111093997955, -0.5355822443962097, 0.26123741269111633, 0.09996776282787323, 0.3936798870563507, 0.11878127604722977, -0.4234541654586792, -0.25049349665641785, 0.07163822650909424, -0.21026389300823212, -0.7145277857780457, 0.023401694372296333, 0.22475098073482513, -0.3222377896308899, 0.18933312594890594, -0.12637126445770264, 0.08063817769289017, 0.18859829008579254, 0.029725074768066406, -0.6694930195808411, 0.2324417531490326, -0.2579622268676758, -0.24406906962394714, -0.43984752893447876], [0.1876160353422165, -0.05020538717508316, -0.10578504949808121, 0.09774861484766006, -0.18341250717639923, 0.12495860457420349, -0.19839823246002197, 0.17487704753875732, 0.030481018126010895, -0.24009567499160767, 0.1675960123538971, 0.0901101678609848, 0.10724186152219772, -0.2431398630142212, 0.24558480083942413, -0.024688974022865295, -0.30221185088157654, 0.1415877640247345, -0.23860904574394226, 0.20637758076190948, -0.1242632269859314, -0.3331390917301178, -0.09783351421356201, 0.15379950404167175, 0.15262602269649506, 0.13033336400985718, 0.15849803388118744, -0.6312017440795898, -0.058634016662836075, -0.36800631880760193, -0.020287685096263885, -0.4227949380874634], [0.010442109778523445, -0.15451714396476746, 0.045289576053619385, 0.022740064188838005, -0.13338464498519897, 0.23093357682228088, 0.39100778102874756, -0.5022772550582886, -0.30384889245033264, 0.4065181612968445, -0.596854567527771, -0.47338205575942993, -0.008462714962661266, 0.2116624265909195, 0.10403519123792648, 0.1264004111289978, 0.01262270100414753, 0.5123935341835022, 0.43957269191741943, -0.2060116082429886, 0.3426376283168793, 0.24819549918174744, 0.06215308979153633, -0.1208302229642868, -0.34419429302215576, 0.4328897297382355, 0.4461303949356079, 0.4954887926578522, 0.21883730590343475, 0.4194988012313843, -0.2761629819869995, -0.10365097969770432], [-0.22586458921432495, -0.18170905113220215, 0.3284499943256378, 0.36467254161834717, 0.37340137362480164, -0.09722783416509628, 0.23288656771183014, 0.2638346254825592, -0.44624659419059753, -0.04456104710698128, 0.1930886209011078, 0.23697121441364288, -0.2465282529592514, -0.03816359117627144, -0.09520984441041946, 0.15785163640975952, 0.08827929943799973, -0.0649566501379013, 0.5249346494674683, -0.29201486706733704, 0.3225100338459015, 0.14421764016151428, -0.20205539464950562, 0.11653552949428558, 0.2289944291114807, 0.0475798174738884, -0.40432265400886536, 0.20468899607658386, 0.22091509401798248, 0.5652061700820923, -0.10884711146354675, -0.2443784922361374], [0.033026888966560364, 0.22989661991596222, 0.4716014266014099, -0.1322975903749466, 0.27417269349098206, 0.2545326054096222, 0.02041139267385006, 0.05637199059128761, 0.37981489300727844, 0.016297487542033195, 0.19581131637096405, 0.12375694513320923, 0.12809276580810547, 0.3620590567588806, 0.10904344171285629, -0.18127207458019257, 0.0038366203662008047, -0.1413886547088623, 0.47277092933654785, -0.14526383578777313, 0.3175169825553894, 0.044521160423755646, 0.21699956059455872, 0.13363245129585266, 0.11479603499174118, -0.15815971791744232, 0.026204288005828857, 0.681445837020874, -0.0748811885714531, 0.07608991861343384, -0.07136435806751251, 0.05321988835930824], [-0.357077419757843, 0.18050925433635712, -0.39840394258499146, -0.0661965012550354, -0.42808598279953003, -0.1530093401670456, -0.03762629255652428, -0.02996303327381611, 0.4237871468067169, -0.31179279088974, 0.004349930677562952, -0.27526402473449707, -0.06972023099660873, -0.2921425700187683, 0.15457569062709808, -0.6220353841781616, 0.17024871706962585, 0.15025627613067627, -0.0541682168841362, -0.3362385928630829, -0.3501703143119812, -0.23267638683319092, -0.3989593982696533, -0.31640541553497314, -0.038920871913433075, 0.2788738012313843, -0.03494245186448097, -0.40485918521881104, 0.0656077116727829, -0.18131865561008453, -0.466316819190979, -0.5433871150016785], [-0.26771286129951477, 0.12803278863430023, 0.21033869683742523, -0.23914143443107605, -0.007297410164028406, -0.1336047500371933, 0.15113011002540588, 0.43353140354156494, 0.06581253558397293, -0.25055935978889465, 0.16440804302692413, 0.36900976300239563, 0.1217656061053276, -0.17043215036392212, 0.16569280624389648, -0.15991461277008057, -0.20221194624900818, 0.062178052961826324, 0.08709262311458588, 0.3397323787212372, 0.8153914213180542, 0.16571883857250214, -0.11904748529195786, 0.12021396309137344, -0.23424164950847626, -0.06724249571561813, -0.07854035496711731, 0.1556171178817749, 0.7762133479118347, 0.159600630402565, 0.05497531220316887, -0.07528183609247208], [-0.4266832768917084, 0.30889445543289185, 0.443826824426651, 0.02758164145052433, -0.4698638319969177, -0.1213952824473381, 0.19442027807235718, 0.7905619144439697, 0.5578946471214294, 0.27237486839294434, 0.21792730689048767, 0.3614375591278076, 0.1544063687324524, 0.016136791557073593, 0.07820151746273041, -0.1527285873889923, 0.2172345668077469, 0.6222968697547913, 0.15653224289417267, -0.1476038545370102, 0.17572206258773804, -0.03770364820957184, 0.3877658247947693, -0.22026367485523224, 0.24063760042190552, -0.33297988772392273, 0.04539614915847778, 0.8157093524932861, 0.2993018627166748, 0.24766595661640167, -0.1791204959154129, 0.5142649412155151], [-0.0474008210003376, 0.326397567987442, 0.014456688426434994, 0.06536558270454407, -0.026801956817507744, 0.5175542831420898, -0.01086159236729145, 0.13813169300556183, 0.17364197969436646, -0.5709794163703918, -0.008517519570887089, 0.09202775359153748, 0.32923704385757446, 0.3524007499217987, -0.24544790387153625, 0.24422961473464966, -0.3301481306552887, 0.12406285107135773, -0.1284661889076233, 0.007539780810475349, -0.27813979983329773, 0.12863649427890778, 0.5752372741699219, 0.07392208278179169, 0.10418500006198883, 0.5160742402076721, 0.5216015577316284, 0.06090901046991348, 0.3273000121116638, -0.5241633057594299, -0.059809599071741104, -0.3009189963340759], [-0.1586882621049881, 0.12193694710731506, -0.4252336919307709, 0.13585156202316284, -0.42821255326271057, -0.16057662665843964, 0.1276378184556961, -0.41031527519226074, -0.2654186487197876, -0.49074116349220276, -0.12629930675029755, 0.04949828237295151, -0.09772936999797821, -0.27344486117362976, 0.0632384642958641, -0.2040012776851654, -0.12573300302028656, 0.09533458203077316, -0.3196619749069214, -0.04731645807623863, -0.0831831842660904, -0.04332598298788071, -0.16102318465709686, 0.10566621273756027, -0.625870943069458, -0.06699711084365845, 0.27288034558296204, -0.47136276960372925, 0.3525846600532532, -0.6217504739761353, -0.42903396487236023, -0.24627134203910828], [-0.019085006788372993, 0.30234554409980774, 0.7195294499397278, -0.27411043643951416, -0.08730226010084152, -0.5286889672279358, 0.19683706760406494, 0.47113776206970215, 0.3080769181251526, 0.5337022542953491, -0.05497759208083153, 0.04345302656292915, 0.21422094106674194, 0.006791095249354839, 0.5307831168174744, -0.2428806871175766, 0.1223858967423439, -0.1780264675617218, 0.5164752006530762, 0.019577044993638992, -0.2325085997581482, -0.34734413027763367, -0.4387660324573517, 0.007060204166918993, -0.17858046293258667, 0.46832165122032166, 0.29605644941329956, -0.0924266055226326, -0.11151991039514542, 0.2766682207584381, -0.12038222700357437, -0.14103153347969055], [-0.16230055689811707, 0.34712931513786316, -0.2602005898952484, 0.26673373579978943, -0.21384868025779724, 0.05368375778198242, 0.4896382689476013, 0.05596394091844559, -0.07409217953681946, 0.4255259335041046, -0.5015318989753723, 0.18169821798801422, -0.039578404277563095, 0.19002050161361694, 0.1746910959482193, -0.033872611820697784, 0.09722964465618134, 0.13457712531089783, 0.10388315469026566, 0.17817457020282745, 0.2054741531610489, -0.39303919672966003, 0.046351734548807144, 0.09650501608848572, -0.32876554131507874, 0.11177414655685425, -0.16042901575565338, 0.6527071595191956, 0.31262439489364624, -0.11627072095870972, -0.06983272731304169, 0.336617648601532], [0.17429693043231964, -0.14002566039562225, 0.26093047857284546, 0.0005072715575806797, 0.23286877572536469, 0.04141971096396446, 0.21561115980148315, 0.6022691130638123, 0.4006240665912628, 0.17448459565639496, -0.0075889159925282, 0.276956707239151, 0.2886378765106201, 0.19562822580337524, 0.1952754259109497, -0.43498411774635315, 0.08185503631830215, 0.2636226713657379, 0.6554570198059082, -0.18028904497623444, -0.14876189827919006, 0.4416797459125519, 0.18028435111045837, 0.09617249667644501, 0.25515711307525635, -0.17326951026916504, 0.07457369565963745, 0.3438797891139984, 0.0003952887491323054, 0.49901729822158813, 0.29636067152023315, -0.2786158621311188], [-0.15747815370559692, -0.0928724855184555, 0.1190214604139328, -0.18794146180152893, -0.43681713938713074, 0.41460803151130676, -0.3080683946609497, -0.6366386413574219, -0.03257094696164131, 0.21159829199314117, -0.6799076199531555, -0.13953331112861633, -0.8385141491889954, -0.15228070318698883, -0.006741942372173071, 0.047166500240564346, -0.10260093212127686, -0.08486709743738174, 0.23315884172916412, 0.11072245985269547, 0.45666033029556274, -0.014001717790961266, -0.3304519057273865, -0.20507721602916718, 0.010288928635418415, -0.09565276652574539, -0.010551149025559425, -0.19169984757900238, -0.06999865174293518, -0.2769398093223572, -0.03759525343775749, 0.4099602699279785], [-0.269544392824173, -0.03391106054186821, 0.2872215807437897, 0.31918367743492126, 0.554019033908844, -0.26361772418022156, 0.05403469130396843, -0.33427101373672485, -0.3926912546157837, 0.0743379071354866, -0.09168172627687454, -0.09738413244485855, -0.23335759341716766, -0.43424755334854126, 0.026571601629257202, 0.17294475436210632, -0.47465652227401733, -0.2583913505077362, 0.48844483494758606, 0.3815317451953888, 0.3812849223613739, -0.2745065987110138, 0.132279172539711, -0.23103094100952148, 0.18376949429512024, -0.21412168443202972, -0.10017941892147064, 0.17576710879802704, -0.033439379185438156, -0.1249258816242218, 0.2009117156267166, -0.38615021109580994], [-0.3261404037475586, 0.4594486951828003, 0.34069064259529114, 0.09174583107233047, 0.14976739883422852, -0.22114215791225433, 0.22752445936203003, 0.3180335462093353, 0.19501706957817078, 0.20343373715877533, 0.1125604435801506, 0.5111011266708374, -0.01363744679838419, -0.17115186154842377, -0.2969123423099518, 0.31954509019851685, 0.24595461785793304, 0.10450571775436401, 0.13256490230560303, 0.21099752187728882, -0.04310339689254761, -0.1388719230890274, -0.1941993087530136, 0.17847995460033417, -0.26118701696395874, 0.324564665555954, 0.32740527391433716, -0.03519108146429062, 0.6887562870979309, 0.5790411829948425, 0.18301719427108765, -0.3258717358112335], [-0.17096690833568573, -0.5021770596504211, 0.11222348362207413, 0.3323172926902771, 0.06176535040140152, -0.32899239659309387, -0.4817391335964203, 0.0866413414478302, -0.10700541734695435, -0.16183456778526306, 0.2331542670726776, -0.13059478998184204, -0.05792563036084175, -0.09367401897907257, 0.22844809293746948, -0.13112176954746246, 0.3742511570453644, 0.07126053422689438, 0.3827311098575592, -0.5300116539001465, -0.08023148775100708, 0.3212781846523285, -0.10399608314037323, -0.31202325224876404, -0.02109437994658947, 0.02591768465936184, 0.12486379593610764, 0.4021085202693939, -0.20990480482578278, 0.03653554618358612, 0.011659800074994564, -0.024323252961039543], [0.649387776851654, 0.28091755509376526, 0.23190496861934662, -0.04954775422811508, -0.09165574610233307, -0.03638679161667824, 0.3325725197792053, 0.24647566676139832, -0.4868246912956238, 0.34268033504486084, -0.099582739174366, 0.25955846905708313, -0.21652860939502716, 0.2953454554080963, 0.14924636483192444, -0.19936028122901917, 0.05344623327255249, -0.3988581597805023, 0.4599207937717438, -0.20447617769241333, -0.08184057474136353, -0.22739574313163757, -0.3377437889575958, -0.04666685685515404, 0.4899500608444214, 0.045771483331918716, 0.22993522882461548, 0.6401887536048889, -0.12083893269300461, -0.20470300316810608, 0.20796261727809906, -0.030483856797218323], [-0.047413311898708344, -0.27268528938293457, 0.0013976976042613387, 0.05511895567178726, 0.23213115334510803, 0.1500900834798813, 0.04805383458733559, 0.37935277819633484, 0.13828395307064056, -0.004408988635987043, 0.038864683359861374, 0.020630959421396255, -0.10620994120836258, 0.5495822429656982, -0.3072977364063263, -0.369228720664978, 0.14121419191360474, -0.24762561917304993, 0.03118487447500229, -0.5715861916542053, 0.6119400858879089, -0.07320090383291245, -0.37625032663345337, -0.4607979655265808, -0.16495487093925476, -0.4814453721046448, -0.26005762815475464, 0.08217441290616989, -0.023013092577457428, 0.3039858639240265, -0.20593038201332092, 0.1268235594034195], [-0.2974194288253784, -0.43850600719451904, 0.025345753878355026, 0.1587543785572052, 0.12691839039325714, -0.5443381071090698, -0.01780521310865879, -0.3026101589202881, -0.7620349526405334, 0.4165366291999817, -0.30945709347724915, -0.2932262420654297, -0.0035036613699048758, 0.18724751472473145, -0.10391973704099655, -0.09823783487081528, -0.32436999678611755, 0.49394381046295166, -0.006246572360396385, 0.011710976250469685, 0.2995668649673462, -0.32204189896583557, 0.0564880333840847, -0.11960012465715408, 0.18612925708293915, 0.30459702014923096, -0.016209708526730537, -0.1270495057106018, 0.11529163271188736, 0.19572019577026367, -0.20866656303405762, 0.28209254145622253], [0.07819117605686188, 0.08901424705982208, 0.5123691558837891, 0.2769745886325836, 0.2553843557834625, 0.15435099601745605, -0.027683185413479805, 0.3531656861305237, 0.39009326696395874, 0.3334164321422577, -0.4208655059337616, -0.15607483685016632, 0.4987143278121948, 0.0036438507959246635, -0.12874838709831238, 0.1334594488143921, 0.2506698668003082, 0.0865965187549591, -0.10802362114191055, -0.21965815126895905, 0.15292349457740784, 0.0123194744810462, 0.034437574446201324, -0.2048693746328354, 0.0282514039427042, 0.43048426508903503, -0.21750937402248383, -0.04571233689785004, 0.35609355568885803, -0.0038267415948212147, 0.2534741163253784, 0.054901037365198135], [-0.23540590703487396, 0.47638508677482605, -0.039827313274145126, 0.36268624663352966, 0.0871821716427803, -0.2529319226741791, 0.16576187312602997, 0.09317003190517426, 0.5483049154281616, 0.041920315474271774, 0.6890370845794678, -0.061368443071842194, -0.0010345327900722623, -0.10640112310647964, -0.051494814455509186, -0.19210518896579742, -0.6148377656936646, -0.12214828282594681, -0.0656895712018013, -0.16520516574382782, -0.015941085293889046, -0.16740867495536804, -0.00757078779861331, 0.4513075053691864, 0.3599127233028412, -0.26173916459083557, -0.2542407214641571, -0.0972423180937767, -0.07638489454984665, 0.23445548117160797, -0.3220873773097992, -0.006831204053014517], [-0.10282514244318008, 0.25818783044815063, 0.6178241968154907, -0.21323713660240173, -0.24850408732891083, -0.48305368423461914, 0.010285856202244759, 0.20493744313716888, 0.39646753668785095, -0.28578898310661316, -0.09978211671113968, 0.2421039640903473, -0.10361172258853912, 0.2160205990076065, 0.0682673454284668, -0.29721835255622864, 0.3974229097366333, 0.08820535242557526, 0.6586822271347046, 0.5824296474456787, 0.11251101642847061, -0.3011445105075836, 0.026330381631851196, -0.09315755218267441, -0.028652973473072052, -0.09534312039613724, -0.008544882759451866, 0.43983614444732666, 0.04677166789770126, 0.24820365011692047, 0.04433297738432884, 0.3015902638435364], [0.3877200782299042, -0.014306801371276379, 0.44482895731925964, -0.0682346448302269, 0.17144621908664703, -0.027799470350146294, 0.20660077035427094, 0.33597704768180847, 0.439746230840683, 0.13773111999034882, 0.004047175869345665, -0.3063039779663086, 0.15048335492610931, 0.3033803701400757, -0.23532502353191376, 0.19692331552505493, -0.21027755737304688, -0.10689597576856613, 0.2531653046607971, -0.14215421676635742, 0.23756143450737, -0.012777004390954971, -0.037615563720464706, 0.3570089042186737, -0.05494709685444832, 0.26472464203834534, -0.4093325436115265, 0.2126069962978363, 0.03558467701077461, 0.05322939157485962, 0.06221062317490578, 0.13936105370521545], [0.17560692131519318, 0.13629767298698425, -0.5141900181770325, -0.20916306972503662, -0.43734079599380493, -0.3043440282344818, -0.029238883405923843, -0.3806287348270416, -0.4764695465564728, -0.14919720590114594, -0.3052951991558075, 0.06587696820497513, 0.08818686008453369, 0.2690671682357788, -0.07871299237012863, -0.5338892936706543, 0.23428836464881897, -0.005916613154113293, -0.31540048122406006, 0.21738038957118988, -0.06323042511940002, -0.30061274766921997, -0.30290815234184265, -0.12280279397964478, -0.35446131229400635, 0.07441811263561249, -0.10512128472328186, 0.03372560814023018, 0.3109551668167114, -0.5844466090202332, -0.3906804025173187, -0.6281117796897888], [-0.21293051540851593, -0.19353832304477692, 0.19677534699440002, 0.21190811693668365, -0.09912879765033722, -0.258342444896698, -0.0024112791288644075, -0.16324852406978607, -0.539129912853241, -0.38191792368888855, -0.035898201167583466, -0.20016951858997345, 0.2993599474430084, -0.3696598708629608, 0.16034258902072906, -0.041904937475919724, -0.2203095555305481, 0.1338508129119873, -0.2700707018375397, -0.05395062640309334, -0.1379278004169464, 0.2641570270061493, -0.22062727808952332, 0.22537191212177277, 0.11703895777463913, -0.36847344040870667, 0.30990877747535706, -0.12422271072864532, 0.6524151563644409, -0.3146514892578125, 0.09443134069442749, -0.0745483860373497], [0.04324421286582947, 0.1765526831150055, -0.2141752690076828, 0.3815653324127197, -0.28636375069618225, 0.013734168373048306, -0.051530539989471436, 0.39451920986175537, 0.21722003817558289, 0.19886595010757446, 0.42269274592399597, -0.18473279476165771, 0.17902517318725586, 0.10152620077133179, -0.10619913041591644, -0.0922948569059372, -0.14086869359016418, 0.20885352790355682, 0.07739938050508499, 0.11539480835199356, 0.03631420433521271, -0.15568983554840088, -0.11237926036119461, -0.2256830632686615, -0.09495224803686142, -0.18367674946784973, -0.3212326765060425, 0.13370980322360992, 0.021846896037459373, 0.022429021075367928, -0.11113160848617554, -0.3322598338127136], [-0.3892116844654083, 0.1384091079235077, 0.1585797518491745, 0.12177472561597824, 0.15229742228984833, 0.004349028691649437, -0.19237305223941803, 0.9472602009773254, 0.826976478099823, -0.04731038957834244, -0.10080007463693619, -0.13456839323043823, -0.11935527622699738, -0.1475818157196045, -0.0549132339656353, -0.43215152621269226, -0.3859935402870178, -0.14027002453804016, 0.5424625873565674, 0.38244709372520447, 0.10941261053085327, -0.06085140258073807, 0.13780303299427032, -0.020899830386042595, 0.5368412137031555, 0.03636425733566284, -0.26101797819137573, 0.44929206371307373, -0.04563312232494354, 0.46331915259361267, -0.2715988755226135, 0.33236363530158997], [-0.25908851623535156, 0.33555614948272705, 0.25539183616638184, 0.06278897076845169, 0.4953141212463379, 0.3744696378707886, -0.23057469725608826, 0.0916406512260437, 0.15752768516540527, 0.5154581665992737, -0.10343004763126373, -0.20328988134860992, -0.2613443434238434, 0.607062816619873, -0.2174309641122818, -0.15533968806266785, 0.2772372364997864, -0.11590544879436493, -0.08739963173866272, 0.21523801982402802, 0.772800087928772, -0.019515451043844223, 0.2507740557193756, 0.2270878702402115, -0.09998535364866257, 0.31474167108535767, 0.23466649651527405, 0.025460219010710716, 0.3506923317909241, 0.18572917580604553, 0.03409244120121002, -0.06218959391117096], [-0.21627800166606903, 0.23488354682922363, 0.17964468896389008, -0.31409236788749695, 0.018544023856520653, -0.5197163820266724, 0.4058021008968353, -0.14880751073360443, 0.17631429433822632, 0.253162682056427, -0.1579875499010086, -0.04962749406695366, 0.3365652561187744, -0.1322680115699768, -0.02054606005549431, -0.06267353147268295, 0.12476573139429092, -0.43852001428604126, 0.2929471731185913, -0.09430313855409622, 0.23117326200008392, -0.1898340880870819, 0.028061436489224434, -0.13959857821464539, -0.03440243750810623, 0.11430945992469788, 0.3570728898048401, 0.3861589729785919, 0.15887124836444855, 0.25431594252586365, 0.4140556752681732, 0.19193708896636963], [-0.12578383088111877, 0.09727020561695099, -0.2171538770198822, -0.3428165018558502, -0.5755283832550049, -0.21232515573501587, 0.02121351659297943, -0.09647353738546371, 0.08089069277048111, 0.09171600639820099, -0.14813868701457977, 0.010979446582496166, -0.11912260949611664, 0.15148693323135376, 0.20504572987556458, 0.15344583988189697, -0.29282426834106445, 0.16333165764808655, -0.3178039491176605, -0.037520118057727814, -0.28387561440467834, 0.19591738283634186, -0.024953925982117653, -0.23137980699539185, -0.4300898313522339, -0.5624715089797974, -0.29254400730133057, -0.5594214200973511, 0.10139903426170349, -0.1428828239440918, -0.011834808625280857, 0.04570481553673744], [0.02463430166244507, 0.0791974812746048, -0.12862062454223633, -0.6085344552993774, 0.1707688421010971, 0.31507638096809387, -0.01820932701230049, 0.18949709832668304, 0.4148121476173401, 0.5921958088874817, 0.0034104713704437017, -0.2201240211725235, 0.08943651616573334, -0.21615199744701385, 0.03935166448354721, -0.32117944955825806, -0.12207988649606705, -0.013241753913462162, 0.5315383076667786, -0.025126367807388306, 0.33772313594818115, -0.1431710571050644, -0.5383449196815491, 0.009525243192911148, -0.1906781643629074, 0.3334046006202698, -0.007357071153819561, 0.16731682419776917, -0.21733717620372772, 0.015397981740534306, 0.42951133847236633, 0.3130033016204834], [-0.07183413952589035, -0.2418479472398758, 0.33272165060043335, -0.12333715707063675, 0.3798496723175049, -0.6671642661094666, 0.17387011647224426, -0.17959095537662506, -0.14107325673103333, -0.013086581602692604, -0.4098123013973236, 0.13167455792427063, 0.32272112369537354, 0.36539027094841003, -0.25289249420166016, -0.2458048313856125, -0.12468044459819794, 0.30276554822921753, 0.37313637137413025, 0.45882225036621094, 0.43968430161476135, -0.1547248363494873, 0.102217897772789, -0.2807620167732239, 0.21080556511878967, 0.07993324846029282, -0.13632015883922577, 0.6863663792610168, -0.4589841663837433, 0.30429401993751526, -0.6416103839874268, -0.20614518225193024], [-0.05024066939949989, -0.21278317272663116, -0.21207596361637115, -0.3960934579372406, -0.1331821084022522, -0.2584986686706543, 0.31974902749061584, -0.18990333378314972, -0.5639584064483643, 0.2902643084526062, -0.09572029113769531, 0.03761047497391701, 0.1326981782913208, -0.2874724864959717, -0.264198899269104, -0.47287020087242126, -0.3061908781528473, -0.27035805583000183, -0.10267626494169235, 0.23555628955364227, 0.8894022107124329, 0.07268227636814117, 0.07646932452917099, -0.39956262707710266, -0.15317314863204956, -0.3034123182296753, 0.44212639331817627, 0.5540904402732849, 0.04275217652320862, 0.5160031318664551, -0.3654308021068573, 0.3742087185382843], [-0.07849963009357452, 0.33290353417396545, 0.17227794229984283, 0.0070037199184298515, -0.12795279920101166, -0.2713008522987366, 0.35214078426361084, -0.388988733291626, -0.08101828396320343, -0.2560287117958069, -0.05075106769800186, -0.3921632766723633, -0.6445441842079163, -0.03233284875750542, -0.24649865925312042, -0.6307321786880493, -0.1677522361278534, 0.03728284314274788, 0.6835383176803589, 0.06128246709704399, 0.2761085033416748, -0.3136132061481476, -0.22418741881847382, -0.020812800154089928, 0.5141987800598145, -0.027593469247221947, 0.012226139195263386, 0.26077887415885925, -0.35952305793762207, 0.3811594843864441, -0.3875749409198761, -0.2638079524040222], [0.02802347205579281, 0.018168143928050995, 0.16031843423843384, -0.761208713054657, 0.05220702663064003, 0.09182445704936981, 0.040625397115945816, -0.5284411907196045, 0.004316290840506554, -0.5007705688476562, -0.40248358249664307, 0.03704650327563286, 0.1979714334011078, -0.20731204748153687, -0.40792518854141235, 0.2360888421535492, -0.017544293776154518, -0.03955667093396187, 0.4668765664100647, -0.25959405303001404, 0.5275045037269592, -0.3260214030742645, -0.3962177038192749, 0.16799108684062958, -0.4187435507774353, -0.299647718667984, -0.004147180821746588, 0.8665191531181335, -0.1585504412651062, -0.2460237294435501, -0.39932775497436523, 0.3860192596912384]], "lstm.weight_hh_l0": [[-0.12615874409675598, -0.08479626476764679, -0.15808109939098358, 0.09239756315946579, -0.12663495540618896, -0.022173194214701653, -0.08591559529304504, 0.08870448172092438, 0.11230164021253586, 0.13611502945423126, 0.23048408329486847, -0.053236257284879684, 0.177920401096344, -0.14028863608837128, 0.039186060428619385, -0.12442074716091156, 0.2600802183151245, 0.1882556825876236, -0.1961086392402649, 0.1948862075805664, 0.0433560274541378, -0.28570178151130676, 0.016666753217577934, 0.34652748703956604, -0.07882901281118393, -0.1784074455499649, -0.011612380854785442, 0.060276180505752563, -0.10007788240909576, -0.23615676164627075, 0.01582350954413414, 0.1827237457036972], [-0.05217709764838219, 0.01008659414947033, -0.1340653896331787, 0.16167113184928894, -0.1606447994709015, 0.0022847370710223913, -0.12812387943267822, -0.06070193275809288, 0.05930855870246887, -0.13164013624191284, -0.051871031522750854, -0.03876221552491188, -0.0613868273794651, -0.19286027550697327, -0.23511487245559692, -0.11676063388586044, -0.009530667215585709, -0.022696977481245995, -0.05873419716954231, 0.09372325986623764, 0.0762619748711586, -0.05817825347185135, 0.039271723479032516, -0.02827518619596958, -0.07501271367073059, -0.1442813128232956, -0.05747527256608009, -0.03408648073673248, 0.11663501709699631, 0.02780727855861187, 0.03057132102549076, -0.03695034980773926], [0.198848694562912, 0.08168113976716995, 0.1567997932434082, -0.27538353204727173, -0.052096594125032425, -0.10546354204416275, 0.15614794194698334, -0.11574085056781769, -0.12696179747581482, 0.15403126180171967, 0.01827601157128811, -0.5375829339027405, -0.06328191608190536, 0.23033447563648224, 0.04469837248325348, -0.10148858278989792, -0.18451085686683655, -0.1697683334350586, 0.2753986418247223, 0.0025607729330658913, 0.013194769620895386, 0.049038536846637726, 0.0902959480881691, -0.10649504512548447, 0.14365652203559875, 0.003556113224476576, -0.35725101828575134, -0.2163696438074112, 0.003777598962187767, 0.03712157905101776, -0.040585488080978394, 0.10491961240768433], [0.02183612994849682, 0.04281710833311081, 0.04788554087281227, -0.0275263674557209, 0.039573319256305695, 0.05783581733703613, -0.13276779651641846, 0.2658765912055969, 0.09942679852247238, 0.2191491723060608, 0.11453067511320114, -0.07606571912765503, 0.047578226774930954, -0.15063178539276123, -0.08462035655975342, -0.12346338480710983, 0.041768770664930344, 0.054549574851989746, -0.050422944128513336, 0.007243772502988577, 0.05171230435371399, -0.09316760301589966, 0.05215587839484215, 0.06365818530321121, -0.13954074680805206, -0.05111360549926758, 0.05402972921729088, 0.0585874505341053, -0.2306215614080429, -0.05404343828558922, -0.026639509946107864, 0.18187257647514343], [0.09092407673597336, 0.07185310125350952, 0.0027345651760697365, 0.009049165062606335, 0.2196251004934311, -0.009885708801448345, 0.05021324381232262, -0.036298640072345734, 0.07569948583841324, 0.025092609226703644, 0.04120786860585213, -0.305486798286438, 0.02591848559677601, 0.07196342945098877, -0.14903007447719574, 0.025947758927941322, -0.2142203152179718, -0.21502362191677094, -0.17846882343292236, 0.04669104516506195, 0.024341894313693047, 0.11811145395040512, 0.11247792094945908, -0.03318643942475319, -0.03617953136563301, 0.05879564955830574, -0.18617086112499237, -0.02067556604743004, -0.2314540296792984, -0.06583428382873535, 0.034322481602430344, 0.08805586397647858], [0.011455545201897621, 0.22819918394088745, -0.03252941742539406, 0.0378519743680954, -0.1444810926914215, 0.20789559185504913, -0.06826437264680862, 0.09550152719020844, -0.06480814516544342, -0.10938691347837448, 0.002839733147993684, 0.12744729220867157, 0.09979309886693954, -0.02550104819238186, -0.02437039278447628, 0.06666609644889832, 0.19352056086063385, -0.09890101104974747, 0.060202937573194504, 0.07036814838647842, -0.23849201202392578, 0.129720538854599, 0.07266119867563248, -0.14119133353233337, -0.018940305337309837, -0.08879600465297699, 0.03759152069687843, -0.1355430632829666, -0.07696186006069183, 0.02133910171687603, 0.09542261809110641, -0.10151240229606628], [0.07810912281274796, 0.007967865094542503, 0.026633422821760178, 0.05303139612078667, -0.0733073502779007, -0.057130660861730576, -0.09430491179227829, 0.02489020675420761, 0.0015906033804640174, 0.2417675107717514, -0.0129924938082695, -0.11033531278371811, 0.04232712835073471, -0.18010357022285461, 0.11392299085855484, -0.07991350442171097, 0.08186035603284836, 0.02858825959265232, -0.11602146923542023, 0.021484743803739548, 0.017568320035934448, 0.03863581269979477, -0.061760008335113525, 0.0370328351855278, -0.1602928787469864, 0.020543120801448822, 0.13454721868038177, -0.10004906356334686, -0.08536417782306671, 0.09730701148509979, 0.15419793128967285, 0.12082016468048096], [-0.13389833271503448, -0.08274319022893906, 0.047741953283548355, 0.012345995754003525, -0.12532994151115417, 0.151484876871109, 0.22202637791633606, 0.012359189800918102, -0.14991724491119385, 0.18030954897403717, 0.03846834972500801, 0.02553337626159191, 0.10493295639753342, -0.009080086834728718, -0.00406724214553833, -0.027663294225931168, -0.08061295747756958, 0.06730426847934723, 0.07227773219347, 0.030650867149233818, 0.09612607955932617, -0.017744041979312897, 0.07929160445928574, 0.00010402414773125201, -0.24659979343414307, -0.03044135868549347, 0.10877886414527893, -0.11272822320461273, -0.14736783504486084, -0.024653755128383636, -0.21502020955085754, 0.06426386535167694], [-0.30320265889167786, -0.1581471860408783, -0.18415965139865875, 0.21577419340610504, 0.03943837061524391, -0.0007589275483042002, -0.15997177362442017, 0.15845026075839996, 0.016919471323490143, 0.15229134261608124, -0.05753175541758537, 0.17086158692836761, -0.09923174232244492, -0.07272516191005707, 0.18683400750160217, -0.062029801309108734, 0.11328967660665512, 0.1871502548456192, -0.1560499519109726, 0.1164865717291832, 0.08364800363779068, -0.2500898838043213, -0.10688059031963348, 0.19871316850185394, -0.1449982076883316, -0.03675684705376625, -0.07768439501523972, 0.09536156803369522, -0.10504722595214844, 0.05148443952202797, -0.055201832205057144, 0.010460855439305305], [0.02967701479792595, -0.06214839965105057, 0.14383727312088013, 0.04022039473056793, 0.194759801030159, -0.1927897036075592, 0.2149852216243744, -0.14582037925720215, -0.11665300279855728, -0.02602430246770382, -0.14617520570755005, -0.1861744523048401, 0.02206541784107685, 0.10157452523708344, -0.015210463665425777, -0.17816300690174103, -0.15158548951148987, 0.09232578426599503, 0.24058015644550323, -0.008564242161810398, 0.08956211805343628, -0.014743414707481861, 0.03793393820524216, -0.11310382187366486, 0.258467435836792, -0.03866156190633774, 0.14231735467910767, -0.296267569065094, 0.09440942108631134, 0.08798956871032715, -0.06636377424001694, -0.1307520717382431], [-0.08639252930879593, 0.21730056405067444, -0.15922825038433075, 0.06993132829666138, 0.014780149795114994, -0.20820531249046326, -0.12331274151802063, 0.05145157128572464, 0.11461126804351807, -0.07730835676193237, -0.03102917969226837, 0.0265372171998024, 0.13708241283893585, -0.12110703438520432, -0.03361436724662781, 0.14418204128742218, 0.03847422078251839, -0.1074739322066307, -0.168714240193367, 0.07431533187627792, -0.09114609658718109, 0.053376343101263046, -0.22394615411758423, 0.030035145580768585, -0.01929640956223011, 0.02088990807533264, -0.08841734379529953, 0.11601077020168304, 0.042209696024656296, -0.07887711375951767, 0.16711804270744324, -0.14257295429706573], [-0.09186612814664841, 0.191044420003891, -0.013980044052004814, -0.1490054726600647, -0.14435169100761414, 0.09646240621805191, 0.02316928282380104, 0.0021508352365344763, -0.07585377991199493, 0.09647911041975021, 0.015008561313152313, -0.32223060727119446, -0.08261868357658386, -0.1757064014673233, 0.116518035531044, -0.08224911987781525, -0.024039553478360176, -0.08945357799530029, 0.19875168800354004, 0.07082187384366989, 0.21466496586799622, -0.024680741131305695, 0.03937928378582001, -0.047328244894742966, -0.11556626856327057, -0.010537897236645222, -0.1861722320318222, -0.036095306277275085, -0.08909972012042999, 0.03242873400449753, 0.12598638236522675, -0.02237013168632984], [-0.08930527418851852, 0.12133876979351044, -0.12205038964748383, -0.01167340949177742, -0.04564669355750084, 0.018820995464920998, -0.1531602144241333, -0.04689200222492218, -0.015084661543369293, 0.02370484173297882, -0.24586458504199982, -0.07341940701007843, -0.25622832775115967, 0.04780665412545204, -0.154279887676239, 0.02250630408525467, 0.06795410066843033, -0.199074849486351, 0.060881953686475754, -0.1011081114411354, 0.053449466824531555, 0.050207462161779404, 0.09350042790174484, -0.12245739996433258, -0.02526564709842205, 0.07136347144842148, -0.04335642233490944, -0.07333576679229736, 0.09972742944955826, -0.09045656770467758, -0.07037965208292007, 0.00045844033593311906], [-0.07739893347024918, 0.07522011548280716, -0.20927903056144714, -0.09046036005020142, 0.26700690388679504, -0.20756183564662933, 0.29657214879989624, -0.008353456854820251, -0.23756243288516998, -0.12836214900016785, -0.14979377388954163, -0.651238739490509, 0.03484523668885231, 0.15183773636817932, -0.07757466286420822, -0.1547287553548813, 0.03426358848810196, -0.1814146637916565, 0.09190932661294937, -0.1879311203956604, 0.03929281607270241, 0.11221878230571747, -0.026633230969309807, 0.01044399756938219, 0.0517021007835865, 0.031626950949430466, -0.08466878533363342, -0.26930558681488037, 0.23263904452323914, 0.11537758260965347, -0.008436255156993866, 0.059678446501493454], [0.03910442441701889, 0.08464164286851883, -0.13928456604480743, -0.0342886857688427, 0.13865141570568085, -0.04862538352608681, -0.19648754596710205, 0.0913393646478653, 0.0019260392291471362, 0.1459473967552185, 0.16079826653003693, 0.025755029171705246, -0.1980794221162796, -0.08634111285209656, 0.010660710744559765, -0.1383432298898697, 0.07423114776611328, 0.03562891110777855, -0.04682374745607376, -0.0211117435246706, 0.12793919444084167, -0.08973119407892227, 0.13895092904567719, 0.1418696641921997, -0.05436987057328224, 0.026739096269011497, -0.35762888193130493, -0.0063485028222203255, -0.03585177659988403, -0.08546227216720581, 0.1262666881084442, 0.046494871377944946], [0.042371559888124466, -0.015735261142253876, -0.0025261789560317993, -0.16996242105960846, -0.09197179228067398, 0.019841384142637253, 0.11377305537462234, -0.06614401191473007, -0.011678413487970829, -0.09413067996501923, 0.10403986275196075, -0.1445155143737793, 0.015682920813560486, 0.018928760662674904, 0.08193279802799225, -0.15183116495609283, -0.026066353544592857, -0.09270801395177841, 0.04336465522646904, -0.17517992854118347, 0.050555530935525894, 0.1468563675880432, 0.022660620510578156, -0.012444010004401207, 0.02312142588198185, 0.06776965409517288, 0.0782647505402565, -0.1800347864627838, -0.09516409784555435, -0.19900894165039062, -0.15960223972797394, 0.03905801102519035], [-0.1343265175819397, 0.022767283022403717, -0.04917416349053383, -0.15309764444828033, 0.08889240771532059, -0.03374188393354416, 0.2130713313817978, -0.14351661503314972, -0.06126437336206436, -0.011584930121898651, -0.011958833783864975, -0.17303115129470825, -0.0005904487334191799, 