{"linear_1.weight": [[0.41396328806877136], [0.6243510842323303], [-0.23427248001098633], [0.691591203212738], [-0.03237740695476532], [-0.14330017566680908], [-0.18876612186431885], [0.7516208291053772], [0.8199484944343567], [-0.7936019897460938], [0.762177050113678], [-0.19830602407455444], [0.3319269120693207], [0.13543057441711426], [-0.0027569776866585016], [-0.09407772123813629], [0.5973490476608276], [0.14780890941619873], [-0.46683990955352783], [0.41600462794303894], [-0.46073663234710693], [-0.24667862057685852], [-0.04334641993045807], [0.2997763752937317], [-0.5609994530677795], [-0.5258910655975342], [-0.3530315160751343], [-0.601272463798523], [0.006910755764693022], [-1.2075841426849365], [0.16499045491218567], [-0.9847013354301453]], "linear_1.bias": [0.3225557804107666, -0.43777909874916077, -0.32470452785491943, 0.5203632116317749, -0.03797990083694458, 0.5089483857154846, -0.19435648620128632, -0.5233877301216125, -0.18726636469364166, -0.2786756753921509, 0.30900025367736816, 0.3383418023586273, -0.19320350885391235, -0.437172532081604, -0.012998552992939949, 0.3363910913467407, 0.45967763662338257, -0.6095050573348999, -0.9899084568023682, -0.6103684306144714, -0.7670228481292725, 0.7902507781982422, -0.0655723437666893, 0.2521362006664276, -0.00014686037320643663, -0.07881021499633789, 0.8735995292663574, -0.7105135917663574, -0.15602293610572815, -0.5650916695594788, -0.5091742873191833, -0.3142325282096863], "lstm.weight_ih_l0": [[-0.050349023193120956, 0.03186154365539551, -0.2396354079246521, 0.3506520390510559, 0.025456275790929794, -0.37157976627349854, -0.3104972243309021, 0.5241988897323608, -0.16254809498786926, 0.2108248472213745, 0.1262352615594864, 0.005192682147026062, 0.02254747599363327, -0.2286173403263092, -0.6407173871994019, -0.4828067719936371, 0.06962266564369202, 0.025041794404387474, -0.1456422656774521, 0.6320209503173828, -0.12264718860387802, -0.23513346910476685, -0.10116555541753769, 0.26402339339256287, -0.2028234302997589, -0.3737916946411133, -0.5631836652755737, -0.12421517074108124, -0.14659811556339264, 0.4850514233112335, 0.40155816078186035, 0.2720668613910675], [0.14486874639987946, -0.23132768273353577, -0.19155508279800415, -0.42119261622428894, 0.12431208789348602, 0.32779625058174133, 0.1564895361661911, 0.34674766659736633, 0.17480504512786865, 0.30827176570892334, -0.5802479386329651, -0.2950238883495331, -0.020743053406476974, -0.17186829447746277, 0.47605741024017334, -0.17623001337051392, 0.04502091929316521, -0.14541538059711456, -0.2095337212085724, 0.2703944146633148, 0.5780244469642639, -0.07022537291049957, 0.059916239231824875, 0.5615788102149963, 0.1348700225353241, 0.09912122040987015, -0.35339653491973877, -0.19050362706184387, -0.12028910964727402, -0.005597437731921673, 0.32438188791275024, -0.05668996274471283], [-0.3747454583644867, -0.03390784561634064, 0.27430596947669983, 0.2767980992794037, -0.2641546428203583, -0.2646440863609314, -0.33025458455085754, 0.5928467512130737, -0.0012428868794813752, 0.12173809111118317, 0.5878341197967529, 0.0813741460442543, -0.10018341988325119, 0.3426893949508667, -0.05735122412443161, -0.2712525427341461, -0.07259410619735718, 0.4325111210346222, 0.07957752794027328, 0.08537723869085312, 0.037192706018686295, 0.46691036224365234, -0.008793270215392113, -0.014931448735296726, 0.41988226771354675, -0.05450458079576492, -0.6124922037124634, -0.3681429326534271, -0.049421221017837524, 0.3900376856327057, 0.06245345249772072, -0.02676081843674183], [0.2993600368499756, 0.33009034395217896, -0.019047759473323822, -0.000684946367982775, 0.1294960379600525, -0.3467555344104767, -0.3607718050479889, 0.5025527477264404, 0.16918432712554932, 0.008089677430689335, 0.3080727458000183, 0.636385440826416, 0.07922589033842087, 0.2929641604423523, -0.07723139971494675, -0.16048726439476013, 0.35883820056915283, 0.007591139990836382, 0.3300224542617798, 0.49362418055534363, 0.1668674200773239, -0.09908990561962128, -0.24218039214611053, -0.16290700435638428, -0.10546749085187912, 0.08639668673276901, -0.6839101314544678, 0.15021435916423798, -0.22968006134033203, 0.7579780220985413, -0.06034768745303154, 0.5020316243171692], [-0.17412342131137848, -0.001964863622561097, 0.4214678406715393, -0.2019658386707306, 0.09922849386930466, -0.3389313519001007, 0.04609399288892746, 0.022084597498178482, -0.058176301419734955, -0.07730520516633987, 0.15363292396068573, -0.26729094982147217, 0.09495199471712112, -0.4067537188529968, -0.22399698197841644, -0.2537519037723541, -0.23002669215202332, -0.061159636825323105, -0.03779669851064682, 0.17510166764259338, 0.2506770193576813, -0.44377121329307556, -0.1791292279958725, 0.09951386600732803, -0.8096200823783875, -0.29853540658950806, -0.036111414432525635, -0.1653710901737213, 0.19711056351661682, 0.6180123686790466, -0.13117899000644684, 0.2742272615432739], [0.49689021706581116, 0.21597345173358917, 0.3644362688064575, -0.1550808548927307, 0.06489720940589905, -0.12987211346626282, -0.0653761699795723, 0.7055072784423828, -0.12578459084033966, 0.2298058420419693, -0.3377588391304016, 0.008553048595786095, -0.005154987331479788, -0.6439707279205322, 0.15378713607788086, -0.07354484498500824, -0.017554432153701782, -0.44537514448165894, -0.3730004131793976, 1.0325496196746826, -0.2619079649448395, -0.1967683881521225, 0.03427369147539139, 0.12634043395519257, -0.24084101617336273, 0.1343001276254654, -0.46377891302108765, -0.01606767438352108, 0.239500492811203, 0.539912223815918, -0.13654173910617828, 0.003973428159952164], [-0.24950964748859406, 0.39629414677619934, 0.23033683001995087, -0.11236360669136047, 0.19617515802383423, -0.2622370719909668, 0.190678209066391, 0.3075394332408905, 0.44646546244621277, 0.5579614639282227, 0.31417563557624817, -0.237578883767128, 0.009297150187194347, 0.16854225099086761, 0.08911171555519104, 0.01236292626708746, 0.028545038774609566, 0.035539209842681885, 0.5119598507881165, 0.6887474060058594, -0.4619351029396057, -0.3233778774738312, 0.07752832770347595, 0.04682410880923271, 0.23821404576301575, 0.11104298382997513, -0.13980233669281006, -0.39078083634376526, 0.2535111904144287, 0.7689058184623718, 0.1313474476337433, 0.963115930557251], [0.25850313901901245, 0.4363085925579071, -0.30954399704933167, -0.2770511209964752, -0.23698711395263672, -0.13082462549209595, 0.3242316246032715, 0.7624709010124207, 0.5666184425354004, -0.1883731633424759, -0.04775853455066681, -0.39457565546035767, 0.24368330836296082, -0.4022441804409027, 0.12870106101036072, -0.2199462354183197, -0.3104265034198761, 0.42725086212158203, 0.0036865409929305315, 0.7993450164794922, 0.1932460367679596, -0.2981415390968323, -0.027476487681269646, 0.18434813618659973, 0.19411717355251312, 0.06356095522642136, -0.08873650431632996, 0.06483222544193268, 0.29238030314445496, 0.4793689548969269, 0.0055783274583518505, -0.31362825632095337], [0.45019203424453735, 0.5002838373184204, -0.03752311319112778, -0.18480047583580017, -0.3425135910511017, -0.3999932110309601, -0.1187552958726883, 0.4889273941516876, 0.30793508887290955, 0.12439499795436859, 0.05054198205471039, -0.42789867520332336, 0.4133390188217163, 0.4242264926433563, -0.3630730211734772, -0.13283087313175201, 0.13735421001911163, -0.38885992765426636, -0.12653827667236328, 0.8527827858924866, 0.17406509816646576, -0.0853489339351654, -0.4303501546382904, -0.2621936798095703, -0.1229659765958786, 0.15623356401920319, -0.8561627864837646, 0.14617733657360077, -0.25987857580184937, 0.13513650000095367, -0.3595356047153473, 0.1508629471063614], [-0.3740501403808594, -0.15554708242416382, 0.07690652459859848, -0.010325531475245953, -0.12938839197158813, -0.5346487164497375, -0.22520920634269714, 0.08882591128349304, 0.2381795048713684, 0.046699993312358856, -0.10922808945178986, 0.04434002935886383, 0.02592480555176735, 0.028063874691724777, 0.015513896010816097, -0.381969153881073, -0.4497314393520355, -0.08647090196609497, -0.048846285790205, -0.9637633562088013, -0.5130724310874939, -0.22621171176433563, -0.1112755760550499, -0.689130425453186, -0.19107761979103088, -0.146732896566391, -0.07528607547283173, 0.17674903571605682, -0.5375947952270508, 0.02799040637910366, 0.34131568670272827, 0.19960525631904602], [-0.1894044131040573, -0.38655418157577515, 0.4284399151802063, -0.8000335097312927, 0.16277681291103363, -0.0692327618598938, -0.49175336956977844, -0.8824431896209717, -0.30298420786857605, -0.17568375170230865, -0.6755650043487549, -0.3583453297615051, -0.1172230988740921, -0.2010340392589569, -0.36964404582977295, 0.20344337821006775, -0.5853313207626343, 0.39125752449035645, -0.2416190207004547, -0.1891268491744995, 0.3885730803012848, -0.08704675734043121, -0.020528504624962807, -0.40089765191078186, -0.2288782298564911, -0.10043489187955856, -0.39256393909454346, -0.11062406003475189, -0.06402899324893951, 0.5756145119667053, -0.1359109878540039, 0.4431447684764862], [0.19438298046588898, 0.33238017559051514, 0.09887226670980453, 0.2184024602174759, -0.1858312040567398, 0.1895516812801361, 8.512621570844203e-05, 0.05755921080708504, 0.22112122178077698, 0.3886147141456604, 0.12733560800552368, -0.3449123501777649, 0.06741610914468765, 0.13666924834251404, 0.22853927314281464, -0.058229222893714905, -0.10350365191698074, 0.49755701422691345, -0.3115277588367462, 0.42137452960014343, 0.09282969683408737, -0.2688242793083191, 0.29362645745277405, 0.05172881856560707, 0.04768141359090805, 0.3743591904640198, -0.6886671781539917, -0.31709015369415283, -0.21019713580608368, 0.1945892721414566, -0.016436941921710968, 0.6447683572769165], [0.20722895860671997, 0.140656977891922, -0.006972296629101038, -0.1945459544658661, -0.14469268918037415, 0.1519125998020172, -0.29797035455703735, 0.5729148387908936, -0.024050317704677582, 0.21607403457164764, 0.5820053815841675, 0.04904922842979431, -0.05133967474102974, 0.300366073846817, -0.34417304396629333, -0.13223905861377716, 0.09765942394733429, 0.16834208369255066, 0.06066867709159851, 0.6956689953804016, -0.3602084219455719, -0.10556843876838684, 0.022532565519213676, 0.04675443097949028, 0.03460797667503357, -0.006419893354177475, -0.20989155769348145, 0.2625299394130707, -0.17822401225566864, 0.0698256567120552, -0.10120765119791031, 0.36438319087028503], [0.24352851510047913, -0.5752330422401428, -0.21306146681308746, -0.3196297287940979, -0.2215377241373062, 0.00398637680336833, -0.06209456920623779, 0.19116735458374023, 0.08069052547216415, 0.2776637375354767, -0.19275601208209991, -0.10896331816911697, -0.01792248710989952, -0.044379014521837234, -0.33593183755874634, 0.030139368027448654, -0.2784797251224518, -0.042847879230976105, 0.07252728193998337, -0.13055117428302765, 0.11311542242765427, -0.43559157848358154, 0.16684389114379883, 0.07674860209226608, -0.2715837359428406, 0.3242754340171814, 0.14586974680423737, -0.09953241795301437, -0.017456142231822014, 0.5719360113143921, 0.18329402804374695, 0.30722278356552124], [-0.07801014184951782, -0.25313448905944824, 0.06394079327583313, -1.44954252243042, -0.12375421822071075, -0.0638483315706253, 0.2864190638065338, -0.07868386059999466, -1.2754911184310913, 0.23380306363105774, -1.0620779991149902, -0.41629767417907715, -1.2532953023910522, -0.1706254929304123, -0.27415865659713745, 0.13440535962581635, -1.196881890296936, 0.11307138204574585, 0.01940532587468624, 0.22441357374191284, -0.3962465822696686, -0.2154848575592041, -0.19468265771865845, -0.7272518873214722, -0.019998010247945786, -0.21117420494556427, -0.025803610682487488, 0.10448725521564484, 0.013019758276641369, 0.232282355427742, -0.3361554741859436, 0.27847033739089966], [-1.0742404460906982, -0.21111634373664856, -0.024163898080587387, -0.4737148880958557, 0.11843038350343704, 0.16299766302108765, -0.18260252475738525, -0.6283318996429443, -0.6659708023071289, 0.10943000018596649, -0.36586248874664307, -0.40308678150177, -0.431514710187912, -0.20964978635311127, -0.32900211215019226, -0.2508828639984131, -0.360840380191803, 0.30198198556900024, 0.2164488434791565, -0.8692003488540649, -0.051713310182094574, -0.2133837193250656, 0.01824912615120411, -0.29321467876434326, 0.16751407086849213, -0.20229844748973846, -0.2007312923669815, -0.5735041499137878, -0.47764238715171814, 0.5876591205596924, -0.5758025050163269, 0.39737993478775024], [-0.48908859491348267, -0.22332018613815308, 0.22917865216732025, -0.2099626660346985, -0.40243181586265564, -0.3039165735244751, 0.16715289652347565, -0.08463843166828156, -0.021204214543104172, 0.42941129207611084, -0.02216014824807644, -0.3821668028831482, 0.056563057005405426, 0.20073926448822021, -0.3937900960445404, 0.17424190044403076, 0.09635619819164276, -0.05446513742208481, 0.06373598426580429, 0.27158108353614807, 0.2094632387161255, -0.4405369758605957, -0.5703411102294922, 0.2620147168636322, -0.25248825550079346, -0.06364721059799194, -0.40435799956321716, 0.20494863390922546, -0.2704254984855652, -0.07745577394962311, -0.5119392275810242, 0.15802809596061707], [0.3826308846473694, 0.5196235179901123, -0.11648089438676834, -0.269532710313797, 0.7065234780311584, 0.003218501340597868, -0.20619910955429077, 0.5618034601211548, 0.29915744066238403, 0.4601621925830841, 0.0916285440325737, 0.4188336431980133, -0.21287865936756134, -0.2642534077167511, 0.13774220645427704, 0.026379728689789772, 0.3204661011695862, -0.029263807460665703, 0.06079193204641342, 0.19048301875591278, -0.37801748514175415, -0.05537061765789986, -0.17041635513305664, -0.08440939337015152, 0.4362720549106598, 0.007753425277769566, -0.5257238149642944, 0.3662252426147461, 0.2878304421901703, 0.34692099690437317, -0.3856410086154938, 0.3645144999027252], [0.025048334151506424, 0.27260446548461914, 0.15605349838733673, 0.026489999145269394, 0.418739914894104, -0.46204179525375366, -0.10895297676324844, 0.7119902968406677, 0.4101523458957672, 0.24373503029346466, 0.6350411772727966, 0.1669807881116867, 0.26728662848472595, -0.2746187448501587, 0.035762712359428406, 0.3488713800907135, -0.21129024028778076, -0.1726822704076767, 0.09905418008565903, -0.5337256789207458, -0.3486466705799103, -0.391737699508667, 0.22267283499240875, 0.33900484442710876, 0.38098835945129395, -0.1652524173259735, -0.30576980113983154, -0.36422672867774963, 0.655709981918335, 0.19730046391487122, 0.24792234599590302, 0.3113316595554352], [-0.05377594381570816, 0.4945753514766693, 0.10528300702571869, -0.20460736751556396, 0.20118726789951324, -0.4155992865562439, 0.41890382766723633, 0.7554163336753845, 0.17496468126773834, 0.3718881607055664, 0.47148993611335754, -0.1898314207792282, -0.12583021819591522, -0.04615585133433342, 0.012821529991924763, -0.24583622813224792, 0.17165960371494293, 0.15967048704624176, -0.23129937052726746, 0.7383705973625183, 0.01983552798628807, -0.12894220650196075, 0.08486209809780121, 0.013172997161746025, 0.007664817851036787, 0.13825488090515137, 0.005605105310678482, -0.25773710012435913, -0.17406150698661804, 0.6182560920715332, -0.12100264430046082, 0.24280470609664917], [-0.3951168954372406, -0.9027439951896667, -0.23342163860797882, -0.780619740486145, -0.4545826017856598, -0.5800396800041199, 0.052449848502874374, -0.5365518927574158, -0.4186449646949768, 0.01798936352133751, -0.13096347451210022, -0.3897620141506195, -0.37530505657196045, -0.20254667103290558, -0.12567377090454102, -0.6521062254905701, -0.5600062608718872, -0.30646389722824097, -0.21241530776023865, -0.4342429041862488, 0.12244472652673721, -0.14261429011821747, -0.03994055837392807, -0.8193281888961792, 0.36614567041397095, 0.14945551753044128, -0.10119681805372238, -0.4064294099807739, 0.037879131734371185, 0.793246865272522, -0.1724773794412613, 0.6360618472099304], [-0.06770765781402588, -0.005125160329043865, -0.3245195150375366, -0.33488011360168457, 0.02614479325711727, -0.10923939943313599, -0.14860102534294128, 0.4424329698085785, 0.08577504754066467, -0.06170891597867012, -0.21647387742996216, 0.07011674344539642, -0.22135330736637115, -0.2180822193622589, -0.0610448382794857, -0.5165160298347473, 0.08162030577659607, 0.13020949065685272, 0.2939133644104004, -0.036525215953588486, -0.18785738945007324, -0.4641370177268982, 0.05867159366607666, -0.17422956228256226, 0.11341101676225662, 0.21373218297958374, -0.5162789821624756, 0.024153081700205803, -0.29155123233795166, 0.2669396996498108, 0.3171028196811676, 0.38188686966896057], [0.1349312663078308, -0.05923498049378395, 0.07071402668952942, 0.044927116483449936, -0.21587353944778442, -0.2636013925075531, -0.31875327229499817, 0.7534286975860596, 0.35466259717941284, -0.2952985465526581, 0.26802533864974976, -0.13272759318351746, 0.24183805286884308, 0.41746312379837036, 0.1558813899755478, -0.1470494121313095, 0.1804385632276535, 3.677962740766816e-05, 0.06797826290130615, 0.5856981873512268, -0.21324856579303741, -0.04033568128943443, -0.020397204905748367, 0.11089098453521729, 0.20575976371765137, 0.27587005496025085, -0.01655045710504055, -0.2920025587081909, 0.1614600419998169, 0.3583047688007355, 0.4477151930332184, 0.10264457017183304], [0.3277530074119568, 0.07847174257040024, 0.11406347900629044, -0.2542717754840851, 0.007041165139526129, -0.032747767865657806, 0.10408592969179153, 0.2280573695898056, 0.776710569858551, 0.17729245126247406, 0.06136227026581764, -0.10375785827636719, 0.1515718251466751, -0.4618234932422638, -0.3990429639816284, -0.10982102155685425, 0.0924767255783081, -0.26743587851524353, -0.10781750828027725, 0.16655504703521729, 0.020494582131505013, 0.28112560510635376, -0.11366305500268936, 0.11779950559139252, 0.2682325839996338, 0.2811962068080902, 0.08915284276008606, 0.04372607544064522, 0.30934104323387146, 0.1473417580127716, -0.15169866383075714, 0.2843361794948578], [-0.11722614616155624, 0.11650680750608444, -0.08983509987592697, 0.12044677883386612, 0.19455033540725708, -0.22270719707012177, 0.2558028995990753, 0.21216359734535217, 0.2000865489244461, 0.09274303913116455, -0.023662911728024483, -0.1594175100326538, 0.7605165243148804, 0.18470418453216553, 0.14868968725204468, 0.34441566467285156, 0.11809363216161728, -0.27350589632987976, -0.134521484375, 0.746709406375885, 0.5274247527122498, 0.3558679223060608, 0.36029666662216187, -0.18583500385284424, -0.04163808375597, -0.01811501570045948, -0.30996936559677124, 0.04680308327078819, 0.48025909066200256, 0.1590905338525772, 0.3982965350151062, 0.5167623162269592], [0.11513788998126984, 0.3716496229171753, -0.7327833771705627, 0.007673002313822508, 0.16435016691684723, 0.12273183465003967, -0.15584541857242584, 0.8657791614532471, 0.3472071886062622, 0.1736067533493042, -0.17589613795280457, -0.29622992873191833, 0.5763730406761169, 0.26604244112968445, 0.5383397340774536, -0.3006320595741272, 0.11423521488904953, 0.2580523192882538, -0.47028279304504395, 0.8989479541778564, -0.07684893906116486, 0.41404256224632263, 0.19210202991962433, 0.04384676367044449, -0.5121225118637085, 0.22153577208518982, -0.3672516345977783, -0.06500405073165894, -0.00219255150295794, 0.48913249373435974, -0.04097730666399002, -0.12400989979505539], [-0.5644545555114746, 0.13175031542778015, -0.003944950643926859, 0.1301480531692505, -0.029994474723935127, -0.2277856469154358, -0.000502329901792109, -1.234639286994934, -0.18039095401763916, -0.43320322036743164, -0.6853029131889343, -0.1561652272939682, -0.460717111825943, -0.17621278762817383, -0.1627504974603653, -0.2895021438598633, -0.23571620881557465, 0.2571658492088318, -0.19012655317783356, 0.04391602426767349, -0.4550362527370453, -0.06040824577212334, -0.37976107001304626, -0.42071840167045593, -0.19133464992046356, -0.41242796182632446, 0.19808438420295715, 0.16639958322048187, -0.007250633556395769, -0.47449037432670593, 0.03239972144365311, -0.41621699929237366], [-0.11715671420097351, 0.28128206729888916, 0.04055286571383476, -0.022536443546414375, 0.2093787044286728, 0.16074630618095398, -0.2709703743457794, 0.2200918197631836, 0.23763950169086456, 0.11197923868894577, 0.2680237889289856, 0.04944339022040367, 0.16547764837741852, -0.0408049076795578, -0.1298997849225998, 0.3909684717655182, 0.0802968218922615, 0.33289510011672974, 0.020033828914165497, 0.8718991279602051, -0.006314091384410858, -0.3619329333305359, 0.4484192132949829, -0.0013504443923011422, -0.018990810960531235, 0.04626018553972244, -0.12509050965309143, -0.13545115292072296, 0.16133466362953186, 0.7778081297874451, 0.017651723697781563, 0.14787714183330536], [-0.12193958461284637, -0.3032219111919403, -0.03150616213679314, -0.29124003648757935, 0.24012811481952667, -0.7438564896583557, 0.08713839203119278, 0.207070991396904, 0.2219373881816864, 0.7950904369354248, -0.13262364268302917, -0.12799228727817535, 0.257070392370224, 0.05457443371415138, -0.10562773048877716, 0.2751152813434601, 0.36115407943725586, -0.08234719932079315, 0.3260982632637024, 0.5605747699737549, 0.34215861558914185, 0.2561000883579254, -0.20958667993545532, 0.07601375132799149, -0.48641014099121094, 0.08201821148395538, -0.2614341974258423, -0.061925821006298065, 0.06643932312726974, 0.31105414032936096, -0.06988490372896194, 0.3703044652938843], [-0.3295096457004547, 0.343278169631958, 0.6170981526374817, 0.09236755967140198, -0.3831806480884552, -0.35015448927879333, -0.12204153090715408, 0.5215919613838196, 0.08544904738664627, 0.14066658914089203, 0.2374962717294693, 0.08978880196809769, -0.2532880902290344, -0.15060701966285706, -0.38524460792541504, -0.3553916811943054, -0.002651546848937869, -0.2030704915523529, -0.334981769323349, -0.37630853056907654, -0.5503631830215454, -0.19755440950393677, -0.0716685876250267, 0.0752631276845932, 0.19992700219154358, -0.021930402144789696, -0.15014544129371643, -0.07085917890071869, 0.25341397523880005, 0.4661259651184082, -0.02221755124628544, 0.23863810300827026], [-0.5832236409187317, -0.28779223561286926, -0.11113600432872772, -0.8442453145980835, 0.2787761986255646, -0.6298362016677856, 0.3436791002750397, -0.45286327600479126, -0.33263474702835083, 0.3197253942489624, -1.2225708961486816, -0.5586864352226257, -0.059608861804008484, -0.21784727275371552, 0.03210457041859627, -0.40750548243522644, -0.3380782902240753, 0.11149396747350693, 0.025414982810616493, -0.2134871780872345, 0.32146814465522766, 0.21558630466461182, -0.21847955882549286, -0.675332248210907, 0.37203794717788696, 0.4996221661567688, 0.03912799060344696, 0.18724238872528076, -0.046543098986148834, 0.29335904121398926, -0.025949155911803246, 0.33740508556365967], [-0.08514098078012466, -0.116716668009758, 0.32741355895996094, 0.0743718147277832, 0.0789026990532875, 0.3509156405925751, -0.1291378289461136, -0.24079614877700806, -0.1595621407032013, 0.25135424733161926, 0.25179198384284973, -0.41124457120895386, 0.016017360612750053, 0.026900405064225197, 0.06714420765638351, -0.40838152170181274, -0.6257476806640625, 0.0900401845574379, 0.14777199923992157, 0.12044870853424072, -0.4582447111606598, -0.1821204423904419, -0.11018166691064835, -0.5181834697723389, -0.034450750797986984, -0.005584571044892073, -0.36656492948532104, 0.5154590606689453, -0.235210582613945, 0.5292801260948181, -0.008164605125784874, 0.02495184913277626], [-0.0586487241089344, 0.2439601570367813, -0.4434954524040222, -0.10088318586349487, 0.33891451358795166, -0.384437620639801, -0.24518653750419617, 0.19014182686805725, -0.14209894835948944, -0.3060396611690521, -0.632811963558197, -0.23462313413619995, -0.08768627047538757, -0.20235784351825714, -0.15994971990585327, -0.33556362986564636, -0.27132686972618103, -0.17161931097507477, 0.13532596826553345, 0.18690137565135956, -0.09205357730388641, -0.6307907104492188, -0.07692941278219223, -0.14009462296962738, -0.562285304069519, -0.3999228775501251, -1.0528148412704468, 0.1731671690940857, 0.19790492951869965, 0.32288867235183716, -0.08158861845731735, 0.10928162932395935], [-0.1926315873861313, -0.5451510548591614, -0.03170081973075867, -0.6026808619499207, -0.6391165852546692, -0.703368604183197, -0.20917782187461853, 0.2158418446779251, -0.42756780982017517, -0.5090739727020264, -0.32094666361808777, -1.1653239727020264, -0.2575801908969879, 0.41509196162223816, -0.7091048359870911, -0.6740329265594482, 0.08949732780456543, -0.12826620042324066, -0.044133834540843964, -0.2687854766845703, 0.36275893449783325, -0.7388779520988464, -0.6589599251747131, -0.1619897335767746, -0.3376257121562958, -0.3044329285621643, -0.4024757146835327, 0.32283997535705566, -0.324236661195755, 0.18868711590766907, -0.48187926411628723, -0.09025310724973679], [-1.1024476289749146, -0.26606443524360657, 0.03566094487905502, -1.4908004999160767, 0.1720784604549408, -0.5504220724105835, -0.3028527498245239, 0.20430175960063934, -0.40114346146583557, 0.3007812201976776, -0.42288175225257874, -0.11591928452253342, -0.686381995677948, -0.07357151061296463, -0.6288619041442871, -0.15536080300807953, -1.5012880563735962, -0.0207213144749403, -0.1163814589381218, 0.5330051183700562, 0.21245861053466797, -0.4220793843269348, -0.21982906758785248, -1.1476848125457764, 0.12362655997276306, -0.6099411845207214, -0.29067960381507874, -0.10414250940084457, 0.302474707365036, 0.2740360200405121, -0.6242361664772034, 0.46103939414024353], [0.3102032542228699, 0.042581647634506226, -0.7255876064300537, 0.48783648014068604, -0.1694241166114807, -0.3366369307041168, -0.5162062644958496, 0.059975847601890564, 0.13474668562412262, 0.2770146131515503, -0.09629621356725693, -0.1430521458387375, 0.10301437228918076, 0.2848125398159027, -0.3283214867115021, -0.4173312187194824, 0.3077014684677124, -0.15415751934051514, 0.26823219656944275, 1.0230777263641357, -0.18145252764225006, -0.5571775436401367, -0.7537987232208252, 0.18899790942668915, -0.6065889000892639, 0.14946548640727997, -0.9036498069763184, 0.31256237626075745, -0.10871516168117523, 0.41694375872612, 0.4154694080352783, -0.020321866497397423], [-0.7967604994773865, -0.4213188886642456, -0.25979140400886536, -1.7804722785949707, -0.3390875458717346, -0.2634364366531372, -0.1487048715353012, 0.7338165044784546, -0.5898972153663635, -0.2945880591869354, -1.2483011484146118, 0.06993388384580612, -1.102779507637024, 0.158344104886055, -0.28463464975357056, -0.3092823922634125, -1.3170404434204102, 0.001794532872736454, -0.27356788516044617, 0.09625983238220215, 0.060795821249485016, -0.4405880868434906, -0.08041982352733612, -1.3681319952011108, -0.2414671778678894, -0.15688951313495636, -0.1513385772705078, 0.06430566310882568, -0.13111862540245056, 0.9142991304397583, -0.17079925537109375, -0.1946858912706375], [-0.478921115398407, -0.4808177053928375, 0.1741224080324173, -0.6319136619567871, -0.3598920702934265, -0.39094793796539307, -0.4628313481807709, 0.034759920090436935, 0.11030649393796921, -0.37636610865592957, -0.4400769770145416, -0.6537438631057739, -0.08151586353778839, 0.23835666477680206, -0.27559876441955566, 0.1461755484342575, -0.4073832631111145, -0.04781368002295494, 0.2031196504831314, 0.6108301281929016, 0.38205382227897644, -0.9182971119880676, -0.3174581825733185, -0.7047606110572815, -0.37624335289001465, -0.2364378720521927, -1.1889420747756958, 0.10906334966421127, -0.14578863978385925, -0.15192577242851257, -0.27799490094184875, -0.2564460039138794], [-1.0717527866363525, -0.30969303846359253, 0.2603016793727875, -0.9969099760055542, -0.09965505450963974, -0.20266544818878174, -0.6842023134231567, -0.3136462867259979, -0.7590853571891785, 0.6451757550239563, -0.2844540476799011, -0.23599326610565186, -0.7633734345436096, -0.09467943757772446, -0.0007831043330952525, -0.6369555592536926, -0.57098388671875, 0.0009191775461658835, -0.8677726984024048, 0.3714568316936493, 0.22167851030826569, -0.37279024720191956, -0.13600942492485046, -0.6274553537368774, -0.1624865084886551, -0.173986554145813, -0.8932268023490906, -0.3230304718017578, 0.7469001412391663, 0.6116191744804382, -0.6022874712944031, 0.4579414129257202], [-0.4859699606895447, -0.03547964617609978, -0.09689448773860931, -0.29008767008781433, 0.022387957200407982, -0.36269810795783997, -0.20528213679790497, 0.348044216632843, -0.46548861265182495, -0.35579439997673035, -0.22829695045948029, -0.2888307273387909, -0.20537343621253967, -0.029033105820417404, -0.2824128568172455, -0.7523945569992065, -0.4122704863548279, -0.06633467227220535, 0.14454385638237, 0.6574029922485352, -0.10335028171539307, -0.6003211736679077, -0.2533051371574402, -0.7271696925163269, -0.19099761545658112, 0.042921990156173706, -0.9059023261070251, 0.3993348777294159, 0.08669530600309372, 0.5590941905975342, -0.10683880746364594, -0.002885613590478897], [0.09520840644836426, 0.49248945713043213, -0.08570417761802673, -0.017202094197273254, -0.35172611474990845, -0.08208563923835754, -0.6002601385116577, 0.024965880438685417, -0.2698839604854584, -0.6222324371337891, -0.07814648002386093, -0.3559607267379761, -0.047794047743082047, -0.16035474836826324, -0.28928813338279724, -0.6731992959976196, 0.1713448464870453, 0.20931172370910645, 0.486275315284729, -0.06847316026687622, 0.22429729998111725, -0.3265267014503479, -0.0576704666018486, -0.40491607785224915, 0.11225471645593643, -0.05303825065493584, -0.9596927165985107, -0.34982872009277344, -0.05626886710524559, 0.22945500910282135, 0.04629812762141228, 0.2979218363761902], [-0.2673957645893097, -0.1475352942943573, 0.03645232319831848, -0.036753151565790176, -0.10427363961935043, -0.011438666842877865, -0.009775861166417599, -0.08666358143091202, 0.3856494128704071, -0.18875548243522644, -0.0009269654401578009, -0.24728608131408691, -0.10607130080461502, 0.6268057823181152, -0.5404651761054993, -0.36733755469322205, -0.079704649746418, -0.17422349750995636, 0.09481062740087509, 0.40557894110679626, -0.12359386682510376, -0.17978383600711823, -0.1891050934791565, -0.29639118909835815, -0.3583579957485199, -0.22453415393829346, -0.5625678896903992, 0.12954361736774445, -0.01562880352139473, 0.10912897437810898, 0.09144141525030136, -0.7720156311988831], [-0.24453073740005493, -0.3439677655696869, 0.4807802736759186, -0.890343427658081, -0.15113873779773712, -0.24793820083141327, 0.3725645840167999, -0.05385000631213188, -0.4482760429382324, 0.12096685916185379, -0.9137623310089111, -0.15794457495212555, -0.10861175507307053, 0.0012136375298723578, -0.3335476517677307, -0.1754743903875351, -0.8500795364379883, -0.015190263278782368, 0.057218536734580994, -0.09335234761238098, -0.37236398458480835, 0.23869569599628448, -0.1057988852262497, -0.439283549785614, -0.5309227705001831, -0.26362863183021545, -0.1093418076634407, -0.21527375280857086, 0.06698907911777496, 0.3571968376636505, -0.1747913956642151, 0.10588030517101288], [-1.0204768180847168, -0.6393956542015076, -0.19325485825538635, -0.9045975208282471, -0.18537253141403198, 0.1100211963057518, 0.030876094475388527, -0.29099392890930176, -0.5061447024345398, 0.24057887494564056, -0.47587600350379944, -0.028891779482364655, -0.46783632040023804, -0.46093854308128357, -0.05813222751021385, -0.7283182144165039, -0.7037288546562195, 0.1906721591949463, -0.32503989338874817, 0.3458651304244995, -0.019952157512307167, -0.3371394872665405, -0.5959261059761047, -0.9834569692611694, -0.02561875246465206, 0.054329171776771545, -0.6650682687759399, 0.01311651710420847, -0.08427401632070541, 0.6633772850036621, -0.21069225668907166, 0.3190290033817291], [-1.110736608505249, -0.33598291873931885, -0.17678630352020264, -0.8530712723731995, -0.3522798717021942, -0.3814954459667206, -0.3236101567745209, -0.24441540241241455, -0.2669405937194824, -0.2818762958049774, -0.4578246474266052, -0.12628710269927979, -0.690886378288269, 0.3343980312347412, -0.48800161480903625, -0.021796872839331627, -1.218870759010315, -0.180247500538826, 0.08453589677810669, -0.04974944889545441, 0.03438771888613701, -0.8881348371505737, 0.08414208889007568, -1.0311425924301147, -0.40650397539138794, -0.4480162560939789, -0.7251686453819275, -0.07915021479129791, 0.2107778787612915, 0.3368075489997864, -0.5545082092285156, -0.2319648563861847], [-0.3676742911338806, -0.2941112220287323, -0.0671776682138443, -0.4784490764141083, -0.2926667034626007, -1.1683073043823242, 0.16475699841976166, -0.42452293634414673, -0.2873457968235016, -0.22839564085006714, -0.5373027920722961, -0.5636386871337891, -0.26420727372169495, -0.6159943342208862, -0.12617945671081543, -0.9569404721260071, -0.7322249412536621, 0.018481390550732613, -0.08923820406198502, -0.4086521863937378, -0.16280831396579742, -0.5740443468093872, -0.21469278633594513, -0.41956570744514465, -0.6213603019714355, -0.12423378229141235, -0.7363392114639282, 0.48521140217781067, 0.10001324117183685, 0.4789220690727234, -0.5565277934074402, -0.018942277878522873], [-0.7525393962860107, 0.010278603062033653, -0.0987805724143982, -0.8150709867477417, -0.4518505036830902, -0.16343487799167633, 0.19795216619968414, 0.2792859971523285, -0.6238584518432617, -0.45100265741348267, -1.2008389234542847, 0.21217046678066254, -0.9071805477142334, -0.15883247554302216, -0.31275123357772827, -0.18726027011871338, -0.6889057159423828, 0.030501142144203186, -0.030458632856607437, 0.25676774978637695, -0.07122122496366501, -0.052698567509651184, -0.18281394243240356, -0.5683133006095886, -0.40000537037849426, -0.37384721636772156, 0.03355901315808296, -0.041879069060087204, -0.2401134967803955, 0.012934376485645771, -0.40124768018722534, -0.1319662183523178], [-0.9204380512237549, 0.1339542716741562, 0.03621640056371689, -0.5952966213226318, -0.2082253098487854, -0.6082004308700562, 0.13418430089950562, -0.13806383311748505, 0.03118540160357952, 0.23508621752262115, -0.08198967576026917, 0.18314391374588013, -0.11340193450450897, -0.23745769262313843, -0.12732265889644623, -0.44400542974472046, -0.08072231709957123, -0.3088439404964447, 0.2293435037136078, -0.2232258915901184, 0.1737484633922577, -0.31292101740837097, -0.5355842113494873, -0.15486043691635132, 0.03527297079563141, -0.03309840336441994, 0.022907422855496407, 0.06921499967575073, 0.18760283291339874, 0.5393706560134888, -0.6820712685585022, 0.2213931381702423], [-1.0896282196044922, -0.262073278427124, 0.04051712900400162, -1.532517910003662, 0.3486497700214386, -0.07564042508602142, -0.149366095662117, -0.16066114604473114, -0.16871234774589539, 0.13179002702236176, -0.7115325331687927, -0.18477708101272583, -0.509926974773407, -0.010072636418044567, -0.4810904562473297, -0.18761663138866425, -1.0549885034561157, -0.2113921344280243, 0.22432327270507812, -0.1806412637233734, 0.06553861498832703, -0.09432382881641388, -0.15298990905284882, -0.8471817970275879, -0.29957345128059387, -0.3968465030193329, -0.5456572771072388, -0.07410391420125961, 0.0041287061758339405, 0.19120320677757263, 0.01442846842110157, 0.48818516731262207], [-1.116700291633606, -0.5561053156852722, 0.0689217671751976, -1.031387209892273, -0.007877145893871784, -0.33825910091400146, -0.4569476544857025, -0.9358980059623718, -0.7815819382667542, -0.09487093985080719, -0.5293603539466858, -0.5721821188926697, -0.3694767355918884, 0.15609723329544067, -0.06390316039323807, -0.24716345965862274, -1.1776245832443237, 0.3086211383342743, 0.18884223699569702, -0.16337575018405914, 0.22857309877872467, -0.42672866582870483, -0.3448292315006256, -0.92615807056427, -0.6189671158790588, -0.11614436656236649, -1.051450490951538, -0.3257315754890442, -0.0968390628695488, 0.07668448984622955, -0.37122154235839844, 0.20932234823703766], [-0.11375235766172409, 0.3635581433773041, -0.257016658782959, -0.06095778942108154, 0.0939425379037857, -0.19428658485412598, 0.18095561861991882, 1.0728017091751099, 0.4024936556816101, -0.0698191449046135, -0.05026807263493538, -0.09962213784456253, 0.18721382319927216, -0.31411582231521606, -0.024922210723161697, -0.2433156818151474, 0.24758072197437286, 0.03736817091703415, 0.10644332319498062, -0.07236883044242859, 0.17522208392620087, -0.12232247740030289, -0.22826339304447174, -0.5188819766044617, -0.024430494755506516, 0.21654078364372253, 0.2396988421678543, 0.3998706638813019, 0.04931590333580971, 0.8047314882278442, -0.030567798763513565, 0.19737063348293304], [-0.42620837688446045, -0.3912091553211212, -0.01866910420358181, -0.236636221408844, -0.3588319718837738, -0.40595483779907227, 0.08177809417247772, 0.5278993844985962, -0.5525875091552734, 0.07703487575054169, -0.09285483509302139, -0.4519129991531372, -0.26530885696411133, 0.036058854311704636, -0.1472972333431244, -0.5844456553459167, -0.5483442544937134, -0.3489275872707367, -0.07121055573225021, 0.364932119846344, 0.4914666712284088, -0.5793797373771667, -0.11292316764593124, -0.04870421066880226, -0.4014750123023987, -0.4925316572189331, -0.5459113717079163, -0.14873817563056946, -0.47461220622062683, 0.31554505228996277, -0.09052445739507675, -0.14544397592544556], [-0.5363277196884155, -0.029370659962296486, 0.3091773986816406, -0.29015594720840454, -0.3248078227043152, -0.22587087750434875, -0.1363418698310852, -0.6811641454696655, -0.048495352268218994, 0.38304051756858826, -0.01521502248942852, -0.7455960512161255, -0.20271515846252441, 0.019269084557890892, -0.16220861673355103, -0.12319153547286987, -0.02383451536297798, -0.22455015778541565, 0.3714028596878052, -0.6442054510116577, 0.16432872414588928, -0.15049245953559875, -0.3486534357070923, 0.05189398303627968, -0.11686882376670837, -0.2822566628456116, -0.3614964783191681, -0.0599827840924263, 0.2680951654911041, -0.06743115186691284, 0.19518375396728516, 0.5147446393966675], [-0.5582876801490784, -0.3548922538757324, -0.6094287633895874, -0.3525894582271576, -0.057792674750089645, -0.575322687625885, 0.04360730201005936, -0.5770609974861145, -0.4287637770175934, 0.1591353714466095, -0.39504021406173706, -0.589690089225769, -0.20760416984558105, 0.36515453457832336, -0.7296181917190552, -0.8988599181175232, -0.8437919616699219, -0.2759399712085724, 0.1414879858493805, -0.2362036406993866, 0.142718106508255, -0.522718608379364, -0.844914972782135, -0.09331297129392624, -0.19485516846179962, -0.6335912346839905, -0.35724592208862305, 0.43218064308166504, 0.7890788316726685, 0.19764207303524017, 0.18065223097801208, -0.11333610862493515], [-0.4798969328403473, 0.3559974431991577, -0.16001379489898682, -0.043950460851192474, 0.13291867077350616, -0.39718759059906006, -0.2823319137096405, 0.21213506162166595, -0.3256320059299469, -0.09471209347248077, -0.23691070079803467, -0.3439522683620453, -0.1456107348203659, 0.20346558094024658, 0.1725912094116211, -0.47813600301742554, -0.22332094609737396, -0.22405287623405457, 0.07798361778259277, 0.7481105923652649, -0.09201920032501221, -0.7919021844863892, -0.1676310896873474, -0.26628848910331726, -0.22308866679668427, -0.23992182314395905, -0.7743353247642517, -0.057280685752630234, 0.017795370891690254, 0.27690598368644714, 0.1142793521285057, 0.22052320837974548], [-0.012356017716228962, 0.24116185307502747, 0.1831061691045761, 0.3755670487880707, -0.004257396329194307, -0.342404842376709, -0.18319442868232727, 0.4600940942764282, 0.1893397569656372, -0.011981735937297344, 0.049042537808418274, -0.27051088213920593, -0.20892511308193207, -0.09768077731132507, 0.19406472146511078, -0.475394606590271, -0.021190565079450607, 0.01664237305521965, -0.23332469165325165, 0.43068602681159973, 0.43630096316337585, -0.5002651810646057, 0.13828586041927338, 0.29412177205085754, 0.08069328218698502, 0.15756747126579285, -0.7064682245254517, 0.053198013454675674, 0.2227392941713333, 0.3056482672691345, -0.151735320687294, -0.18613429367542267], [-0.02547759935259819, -0.1471809297800064, 0.09513811022043228, -0.21111659705638885, -0.2414342164993286, 0.07283865660429001, 0.13668401539325714, -0.020478906109929085, 0.22031079232692719, 0.2069481760263443, -0.006314581725746393, -0.3785404562950134, -0.2637454867362976, 0.335369735956192, 0.1645338535308838, -0.056707508862018585, -0.33699050545692444, -0.3496552109718323, -0.034900788217782974, 0.3781411647796631, 0.2858385145664215, -0.18448400497436523, 0.11155692487955093, 0.13627925515174866, -0.12272637337446213, -0.23857110738754272, -0.5399803519248962, 0.09653725475072861, 0.05101488158106804, 0.1575707644224167, -0.18250411748886108, -0.01564929075539112], [-0.8803613781929016, 0.17969857156276703, 0.3524611294269562, -1.0715214014053345, -0.2972746193408966, -0.5341882705688477, -0.11151135712862015, -0.3166728913784027, 0.03604750707745552, 0.3998998999595642, -0.52554851770401, -0.5496258735656738, -0.8514810800552368, 0.10084076225757599, -0.4829680323600769, -0.34790077805519104, -1.0626986026763916, 0.1302386075258255, 0.31120607256889343, -0.049347586929798126, 0.21406112611293793, 0.01606837660074234, -0.1283024549484253, -0.7162688970565796, -2.841471359715797e-05, -0.4372372031211853, 0.013355311937630177, 0.14573292434215546, -0.019142741337418556, 0.5561115741729736, -0.8123880624771118, -0.4560425281524658], [-0.7657021880149841, -0.35187774896621704, 0.4410913288593292, -0.8671907782554626, 0.20888979732990265, -0.5145254731178284, -0.7239823937416077, -0.5505373477935791, -0.41431158781051636, -0.08189990371465683, -0.3513246476650238, -0.32576513290405273, 0.27130281925201416, 0.17719754576683044, -0.2183569073677063, -0.9123724102973938, -0.17070822417736053, -0.22133055329322815, 0.4121413230895996, 0.43344709277153015, -0.15684160590171814, -0.6136325001716614, -0.4848059117794037, -0.585759699344635, -0.10488465428352356, -0.05771012231707573, -0.8271375298500061, 0.04480918496847153, -0.11758912354707718, -0.6097341179847717, 0.25667744874954224, -0.13221420347690582], [-0.7052744030952454, -0.209731325507164, -0.0018092470709234476, -0.7925421595573425, -0.23338103294372559, -0.42330318689346313, 0.19551439583301544, -0.042039573192596436, -0.21841619908809662, 0.18637852370738983, -0.39168667793273926, 0.07186512649059296, -0.16710616648197174, -0.25497719645500183, -0.008090981282293797, -0.18697497248649597, -0.4780260920524597, 0.08178986608982086, 0.12138780206441879, 0.04716411605477333, -0.28555142879486084, -0.5884759426116943, 0.10847313702106476, -0.5944390296936035, -0.2034158557653427, 0.23244790732860565, -0.1759435385465622, 0.004637150093913078, -0.26944515109062195, 0.23927313089370728, -0.3491148352622986, 0.28281542658805847], [-0.9835309982299805, -0.5400672554969788, 0.4316278100013733, -1.2386590242385864, -0.12590521574020386, 0.10988498479127884, -0.10135628283023834, 0.238291397690773, -0.2889751195907593, 0.7423780560493469, -0.6268168091773987, -0.2501201927661896, -0.4600009620189667, 0.26863330602645874, 0.005768431816250086, -0.479528546333313, -1.1382023096084595, -0.13354472815990448, 0.03134596347808838, -0.5127943754196167, -0.28172892332077026, -0.31823664903640747, -0.0578315444290638, -1.2515473365783691, 0.3745120167732239, -0.3115970492362976, -0.12921810150146484, 0.06499407440423965, -0.812398374080658, -0.018041502684354782, -0.8509272933006287, 0.0834788903594017], [-0.8201422095298767, -0.16935259103775024, 0.1856914758682251, -0.6418353915214539, -0.7069312930107117, -0.6403833627700806, -0.5891373753547668, 0.03601287677884102, 0.11564166843891144, -0.2859068810939789, -0.31021085381507874, -0.9100455641746521, -0.0934298187494278, -0.09580599516630173, -0.3516530692577362, -0.8301869630813599, -0.6883149743080139, -0.2542875409126282, -0.3466133177280426, -0.4530829191207886, 0.658124566078186, -0.35723042488098145, -0.6377614736557007, -0.4729609787464142, -0.056694526225328445, -0.22173255681991577, -0.11409474164247513, -0.13230761885643005, -0.12318243086338043, -0.6457309126853943, -0.6269662380218506, -0.45213139057159424], [-0.5929153561592102, 0.5561896562576294, 0.11163666844367981, -0.7326534390449524, -0.3762509822845459, -0.46473953127861023, -0.06117045879364014, -0.5267668962478638, 0.12816724181175232, 0.005070589482784271, -0.8295167088508606, -0.1968439817428589, 0.24959316849708557, 0.5360584855079651, -0.14561647176742554, -0.2014559954404831, -0.4402718245983124, -0.3374919295310974, -0.14084529876708984, -0.2804397940635681, -0.4333917200565338, -0.3433188199996948, -0.12159095704555511, -0.49745041131973267, -0.2092629224061966, 0.08722252398729324, -0.6434211134910583, -0.08425400406122208, -0.7493751049041748, 0.14104145765304565, 0.2113129049539566, -0.05387198179960251], [-0.02075493521988392, -0.009917994029819965, 0.18964627385139465, -0.07024014741182327, -0.34640541672706604, -0.2793098986148834, 0.1793336123228073, -0.12446422874927521, -0.1553325355052948, -0.24077384173870087, -0.34528714418411255, -0.48212534189224243, -0.3782135844230652, 0.5941036343574524, 0.10196768492460251, -0.5224037766456604, -0.21858999133110046, 0.01787140965461731, 0.07070524245500565, -0.2504788339138031, -0.27012866735458374, -0.18912403285503387, -0.6597784161567688, -0.7160834670066833, -0.05534212663769722, 0.3289657235145569, -0.9879100322723389, 0.043196287006139755, 0.31095871329307556, -0.522231936454773, -0.5648208260536194, 0.2943635582923889], [0.4567122459411621, 0.20520496368408203, -0.07515157759189606, 0.6249595284461975, -0.22452878952026367, 0.3043278753757477, -0.0390586294233799, 0.19944261014461517, 0.07023642957210541, -0.36530789732933044, 0.5370122790336609, 0.07735796272754669, 0.38469356298446655, 0.232275128364563, -0.3614313304424286, -0.2358826845884323, 0.2102709412574768, -0.1520698517560959, 0.42020463943481445, 0.38727691769599915, 0.08544909954071045, -0.17798306047916412, -0.41283273696899414, 0.23003187775611877, -0.42419636249542236, 0.00019659845565911382, 0.06661166250705719, -0.13221628963947296, 0.3843604624271393, -0.16662299633026123, 0.07636164873838425, -0.6009779572486877], [-0.13362319767475128, 0.38913097977638245, 0.19257616996765137, 0.022845391184091568, 0.05359473079442978, 0.02742985635995865, -0.239685520529747, 0.735148549079895, 0.20443333685398102, -0.35065382719039917, -0.17255420982837677, 0.0524662509560585, 0.3653106987476349, 0.35441234707832336, -0.31923002004623413, 0.18956676125526428, 0.15302692353725433, 0.22684341669082642, -0.005632682237774134, 0.7586115598678589, -0.35727477073669434, 0.2635066509246826, 0.05597807466983795, 0.24947504699230194, -0.6861943006515503, -0.1691758930683136, -0.13336685299873352, -0.18862652778625488, 0.3146180808544159, -0.0674792006611824, -0.01924275979399681, -0.5172381401062012], [0.4025910794734955, 0.27886971831321716, 0.38623833656311035, 0.1717299371957779, -0.0659962147474289, -0.17351433634757996, -0.6215618252754211, 0.7088507413864136, -0.03279249742627144, -0.19628775119781494, 0.316898912191391, 0.4990393817424774, 0.3436066806316376, 0.15009969472885132, -0.16541750729084015, -0.48272454738616943, 0.48534253239631653, 0.05592842027544975, -0.15573342144489288, 0.2348683476448059, -0.07617053389549255, -0.20846381783485413, -0.18693473935127258, 0.25005805492401123, -0.45433416962623596, -0.09973541647195816, 0.16701312363147736, -0.0012490653898566961, 0.010502426885068417, -0.15800857543945312, 0.5902358293533325, -0.46553483605384827], [-0.5671745538711548, -0.8653682470321655, 0.26131391525268555, -0.39487287402153015, 0.20935498178005219, 0.033341072499752045, -0.16588376462459564, -0.659088134765625, -0.04498857259750366, 0.4215720295906067, -0.4669113755226135, -0.08547981083393097, 0.15890803933143616, -0.10214230418205261, -0.0686594694852829, 0.07380425184965134, -0.3388596475124359, 0.17776775360107422, 0.1461820900440216, -0.44352975487709045, 0.1815226972103119, 0.31705716252326965, 0.08718232810497284, -0.002997168805450201, 0.38600900769233704, 0.11449650675058365, 0.2977310121059418, -0.09403131157159805, -0.03581864759325981, 0.6709189414978027, -0.26028281450271606, 0.3595314025878906], [0.3483789563179016, 0.7111886143684387, 0.35090363025665283, 0.25667741894721985, 0.07918260991573334, -0.06941216439008713, -0.36542195081710815, 0.7166414856910706, 0.19718442857265472, 0.1067621111869812, 0.23836427927017212, 0.41360604763031006, 0.05891362205147743, 0.15724340081214905, 0.26632198691368103, -0.09471501410007477, 0.527714192867279, -0.07810384035110474, 0.23674830794334412, 0.0691186934709549, -0.1878991276025772, -0.008085922338068485, 0.12362604588270187, 0.5691401958465576, -0.1004958301782608, -0.5423070788383484, -0.5933616757392883, -0.05402868986129761, -0.18936915695667267, -0.37056058645248413, -0.055126648396253586, -0.14168515801429749], [0.10860725492238998, 0.2720130980014801, -0.1920652538537979, 0.32139819860458374, 0.5188016295433044, 0.2795064151287079, 0.02629142254590988, 0.6913129091262817, 0.47901660203933716, -0.09080926328897476, 0.24855847656726837, -0.49359771609306335, 0.13533757627010345, -0.3396226465702057, 0.20098371803760529, -0.03492555394768715, 0.25550004839897156, -0.1347343623638153, 0.23624514043331146, 0.31794899702072144, 0.20884834229946136, 0.1514296531677246, 0.02954201214015484, 0.41864892840385437, -0.24340082705020905, -0.531997799873352, -0.2690674066543579, -0.015555202960968018, -0.09061048179864883, -0.4177667796611786, 0.5871795415878296, -0.3131119906902313], [0.4237895607948303, 0.2760378420352936, -0.321958065032959, 0.39777639508247375, -0.1374240517616272, -0.5172767043113708, -0.04131041839718819, 0.6030823588371277, 0.375652551651001, -0.3326928913593292, 0.5714093446731567, 0.12484477460384369, 0.01823214814066887, -0.12863358855247498, -0.05047626793384552, -0.17598773539066315, -0.05531667172908783, 0.1603061705827713, -0.6429792046546936, 0.6473749876022339, 0.023725179955363274, 0.2687489092350006, 0.14458715915679932, 0.4240754544734955, -0.11293374747037888, 0.03563445433974266, -0.44453540444374084, 0.22174598276615143, 0.5799853801727295, -0.7233996987342834, 0.10664951801300049, -0.21312713623046875], [-0.47437596321105957, -0.6596848368644714, 0.1552399843931198, 0.022250715643167496, 0.5880632996559143, 0.33876416087150574, -0.06663181632757187, -0.3993135690689087, -0.44188639521598816, 0.14076626300811768, -0.4673556387424469, 0.017628714442253113, -0.2497566193342209, 0.08114293217658997, -0.07982838898897171, -0.18667717278003693, -0.892781138420105, -0.017855262383818626, 0.21839721500873566, -0.3957490921020508, 0.17842701077461243, 0.3360312879085541, 0.031764693558216095, -0.18073749542236328, 0.3430884778499603, 0.3883211016654968, -0.2779202163219452, 0.1925363391637802, -0.03985103592276573, 0.40015357732772827, -0.3110193908214569, 0.5931848287582397], [-0.39404425024986267, -0.4309329688549042, 0.20690235495567322, -0.3623022139072418, 0.02762826718389988, -0.13410665094852448, -0.15517045557498932, -0.6532552242279053, -0.24226252734661102, 0.3959473967552185, -0.3549250066280365, -0.16785533726215363, -0.3902720510959625, -0.13212384283542633, -0.1250457912683487, 0.21337467432022095, -0.3565791845321655, -0.4761413335800171, -0.14128477871418, -0.21827872097492218, 0.4445916712284088, 0.09550801664590836, -0.2105572670698166, 0.08722769469022751, 0.13613194227218628, -0.29274049401283264, 0.3386469781398773, -0.35586118698120117, -0.05424823984503746, 0.6386969685554504, -0.004281564150005579, 0.4753919839859009], [-0.48476144671440125, -0.6298525333404541, -0.07996618747711182, -0.27796274423599243, 0.08394979685544968, -0.10449177771806717, -0.03913020342588425, -0.2846958637237549, 0.031740542501211166, 0.34608909487724304, -0.4025704860687256, 0.11069845408201218, -0.10624101012945175, 0.4968661665916443, -0.09627501666545868, 0.2612350285053253, -0.5730428695678711, -0.11194953322410583, -0.1846979856491089, -0.35073116421699524, 0.027802638709545135, -0.018364403396844864, -0.42201974987983704, -0.12043207138776779, -0.138526052236557, -0.33709973096847534, 0.20170807838439941, 0.33191508054733276, -0.08400275558233261, 0.49049705266952515, -0.21823212504386902, 0.5498321652412415], [0.5116264224052429, 0.3782195746898651, -0.14781099557876587, 0.05205278843641281, 0.463896781206131, 0.42566347122192383, -0.3207094669342041, -0.6757526993751526, 0.49835509061813354, 0.6783139705657959, -0.18462924659252167, 0.5096340775489807, 0.3192112147808075, -0.11260247230529785, 0.5560573935508728, 0.05661383271217346, 0.34427446126937866, 0.15110521018505096, 0.17272953689098358, 0.32361963391304016, 0.018163610249757767, 0.6333129405975342, 0.34245428442955017, 0.14460594952106476, 0.5465063452720642, 0.682370662689209, 0.48017483949661255, 0.28611311316490173, -0.04751284047961235, 0.7143857479095459, -0.1062365248799324, 0.7135657072067261], [0.2412284016609192, -0.7631440162658691, 0.171127587556839, -0.3331342935562134, 0.3149453401565552, 0.3153362274169922, 0.4064369201660156, -0.3390367925167084, -0.6633877158164978, -0.02570151723921299, -0.48915961384773254, -0.022239910438656807, -0.050686415284872055, -0.1757938265800476, -0.050443194806575775, 0.05975160375237465, -0.3867379426956177, -0.12764596939086914, 0.06535278260707855, -0.0741012692451477, 0.2697005867958069, -0.08037620782852173, -0.020763268694281578, -0.33627018332481384, -0.3705271780490875, 0.46321412920951843, 0.5008866190910339, 0.41476550698280334, -0.02989846095442772, 0.745725154876709, 0.3536519706249237, 0.18837036192417145], [-0.397797554731369, -0.47539010643959045, -0.03519130498170853, -0.14000822603702545, -0.04349535331130028, 0.01716335490345955, 0.40698304772377014, -0.600371241569519, -0.02041671611368656, 0.34587597846984863, -0.501978874206543, 0.006366855464875698, -0.5894379615783691, -0.30120813846588135, -0.12319200485944748, -0.18881408870220184, -0.18640398979187012, -0.36207759380340576, 0.13651122152805328, 0.2828855812549591, -0.16998980939388275, 0.19530676305294037, 0.383215993642807, -0.11520248651504517, -0.05456119775772095, 0.37780553102493286, 0.15985701978206635, 0.22963638603687286, -0.07860081642866135, 0.7268065810203552, -0.2624032199382782, 0.26987019181251526], [0.27619412541389465, 0.6811686754226685, -0.2017969787120819, 0.29100531339645386, -0.05664516240358353, -0.008050236850976944, -0.33663812279701233, 1.2295082807540894, 0.7591416239738464, -0.41202178597450256, 0.740236222743988, 0.4071917235851288, -0.029810214415192604, 0.310730516910553, 0.2610778212547302, -0.11878420412540436, 0.3552153706550598, 0.27290838956832886, 0.14898528158664703, -0.43018242716789246, 0.10396236181259155, -0.41948848962783813, -0.2945297658443451, 0.6177792549133301, 0.008566482923924923, -0.5133190751075745, -0.17064568400382996, -0.0906299576163292, -0.042340509593486786, 0.16484521329402924, 0.4552978277206421, -0.4444010555744171], [0.20947915315628052, 0.6929958462715149, 0.42730769515037537, -0.3956286311149597, -0.10103663057088852, 0.2504143714904785, -0.14025084674358368, -0.672667920589447, -0.20403724908828735, 0.05852708965539932, -0.2946970462799072, 0.4297046661376953, -0.0516325980424881, -0.30865275859832764, 0.23176057636737823, 0.2949661314487457, -0.4390803575515747, 0.1124444454908371, -0.08262178301811218, 0.12935692071914673, -0.32021647691726685, 0.5955199003219604, -0.022846998646855354, -0.6253472566604614, 0.3375648558139801, 0.0979815348982811, 0.2340795248746872, 0.11454696208238602, -0.10828125476837158, 0.48197615146636963, 0.08575593680143356, -0.089190773665905], [0.43775346875190735, -0.30372434854507446, -0.5350321531295776, 0.12876836955547333, 0.05308019742369652, 0.5679606199264526, 0.036818478256464005, -0.19543805718421936, -0.06246248632669449, 0.36453765630722046, -0.21044673025608063, 0.36757224798202515, 0.18313109874725342, 0.18230587244033813, 0.25056490302085876, 0.03774748742580414, -0.04230919107794762, 0.2817690074443817, 0.16389480233192444, -0.3500422239303589, -0.17239154875278473, 0.26580891013145447, 0.018633825704455376, 0.2092912793159485, 0.7011702656745911, 0.7626379728317261, 0.683659017086029, -0.47265151143074036, 0.3691507577896118, 0.7406103014945984, -0.0417749360203743, 0.3235515356063843], [-0.04298299551010132, -0.3707975149154663, 0.27975866198539734, -0.14571893215179443, 0.06702665984630585, 0.15590009093284607, -0.0685259997844696, 0.06238926202058792, 0.029088884592056274, 0.6319156289100647, -0.800668478012085, 0.23034724593162537, -0.4636564254760742, 0.35250166058540344, -0.4169422388076782, -0.34992706775665283, -0.011620758101344109, 0.09320786595344543, 0.3800230324268341, -0.075131855905056, -0.13360947370529175, 0.06595191359519958, 0.17885276675224304, -0.4768562614917755, -0.12044617533683777, 0.33580729365348816, 0.12021135538816452, 0.21830596029758453, -0.3570893108844757, 0.30103275179862976, -0.1915856897830963, 0.29068201780319214], [-0.36662381887435913, -0.08542264252901077, 0.2097899317741394, 0.2533588409423828, 0.08694621920585632, -0.007795756217092276, 0.15535826981067657, -0.7690181136131287, -0.35453084111213684, 0.5239075422286987, -0.2225407212972641, 0.13179972767829895, -0.5303145051002502, 0.04776914045214653, -0.2684771418571472, -0.1371113359928131, -0.4324471652507782, -0.22713488340377808, 0.20995019376277924, -0.34370341897010803, -0.05918954312801361, 0.23689360916614532, 0.016916073858737946, -0.871789813041687, 0.2354925572872162, 1.0727648735046387, 0.017744800075888634, -0.19649510085582733, -0.2731161415576935, 0.2060747593641281, -0.2024737298488617, 0.8176817297935486], [0.2215712070465088, 0.2586367130279541, 0.3767276108264923, 0.6082629561424255, -0.011136745102703571, -0.022158315405249596, 0.3956297039985657, 0.10017048567533493, 1.5410043001174927, 0.02298789657652378, 1.135547161102295, -0.4442685842514038, 0.4694235324859619, 0.239782452583313, 0.13662973046302795, -0.2401610165834427, 0.7778717279434204, -0.12722501158714294, 0.059464436024427414, 0.13434875011444092, -0.13008858263492584, -0.44016802310943604, 0.2647077739238739, 0.8195303082466125, -0.3326268792152405, -0.9639683961868286, -0.4385654032230377, -0.24899442493915558, 0.5955595374107361, -0.5697146654129028, 0.3031345009803772, -0.813275933265686], [-0.19614747166633606, -0.09635694324970245, -0.12522859871387482, -0.13806773722171783, -0.20016725361347198, 0.33103758096694946, -0.08981240540742874, -0.768269419670105, -0.053995952010154724, 0.5193981528282166, -0.6638990640640259, 0.06632046401500702, -0.6379762887954712, 0.3190936744213104, -0.0435807965695858, 0.23954340815544128, -0.6030086278915405, 0.5952782034873962, -0.07171361893415451, -0.2972106635570526, 0.21616001427173615, 0.08933643996715546, -0.08574084937572479, -0.09557652473449707, 0.3708791136741638, -0.14655178785324097, -0.019295917823910713, -0.0938892811536789, 0.04554305970668793, 0.4187966287136078, -0.2937292456626892, 0.3330041468143463], [0.16988125443458557, -0.581003725528717, -0.00023659091675654054, 0.06510855257511139, -0.23245839774608612, -0.4351138472557068, -0.3537870943546295, 0.2476741224527359, -0.516704797744751, -0.6436033248901367, -0.006882999558001757, -0.19432617723941803, 0.027959367260336876, 0.31193792819976807, -0.00582754286006093, -0.004965977743268013, 0.023396281525492668, -0.07140663266181946, -0.07661916315555573, 0.02835879474878311, -0.41636592149734497, -0.3269478380680084, -0.24379631876945496, -0.15974444150924683, -0.7065902948379517, -0.7256242632865906, -0.64730304479599, 0.30202317237854004, -0.2331949919462204, -0.503001868724823, 0.11032883077859879, -0.6215097904205322], [0.2570008933544159, -0.012620163150131702, -0.31287166476249695, -0.15294606983661652, 0.536729097366333, 0.2903522253036499, -0.1441095471382141, 1.13703453540802, 0.18635651469230652, 0.0498492605984211, 0.9911669492721558, -0.07284920662641525, -0.09187410771846771, 0.08122751861810684, -0.03579259291291237, 0.4125400483608246, 0.2638862431049347, -0.36068642139434814, -0.02046450972557068, 0.3384932279586792, -0.4469098448753357, -0.05770072713494301, 0.0016063713701441884, 0.14052435755729675, -0.574605405330658, -0.029533544555306435, -0.22477468848228455, 0.2774164080619812, 0.257718026638031, -0.7864466309547424, 0.7232128381729126, -0.37170252203941345], [0.20256787538528442, 0.5350465774536133, -0.1377272605895996, 0.30924350023269653, -0.12953141331672668, -0.24612697958946228, 0.14172564446926117, 0.43353769183158875, 0.4335496127605438, -0.23037832975387573, 0.17387168109416962, -0.3650733530521393, 0.3393459916114807, -0.27742230892181396, 0.09472920745611191, -0.5301573276519775, 0.5989852547645569, -0.06507014483213425, 0.024952741339802742, 0.6870654225349426, -0.07686657458543777, 0.18804825842380524, 0.0040786173194646835, 0.4990742802619934, -0.1843966245651245, -0.36666661500930786, 0.08945295959711075, 0.21217451989650726, 0.29520073533058167, -0.6200383901596069, -0.009041775949299335, -0.9229313731193542], [-0.729492723941803, -0.1621926873922348, -0.016296692192554474, -0.06842389702796936, 0.08295150846242905, 0.01983718015253544, -0.0024936008267104626, -0.4629195034503937, -0.03019149787724018, 0.23699234426021576, -0.7041265964508057, 0.09067704528570175, -0.10933512449264526, 0.0019405042985454202, -0.22863852977752686, -0.01084213051944971, -0.33737027645111084, -0.03378372639417648, 0.3941860795021057, -0.5330265760421753, -0.1575467586517334, 0.3493374288082123, 0.3721371591091156, -0.07913270592689514, 0.3527471721172333, 0.6352701187133789, 0.157489612698555, -0.12699782848358154, 0.14775529503822327, 0.5130093097686768, -0.05968101695179939, 0.6741695404052734], [0.20791266858577728, -0.10992090404033661, 0.04865207150578499, 0.5891579985618591, 0.023858094587922096, 0.11668875068426132, 0.10140732675790787, 0.5191822648048401, 0.22306698560714722, 0.02447650209069252, 0.343706876039505, -0.2019108086824417, -0.15703651309013367, -0.12173226475715637, -0.06323473900556564, -0.015954576432704926, 0.508316159248352, 0.12216442823410034, 0.28781867027282715, 0.6425861716270447, 0.1376994103193283, -0.0008517149253748357, -0.05410703644156456, 0.2853313088417053, -0.07409738749265671, -0.2652713358402252, -0.3528154194355011, -0.3924545347690582, -0.16097749769687653, -0.38459503650665283, 0.19286003708839417, 0.03069089911878109], [0.5543867349624634, 0.39199116826057434, -0.13466094434261322, 0.6385175585746765, -0.12056443095207214, -0.18996264040470123, -0.03054739534854889, 0.8563522696495056, 0.055050455033779144, -0.3734177350997925, 0.3227219879627228, 0.3217433989048004, 0.7181117534637451, 0.42402756214141846, 0.19204604625701904, 0.06252007931470871, 0.005740353371948004, -0.2326272875070572, -0.07606920599937439, 0.876631498336792, -0.2461877465248108, -0.07285990566015244, -0.08458942174911499, 0.6131094694137573, 0.0017106670420616865, -0.6256364583969116, -0.33927252888679504, 0.3562595844268799, -0.2654914855957031, -0.1538083851337433, -0.5502362251281738, 0.13206669688224792], [0.2743789255619049, 0.3462032675743103, 0.02336539886891842, 0.18047785758972168, -0.04708666726946831, 0.39744311571121216, -0.05984713137149811, -1.0082274675369263, 0.7156729698181152, -0.08312448859214783, 0.2023143321275711, -0.13232995569705963, 0.3209649324417114, -0.1481071412563324, 0.3573034703731537, -0.009103677235543728, 0.25232675671577454, 0.004833186510950327, 0.0538150854408741, 0.40724363923072815, -0.29660242795944214, 0.5653707981109619, 0.008691470138728619, 0.617355465888977, -0.04960878565907478, 0.09110254794359207, 0.06074320524930954, 0.5853044986724854, 0.006748320069164038, 0.0035068814177066088, 0.4535115659236908, -0.1905035823583603], [-0.3440183103084564, -0.723820149898529, 0.17379775643348694, -0.4121851623058319, -0.005497950129210949, -0.27710962295532227, -0.2210759073495865, -0.7706143856048584, -0.626494824886322, 0.30064457654953003, -0.2123250663280487, -0.06948544085025787, -0.39975669980049133, -0.46077051758766174, 0.36445000767707825, 0.6716795563697815, -0.5310166478157043, -0.291059285402298, -0.046394020318984985, -0.4505387246608734, -0.25050464272499084, 0.18193350732326508, 0.40838176012039185, -0.09476260095834732, 0.4076250493526459, 0.192887082695961, 0.2761213481426239, -0.16877825558185577, 0.2961798310279846, 0.3560529053211212, 0.038140151649713516, -0.03759148344397545], [0.5440630912780762, 0.9865092635154724, -0.16758424043655396, 0.49423086643218994, -0.2888827621936798, -0.033964693546295166, -0.3821256756782532, 1.0556588172912598, 0.09250211715698242, -0.5957425236701965, 0.7867146134376526, 0.1141468957066536, 0.5566739439964294, 0.11878127604722977, -0.45461198687553406, -0.2277311384677887, 0.4724309742450714, -0.21026389300823212, -0.6389046311378479, 0.043467652052640915, 0.393102765083313, -0.33894485235214233, 0.13637055456638336, 0.22080646455287933, -0.005643611773848534, 0.11111019551753998, 0.020031604915857315, -0.5374305844306946, 0.21126097440719604, -0.4170796871185303, -0.15712840855121613, -0.5789329409599304], [-0.2361486256122589, -0.2779432237148285, 0.03958294540643692, -0.43345457315444946, -0.039308082312345505, 0.16893038153648376, -0.03115864470601082, -0.6667520999908447, -0.2595541477203369, 0.11419500410556793, -0.4498390555381775, 0.12693198025226593, -0.10872426629066467, -0.2431398630142212, 0.14766526222229004, 0.08996377140283585, -0.8258222937583923, 0.1415877640247345, 0.021619196981191635, 0.45311105251312256, 0.0905834287405014, -0.19768768548965454, 0.03131094574928284, -0.3164915442466736, 0.4755614995956421, 0.46174225211143494, 0.29891738295555115, -0.427299827337265, -0.17330612242221832, 0.14802443981170654, -0.1643816977739334, 0.027151094749569893], [0.12255734205245972, 0.2587403357028961, -0.15236446261405945, 0.14463192224502563, -0.029253054410219193, 0.5934818983078003, 0.47944673895835876, -0.3171271085739136, 0.017364002764225006, 0.9642888307571411, -0.36169227957725525, -0.1451442390680313, 0.2674137055873871, 0.2116624265909195, 0.2845946252346039, 0.38630327582359314, 0.21126186847686768, 0.5123935341835022, 0.1810707300901413, -0.3365224599838257, 0.10298164933919907, 0.5820382237434387, 0.2059110850095749, 0.11334089189767838, 0.11494102329015732, 0.9910325407981873, 0.7705251574516296, 0.22835390269756317, 0.4066446125507355, 1.1910309791564941, 0.12412987649440765, 0.5962207913398743], [-0.5185972452163696, -0.22565992176532745, 0.2685573399066925, -0.04054838418960571, 0.4038350284099579, -0.06611984968185425, 0.3206952214241028, 0.2683941423892975, -0.5038215517997742, 0.18335482478141785, -0.25207817554473877, 0.24648825824260712, -0.29566076397895813, -0.03816359117627144, -0.04413216933608055, 0.2058826982975006, -0.3257465362548828, -0.0649566501379013, 0.37770572304725647, -0.31470656394958496, 0.21977262198925018, 0.18354569375514984, -0.1348913013935089, -0.21600471436977386, 0.43307825922966003, 0.2565237283706665, -0.35726335644721985, 0.14583955705165863, 0.18497993052005768, 0.6400513052940369, -0.1277107298374176, 0.04070458561182022], [0.1377948373556137, 0.3584586977958679, 0.2737274169921875, -0.06103565916419029, 0.348504900932312, 0.2618353068828583, -0.005021548364311457, 0.20247405767440796, 0.5047869086265564, 0.05087979882955551, 0.2980785071849823, 0.09904495626688004, 0.2058921605348587, 0.3620590567588806, 0.16354139149188995, -0.17020083963871002, 0.07846136391162872, -0.1413886547088623, 0.14848436415195465, 0.4427303373813629, 0.03391485661268234, -0.2081146240234375, 0.22927674651145935, 0.18991677463054657, 0.05956075340509415, -0.22759613394737244, -0.2607399821281433, 0.4673612713813782, -0.0582222081720829, 0.4172404110431671, -0.013354853726923466, 0.06749415397644043], [-0.39720967411994934, 0.18171706795692444, -0.20125533640384674, -0.1082817018032074, -0.4765389561653137, -0.27496451139450073, 0.09128453582525253, -0.07600682228803635, 0.41630125045776367, 0.1834668219089508, -0.024907991290092468, -0.46249884366989136, -0.11519656330347061, -0.2921425700187683, 0.15581998229026794, -0.7574868202209473, 0.1190515086054802, 0.15025627613067627, 0.19264061748981476, -0.19383372366428375, -0.037380509078502655, -0.4458773136138916, -0.3895551264286041, -0.3713597059249878, 0.030102407559752464, 0.49422410130500793, -0.20801319181919098, -0.1120268777012825, -0.047170136123895645, 0.3682377338409424, -0.4357984662055969, -0.13272014260292053], [-0.2843471169471741, 0.07293802499771118, -0.05208050459623337, -0.3015921413898468, -0.13869339227676392, -0.2774929404258728, 0.07683650404214859, 0.28501349687576294, 0.021395167335867882, -0.2486068606376648, 0.1314370483160019, 0.1427610218524933, 0.09525743126869202, -0.17043215036392212, 0.13553474843502045, -0.3773650825023651, -0.25377288460731506, 0.062178052961826324, -0.27785488963127136, 0.6070999503135681, 0.4870363473892212, -0.05543012171983719, -0.295136034488678, 0.05200972035527229, -0.33833155035972595, -0.1618226021528244, -0.3262782394886017, -0.1211385428905487, 0.784881591796875, 0.26435181498527527, -0.09869400411844254, -0.09970257431268692], [-0.41235727071762085, 0.4067828953266144, 0.19415251910686493, 0.01780308224260807, -0.48063692450523376, -0.2768777310848236, 0.21804022789001465, 0.9331693649291992, 0.6309972405433655, 0.5750488042831421, 0.25240960717201233, 0.2220168113708496, 0.1756785660982132, 0.016136791557073593, 0.088079072535038, -0.3535594940185547, 0.22010473906993866, 0.6222968697547913, -0.17634403705596924, 0.7030019164085388, -0.211410790681839, -0.6183261275291443, 0.39054182171821594, -0.22663146257400513, 0.39367902278900146, -0.13973300158977509, -0.6900827288627625, 0.48022741079330444, 0.3386334478855133, 0.9314292073249817, -0.11191629618406296, 0.8410720229148865], [-0.09111768007278442, 0.3521364629268646, -0.02473575249314308, -0.009719496592879295, -0.05520033836364746, 0.35074174404144287, -0.008586344309151173, 0.1403726488351822, 0.19871047139167786, -0.4406324326992035, 0.009264478459954262, -0.04218241572380066, 0.2954528033733368, 0.3524007499217987, -0.243840292096138, 0.1345984935760498, -0.37413766980171204, 0.12406285107135773, 0.012875735759735107, -0.0905240923166275, -0.25538119673728943, -0.03603488951921463, 0.5313693881034851, -0.0040278006345033646, 0.03558311238884926, 0.49290570616722107, 0.3326772153377533, 0.035830650478601456, 0.3330102264881134, 0.05527268350124359, -0.11985968798398972, -0.1792294979095459], [0.04028534144163132, 0.4726516604423523, -0.196645587682724, 0.3342139720916748, -0.2571462392807007, -0.1459602564573288, 0.3507252335548401, 0.0266791433095932, 0.06587309390306473, -0.07887454330921173, 0.12827377021312714, 0.040976788848638535, 0.14025112986564636, -0.27344486117362976, 0.2211192399263382, -0.2058517187833786, 0.07319317758083344, 0.09533458203077316, 0.004349697846919298, 0.49772167205810547, 0.22093944251537323, -0.1367669701576233, -0.04433947429060936, 0.2883622348308563, -0.5131151676177979, 0.1214558556675911, 0.10412263125181198, -0.15710380673408508, 0.42699089646339417, 0.24828223884105682, -0.21169281005859375, 0.1651918888092041], [0.006499475799500942, 0.43204930424690247, 0.4957515597343445, -0.28544315695762634, -0.1455594003200531, -0.6505489945411682, 0.15486767888069153, 0.44707247614860535, 0.403659850358963, 0.6757957935333252, -0.006055634934455156, -0.046694301068782806, 0.273867130279541, 0.006791095249354839, 0.48832088708877563, -0.4105941951274872, 0.12817604839801788, -0.1780264675617218, 0.15163074433803558, 0.9456950426101685, -0.5203485488891602, -0.6989660263061523, -0.543668806552887, -0.005772784352302551, -0.2081337720155716, 0.47438549995422363, -0.1441892832517624, -0.3712173402309418, -0.07185207307338715, 0.7371144890785217, 0.03059171885251999, 0.02025459334254265], [-0.08554363250732422, 0.4639270305633545, -0.4028327465057373, 0.32044824957847595, -0.1880517303943634, 0.010884353891015053, 0.4941015839576721, 0.21260862052440643, 0.03768422082066536, 0.5355849862098694, -0.41334232687950134, 0.09255027025938034, 0.026181764900684357, 0.19002050161361694, 0.24281248450279236, -0.14109227061271667, 0.16039399802684784, 0.13457712531089783, -0.11027123034000397, 0.9248701930046082, -0.007861082442104816, -0.7185556292533875, 0.09100352972745895, 0.15119068324565887, -0.36003223061561584, 0.12084563821554184, -0.6026098728179932, 0.4404847025871277, 0.4329134523868561, 0.32840394973754883, 0.0020096637308597565, 0.4540374279022217], [0.22653444111347198, -0.047653429210186005, 0.10105633735656738, 0.026958873495459557, 0.3377012312412262, 0.11755453050136566, 0.2144486904144287, 0.6546506881713867, 0.4829707145690918, 0.27114543318748474, 0.04212363064289093, 0.35121282935142517, 0.3259531557559967, 0.19562822580337524, 0.2268267720937729, -0.306910902261734, 0.10543214529752731, 0.2636226713657379, 0.41938185691833496, 0.31858184933662415, -0.38352128863334656, 0.4058637022972107, 0.28664591908454895, 0.11342033743858337, 0.25738081336021423, -0.16867539286613464, -0.05147303268313408, 0.16376477479934692, -0.027957847341895103, 0.6867286562919617, 0.3443664610385895, -0.18030859529972076], [-0.07504314929246902, 0.04997678101062775, 0.1932452917098999, -0.09823907166719437, -0.5259745121002197, 0.34144845604896545, -0.3267405331134796, -0.36604198813438416, 0.11398518085479736, 0.3119369447231293, -0.5269260406494141, -0.24410587549209595, -0.6890259981155396, -0.15228070318698883, -0.012628303840756416, -0.08541698008775711, -0.006424416787922382, -0.08486709743738174, 0.16300976276397705, 0.12631180882453918, 0.5186157822608948, -0.13975350558757782, -0.5720537900924683, -0.12174644321203232, -0.1019996777176857, -0.1488407552242279, -0.15175458788871765, -0.11899509280920029, -0.07848507165908813, 0.04177283123135567, 0.0035731547977775335, 0.4704960584640503], [-0.6839389204978943, -0.1984095722436905, 0.21520991623401642, -0.1604180485010147, 0.33605602383613586, -0.4571259915828705, 0.029081037268042564, -0.6899194121360779, -0.6107944250106812, 0.13543003797531128, -0.5686461925506592, -0.2712426483631134, -0.349346399307251, -0.43424755334854126, -0.0765344426035881, -0.09459713846445084, -0.9302569031715393, -0.2583913505077362, 0.3273845314979553, 0.207536518573761, 0.32183218002319336, -0.3889346420764923, -0.04796187952160835, -0.6444910764694214, 0.1200646311044693, -0.19580122828483582, -0.23913057148456573, 0.11893808096647263, -0.05459890514612198, 0.08392798155546188, 0.1800716072320938, -0.2738482654094696], [-0.3424786627292633, 0.4996480941772461, 0.041063904762268066, 0.014776874333620071, 0.05791013315320015, -0.37084096670150757, 0.19139043986797333, 0.32313865423202515, 0.21194352209568024, 0.30536702275276184, 0.09394996613264084, 0.3591793477535248, -0.020471487194299698, -0.17115186154842377, -0.3644082546234131, 0.1159173771739006, 0.1849796324968338, 0.10450571775436401, -0.07442124933004379, 1.0211966037750244, -0.35650011897087097, -0.6022605895996094, -0.35534393787384033, 0.08117834478616714, -0.2930179238319397, 0.3092859089374542, -0.2766701877117157, -0.32053127884864807, 0.5832251906394958, 0.9594506621360779, 0.2101459801197052, -0.21539387106895447], [-0.22210575640201569, -0.3526574373245239, 0.06049295887351036, 0.3075777292251587, 0.045156799256801605, -0.5631349086761475, -0.5100105404853821, 0.44777771830558777, -0.0007316700648516417, -0.0800352469086647, 0.2701672315597534, -0.35003823041915894, -0.049124810844659805, -0.09367401897907257, 0.1835017055273056, -0.3392781913280487, 0.3603554368019104, 0.07126053422689438, 0.1680322140455246, -0.06496013700962067, -0.28821343183517456, -0.05292866751551628, -0.22289377450942993, -0.3272286057472229, -0.07118783891201019, 0.01884123496711254, -0.2881600558757782, 0.3100425601005554, -0.12178004533052444, 0.21551381051540375, 0.1470186412334442, 0.053599026054143906], [0.552035927772522, 0.22304722666740417, -0.04117443412542343, -0.1661890149116516, -0.3879028558731079, -0.2389230877161026, 0.16954055428504944, -0.07306027412414551, -0.5428308248519897, 0.27851101756095886, -0.14329840242862701, 0.05430524796247482, -0.23206686973571777, 0.2953454554080963, 0.004407943692058325, -0.513334333896637, -0.044989701360464096, -0.3988581597805023, 0.11180335283279419, -0.34772685170173645, -0.4555998146533966, -0.4709515869617462, -0.5121958255767822, -0.17908985912799835, 0.2497892677783966, -0.16282223165035248, -0.04957520589232445, 0.26806142926216125, -0.30501583218574524, 0.0579710491001606, 0.2702749967575073, -0.11483976244926453], [-0.539806067943573, -0.7242798805236816, -0.1453610360622406, -0.7215545773506165, 0.16374678909778595, 0.09232701361179352, -0.006547019351273775, 0.08916608989238739, -1.306320071220398, -0.10473997890949249, -1.6749157905578613, -0.050801604986190796, -1.2928231954574585, 0.5495822429656982, -0.43457654118537903, -0.460222452878952, -0.6563533544540405, -0.24762561917304993, -0.3359171450138092, -0.5319832563400269, 0.3873417377471924, -0.1280633956193924, -0.4649624228477478, -1.0565464496612549, -0.26486143469810486, -0.612302839756012, -0.3229914903640747, -0.12624119222164154, -0.09300197660923004, 0.12268957495689392, -0.6785419583320618, 0.04665650799870491], [-0.5351582169532776, -0.6049468517303467, -0.11201257258653641, -0.12892590463161469, -0.02658914029598236, -0.7115861773490906, 0.050930824130773544, -0.5834985971450806, -0.8998965620994568, 0.60215163230896, -0.5198124647140503, -0.4878326654434204, -0.0748477354645729, 0.18724751472473145, -0.09222595393657684, -0.3777883052825928, -0.5756340026855469, 0.49394381046295166, -0.301053524017334, -0.6911135911941528, 0.054160021245479584, -0.47126755118370056, -0.1426921933889389, -0.3472331166267395, 0.20916199684143066, 0.4231225848197937, -0.17229823768138885, -0.35938987135887146, 0.1658862680196762, 0.6239504814147949, -0.20826464891433716, 0.5165794491767883], [0.0012487241765484214, 0.05099133402109146, 0.33005744218826294, 0.15203018486499786, 0.21507304906845093, 0.14269380271434784, -0.02145771123468876, 0.35561391711235046, 0.366618275642395, 0.4263283610343933, -0.46520620584487915, -0.23066435754299164, 0.4248797297477722, 0.0036438507959246635, -0.27466434240341187, 0.11712906509637833, 0.1412467658519745, 0.0865965187549591, -0.34433701634407043, -0.28383445739746094, -0.08110368996858597, 0.023385753855109215, 0.025317562744021416, -0.33426108956336975, -0.015087530016899109, 0.4080803394317627, -0.2791575491428375, -0.24146969616413116, 0.40062859654426575, 0.18804900348186493, 0.03040669672191143, 0.1400327831506729], [-0.30952587723731995, 0.4949498176574707, -0.05935462936758995, 0.2713158130645752, 0.22522282600402832, -0.412092000246048, 0.1614597588777542, 0.23514752089977264, 0.5411908626556396, 0.38019898533821106, 0.6177601218223572, -0.2184395045042038, -0.07910890877246857, -0.10640112310647964, -0.12288963794708252, -0.33884915709495544, -0.7098698019981384, -0.12214828282594681, -0.04600474610924721, 0.49506083130836487, -0.052822504192590714, -0.6734675765037537, 0.003550067311152816, 0.3544763922691345, 0.6366430521011353, 0.04694097861647606, -0.8774901032447815, -0.1233225166797638, -0.03896338865160942, 0.5655884742736816, -0.2655467689037323, 0.3615643084049225], [-0.2694343328475952, 0.054166678339242935, 0.42527031898498535, -0.41516053676605225, -0.24696485698223114, -0.5153608918190002, 0.0033403204288333654, -0.04879491403698921, 0.26626482605934143, -0.3095884919166565, -0.20453156530857086, 0.20033901929855347, -0.26702040433883667, 0.2160205990076065, 0.08636131882667542, -0.39898020029067993, 0.20699408650398254, 0.08820535242557526, 0.3372398018836975, -0.20224954187870026, -0.1415669471025467, -0.34167706966400146, -0.026464561000466347, -0.2887110114097595, -0.16050800681114197, -0.23639105260372162, -0.0722987949848175, 0.19838903844356537, 0.12043187767267227, 0.513908326625824, -0.2584734857082367, 0.2814672291278839], [0.3468542695045471, -0.043337222188711166, 0.25029873847961426, -0.14723730087280273, 0.21407856047153473, -0.16138535737991333, 0.22233323752880096, 0.24657993018627167, 0.4167685806751251, 0.1666651964187622, -0.01759461499750614, -0.40692633390426636, 0.12434172630310059, 0.3033803701400757, -0.24363499879837036, 0.15367107093334198, -0.2563804090023041, -0.10689597576856613, -0.10868250578641891, 0.5219327807426453, -0.04169275611639023, -0.25924208760261536, -0.052064597606658936, 0.2784338891506195, -0.09491606801748276, 0.21122826635837555, -0.7001875638961792, -0.04314761981368065, 0.08667774498462677, 0.3782746195793152, 0.0952276661992073, 0.18359482288360596], [-0.22747297585010529, -0.09913972020149231, -0.42710328102111816, -0.676305890083313, -0.32105863094329834, -0.37675976753234863, 0.10798412561416626, -0.8407008051872253, -0.7212937474250793, 0.21348358690738678, -0.6828374862670898, -0.029648149386048317, -0.1369571089744568, 0.2690671682357788, -0.17375023663043976, -0.6246398091316223, -0.20393237471580505, -0.005916613154113293, -0.17059198021888733, -0.4065532088279724, 0.08354398608207703, -0.31126993894577026, -0.3094271719455719, -0.5179429054260254, -0.11139857023954391, 0.38402605056762695, -0.11722559481859207, 0.11908699572086334, 0.27475762367248535, 0.060362398624420166, -0.4779525101184845, -0.2153398096561432], [-0.19789208471775055, -0.1281341165304184, 0.1893020123243332, 0.22129742801189423, -0.21008101105690002, -0.2554001808166504, 0.03381788358092308, -0.17494626343250275, -0.4725600779056549, -0.2065838724374771, 0.011380964890122414, -0.15297068655490875, 0.3551293909549713, -0.3696598708629608, 0.15713536739349365, -0.1370925009250641, -0.20052048563957214, 0.1338508129119873, -0.40822866559028625, -0.13622897863388062, -0.20347987115383148, 0.27756989002227783, -0.2382669597864151, 0.2407982498407364, 0.11129078269004822, -0.33629903197288513, 0.2994750142097473, -0.10719666630029678, 0.707291305065155, 0.1409192681312561, 0.20254288613796234, 0.10177012532949448], [0.04305253550410271, 0.24309059977531433, -0.28682833909988403, 0.3565284013748169, -0.17318719625473022, -0.09843390434980392, -0.0179543886333704, 0.3765409588813782, 0.25555548071861267, 0.4437941014766693, 0.4270647466182709, -0.2743716537952423, 0.18804387748241425, 0.10152620077133179, -0.10096894949674606, -0.1051856204867363, -0.16473425924777985, 0.20885352790355682, -0.22968405485153198, 0.744684100151062, -0.11112784594297409, -0.5041185617446899, -0.016125639900565147, -0.26085197925567627, -0.014589187689125538, -0.06602445244789124, -0.7277202606201172, 0.11524201184511185, 0.03491037338972092, 0.6684027314186096, -0.06543996930122375, -0.08040845394134521], [-0.35230523347854614, 0.2055591642856598, 0.08460000902414322, 0.11185860633850098, 0.2375190109014511, -0.14882002770900726, -0.21481311321258545, 1.013986349105835, 0.8743382096290588, 0.11351261287927628, -0.07308846712112427, -0.25785133242607117, -0.08364104479551315, -0.1475818157196045, -0.005434746854007244, -0.5986688137054443, -0.3836381435394287, -0.14027002453804016, 0.31242209672927856, 1.1333082914352417, -0.04736935719847679, -0.5172073841094971, -0.006086529232561588, -0.03557198867201805, 0.5822954177856445, 0.10195347666740417, -0.8041576743125916, 0.29324182868003845, -0.003663910087198019, 0.932004988193512, -0.1906510293483734, 0.4933408200740814], [-0.18930773437023163, 0.4171086549758911, 0.14271564781665802, 0.09804804623126984, 0.6703907251358032, 0.4001009166240692, -0.22424617409706116, 0.12233471125364304, 0.22750815749168396, 0.573843777179718, -0.04799671843647957, -0.17272603511810303, -0.21022488176822662, 0.607062816619873, -0.13747262954711914, -0.05287009850144386, 0.31896939873695374, -0.11590544879436493, -0.2540126144886017, 0.9663218855857849, 0.6220257878303528, -0.08264153450727463, 0.36746102571487427, 0.2642882168292999, -0.14722296595573425, 0.24649520218372345, 0.091786690056324, -0.10110387206077576, 0.4244192838668823, 0.574726402759552, 0.09476795792579651, -0.009148906916379929], [-0.1313263475894928, 0.329506516456604, 0.031767331063747406, -0.2630024552345276, 0.10418076813220978, -0.5630444288253784, 0.34095659852027893, -0.05711997672915459, 0.2760484218597412, 0.17707505822181702, -0.06267334520816803, -0.1121656596660614, 0.4006630778312683, -0.1322680115699768, 0.005388383287936449, -0.09059866517782211, 0.1898707151412964, -0.43852001428604126, 0.012853777036070824, 0.4110754132270813, -0.029224179685115814, -0.3850599229335785, 0.02252642624080181, -0.09474802017211914, -0.1646307408809662, -0.054606832563877106, 0.10802315175533295, 0.1264350712299347, 0.2244236171245575, 0.4541108310222626, 0.2892810106277466, 0.11628687381744385], [-0.4970357120037079, -0.1446772664785385, -0.11306102573871613, -0.6938242316246033, -0.5835642218589783, -0.4244370758533478, -0.03190449997782707, -0.8647688627243042, -0.09885192662477493, 0.07038318365812302, -0.44130176305770874, -0.17570574581623077, -0.14319664239883423, 0.15148693323135376, 0.03051179274916649, -0.006541555281728506, -0.6604021787643433, 0.16333165764808655, -0.1035674661397934, -0.27806514501571655, -0.13527147471904755, 0.035677891224622726, -0.11611349135637283, -0.6121889352798462, -0.47362208366394043, -0.5683728456497192, -0.4334534704685211, -0.4220166802406311, 0.042906925082206726, -0.372335284948349, -0.08995284885168076, -0.04861610382795334], [0.04399678856134415, 0.13941511511802673, -0.31739649176597595, -0.6299816370010376, 0.1260596066713333, 0.21011878550052643, -0.04090112820267677, 0.20341543853282928, 0.46980389952659607, 0.6593062281608582, 0.039343588054180145, -0.29165053367614746, 0.1105496734380722, -0.21615199744701385, 0.04224837198853493, -0.41278359293937683, -0.1280815452337265, -0.013241753913462162, 0.13650193810462952, 0.5182248950004578, 0.048567745834589005, -0.37041062116622925, -0.5659067630767822, -0.014635710045695305, -0.2760452330112457, 0.2800530791282654, -0.29177364706993103, -0.11094650626182556, -0.1660095602273941, 0.38966888189315796, 0.5032193660736084, 0.3779330253601074], [-0.0018157792510464787, 0.0352628231048584, 0.18660005927085876, -0.2271326631307602, 0.3364560604095459, -0.7367854714393616, 0.11419018357992172, 0.34773707389831543, 0.13492846488952637, 0.030668070539832115, -0.2492648959159851, -0.008417139761149883, 0.4216153621673584, 0.36539027094841003, -0.19906657934188843, -0.3800959885120392, -0.18296875059604645, 0.30276554822921753, 0.04390130192041397, 0.6274393796920776, 0.19296227395534515, -0.3071698844432831, 0.08740562945604324, -0.38521459698677063, 0.12538878619670868, 0.012900745496153831, -0.32529687881469727, 0.466738760471344, -0.41478583216667175, 0.6794333457946777, -0.29387208819389343, -0.17291079461574554], [0.190520241856575, 0.0345936194062233, -0.41318267583847046, -0.19907881319522858, -0.4346122443675995, -0.21575109660625458, 0.23734092712402344, 0.19806429743766785, -0.3290863335132599, 0.19019226729869843, 0.11932067573070526, 0.0017801715293899179, 0.327323317527771, -0.2874724864959717, -0.009194629266858101, -0.7901968955993652, -0.10377728939056396, -0.27035805583000183, -0.517811119556427, 0.3567342162132263, 0.5786176323890686, -0.1915811449289322, -0.06934275478124619, -0.2130226194858551, -0.34016793966293335, -0.47527578473091125, 0.05561279505491257, 0.2630980908870697, 0.1946885734796524, 0.6020973324775696, -0.15489573776721954, 0.26636406779289246], [-0.45358702540397644, 0.05359058082103729, -0.060908835381269455, -0.47082582116127014, -0.25215470790863037, -0.43203458189964294, 0.336117148399353, -1.1234996318817139, -0.39625996351242065, -0.18885432183742523, -0.4773511588573456, -0.5834491848945618, -0.8041974306106567, -0.03233284875750542, -0.2974599599838257, -0.9043564796447754, -0.6249469518661499, 0.03728284314274788, 0.3625327944755554, -0.3748263716697693, -0.02034085802733898, -0.47443991899490356, -0.40125593543052673, -0.42022979259490967, 0.49018627405166626, 0.014227831736207008, -0.1544836014509201, -0.035724740475416183, -0.36112532019615173, 0.3325954079627991, -0.47392162680625916, -0.15398399531841278], [-7.684759111725725e-06, 0.0671163871884346, 0.0850738137960434, -0.7634678483009338, -0.05599021539092064, 0.0820377767086029, -0.011668573133647442, -0.5294656157493591, 0.055775612592697144, -0.35688498616218567, -0.3435278534889221, 0.012505690567195415, 0.15626747906208038, -0.20731204748153687, -0.4203520715236664, 0.11303956061601639, 0.0006107328226789832, -0.03955667093396187, 0.14076083898544312, -0.6229095458984375, 0.3352411687374115, -0.3644985854625702, -0.5206617712974548, 0.1970280408859253, -0.4625377655029297, -0.3037831783294678, -0.0669155940413475, 0.8035184741020203, -0.1943780928850174, -0.01696850173175335, -0.386742502450943, 0.4922805428504944]], "lstm.weight_hh_l0": [[-0.5198268890380859, -0.46666452288627625, -0.37377414107322693, 0.07904782891273499, -0.23463399708271027, -0.23515461385250092, -0.006987427361309528, 0.2573167085647583, 0.16084839403629303, 0.21521827578544617, 0.012705307453870773, 0.10048505663871765, 0.32686683535575867, -0.3193659484386444, -0.162545308470726, -0.3177144229412079, 0.33521756529808044, 0.22787290811538696, -0.3007918894290924, 0.3599669635295868, 0.08892933279275894, -0.4379781186580658, -0.14848773181438446, 0.38276952505111694, 0.11554786562919617, -0.3678503930568695, -0.009923985227942467, 0.17034678161144257, -0.32528969645500183, 0.008508119732141495, -0.3123598098754883, 0.2975468039512634], [0.1061742901802063, -0.11574710160493851, 0.2053161859512329, -0.09406855702400208, 0.10751035064458847, 0.0034806423354893923, 0.24831975996494293, -0.38801029324531555, -0.053550831973552704, -0.1770576536655426, -0.14152231812477112, -0.40160247683525085, -0.29928746819496155, -0.13392852246761322, 0.2475212663412094, -0.11322776973247528, -0.35464057326316833, -0.6262380480766296, 0.25180596113204956, -0.24120774865150452, 0.16998720169067383, 0.08220364153385162, 0.2471575140953064, -0.43330684304237366, -0.17718708515167236, 0.15828998386859894, -0.5640389323234558, -0.38313472270965576, 0.044974587857723236, -0.09200140088796616, 0.04299258813261986, -0.7670969367027283], [0.37374916672706604, 0.4506063163280487, -0.07675639539957047, -0.3475795388221741, -0.044227343052625656, 0.22128644585609436, 0.31724727153778076, -0.29327288269996643, -0.13370266556739807, -0.1691541224718094, -0.047299839556217194, -0.34489572048187256, -0.2775602340698242, 0.31711986660957336, 0.01944340206682682, -0.12290504574775696, -0.3584681749343872, -0.4031597375869751, 0.33105453848838806, -0.2622251808643341, -0.029219700023531914, 0.44080105423927307, 0.24848327040672302, -0.5129446983337402, 0.0597715862095356, 0.3011229634284973, -0.33234724402427673, -0.26640284061431885, 0.1254962682723999, -0.11992582678794861, -0.12881070375442505, -0.4844931960105896], [0.01258445717394352, -0.2255067378282547, -0.18739336729049683, -0.10942409187555313, -0.12067604064941406, -0.06995769590139389, -0.06962894648313522, 0.1970425695180893, -0.024633336812257767, 0.4539757966995239, 0.11932487785816193, -0.06324106454849243, 0.20727689564228058, -0.2576786279678345, -0.10607223212718964, -0.17458078265190125, 0.10394635051488876, -0.04525395855307579, -0.13832397758960724, 0.014346911571919918, 0.07161428779363632, -0.26561352610588074, 0.05512435361742973, 0.040380243211984634, 0.12880121171474457, -0.2748657166957855, 0.09588503837585449, 0.1683659702539444, -0.38834336400032043, 0.16908471286296844, -0.16665562987327576, 0.4943843483924866], [0.2449575960636139, 0.08131971210241318, 0.22028331458568573, -0.13641321659088135, 0.008561400696635246, 0.15275393426418304, 0.2574354410171509, -0.3482581675052643, 0.09670905768871307, 0.007200953550636768, -0.12246455997228622, -0.2173404097557068, -0.20548512041568756, -0.08573901653289795, -0.34062501788139343, -0.08823461830615997, -0.3720107972621918, -0.42913034558296204, 0.1301080584526062, -0.20077714323997498, 0.17311014235019684, 0.32830560207366943, 0.21868957579135895, -0.17225731909275055, -0.0747654065489769, 0.3235255777835846, -0.3516399562358856, -0.20741327106952667, -0.23707328736782074, -0.2550654709339142, -0.15460383892059326, -0.3426688313484192], [-0.24836041033267975, 0.2113398313522339, -0.24370166659355164, -0.11018597334623337, -0.11484246701002121, -0.14741475880146027, 0.057515501976013184, 0.12538622319698334, 0.13292545080184937, 0.14809578657150269, -0.37310829758644104, 0.1883517950773239, 0.40193554759025574, -0.17420648038387299, -0.14275872707366943, -0.36417579650878906, 0.3543876111507416, -0.09448182582855225, -0.24967151880264282, 0.061438921838998795, 0.3277524709701538, -0.22108007967472076, -0.08375950157642365, -0.02419107034802437, -0.03391258046030998, -0.3677279055118561, -0.5941020250320435, 0.014647341333329678, -0.26402726769447327, 0.34641769528388977, -0.4326576292514801, 0.1795928031206131], [0.16770341992378235, -0.15454241633415222, -0.07037743926048279, -0.31479278206825256, -0.025465093553066254, 0.03738885000348091, 0.11254124343395233, -0.12550199031829834, -0.16105231642723083, 0.32414907217025757, -0.20380552113056183, -0.12646137177944183, 0.26293888688087463, -0.209930881857872, 0.005134175531566143, -0.3135674297809601, 0.07425780594348907, -0.15266862511634827, -0.08579069375991821, -0.060814809054136276, 0.11226242035627365, 0.12748023867607117, 0.07333500683307648, -0.2783667743206024, -0.08637621253728867, -0.016203278675675392, -0.09027299284934998, -0.06788275390863419, -0.18449994921684265, 0.19543994963169098, -0.06692098826169968, 0.13208764791488647], [-0.13777486979961395, -0.2001596987247467, -0.11988406628370285, -0.08789250254631042, -0.22124022245407104, 0.0663151741027832, 0.22102144360542297, 0.2484888881444931, -0.16920629143714905, 0.3682999014854431, -0.1332947164773941, 0.17237524688243866, 0.10799665004014969, -0.15672868490219116, -0.1873205602169037, -0.24270735681056976, 0.09711132198572159, 0.01595887914299965, 0.05655889958143234, 0.019635632634162903, 0.3435302972793579, -0.11623622477054596, 0.0895608589053154, -0.06792160868644714, -0.16852833330631256, -0.08518636226654053, -0.03827400133013725, -0.09167047590017319, -0.344738245010376, 0.06648977100849152, -0.5292536020278931, 0.08291045576334], [-0.5055107474327087, -0.5026695132255554, -0.41863933205604553, 0.1762436181306839, -0.17676155269145966, -0.27833688259124756, -0.23192815482616425, 0.25583428144454956, 0.2077673077583313, 0.4633592665195465, -0.1905895471572876, 0.3512614071369171, 0.11835633218288422, -0.28485819697380066, 0.005947957281023264, -0.23988716304302216, 0.2993968725204468, 0.1863672137260437, -0.30677762627601624, 0.259610652923584, 0.24302265048027039, -0.5210661888122559, -0.2222094088792801, 0.24694864451885223, -0.008020110428333282, -0.3540651798248291, -0.07654581218957901, 0.23582102358341217, -0.27670207619667053, 0.4644748866558075, -0.32945865392684937, 0.4299047887325287], [0.12570369243621826, 0.5320724844932556, 0.37366819381713867, -0.2657357156276703, 0.49516284465789795, 0.23134136199951172, 0.41472455859184265, -0.44898489117622375, -0.3428846001625061, 0.08674485236406326, -0.2989131808280945, -0.361709862947464, -0.35736969113349915, 0.25205931067466736, -0.3309101462364197, -0.24574308097362518, -0.4001951813697815, -0.2812308967113495, 0.4890933036804199, -0.10390526056289673, 0.26430976390838623, 0.151045024394989, 0.37219473719596863, -0.23255597054958344, 0.1712026298046112, 0.1572815626859665, -0.2692198157310486, -0.7807133197784424, 0.3753175735473633, -0.38949325680732727, -0.29405707120895386, -0.5281211137771606], [-0.25220659375190735, 0.30577772855758667, -0.16600774228572845, 0.21239221096038818, -0.11207135021686554, -0.09549710899591446, -0.12024550884962082, -0.056939803063869476, 0.2719689905643463, 0.03271518647670746, -0.46153441071510315, 0.11993741989135742, 0.31741809844970703, -0.19205401837825775, 0.2106548398733139, 0.03592897206544876, -0.03326548635959625, -0.028781436383724213, -0.2866246998310089, 0.1620609015226364, 0.025633303448557854, -0.005234325770288706, -0.3106429874897003, 0.0065704090520739555, -0.46979913115501404, 0.046389080584049225, -0.4103030264377594, 0.24248655140399933, -0.0395183302462101, 0.08475548774003983, 0.03841909393668175, -0.12660793960094452], [-0.07213128358125687, -0.017960958182811737, -0.23580077290534973, -0.36641597747802734, -0.20002906024456024, 0.1499936878681183, 0.1378341168165207, -0.12058540433645248, -0.2664192020893097, 0.18836918473243713, -0.021295949816703796, -0.12672720849514008, 0.03891604766249657, -0.3915940821170807, 0.18080765008926392, -0.17727553844451904, 0.054543960839509964, 0.07419300824403763, 0.08842368423938751, 0.10616538673639297, 0.2794250249862671, -0.0885225385427475, 0.15089337527751923, -0.2491411715745926, -0.06960958987474442, -0.03205980360507965, -0.3106217682361603, 0.07750324159860611, -0.20548008382320404, 0.29355093836784363, 0.0506863109767437, 0.04186621308326721], [-0.1939661055803299, 0.019191928207874298, -0.09667506068944931, -0.06530752032995224, -0.1320718228816986, -0.09990430623292923, 0.0077050370164215565, 0.04194312542676926, -0.14942452311515808, 0.16831330955028534, -0.3012847900390625, -0.07565172761678696, 0.37178730964660645, -0.0046173566952347755, -0.25400978326797485, 0.052891481667757034, 0.02499314770102501, -0.10932474583387375, -0.05786728858947754, -0.05788616091012955, 0.239209845662117, -0.2312086522579193, -0.021328166127204895, -0.14214026927947998, -0.007408203557133675, 0.006878973916172981, -0.04389049485325813, -0.0815846174955368, 0.024991603568196297, 0.2738617956638336, -0.2585407495498657, -0.0389481857419014], [0.03689048811793327, 0.6484808921813965, 0.1479903906583786, -0.10706876218318939, 0.6755689382553101, 0.08382367342710495, 0.28967148065567017, -0.32442253828048706, -0.02839331515133381, -0.7841815948486328, -0.32912251353263855, -0.5060635209083557, 0.010864829644560814, -0.15151219069957733, -0.27549174427986145, -0.1359301209449768, -0.48767226934432983, -0.3749680817127228, 0.3735157549381256, -0.37757840752601624, 0.20623496174812317, 0.5833105444908142, 0.07169840484857559, -0.31191518902778625, -0.2764788568019867, 0.26377132534980774, -0.3651220500469208, -0.40774810314178467, 0.5204921960830688, -0.2624703645706177, -0.14019522070884705, -0.9251662492752075], [0.34606853127479553, 0.39122137427330017, 0.17745251953601837, -0.28064996004104614, 0.4565957486629486, 0.44527000188827515, 0.09250913560390472, -0.24546381831169128, -0.28608280420303345, -0.08360210806131363, -0.015124459750950336, -0.38632428646087646, -0.5232205986976624, 0.2807944118976593, -0.3015442192554474, -0.2957688570022583, -0.40276017785072327, -0.12241103500127792, 0.23668183386325836, -0.38794055581092834, 0.2643391489982605, 0.2241409868001938, 0.42948275804519653, -0.047483935952186584, 0.1321924924850464, 0.3689606785774231, -0.18391524255275726, -0.307609885931015, 0.2948729693889618, -0.43518000841140747, -0.07309675961732864, -0.32207953929901123], [-0.09097541868686676, 0.41142886877059937, 0.07043260335922241, -0.1061527281999588, 0.05225314944982529, 0.3156213164329529, 0.31527024507522583, -0.37529581785202026, 0.15052103996276855, -0.1854185163974762, -0.1725827157497406, -0.2768267095088959, -0.15956799685955048, 0.25359055399894714, -0.0038272447418421507, -0.4964836537837982, -0.31651580333709717, -0.3043704926967621, 0.14521822333335876, -0.2951374351978302, 0.3265529274940491, 0.3055241107940674, 0.07289724797010422, -0.21255025267601013, -0.40078115463256836, 0.33590540289878845, -0.3784622550010681, -0.30375733971595764, 0.08245804160833359, -0.4279163181781769, -0.23463064432144165, -0.1544974446296692], [-0.29275593161582947, 0.14471650123596191, -0.13191679120063782, -0.09857001155614853, 0.21563011407852173, 0.16049076616764069, 0.27142244577407837, -0.2928076982498169, 0.029804648831486702, -0.13211795687675476, -0.16325987875461578, 0.04716523364186287, -0.08182702958583832, -0.046326205134391785, -0.12713803350925446, -0.22656650841236115, 0.39523133635520935, -0.2324003279209137, 0.21383322775363922, -0.1568228304386139, 0.3061700165271759, 0.07000521570444107, -0.03764466196298599, -0.27408838272094727, 0.05113197863101959, 0.2677871882915497, -0.29280713200569153, -0.2404770702123642, 